svm_type c_svc
kernel_type linear
nr_class 2
total_sv 35
rho 0.374218
label 1 0
nr_sv 17 18
SV
1 1:1.2196429e-05 2:-0.153852 3:4.1320996e-05 4:-0.24812928 5:0.31052309 6:0.20589359 7:-0.017135579 8:-0.019780289 9:0.36972883 10:3.2962751e-05 11:-1.4386124e-05 12:0.0022901865 13:2.7983506e-05 14:1.2196406e-05 15:-0.046886764 16:-0.0061156447 17:0.079226479 18:-2.6398391e-05 19:-0.19320896 20:-0.0051523005 21:0.1751641 22:-0.0098847961 23:-0.1292927 24:-0.049029961 25:-0.036680426 26:0.075881533 27:0.47398293 28:0.053482421 29:0.29050377 30:-0.0090765534 31:-2.9412557e-05 32:-0.044483591 33:-1.8993635e-05 34:4.3377597e-05 35:-0.057359409 36:-0.016270377 37:-0.39760625 38:4.831548e-05 39:-2.8465891e-05 40:0.015945753 41:2.1579188e-05 42:-6.1291094e-06 43:0.010432289 44:0.015499668 45:1.8264584e-05 46:0.25805804 47:-0.29547051 48:-2.0971203e-05 49:8.0420878e-06 50:-0.032506481 51:1.9094668e-05 52:2.7770939e-05 53:3.5121455e-05 54:5.2708165e-05 55:0.048911422 56:-4.4639997e-05 57:4.2249674e-05 58:0.40855345 59:0.28444526 60:-2.1941645e-05 61:0.093627661 62:-0.055767909 63:-2.8996159e-05 64:0.055175029 65:-0.0042425012 66:-0.09213388 67:-0.097617954 68:-0.00084807386 69:-4.2299533e-05 70:0.090149105 71:0.042956524 72:-4.5492921e-05 73:-0.0060361018 74:-4.1942403e-05 75:-0.28537485 76:4.0540581e-05 77:-4.1893938e-05 78:-0.031937905 79:-0.036881328 80:0.13276982 81:-0.0090883831 82:0.39420438 83:0.0025086419 84:4.19424e-05 85:-0.21604471 86:0.036814973 87:-1.1164339e-05 88:-3.2346379e-05 89:-0.0025772371 90:-0.037415706 91:-0.19126205 92:-0.12877043 93:6.1457555e-05 94:2.8329248e-05 95:-0.071160696 96:0.28669548 97:0.12599781 98:-0.037378095 99:0.37862882 100:0.043064114 101:0.040163577 102:-0.033119056 103:-0.011609591 104:-0.0070361425 105:-0.11240328 106:-0.15034449 107:0.012458046 108:4.5625304e-09 109:2.4812809e-05 110:-0.048911411 111:0.023968089 112:-0.017467583 113:-0.009631983 114:4.8196456e-05 115:-0.17546231 116:-0.11418048 117:-1.0076821e-05 118:-3.9068327e-05 119:0.079226457 120:0.26425835 121:3.5238663e-05 122:-0.055746894 123:-0.038338356 124:0.015742285 125:0.010315469 126:-0.083505377 127:-0.14445035 128:3.7907703e-05 129:-0.046350993 130:-4.201943e-05 131:-0.070362337 132:-0.029296838 133:0.039259944 134:-4.3753691e-05 135:-0.039445393 136:-0.26641005 137:0.033855196 138:0.26425835 139:-0.0077450741 140:-0.19389947 141:-0.030387295 142:-5.2246993e-05 143:0.044130858 144:-6.4649073e-05 145:0.41348803 146:0.066501915 147:-0.39419442 148:0.01533313 149:0.28518581 150:-0.019617716 151:1.8072345e-05 152:0.49902773 153:0.056512609 154:-2.6048023e-05 155:-0.02738907 156:0.033544444 157:-0.12741213 158:-0.10919701 159:-1.8556064e-05 160:-0.0029844914 161:0.042644225 162:4.6541874e-05 163:6.9069712e-05 164:0.017309282 165:0.020790758 166:3.9155973e-05 167:-0.041929089 168:-0.026931167 169:-0.11857402 170:-0.023968125 171:0.02887384 172:-0.17640492 173:-0.032941166 174:-4.0690102e-05 175:0.0034657195 176:0.0020201679 177:4.1320996e-05 178:-4.0998755e-05 179:-6.9646535e-06 180:2.6521106e-05 181:-0.15963431 182:-0.040666696 183:-0.04537867 184:-0.0098847393 185:-0.24413605 186:-0.028703671 187:0.008065097 188:0.0041399216 189:5.5717221e-05 190:0.35646477 191:-0.086077265 192:-2.160652e-05 193:-0.071153834 194:-3.9205108e-05 195:0.037654564 196:0.003712076 197:-0.0060055857 198:7.0607639e-05 199:-3.9691546e-05 200:-3.1063031e-05 201:4.0940584e-05 202:-2.3338034e-05 203:3.9837345e-05 204:2.7326503e-05 205:1.7520191e-05 206:-0.018781519 207:0.048358139 208:2.9657756e-05 209:3.1353833e-05 210:2.0282854e-05 211:-0.40603602 212:-0.036772951 213:0.29049885 214:0.015742298 215:-0.21131675 216:-0.05018292 217:-0.0037456036 218:0.016808759 219:0.0012369348 220:-2.8915338e-05 221:-0.23058227 222:-0.1679448 223:0.2109758 224:0.021684283 225:-0.15407465 226:2.7340471e-05 227:9.757145e-05 228:-3.8733571e-05 229:-5.2287047e-05 230:-0.12907402 231:-3.3275242e-05 232:0.23298639 233:0.22831158 234:-0.31107289 235:-0.22564559 236:0.22510256 237:0.14901485 238:-0.017125199 239:-2.7774751e-05 240:0.021750325 241:0.02071863 242:1.2669155e-05 243:-0.12671365 244:-0.25825167 245:-6.2697953e-05 246:0.0022899846 247:0.028329473 248:-0.028329503 249:-0.010599708 250:4.7441503e-05 251:-0.19324316 252:0.19615096 253:0.29674932 254:-1.0172526e-05 255:0.061774194 256:0.31381124 257:3.2268723e-05 258:-0.31837609 259:-2.2746461e-05 260:0.20530473 261:-0.054297395 262:-0.0091902399 263:0.022395976 264:-0.0044121477 265:4.5776367e-05 266:-2.5934954e-05 267:-0.035524961 268:-2.7693577e-05 269:-2.4633819e-05 270:0.0025846504 271:1.2227425e-05 272:-0.017209491 273:-1.5469266e-05 274:2.5463083e-05 275:-0.048353963 276:0.024649598 277:-4.1320996e-05 278:-6.8574946e-06 279:-0.015541877 280:4.1578205e-05 281:-0.0012078885 282:-0.014892424 283:-0.20331405 284:0.018047297 285:-5.2857999e-05 286:0.044265229 287:-1.5627433e-05 288:-0.007744987 289:0.0032934446 290:-3.5213612e-05 291:-4.6729197e-05 292:2.3208275e-05 293:-6.5135951e-05 294:-0.028528515 295:2.7128041e-05 296:-0.0061157318 297:-0.19624069 298:0.0404648 299:0.038183264 300:0.071500719 301:0.0035023626 302:-2.8772251e-05 303:-3.560384e-05 304:-0.19056293 305:-0.044906911 306:-3.0306843e-05 307:0.055497054 308:-2.3958684e-05 309:-0.057363238 310:-1.0922322e-05 311:2.1105539e-05 312:0.019055692 313:0.0051522888 314:7.1207687e-05 315:1.0172525e-05 316:-2.9487062e-05 317:3.2168351e-05 318:-0.14148712 319:-0.22761904 320:5.4361924e-05 321:0.10175472 322:0.01411954 323:-2.8996161e-05 324:1.7316783e-05 325:-2.0870453e-05 326:0.38981274 327:0.043477632 328:-0.37904799 329:-0.17621751 330:0.27812201 331:0.027577076 332:-2.5973608e-05 333:0.00037783556 334:-0.0021033583 335:-0.12668256 336:-0.27501389 337:1.1433152e-05 338:6.4336702e-05 339:0.15468302 340:0.25752541 341:0.15407503 342:-0.040472664 343:-1.7008193e-05 344:6.173057e-05 345:2.1832513e-05 346:0.062474471 347:-0.040247336 348:1.9451218e-05 349:-0.35650104 350:-0.02620874 351:8.0144782e-06 352:-0.028026983 353:7.1930649e-06 354:-0.033119198 355:-0.01348651 356:-2.0872187e-05 357:-0.24812928 358:0.49902773 359:0.05462369 360:3.4646397e-05 361:0.0310963 362:-0.071160696 363:0.16949697 364:0.21509399 365:0.022457633 366:5.9379967e-05 367:-7.4976747e-06 368:-0.18915379 369:0.12479789 370:-0.040004279 371:1.9367913e-05 372:-1.865523e-05 373:-0.033945419 374:-0.18915379 375:2.4444662e-05 376:5.5717221e-05 377:0.27563784 378:2.5678175e-05 379:-1.268321e-05 380:-2.4468784e-05 381:0.0050838944 382:4.8017391e-05 383:2.9603187e-05 384:3.9791168e-05 385:-0.0053926241 386:2.5431248e-06 387:0.064737484 388:0.0043869265 389:2.774229e-05 390:0.1212988 391:-1.3245053e-05 392:-1.6084174e-05 393:-2.5431389e-06 394:2.4917499e-05 395:-0.17995693 396:-0.10064875 397:4.4716537e-05 398:0.15940893 399:-3.0210544e-05 400:-0.12559739 401:0.025635593 402:-0.0076347943 403:4.3158372e-05 404:0.071500711 405:0.015541975 406:0.015617389 407:0.0028538608 408:4.5492921e-05 409:-0.0050209602 410:-0.041815948 411:-0.013828159 412:-0.032941151 413:0.011509635 414:3.487592e-05 415:-0.015499758 416:-5.5271947e-05 417:-9.8806486e-06 418:0.030866297 419:-7.605501e-05 420:0.0028540723 421:-0.28157964 422:-3.4019071e-05 423:0.045201063 424:-0.37836814 425:-0.032984953 426:-0.018741999 427:0.013271337 428:0.0033854649 429:0.015291276 430:0.39792588 431:-2.2662512e-05 432:-5.0238923e-05 433:0.17654577 434:0.015617365 435:0.11012459 436:-0.015602605 437:-2.341638e-05 438:-0.03063155 439:3.3438817e-05 440:-2.7612192e-05 441:-0.0055907676 442:3.1508156e-05 443:-0.20331405 444:-0.0015315556 445:0.3842164 446:0.26874337 447:0.038366832 448:3.4479603e-05 449:3.713061e-06 450:2.6872534e-05 451:4.660866e-05 452:-3.5156168e-05 453:-0.15035342 454:3.6426067e-05 455:-5.3409185e-06 456:0.058030847 457:0.058751151 458:5.3115255e-05 459:-0.0074086078 460:0.049797375 461:0.050426483 462:2.7565731e-05 463:2.4280054e-05 464:0.2101921 465:0.1539465 466:0.028173935 467:-4.7713376e-05 468:0.021536173 469:0.36552209 470:0.055140648 471:-0.15358095 472:0.006609451 473:0.16579142 474:-0.37301257 475:-0.1180537 476:0.064902619 477:5.6179611e-05 478:1.9153602e-05 479:-0.042174835 480:-3.4920206e-05 481:0.020381324 482:4.886687e-05 483:0.52835131 484:-0.045602296 485:-2.8796733e-06 486:0.035247911 487:-2.2809209e-05 488:0.21460712 489:2.4917499e-05 490:-4.4341014e-05 491:2.5934954e-05 492:5.3345178e-05 493:3.0517578e-05 494:-0.006887618 495:3.0626066e-05 496:-0.30385768 497:-0.039259948 498:-0.029001035 499:0.035838321 500:-3.4496716e-05 501:3.2622236e-05 502:4.3027259e-05 503:-0.091447718 504:-0.077061884 505:-0.032506492 506:-0.22761904 507:0.18118389 508:4.1320996e-05 509:0.027992181 510:-0.21502583 511:-2.7436907e-05 512:-0.16666052 
0.2221542820953406 1:0.02262482 2:-0.016771805 3:-0.067614138 4:-0.023787113 5:0.098650537 6:0.097527213 7:0.25504458 8:-0.0028528054 9:0.091717586 10:-0.13422142 11:-0.019184796 12:-0.0544466 13:-0.062852763 14:-0.012159964 15:-0.05108289 16:-0.22905228 17:0.11802672 18:-0.05247562 19:-0.0068011009 20:-0.037027493 21:0.017532155 22:0.059806608 23:0.058622491 24:-0.038798697 25:-0.02324008 26:0.10667831 27:0.45981076 28:0.26294011 29:0.21192433 30:-0.15012892 31:-0.007717554 32:-0.016708402 33:-0.048417479 34:0.021256253 35:-0.10428221 36:-0.034490783 37:-0.21532573 38:0.0061280993 39:0.057636581 40:0.035648376 41:0.073441699 42:0.025502548 43:0.02825853 44:0.070833087 45:-3.1615731e-05 46:0.090603851 47:0.048444092 48:-5.7140682e-05 49:-0.24407212 50:0.092867635 51:0.014779651 52:0.11491077 53:-0.021014683 54:8.9350779e-06 55:-0.13513453 56:0.016403895 57:-0.002769165 58:-0.044169538 59:-0.058211152 60:0.010092845 61:0.13149565 62:-0.15003555 63:0.0093067996 64:0.27416652 65:-0.0989042 66:-0.19810845 67:0.11078074 68:0.021285139 69:-0.02312775 70:-0.11196515 71:0.13115413 72:0.0020263693 73:0.0063397218 74:-0.092976496 75:0.11307257 76:-0.080825873 77:-0.0072629754 78:0.060789783 79:-0.16316888 80:-0.25667226 81:0.13579389 82:0.40090057 83:-0.0063789245 84:0.08727745 85:0.080900408 86:0.034092113 87:-0.021069365 88:0.045964636 89:-0.066796139 90:0.046646018 91:0.29644281 92:0.083229899 93:-0.022173874 94:0.014040917 95:-0.095581345 96:-0.023884065 97:-0.18375789 98:-0.055812735 99:0.34179729 100:0.32097241 101:0.051647071 102:-0.028670281 103:-0.077033386 104:-0.10564215 105:-0.085464574 106:-0.0075152591 107:0.035819829 108:0.048522256 109:-0.060279351 110:-0.045393296 111:-0.10416314 112:0.1251654 113:0.087088682 114:0.05569968 115:0.1055957 116:-0.12900585 117:-0.0090394374 118:-0.011867912 119:0.12971993 120:0.0637848 121:0.028475156 122:-0.12514372 123:-0.023219937 124:-0.084681042 125:-0.0055841561 126:-0.10884037 127:-0.18351892 128:-0.081793785 129:-0.029043807 130:-0.10903402 131:-0.11770131 132:0.031781722 133:0.15326089 134:0.018228078 135:0.32078719 136:0.16342907 137:0.054665271 138:-0.066511363 139:-0.0054270145 140:0.036712274 141:-0.038121719 142:0.10348836 143:0.109405 144:-2.3754807e-05 145:0.091480479 146:0.32203737 147:-0.22633342 148:-1.9161915e-05 149:0.057074748 150:-0.23986891 151:-0.013598121 152:0.21791342 153:0.22189489 154:0.050639365 155:-0.053115524 156:-0.074186772 157:0.22687159 158:0.071881391 159:-0.004914599 160:-0.056676183 161:0.13605812 162:2.6318123e-05 163:0.070651583 164:-0.013876681 165:0.11236195 166:-0.037110843 167:0.038710196 168:-0.087758183 169:-0.16412377 170:-0.011993798 171:-0.26013416 172:-0.21202043 173:-0.07313022 174:0.035287328 175:0.069011606 176:-0.063724369 177:0.067523085 178:0.0084561557 179:0.013699663 180:0.023883989 181:-0.15898357 182:0.051023915 183:-0.062499885 184:0.048318487 185:-0.11485296 186:-0.020989321 187:0.0076056193 188:0.16260563 189:0.0046688854 190:-0.093163401 191:-0.14529619 192:-0.019277636 193:-0.14916226 194:0.09238641 195:0.062712833 196:0.075246349 197:-0.28496256 198:-0.28949597 199:0.056477871 200:3.3371376e-05 201:-0.023547569 202:-2.8973713e-05 203:0.037799034 204:2.0628389e-05 205:-0.11740022 206:-0.099511355 207:0.1597155 208:-0.11836199 209:0.083232127 210:-0.056336585 211:-0.13087185 212:-0.056311432 213:0.16587952 214:0.055320602 215:-0.126987 216:-0.039612338 217:-0.056289971 218:-0.031033272 219:0.021235755 220:0.0038071435 221:-0.014423649 222:-0.12449788 223:0.022196343 224:0.18380563 225:-0.11391395 226:2.7303686e-05 227:-0.0092160236 228:0.015003804 229:-0.053827416 230:0.1409727 231:-0.01639221 232:0.045754019 233:-0.10623511 234:0.036701255 235:-0.13731611 236:0.014295436 237:0.025551829 238:-0.050404575 239:0.051899876 240:0.019511573 241:-0.1354599 242:0.022969173 243:-0.36154816 244:0.094386481 245:0.020635948 246:0.13223375 247:0.020371262 248:-0.018059662 249:-5.0190276e-05 250:0.020266447 251:-0.12821771 252:-0.031603511 253:0.03918881 254:-0.061060384 255:-0.25587812 256:0.06696701 257:-0.0082924627 258:-0.24953736 259:-0.011804142 260:0.069552496 261:-0.28814191 262:-0.28552806 263:-0.092802085 264:0.01686142 265:-0.061515898 266:-0.079175748 267:0.13388617 268:0.035603922 269:-0.12444589 270:0.2225571 271:-0.0065639331 272:-0.0074434034 273:0.0258433 274:-0.056955695 275:0.0074288324 276:0.067391083 277:-0.031511955 278:-0.058227591 279:0.098185495 280:0.0018281238 281:-0.016255213 282:-0.097119704 283:-0.1564513 284:-0.0059834518 285:0.0094412398 286:0.047527958 287:-0.0084998747 288:-0.019361189 289:-0.017557284 290:-0.10827521 291:0.041415773 292:0.030534988 293:0.031453833 294:-0.018822363 295:-0.086383648 296:-0.22475901 297:-0.11665677 298:0.13616315 299:0.014681131 300:0.12149044 301:0.10763311 302:-0.11348546 303:-0.039277818 304:-0.1426719 305:-0.098835737 306:-4.1330641e-05 307:0.060169894 308:-2.4951982e-05 309:-0.10239735 310:0.096115798 311:0.011334869 312:0.013422536 313:0.067218661 314:-0.019968687 315:0.056240875 316:-0.13614449 317:3.1075306e-05 318:-0.15600272 319:-0.19982931 320:-0.027163023 321:0.15097587 322:-0.18494269 323:-0.077572532 324:0.085406132 325:0.0098138545 326:0.038405839 327:0.08591266 328:-0.24006286 329:-0.13912804 330:0.037883118 331:0.1295628 332:-2.9448745e-05 333:0.32067549 334:0.17082965 335:-0.087933145 336:-0.083147436 337:0.084295608 338:-0.084093705 339:0.041795716 340:-0.081724681 341:0.36132294 342:0.092044495 343:-0.077850096 344:-0.20730193 345:-0.023029707 346:0.085499629 347:-0.12329021 348:-0.21581216 349:-0.043227606 350:-0.028724851 351:0.082570724 352:0.032910526 353:0.019150868 354:-0.042671718 355:-0.042878821 356:-0.035647485 357:-0.021410424 358:0.22013955 359:0.036084272 360:0.024336437 361:-0.11267388 362:0.024591563 363:0.24493343 364:0.029459665 365:-0.030643295 366:-0.0077011213 367:0.094390899 368:-0.088219665 369:-0.30080235 370:-0.11523015 371:0.0053112847 372:-0.071538769 373:0.0460108 374:0.054529417 375:0.024474511 376:0.16048436 377:0.091097549 378:0.015136139 379:-0.035552155 380:0.042378936 381:0.08690571 382:0.0038317521 383:0.05319849 384:0.060728699 385:-0.03483041 386:-0.06113141 387:0.080694377 388:0.33400351 389:0.021798253 390:-0.12981182 391:0.08798936 392:0.064406246 393:-0.036759395 394:0.10627687 395:0.14044668 396:0.17535828 397:2.3355429e-05 398:0.18245649 399:-0.03423804 400:-0.081049569 401:0.11406954 402:0.08839187 403:-0.20323803 404:0.11372872 405:0.29154131 406:0.094749138 407:0.070869423 408:-0.044021957 409:-0.085745208 410:-0.032912336 411:-0.20116282 412:-0.072728835 413:-0.10567796 414:0.029937919 415:0.049226183 416:0.20509617 417:0.044497143 418:0.0031339226 419:-0.04883315 420:0.025406972 421:-0.033157356 422:0.13340887 423:0.090166628 424:-0.33291078 425:0.010062248 426:0.1373592 427:0.0049507413 428:4.1751722e-05 429:-0.015241219 430:0.23697434 431:0.099363714 432:0.038501251 433:-0.067660742 434:0.13539487 435:0.1130617 436:-0.019576559 437:-2.5617399e-05 438:-0.031425856 439:-0.11638504 440:0.076419882 441:-0.34918335 442:0.10614564 443:-0.09891402 444:-0.074989624 445:-0.055693787 446:0.059309229 447:0.21459085 448:0.11889613 449:-0.1129337 450:-0.0993637 451:2.2241657e-05 452:0.03190431 453:-0.011494607 454:0.073756501 455:-0.0050778603 456:0.0058928235 457:-0.058268923 458:-0.041654319 459:0.055289764 460:0.039775115 461:-0.15531318 462:0.040359113 463:-3.2790147e-05 464:0.06238148 465:0.04593328 466:0.015078258 467:0.080067031 468:-0.056178417 469:0.14082491 470:-0.091096386 471:-0.044816468 472:0.18328373 473:0.19476885 474:-0.091791511 475:-0.090186395 476:0.14791018 477:0.1116242 478:0.0045421687 479:-0.017151671 480:-0.024012364 481:-0.019769117 482:-0.01949434 483:0.25037983 484:-0.089072354 485:-0.027416799 486:0.090219714 487:0.051095124 488:0.15593334 489:-2.6680606e-05 490:-0.032357026 491:-0.06349618 492:0.11584037 493:-0.033911765 494:-0.19661525 495:0.14739965 496:-0.39672369 497:-0.074802659 498:0.068401709 499:0.037661854 500:-0.0091115888 501:0.025606191 502:0.0016464647 503:-0.34306598 504:-0.29633686 505:-0.008376589 506:-0.084631197 507:-0.09341196 508:-0.0025303243 509:-0.037872639 510:-0.098313093 511:0.11545398 512:0.10673784 
1 1:0.0076561682 2:-0.17337617 3:0.033445381 4:-0.1070361 5:0.10693265 6:0.151188 7:0.044044171 8:-3.715932e-05 9:0.005012041 10:-0.033159401 11:0.036848422 12:0.060266834 13:-1.5941843e-05 14:0.006703611 15:-0.036205869 16:-0.1015024 17:0.022977186 18:0.0068064742 19:-0.05068085 20:-0.046216842 21:0.13358447 22:-0.006329461 23:-0.10515602 24:-0.082686774 25:-0.053400293 26:0.18715492 27:0.37456074 28:-0.090045035 29:0.28123289 30:-0.01159044 31:-0.00410453 32:-0.02274842 33:-0.0040461631 34:-0.0052791466 35:-0.034608718 36:-0.01176084 37:-0.20306768 38:1.9766936e-05 39:-3.3488559e-05 40:-0.0057204277 41:0.06205133 42:-9.536061e-06 43:-0.0078997957 44:0.017590346 45:-1.0661034e-05 46:0.12787935 47:-0.249248 48:-0.013181969 49:-0.026732258 50:-0.0090766503 51:-0.0047678747 52:-0.10121521 53:-4.4675959e-05 54:-2.1199177e-05 55:0.062423769 56:0.0067035756 57:1.2984486e-05 58:0.079279944 59:0.16256119 60:-0.0056598238 61:0.14915338 62:-0.043451179 63:0.077101007 64:0.10582364 65:-0.0038305761 66:-0.20333414 67:-0.080986664 68:-0.0057300539 69:9.5746345e-06 70:-0.123609 71:0.0061823488 72:0.0068219635 73:-0.011274992 74:-1.6673646e-05 75:-0.084706731 76:-0.040384471 77:-0.048048027 78:-0.029464493 79:-0.015060569 80:0.13228171 81:0.094487615 82:0.28410175 83:-0.12736805 84:0.0047732005 85:-0.11094913 86:0.017359838 87:-0.0076696575 88:0.051959414 89:-0.0027352364 90:0.018216629 91:-0.04736821 92:0.18421736 93:-0.022209542 94:0.10227647 95:0.035763115 96:0.036570538 97:-0.26154813 98:-0.12990466 99:0.25968811 100:4.3078653e-05 101:0.07235375 102:3.5690151e-05 103:-0.059541095 104:-0.042724609 105:-0.094418757 106:-0.16410911 107:0.043190125 108:0.0065952111 109:0.015217884 110:-0.069171913 111:0.077104583 112:0.022295181 113:-0.041939072 114:0.0055684038 115:-0.13250878 116:-0.21050867 117:-3.7753496e-05 118:4.777806e-05 119:0.030504454 120:0.15416807 121:0.013255188 122:-0.027611246 123:-0.046610992 124:-0.015340955 125:-0.023516117 126:-0.017417228 127:-0.18225497 128:-0.062051337 129:-0.13598424 130:-0.019487973 131:-0.0098298769 132:-0.13635287 133:0.016853811 134:-0.011047923 135:-0.061542284 136:0.17800429 137:0.060610533 138:0.17755249 139:-0.016409492 140:-0.035682105 141:-0.018451456 142:-0.057634402 143:0.02567064 144:5.0862618e-06 145:0.099800192 146:0.24354541 147:-0.270812 148:0.028924542 149:0.17267823 150:-0.022449287 151:2.6586617e-05 152:0.26307085 153:-0.043224432 154:4.3251981e-05 155:-0.036247302 156:-0.021760097 157:-0.096191004 158:-0.24158888 159:-0.0044946289 160:-0.062096808 161:0.075889461 162:4.4018634e-05 163:-0.0088715553 164:-0.013519691 165:0.070557944 166:0.030246051 167:0.037158705 168:0.062171571 169:-0.18242811 170:-0.077914439 171:-0.098973438 172:-0.11257903 173:-0.057523835 174:-1.7866158e-05 175:0.021924954 176:-0.028844509 177:0.064935051 178:-0.010697229 179:0.007230456 180:2.2422242e-05 181:-0.42306089 182:-0.031415097 183:-0.094502047 184:-0.0050673494 185:-0.1171478 186:0.079300649 187:-2.4932129e-05 188:0.0037096273 189:-0.041699529 190:0.10247158 191:-0.090532452 192:5.1086812e-05 193:-0.1411147 194:0.062939145 195:0.094035141 196:0.030604219 197:-0.17712131 198:-0.0043969634 199:0.0070800316 200:4.2968564e-05 201:0.017724408 202:-0.0065952474 203:0.021317115 204:-1.7719292e-05 205:-0.067100875 206:-0.18480951 207:0.097691894 208:0.028680073 209:0.0091153467 210:3.4395074e-05 211:-0.19211963 212:-0.10419032 213:0.27921733 214:0.014701609 215:-0.15486993 216:-0.052422244 217:0.02591476 218:0.012196841 219:0.022209607 220:2.8847031e-05 221:-0.13697606 222:-0.15844011 223:0.3756392 224:0.047057372 225:-0.21756019 226:4.3293472e-05 227:-2.5712065e-05 228:0.011503708 229:0.017154291 230:0.11352762 231:-3.5021909e-05 232:-0.08883816 233:0.093931258 234:-0.14374772 235:-0.3282721 236:0.091773391 237:0.22596465 238:-0.096591301 239:-0.01339847 240:0.047057357 241:0.016786242 242:0.025996478 243:-0.13464682 244:-0.14274931 245:-0.040036112 246:-0.035024315 247:-3.6105732e-05 248:0.061316229 249:-2.4449446e-05 250:-0.062939145 251:-0.28449771 252:0.060042385 253:0.24924798 254:-0.013557925 255:0.11952834 256:0.15645815 257:-1.0789593e-05 258:-0.55212754 259:0.071971036 260:0.32284811 261:0.043852385 262:0.005960302 263:0.027202923 264:-0.080136374 265:3.0231167e-05 266:4.5168614e-05 267:0.079779655 268:-0.024403395 269:-0.041491933 270:-2.5156611e-05 271:8.6658265e-06 272:0.020064171 273:-0.0071134842 274:5.1942425e-05 275:-0.041491706 276:-0.077278718 277:1.5195173e-05 278:-0.007082894 279:-0.038418606 280:-2.2751678e-05 281:-3.7045931e-05 282:-0.045048837 283:-0.11760597 284:-0.011233058 285:-4.2640135e-05 286:0.073562384 287:5.8011574e-05 288:-0.020572485 289:0.012986985 290:0.026378313 291:3.7168124e-05 292:0.025121313 293:0.004494762 294:0.011113347 295:-0.013511576 296:-0.10229774 297:-0.060042407 298:0.070489816 299:0.043674476 300:0.071564183 301:0.011735796 302:-0.015938373 303:3.9478055e-05 304:-0.11116026 305:-0.032053538 306:-0.027821187 307:0.14819647 308:-1.7570756e-05 309:-0.12084576 310:0.029990418 311:0.054137558 312:-0.0038307291 313:0.056439046 314:-0.01537206 315:-1.0631471e-05 316:-1.5894584e-05 317:-3.9793144e-05 318:-0.05521135 319:-0.23871779 320:-0.019027282 321:0.35740006 322:-0.058715418 323:-4.614014e-05 324:3.6235117e-05 325:3.6263085e-05 326:0.13430773 327:0.010007289 328:-0.39647371 329:-0.35102376 330:0.2064417 331:2.2105774e-05 332:-4.4817814e-05 333:0.039568227 334:-0.070833527 335:-0.051773872 336:-0.12044404 337:-0.163473 338:-0.020076223 339:0.042632256 340:0.18995206 341:0.25940746 342:-0.034832068 343:-0.0094315065 344:0.053873036 345:-0.012966734 346:0.23878513 347:-0.058960348 348:-0.010544815 349:-0.12710017 350:-0.038915437 351:-2.4555291e-05 352:-0.036142077 353:-4.6121182e-05 354:-3.2034906e-05 355:-0.027299728 356:-0.021910099 357:-0.10252604 358:0.26387954 359:0.033490811 360:-0.055964734 361:0.044987909 362:-0.04078031 363:0.20335761 364:0.37680459 365:0.045955878 366:0.050608266 367:0.048682433 368:-0.056559015 369:-0.051655017 370:-0.11921328 371:-0.007396311 372:-0.029764993 373:4.2551754e-05 374:-0.058696982 375:1.8480816e-05 376:-2.8050274e-05 377:0.12611957 378:0.054137576 379:-0.05707176 380:-0.014451644 381:0.060292084 382:2.2419426e-06 383:0.020846011 384:3.7981041e-05 385:-0.011735799 386:-0.057947196 387:0.061998084 388:0.055064473 389:-0.016139796 390:0.041588053 391:-2.3970784e-05 392:0.0037904833 393:-0.015781719 394:3.2994718e-05 395:0.081382513 396:0.13788727 397:-4.9875554e-05 398:0.431968 399:-0.0056596631 400:-0.26465589 401:-0.043570455 402:0.048452087 403:-0.015819818 404:0.060475383 405:0.045608677 406:-0.023685193 407:1.5425727e-05 408:-1.8965544e-05 409:-0.022723498 410:-0.062058091 411:-0.0079105198 412:-0.018421473 413:-0.10340926 414:3.6088732e-05 415:-0.016842032 416:0.03467511 417:0.022470659 418:3.9757299e-05 419:-3.9768434e-05 420:-0.003239735 421:-0.015066095 422:3.7800317e-05 423:0.069232509 424:-0.25967422 425:-0.012247089 426:0.077340119 427:0.010873511 428:-0.017260738 429:-0.025432684 430:0.20416977 431:0.091004916 432:0.0041044448 433:0.046348259 434:2.2433855e-05 435:0.16200005 436:-0.031852946 437:-3.4308719e-05 438:0.025098633 439:-3.5814322e-05 440:0.033089183 441:-0.052695133 442:-0.010766452 443:-0.13520564 444:-0.03169528 445:0.10147258 446:0.20371324 447:0.086207576 448:0.057947181 449:-0.05247549 450:0.015217917 451:2.7690985e-05 452:0.049069073 453:-0.16421129 454:-1.8136141e-05 455:-2.8538967e-05 456:0.071236581 457:0.010050887 458:0.0091844499 459:-0.0064750263 460:0.055250283 461:0.16286673 462:0.022470605 463:-3.9529146e-05 464:0.070365131 465:0.17249943 466:-0.13610739 467:-0.004198282 468:-0.0074658762 469:0.37431023 470:0.13669142 471:-0.04322521 472:0.12260465 473:0.20261237 474:-0.089915201 475:-0.14229949 476:0.037844852 477:0.0041319188 478:0.029143132 479:5.143023e-05 480:-0.0095687797 481:0.039947711 482:0.01068437 483:0.22907493 484:-0.071599454 485:-0.014881006 486:0.13291404 487:0.022915339 488:0.23408726 489:0.005352099 490:-4.9011524e-05 491:-4.0500916e-05 492:0.046870992 493:-0.032552492 494:-0.057950787 495:0.0045186379 496:-0.21053155 497:-0.032919914 498:-0.028352333 499:0.075275481 500:-0.020723177 501:0.0099713141 502:0.011503716 503:-0.15681599 504:-0.26168764 505:-0.013600266 506:-0.25630394 507:0.02184863 508:-1.631044e-05 509:0.022074746 510:-0.089561634 511:-5.0830316e-05 512:0.18547988 
0.01254658268331426 1:2.3446515e-05 2:-0.0042751632 3:0.1836358 4:-0.020176867 5:-0.0026866312 6:0.14834924 7:0.11260578 8:-2.0165446e-05 9:-0.046536226 10:-0.17754966 11:-0.00078190712 12:-4.7353358e-05 13:-0.054467879 14:-0.028256604 15:-0.0067645297 16:3.6016154e-05 17:1.808277e-05 18:0.17211188 19:-4.845094e-05 20:0.2149058 21:2.5949281e-05 22:-2.9983079e-05 23:-0.0048095966 24:0.021245889 25:0.050167121 26:0.0049298643 27:0.066214703 28:0.032128692 29:0.16539313 30:-0.37638688 31:0.1203572 32:1.1654093e-05 33:-2.3600853e-05 34:-0.21944317 35:-0.051224034 36:2.04808e-05 37:-0.058147084 38:0.020413181 39:0.042213593 40:0.27684674 41:0.0055141109 42:-0.026761273 43:-0.22288312 44:-4.690592e-05 45:-1.9372452e-05 46:0.0024683552 47:0.011927882 48:4.5673973e-05 49:-0.032397088 50:0.056846246 51:-1.7811852e-05 52:0.13829508 53:-2.8329448e-05 54:5.1545412e-05 55:-0.16124563 56:0.035911549 57:-0.084206723 58:-0.053154204 59:0.073988847 60:0.031972334 61:0.048454732 62:-0.061764088 63:2.5030111e-05 64:0.24822095 65:-0.044705506 66:-0.027688125 67:6.5436016e-06 68:-0.02521877 69:-0.0073208176 70:0.025840666 71:0.072844118 72:0.022465603 73:-3.8173079e-05 74:-0.03872807 75:-3.166679e-05 76:-0.065730117 77:-0.2649104 78:-0.018539637 79:-0.12886471 80:-0.2556909 81:0.053062938 82:0.10831971 83:2.0790578e-05 84:-0.024575198 85:-0.07580892 86:0.051161792 87:-0.094323903 88:0.19033939 89:-0.024976121 90:0.011388376 91:-0.16046946 92:0.14411104 93:6.4560245e-06 94:-7.0387847e-05 95:-0.12860577 96:0.027532173 97:2.0024736e-05 98:-0.014780129 99:0.048572075 100:0.11995269 101:0.04052487 102:2.4004239e-05 103:0.23546322 104:-0.038601141 105:-0.00054320326 106:-0.0021828467 107:0.023408731 108:0.013998665 109:-4.0705578e-05 110:-0.053509686 111:-3.1150674e-05 112:0.04044963 113:0.17036006 114:0.062358558 115:0.10322402 116:-0.096040718 117:0.005949663 118:-0.1663979 119:-0.002684019 120:3.9555896e-05 121:0.0067797592 122:3.8423743e-05 123:-0.02964619 124:-0.066713944 125:0.040360082 126:-0.063549578 127:-0.16965584 128:-0.090016089 129:-1.5881851e-05 130:-0.034629386 131:-2.8940345e-05 132:4.4938653e-05 133:0.0094971992 134:0.006485004 135:0.04629482 136:0.047233481 137:-0.083909854 138:-0.25528562 139:-1.6127251e-05 140:-0.038807292 141:-0.086239792 142:-3.9515715e-05 143:0.12189652 144:-9.1042575e-06 145:3.0458363e-05 146:0.077323832 147:-0.049813084 148:1.0138474e-05 149:0.015348587 150:-0.14995186 151:0.16217156 152:0.019543298 153:0.18559302 154:3.1876236e-05 155:-0.175714 156:0.033564691 157:0.075589471 158:-0.12895158 159:-0.0053789834 160:-0.2252619 161:0.031030232 162:-1.9872386e-05 163:0.038207963 164:-5.2983596e-05 165:0.045281928 166:-5.028717e-05 167:0.061950762 168:-0.043887321 169:-0.063332833 170:-0.26338261 171:-3.9187998e-05 172:-0.35271221 173:-0.0095905391 174:-0.0059492183 175:0.0067750625 176:0.12828496 177:0.020534961 178:-0.028715214 179:-0.077397093 180:-4.3204738e-05 181:0.12164273 182:0.0015616851 183:-4.0270526e-05 184:0.10178681 185:-0.056662377 186:0.03282648 187:3.6575988e-05 188:0.031459522 189:0.044203151 190:-0.01657428 191:-0.12105633 192:-0.07836432 193:-0.086773627 194:-0.11012863 195:0.023674067 196:0.0029073716 197:-0.027216045 198:-0.114974 199:-0.03728256 200:-0.023223678 201:-0.048407849 202:-0.023799138 203:-0.021531856 204:4.6476511e-05 205:-0.010267355 206:1.3664072e-05 207:0.032145929 208:-0.14731681 209:0.10337454 210:-0.023397326 211:2.0773308e-05 212:-0.11757652 213:0.11110405 214:-4.6605161e-05 215:-0.044786315 216:-0.19468236 217:-3.0563369e-05 218:-2.127426e-05 219:-0.17014052 220:0.028715145 221:-0.22586243 222:-3.7861799e-05 223:0.046786793 224:0.12924795 225:0.046399429 226:2.8527811e-05 227:-0.34172609 228:0.027588217 229:-4.1078682e-05 230:-0.21451552 231:0.11509046 232:3.8124046e-05 233:-0.073665746 234:-2.8050308e-05 235:-0.06705685 236:4.2627598e-05 237:0.040680088 238:5.555282e-05 239:0.084065415 240:0.0099329455 241:-0.10450028 242:0.13488881 243:-0.1365793 244:0.37578043 245:0.058147088 246:0.49075031 247:0.029011996 248:-0.02149713 249:0.029332878 250:0.075393863 251:0.011645447 252:-0.049121831 253:1.5262682e-05 254:-0.012813643 255:-0.16504972 256:-0.029332811 257:-0.054999363 258:-0.18838257 259:0.044143386 260:0.065961994 261:0.037587069 262:-0.10329193 263:-0.067234963 264:-0.008020442 265:-0.13673612 266:-4.4121683e-05 267:0.077930093 268:-4.2195446e-05 269:-0.08863239 270:0.28252259 271:-1.6291981e-05 272:0.0078097451 273:-0.021531843 274:-0.091079429 275:-0.2689544 276:-0.0018242736 277:-2.875933e-05 278:-0.18352558 279:-0.16241157 280:-1.7149762e-06 281:-1.7449567e-05 282:-0.11059491 283:-0.074258551 284:2.7609025e-05 285:-4.0883449e-05 286:-3.0228624e-05 287:0.052164204 288:-0.34959927 289:-0.024207477 290:-1.9082572e-05 291:-5.1323368e-05 292:0.073988847 293:0.005378942 294:-0.00034348932 295:-0.048120353 296:-0.054743771 297:0.0048094029 298:0.0029472946 299:0.021732008 300:-0.10973553 301:0.063549578 302:0.037973937 303:0.2211151 304:-0.021185961 305:-0.092587277 306:-0.023013892 307:0.033309031 308:-2.647556e-05 309:-0.066782452 310:-0.0088100303 311:-4.1659878e-05 312:-5.3170159e-05 313:0.04066648 314:-0.046391543 315:-9.2600767e-06 316:-0.016098417 317:-3.758704e-05 318:-0.0039956761 319:0.16176268 320:-4.1477218e-05 321:0.040506314 322:0.2660569 323:-3.2827145e-05 324:0.34233302 325:-0.091102801 326:-0.073357396 327:0.033339113 328:-0.17267939 329:-0.12444948 330:0.018590506 331:0.13755842 332:3.9339735e-05 333:0.031107539 334:0.066141903 335:2.6690999e-05 336:-0.26338261 337:3.725283e-05 338:3.8353995e-05 339:-2.6968175e-05 340:-0.15946639 341:0.20286609 342:0.02894053 343:0.041644815 344:-0.37127548 345:0.029497992 346:-3.701451e-05 347:0.018111311 348:-0.17943528 349:2.9012219e-05 350:-0.23485629 351:0.18679573 352:0.040035576 353:0.030681275 354:-0.012934318 355:0.11359048 356:-0.037465777 357:1.5104562e-05 358:0.035202328 359:1.895176e-05 360:-0.0010824399 361:-0.11104998 362:-3.1000181e-05 363:0.10808107 364:0.042212524 365:0.002359709 366:-0.084206693 367:0.070677847 368:-0.035592973 369:2.7985274e-05 370:-0.033731364 371:0.0039871926 372:-0.12261361 373:0.0026402932 374:0.13252588 375:0.094323903 376:0.098505244 377:-0.10936411 378:-2.5601021e-05 379:-0.093171544 380:0.091088578 381:0.01462556 382:0.011013725 383:0.035202332 384:4.2661919e-05 385:-2.3099141e-05 386:-0.14432015 387:-6.4837395e-06 388:0.055999521 389:2.29939e-05 390:-0.0019878913 391:-0.115238 392:-4.5225574e-05 393:-0.018803909 394:0.50455636 395:0.078888036 396:0.65780467 397:-0.016098488 398:0.073283248 399:-0.041823931 400:0.093193993 401:0.077784635 402:0.21728776 403:-0.048264511 404:-0.026699185 405:-0.13043986 406:0.0079234596 407:-1.7982657e-05 408:0.033043217 409:-1.0533237e-05 410:-0.022351434 411:-1.3783446e-05 412:-0.017340893 413:-0.032247253 414:0.0081657022 415:0.050784256 416:-2.7625481e-05 417:0.079601817 418:0.045311961 419:4.1688912e-05 420:-0.0012513413 421:-0.088620648 422:-0.25558728 423:0.069002703 424:-0.094096683 425:0.048767067 426:0.092063636 427:0.076738052 428:0.013021902 429:-2.7057638e-05 430:0.041546009 431:0.059601262 432:0.033089284 433:-0.061077088 434:4.7373349e-05 435:0.023309352 436:0.015675021 437:9.1252014e-06 438:-2.7661896e-05 439:0.088291563 440:-0.077397101 441:-0.078322403 442:0.39551413 443:-0.00885271 444:0.49924421 445:0.011557963 446:0.21568564 447:0.035147503 448:0.36657423 449:-0.012934362 450:-0.059604317 451:5.5737619e-06 452:0.015680091 453:-0.0021823999 454:3.7940659e-05 455:1.2291626e-06 456:-0.023518246 457:-0.049341299 458:5.7945395e-05 459:-0.00033569202 460:3.4263558e-05 461:-0.12921195 462:-0.019131027 463:-1.3055618e-05 464:-0.027705718 465:0.16645317 466:-0.067037463 467:0.18679574 468:4.3629214e-05 469:0.23722827 470:-0.032010134 471:-3.3157421e-06 472:0.16965586 473:0.045076225 474:-0.016960409 475:-0.014714853 476:0.092502892 477:0.072508924 478:0.029476779 479:2.9262903e-06 480:0.16185912 481:4.3336182e-05 482:0.0042374488 483:-0.12919354 484:-0.021932099 485:2.7417891e-05 486:0.016514439 487:0.032936066 488:0.016882343 489:-1.5193442e-05 490:3.7731581e-05 491:0.057433218 492:0.14731683 493:-0.062688045 494:-0.44065225 495:-2.8785364e-05 496:-0.14941037 497:0.066487655 498:0.090560973 499:-0.064289108 500:-0.037465762 501:8.2179959e-06 502:-0.02932873 503:-0.012301859 504:-0.055405319 505:-2.100659e-05 506:-0.12516426 507:-0.04793971 508:4.0110437e-05 509:0.091894567 510:0.025840634 511:0.023013884 512:0.014693802 
0.3416602818513821 1:2.6306358e-05 2:-0.11337403 3:2.1428807e-05 4:-0.15753637 5:0.33270705 6:0.20122567 7:-0.0072239288 8:-4.1320996e-05 9:0.2886079 10:-1.8755032e-05 11:5.1724142e-05 12:-1.0379955e-05 13:3.0638719e-05 14:3.2714233e-05 15:0.044740248 16:-0.012876063 17:-2.4407685e-05 18:3.2980755e-05 19:-0.1274716 20:-0.089984387 21:0.087300576 22:2.3886152e-05 23:-0.087367915 24:2.2308912e-05 25:4.3358192e-05 26:-4.9157723e-05 27:0.49822107 28:0.3084518 29:0.22979692 30:2.9614341e-05 31:-4.8313716e-05 32:-5.1819407e-05 33:-3.1147982e-05 34:4.4109591e-05 35:3.7606016e-05 36:4.6517514e-05 37:-0.35403356 38:3.2109478e-05 39:2.1057404e-05 40:3.5807618e-05 41:-4.7112069e-05 42:1.6792133e-05 43:-4.8649676e-05 44:-3.7341484e-05 45:1.4634562e-05 46:0.20454812 47:-0.28629991 48:-3.4516219e-05 49:1.724836e-05 50:4.2505075e-05 51:3.0203659e-05 52:3.941483e-05 53:-9.1576039e-06 54:4.3318036e-05 55:-1.5616317e-05 56:2.1138136e-05 57:3.8122682e-05 58:0.31634638 59:0.21400246 60:-4.4600085e-05 61:0.18522231 62:-2.0032347e-05 63:-4.3158372e-05 64:-9.4941824e-06 65:-0.0042070816 66:-0.042156901 67:-0.10406058 68:7.7648128e-06 69:-3.7879672e-05 70:0.10530619 71:0.21433111 72:-1.7619333e-05 73:2.4917499e-05 74:-3.6276102e-05 75:-0.32061645 76:2.6053682e-05 77:-2.8130005e-05 78:-0.055169862 79:-1.1500566e-05 80:-0.1807591 81:0.063854858 82:0.21512513 83:-5.0452072e-05 84:4.8785725e-05 85:-0.28800988 86:4.4593038e-05 87:4.9639071e-05 88:-3.1398711e-05 89:-1.6242268e-05 90:2.3413895e-05 91:-0.087327294 92:-0.086815692 93:7.0566333e-05 94:3.4091925e-05 95:-4.9103361e-05 96:0.2576035 97:-0.14657927 98:-0.052119743 99:0.45228368 100:0.30066562 101:-4.9954018e-05 102:6.8499525e-05 103:-0.010222805 104:-0.0085216379 105:-0.049837042 106:-0.14694785 107:3.6055186e-05 108:4.8652975e-05 109:-4.2690688e-05 110:-7.4458776e-06 111:-4.5009176e-05 112:4.7112906e-05 113:-3.8193739e-05 114:5.9226983e-05 115:-0.087300584 116:-0.038450606 117:-2.6375896e-05 118:-3.2352578e-05 119:-9.572449e-06 120:0.18525366 121:1.586677e-05 122:8.5800721e-06 123:4.0376653e-05 124:-1.3561959e-05 125:-1.8311795e-05 126:-0.037005484 127:-0.12053452 128:-2.5282508e-05 129:2.8089806e-05 130:-1.381274e-05 131:-0.012814812 132:2.9328825e-05 133:-3.1042877e-05 134:-3.8735823e-05 135:0.0011232512 136:-0.042055655 137:-4.2732852e-05 138:0.18525368 139:-4.6471519e-05 140:-0.17507736 141:-1.7594401e-05 142:3.206767e-05 143:-3.4304307e-05 144:-4.2772321e-05 145:0.31634638 146:0.38607848 147:-0.21483147 148:9.090335e-06 149:0.21400243 150:2.7842969e-05 151:1.262983e-05 152:0.41604066 153:0.2170812 154:2.4499426e-05 155:-7.4117124e-05 156:0.25526094 157:-0.15045325 158:-0.046366911 159:-1.7170638e-05 160:-0.054723796 161:-2.8749966e-05 162:6.4726286e-05 163:4.834199e-05 164:1.3072678e-05 165:5.4306427e-05 166:1.6849588e-05 167:-0.22049703 168:-0.12441669 169:-0.25558516 170:-2.8201686e-05 171:-0.013886507 172:-0.12255222 173:-0.0196888 174:-4.9996957e-05 175:0.04717306 176:1.9066387e-05 177:-3.0596948e-05 178:-2.5636182e-05 179:2.246033e-05 180:2.5030407e-05 181:-0.11209293 182:-3.6491496e-05 183:-3.4676068e-05 184:-2.6222429e-05 185:-0.16934155 186:-0.082503654 187:5.3997187e-06 188:-3.1137843e-05 189:2.2746461e-05 190:0.35158569 191:0.15151902 192:2.8397484e-05 193:-1.4838732e-05 194:-1.56855e-05 195:-2.320627e-05 196:0.044740234 197:-0.013886447 198:-0.0056418851 199:-2.5339459e-05 200:-3.8884071e-05 201:4.4787746e-05 202:3.7639766e-05 203:4.1967189e-05 204:-2.363959e-05 205:-1.1245451e-05 206:3.4473727e-05 207:-3.573588e-05 208:-4.4057393e-05 209:1.023141e-05 210:2.3571345e-05 211:-0.39055589 212:2.3212775e-05 213:0.22569108 214:4.2684114e-05 215:-0.20688346 216:-4.686047e-05 217:1.5039876e-05 218:2.7946875e-05 219:-3.4467866e-05 220:4.8495574e-05 221:-0.29066345 222:-0.093077861 223:0.19884314 224:-3.9206687e-05 225:-0.17809156 226:-1.19635e-05 227:5.4912456e-05 228:-2.637342e-05 229:-4.2374148e-05 230:-0.088374488 231:-2.3226206e-05 232:0.22371665 233:0.1817002 234:-0.18807104 235:-0.13239491 236:0.1817002 237:0.13146468 238:-3.9561484e-05 239:-1.4544552e-05 240:0.043245152 241:-2.015786e-05 242:-2.1425698e-05 243:-0.091595672 244:-0.31043312 245:-2.8218403e-05 246:-1.0435431e-05 247:9.8495038e-06 248:-3.1476069e-05 249:-1.2098413e-05 250:4.4341014e-05 251:-0.24181749 252:-0.17583074 253:0.30229449 254:-3.7667749e-05 255:0.027750326 256:0.18807104 257:7.6293918e-06 258:-0.13915144 259:1.8860368e-05 260:-0.11270072 261:-0.30468589 262:-0.22567509 263:-0.025352757 264:-0.11284474 265:6.0305883e-05 266:-2.195524e-05 267:0.003122732 268:-4.2594122e-05 269:1.8886723e-05 270:2.7156033e-05 271:2.0121868e-05 272:2.3324925e-05 273:4.2229527e-05 274:5.8204743e-05 275:-1.5750871e-05 276:-4.201187e-05 277:-3.8161423e-05 278:-2.2344377e-05 279:-2.4784098e-05 280:-2.7823982e-05 281:-3.0694348e-05 282:3.4906494e-05 283:-0.17089257 284:-2.7858609e-05 285:-3.7376249e-05 286:1.4634969e-05 287:4.4347315e-05 288:1.8113748e-05 289:1.7799979e-05 290:4.2958243e-05 291:-4.4728476e-05 292:4.775243e-05 293:-3.2029831e-05 294:2.6963777e-05 295:-1.9126002e-05 296:-0.012876169 297:-0.094997652 298:2.0636813e-05 299:4.1934654e-06 300:4.5945708e-05 301:-3.0299965e-05 302:2.1190088e-05 303:-2.311663e-05 304:-0.14054495 305:-0.031422425 306:-2.2943617e-05 307:0.02601888 308:-4.198297e-05 309:-0.015495503 310:2.6798525e-05 311:1.5992073e-05 312:-3.8844999e-05 313:0.089984395 314:4.2937711e-05 315:2.4428631e-05 316:9.9533381e-06 317:-5.7093159e-05 318:-0.11584063 319:-0.38403741 320:3.1565862e-05 321:0.22126046 322:-0.11010686 323:4.258936e-05 324:1.6998636e-05 325:-4.0221868e-05 326:0.37055627 327:0.22049704 328:-0.27331686 329:-0.37740457 330:0.24283993 331:0.23541561 332:-2.8830766e-05 333:0.047401093 334:-0.011487299 335:-0.090903834 336:-0.18810362 337:2.1248103e-05 338:7.1068476e-05 339:0.090165973 340:0.29741478 341:0.17809787 342:0.0042076558 343:-2.879442e-05 344:2.8967548e-05 345:3.0523832e-05 346:-1.9845535e-05 347:-6.3981359e-05 348:-2.5159499e-05 349:-0.35168472 350:-0.037089899 351:-5.0299539e-05 352:5.0131555e-05 353:-4.1090323e-05 354:3.089723e-05 355:6.4336702e-05 356:3.596531e-05 357:-0.15753636 358:0.41604066 359:0.012814916 360:3.5551977e-05 361:-2.5689013e-05 362:3.0512332e-05 363:0.069378115 364:0.19884314 365:3.0305817e-05 366:7.4601565e-05 367:3.3953351e-05 368:-0.15305698 369:-0.10978083 370:-0.011546162 371:-3.1968622e-05 372:2.4280458e-05 373:-2.1704323e-05 374:-0.15305698 375:-3.215146e-05 376:4.6574514e-05 377:0.18810362 378:5.4104628e-05 379:-1.6337439e-05 380:2.7314312e-05 381:0.0083464161 382:7.0128808e-05 383:5.762553e-05 384:3.0260395e-05 385:4.0530849e-05 386:3.0036956e-05 387:-4.3083379e-05 388:0.11776903 389:-2.504694e-05 390:0.068340354 391:-1.6382979e-05 392:-2.6913976e-05 393:-3.4716213e-05 394:-9.0059402e-06 395:-0.11979893 396:-0.12979724 397:2.2298931e-05 398:0.15905583 399:2.2797754e-05 400:-0.073778622 401:4.1821761e-05 402:0.0051963017 403:3.974533e-05 404:-3.6253961e-05 405:0.0056421892 406:0.078701936 407:-2.8345274e-05 408:-4.1428462e-05 409:-0.10203946 410:-0.054723784 411:3.066293e-05 412:-0.019688776 413:-0.053231876 414:2.7375603e-05 415:-4.267511e-05 416:-4.5476612e-05 417:-2.6328084e-05 418:1.2981279e-05 419:-6.8176028e-05 420:3.2807733e-05 421:-0.32061645 422:3.3379278e-05 423:8.8096676e-06 424:-0.45228365 425:-0.055169869 426:-6.7881781e-05 427:-1.8448607e-05 428:1.0023909e-05 429:5.017878e-05 430:0.35403356 431:-3.7213464e-05 432:-5.7980713e-05 433:0.10828506 434:0.078701936 435:0.27242434 436:1.0897344e-05 437:1.877517e-05 438:6.3454929e-05 439:3.2075917e-05 440:-3.4899171e-05 441:-0.12686545 442:-3.1307063e-05 443:-0.17089258 444:-4.1191921e-05 445:0.38304865 446:0.24205205 447:0.015495426 448:4.5965811e-05 449:3.1564061e-05 450:8.0588125e-06 451:2.402782e-05 452:2.7273949e-05 453:-0.14694785 454:-4.1635431e-05 455:-4.0428677e-05 456:0.027750358 457:-4.2414402e-05 458:-8.280068e-06 459:2.9948373e-05 460:-2.5101737e-05 461:-3.5562476e-05 462:1.0499965e-05 463:-1.7985849e-05 464:0.15404885 465:0.11337402 466:0.082503676 467:-7.1930626e-05 468:1.9811352e-05 469:0.25273204 470:0.023926433 471:-0.090165958 472:0.0088416096 473:0.069378108 474:-0.28873363 475:-0.06301029 476:2.7574233e-05 477:5.4780729e-05 478:-3.1287575e-05 479:3.8062106e-05 480:-3.1856915e-05 481:-3.7886784e-05 482:0.011546087 483:0.37885636 484:4.5460652e-05 485:3.3846529e-05 486:-4.037096e-05 487:2.4757206e-05 488:0.11305174 489:2.4606565e-05 490:-2.2024164e-05 491:-4.2798922e-05 492:3.0581145e-05 493:-1.0191277e-05 494:-0.11010685 495:2.6206628e-05 496:-0.4271352 497:2.6808098e-05 498:-6.0755261e-05 499:-5.7161145e-05 500:-2.7691811e-05 501:-2.7005228e-05 502:8.850845e-06 503:-0.15549542 504:-0.25938338 505:1.9744389e-06 506:-0.38403741 507:0.11983962 508:3.8401584e-05 509:2.2870518e-05 510:-0.15404885 511:-4.7838745e-05 512:-0.23766799 
1 1:0.06782838 2:-0.18484552 3:4.1360108e-05 4:-0.26719433 5:0.30377257 6:0.21596836 7:-2.8744138e-05 8:-3.2168351e-05 9:0.40470204 10:2.246033e-05 11:0.075942576 12:-4.0828858e-05 13:-3.8466958e-05 14:-1.4350157e-05 15:0.015097165 16:-4.865634e-05 17:0.014074896 18:1.8688124e-05 19:-0.19491833 20:-0.023089619 21:0.16202158 22:-0.044621862 23:-0.15317096 24:5.4075339e-05 25:5.0458231e-05 26:0.0039572297 27:0.49770075 28:0.082070932 29:0.25753427 30:4.0123523e-05 31:-1.8128738e-05 32:-2.9539644e-05 33:-2.0657084e-05 34:5.4407483e-05 35:-0.0062701432 36:-1.7644867e-05 37:-0.41893306 38:-1.7329146e-05 39:1.648037e-05 40:-1.9200221e-05 41:-8.434612e-06 42:-2.1004991e-05 43:-5.4416512e-05 44:-3.3642467e-05 45:-2.7462163e-05 46:0.29905891 47:-0.33862856 48:1.9031055e-05 49:1.4386123e-05 50:-0.0070870663 51:9.5579089e-06 52:2.9659812e-05 53:3.2803371e-05 54:5.3491462e-05 55:0.01078671 56:-5.1876224e-05 57:-2.3856686e-05 58:0.38874722 59:0.27393505 60:1.5334583e-05 61:0.026031971 62:-0.0040484592 63:0.032291967 64:0.0046884874 65:1.7679529e-05 66:-0.023490589 67:-0.070388094 68:-1.9052251e-05 69:-3.9614238e-06 70:0.20393598 71:0.065097384 72:-5.3827949e-05 73:0.0043605031 74:2.6913975e-05 75:-0.31604388 76:-2.3662358e-05 77:-3.7357207e-05 78:3.2765925e-05 79:2.9328825e-05 80:0.14509131 81:0.0006763296 82:0.32836521 83:-4.871939e-05 84:4.5492921e-05 85:-0.25579464 86:2.0346553e-05 87:-1.3151992e-05 88:-3.7447222e-05 89:3.282621e-05 90:3.4844616e-05 91:-0.19485693 92:-0.13248344 93:4.4341014e-05 94:5.0341128e-05 95:2.977244e-05 96:0.29482803 97:0.19705783 98:3.644852e-05 99:0.40400735 100:0.066684954 101:0.0051988848 102:9.9669996e-05 103:-1.9389596e-05 104:-8.2281349e-06 105:-0.068216808 106:-0.21224499 107:2.6913975e-05 108:-2.2746461e-05 109:1.5636009e-05 110:-0.010786721 111:0.004983061 112:3.3738452e-05 113:-4.3753691e-05 114:2.7086298e-05 115:-0.16202158 116:-0.097303726 117:-0.0043604854 118:-3.2168355e-05 119:0.014074936 120:0.24620757 121:2.4917499e-05 122:-0.004048578 123:-0.0048695938 124:1.7359966e-05 125:7.9025337e-09 126:-0.051715367 127:-0.16834857 128:2.9237899e-05 129:2.3856686e-05 130:-0.00080815982 131:2.4326488e-05 132:3.8189337e-05 133:7.193064e-06 134:-6.0822862e-05 135:1.5152454e-05 136:-0.29244277 137:-3.9233521e-05 138:0.24213026 139:-2.4656574e-05 140:-0.19110715 141:-2.9871118e-05 142:-0.076873153 143:-5.0388182e-05 144:-7.344161e-05 145:0.38874722 146:0.077060699 147:-0.32836521 148:2.0947511e-05 149:0.27393502 150:3.6152247e-05 151:-2.0660498e-05 152:0.51603335 153:0.08538004 154:-3.2868327e-05 155:-5.9858208e-05 156:0.048819106 157:-0.026735034 158:-0.034311511 159:-3.4231754e-05 160:-0.014384656 161:-2.1507409e-05 162:5.9779213e-05 163:7.5591634e-05 164:-4.0151372e-05 165:0.00073573459 166:-3.1204761e-06 167:-0.062366784 168:-0.041733995 169:-0.037101433 170:-0.0049830694 171:-4.5146811e-05 172:-0.10285468 173:-4.0641837e-05 174:-4.9834998e-05 175:0.016407961 176:2.5431318e-05 177:3.0833831e-05 178:7.2237476e-06 179:2.6973983e-05 180:-1.6872844e-05 181:-0.035021652 182:1.0664051e-05 183:-1.0040374e-05 184:-2.3510038e-05 185:-0.25713995 186:-0.028660646 187:3.9398023e-05 188:1.3064738e-05 189:4.6616373e-05 190:0.3892948 191:-0.054414991 192:1.340452e-05 193:-0.008493755 194:-4.3318851e-05 195:-0.0055562127 196:0.015097135 197:-5.663823e-05 198:4.814464e-05 199:1.0362496e-05 200:-3.0105533e-05 201:6.9070767e-05 202:3.9477603e-05 203:3.8518752e-05 204:-1.1375061e-05 205:3.9909628e-05 206:0.01022115 207:0.0068027447 208:-3.5238663e-05 209:-1.6084177e-05 210:-4.6088021e-06 211:-0.43144307 212:-1.7365586e-05 213:0.25753427 214:-2.6061301e-05 215:-0.21596836 216:-0.0063103209 217:-0.00073895586 218:-4.1320996e-05 219:-5.278147e-05 220:-1.0945485e-05 221:-0.24626325 222:-0.044349793 223:0.2131694 224:-4.2806074e-05 225:-0.18341814 226:4.1373336e-05 227:0.00011235922 228:-1.7109103e-05 229:-4.0695348e-05 230:-0.20956442 231:-4.0846506e-05 232:0.1188223 233:0.19547781 234:-0.23699355 235:-0.17416188 236:0.19547781 237:0.15457793 238:-4.8605089e-05 239:-1.8980314e-05 240:2.4917499e-05 241:3.548275e-05 242:-2.8315855e-05 243:-0.078494728 244:-0.26911631 245:-0.027588587 246:-0.075942583 247:1.227032e-05 248:-3.9143124e-05 249:1.63026e-05 250:4.3158372e-05 251:-0.15835375 252:0.10579178 253:0.34196898 254:-4.6616369e-05 255:0.015031502 256:0.23699355 257:1.7248358e-05 258:-0.20404497 259:-3.2518292e-05 260:0.17220671 261:-0.077215753 262:-0.014397003 263:-0.0052620927 264:-0.018584667 265:-3.3738452e-05 266:1.7248358e-05 267:4.255473e-05 268:-2.6703015e-05 269:-2.4902422e-05 270:8.5207785e-06 271:1.5343423e-05 272:5.2977117e-05 273:4.0290783e-05 274:5.560102e-05 275:-0.0063101812 276:1.5337486e-05 277:-3.2962751e-05 278:-2.8311444e-05 279:3.9398023e-05 280:4.5198576e-05 281:-2.0575862e-05 282:3.9326762e-05 283:-0.24842365 284:1.2344671e-05 285:-5.9315509e-05 286:0.0018660654 287:-3.7273639e-05 288:-1.0146723e-05 289:3.3548309e-05 290:3.7736474e-05 291:2.3787912e-05 292:1.708956e-05 293:-7.3355128e-05 294:-0.0058025047 295:-3.8442096e-05 296:-2.9548519e-05 297:-0.10586508 298:0.0027729115 299:0.0087833041 300:0.094231658 301:0.0021645075 302:-6.4336702e-05 303:-5.1869909e-05 304:-0.20870262 305:-1.7248354e-05 306:-2.8772572e-05 307:2.4508583e-05 308:-3.2166456e-05 309:8.6845894e-06 310:-2.1213973e-05 311:-1.184131e-05 312:-2.4521947e-05 313:0.023089595 314:7.0477327e-05 315:3.5238663e-05 316:-3.4696877e-05 317:-2.8772251e-05 318:-0.083622389 319:-0.26857755 320:2.402121e-05 321:0.027637586 322:-0.030114491 323:2.0105221e-05 324:-9.4730176e-06 325:2.3088833e-05 326:0.37408802 327:0.062366813 328:-0.32507381 329:-0.22942993 330:0.27131277 331:0.041919399 332:-4.5822795e-05 333:0.0023170931 334:4.5750105e-05 335:-0.07849472 336:-0.31467602 337:-2.24613e-05 338:4.7713376e-05 339:0.075768717 340:0.25317612 341:0.18341812 342:6.6084838e-05 343:-2.7538113e-05 344:5.4766908e-05 345:-1.3838718e-05 346:-4.5188379e-05 347:-0.0051996526 348:-2.2746459e-05 349:-0.38929483 350:3.4242414e-05 351:-0.08535856 352:0 353:9.5155283e-06 354:3.5188397e-05 355:5.3827946e-05 356:-3.9410541e-05 357:-0.2671943 358:0.51603335 359:-1.8734441e-05 360:2.8143639e-05 361:0.0018483475 362:1.7619332e-05 363:0.066816553 364:0.2131981 365:6.603323e-05 366:7.2427152e-05 367:-2.9262726e-05 368:-0.23166081 369:0.14875053 370:-0.093256131 371:2.5175717e-05 372:-3.310441e-05 373:-1.4559607e-05 374:-0.2316594 375:-3.6562025e-05 376:2.0345053e-05 377:0.31467602 378:3.6887213e-05 379:4.6043344e-05 380:-3.6108639e-05 381:-4.5625304e-09 382:4.0630457e-05 383:1.0789594e-05 384:4.6604117e-05 385:2.5431316e-05 386:-3.4402845e-05 387:-5.4097614e-05 388:0.016339233 389:-3.2962751e-05 390:0.13461874 391:-3.5238663e-05 392:-1.7619332e-05 393:-2.8996161e-05 394:-2.4656574e-05 395:-0.20320818 396:-0.022689028 397:-9.6141748e-06 398:0.039647277 399:9.9076633e-06 400:-0.038844127 401:3.8062106e-05 402:3.5192748e-05 403:2.8772249e-05 404:0.01352607 405:-3.8062106e-05 406:0.01645855 407:2.1876845e-05 408:-4.5492921e-05 409:-0.021971077 410:-0.014384652 411:-2.9438877e-05 412:3.3491942e-05 413:-7.7970937e-05 414:8.5739384e-06 415:-1.7835375e-05 416:-3.5177225e-05 417:4.7429126e-06 418:-8.2096076e-06 419:-5.768444e-05 420:-2.3273707e-05 421:-0.3160347 422:5.5629767e-05 423:-0.067385182 424:-0.40400735 425:-2.6551073e-05 426:-4.9361504e-05 427:-4.4570112e-05 428:-3.8146973e-05 429:4.4675737e-05 430:0.41893306 431:-3.6319885e-05 432:-4.7441506e-05 433:0.10128639 434:0.016458591 435:0.071048625 436:3.8398855e-05 437:-2.1703978e-05 438:0.042563051 439:-2.0440601e-05 440:0.068295538 441:-0.023155836 442:4.4631775e-05 443:-0.2484237 444:-3.2128974e-05 445:0.37710425 446:0.26634717 447:-0.080105454 448:4.2841166e-05 449:2.5650905e-05 450:-2.8073027e-05 451:4.6698522e-05 452:-3.9288614e-05 453:-0.21224499 454:1.6404299e-05 455:-2.1064005e-05 456:0.01503152 457:-6.3611384e-05 458:3.659189e-05 459:5.7239835e-05 460:-2.0466105e-05 461:-3.6826525e-05 462:3.58707e-05 463:1.334434e-05 464:0.22389215 465:0.1798349 466:0.04317645 467:-4.5492918e-05 468:-2.9794578e-06 469:0.31736183 470:-2.0314572e-05 471:-0.075768702 472:3.1586864e-05 473:0.066816553 474:-0.40470204 475:-0.058758378 476:-0.07935793 477:3.2168351e-05 478:-2.8031774e-05 479:-2.2746461e-05 480:-2.7937745e-05 481:-1.9031055e-05 482:4.8149737e-05 483:0.53549737 484:-0.0077411826 485:-1.6856568e-05 486:-6.8617439e-05 487:3.230575e-05 488:0.20098929 489:1.0172527e-05 490:-5.8877751e-05 491:-1.245875e-05 492:2.2746461e-05 493:4.1006762e-05 494:-0.030114414 495:-3.217248e-05 496:-0.32816648 497:2.5599997e-05 498:-6.3084684e-05 499:0.0018657367 500:-4.3158372e-05 501:2.7952203e-05 502:1.471288e-05 503:-0.032091469 504:-0.039209411 505:-0.0070869043 506:-0.26857752 507:0.20320816 508:2.478738e-05 509:0.022743622 510:-0.22389197 511:-2.3229477e-05 512:-0.23247473 
0.2722996532294003 1:0.018242279 2:-0.1760201 3:0.071364254 4:-0.25083578 5:0.26372251 6:0.20211606 7:0.093926623 8:-0.00010681152 9:0.3909747 10:0.033919085 11:0.015852166 12:-2.8938817e-05 13:-0.035353787 14:-0.0088853622 15:0.05427555 16:-5.780334e-05 17:-0.029350169 18:0.022746986 19:-0.17445599 20:-0.08804062 21:0.15344107 22:-0.0074464888 23:-0.13229738 24:0.01735965 25:-0.025270633 26:0.058620013 27:0.50399661 28:0.069815628 29:0.25088498 30:-0.022551032 31:0.059909295 32:-0.015101411 33:-3.9239985e-05 34:-0.11801036 35:-0.020426206 36:-0.0046584117 37:-0.37524587 38:4.8422622e-05 39:0.03345459 40:-0.011738288 41:-2.6913975e-05 42:3.2034386e-05 43:0.010624545 44:0.031979069 45:-5.229536e-05 46:0.25906146 47:-0.29262155 48:0.0025511603 49:-0.054858785 50:0.023316896 51:0.015771959 52:0.017844267 53:0.038137615 54:2.7896365e-05 55:-0.065230325 56:0.0069105704 57:-0.0079857782 58:0.31440276 59:0.23322575 60:0.0088629071 61:0.076670416 62:-0.034480467 63:0.0055936137 64:0.11122939 65:-0.014836429 66:-0.12625059 67:-0.11724147 68:0.028596237 69:-4.3991058e-05 70:0.21536475 71:0.072382316 72:0.01569852 73:-1.6084176e-05 74:-0.006910509 75:-0.3310554 76:-0.033127278 77:-0.07802058 78:2.6340842e-05 79:-0.06721276 80:0.15244804 81:0.020867256 82:0.28942376 83:-0.095391035 84:-0.0064936699 85:-0.26708451 86:-0.035228651 87:-2.6811591e-05 88:-0.018792206 89:0.022952562 90:-0.0011280371 91:-0.17800543 92:0.10258584 93:5.2551215e-05 94:0.048666079 95:-0.023071853 96:0.27915889 97:0.2438134 98:-0.0073962663 99:0.39880505 100:0.053226281 101:0.023313904 102:6.2438703e-05 103:0.014215487 104:-0.012449892 105:-0.13980743 106:-0.16567953 107:0.043473072 108:0.04341859 109:0.027485194 110:-0.022229895 111:0.026410559 112:0.070681199 113:0.094799675 114:-0.0064277379 115:-0.16306683 116:-0.058340251 117:0.026908718 118:-0.072515644 119:-0.012916966 120:0.28802061 121:0.046522141 122:-0.024324208 123:-0.046851709 124:0.015430569 125:0.0059056496 126:-0.096223705 127:-0.16576299 128:-0.013488544 129:-0.08911667 130:-0.0059792208 131:0.072711721 132:0.0045776484 133:0.042363845 134:0.027565645 135:0.038926531 136:-0.27512515 137:0.015729411 138:0.28155008 139:-5.4007876e-05 140:-0.24349968 141:-0.0046346495 142:-0.032438677 143:-0.0035349126 144:-4.4459986e-05 145:0.31523943 146:0.039604358 147:-0.2974174 148:-0.014671003 149:0.23313284 150:-0.056725897 151:-0.045800898 152:0.47311458 153:0.094289124 154:-4.7818459e-05 155:0.064788632 156:-0.034740735 157:0.0091598956 158:0.016343225 159:-0.029673224 160:-0.050072201 161:0.040570203 162:3.5357476e-05 163:6.8799258e-05 164:-2.2936219e-05 165:0.00331655 166:2.1980601e-05 167:-0.062259592 168:0.034624506 169:0.040321719 170:-0.026502518 171:-4.6800513e-05 172:-0.19308086 173:0.0033535296 174:-0.033240553 175:0.04988566 176:0.089004979 177:0.062752604 178:-0.021128263 179:-0.014174819 180:2.6829028e-05 181:-0.059666757 182:0.0038094996 183:-2.5073534e-05 184:-0.014930995 185:-0.26498482 186:0.030964069 187:0.018298769 188:-0.01364548 189:-0.05627526 190:0.41716504 191:-0.13231859 192:4.0711497e-05 193:-0.01645427 194:0.024038764 195:0.022400687 196:0.070195518 197:-0.025677457 198:0.025906095 199:0.010313514 200:1.0535386e-05 201:-0.051613528 202:3.263263e-05 203:0.028148675 204:2.9565519e-05 205:0.0047965776 206:0.015234544 207:0.0231003 208:0.074109338 209:-0.0075965975 210:-0.020328224 211:-0.37143943 212:-0.064978041 213:0.25147477 214:0.01374769 215:-0.2031555 216:-0.092362434 217:0.00058939232 218:-0.01106677 219:0.0058182189 220:0.013330884 221:-0.20752393 222:-0.025512794 223:0.19893612 224:0.063412063 225:-0.16274841 226:-6.1496189e-06 227:-0.012103291 228:0.016601995 229:0.010005902 230:-0.17567647 231:0.057587627 232:-0.1418658 233:0.17090988 234:-0.20335712 235:-0.19140291 236:0.17355888 237:0.17123111 238:-0.0069379839 239:0.057339545 240:2.7272046e-05 241:0.040868346 242:0.0097127575 243:-0.19400938 244:-0.31449434 245:-0.027105801 246:-0.0065451981 247:0.0095807938 248:0.06416969 249:-8.7935341e-06 250:0.017343516 251:-0.13825037 252:0.1839875 253:0.29434025 254:-0.024083218 255:-0.081962451 256:0.21326205 257:-0.007599052 258:-0.23577674 259:0.095198333 260:0.18427983 261:-0.048792776 262:0.0092965178 263:-0.047980327 264:-0.073602125 265:4.689303e-05 266:1.2967477e-05 267:0.01349334 268:-0.014800088 269:-0.023128113 270:0.10002939 271:-1.2598653e-05 272:0.037107691 273:-0.014670976 274:-0.023984207 275:-0.048512369 276:0.0068999771 277:0.013443291 278:-0.019591846 279:-0.092806928 280:2.6882151e-05 281:-0.00083076558 282:-0.039095562 283:-0.21267828 284:-1.8981873e-05 285:-6.7668334e-05 286:0.028862664 287:0.0081771854 288:-0.067916431 289:0.0089332303 290:-0.037638698 291:-1.9261277e-05 292:-0.01051789 293:-5.297258e-05 294:-0.045292418 295:-2.0343909e-05 296:-0.018473668 297:-0.17682272 298:0.014733994 299:0.013802052 300:-0.04420213 301:0.01367092 302:0.053159911 303:-0.0080874301 304:-0.21639425 305:-0.0025645935 306:4.789155e-05 307:-0.038467757 308:-2.5277517e-05 309:-0.035775408 310:-1.7559492e-05 311:3.56909e-05 312:-2.6229696e-05 313:0.11231297 314:7.3399206e-05 315:-0.024718091 316:-0.011167545 317:-5.0862668e-06 318:-0.15319335 319:-0.23970369 320:0.0044523031 321:0.020029379 322:-0.080466785 323:-2.3536717e-05 324:0.022483131 325:0.015180606 326:0.33136728 327:0.042168848 328:-0.36164653 329:-0.21161386 330:0.26892543 331:0.034039266 332:1.3491981e-05 333:0.049272411 334:0.031635772 335:-0.1891629 336:-0.24272399 337:-0.080924258 338:3.9561841e-05 339:0.13237552 340:0.22379574 341:0.16816796 342:-0.0040649776 343:-0.0036947916 344:-0.08956936 345:-0.0040066792 346:0.13083248 347:-0.020021752 348:-0.048180129 349:-0.42137668 350:-0.0060456241 351:-0.01572806 352:0.03767205 353:5.2857999e-05 354:-0.0063753868 355:0.083724946 356:-0.050788935 357:-0.25087529 358:0.47311455 359:0.074129954 360:-0.056874998 361:-0.053841762 362:-3.0564555e-05 363:0.14304012 364:0.19943509 365:-0.011066689 366:0.040106304 367:0.032056469 368:-0.25037158 369:0.086531706 370:-0.031488337 371:-0.0027729613 372:-5.4393789e-05 373:0.018947065 374:-0.24560103 375:-3.5683635e-05 376:0.068026997 377:0.24212086 378:4.766542e-05 379:-0.056731258 380:0.0035561062 381:-2.5525864e-05 382:3.8552775e-05 383:-0.0010453478 384:0.019322371 385:-0.013821506 386:-0.062967069 387:-2.2888182e-05 388:0.087629162 389:-0.011047175 390:0.13209042 391:-0.068721175 392:0.045880064 393:-0.071099564 394:0.0010637466 395:-0.21908288 396:0.041470021 397:-0.011167485 398:0.095137894 399:-0.0075966641 400:-0.038257062 401:0.030232215 402:0.12003224 403:-0.034366269 404:0.019118307 405:0.015789509 406:0.021001909 407:0.0052868729 408:0.019321019 409:-0.037537303 410:-0.051257126 411:-0.010992865 412:0.036852475 413:-0.036388408 414:-3.3091772e-05 415:-0.03194483 416:0.0015738561 417:0.003072158 418:-1.5092747e-05 419:-0.011598068 420:-2.4105737e-05 421:-0.33232287 422:-0.052928716 423:0.0084293783 424:-0.40422112 425:0.059029885 426:0.080421239 427:0.04286148 428:-2.1876845e-05 429:-0.028384345 430:0.37524587 431:0.066281796 432:-6.6023531e-05 433:0.18327102 434:0.021591861 435:0.072422214 436:0.015430591 437:1.5752223e-05 438:-0.035071839 439:0.053748697 440:-0.0076767975 441:-0.087965101 442:-0.027050674 443:-0.22270396 444:0.0010634735 445:0.33226025 446:0.24765989 447:0.045962572 448:0.07207679 449:-0.025468109 450:0.017394699 451:0.00094953121 452:0.076341428 453:-0.16567963 454:0.021827815 455:-1.6746182e-05 456:0.012544679 457:-3.5422567e-05 458:0.039424479 459:-0.040163714 460:1.0879772e-05 461:-0.064452298 462:0.017582422 463:0.0073962924 464:0.17907575 465:0.18822193 466:-0.06423524 467:-0.057355188 468:0.0095821004 469:0.31599697 470:-1.6233633e-05 471:-0.14364338 472:0.016154449 473:0.16130692 474:-0.39108479 475:-0.13746065 476:0.018980054 477:-0.030418584 478:-4.0179344e-05 479:-0.0011512749 480:0.10062604 481:-3.1865347e-05 482:4.5260225e-05 483:0.45055106 484:-0.017618576 485:-5.4759621e-05 486:-4.1419924e-05 487:0.050466619 488:0.1992074 489:2.4656574e-05 490:-0.022383355 491:0.046111509 492:0.050901391 493:0.0048927362 494:-0.090600088 495:0.044080395 496:-0.31698123 497:0.0086688111 498:0.055841856 499:0.043301512 500:-0.049416985 501:2.7898166e-05 502:-0.0062742713 503:-0.06722407 504:-0.042510066 505:-0.0090458263 506:-0.25196579 507:0.20792952 508:0.0028097504 509:0.0046539311 510:-0.17702991 511:-0.024735348 512:-0.32221076 
0.1391833317240249 1:0.18009798 2:-0.016155606 3:0.06865406 4:-0.26792893 5:-0.072728649 6:0.088551909 7:-0.055111825 8:-0.013133931 9:0.1072184 10:-0.015260652 11:-0.0050968863 12:0.030065382 13:0.0001802738 14:0.021107657 15:-0.12983792 16:-0.088038497 17:0.032620821 18:-0.1419787 19:-0.03582862 20:0.10421232 21:0.14159949 22:-0.02887092 23:-0.069301896 24:-0.26668909 25:-0.012279087 26:0.25043565 27:0.35070142 28:0.022233428 29:0.24044277 30:-0.031844184 31:-0.19414999 32:-0.041019946 33:-0.022314098 34:0.10237615 35:-0.029651174 36:-0.015225564 37:-0.20838605 38:0.044286009 39:0.01438871 40:0.1569721 41:-0.070298485 42:0.030935992 43:-0.023689656 44:0.074124895 45:4.6233392e-05 46:-0.018647939 47:-0.30673978 48:3.1484367e-05 49:-0.083118618 50:-0.0078054788 51:-0.043490667 52:-0.15457107 53:0.0041304389 54:4.7711648e-05 55:0.033116329 56:0.030554539 57:-1.0954643e-05 58:-0.25083163 59:0.097783893 60:0.024219075 61:0.060069885 62:-0.096652299 63:-0.014449316 64:0.022266924 65:-0.038193904 66:-0.079917185 67:0.071008749 68:0.024527224 69:-0.0070470497 70:-0.25021595 71:-3.0242451e-05 72:-3.9724982e-05 73:-0.0072758603 74:0.011974834 75:-0.037473362 76:0.1062507 77:-0.2611357 78:-0.024707036 79:-0.02600741 80:0.14987008 81:0.0073240562 82:0.28972042 83:-0.039153323 84:0.0071141846 85:-0.058830652 86:0.10684241 87:-0.10551731 88:-0.026746439 89:-0.0089185871 90:-0.075125203 91:0.06988015 92:0.050446332 93:-0.018698502 94:0.16811471 95:-0.43682563 96:0.02127634 97:-0.14284754 98:-0.09295211 99:0.16145198 100:-0.053208895 101:-0.085316464 102:-0.0098489467 103:0.039850857 104:-0.064065494 105:-2.768905e-05 106:0.013024356 107:-0.067836046 108:3.2567976e-05 109:0.07999061 110:-0.0034319991 111:-0.010090638 112:-0.053493209 113:-0.017299997 114:0.024728283 115:-0.14827052 116:0.045246091 117:-0.0027476335 118:5.1958497e-05 119:0.032210298 120:0.093112312 121:-4.4030483e-05 122:-0.13874868 123:-0.012255926 124:-0.033554707 125:-0.010319093 126:-0.067268647 127:-0.14382495 128:-0.11641925 129:-0.19227734 130:-2.389055e-05 131:-0.17501137 132:-0.21327172 133:2.4722065e-05 134:0.015414298 135:0.010730765 136:0.097356558 137:0.085320808 138:0.095371723 139:-0.0082805958 140:0.013097309 141:-0.030004857 142:0.00589009 143:0.0073682116 144:-4.1237003e-05 145:0.10351551 146:0.13845898 147:-0.28646645 148:0.0089407852 149:0.069639549 150:-0.083083421 151:-0.033853326 152:0.42098382 153:-0.20049976 154:-0.0014562998 155:-0.29547676 156:0.015244012 157:0.16597663 158:-0.086309321 159:-0.014424951 160:-0.10644813 161:0.16225554 162:0.00056478445 163:-0.013275206 164:0.027819242 165:-0.038298611 166:0.014889567 167:0.03139364 168:0.094087891 169:0.10129693 170:0.0065454845 171:0.21042235 172:-0.06988176 173:-0.050952632 174:0.0087005766 175:2.5790385e-05 176:0.10029705 177:0.033698421 178:0.0036540399 179:2.9827468e-05 180:-0.061437994 181:0.0876415 182:0.28404 183:-0.12483302 184:-0.036627334 185:-0.22956859 186:0.014233258 187:0.043198723 188:0.028615465 189:0.0056137941 190:0.21941443 191:0.023044478 192:2.8102313e-05 193:-0.09155871 194:-0.020966765 195:-0.018674105 196:0.015648557 197:-0.071189128 198:0.037172891 199:0.023037743 200:-0.016485009 201:0.021148965 202:-0.02784637 203:0.084797919 204:2.2172529e-05 205:-0.091990814 206:-0.250824 207:-0.0065034265 208:-0.00078416726 209:0.13965422 210:-0.068339273 211:-0.082147323 212:-0.023198217 213:0.097928122 214:0.050882369 215:-0.049035285 216:-0.13895117 217:0.0094548389 218:-0.021018347 219:0.044594817 220:-0.0066762106 221:-0.075430162 222:-0.22011229 223:0.14223203 224:-2.0087691e-05 225:-0.14353466 226:-3.4394405e-05 227:-0.059273407 228:0.013606222 229:0.20893121 230:0.037478745 231:0.019292407 232:-0.23310608 233:-0.10168624 234:0.326278 235:0.14434206 236:-0.027325215 237:-0.30384025 238:-0.16606134 239:0.0060748728 240:-0.011656181 241:0.017240854 242:3.1431886e-05 243:-0.09308441 244:-0.063887224 245:-0.011885233 246:-0.0063562491 247:-0.010767892 248:-0.013384231 249:-0.0078494251 250:-3.8313497e-05 251:-0.1872568 252:0.10123952 253:0.30665508 254:-0.058259107 255:0.19336364 256:0.037709024 257:-0.014315392 258:-0.11387072 259:0.042060029 260:-0.046632744 261:0.013792862 262:1.833878e-05 263:-0.019747401 264:-0.0057374118 265:-3.2382974e-05 266:-0.025424847 267:-0.017344316 268:0.0022046256 269:-0.021709975 270:0.056406699 271:4.1870113e-05 272:0.010415494 273:-0.024071958 274:0.01025033 275:-0.040990829 276:-0.10490776 277:0.0054905796 278:-0.0021432173 279:0.027840374 280:-0.0005661624 281:-0.033377919 282:0.088956296 283:5.9398932e-05 284:-0.11494358 285:-2.4392861e-05 286:0.016394008 287:0.037132457 288:-0.012262613 289:-0.029250085 290:-0.025459241 291:-0.041995976 292:-0.022743085 293:0.064425066 294:-0.006800483 295:0.0076188431 296:-0.089068674 297:-0.097596362 298:0.0076618795 299:0.023512544 300:0.053990372 301:0.014509073 302:-0.23236251 303:-0.064994916 304:-0.10387945 305:-0.017240806 306:-0.014899915 307:0.090431698 308:-4.6136989e-05 309:-0.16292389 310:0.055884209 311:0.15321325 312:0.015919015 313:-0.037606876 314:-5.6872548e-05 315:0.046484321 316:2.7068489e-05 317:-4.8390553e-05 318:-0.083854221 319:-0.11658348 320:-3.2049473e-05 321:0.13900973 322:0.022598689 323:8.8681636e-06 324:0.11370979 325:-0.029249242 326:0.078307077 327:0.0065792687 328:-0.22180869 329:-0.19363743 330:0.070302606 331:-0.0052582966 332:1.8242354e-05 333:-0.0057728393 334:0.1374187 335:-0.081134722 336:0.037537973 337:-0.23450409 338:-0.067667626 339:-0.077918626 340:0.25811639 341:0.083220482 342:-0.099405758 343:-0.047053244 344:-0.011372755 345:-0.062562473 346:0.26410493 347:-0.076916859 348:-0.067840025 349:0.14754969 350:-0.023602456 351:0.11744967 352:-0.12491515 353:0.013844671 354:-0.0058854581 355:-0.3235341 356:-0.15129101 357:-0.26792893 358:0.4178555 359:0.13062143 360:-0.16534832 361:0.077066466 362:-0.43756238 363:-0.1950421 364:0.16492745 365:-0.024416985 366:-0.020294672 367:0.01605057 368:0.11193809 369:-0.012373769 370:0.028642118 371:0.0078620873 372:-3.0514882e-05 373:0.094077475 374:0.065341555 375:0.10565623 376:0.095993713 377:-4.005697e-05 378:0.15509516 379:-2.7338145e-05 380:-0.042167656 381:2.3101733e-05 382:0.0066984151 383:0.032099649 384:3.1738244e-05 385:-0.10238453 386:-0.0050189816 387:0.1638488 388:0.019267844 389:0.12132865 390:0.16881828 391:0.0066523654 392:0.014346788 393:-0.0021427874 394:-0.028354745 395:0.21460468 396:0.21942422 397:0.029306952 398:0.14069094 399:-0.005989566 400:-0.11428544 401:0.097496122 402:0.064093851 403:-0.086391002 404:0.019348156 405:-0.0021759118 406:0.003492519 407:0.09323021 408:-0.0092480136 409:0.027622197 410:-0.021259138 411:-0.014076382 412:0.10944277 413:-0.19269568 414:1.7398585e-05 415:-0.018384367 416:0.16777888 417:0.077693217 418:0.0011226055 419:0.0084615331 420:0.077957481 421:0.1630806 422:0.0019976764 423:-0.0099336794 424:-0.18947694 425:0.0077802208 426:0.028115701 427:0.025026673 428:-0.010930071 429:-0.060218055 430:0.21096 431:0.15968788 432:0.011595967 433:0.054067638 434:0.006297728 435:0.11586104 436:-0.12864873 437:-4.2478674e-05 438:-0.024236903 439:-0.020499768 440:0.097212687 441:0.0068848673 442:0.1531046 443:-0.042069614 444:2.1379597e-05 445:-0.12670748 446:-0.12499478 447:0.059594709 448:0.088780709 449:0.02362966 450:0.079990603 451:0.0075506871 452:3.6906295e-05 453:-0.023109943 454:-2.3318782e-05 455:3.1612031e-05 456:0.11805359 457:0.14684109 458:0.036836956 459:-0.045071334 460:0.0084001971 461:0.24774258 462:0.055299941 463:-2.2541906e-05 464:0.0069938768 465:0.31633359 466:-0.19196613 467:0.018089682 468:0.06392429 469:0.21561879 470:0.0891684 471:-0.05786711 472:0.060791388 473:0.07905519 474:-0.11207135 475:-0.016336616 476:0.046556972 477:-6.2557438e-06 478:3.6853482e-05 479:-0.017676193 480:0.041349333 481:0.19206767 482:-0.017424604 483:0.51689827 484:-0.013017466 485:-0.11723994 486:0.42666411 487:0.023254858 488:0.10745449 489:-0.024388842 490:0.018712472 491:-0.013054247 492:0.018212138 493:-2.7488852e-05 494:0.10622513 495:0.026843404 496:-0.1054068 497:-0.024414929 498:-0.21096848 499:0.020137172 500:-0.001278208 501:0.060253676 502:1.7804628e-05 503:0.15143801 504:-0.084177017 505:-0.011401902 506:-0.16463719 507:0.09754391 508:0.029195521 509:0.020599918 510:-0.097865008 511:0.014746294 512:-0.1224344 
1 1:-4.8185462e-05 2:-0.15222073 3:5.5309454e-05 4:-0.27693239 5:0.29776627 6:0.1981443 7:2.135322e-05 8:-3.6677564e-05 9:0.42278993 10:-3.3352859e-05 11:3.9398026e-05 12:-1.4135038e-05 13:-3.444116e-05 14:3.4070581e-05 15:0.0090555064 16:-5.6432065e-05 17:0.011233525 18:2.5589767e-05 19:-0.19309205 20:-0.013776479 21:0.16460355 22:4.1201562e-05 23:-0.1286668 24:3.758914e-05 25:5.0940289e-05 26:-7.6843724e-05 27:0.49252254 28:0.08607623 29:0.25406164 30:7.4241625e-06 31:-3.5404908e-05 32:1.8966497e-05 33:3.6261594e-05 34:4.5276389e-05 35:3.0925839e-05 36:-9.5721371e-06 37:-0.42710444 38:1.8361237e-05 39:-3.6080015e-05 40:3.0728774e-05 41:-1.9031053e-05 42:-3.229389e-05 43:-4.0680246e-05 44:-2.8546579e-05 45:4.274672e-05 46:0.30123118 47:-0.33710271 48:-2.2746461e-05 49:1.2458751e-05 50:-0.0055525964 51:1.866648e-05 52:-3.0180283e-05 53:-2.2515882e-05 54:5.8213656e-05 55:0.0084165698 56:-4.5369747e-05 57:4.6616369e-05 58:0.39885074 59:0.2659989 60:1.6664113e-05 61:0.017164949 62:4.255473e-05 63:-3.0517578e-05 64:4.4673434e-05 65:3.1246222e-05 66:-0.036200926 67:-0.085307047 68:4.3650653e-05 69:-3.7092694e-05 70:0.20538181 71:0.068831615 72:-5.3827949e-05 73:-5.7544497e-05 74:1.7619333e-05 75:-0.31549075 76:-2.4920204e-05 77:-3.723253e-05 78:5.4929082e-05 79:1.3456988e-05 80:0.13704887 81:0.00017509307 82:0.34066871 83:-5.3223797e-05 84:3.5238663e-05 85:-0.25220898 86:4.9634156e-05 87:1.9745623e-05 88:-5.67307e-05 89:-1.4935875e-05 90:-4.7317055e-05 91:-0.19305623 92:-0.12866679 93:4.9834998e-05 94:3.8729155e-05 95:-3.7599915e-05 96:0.2947512 97:0.19568366 98:4.9243794e-05 99:0.39618087 100:0.068815656 101:-4.7713376e-05 102:9.0985843e-05 103:-3.2130232e-05 104:6.2167032e-06 105:-0.081392929 106:-0.19440454 107:4.1320996e-05 108:2.3856688e-05 109:4.5125562e-05 110:-0.0084165568 111:-6.2724503e-05 112:3.8062113e-05 113:2.6913975e-05 114:-1.3252436e-05 115:-0.16460353 116:-0.014093315 117:-3.1290965e-05 118:-4.0690105e-05 119:0.011233421 120:0.25148803 121:-2.4917499e-05 122:1.1359361e-05 123:3.4289293e-05 124:2.8876862e-06 125:3.8090395e-05 126:-0.069347307 127:-0.16503437 128:3.5360339e-05 129:2.5684369e-05 130:-0.00037448853 131:-3.062336e-05 132:3.0748499e-05 133:2.8996161e-05 134:-8.0098551e-05 135:8.4824014e-06 136:-0.29419324 137:-2.8319113e-05 138:0.25148803 139:-2.6913975e-05 140:-0.19686086 141:-5.5845092e-05 142:-5.0755025e-05 143:-3.747741e-05 144:-6.5509295e-05 145:0.39885074 146:0.070244461 147:-0.34066871 148:1.5477961e-05 149:0.2659989 150:3.2577835e-05 151:-2.7974447e-05 152:0.53074229 153:0.09194535 154:2.0506166e-05 155:2.1876844e-05 156:0.053765081 157:-0.016497074 158:-0.0032182923 159:-3.9902385e-05 160:-0.0088330833 161:3.218757e-05 162:4.9104114e-05 163:3.9078368e-05 164:-3.5369289e-05 165:0.00038521516 166:3.7709811e-05 167:-0.0643197 168:-0.043259587 169:-0.017582225 170:2.334437e-05 171:2.5544437e-05 172:-0.13283841 173:2.9048661e-05 174:-4.5492921e-05 175:0.010356465 176:2.157919e-05 177:4.1320996e-05 178:-3.7120943e-05 179:1.8731333e-05 180:3.6751066e-05 181:-0.014825225 182:-2.738763e-05 183:-2.645375e-05 184:2.0068115e-05 185:-0.25718966 186:-0.045196276 187:-3.3738452e-05 188:-2.4251465e-05 189:4.0690105e-05 190:0.3923423 191:-0.068983436 192:2.0173426e-05 193:-0.0065875729 194:-2.656313e-05 195:-0.0041990262 196:0.009055458 197:-2.9657756e-05 198:1.5571428e-05 199:1.4875475e-05 200:-3.5935696e-05 201:3.967703e-05 202:-1.6311185e-05 203:5.2401381e-05 204:-5.0585975e-05 205:-3.3181579e-05 206:0.0079108672 207:0.0051994771 208:-1.0172528e-05 209:4.255473e-05 210:5.2254087e-05 211:-0.42356223 212:3.9701834e-05 213:0.25406164 214:-2.0398162e-05 215:-0.1981443 216:-5.6934441e-05 217:2.5431314e-05 218:7.4505806e-09 219:-5.7262831e-05 220:-1.6288401e-05 221:-0.23775128 222:-0.023923505 223:0.20324728 224:-4.2536831e-05 225:-0.15936148 226:4.3158998e-05 227:0.00010765591 228:-1.9314324e-05 229:-3.1972624e-05 230:-0.18611757 231:-1.3028198e-05 232:0.10640373 233:0.18538317 234:-0.23745131 235:-0.15879722 236:0.18538317 237:0.12511764 238:-3.1951844e-05 239:1.1798797e-05 240:3.8062106e-05 241:-1.736426e-05 242:1.6607899e-05 243:-0.10577023 244:-0.27398422 245:-5.8169011e-05 246:-4.7268746e-05 247:2.2770089e-05 248:-5.631457e-05 249:-1.5424228e-05 250:-2.2746461e-05 251:-0.15856691 252:0.14339609 253:0.3410778 254:-7.1207687e-05 255:0.01114556 256:0.2374513 257:-3.7634909e-05 258:-0.20325451 259:-3.4402845e-05 260:0.15786687 261:-0.086076215 262:-0.017143868 263:-0.0044124955 264:-0.011171837 265:2.8772249e-05 266:3.7720736e-05 267:1.0172529e-05 268:-2.8896427e-05 269:-2.6180653e-05 270:-3.7725367e-06 271:1.9328561e-05 272:6.2893254e-05 273:2.9438876e-05 274:-8.3382174e-06 275:-7.1930735e-06 276:-4.2320073e-05 277:1.9031053e-05 278:-2.9967641e-06 279:2.4917499e-05 280:5.2213676e-05 281:1.9237639e-05 282:-1.0491043e-05 283:-0.2423164 284:-1.264131e-05 285:-5.8436715e-05 286:-3.0471148e-05 287:3.3947155e-05 288:7.0204751e-06 289:-7.4973791e-06 290:3.4017288e-05 291:1.1338668e-05 292:1.2795981e-05 293:-6.1035156e-05 294:1.8361236e-05 295:-3.5424786e-05 296:-4.6754903e-05 297:-0.14341037 298:0.0028571412 299:0.0066828951 300:0.010546798 301:0.0020703536 302:-2.0345051e-05 303:-4.5492921e-05 304:-0.20677046 305:2.8772247e-05 306:2.6176129e-05 307:-1.9388772e-05 308:-2.9310568e-05 309:1.2456494e-05 310:2.4389794e-05 311:2.4675968e-05 312:-4.242302e-05 313:0.013776496 314:5.7544497e-05 315:-4.771338e-05 316:-2.5311949e-05 317:-1.4386125e-05 318:-0.10704195 319:-0.25437301 320:1.8439934e-05 321:0.0020516233 322:-0.018261354 323:-4.3008258e-05 324:3.4813274e-05 325:2.4490115e-05 326:0.36995676 327:0.064319685 328:-0.32684934 329:-0.21091482 330:0.25602201 331:0.043306839 332:-3.1675205e-05 333:0.0011040353 334:3.5019802e-05 335:-0.10577023 336:-0.32538801 337:2.7362132e-05 338:5.3827949e-05 339:0.09998779 340:0.24687721 341:0.15936147 342:7.3826093e-05 343:4.9021987e-06 344:4.0021248e-05 345:4.1202846e-05 346:-5.9632141e-05 347:-8.8096662e-05 348:-2.0345053e-05 349:-0.3923423 350:6.1596547e-05 351:1.9466661e-05 352:4.7713376e-05 353:5.1368741e-05 354:2.9741876e-05 355:7.3355128e-05 356:1.0887398e-05 357:-0.27693239 358:0.53074229 359:-3.8998631e-05 360:3.3160755e-05 361:-2.8089804e-05 362:-2.0345055e-05 363:0.085456491 364:0.20324728 365:3.0638901e-05 366:6.9231173e-05 367:4.0920389e-05 368:-0.24024639 369:0.15616551 370:-0.00011591233 371:3.2962755e-05 372:-2.8193735e-05 373:-4.8663958e-05 374:-0.2402461 375:-1.2856078e-05 376:6.1877057e-05 377:0.32538798 378:4.7444828e-05 379:-1.8996003e-05 380:3.038065e-05 381:-3.2201813e-05 382:4.9834998e-05 383:1.6084176e-05 384:-2.553641e-05 385:1.1373229e-05 386:-3.9068327e-05 387:-5.4603352e-05 388:0.0089513706 389:2.4656574e-05 390:0.13423701 391:1.4581484e-05 392:2.0345053e-05 393:3.4869663e-05 394:1.0172525e-05 395:-0.20479253 396:-0.015279982 397:3.2860975e-05 398:0.018563326 399:-1.6514856e-05 400:-0.011303855 401:4.0690105e-05 402:6.6072498e-06 403:4.5492918e-05 404:0.010546659 405:2.0345051e-05 406:0.022556884 407:-1.6676429e-05 408:4.9834998e-05 409:-0.01284638 410:-0.0088330442 411:4.9181825e-05 412:-2.317482e-05 413:-7.8796053e-05 414:-2.7867141e-05 415:-4.1491578e-05 416:-2.3792483e-05 417:3.7479167e-05 418:-9.0634376e-06 419:-6.5328226e-05 420:1.7486005e-05 421:-0.31549075 422:-2.0990838e-05 423:0.0061914907 424:-0.39618084 425:2.7742291e-05 426:-5.9519003e-05 427:-5.4963912e-05 428:-3.1763702e-05 429:-9.3540257e-06 430:0.42710444 431:-3.3612327e-05 432:-3.596531e-05 433:0.1323957 434:0.022556869 435:0.057046693 436:3.225213e-05 437:2.5257345e-05 438:6.3324645e-05 439:1.8059756e-05 440:-1.2900092e-05 441:-0.013688891 442:5.4306427e-05 443:-0.24231641 444:8.4589183e-06 445:0.37357154 446:0.24645996 447:4.0690102e-05 448:4.5416426e-05 449:1.8096209e-05 450:3.6774334e-05 451:-2.1070833e-05 452:-3.8503189e-05 453:-0.19440456 454:3.7592752e-05 455:1.9498704e-05 456:0.011145591 457:-5.3066284e-05 458:3.4603141e-05 459:4.4879711e-05 460:-3.2287437e-05 461:1.1156178e-05 462:4.9641752e-05 463:-2.5869474e-05 464:0.22637868 465:0.15222073 466:0.045196321 467:-6.4336702e-05 468:4.4069195e-05 469:0.31552052 470:2.7602357e-05 471:-0.099987797 472:2.6813999e-05 473:0.085456498 474:-0.42278993 475:-0.066503339 476:0.0084551061 477:3.2168351e-05 478:-4.931802e-05 479:1.245875e-05 480:-7.2981688e-06 481:-2.09712e-05 482:4.2575688e-05 483:0.57243997 484:-0.0061915405 485:-3.822667e-05 486:-6.1457555e-05 487:2.9551124e-05 488:0.19404666 489:2.3856688e-05 490:-3.9398023e-05 491:-1.0172527e-05 492:2.2746461e-05 493:4.4776451e-05 494:-0.018261282 495:-3.1364547e-05 496:-0.31889346 497:-4.2659445e-05 498:-5.9564285e-05 499:-3.8735823e-05 500:5.268356e-09 501:-2.1799691e-05 502:4.1435891e-05 503:-0.018230816 504:-0.014578111 505:-0.0055523515 506:-0.25437301 507:0.20479253 508:2.0345053e-05 509:-3.5238663e-05 510:-0.22637869 511:1.3278974e-05 512:-0.24527477 
0.2080589956467425 1:-0.013488795 2:-0.060985547 3:0.12985365 4:-0.16286121 5:1.7424223e-05 6:0.038834799 7:0.26147413 8:-4.4377462e-05 9:5.5867481e-06 10:1.3432074e-05 11:1.2834282e-05 12:-0.056552872 13:6.3117244e-05 14:2.8069649e-05 15:0.14323588 16:1.8974011e-05 17:0.020574993 18:0.057259887 19:0.016193122 20:-4.7908947e-05 21:0.18300933 22:-3.1547523e-05 23:-0.074980691 24:0.041775372 25:-0.036404558 26:2.2308934e-05 27:0.031266015 28:0.050976917 29:0.094829097 30:-4.6513545e-05 31:0.0040929546 32:-4.8544076e-05 33:4.135324e-05 34:-2.9081666e-05 35:-0.0005818322 36:1.8476536e-05 37:-0.091004066 38:0.006168521 39:0.015855899 40:-2.6132942e-05 41:-0.019697281 42:-1.9894542e-05 43:0.030945467 44:2.3685439e-05 45:2.9522589e-05 46:0.052018896 47:0.1101158 48:-1.2594864e-05 49:-0.27159524 50:-0.034152776 51:-3.9529139e-05 52:0.025941817 53:-0.014649749 54:3.8294515e-05 55:-0.48685572 56:0.02710712 57:2.3338431e-05 58:0.0069229729 59:0.067121997 60:0.043818206 61:0.020075541 62:-0.038302016 63:-2.5115094e-05 64:0.48853281 65:2.0815434e-05 66:-0.10893451 67:0.074070081 68:0.016545165 69:5.6558733e-06 70:0.13255315 71:0.096581466 72:0.003702658 73:1.0188343e-05 74:-0.027107162 75:2.4582581e-05 76:-0.081674941 77:2.6284963e-05 78:-0.0089895986 79:-0.054115068 80:-0.096614048 81:0.018972252 82:0.13815297 83:-0.016994726 84:-2.9656756e-05 85:-0.03893489 86:0.062601902 87:-3.2592059e-05 88:0.10718162 89:3.9062677e-05 90:0.0070378412 91:0.17849658 92:0.0073918756 93:-0.0010124451 94:0.0063099493 95:-2.8338081e-05 96:0.016745731 97:-0.026820537 98:1.9359602e-05 99:0.049966741 100:0.096771643 101:0.098342881 102:-4.526593e-05 103:0.0057327715 104:0.21565542 105:-0.14323944 106:-0.029605277 107:0.030416118 108:0.21581785 109:2.0296931e-05 110:3.2952179e-05 111:-0.004848443 112:0.10599459 113:0.084786884 114:0.0033159594 115:-0.17580701 116:-0.088125512 117:1.652209e-05 118:1.7867775e-05 119:0.013495622 120:0.12402101 121:0.01126759 122:-0.020245286 123:3.7433951e-05 124:-0.0070377677 125:5.5667069e-06 126:-0.065868087 127:-0.036425754 128:-0.00091262552 129:-0.01396595 130:1.8731334e-05 131:3.3893848e-05 132:3.0038478e-05 133:0.010357323 134:0.046405297 135:0.037171356 136:0.039854556 137:0.012604062 138:-0.038068671 139:-2.1855094e-05 140:1.6147567e-05 141:-0.045582287 142:0.10007169 143:0.014828091 144:-7.2453036e-06 145:3.9633032e-05 146:0.096748441 147:-0.14923622 148:-3.6734855e-05 149:0.069572754 150:2.5080943e-05 151:-0.094053663 152:0.058696326 153:0.10325263 154:0.060609881 155:0.20820101 156:0.022999024 157:0.09879908 158:0.10508981 159:-0.048450738 160:-0.050146226 161:0.38051739 162:-2.5376319e-05 163:0.076855645 164:0.0066483794 165:0.0084773069 166:2.1286191e-05 167:0.12431804 168:-0.047209948 169:-0.016024763 170:-0.35378867 171:-0.00029796609 172:-0.073650606 173:-0.0088049127 174:0.26674294 175:0.11033536 176:-0.10574707 177:-5.7363977e-06 178:-5.4247947e-05 179:-2.3691868e-05 180:0.52247 181:0.2088621 182:-0.018723652 183:-4.7223111e-05 184:3.3017517e-05 185:-0.078472726 186:-0.13090475 187:4.9243474e-05 188:0.0559313 189:-0.48714218 190:-0.23752305 191:-0.17963754 192:-0.051329803 193:-0.042054992 194:0.017916938 195:0.0074713347 196:0.15498324 197:-5.1303425e-05 198:-0.041477188 199:3.7161299e-05 200:-0.036548186 201:-1.0839973e-05 202:0.097872183 203:0.016545219 204:3.6152866e-05 205:-2.866823e-05 206:-0.0084819635 207:0.068701938 208:-0.080088921 209:0.0076825307 210:-0.10071801 211:-0.13550751 212:-0.0049900627 213:0.10814369 214:-1.5433014e-05 215:-0.051608648 216:-0.13034159 217:1.3999388e-05 218:-4.1723539e-05 219:-0.052094765 220:-2.4511091e-05 221:-0.0037602768 222:3.7617861e-05 223:0.02413127 224:-0.0059700571 225:-0.02559188 226:3.3212254e-05 227:-0.036677383 228:4.4439577e-05 229:-0.2192452 230:-0.29868025 231:-0.019013181 232:-0.053357799 233:-0.012095271 234:-2.7622875e-05 235:-0.062596701 236:2.9934303e-05 237:0.030208861 238:-0.085587032 239:-0.052600119 240:0.039485391 241:2.930803e-05 242:-1.3554948e-05 243:-0.10742953 244:-0.044785626 245:-4.1590916e-05 246:0.036458895 247:0.0036788569 248:2.9049304e-05 249:-1.1815508e-05 250:-0.019494621 251:-0.14582422 252:0.057069343 253:0.037711635 254:0.0025536669 255:2.0709211e-05 256:2.1109738e-05 257:0.051329821 258:-0.35040063 259:0.062824152 260:0.043704443 261:-0.034822594 262:-0.19720027 263:-0.071927793 264:-0.021958629 265:-0.0024272315 266:-0.00015550587 267:-0.031111462 268:-0.0044499338 269:2.7370823e-05 270:-4.2312331e-05 271:-2.1498636e-05 272:4.0464227e-05 273:-3.7378453e-05 274:-2.4991308e-05 275:-0.092393108 276:-0.037209947 277:2.1607744e-05 278:-0.013556299 279:-0.18451035 280:4.7106249e-05 281:-2.2325728e-05 282:-0.098060012 283:-0.14362705 284:-3.9182865e-05 285:-3.7165144e-05 286:-0.0016590668 287:-2.3425515e-05 288:-0.069788232 289:4.2402084e-05 290:-3.2847252e-05 291:7.0439855e-06 292:-3.1289339e-05 293:-0.043625113 294:2.6606447e-05 295:-0.00031606955 296:-4.2919695e-05 297:-0.070413254 298:-2.0342342e-05 299:-2.9907278e-05 300:-2.2868848e-05 301:3.924649e-05 302:-3.9406881e-05 303:-0.0059406054 304:-0.13950701 305:-0.012413972 306:-3.9873226e-05 307:1.8700337e-05 308:3.4392175e-05 309:-0.082943261 310:-0.068252958 311:3.8658545e-05 312:-3.4226145e-05 313:0.10621323 314:-2.7631246e-05 315:-0.011138321 316:-0.043773402 317:6.6788125e-05 318:-0.044794101 319:-0.21484959 320:-1.7537284e-05 321:0.039061688 322:-0.090483218 323:-0.010692352 324:0.036677409 325:-0.023692433 326:-0.0024636644 327:-3.8732705e-05 328:-0.15086472 329:-0.10803201 330:0.071656413 331:0.10136041 332:2.2648461e-05 333:0.21872084 334:0.011587607 335:-0.035921253 336:-0.38197318 337:0.038314458 338:4.4027671e-05 339:0.26674294 340:-0.13357674 341:0.1047818 342:0.021915914 343:-1.066294e-05 344:-0.010753475 345:0.025728421 346:0.016994754 347:3.7034995e-05 348:-0.26934773 349:0.071310557 350:-0.034477726 351:0.0064191297 352:0.016708238 353:4.8115839e-05 354:1.490665e-05 355:0.0096204756 356:-2.8617351e-05 357:-0.1628612 358:0.058696296 359:0.010582447 360:-0.018280419 361:2.3891187e-05 362:-0.0090626739 363:0.065692179 364:0.024131263 365:3.9929906e-05 366:0.041923776 367:-0.046405327 368:0.099994481 369:0.13442479 370:-0.050739124 371:0.067742713 372:-3.403733e-05 373:0.023895452 374:-1.514857e-05 375:4.9314662e-05 376:0.058923364 377:0.14400367 378:-2.1010652e-05 379:0.0068921223 380:0.042456407 381:-0.017587675 382:0.072328381 383:3.177168e-05 384:-3.3667944e-05 385:2.5143587e-05 386:-0.16051939 387:-2.528786e-05 388:-0.059057944 389:-2.260309e-05 390:0.20762794 391:-0.055209741 392:0.034622394 393:0.0060107172 394:0.10732387 395:0.048037656 396:0.023661155 397:-0.034594409 398:0.066762105 399:-2.9009863e-05 400:0.0057324558 401:0.012043223 402:-2.7396016e-05 403:-0.087740675 404:0.0038127233 405:3.6468122e-05 406:0.040399034 407:3.6599668e-05 408:3.2247754e-05 409:2.7482169e-05 410:-0.050262917 411:-2.159607e-05 412:0.0089015374 413:0.03902762 414:0.0028852334 415:0.034856953 416:-0.013488834 417:0.0019148764 418:-1.8464343e-05 419:-4.0892417e-05 420:-4.5813049e-05 421:0.003727837 422:-2.562097e-05 423:0.051131681 424:-0.078063324 425:0.20650512 426:4.3752475e-06 427:0.019013165 428:0.03323466 429:-0.034622401 430:0.11624601 431:0.07813219 432:9.8243409e-06 433:-0.10339111 434:0.087696619 435:0.09130317 436:-1.3615566e-05 437:-1.8542494e-05 438:0.030973699 439:-0.15166385 440:-3.5259724e-05 441:-0.091193773 442:0.27857357 443:-0.10630497 444:0.28958052 445:0.11641194 446:0.11232609 447:-1.6818814e-05 448:0.18047939 449:3.6976984e-05 450:-0.07837531 451:-2.9891702e-05 452:0.05225791 453:-0.029605279 454:-3.374595e-05 455:-2.4765328e-05 456:-3.7108872e-05 457:-1.7285471e-05 458:-2.3892038e-05 459:-2.1293345e-05 460:3.8389029e-05 461:0.36878768 462:0.10523757 463:-1.5003294e-05 464:-0.026008938 465:0.15475588 466:0.13176575 467:-0.010753483 468:-1.5509351e-05 469:0.053100403 470:3.1599964e-05 471:-0.010419043 472:5.3148378e-05 473:0.063113496 474:0.0089744478 475:-0.025970262 476:-2.7543705e-05 477:0.025293576 478:0.0060105785 479:-4.8897095e-05 480:0.023454877 481:-0.0059701954 482:0.050739121 483:0.17725676 484:-0.047660481 485:-1.0723166e-05 486:-5.2454601e-05 487:0.015258917 488:0.24547186 489:-0.0081228931 490:-3.5599311e-05 491:0.11043463 492:0.080967866 493:-1.5364394e-05 494:-0.10523251 495:-1.4073367e-05 496:-0.095366403 497:-0.043408621 498:-0.0079468116 499:-2.9181101e-05 500:-3.7163463e-05 501:-2.7051938e-05 502:-4.1115225e-05 503:-0.05609972 504:-0.18775345 505:-0.0050971834 506:-0.10746735 507:-0.11334231 508:0.018343121 509:-0.017314142 510:-0.28909111 511:0.15125428 512:0.23620364 
0.1307293496536202 1:-0.14355674 2:-0.008715109 3:-0.14521562 4:-0.042380553 5:0.020255428 6:0.11280353 7:0.099885933 8:-0.0081805782 9:-0.03174701 10:-0.10831432 11:-0.030988028 12:-0.041060381 13:-0.18394148 14:-0.050386194 15:-0.054506816 16:-0.007662239 17:0.11544622 18:0.04163181 19:0.041478407 20:0.096245229 21:-0.045008697 22:-0.082374021 23:-0.16666041 24:0.18236679 25:0.12136561 26:0.053299997 27:0.15064722 28:0.12046444 29:0.085448213 30:-0.12673844 31:0.072168365 32:0.046783008 33:-0.035881318 34:-0.17748719 35:-0.19389451 36:-0.051380526 37:0.10996192 38:0.019738941 39:0.10147739 40:0.11864849 41:-0.21696931 42:0.021369396 43:-0.10704701 44:0.071232028 45:0.029414974 46:0.057345979 47:-0.0034314096 48:-0.049576245 49:-0.13723029 50:0.069411628 51:0.012312351 52:0.2800267 53:0.074388914 54:-0.01044265 55:-0.14348829 56:0.1297473 57:0.06571047 58:-0.072039388 59:0.15657751 60:0.21754847 61:0.15221797 62:-0.044644438 63:0.035722129 64:0.042080674 65:-0.093429402 66:-0.0442352 67:0.20266765 68:-0.030793402 69:-0.017589374 70:0.17199942 71:0.12535119 72:0.08355958 73:0.028284047 74:-0.1181078 75:0.023680143 76:-0.074956931 77:-0.34063873 78:-0.10909298 79:-0.095425017 80:-0.24736975 81:-0.13298255 82:0.14632818 83:0.063960351 84:0.071260527 85:0.059100244 86:0.052704088 87:-0.055534448 88:-0.10672306 89:-0.012478309 90:0.01360985 91:0.12208262 92:0.05837271 93:-0.048645362 94:0.023540881 95:-0.13005285 96:0.26148209 97:-0.068007261 98:-0.14985074 99:0.21190332 100:0.11039501 101:0.11009143 102:0.0081304042 103:0.17927311 104:-0.12343418 105:-0.11879204 106:0.078968331 107:0.14719024 108:0.068129562 109:1.2847129e-05 110:-0.053064764 111:0.02419595 112:0.10929541 113:0.14793514 114:-0.012910043 115:0.14988898 116:-0.11482645 117:0.058151711 118:-0.12046289 119:0.0068833283 120:0.25276974 121:0.0081596123 122:0.06297788 123:-0.06680081 124:-0.21227753 125:0.018263031 126:0.065567084 127:-0.037178721 128:-0.1114378 129:-0.039653216 130:-0.11912971 131:-0.036839273 132:0.11952461 133:0.097438559 134:-0.025564652 135:0.045440324 136:0.096876904 137:0.16871515 138:-0.17971241 139:-0.044357978 140:0.047979206 141:0.068897925 142:0.04777078 143:0.17988631 144:0.00054366241 145:-0.009317752 146:0.095309779 147:-0.062559903 148:0.0924761 149:0.1108551 150:0.1881604 151:0.026892897 152:0.078409776 153:0.14505334 154:0.24248266 155:-0.25622052 156:0.056783482 157:0.24024096 158:-0.16761021 159:-0.16587359 160:-0.13175699 161:0.22688788 162:-0.005587135 163:0.37624332 164:0.018335225 165:0.086706169 166:-0.028479666 167:0.26973835 168:-0.073968455 169:-0.11678124 170:-0.038173437 171:-0.035666358 172:-0.14250684 173:-0.034075949 174:0.3330512 175:0.02754551 176:0.082759552 177:0.094039753 178:-0.034300823 179:-0.074787691 180:0.5782876 181:-0.041016776 182:0.039176937 183:-0.013651741 184:-0.017648447 185:-0.059878111 186:0.10376046 187:0.033867478 188:0.091264583 189:-0.16350779 190:0.045492478 191:-0.079715088 192:-0.028507436 193:-0.18545884 194:-0.094289817 195:0.08247871 196:0.1120466 197:-0.13847673 198:-0.11125843 199:-0.033646666 200:-0.011524869 201:-0.25523588 202:-0.14409046 203:-0.02825637 204:4.5244138e-05 205:-0.11075616 206:-0.014820855 207:0.12810622 208:-0.042996924 209:0.093222268 210:-0.22601458 211:-0.19146556 212:0.013610052 213:-0.065592512 214:-0.0026039062 215:-0.039440431 216:-0.12538099 217:0.051569145 218:0.046217881 219:0.023241423 220:0.050193001 221:-0.20948364 222:-0.0053384304 223:-0.049633171 224:0.029678894 225:-0.16783407 226:0.0016812892 227:-0.2460639 228:0.13410005 229:-0.02209937 230:-0.108984 231:-0.10088433 232:-0.044766758 233:-0.07105723 234:0.019387279 235:-0.20909321 236:-0.018755222 237:0.061150678 238:-0.29402259 239:0.051190224 240:0.060619678 241:0.061757293 242:-0.037089523 243:-0.086049303 244:0.11629316 245:0.11841755 246:0.32883346 247:0.075677164 248:-0.12996352 249:0.031885158 250:0.2561937 251:-0.041753296 252:-0.054280363 253:0.046132877 254:-0.055991944 255:-0.31145832 256:-0.032507576 257:0.018009232 258:-0.18918155 259:0.11244112 260:-0.039480712 261:-0.50332439 262:-0.17401554 263:0.4942933 264:-0.078236036 265:-0.20518577 266:-0.0047468147 267:0.0080962162 268:0.034387831 269:-0.19591409 270:0.15270273 271:0.028279776 272:0.048840646 273:-0.037570473 274:-0.14317286 275:-0.092391767 276:-0.053710185 277:0.019026367 278:-0.045200974 279:0.064721659 280:0.025074005 281:0.030225052 282:-0.3225762 283:-0.07372576 284:-0.037993401 285:0.092665181 286:0.07919915 287:0.10213058 288:-0.12857282 289:-0.060303502 290:-0.051395409 291:0.20479783 292:0.16013192 293:0.037272938 294:0.0035993881 295:-0.06784007 296:-0.1081272 297:0.12826578 298:0.035184089 299:0.095917828 300:0.073402412 301:0.067357004 302:0.01982894 303:0.067682981 304:-0.087842882 305:-0.095312409 306:-0.0030033982 307:0.097673513 308:-0.021428404 309:-0.09890122 310:-0.078862093 311:-0.039496712 312:-0.0091282036 313:0.24650571 314:-0.091031916 315:0.049228087 316:-0.20937009 317:4.8118305e-05 318:-0.0060527031 319:0.32143626 320:0.018266732 321:0.15574975 322:-0.2829591 323:-0.017856978 324:0.25455669 325:-0.067706674 326:-0.12554179 327:0.098841526 328:0.19967458 329:-0.067920253 330:0.038879029 331:0.12067997 332:0.0073344847 333:0.23956722 334:0.15505108 335:-0.026921146 336:-0.04373173 337:0.01004667 338:-0.041466728 339:0.33958262 340:-0.051452667 341:0.36896247 342:0.016714387 343:-0.10229839 344:-0.44970497 345:0.0097383428 346:-0.064144537 347:-0.084779896 348:-0.14239347 349:-0.0805142 350:-0.063595444 351:0.089177176 352:0.15457891 353:0.096652612 354:0.04295864 355:0.054431193 356:-0.083315685 357:0.0058271606 358:0.053252421 359:0.00315259 360:-0.10250015 361:-0.031318214 362:0.016088771 363:0.29862389 364:-0.022610178 365:0.019486502 366:-0.063840188 367:-0.059716079 368:-0.025661401 369:-0.14604469 370:-0.15073976 371:-0.10183815 372:-0.067598239 373:-0.064800456 374:-0.15658556 375:0.050863899 376:0.094662279 377:-0.11235728 378:0.031331751 379:-0.035975114 380:0.18604288 381:-0.0068054167 382:0.12330268 383:-0.024835592 384:-0.046864174 385:-0.079511173 386:-0.23696795 387:-0.01747915 388:0.15641989 389:-0.061844815 390:-0.088509716 391:-0.060799461 392:0.021722196 393:-0.060808983 394:0.24703784 395:0.065496005 396:0.30570301 397:-0.23973462 398:0.094727218 399:0.09880624 400:0.14049685 401:-0.13443141 402:-0.050395515 403:-0.085750081 404:0.1324805 405:-0.26977938 406:0.075458698 407:0.043267585 408:0.059480481 409:0.055158526 410:-0.13745773 411:-0.015696684 412:-0.05472723 413:0.34085819 414:0.016826482 415:-0.07999479 416:-0.15769912 417:0.1324418 418:0.050973497 419:-0.030028321 420:-0.013360151 421:-0.072206162 422:-0.12926503 423:-0.040514562 424:0.16477779 425:-0.02552635 426:-0.014839416 427:0.15070589 428:0.10968246 429:-0.025104947 430:0.025674336 431:0.12900311 432:0.10905766 433:-0.07726381 434:0.20469172 435:0.08406312 436:0.031391326 437:-0.0031688693 438:-0.060992703 439:-0.19832303 440:-0.076974198 441:-0.22879781 442:0.057838786 443:-0.028729022 444:0.26304758 445:-0.028700525 446:-0.19362278 447:0.081708103 448:0.12510125 449:-0.14976564 450:-0.09844251 451:-1.4091594e-05 452:-0.092938952 453:-0.0097118644 454:0.045962092 455:0.012975774 456:-0.0048324508 457:-0.16995811 458:-0.11664017 459:0.020265374 460:0.026585117 461:0.13946611 462:0.062258188 463:0.099811785 464:0.054357231 465:0.20265564 466:-0.11394845 467:-0.017634442 468:0.054281339 469:-0.14928348 470:-0.065015338 471:-0.037615646 472:-0.031467542 473:0.076973669 474:0.10936239 475:0.042668361 476:0.11936891 477:0.21010797 478:0.068358079 479:-0.042200517 480:-0.12533918 481:-0.0040094815 482:0.15153821 483:-0.28177759 484:-0.12078746 485:0.027442576 486:0.16714543 487:0.10556583 488:0.21878895 489:-0.019969985 490:0.010886319 491:-0.015021021 492:0.056808058 493:-0.14416803 494:-0.31896967 495:0.018315874 496:-0.18020034 497:-0.04474109 498:-0.057148889 499:-0.12140178 500:-0.076294042 501:0.01662251 502:-0.052218754 503:-0.14844887 504:-0.14720041 505:-0.055515911 506:-0.37326825 507:-0.093713872 508:0.01530784 509:-0.22312896 510:-0.21834046 511:0.20401168 512:0.093305826 
