svm_type c_svc
kernel_type linear
nr_class 2
total_sv 41
rho 0.049815
label 1 0
nr_sv 21 20
SV
1 1:0.022333324 2:-4.0690105e-05 3:0.24605201 4:-0.26495931 5:2.6913975e-05 6:0.28255582 7:0.18257484 8:-1.9367912e-05 9:3.3738452e-05 10:2.8367633e-05 11:3.1872736e-05 12:-4.6332265e-05 13:-1.0041496e-05 14:4.1593812e-05 15:-2.8967166e-05 16:4.3158372e-05 17:-3.7548889e-05 18:5.2735493e-05 19:4.633806e-05 20:0.38599288 21:-0.24569605 22:1.3823781e-05 23:-0.44351944 24:0.27471629 25:-0.18326984 26:-1.9865036e-05 27:0.39160848 28:0.25258937 29:-3.2625027e-05 30:0.020438522 31:-0.17804278 32:2.8772249e-05 33:-1.1000749e-05 34:0.38657367 35:-0.16624108 36:3.6677564e-05 37:2.785861e-05 38:0.035461485 39:4.8785718e-05 40:3.2846048e-05 41:-0.043092787 42:0.044824496 43:0.17492172 44:-0.22448447 45:-3.2962755e-05 46:0.0212017 47:-0.25761911 48:-0.16624108 49:0.032334398 50:-0.20768389 51:5.0862591e-06 52:-0.024280777 53:-4.4245156e-05 54:-0.25541288 55:0.032190524 56:3.9946877e-05 57:3.8062106e-05 58:0.18869461 59:0.1886946 60:2.6672589e-05 61:1.1962711e-05 62:-0.18194453 63:0.0028004702 64:0.20401795 65:0.24294764 66:-0.19852892 67:-3.2947111e-05 68:4.5492921e-05 69:-0.024032513 70:0.14109555 71:-2.5259362e-05 72:3.7990638e-05 73:0.028128807 74:0.19372582 75:1.4308582e-05 76:-0.024072399 77:4.7168061e-05 78:1.6177861e-05 79:-1.8286059e-05 80:-3.5446745e-05 81:-0.27960119 82:-0.20370466 83:-0.33747721 84:0.4679597 85:0.28255582 86:-1.4676613e-05 87:-0.28596982 88:-3.2717031e-05 89:3.3102904e-05 90:3.7661855e-05 91:-5.3614305e-05 92:-0.25335786 93:2.2981034e-05 94:0.024280639 95:-0.30206636 96:0.17395039 97:-0.033603743 98:2.3349034e-05 99:0.19976728 100:0.1290898 101:0.21209335 102:5.7544497e-05 103:0.2743248 104:-0.34162173 105:-0.18670902 106:-2.0317762e-05 107:-3.2168351e-05 108:-4.3158372e-05 109:-5.5237175e-05 110:-0.27210957 111:3.9398026e-05 112:-0.032367274 113:-0.019960644 114:0.020438565 115:0.20506306 116:-0.050504148 117:-0.017526999 118:-2.2690603e-05 119:4.7713376e-05 120:1.8125176e-05 121:3.2821023e-05 122:-4.6365876e-05 123:5.6658057e-05 124:0.022850551 125:-4.3321972e-05 126:-0.27349034 127:-2.4917497e-05 128:-2.2631293e-05 129:-5.5717221e-05 130:2.6913973e-05 131:3.1966665e-05 132:5.0862633e-05 133:-3.0090738e-05 134:0.17269687 135:0.021706257 136:0.016720846 137:1.9644431e-05 138:-2.8916165e-05 139:3.5457666e-05 140:-0.17598042 141:-4.3636344e-05 142:2.6629979e-05 143:-1.482762e-05 144:0.37275136 145:-0.29138738 146:0.12908982 147:-5.2366282e-05 148:4.0690105e-05 149:4.9834995e-05 150:1.6084176e-05 151:-0.20120749 152:3.411969e-05 153:0.26458848 154:1.5524694e-05 155:-0.49665299 156:1.7619333e-05 157:0.14425795 158:-0.34084201 159:-0.22017239 160:3.5421723e-05 161:4.8965117e-05 162:3.9953909e-05 163:-2.0345053e-05 164:-5.2366282e-05 165:0.29669717 166:-6.2296836e-05 167:-0.192606 168:5.7544497e-05 169:0.20008627 170:0.25699648 171:0.022947153 172:-0.40219629 173:-0.20096436 174:-0.031413443 175:3.0951593e-05 176:-0.033370916 177:6.4336702e-05 178:0.029514406 179:-3.8062106e-05 180:-5.4419819e-05 181:-1.3659971e-05 182:-0.24067681 183:-0.0024303712 184:4.1963256e-05 185:-0.31444484 186:-0.30724293 187:-4.5492918e-05 188:-3.8062106e-05 189:3.6677564e-05 190:0.28965026 191:-0.015096216 192:0.18348844 193:-0.40209541 194:2.0638241e-05 195:3.799313e-05 196:4.8128819e-05 197:-1.4322082e-05 198:-1.2935552e-05 199:2.7206848e-05 200:-2.7311582e-05 201:-4.1535131e-05 202:-0.022575205 203:2.9951463e-05 204:3.7506547e-05 205:-0.38408273 206:-2.0009093e-05 207:0.18348844 208:0.014737753 209:-4.0760558e-05 210:-3.5238667e-05 211:-0.20071267 212:-0.021447159 213:0.26495934 214:1.8362607e-05 215:-4.3158372e-05 216:0.21651718 217:-3.3509357e-05 218:2.4917499e-05 219:0.37648237 220:0.24294765 221:2.6321757e-05 222:-2.7128714e-05 223:2.9179233e-05 224:-4.2355688e-05 225:0.29138735 226:-5.0511739e-05 227:-0.34992433 228:0.02911908 229:0.19932479 230:-0.40211591 231:-0.32769236 232:-0.27635482 233:4.5602195e-05 234:0.20078371 235:-1.4386126e-05 236:-2.2400915e-05 237:-0.26791507 238:-4.3505424e-05 239:0.18261048 240:4.1320996e-05 241:2.9435681e-05 242:-2.4917497e-05 243:-0.19958976 244:-0.14231719 245:-0.03086751 246:7.3454839e-06 247:4.1374577e-05 248:-0.029119054 249:3.9724986e-05 250:1.9895466e-05 251:0.13135959 252:0.18077828 253:2.8748531e-05 254:2.8752385e-05 255:0.023491109 256:3.4123932e-05 257:3.9398023e-05 258:-0.22132671 259:-1.0172527e-05 260:-3.2168351e-05 261:-0.25069621 262:-0.16377917 263:4.3753691e-05 264:2.4656574e-05 265:-0.20506306 266:-3.3676668e-05 267:-1.2815945e-05 268:-3.9731742e-05 269:-5.752148e-05 270:-5.8758264e-06 271:-5.87535e-05 272:4.771338e-05 273:-5.6064371e-05 274:-3.823165e-05 275:-3.2567976e-05 276:3.5238663e-05 277:-0.20017801 278:2.8141889e-05 279:-0.033284616 280:-0.38771674 281:-0.24997698 282:0.04482444 283:-0.010360926 284:4.771338e-05 285:-2.4316503e-05 286:3.0824816e-05 287:-0.022947196 288:-0.29005453 289:-0.032190558 290:-4.5492921e-05 291:-0.26458851 292:0.18609773 293:-3.1353829e-05 294:-3.3744724e-05 295:-2.4917499e-05 296:-8.0373116e-05 297:0.25621608 298:0.20942286 299:1.7619332e-05 300:0.29622984 301:0.18993703 302:-4.6416506e-05 303:0.24269196 304:-0.14109555 305:0.023082893 306:-0.19034065 307:-6.2913598e-05 308:-0.032102246 309:-0.024072424 310:-0.18613304 311:6.4809326e-05 312:1.2493494e-05 313:0.25798947 314:-2.2746461e-05 315:-3.806211e-05 316:3.6853478e-05 317:7.9908787e-06 318:-0.14408769 319:0.090343855 320:-4.771338e-05 321:0.031297557 322:-0.27169767 323:-2.2769105e-05 324:0.34992436 325:4.3721477e-05 326:-3.4496716e-05 327:-0.0014665059 328:0.021241134 329:4.1812087e-05 330:0.19425264 331:0.021210492 332:0.013422577 333:-0.17008208 334:-5.7760781e-06 335:-6.574369e-05 336:4.087044e-05 337:-0.20386411 338:-0.27966863 339:-1.4386123e-05 340:0.39177909 341:2.4917499e-05 342:0.018408418 343:-0.37648237 344:3.715972e-05 345:2.2993961e-05 346:3.5666118e-05 347:-3.5562873e-05 348:0.031475682 349:-4.0269668e-05 350:0.033370934 351:0.28038743 352:-5.4780729e-05 353:-1.4115287e-05 354:-4.0989336e-05 355:3.8062106e-05 356:-4.1006762e-05 357:4.9834995e-05 358:0.34803587 359:0.014737662 360:-0.18613304 361:4.4341017e-05 362:-0.019968919 363:0.25546664 364:-0.26791507 365:-3.5986479e-05 366:-0.26723933 367:-0.17269687 368:-3.5242247e-05 369:0.014631114 370:-0.02548334 371:0.028819354 372:-6.3654537e-05 373:-2.4258366e-05 374:-2.8417424e-05 375:0.28596982 376:3.4012679e-05 377:-4.7069127e-05 378:-2.3238306e-05 379:-5.3848809e-05 380:-0.016136684 381:-2.8740615e-05 382:1.4386124e-05 383:0.21233316 384:-8.5525335e-06 385:-0.36345851 386:2.2746457e-05 387:-5.0735314e-05 388:2.2746461e-05 389:4.633806e-05 390:0.19547105 391:-0.19293642 392:1.0172525e-05 393:-2.6388339e-05 394:-0.0044950452 395:4.7033252e-05 396:0.41363695 397:0.0043908954 398:-3.350171e-05 399:0.021241141 400:-6.4336702e-05 401:-0.21209335 402:-0.028819367 403:-0.14563349 404:0.29421264 405:4.5492921e-05 406:0.18015184 407:5.2857999e-05 408:-3.5603844e-05 409:0.19260597 410:-2.198513e-05 411:-2.0345055e-05 412:-0.22511229 413:-4.4341014e-05 414:0.021447266 415:-0.19208725 416:-2.5175717e-05 417:0.034496482 418:7.7051773e-06 419:1.4386124e-05 420:-2.3856688e-05 421:0.14401841 422:4.8248534e-05 423:-0.015425353 424:-0.43047523 425:0.27576008 426:0.023082763 427:0.25918293 428:-7.0477334e-05 429:-0.044020306 430:0.24269196 431:-0.014560423 432:0.18088378 433:0.27862203 434:0.18015185 435:0.28375944 436:0.022850554 437:-0.0043912074 438:3.6677564e-05 439:0.027924484 440:0.0059293187 441:2.0345051e-05 442:-4.0690105e-05 443:0.27947664 444:-0.18181355 445:-0.20896645 446:0.39818513 447:-4.1149447e-05 448:-1.0172531e-05 449:-4.0690105e-05 450:2.4675206e-05 451:4.7223642e-05 452:-3.8581613e-05 453:-2.3895191e-05 454:5.7199104e-05 455:-2.9488352e-05 456:0.023491131 457:1.7125092e-05 458:1.6734492e-05 459:9.5239729e-06 460:-4.1798594e-05 461:-0.27960116 462:-1.6806696e-05 463:6.452392e-09 464:0.38828003 465:-4.5429802e-05 466:-0.24252714 467:2.8772249e-05 468:5.000395e-05 469:-3.2168351e-05 470:9.9823792e-06 471:-0.30577314 472:-2.2746461e-05 473:-2.6497934e-05 474:0.32775185 475:8.1380211e-05 476:0.1500119 477:-3.5425997e-05 478:3.5379973e-05 479:-4.2222626e-05 480:3.9182953e-05 481:2.0345055e-05 482:0.037801839 483:0.020907618 484:-0.28999168 485:0.27353865 486:-4.5492921e-05 487:-5.5717221e-05 488:-5.1869909e-05 489:3.3590608e-05 490:0.024032608 491:0.20120749 492:5.0709041e-05 493:-0.032367278 494:4.8027523e-05 495:-2.4917497e-05 496:-0.10219657 497:2.5107103e-05 498:-0.2005032 499:-3.8062106e-05 500:-0.030774578 501:0.26743016 502:-4.0360759e-05 503:-0.023626605 504:-2.6730246e-05 505:0.13560238 506:-1.3767474e-05 507:-5.5879354e-09 508:3.1353833e-05 509:0.0309976 510:-0.016136672 511:0.19322896 512:-1.9291474e-05 
1 1:0.065962635 2:-0.0012086806 3:0.22795336 4:-0.25502169 5:-0.025668625 6:0.28075334 7:0.19168033 8:2.9328825e-05 9:2.2746459e-05 10:-0.0076360018 11:-0.0011454849 12:-3.3750286e-05 13:-0.04001781 14:-0.0094056986 15:-0.040320322 16:3.6677564e-05 17:-5.3662483e-05 18:0.0059596286 19:0.009504633 20:0.39845037 21:-0.21892612 22:0.010629249 23:-0.37696531 24:0.29979539 25:-0.19794568 26:-1.2919339e-05 27:0.40300527 28:0.28012714 29:-0.067942098 30:0.043956816 31:0.074179739 32:-0.025668632 33:0.012908021 34:0.34484759 35:-0.20208691 36:6.4336702e-05 37:4.5332701e-05 38:0.059717998 39:5.9966158e-05 40:6.0041944e-05 41:-0.091045141 42:0.09082754 43:0.21420765 44:-0.21511619 45:3.0517576e-05 46:0.038515508 47:-0.26002005 48:-0.17950471 49:0.047740936 50:-0.18694249 51:-0.030468915 52:0.0098627619 53:-3.5979261e-05 54:-0.23695326 55:-0.09037786 56:-0.0041353353 57:3.8735827e-05 58:0.24863149 59:0.25737083 60:-3.6853475e-05 61:-3.5327077e-05 62:-0.21245739 63:0.00077559467 64:0.19558808 65:0.24031313 66:-0.18053618 67:-0.052650668 68:-0.039925963 69:-0.030060137 70:0.19523412 71:0.033311244 72:-0.0013757937 73:0.056715574 74:0.16579862 75:0.0052760025 76:0.020157946 77:-0.030620273 78:-0.040409431 79:1.1064436e-05 80:-0.02914587 81:-0.24525312 82:-0.1794012 83:-0.29508114 84:0.3924855 85:0.27844438 86:-0.01226134 87:-0.25732237 88:-3.0879917e-05 89:0.0055414224 90:0.0053631053 91:-0.022813687 92:-0.27871376 93:-0.015737655 94:-0.039825816 95:-0.24543867 96:0.22844799 97:0.028312273 98:2.4379857e-05 99:0.26116392 100:0.18482272 101:0.16476648 102:-0.034750499 103:0.32101175 104:-0.31718361 105:-0.18594232 106:2.2629343e-05 107:-0.082121924 108:-3.8568498e-05 109:0.078789569 110:-0.26737848 111:5.7544497e-05 112:-0.059157953 113:-0.051541422 114:0.03931294 115:0.25020966 116:-0.047593933 117:-0.059314474 118:-0.041082341 119:2.8319113e-05 120:4.5114743e-05 121:1.8032757e-05 122:-3.1194726e-05 123:2.1040598e-05 124:-0.01006477 125:-2.4399831e-05 126:-0.26241928 127:3.6831534e-05 128:-0.00071545527 129:-0.007635959 130:-3.7376249e-05 131:0.0040015788 132:-0.0052678878 133:-3.0304909e-05 134:0.25136197 135:0.05251427 136:0.0069556548 137:0.098621361 138:-0.11648015 139:4.142473e-05 140:-0.22289963 141:-3.5367269e-05 142:-0.027778283 143:0.031137792 144:0.31934646 145:-0.22951721 146:0.1809174 147:-4.1320996e-05 148:4.0049275e-05 149:-0.0042735203 150:0.053701222 151:-0.18699753 152:0.038740724 153:0.30279768 154:-0.038740736 155:-0.4455058 156:-3.9398026e-05 157:0.15399025 158:-0.32737118 159:-0.23315017 160:2.7390364e-05 161:5.0213239e-05 162:0.084393211 163:-1.6234262e-05 164:-1.2458749e-05 165:0.27562177 166:0.015766954 167:-0.23413962 168:-0.0087739434 169:0.1773064 170:0.2901586 171:0.035280749 172:-0.37995899 173:-0.20963013 174:-0.069865219 175:-1.4159555e-05 176:0.077430882 177:0.05704705 178:0.07704594 179:0.064862974 180:-3.1635926e-05 181:-2.6241101e-05 182:-0.23111576 183:0.077391878 184:-0.01073088 185:-0.33698958 186:-0.323502 187:-0.032273673 188:-0.009347626 189:0.011662638 190:0.26021776 191:-0.02462869 192:0.17743994 193:-0.38904309 194:0.0014726433 195:0.005989525 196:4.9252001e-05 197:-0.0024763653 198:-2.1832573e-05 199:3.242381e-05 200:0.0052408418 201:-2.4853094e-05 202:-0.064156078 203:-0.0099194953 204:4.4938151e-05 205:-0.32929951 206:-0.0025524986 207:0.17754214 208:-0.042709142 209:-3.3265078e-05 210:-4.6927496e-05 211:-0.21178265 212:-0.030607503 213:0.25502166 214:-1.202447e-05 215:-0.0069055869 216:0.17199539 217:-0.00047140048 218:0.026251201 219:0.35372713 220:0.24049121 221:4.1289066e-05 222:-4.7069079e-05 223:-4.3733038e-05 224:-2.1360089e-05 225:0.23042667 226:0.030582795 227:-0.31380492 228:0.010286291 229:0.19863351 230:-0.38915616 231:-0.33614582 232:-0.2991392 233:5.4063315e-05 234:0.17534621 235:-0.035862304 236:-2.7308621e-05 237:-0.23987794 238:-6.3893378e-05 239:0.30710888 240:0.031786129 241:2.9051604e-05 242:-2.6428999e-05 243:-0.25050876 244:-0.17554566 245:-0.06671267 246:0.025049768 247:4.9531165e-05 248:-0.0099246111 249:5.6866152e-06 250:4.0816169e-05 251:0.22397822 252:0.20185198 253:-1.7955263e-05 254:2.4312816e-05 255:-0.015088901 256:4.3244272e-05 257:-0.078300357 258:-0.23593239 259:-0.0077789435 260:-2.2746461e-05 261:-0.27118933 262:-0.21414362 263:0.018442277 264:-0.015876692 265:-0.25173831 266:-1.6998743e-05 267:0.0014730635 268:0.0010563952 269:-0.017861586 270:0.020153536 271:-4.5402088e-05 272:0.023031741 273:0.0039675394 274:-0.053580608 275:-2.246033e-05 276:-4.7713376e-05 277:-0.17234623 278:-0.047730513 279:-0.051802434 280:-0.366099 281:-0.25189412 282:0.091160029 283:-0.021759808 284:-0.11287436 285:0.019719118 286:-5.5200744e-05 287:0.070112474 288:-0.2721791 289:0.0067749419 290:-3.4869663e-05 291:-0.30159107 292:0.18491459 293:-0.0072887824 294:-0.011709503 295:0.021980343 296:0.064862952 297:0.20542111 298:0.16879369 299:2.385669e-05 300:0.2520285 301:0.17220904 302:-4.4956636e-05 303:0.21880925 304:-0.19642654 305:0.024031395 306:-0.22641894 307:-3.4496712e-05 308:-0.052862637 309:-0.0083519062 310:-0.15345363 311:-0.019743349 312:3.4017288e-05 313:0.26298594 314:-1.7619332e-05 315:-4.0690105e-05 316:-1.4828883e-05 317:-3.8519029e-05 318:-0.17878924 319:-0.038450655 320:-0.059732892 321:0.071399271 322:-0.24439438 323:0.042388964 324:0.31231841 325:0.016290411 326:3.5238663e-05 327:-0.042958274 328:0.036883049 329:-2.6893937e-05 330:0.18608589 331:-0.035856269 332:0.023843814 333:-0.17789935 334:2.3897113e-05 335:-0.028046641 336:-3.2939639e-05 337:-0.20273134 338:-0.25153562 339:0.045864645 340:0.35768399 341:-4.8785721e-05 342:0.033890046 343:-0.35353485 344:0.016725305 345:-0.013550277 346:-0.0017092528 347:-0.012975791 348:-0.059810132 349:-3.0117983e-05 350:-0.022877226 351:0.27661559 352:-2.9657756e-05 353:1.2207914e-05 354:-2.2419927e-05 355:4.0690105e-05 356:0.140086 357:-0.036330391 358:0.29748252 359:0.020681169 360:-0.20480825 361:0.011195675 362:-0.028555218 363:0.17370228 364:-0.23202373 365:-4.0377632e-05 366:-0.33904535 367:-0.25150457 368:0.10372902 369:0.022873282 370:-0.0072170487 371:0.067281589 372:-4.9007791e-05 373:-3.9209739e-05 374:-5.3542994e-05 375:0.25732237 376:4.9766739e-05 377:0.011446186 378:-1.7736025e-05 379:-3.4162389e-05 380:-0.03938492 381:-1.3816471e-05 382:0.010000381 383:0.17630695 384:-3.3192522e-05 385:-0.29704046 386:-2.0345053e-05 387:-0.042388994 388:0.0066824071 389:0.00043108893 390:0.22616778 391:-0.23619489 392:-0.0096064527 393:-0.035016455 394:-0.015024353 395:0.078640342 396:0.38077152 397:0.015562486 398:-3.5398749e-05 399:0.084778167 400:-0.035116266 401:-0.16476651 402:-0.067281581 403:-0.18612902 404:0.25279337 405:4.4341014e-05 406:0.18372281 407:-0.0091297515 408:-0.096742742 409:0.23413962 410:-0.046546277 411:0.03936195 412:-0.28921714 413:-0.11287435 414:0.0311142 415:-0.22514343 416:0.11468688 417:0.012366819 418:0.055201489 419:-0.0054865805 420:2.1579186e-05 421:0.17379685 422:0.01489391 423:-0.062166296 424:-0.46796581 425:0.23970698 426:0.045707706 427:0.26413652 428:-2.8772247e-05 429:-0.067533672 430:0.2183346 431:-0.036341555 432:0.23592399 433:0.26615566 434:0.18372281 435:0.29217443 436:-0.09020637 437:-0.016482757 438:-0.025139086 439:0.044771958 440:0.036043003 441:-4.0690105e-05 442:0.047951233 443:0.25481638 444:-0.12866955 445:-0.16604851 446:0.35512325 447:-5.3163007e-05 448:1.9031053e-05 449:-0.019719247 450:-4.057325e-05 451:5.2655316e-05 452:-4.5140991e-05 453:9.556481e-06 454:-0.0041354652 455:-2.0746606e-05 456:0.0088124163 457:0.017906949 458:0.018240888 459:0.0094058067 460:0.023154661 461:-0.24065955 462:2.2313141e-05 463:-0.027853385 464:0.36626071 465:0.041883115 466:-0.13206647 467:-5.5250959e-05 468:0.04469505 469:-0.034862112 470:-1.2479396e-05 471:-0.29394954 472:1.1230163e-05 473:-2.373403e-05 474:0.28445089 475:-0.020519068 476:0.16299568 477:0.030988066 478:-2.4268495e-05 479:-5.1244529e-05 480:-0.10813393 481:-0.027734609 482:0.080810234 483:-0.10849434 484:-0.35125348 485:0.27110106 486:-4.8785721e-05 487:3.2168351e-05 488:0.097144999 489:4.8724276e-05 490:0.029617716 491:0.18601367 492:2.6097618e-05 493:-0.058343969 494:-0.025049742 495:0.078222051 496:-0.17803305 497:3.8110073e-05 498:-0.2101692 499:-2.2746461e-05 500:-0.042328715 501:0.27594087 502:0.035329644 503:0.017285699 504:0.091297768 505:0.12734438 506:-0.021336485 507:-0.0071483841 508:-1.0172526e-05 509:0.072949283 510:-0.037037559 511:0.23226272 512:-4.6415207e-05 
0.138291220617643 1:0.051802967 2:-4.3158372e-05 3:0.14117047 4:-0.25531727 5:-0.056603044 6:0.19434644 7:0.107465 8:0.020499287 9:-0.036371995 10:-2.8233342e-05 11:4.0563231e-05 12:2.9254825e-05 13:-0.065378331 14:-0.0025999057 15:-0.14480256 16:-0.014745101 17:0.037363391 18:-1.2129964e-05 19:4.7317797e-05 20:0.39711249 21:-0.19917829 22:1.7025259e-05 23:-0.35774747 24:0.079593249 25:-0.1871053 26:0.14816885 27:0.30514339 28:0.17785861 29:-0.14469315 30:0.059578385 31:-0.19569704 32:-0.065089919 33:-1.1427778e-05 34:0.2699669 35:-0.19418326 36:6.3527405e-05 37:-0.10722627 38:0.086719386 39:-0.14981662 40:0.013310624 41:0.11484755 42:0.16854542 43:0.23710543 44:-0.21551342 45:-2.246033e-05 46:-0.06090818 47:-0.27771285 48:-0.1284966 49:-0.13800929 50:-0.15198296 51:-0.028468033 52:-0.16561198 53:-5.2150797e-05 54:-0.17284463 55:0.13055484 56:-0.033987403 57:-0.031647857 58:0.14135998 59:0.17094879 60:0.095251992 61:0.041494317 62:-0.25678623 63:0.012887658 64:-0.044433244 65:0.19626938 66:-0.19886118 67:0.011082365 68:-0.17599264 69:-0.065736234 70:0.21661635 71:0.12386243 72:-0.030484898 73:0.020282233 74:0.12160366 75:-0.018129988 76:-0.082286842 77:-0.086288571 78:-0.03129876 79:-0.13706714 80:-0.1490746 81:-0.1693377 82:-0.19309798 83:-0.13393709 84:0.22408916 85:0.19159035 86:3.9570437e-05 87:-0.20681813 88:0.0091314493 89:0.045819189 90:0.0054842592 91:-0.10784818 92:-0.28298685 93:-0.076680534 94:0.081642412 95:-0.11743457 96:0.36102962 97:-0.099550292 98:3.0003159e-05 99:0.37566879 100:0.23248465 101:0.10987004 102:-0.028146969 103:0.22492558 104:-0.39576179 105:-0.17536786 106:-3.3552107e-05 107:-0.23517528 108:-4.2402477e-05 109:0.019873185 110:0.019966204 111:-0.06448064 112:-0.038113289 113:0.13684708 114:0.21480958 115:0.28989857 116:0.16946103 117:0.1029144 118:-0.094776683 119:0.074544884 120:4.1086216e-05 121:-0.054780919 122:-4.086117e-05 123:-0.087403215 124:0.098085217 125:-0.050210048 126:-0.17543986 127:-1.7101924e-05 128:-0.10080367 129:-0.007502622 130:0.034075879 131:0.03038162 132:0.007210474 133:-1.0172529e-05 134:0.16716845 135:0.13605388 136:0.1410476 137:0.20575061 138:-0.15020785 139:-4.3802553e-05 140:-0.2497109 141:-2.9801022e-05 142:-0.0052504023 143:0.1659191 144:0.20041688 145:-0.071587443 146:0.22591384 147:3.5965313e-05 148:-0.034075856 149:0.0048965774 150:0.056565031 151:-0.14483774 152:0.035636626 153:0.16094363 154:0.047650035 155:-0.22767983 156:-2.6672589e-05 157:0.2030499 158:-0.21156706 159:-0.10005869 160:-0.02086577 161:9.5648256e-06 162:0.053017631 163:-0.020846827 164:-0.041904744 165:0.23449162 166:-0.076349117 167:-0.27328455 168:-6.4336702e-05 169:0.15509446 170:0.27741426 171:0.096015766 172:-0.27124292 173:-0.16953263 174:-0.04315915 175:-0.078463823 176:0.1587276 177:0.075373948 178:0.015952991 179:3.2765958e-05 180:-4.3827531e-05 181:0.010708705 182:-0.15968522 183:-0.074625432 184:0.033732846 185:-0.20595661 186:-0.143657 187:-0.057366725 188:-5.1745068e-05 189:0.038264904 190:0.26224381 191:-0.0069795591 192:0.21816169 193:-0.25573555 194:0.07636068 195:4.5049565e-05 196:0.045981735 197:-0.029382244 198:3.1163418e-05 199:0.031496018 200:0.033630855 201:0.0066331201 202:-0.12460698 203:-3.9363742e-05 204:3.5551868e-05 205:-0.12761959 206:-0.072629713 207:0.21912266 208:0.035611246 209:-4.28206e-05 210:0.02726794 211:-0.12258999 212:-0.006654405 213:0.24521323 214:-1.50775e-05 215:0.10780378 216:0.16029164 217:-3.3134231e-05 218:-9.4083125e-06 219:0.31484702 220:0.19532046 221:-0.031086955 222:-0.0088740196 223:0.030964352 224:0.064601004 225:0.097254314 226:6.1514933e-05 227:-0.1924289 228:0.06308715 229:0.19504112 230:-0.25331065 231:-0.15853629 232:-0.18652321 233:-0.042737521 234:0.27995098 235:-0.066976137 236:-6.1163046e-05 237:-0.22243047 238:-5.8711932e-05 239:0.24730839 240:0.061434589 241:-2.7510618e-05 242:0.015939457 243:-0.26099649 244:-0.24839489 245:0.065471038 246:0.088182494 247:0.026717242 248:-0.054368779 249:3.8400445e-05 250:1.8525963e-05 251:0.29110309 252:0.2425108 253:-0.003600898 254:0.055885844 255:0.067030773 256:1.449276e-05 257:-0.2404875 258:-0.14806162 259:-0.013690254 260:0.02959656 261:-0.18443272 262:-0.17052355 263:0.13539428 264:0.0042195567 265:-0.30502331 266:-0.074544869 267:-6.7569943e-08 268:-3.0815965e-05 269:-0.052232612 270:0.052931357 271:-5.3947966e-05 272:0.045123447 273:-0.012874068 274:-0.10896497 275:-0.064102851 276:-0.14650078 277:0.13772129 278:-0.04509915 279:-0.14004514 280:-0.19059566 281:-0.091701172 282:0.054439984 283:-0.021655936 284:-0.274445 285:0.078399867 286:-6.1775318e-06 287:0.24901076 288:-0.18971878 289:-0.13055484 290:-0.13883074 291:-0.11883512 292:0.17591546 293:0.011082439 294:-0.011872301 295:-0.1145317 296:-0.0066333446 297:0.10551734 298:0.11203109 299:-2.0660498e-05 300:0.14972438 301:0.047707129 302:-0.070053376 303:0.1894076 304:-0.23420721 305:0.16293043 306:-0.19142525 307:0.045841169 308:-0.1516941 309:-0.069026552 310:-0.2280257 311:-0.11928043 312:2.1446076e-05 313:0.27802119 314:-3.9968447e-05 315:0.011559388 316:1.504537e-05 317:-1.7454477e-05 318:-0.26598126 319:0.16118844 320:0.040611744 321:0.061799955 322:-0.19891386 323:-1.7042561e-05 324:0.18199787 325:0.079750046 326:-0.064102843 327:-0.002942136 328:0.1513342 329:-0.016415996 330:0.18557033 331:0.067887187 332:0.0084700109 333:-0.28793025 334:3.7722762e-05 335:-0.12173693 336:0.030283522 337:-0.33057198 338:-0.11993502 339:0.013092213 340:0.43731874 341:0.077005967 342:0.0039325259 343:-0.3535758 344:-0.093107387 345:-3.3375865e-05 346:0.13583504 347:0.017738767 348:-0.065564051 349:-0.014316828 350:0.053709466 351:0.16908963 352:4.3158372e-05 353:-4.7691497e-06 354:-2.7899005e-05 355:-0.016546506 356:0.21861356 357:-0.0089952983 358:0.15815634 359:0.010444713 360:-0.37090459 361:0.058430638 362:-0.15057363 363:0.32045054 364:-0.22243047 365:0.13088436 366:-0.31317276 367:-0.17430171 368:0.26888749 369:0.022126161 370:-0.012834776 371:0.05326822 372:-5.5280216e-05 373:0.012924645 374:-5.9732942e-05 375:0.19426741 376:0.035596788 377:0.058430631 378:-0.011613109 379:-4.5007368e-05 380:-0.19271386 381:-0.15204976 382:0.031471286 383:0.077415004 384:2.2628841e-05 385:0.22314553 386:-0.0048085828 387:0.052099183 388:0.044866532 389:0.037223309 390:0.16485818 391:-0.16713971 392:-0.15078621 393:-0.10483755 394:-0.098547064 395:0.21477892 396:0.26462606 397:-0.015288831 398:-0.10314964 399:0.1457821 400:-0.044127163 401:-0.10975678 402:-0.05131752 403:-0.21345979 404:0.10984452 405:-3.2765958e-05 406:0.10984209 407:-0.030283576 408:-0.13286376 409:0.27337533 410:-0.10970111 411:0.023660528 412:0.25094491 413:-0.28314596 414:0.006654629 415:-0.40027368 416:0.25279787 417:0.10200755 418:0.18133606 419:-0.10151982 420:2.5159658e-05 421:0.34019873 422:-0.060800873 423:-0.055486884 424:-0.45344427 425:0.1374007 426:0.17493717 427:0.12604178 428:-0.018932782 429:-0.17380269 430:0.1901603 431:-0.012562395 432:0.26810303 433:0.21329793 434:0.18757509 435:0.17652212 436:-0.21576367 437:-0.02852397 438:-0.13940969 439:0.10106183 440:0.020709407 441:-0.056613546 442:0.066314325 443:0.12118733 444:0.25392339 445:-0.1111163 446:0.2499686 447:-0.0033460737 448:0.077113695 449:-0.078399867 450:2.1282407e-05 451:-2.4497791e-05 452:-3.4900109e-05 453:4.8926031e-05 454:0.031990249 455:-0.030757751 456:0.092784733 457:-0.034649637 458:0.035512786 459:-2.4918198e-05 460:-1.9680635e-06 461:-0.17876969 462:0.015608005 463:-0.038984209 464:0.2251696 465:0.095942974 466:0.082869805 467:-3.4438759e-05 468:-0.1293218 469:-0.077479877 470:0.021353133 471:-0.29321131 472:-0.10307031 473:0.041731756 474:0.21971738 475:0.078466192 476:0.19678308 477:0.15800773 478:2.3832201e-05 479:-4.314242e-05 480:-0.17171164 481:-0.0052504595 482:0.048178907 483:-0.22850302 484:-0.39797571 485:0.10688077 486:-0.096492514 487:-1.7125716e-05 488:0.29558712 489:-0.006014145 490:-0.0050572525 491:0.17110656 492:-2.5122186e-05 493:0.020020545 494:-0.11280234 495:-0.05230391 496:-0.45309788 497:-0.039733279 498:-0.28740934 499:0.018079011 500:-0.16795449 501:0.20306779 502:0.14763243 503:-0.055724688 504:-0.071026795 505:0.27366847 506:-0.020017615 507:0.012461058 508:-0.0055567794 509:0.048313156 510:-0.17549156 511:0.23718403 512:-0.0034435175 
0.4979658358469297 1:0.048048683 2:-0.026698273 3:0.21289071 4:-0.30759764 5:-0.11902957 6:0.30678788 7:0.14956129 8:0.0098065929 9:-0.0033166183 10:-0.055706237 11:2.3686007e-05 12:-5.1234329e-05 13:-0.054363362 14:3.4987745e-05 15:-0.034649719 16:4.4341014e-05 17:0.010125739 18:-0.036606662 19:-0.035855912 20:0.28572252 21:-0.15227507 22:0.0069090067 23:-0.34938425 24:0.37787688 25:-0.098537691 26:2.7533732e-05 27:0.39162731 28:0.19998135 29:-0.09508118 30:0.03345133 31:-0.14801708 32:-0.087938637 33:0.015372027 34:0.36377528 35:-0.10663764 36:-0.023467407 37:3.724323e-05 38:0.1570086 39:3.5592489e-05 40:0.038515322 41:-0.042181525 42:0.053321455 43:0.22006203 44:-0.18943332 45:0.014602698 46:0.14201309 47:-0.27127177 48:-0.12017138 49:0.13886413 50:-0.12162784 51:-0.10604866 52:-0.013834687 53:-4.8742226e-05 54:-0.26958108 55:0.040518209 56:-0.021316206 57:5.6638226e-05 58:0.096738935 59:0.096738935 60:0.033853684 61:0.015882554 62:-0.092362337 63:0.009548543 64:0.22985278 65:0.1614825 66:-0.18050992 67:0.022081137 68:0.024435904 69:-0.054222871 70:0.13906811 71:0.032158162 72:0.022939021 73:0.011472357 74:0.16233563 75:-0.045099705 76:-0.042348556 77:-0.045596406 78:-0.029908217 79:-0.030255817 80:-0.063882105 81:-0.16442098 82:-0.14450058 83:-0.25495017 84:0.38720593 85:0.29700056 86:-1.3865731e-05 87:-0.27926713 88:-1.6575508e-05 89:0.01301227 90:-0.0076559866 91:-0.030386088 92:-0.17196377 93:-0.047733232 94:0.015974442 95:-0.25183484 96:0.21895586 97:-0.041691896 98:3.3496519e-05 99:0.3352747 100:0.16225278 101:0.12882373 102:-0.091721892 103:0.22154874 104:-0.33363 105:-0.23490879 106:-3.4315006e-05 107:-0.096135542 108:-5.2118685e-05 109:-1.5586924e-05 110:-0.18551378 111:-0.066133149 112:-0.019129172 113:0.11553846 114:-0.062944166 115:0.36844206 116:0.031302415 117:0.039600112 118:-0.0089143915 119:-0.034617964 120:0.033804756 121:-2.7690285e-05 122:-1.3555988e-05 123:1.6678809e-05 124:0.02398763 125:-0.048966911 126:-0.19177248 127:-1.0230778e-05 128:-0.026631407 129:-0.07876265 130:0.020554462 131:0.013616873 132:-0.056907754 133:8.8096622e-06 134:0.12183598 135:0.037419204 136:0.09063939 137:0.088786408 138:-0.062704951 139:3.5488953e-05 140:-0.14351898 141:-4.9243885e-05 142:-0.059698604 143:0.044909626 144:0.3262409 145:-0.22331733 146:0.16603877 147:-2.1579186e-05 148:-0.020554364 149:-0.045745172 150:0.077371985 151:-0.20057696 152:0.071109526 153:0.19217533 154:-0.070776157 155:-0.44505394 156:-3.1897041e-05 157:0.2524921 158:-0.27614698 159:-0.1409314 160:-0.012812041 161:4.7934682e-05 162:0.15094197 163:-0.02617621 164:-0.0014050197 165:0.36090854 166:0.048690502 167:-0.10473945 168:-0.012192356 169:0.11326059 170:0.17592192 171:0.082166463 172:-0.41107681 173:-0.14263122 174:-0.028495569 175:0.017924627 176:-0.041522633 177:0.043765966 178:0.012366219 179:5.4187207e-05 180:-0.023603173 181:1.8585331e-05 182:-0.15941174 183:0.038556848 184:-0.016738433 185:-0.27255672 186:-0.18237154 187:-0.11970124 188:0.048741061 189:0.0044202036 190:0.18768872 191:-0.097741529 192:0.18942158 193:-0.41192788 194:-2.0203526e-05 195:0.014288917 196:3.0725521e-05 197:-5.9655472e-06 198:2.3245559e-05 199:-3.3124426e-05 200:0.030374199 201:-3.5383629e-05 202:-0.13591695 203:-0.0087567624 204:6.6260152e-05 205:-0.35897529 206:-0.018529577 207:0.19032992 208:-0.12573037 209:0.035193745 210:-0.0091094654 211:-0.20468499 212:-0.14993428 213:0.30759761 214:2.8500073e-05 215:-0.047854718 216:0.10870986 217:-1.6825599e-05 218:-2.7123984e-05 219:0.33460227 220:0.16137937 221:5.3776057e-05 222:-1.2040274e-05 223:3.9850533e-05 224:-3.3634966e-05 225:0.22894028 226:-0.034947801 227:-0.30203661 228:0.10280042 229:0.12308718 230:-0.42495349 231:-0.20687449 232:-0.20286389 233:5.3231819e-05 234:0.14363876 235:-0.022431273 236:-0.014238896 237:-0.22617829 238:-5.1779512e-05 239:0.13950497 240:-0.005568285 241:4.0127972e-05 242:3.263514e-05 243:-0.16703378 244:-0.2317041 245:-0.030117588 246:0.091785751 247:0.01006954 248:-0.0024671499 249:3.0090738e-05 250:-2.8046674e-05 251:0.1858097 252:0.15569478 253:3.2482494e-05 254:4.2345513e-05 255:0.04337151 256:3.8759907e-05 257:-0.08266335 258:-0.16501267 259:-3.0251509e-05 260:-0.015882501 261:-0.19998567 262:-0.1234075 263:0.0092359595 264:0.029411197 265:-0.36866811 266:3.3430031e-05 267:-0.024602158 268:0.014602708 269:-0.031153549 270:0.037021197 271:-4.7362042e-05 272:0.069210157 273:-0.015270197 274:-0.077006504 275:-0.012535153 276:4.6338064e-05 277:-0.14250836 278:-0.06295269 279:-0.15002894 280:-0.39270794 281:-0.16718191 282:0.053321432 283:-0.16841422 284:-0.025074601 285:3.4331897e-05 286:0.012112572 287:-0.047763418 288:-0.31212106 289:-0.042034887 290:4.605807e-05 291:-0.17182219 292:0.20185985 293:0.022081159 294:-0.045433171 295:-0.012170325 296:-3.1120908e-05 297:0.16524749 298:0.16110866 299:4.1477218e-05 300:0.25126013 301:0.13110426 302:0.0094319796 303:0.18395311 304:-0.13913471 305:0.050865062 306:-0.14416806 307:0.025485311 308:-0.11724944 309:-0.042358521 310:-0.11152746 311:-0.067446426 312:3.3069013e-05 313:0.27745745 314:-3.0705844e-05 315:0.0084505193 316:-1.2826439e-05 317:2.3764173e-05 318:-0.2376083 319:-0.033142723 320:-3.5238663e-05 321:-0.035854872 322:-0.24845469 323:1.4185273e-05 324:0.28827667 325:-0.014064921 326:-0.0095369583 327:-0.066999994 328:0.10333607 329:5.0185135e-05 330:0.14482795 331:0.026110822 332:0.11530097 333:-0.22036631 334:0.037913896 335:-0.11360975 336:0.0087066628 337:-0.10773372 338:-0.26991725 339:0.049928118 340:0.26520279 341:-3.4869663e-05 342:-0.04654872 343:-0.33460233 344:0.074739084 345:-0.086538956 346:1.8390578e-05 347:0.028304871 348:-0.041417386 349:-0.033316623 350:0.056169949 351:0.2213566 352:-4.3605622e-05 353:0.037661377 354:-0.012389285 355:7.1930619e-05 356:0.042246077 357:6.4403539e-05 358:0.30843541 359:0.027755216 360:-0.15290974 361:0.051387567 362:-0.10877541 363:0.26152503 364:-0.22600466 365:-2.0414082e-05 366:-0.23327629 367:-0.12773505 368:0.1104727 369:0.033648852 370:-0.035154477 371:0.026581276 372:-5.8234273e-05 373:0.0079322429 374:-0.028724968 375:0.28050748 376:0.017331539 377:0.059907753 378:-1.9129715e-05 379:3.8753144e-05 380:-0.1440783 381:-1.7216315e-05 382:0.058267098 383:0.18239415 384:0.0047852448 385:-0.25044015 386:-2.385669e-05 387:0.010618565 388:0.040405542 389:0.044656906 390:0.14563251 391:-0.16793378 392:1.5676915e-05 393:-0.0052694166 394:-0.083211116 395:0.086546645 396:0.45699677 397:0.028985547 398:-3.7134861e-05 399:0.10713683 400:-0.091857344 401:-0.12882374 402:-0.035097759 403:-0.28080496 404:0.24494998 405:3.5238663e-05 406:0.13194697 407:-0.0070506395 408:-0.07579904 409:0.10499278 410:-0.012723491 411:0.13478687 412:-0.17141673 413:-0.025074691 414:0.15137509 415:-0.28563735 416:0.099089503 417:0.055737074 418:0.010886286 419:-3.5330311e-05 420:-2.246033e-05 421:0.13225529 422:0.092708081 423:0.029576134 424:-0.45310971 425:0.24853878 426:0.048150167 427:0.19662078 428:-0.032579962 429:-0.12076367 430:0.18266778 431:-0.067528151 432:0.15303712 433:0.26300979 434:0.13194697 435:0.23818168 436:-0.077963367 437:-0.0295678 438:0.0039949361 439:0.064831875 440:0.0055132704 441:-0.036496516 442:0.062952697 443:0.25151655 444:0.1718339 445:-0.16050468 446:0.4020237 447:-3.7376249e-05 448:0.028739821 449:-8.0098551e-05 450:-2.395544e-06 451:3.8439855e-05 452:-3.8229035e-05 453:-2.5996909e-05 454:-0.014243563 455:-0.022656901 456:0.010804332 457:0.060543671 458:0.089323163 459:2.4212863e-05 460:0.064895712 461:-0.12855716 462:-2.8542927e-05 463:3.5965313e-05 464:0.38523284 465:0.060828287 466:-0.2352962 467:-2.6428997e-05 468:0.008210781 469:0.03583638 470:-3.623635e-05 471:-0.21694449 472:0.0089995796 473:0.0087349946 474:0.23907098 475:-0.076758735 476:0.19164355 477:0.1025748 478:1.0514787e-05 479:-0.0035715017 480:-0.051611956 481:-0.058905546 482:0.034166902 483:0.1071074 484:-0.33413896 485:0.19885325 486:-6.4336702e-05 487:0.034617979 488:0.11655283 489:9.470551e-06 490:0.054222889 491:0.20042233 492:1.6105803e-05 493:-0.019129196 494:-0.091785751 495:7.1383902e-06 496:-0.35093212 497:5.1684066e-05 498:-0.13012773 499:-0.010431118 500:-0.11932521 501:0.18944983 502:0.029208733 503:-0.043690551 504:0.019051176 505:0.20492138 506:-0.042405494 507:-0.0094320858 508:1.5586158e-05 509:0.02289732 510:-0.1412027 511:0.2073956 512:-0.0142469 
1 1:0.052160557 2:-3.8902432e-05 3:0.27009866 4:-0.27644897 5:4.345705e-05 6:0.35204321 7:0.22521617 8:4.455926e-05 9:2.0660498e-05 10:-0.057771977 11:5.9773123e-05 12:-3.9135524e-05 13:-0.023956198 14:4.6322417e-05 15:0.0086089512 16:-2.5431314e-05 17:0.036284477 18:-0.0021260816 19:4.6914574e-05 20:0.29867819 21:-0.17463323 22:4.6279139e-05 23:-0.31261155 24:0.3744795 25:-0.14311838 26:2.9574123e-05 27:0.44536653 28:0.2806575 29:-0.092869245 30:0.020643717 31:-0.046036568 32:7.3969728e-05 33:0.027490126 34:0.32364026 35:-0.1858896 36:4.8785721e-05 37:2.6535845e-05 38:0.13282934 39:5.0118088e-05 40:4.2321368e-05 41:-0.052244592 42:0.068077765 43:0.31431344 44:-0.21370833 45:-1.8072344e-05 46:0.19648902 47:-0.24900867 48:-0.17326765 49:0.030726554 50:-0.11658073 51:-0.058320019 52:-0.020656914 53:-4.0896641e-05 54:-0.21881659 55:0.028455785 56:4.0523002e-05 57:6.2707666e-05 58:0.13599366 59:0.13599367 60:0.0042819022 61:3.4967685e-05 62:-0.14849705 63:3.804086e-05 64:0.27373812 65:0.20722306 66:-0.21037993 67:-3.9745311e-05 68:3.902692e-05 69:-0.01942762 70:0.19059636 71:-2.57417e-05 72:2.6358748e-05 73:0.028375352 74:0.12861818 75:1.5129222e-05 76:-0.031121766 77:-7.1930654e-06 78:-0.029475728 79:-3.9082945e-05 80:-3.3789715e-05 81:-0.17347541 82:-0.17285168 83:-0.25801265 84:0.31299981 85:0.34702843 86:4.4649885e-05 87:-0.2733334 88:-4.1016468e-05 89:0.0042095785 90:1.446498e-05 91:0.033176351 92:-0.19161795 93:-0.0724122 94:0.020656796 95:-0.19431205 96:0.28571805 97:-0.037330326 98:1.7712373e-05 99:0.3593134 100:0.23045948 101:0.11765017 102:-0.07830523 103:0.23868737 104:-0.2700313 105:-0.25949088 106:2.6763362e-05 107:-0.068830214 108:-1.3456988e-05 109:9.5906134e-06 110:-0.19191006 111:4.8636353e-05 112:-0.027751701 113:-0.018901492 114:0.01034263 115:0.35340381 116:0.068980038 117:-0.019289939 118:-2.7005224e-05 119:-7.1930581e-06 120:4.7341582e-06 121:-3.3596618e-05 122:-2.6136391e-05 123:3.3484932e-05 124:0.027087344 125:-0.041378163 126:-0.20806439 127:3.9602688e-05 128:-0.01349019 129:-0.05777197 130:-0.010824574 131:0.0070088501 132:-0.05843116 133:-2.0971198e-05 134:0.18688765 135:0.020955281 136:0.040237457 137:0.07296259 138:-0.10504098 139:3.5626232e-05 140:-0.16480441 141:-1.637322e-05 142:-0.033305954 143:-0.020966202 144:0.26522207 145:-0.16588449 146:0.2304595 147:-5.6638226e-05 148:3.7376249e-05 149:4.7983711e-05 150:0.075303659 151:-0.23594563 152:0.063363165 153:0.1956666 154:-0.054251533 155:-0.42641798 156:4.1320996e-05 157:0.27897829 158:-0.33999193 159:-0.22968346 160:3.5603844e-05 161:6.1763685e-06 162:0.091410995 163:-3.2017208e-05 164:-0.015041391 165:0.29661602 166:0.072412178 167:-0.13654497 168:-3.5238667e-05 169:0.14817952 170:0.19907014 171:0.037278414 172:-0.44296947 173:-0.13398081 174:-0.045604575 175:0.024308596 176:0.035549648 177:0.053281434 178:0.02862989 179:1.9031055e-05 180:-5.4986947e-05 181:3.085471e-05 182:-0.17812499 183:3.2914948e-05 184:5.1216401e-05 185:-0.2866163 186:-0.24975526 187:-0.077514924 188:-5.9356385e-05 189:1.7295164e-05 190:0.1497881 191:-0.13717219 192:0.18636948 193:-0.42222437 194:2.1384972e-06 195:4.7595295e-05 196:0.031529587 197:2.456961e-05 198:4.0934006e-05 199:2.4271429e-05 200:2.1579737e-05 201:-3.3349614e-05 202:-0.056768715 203:-3.2811382e-05 204:4.8191545e-05 205:-0.27083707 206:-0.044674587 207:0.18636946 208:-0.031410884 209:-2.7156331e-05 210:-4.6407793e-05 211:-0.26782879 212:-0.17885086 213:0.27644894 214:-2.6227804e-05 215:-4.0690105e-05 216:-0.11960389 217:-2.0036889e-05 218:-3.7720736e-05 219:0.33318746 220:0.20716123 221:3.4128487e-05 222:2.6075582e-05 223:0.0047633215 224:-4.8553426e-05 225:0.16588449 226:-9.2556274e-06 227:-0.3201198 228:0.067227401 229:0.13008197 230:-0.43967864 231:-0.25626117 232:-0.24021707 233:4.271459e-05 234:0.1559559 235:-1.9699013e-05 236:-0.029053573 237:-0.22080794 238:-6.524568e-05 239:0.18000329 240:-0.0050605992 241:-1.0248697e-05 242:-2.685383e-05 243:-0.20625742 244:-0.24356763 245:-0.014578555 246:-2.2732824e-05 247:-4.4953445e-05 248:-0.033440966 249:5.4067721e-05 250:8.9749165e-06 251:0.19968131 252:0.15201016 253:1.8691535e-05 254:4.5035547e-05 255:0.017052744 256:3.2355762e-05 257:-0.064495832 258:-0.2314004 259:-2.4917499e-05 260:-1.8338782e-05 261:-0.27886236 262:-0.20482896 263:-0.029893188 264:-0.046415385 265:-0.35187533 266:1.040882e-05 267:3.4253842e-06 268:-5.6819925e-05 269:-0.022493623 270:3.8843082e-05 271:-4.5068002e-05 272:0.075908512 273:-5.4810236e-05 274:-0.080571532 275:-0.013694821 276:6.1035156e-05 277:-0.10169566 278:-0.083131276 279:-0.057032716 280:-0.35395586 281:-0.206432 282:0.068077751 283:-0.16976993 284:-0.048777465 285:-1.2030968e-05 286:-4.0618594e-05 287:0.068658397 288:-0.32870194 289:-0.028455853 290:-0.029053511 291:-0.18927355 292:0.21703897 293:8.4824005e-06 294:-0.0046450687 295:0.0027461739 296:-4.6957633e-05 297:0.16748549 298:0.14522448 299:-1.0172533e-05 300:0.21181513 301:0.13937794 302:-5.865765e-05 303:0.23771311 304:-0.19078295 305:0.026022792 306:-0.1927879 307:0.018641125 308:-0.052220307 309:-0.031121777 310:-0.10085993 311:4.7568246e-05 312:1.6669695e-05 313:0.28476694 314:-3.8146973e-05 315:-4.255473e-05 316:2.2193286e-05 317:1.3532845e-05 318:-0.24577649 319:-0.14437662 320:-5.663823e-05 321:0.042154927 322:-0.25545186 323:1.6917042e-05 324:0.31458044 325:0.027490158 326:-0.013694815 327:-0.020577816 328:0.035569042 329:3.7943464e-05 330:0.14759679 331:0.028550038 332:0.12173458 333:-0.19758983 334:-2.7079641e-05 335:-0.077514924 336:0.0077073304 337:-0.092879541 338:-0.26321724 339:0.080571525 340:0.28704488 341:-2.4917497e-05 342:0.1525182 343:-0.33318749 344:0.073472485 345:-0.076284289 346:2.5640044e-05 347:0.0064474628 348:-0.046549723 349:2.42561e-05 350:0.027162232 351:0.23104183 352:-5.663823e-05 353:1.872042e-05 354:-4.4491066e-05 355:7.6800883e-05 356:0.086025581 357:1.8513596e-05 358:0.27697182 359:0.088149771 360:-0.1635952 361:3.2168351e-05 362:-0.13779862 363:0.1686113 364:-0.22080794 365:1.3877712e-05 366:-0.26533365 367:-0.19157861 368:0.10541003 369:0.088894762 370:-0.031232512 371:0.043327261 372:-4.3195825e-05 373:-1.8774674e-05 374:-3.1752934e-05 375:0.2733334 376:0.030331509 377:-4.0168332e-05 378:-3.4140681e-05 379:-3.7944246e-05 380:-0.054814171 381:-7.7766699e-06 382:-4.4920656e-05 383:0.16385841 384:0.015084502 385:-0.21966824 386:-3.8819217e-05 387:0.026448239 388:0.020175092 389:0.016435357 390:0.14240362 391:-0.21256916 392:-1.6869226e-05 393:-1.1390987e-05 394:-0.011313436 395:0.092869259 396:0.42841524 397:0.012515535 398:-1.6541704e-05 399:0.035569008 400:-0.051490191 401:-0.11765019 402:-0.04332722 403:-0.3248862 404:0.20848635 405:2.9218352e-05 406:0.20478153 407:-0.0077073737 408:-0.064792074 409:0.13654497 410:-1.8682662e-05 411:0.064340912 412:-0.20540029 413:-0.048777472 414:0.17885086 415:-0.26207969 416:0.11539017 417:0.030396324 418:2.239336e-05 419:-3.8860846e-05 420:5.788069e-05 421:0.17087986 422:0.078305274 423:0.067542158 424:-0.4821648 425:0.22330204 426:0.026022714 427:0.25007647 428:-0.0083601205 429:-0.053598888 430:0.2366302 431:-0.12557465 432:0.17202468 433:0.29793108 434:0.20478155 435:0.25184894 436:-0.058531944 437:-0.012515577 438:-1.9699013e-05 439:0.032426476 440:0.015679548 441:-0.031590186 442:0.083131261 443:0.21124378 444:0.10121136 445:-0.054378852 446:0.33656463 447:-3.2567976e-05 448:-2.5934954e-05 449:-6.5925509e-05 450:-2.1384972e-06 451:5.4409946e-05 452:-3.4399131e-05 453:-2.456961e-05 454:-1.5062169e-05 455:-1.2863899e-05 456:0.017052742 457:0.067483537 458:0.054144248 459:1.5562595e-05 460:0.07558424 461:-0.14284553 462:4.5557765e-05 463:-1.5258789e-05 464:0.37202924 465:2.786165e-05 466:-0.13004902 467:-1.7619333e-05 468:0.032833021 469:1.2651917e-05 470:2.1856427e-05 471:-0.22942324 472:0.024125801 473:0.020520415 474:0.25317758 475:-0.017865876 476:0.15634787 477:-3.5698253e-05 478:3.0421081e-05 479:-2.8470002e-05 480:-0.10101436 481:-0.03330595 482:0.051805086 483:0.077509254 484:-0.33588043 485:0.19480976 486:-5.7544497e-05 487:-3.797705e-05 488:0.10318137 489:1.1899124e-05 490:0.019427605 491:0.23594561 492:1.9125706e-05 493:-0.027751718 494:2.9019797e-05 495:-4.730498e-05 496:-0.31586704 497:4.9117461e-05 498:-0.13175903 499:-6.6316759e-05 500:-0.04068606 501:0.192637 502:0.0029268216 503:-0.041961383 504:-0.033176325 505:0.17383455 506:-0.07995782 507:-2.6883918e-05 508:-5.5717221e-05 509:0.041524526 510:-0.045285579 511:0.20104702 512:-4.1195144e-05 
0.02470276169842068 1:0.085473299 2:-0.021444779 3:0.13350518 4:-0.2404168 5:-0.075482123 6:0.20837949 7:0.16206612 8:-3.2268723e-05 9:2.6913976e-05 10:0.018786106 11:0.001884323 12:-4.7727652e-05 13:-0.027386162 14:-0.0099049052 15:0.062190648 16:1.7059845e-05 17:0.032072395 18:1.3569161e-05 19:0.0021083253 20:0.34476188 21:-0.11831093 22:0.0063592484 23:-0.23164321 24:0.2964136 25:-0.14313199 26:-1.3404463e-05 27:0.2511428 28:0.19577397 29:-0.079667501 30:0.13366863 31:-0.19218144 32:-0.068560533 33:0.012215318 34:0.22769129 35:0.026009563 36:4.8495443e-05 37:0.027691398 38:0.23099467 39:0.083212845 40:0.06983684 41:-0.080028079 42:0.064014696 43:0.2053127 44:-0.096415006 45:0.064390235 46:0.093703151 47:-0.1697647 48:-0.10449798 49:0.2261485 50:-0.20838469 51:0.016520945 52:0.074553132 53:-0.0010405972 54:-0.22954214 55:0.014751919 56:-0.049903888 57:4.6961937e-05 58:0.20987679 59:0.24823864 60:0.039628156 61:2.397511e-05 62:-0.12387348 63:-0.0091231707 64:0.12579536 65:0.15362041 66:-0.093360789 67:0.0058701281 68:-0.041871328 69:-0.1541153 70:0.3338159 71:0.013564824 72:-0.12367639 73:0.039630339 74:0.14952663 75:-0.03472938 76:-0.0054451227 77:-0.063014112 78:-0.088653073 79:-1.8011397e-05 80:-0.03881111 81:-0.22949323 82:-0.10861 83:-0.18512526 84:0.23825637 85:0.16776486 86:0.0044396184 87:-0.14362347 88:0.020950831 89:0.024238847 90:0.073146671 91:-0.035045419 92:-0.1828986 93:-0.011626935 94:0.023773363 95:-0.24330221 96:0.20848991 97:0.029714009 98:2.5706328e-05 99:0.25825071 100:0.2511318 101:0.16588394 102:-0.10809526 103:0.3082056 104:-0.24617229 105:-0.097778253 106:0.031590112 107:-0.085874632 108:-2.3799155e-05 109:-0.011854115 110:-0.27776676 111:2.3982953e-05 112:-0.05530896 113:0.1558049 114:0.13301483 115:0.35762653 116:-0.038161054 117:-0.038367454 118:-0.047702719 119:-4.1926629e-05 120:3.3320455e-05 121:-0.031350683 122:-4.0851963e-05 123:0.0097043049 124:-0.038465898 125:-0.081117816 126:-0.19814226 127:4.5626308e-05 128:-4.3249765e-05 129:-0.010133294 130:-0.040331919 131:0.09667249 132:6.7284946e-06 133:-2.0265425e-05 134:0.24228367 135:0.17882302 136:0.088010117 137:0.060306065 138:-0.082232356 139:3.5511141e-05 140:-0.17098458 141:-0.04490158 142:-0.094250053 143:0.055021524 144:0.23673165 145:-0.20446754 146:0.25119504 147:-0.013535726 148:-0.00056111073 149:-0.020014456 150:0.123398 151:-0.096754454 152:0.06015335 153:0.23950505 154:-0.046877194 155:-0.36756608 156:0.054740712 157:0.18020444 158:-0.18059053 159:-0.18291244 160:-0.022718398 161:0.075580679 162:0.13578682 163:-0.005005721 164:-0.074386641 165:0.33288273 166:0.011626849 167:-0.17583562 168:-0.025839424 169:0.079019561 170:0.18523593 171:0.088900849 172:-0.22452465 173:-0.19924186 174:-0.031186506 175:0.0055352515 176:0.10825958 177:0.070581079 178:0.045378938 179:0.034753334 180:-5.2202962e-05 181:0.047518618 182:-0.14708932 183:-0.012070336 184:-0.020359199 185:-0.32482079 186:-0.26558885 187:-0.10321867 188:-0.012419723 189:0.082213461 190:0.27108341 191:-0.016112765 192:0.063222885 193:-0.29919851 194:-2.7027245e-05 195:0.01788942 196:0.071155086 197:-0.00596601 198:-4.4987632e-05 199:0.0089557264 200:0.0063053314 201:-0.007066417 202:-0.11380665 203:-0.034966417 204:0.0018399782 205:-0.282276 206:-0.077286243 207:0.041337986 208:-0.091890804 209:-2.7760043e-05 210:0.00077519537 211:-0.14562158 212:-0.053043641 213:0.24059971 214:1.8124665e-05 215:-0.077503882 216:0.031879883 217:-0.028731043 218:-2.1237523e-05 219:0.18857701 220:0.14584196 221:-0.029019194 222:4.5054829e-05 223:0.012261594 224:0.0060217436 225:0.2047054 226:-1.5703699e-05 227:-0.20951945 228:0.071694709 229:0.29051378 230:-0.29975811 231:-0.3217499 232:-0.23080613 233:3.8298745e-05 234:0.10121871 235:-0.062487669 236:0.051001124 237:-0.087646037 238:-5.1001734e-05 239:0.293744 240:-0.06347236 241:-0.026763249 242:-4.5064404e-05 243:-0.16296701 244:-0.14722748 245:-0.037145983 246:0.094691508 247:0.00077719259 248:0.013087892 249:3.8501628e-05 250:2.5780528e-05 251:0.28879142 252:0.25656924 253:-3.3164579e-05 254:-3.9704628e-05 255:0.045899387 256:-1.7913124e-05 257:-0.052897129 258:-0.194666 259:-0.070419356 260:-3.2567976e-05 261:-0.19974972 262:-0.23280686 263:-0.0034312904 264:-0.0037157794 265:-0.35364553 266:2.5558156e-05 267:3.1200103e-05 268:0.0018136622 269:-0.0065589393 270:0.029170247 271:-5.4770928e-05 272:0.082167521 273:0.035943978 274:-0.09480384 275:-0.03431638 276:-0.019278947 277:-0.15663606 278:-0.11313811 279:-0.26304194 280:-0.28862473 281:-0.18637046 282:0.087616645 283:-0.051259812 284:-0.090235904 285:0.13084881 286:0.012027486 287:-0.075868174 288:-0.21466076 289:-0.042754389 290:0.058292001 291:-0.24106343 292:0.12400691 293:-0.010717344 294:-0.083112597 295:0.028102787 296:-4.139918e-05 297:0.13756908 298:0.10047472 299:5.0844417e-05 300:0.1971053 301:0.16611329 302:-0.0097043533 303:0.11132795 304:-0.34389526 305:0.23928201 306:-0.14346255 307:0.010258679 308:-0.1594049 309:-0.072206549 310:-0.19000818 311:-0.096223362 312:-2.094423e-05 313:0.17723553 314:-3.596531e-05 315:0.018329803 316:8.6388145e-06 317:0.060689151 318:-0.32776952 319:-0.1086826 320:-0.019420635 321:0.099007286 322:-0.12829347 323:-0.064390242 324:0.2065758 325:0.048271257 326:-0.032634817 327:-0.037499826 328:0.19356994 329:-1.1815869e-05 330:0.1041486 331:0.026828799 332:0.034316882 333:-0.18637888 334:-0.019075111 335:-0.078512318 336:0.038780507 337:-0.23481856 338:-0.15441287 339:0.086605787 340:0.22503248 341:9.1358406e-06 342:0.029018983 343:-0.16481753 344:-0.12346518 345:-0.0048141009 346:0.10107903 347:4.4093693e-05 348:-0.013176644 349:-0.014290459 350:0.0048811045 351:0.33991808 352:3.7366375e-05 353:4.0687948e-05 354:2.3788753e-05 355:5.9750062e-05 356:-0.024135938 357:-0.047979835 358:0.17981379 359:0.045028906 360:-0.20757931 361:0.11525746 362:0.024956582 363:0.12880883 364:-0.094113 365:-4.6754747e-05 366:-0.23423636 367:-0.24772495 368:0.13414444 369:0.079659529 370:-0.027631734 371:0.063124306 372:-5.2260835e-05 373:-1.8671353e-05 374:0.0067078518 375:0.14371485 376:0.023761291 377:0.11405084 378:-0.026027242 379:0.025681572 380:-0.27221602 381:-0.0033513638 382:0.14298587 383:0.13228367 384:0.032426432 385:0.050856918 386:-1.258786e-05 387:0.075518541 388:0.068443239 389:0.048034959 390:0.36637267 391:-0.1749236 392:-0.011357822 393:-0.10427252 394:-0.24216112 395:0.063881963 396:0.40109408 397:0.090063788 398:3.0343093e-05 399:0.19375998 400:-0.071292147 401:-0.16462995 402:-0.064565226 403:-0.18548316 404:0.20012526 405:-3.0358216e-05 406:0.13757059 407:-0.039231602 408:-0.069848783 409:0.18888694 410:-0.021885542 411:0.12270949 412:0.11382375 413:-0.089203537 414:0.06039815 415:-0.20143382 416:0.071525961 417:-0.012200528 418:-1.0490804e-05 419:-0.01529922 420:3.0767289e-05 421:0.25350857 422:0.084023349 423:-0.083891355 424:-0.3917776 425:0.11168722 426:0.23928915 427:0.25022912 428:-0.033264112 429:-0.14092684 430:0.11163281 431:-0.053436324 432:0.16610198 433:0.12694827 434:0.1375706 435:0.33296683 436:-0.074786775 437:-0.082005665 438:0.028572598 439:0.099948213 440:0.055608772 441:-0.11190999 442:0.13941044 443:0.17300451 444:0.20855662 445:-0.096750304 446:0.3346056 447:4.4604338e-05 448:0.0560898 449:-0.13084881 450:2.4780164e-05 451:4.6189118e-05 452:3.315719e-05 453:-2.8040815e-06 454:-0.0047130249 455:-0.059696566 456:0.0048347567 457:-0.064903215 458:0.14381659 459:0.0099049145 460:0.013924433 461:-0.21977162 462:0.040420402 463:-0.094721757 464:0.25915349 465:0.049570289 466:0.24319509 467:-3.8827027e-05 468:0.048948929 469:-0.077936105 470:-0.01556239 471:-0.26920554 472:0.071436152 473:0.075859398 474:0.13878186 475:-0.018534791 476:0.23290642 477:0.12557167 478:2.0415497e-05 479:-5.172284e-05 480:-0.059193879 481:-0.055832412 482:0.11795198 483:-0.046753332 484:-0.37545446 485:0.29648164 486:0.03618376 487:0.094915994 488:0.12456042 489:-8.3552395e-06 490:0.095536761 491:0.096754447 492:-2.4350518e-05 493:-0.049075972 494:-0.088083416 495:0.12518835 496:-0.37219501 497:2.5840885e-05 498:-0.34757912 499:0.050139423 500:-0.11427135 501:0.18187755 502:0.088792332 503:0.058198947 504:-0.016574852 505:-0.16617601 506:-0.01709955 507:0.1109253 508:-4.3827535e-05 509:0.10092625 510:-0.26581267 511:0.3004995 512:-0.040610373 
1 1:0.036976926 2:-2.0345053e-05 3:0.23870313 4:-0.26182929 5:3.2168351e-05 6:0.28456074 7:0.18147315 8:4.5987807e-05 9:-3.6677568e-05 10:3.4586221e-05 11:6.3462263e-05 12:-6.5727072e-06 13:-4.5822981e-05 14:5.912019e-05 15:-3.7591923e-05 16:4.8252528e-05 17:-4.8918111e-05 18:3.3158376e-05 19:3.9724982e-05 20:0.39053136 21:-0.24972217 22:3.3150725e-05 23:-0.44353947 24:0.24225235 25:-0.19000596 26:2.4392861e-05 27:0.39350104 28:0.25094864 29:-2.8448396e-05 30:0.018451674 31:-0.22687754 32:4.3158372e-05 33:3.8329057e-05 34:0.39135885 35:-0.16313648 36:5.0862633e-05 37:2.4392857e-05 38:0.028091628 39:-2.1579188e-05 40:4.6961937e-05 41:-0.069849767 42:0.073665477 43:0.1691578 44:-0.21459188 45:-3.0517576e-05 46:8.042085e-06 47:-0.25581071 48:-0.1631365 49:0.02809157 50:-0.225474 51:3.0090738e-05 52:-0.0094330106 53:-5.3051688e-05 54:-0.24838139 55:0.012121412 56:2.9666471e-05 57:1.4386126e-05 58:0.20016973 59:0.20016973 60:-1.5258787e-05 61:2.5383586e-05 62:-0.18983319 63:0.0022222314 64:0.2057808 65:0.2438339 66:-0.18787347 67:-2.454314e-05 68:5.7544501e-05 69:-0.021230523 70:0.15748243 71:-3.7969534e-05 72:2.6398389e-05 73:0.045931172 74:0.18771487 75:3.2300057e-05 76:-0.0090080621 77:1.6084177e-05 78:3.7370264e-05 79:-1.0971819e-05 80:5.0687795e-05 81:-0.28903836 82:-0.21526699 83:-0.32051414 84:0.46536389 85:0.28456074 86:3.7652819e-05 87:-0.27828774 88:-3.2900152e-05 89:3.3904242e-05 90:4.7073867e-05 91:-3.3286251e-05 92:-0.23909886 93:3.4962475e-05 94:0.0094327498 95:-0.29554263 96:0.16915783 97:-0.012453398 98:-3.2564876e-05 99:0.20170097 100:0.12863998 101:0.21843824 102:-2.4917499e-05 103:0.26237339 104:-0.34223333 105:-0.18499053 106:3.0713814e-05 107:3.8062106e-05 108:-4.9834998e-05 109:-1.6131455e-05 110:-0.29735765 111:5.5250959e-05 112:-0.052813746 113:-0.05292261 114:0.018451722 115:0.20643382 116:-0.072572745 117:-0.045211144 118:-3.0778112e-05 119:4.3158376e-05 120:-1.3660849e-05 121:3.3788634e-05 122:-3.2938075e-05 123:-1.5689056e-05 124:0.0081211021 125:-4.6169276e-05 126:-0.28104478 127:4.8785718e-05 128:1.2213639e-05 129:-3.5238663e-05 130:-3.6677564e-05 131:5.8436715e-05 132:2.7858614e-05 133:1.9699013e-05 134:0.16347525 135:0.018846501 136:0.0063575441 137:-1.6821234e-05 138:2.8180833e-05 139:2.0301226e-05 140:-0.16664775 141:-6.4704385e-05 142:1.058424e-05 143:-9.4301859e-06 144:0.37126642 145:-0.28036237 146:0.12864 147:-5.7544497e-05 148:5.5717224e-05 149:-2.3856686e-05 150:-1.9031055e-05 151:-0.19661759 152:9.5155283e-06 153:0.24889907 154:1.7059845e-05 155:-0.47917759 156:3.6677564e-05 157:0.14585716 158:-0.33008268 159:-0.21049656 160:4.4486631e-05 161:4.7501322e-05 162:5.2489646e-05 163:-6.1035156e-05 164:-4.6058067e-05 165:0.28851083 166:-5.9567123e-05 167:-0.19392428 168:2.0345055e-05 169:0.20559198 170:0.24909288 171:0.020922959 172:-0.39843607 173:-0.18810555 174:-0.052056096 175:3.315838e-05 176:-0.012107535 177:6.1035156e-05 178:0.046874899 179:3.7252903e-09 180:-7.3150957e-05 181:2.6330355e-05 182:-0.25776228 183:-0.0009118155 184:3.240622e-05 185:-0.34105164 186:-0.31265944 187:-5.1869909e-05 188:-5.6638226e-05 189:-4.1942403e-05 190:0.30468315 191:-1.0172528e-05 192:0.17675605 193:-0.40275505 194:-3.693339e-05 195:9.9202261e-06 196:5.3233303e-05 197:1.3707884e-05 198:1.6936809e-05 199:-2.3386932e-05 200:3.8527996e-05 201:-4.9602357e-05 202:-0.019990135 203:3.9507708e-05 204:4.8656457e-05 205:-0.37097606 206:3.2968681e-05 207:0.17675605 208:5.3827949e-05 209:-3.3097134e-05 210:-4.19424e-05 211:-0.22220109 212:9.5150092e-05 213:0.26182929 214:-4.4904606e-05 215:-5.5717221e-05 216:0.21427344 217:-5.6970766e-05 218:3.2168351e-05 219:0.382357 220:0.24383391 221:-1.6194646e-05 222:-2.9400955e-05 223:2.3553044e-05 224:-2.6459544e-05 225:0.28036234 226:-3.0304913e-05 227:-0.3378562 228:0.01047051 229:0.23245063 230:-0.40275505 231:-0.31836197 232:-0.30726567 233:4.1334024e-05 234:0.20569025 235:-1.7619332e-05 236:-4.8914222e-05 237:-0.2642079 238:-5.7163048e-05 239:0.16699545 240:2.9657755e-05 241:-1.6241978e-05 242:4.4341014e-05 243:-0.22220109 244:-0.13934168 245:-0.049697053 246:-9.3547114e-06 247:3.7610578e-05 248:-0.010470481 249:4.5492918e-05 250:3.7786511e-05 251:0.13079207 252:0.19959617 253:2.4126264e-05 254:4.9843107e-05 255:0.0097330026 256:3.3086922e-05 257:1.0172527e-05 258:-0.21144362 259:-5.6638226e-05 260:-1.4386124e-05 261:-0.24597847 262:-0.16004162 263:4.8785721e-05 264:-4.9770064e-05 265:-0.20643382 266:1.8680517e-05 267:4.5344059e-06 268:4.1217536e-05 269:-6.2535197e-05 270:-1.9839188e-05 271:-6.3041967e-05 272:5.5250959e-05 273:-6.8144538e-05 274:-4.8652968e-05 275:-2.6428997e-05 276:-2.8772252e-05 277:-0.16209361 278:2.7634662e-05 279:-0.029613808 280:-0.38206345 281:-0.24364854 282:0.07366544 283:2.8772252e-05 284:3.6677564e-05 285:2.7524009e-05 286:-2.5095309e-05 287:-0.020923128 288:-0.29125372 289:-0.01212137 290:4.0690105e-05 291:-0.24889907 292:0.18499053 293:1.5258787e-05 294:-2.7360835e-05 295:-1.2458747e-05 296:-5.1179533e-05 297:0.24222171 298:0.19951506 299:-2.3856688e-05 300:0.2890313 301:0.18414415 302:-4.6198278e-05 303:0.22809206 304:-0.15748245 305:0.021887448 306:-0.17712554 307:-5.0607679e-05 308:-0.028933546 309:-0.0090081627 310:-0.1935211 311:5.4026579e-05 312:-2.39942e-05 313:0.25581071 314:-5.3827949e-05 315:-2.0345053e-05 316:3.009074e-05 317:4.1661977e-05 318:-0.14116141 319:0.11579019 320:-3.5238663e-05 321:0.05618478 322:-0.27650493 323:2.9343933e-05 324:0.3378562 325:3.4566947e-05 326:-1.6084177e-05 327:-2.7984652e-05 328:0.018808881 329:2.3515375e-05 330:0.20583309 331:0.0079357224 332:7.8506499e-05 333:-0.16630216 334:-2.495825e-05 335:-5.8734055e-05 336:4.4540764e-05 337:-0.22519857 338:-0.27629194 339:-4.9834998e-05 340:0.4150728 341:-2.8772251e-05 342:2.4831827e-05 343:-0.382357 344:3.44369e-05 345:5.6391575e-05 346:4.3855016e-05 347:-3.1010182e-05 348:0.054420896 349:-2.802846e-05 350:0.012107546 351:0.30614543 352:-1.0172525e-05 353:2.8666282e-05 354:-3.5968114e-05 355:3.3738452e-05 356:-4.0690105e-05 357:2.2746461e-05 358:0.33659756 359:-2.0345053e-05 360:-0.1935211 361:5.1869909e-05 362:3.3559907e-05 363:0.28633511 364:-0.2642079 365:-4.4903703e-05 366:-0.25634152 367:-0.16347525 368:-4.367972e-05 369:1.7059847e-05 370:-0.0091424948 371:0.046784911 372:-6.670571e-05 373:2.4059153e-05 374:-2.1292813e-05 375:0.27828771 376:4.2031515e-05 377:-6.0424074e-05 378:-4.5927332e-05 379:-2.6175869e-05 380:-0.01483278 381:-4.636696e-05 382:3.2168351e-05 383:0.20881051 384:-1.9053299e-05 385:-0.36874202 386:4.0690105e-05 387:-3.2168351e-05 388:2.5934953e-05 389:4.4631779e-05 390:0.23993698 391:-0.18537486 392:3.2962751e-05 393:-1.1444089e-05 394:-0.0021311045 395:5.4710039e-05 396:0.41232011 397:0.0052962685 398:4.0216299e-05 399:0.018808747 400:-4.5492921e-05 401:-0.21843825 402:-0.046784922 403:-0.14585716 404:0.28874987 405:1.9031053e-05 406:0.17338674 407:3.0517578e-05 408:-3.6500805e-05 409:0.19392425 410:-2.3169034e-05 411:-2.8772252e-05 412:-0.20599845 413:-4.4920656e-05 414:2.0345053e-05 415:-0.1959563 416:-4.2096319e-05 417:0.012752522 418:3.7202808e-05 419:-2.8772251e-05 420:2.9657756e-05 421:0.15256347 422:2.8247654e-05 423:-0.036976933 424:-0.44657978 425:0.26400018 426:0.021887392 427:0.25684753 428:-2.8772247e-05 429:-0.061253257 430:0.22809206 431:3.468369e-05 432:0.18070896 433:0.27188703 434:0.17338674 435:0.31449682 436:0.0081210909 437:-0.0052967444 438:7.4505806e-09 439:0.024268519 440:0.013327346 441:3.2168351e-05 442:-1.4386123e-05 443:0.27629194 444:-0.16987814 445:-0.19951506 446:0.39105609 447:-4.605807e-05 448:1.2458748e-05 449:-2.0345053e-05 450:-2.6561827e-05 451:6.4776694e-05 452:-3.1163108e-05 453:-2.5564965e-05 454:5.4046584e-05 455:1.3592921e-05 456:0.0097331041 457:-1.3354923e-05 458:4.3503533e-05 459:3.2387154e-05 460:-1.3602963e-05 461:-0.28903836 462:-2.6261752e-05 463:4.1942403e-05 464:0.38206348 465:-3.7257301e-05 466:-0.22008806 467:4.1942403e-05 468:8.1703503e-05 469:-4.0690105e-05 470:-2.1990731e-05 471:-0.31978551 472:3.2168351e-05 473:-4.1561489e-05 474:0.32076827 475:4.5492921e-05 476:0.14800005 477:1.1658791e-05 478:3.9974744e-05 479:-4.8704398e-05 480:3.4143355e-05 481:5.7544501e-05 482:0.06031543 483:-6.7476903e-05 484:-0.28098926 485:0.29834631 486:-2.8772247e-05 487:-2.8772251e-05 488:-3.8062106e-05 489:2.1554217e-05 490:0.021230625 491:0.19661759 492:-4.419922e-05 493:-0.052813739 494:4.9394042e-05 495:7.1930626e-06 496:-0.10342353 497:3.5127334e-05 498:-0.23321339 499:-2.8772249e-05 500:-0.028112823 501:0.30223626 502:-2.4112631e-05 503:-0.0086189918 504:-5.5525335e-05 505:0.10464489 506:1.0522894e-05 507:2.6913975e-05 508:2.0345053e-05 509:0.05618285 510:-0.014832695 511:0.17958407 512:-2.9679773e-05 
1 1:0.049160182 2:-0.051754389 3:0.25361958 4:-0.29614988 5:-0.0028662772 6:0.30580112 7:0.16422218 8:3.8735823e-05 9:2.4917499e-05 10:-0.0074168546 11:-0.0044842144 12:1.5627982e-05 13:-0.0032590053 14:-0.011211577 15:0.027600577 16:3.3738448e-05 17:-2.2315888e-05 18:3.7341084e-05 19:0.026423926 20:0.37439653 21:-0.17623299 22:0.020402599 23:-0.35709316 24:0.32640406 25:-0.12796666 26:2.3997567e-05 27:0.34673691 28:0.20282242 29:0.024708446 30:0.036739156 31:0.13422994 32:-0.002865711 33:-1.9454579e-05 34:0.36330798 35:-0.20512436 36:4.6616369e-05 37:0.016594933 38:0.12210021 39:2.4099023e-05 40:0.046948858 41:-0.036245313 42:0.053738315 43:0.33774132 44:-0.25422579 45:2.0044812e-05 46:0.097231671 47:-0.26780331 48:-0.15682246 49:-0.051417433 50:-0.12015839 51:-0.026407538 52:-5.5523866e-05 53:-5.1886447e-05 54:-0.20476392 55:-0.01005749 56:-0.024166111 57:5.2857995e-05 58:0.18794204 59:0.18794203 60:0.05814179 61:2.6238053e-05 62:-0.14076898 63:-0.064172938 64:0.23741361 65:0.17938389 66:-0.1563513 67:0.056654532 68:0.013316551 69:-0.029063886 70:0.21744332 71:0.021567417 72:-3.271137e-05 73:0.030082891 74:0.12723872 75:-0.082723461 76:5.3646185e-05 77:-0.031433206 78:-0.011717827 79:-6.9304933e-06 80:0.020144213 81:-0.16780151 82:-0.16819343 83:-0.23614822 84:0.3047753 85:0.2825366 86:-9.8130477e-06 87:-0.24857473 88:-0.094861135 89:0.012389538 90:0.021334747 91:0.021510517 92:-0.27463168 93:3.5787209e-05 94:3.4713263e-05 95:-0.18594675 96:0.33844846 97:0.0407377 98:-4.6687665e-06 99:0.34585696 100:0.18726496 101:0.10895724 102:-0.093374595 103:0.31347147 104:-0.35085505 105:-0.23819338 106:4.1649218e-05 107:-0.11558155 108:-5.9424445e-05 109:-1.9243882e-05 110:-0.18324108 111:4.9964608e-05 112:-0.022901984 113:0.050636135 114:0.036739152 115:0.37517956 116:0.056809086 117:-0.030082908 118:-0.01042949 119:1.8688123e-05 120:0.04185446 121:2.7779088e-05 122:1.7028322e-05 123:2.2494807e-05 124:2.6826936e-05 125:-3.9497339e-05 126:-0.17838661 127:2.6758922e-05 128:4.0897321e-06 129:-0.024876481 130:-0.011840762 131:0.025154477 132:0.072131239 133:-8.0420887e-06 134:0.1488391 135:0.050357234 136:0.027838392 137:0.083480567 138:-0.03537228 139:3.1801286e-05 140:-0.24961273 141:-4.0092149e-05 142:0.0055880831 143:2.8602222e-05 144:0.25788182 145:-0.14460909 146:0.18925911 147:-5.3827946e-05 148:4.4048327e-05 149:0.062411983 150:0.028714735 151:-0.18492168 152:0.019417455 153:0.21463828 154:-0.010869422 155:-0.40069622 156:-2.6672587e-05 157:0.30080947 158:-0.30158862 159:-0.17995879 160:-0.07980568 161:3.0875253e-05 162:0.036219511 163:0.0072428328 164:-4.9313148e-05 165:0.26045087 166:-4.8419781e-05 167:-0.16388883 168:-0.03065441 169:0.14050275 170:0.27429661 171:0.053074684 172:-0.38310403 173:-0.13297363 174:-0.040933263 175:0.028372442 176:0.085075095 177:0.026484067 178:0.033890478 179:-2.0345055e-05 180:0.0031466866 181:0.011093932 182:-0.20522572 183:6.2972604e-06 184:-0.01160257 185:-0.27581212 186:-0.22082163 187:0.043761253 188:-0.022915475 189:-0.011973393 190:0.21232501 191:-0.065025024 192:0.18013223 193:-0.37880117 194:-1.8452107e-05 195:0.010518408 196:0.057201963 197:-0.0095655564 198:-6.9941657e-06 199:3.7266316e-05 200:0.026141733 201:0.099327914 202:-0.042440455 203:-0.087453358 204:5.8947626e-05 205:-0.23894349 206:-0.015562492 207:0.19153707 208:0.036885981 209:-3.660228e-05 210:-0.037034079 211:-0.21213031 212:-0.10406813 213:0.32231957 214:2.4186525e-05 215:-0.11699313 216:0.14266306 217:-0.022216665 218:4.6616369e-05 219:0.33167288 220:0.19657767 221:4.9365437e-05 222:-3.4902292e-05 223:3.2707303e-05 224:-5.5260844e-05 225:0.14463554 226:0.010664892 227:-0.33110851 228:0.026407508 229:0.1501725 230:-0.38372201 231:-0.23833692 232:-0.23458891 233:3.4811543e-05 234:0.14050275 235:-0.046616197 236:-7.0789349e-05 237:-0.21427836 238:-5.5720902e-05 239:0.26452053 240:-0.00048370333 241:4.2639447e-05 242:1.6283988e-05 243:-0.23844272 244:-0.22063845 245:-0.030814927 246:0.0076784799 247:3.7777005e-05 248:0.051397774 249:3.8062106e-05 250:4.5136465e-05 251:0.31786045 252:0.18102401 253:-0.036079261 254:3.0417692e-05 255:0.034262374 256:6.1383689e-05 257:-0.13231415 258:-0.19456275 259:4.19424e-05 260:0.047281764 261:-0.20048307 262:-0.12675798 263:-0.027838394 264:0.006713904 265:-0.37600967 266:-2.694163e-05 267:2.9879568e-05 268:0.0064509627 269:-0.0094491085 270:0.0055220653 271:-4.3101514e-05 272:0.010735887 273:-0.085029021 274:-0.029422391 275:3.9541403e-05 276:4.19424e-05 277:0.12647302 278:-0.012560063 279:-0.069055609 280:-0.26895836 281:-0.16318767 282:0.049250603 283:-0.14924584 284:-0.048994415 285:0.0022021187 286:0.0024766726 287:0.094407849 288:-0.30869386 289:-3.9132028e-05 290:2.0345053e-05 291:-0.21453024 292:0.23133369 293:0.050425857 294:-0.0016070845 295:0.013373636 296:-0.09934219 297:0.14789793 298:0.11804189 299:3.0517576e-05 300:0.16939694 301:0.10743814 302:-3.150816e-05 303:0.20488809 304:-0.21878716 305:0.042687193 306:-0.19064425 307:0.050892398 308:-0.057326466 309:1.4326361e-05 310:-0.136868 311:-0.0043774894 312:1.8293027e-05 313:0.27324685 314:-3.1146872e-05 315:0.0076718316 316:3.7527352e-05 317:1.8523866e-05 318:-0.22510231 319:0.03730657 320:-1.4386123e-05 321:0.034035314 322:-0.27297637 323:2.9477602e-05 324:0.33069476 325:-0.094861135 326:-0.0028802983 327:0.078431495 328:-0.072011225 329:-0.035073947 330:0.1714368 331:0.03065436 332:0.10364211 333:-0.23185213 334:-2.7815322e-05 335:-0.036307625 336:2.8399169e-05 337:-0.13768314 338:-0.21531163 339:0.029849108 340:0.29526678 341:0.015846414 342:0.10449712 343:-0.33167291 344:-0.012460824 345:0.035338063 346:0.012692217 347:-3.3808607e-05 348:-0.040039983 349:-0.042582985 350:-0.0024675124 351:0.25331378 352:-1.4386127e-05 353:-2.2943988e-05 354:-1.3463241e-05 355:7.680089e-05 356:0.13517547 357:3.4325218e-05 358:0.22724718 359:0.040232792 360:-0.1979991 361:0.0019053334 362:-0.093334377 363:0.19747491 364:-0.21853369 365:-2.2780623e-05 366:-0.28625515 367:-0.16505681 368:0.18097804 369:0.053275462 370:-0.0082925316 371:0.032007597 372:-4.9916787e-05 373:-0.0066770609 374:-0.039698135 375:0.24871573 376:0.050102606 377:0.0019048457 378:0.001469988 379:-6.2616818e-05 380:-0.073619895 381:1.1434447e-05 382:0.016594909 383:0.13359678 384:-3.0268997e-05 385:-0.2044348 386:-0.080850549 387:-2.9218356e-05 388:0.09916015 389:0.046134841 390:0.156087 391:-0.24531451 392:3.7202808e-05 393:-0.019544154 394:0.01380709 395:0.11553662 396:0.4133141 397:0.010942164 398:-2.8208053e-05 399:0.047816623 400:-0.025120981 401:-0.10895725 402:-0.033831283 403:-0.31516895 404:0.16711776 405:4.1006762e-05 406:0.13923801 407:-0.02740146 408:-0.059281465 409:0.16388883 410:-0.024317829 411:0.035040326 412:-0.21074633 413:-0.09742032 414:0.10406815 415:-0.33510217 416:0.10959087 417:3.7539863e-05 418:5.0551353e-05 419:-0.035338055 420:4.1320996e-05 421:0.17702238 422:0.01519832 423:-0.045043938 424:-0.49759251 425:0.19808656 426:0.04268714 427:0.22330292 428:-0.026500149 429:-0.073119707 430:0.20529261 431:-0.11286829 432:0.25308585 433:0.22625184 434:0.13918872 435:0.27162185 436:-0.13173223 437:-0.014005003 438:-1.1373229e-05 439:0.050674077 440:0.01458038 441:-0.070863582 442:0.012672071 443:0.15476963 444:0.1599419 445:-0.10974324 446:0.30428147 447:-3.0251507e-05 448:0.079233319 449:-0.0022030331 450:-2.8245406e-05 451:5.3338277e-05 452:-4.6825353e-05 453:2.0018349e-06 454:-0.023545008 455:-0.010735931 456:2.9744213e-05 457:-1.6813468e-05 458:0.0096748713 459:0.011211744 460:0.0020964274 461:-0.16835862 462:-2.6378124e-05 463:0.0037050555 464:0.27359059 465:0.056974292 466:-0.13733239 467:2.8772249e-05 468:6.3660009e-05 469:0.068793841 470:-2.3015164e-05 471:-0.25289556 472:3.8062106e-05 473:0.048342869 474:0.29099083 475:-0.043014109 476:0.15515047 477:0.013459148 478:-3.8320817e-05 479:-6.7830908e-05 480:-0.1211658 481:-0.0066237217 482:0.039379135 483:-0.095297016 484:-0.3855406 485:0.19211948 486:-3.3738452e-05 487:1.1654092e-05 488:0.19493636 489:-0.09169133 490:0.029063947 491:0.18492167 492:4.4254532e-05 493:-0.02290198 494:0.07562165 495:-2.9657755e-05 496:-0.41821396 497:4.85038e-05 498:-0.15877879 499:-0.0052063111 500:-0.0629467 501:0.22955897 502:0.02324589 503:-0.05327316 504:-0.021510554 505:0.22794601 506:-0.047447696 507:0.015884532 508:-2.0345053e-05 509:0.037989486 510:-0.066675723 511:0.20269182 512:0.05223909 
0.03522491263511956 1:0.30092996 2:-0.17175229 3:0.08728876 4:-0.083365232 5:-0.11097113 6:0.28630963 7:0.42121753 8:0.028925404 9:-0.070611261 10:0.0029413514 11:0.0045147827 12:-0.040199757 13:5.9370006e-05 14:-0.023304984 15:0.22797318 16:-0.014755699 17:0.02629379 18:0.062219102 19:0.031929128 20:-0.17960496 21:-0.060292646 22:0.055266172 23:-0.18920802 24:0.13714039 25:-0.051671993 26:2.32561e-05 27:0.10232396 28:0.068111241 29:0.016878767 30:0.05649915 31:0.090855204 32:-0.078664958 33:5.8457463e-05 34:0.065657273 35:-0.1396434 36:-1.5509473e-05 37:-0.072670668 38:0.10012329 39:-0.0012161258 40:0.0161548 41:-0.085268266 42:0.019800106 43:0.16203664 44:-0.079040639 45:0.0029840791 46:0.030499231 47:-0.045279685 48:-0.053467762 49:-0.091040984 50:0.1774506 51:0.056059152 52:-0.050788965 53:-2.9218358e-05 54:-0.079620384 55:0.04759958 56:-0.032211669 57:3.0938529e-05 58:-0.34114119 59:0.10337174 60:0.10976379 61:0.099564306 62:0.34043297 63:-0.1437082 64:0.24151376 65:-0.038558561 66:-0.14913808 67:-2.6856034e-05 68:-0.027927643 69:-0.071433619 70:0.19005506 71:0.042673383 72:-0.23268205 73:0.049499076 74:0.049920823 75:-0.08916574 76:0.0080432501 77:-0.091476299 78:0.0063027767 79:-0.022112936 80:0.025807215 81:-0.072189294 82:-0.076193795 83:-0.072577275 84:-0.17419794 85:0.090908587 86:0.0029192914 87:-0.035365634 88:0.059975419 89:-2.8284972e-05 90:0.093113959 91:0.081918091 92:-0.059515219 93:0.04340924 94:0.048120394 95:-0.079211727 96:0.15771013 97:0.12327196 98:0.26310259 99:-0.054274645 100:0.066945389 101:0.035333194 102:-0.093555734 103:0.10187013 104:0.050846346 105:-0.070396155 106:3.6374862e-05 107:-0.02725446 108:0.097938471 109:-0.02174877 110:0.12317906 111:-0.0012332263 112:0.07622394 113:0.12758593 114:0.058720924 115:0.20496079 116:-0.077747397 117:0.04601416 118:0.08363869 119:-0.0098391008 120:0.091924153 121:-0.0081446525 122:0.0057616448 123:-0.037674546 124:-1.2458751e-05 125:-0.021166237 126:-0.042684529 127:4.8777219e-05 128:0.013576315 129:-0.057256039 130:-0.10901064 131:0.067885593 132:6.1035156e-05 133:0.21617605 134:0.069252409 135:0.18106744 136:0.30821475 137:-0.022968339 138:-0.012587968 139:4.2126794e-05 140:-0.18288706 141:-2.7153215e-05 142:-0.15026566 143:0.11926674 144:0.17752661 145:-0.083303235 146:0.10310249 147:-0.007433421 148:1.2328287e-05 149:-0.16922154 150:-0.0028374861 151:0.066293269 152:0.0020034399 153:0.09747535 154:0.073601186 155:-0.096060395 156:0.0041745836 157:0.18540831 158:-0.080662437 159:-0.067831211 160:-0.27439988 161:0.0019988609 162:-5.7584966e-06 163:0.098970987 164:-0.095331915 165:0.14148888 166:0.00040332612 167:-0.04354322 168:-0.045203205 169:0.027951615 170:0.056576073 171:0.086933404 172:-0.23428266 173:-0.073311709 174:-0.096217804 175:0.091712788 176:0.20080236 177:-0.11513594 178:0.18021381 179:-1.9699013e-05 180:-5.6057161e-05 181:0.095023692 182:-0.0453026 183:1.8982439e-05 184:0.019053256 185:-0.14237411 186:-0.15709861 187:0.050333228 188:0.2004139 189:0.17027028 190:0.093006 191:0.029647499 192:0.026730604 193:-0.11101688 194:-2.8101e-05 195:0.043239638 196:0.37324706 197:-1.3878543e-05 198:-3.5084486e-05 199:0.004424483 200:-0.0060291509 201:0.0045499736 202:-0.042585883 203:-0.13591674 204:3.7932041e-05 205:-0.070032932 206:-0.23491642 207:0.051612351 208:0.021595711 209:0.07079339 210:-0.098839447 211:-0.06668219 212:-0.027553927 213:0.085561141 214:-0.0048128287 215:-0.22797795 216:-0.048214961 217:-0.0053584832 218:3.3934033e-05 219:0.055701304 220:-0.14438024 221:-0.091248542 222:2.2139031e-05 223:0.13289869 224:3.5307759e-05 225:0.044200014 226:-0.031550191 227:-0.094078936 228:-0.036969017 229:0.067630187 230:-0.11193924 231:-0.065799132 232:-0.082836561 233:-0.0087228538 234:0.066900395 235:-0.097197033 236:-0.025209852 237:-0.059844103 238:2.0341862e-05 239:0.24100928 240:-0.16125806 241:0.071116269 242:-3.9398026e-05 243:-0.081028357 244:-0.062346485 245:0.07020583 246:2.0652567e-05 247:0.0074818823 248:0.025841199 249:-6.8517198e-05 250:0.12950791 251:0.29865649 252:0.088389985 253:2.1150578e-05 254:0.0060287346 255:0.04355533 256:-1.9017092e-05 257:-0.013601129 258:-0.04357826 259:-0.073336683 260:0.01009594 261:-0.068137616 262:0.11587831 263:-0.16467044 264:-1.5881853e-05 265:-0.12442282 266:0.043688651 267:-0.033291407 268:0.053416871 269:-0.043915398 270:-0.030342666 271:3.0570514e-05 272:0.38214743 273:-0.13071921 274:-0.0039812475 275:-0.041512582 276:2.2170507e-05 277:-0.23112465 278:-0.01115165 279:-0.084622838 280:-0.05108086 281:-0.12441481 282:0.073269285 283:-0.14278105 284:0.18423371 285:5.2895695e-05 286:-0.059920438 287:-0.099213175 288:-0.098197937 289:-0.18360901 290:1.4740506e-05 291:-0.098904192 292:0.11759209 293:-0.055438425 294:0.0044252817 295:-0.0026277907 296:-0.0045497622 297:-0.096085817 298:0.023639962 299:4.7051253e-05 300:-0.044950884 301:-0.26004386 302:-0.010786501 303:-0.087787002 304:-0.23759232 305:0.097193845 306:-0.052181445 307:0.062427331 308:-0.088008054 309:-0.0046399776 310:-0.062565938 311:-2.4703902e-05 312:4.5952638e-05 313:0.29542106 314:3.2168351e-05 315:0.33828768 316:3.4001841e-05 317:-2.7087463e-05 318:0.037904646 319:0.051306527 320:-2.3238714e-05 321:0.11952395 322:-0.025898358 323:8.6310338e-06 324:0.08260411 325:0.18141037 326:-0.027924787 327:0.049948577 328:0.13279185 329:-0.0013318443 330:-0.043087669 331:0.036330044 332:0.024077024 333:0.59230959 334:0.014937175 335:0.023864843 336:0.052711211 337:-0.072831944 338:-0.081179745 339:0.0048129577 340:0.094091199 341:0.050263312 342:-0.04449708 343:0.068586469 344:-0.15631168 345:0.14029311 346:-0.083902515 347:-0.058234777 348:-0.11261168 349:-0.067575611 350:3.0543382e-05 351:0.067441881 352:5.7138222e-05 353:0.036969021 354:-0.063140653 355:0.030162731 356:-0.22669372 357:3.4525783e-05 358:0.047667403 359:0.094448261 360:-0.063752957 361:0.007163316 362:-0.094803959 363:-0.1166489 364:-0.14344271 365:2.6142436e-05 366:0.075365774 367:-0.092611372 368:-0.095656738 369:-0.09601631 370:-0.020966372 371:0.14429316 372:-0.010801985 373:-0.024876356 374:0.088827431 375:0.035365619 376:0.31899694 377:-0.021341704 378:0.11982908 379:-4.1315277e-05 380:-0.3324106 381:-0.0075273914 382:0.16980834 383:0.11086335 384:-4.3709191e-05 385:0.19718327 386:-0.0052655153 387:0.041194249 388:0.50632554 389:0.21866573 390:0.10682295 391:-0.082912676 392:-0.02899378 393:0.0027126137 394:-0.24530496 395:-0.082564212 396:0.13391967 397:0.2087246 398:-3.5455942e-05 399:0.13837567 400:4.5127781e-05 401:-0.032583479 402:-0.14385994 403:-0.16005987 404:0.020535929 405:2.4392863e-05 406:0.033943903 407:-0.09919481 408:-0.014490964 409:0.098079719 410:-0.26201835 411:1.1383947e-05 412:0.0701482 413:-0.013301939 414:0.026514277 415:-0.069871537 416:-0.020313304 417:3.1507756e-05 418:-9.473707e-06 419:-0.13430265 420:2.6816788e-05 421:-0.21431841 422:4.1063599e-06 423:-0.32124522 424:-0.16673075 425:0.055887669 426:-0.045808405 427:0.070890583 428:-0.12772183 429:-0.036893811 430:-0.18018471 431:-0.061217275 432:0.13816601 433:0.029745506 434:0.034768518 435:-0.15437074 436:0.072944529 437:-0.24075121 438:0.17776628 439:0.15738153 440:0.19535701 441:-0.52196872 442:0.036186937 443:0.11602553 444:0.24701229 445:0.013802899 446:0.12368509 447:-1.5152455e-05 448:0.015833991 449:-8.8049703e-05 450:2.8557595e-05 451:3.1784472e-05 452:-3.0517578e-05 453:2.8521845e-05 454:0.022452815 455:-0.37867081 456:0.0071167569 457:0.0048765074 458:0.43126333 459:0.023305079 460:-2.159935e-05 461:-0.072487928 462:0.41747591 463:-0.1380081 464:0.095682003 465:0.028745905 466:0.11533722 467:0.063204363 468:0.04841898 469:0.01065606 470:0.0044000149 471:-0.18536857 472:0.047296468 473:0.13783796 474:0.046157964 475:-0.017100336 476:0.15249237 477:-0.095811807 478:3.8172442e-05 479:-0.03217015 480:0.063908771 481:3.7249258e-05 482:0.095813572 483:0.021622263 484:-0.31679338 485:0.085600898 486:-0.0022456031 487:0.1026973 488:0.027716728 489:-2.825531e-05 490:-0.084870517 491:0.029298417 492:-1.2612029e-05 493:-0.10436154 494:-0.046748757 495:0.11076967 496:-0.47749835 497:0.0079538375 498:-0.22815517 499:0.23688421 500:-0.035730124 501:0.29128233 502:0.0094217509 503:-0.14595294 504:0.042499393 505:-0.01051555 506:-0.0089145862 507:0.091351666 508:0.059141267 509:0.11952396 510:-0.32187837 511:0.099129274 512:-0.13971868 
1 1:0.030893805 2:-1.7619332e-05 3:0.24183373 4:-0.2570664 5:4.5492921e-05 6:0.31058204 7:0.21768302 8:2.9328823e-05 9:-2.4917499e-05 10:-1.1386147e-05 11:7.3606519e-05 12:-3.4131786e-05 13:-4.1254734e-05 14:5.1163654e-05 15:-3.9806073e-05 16:4.605807e-05 17:0.034060318 18:2.4893152e-05 19:3.6111123e-05 20:0.3612816 21:-0.19444655 22:-2.2454455e-05 23:-0.39236566 24:0.33664197 25:-0.16579071 26:3.0785945e-05 27:0.42132857 28:0.29050067 29:-0.022215365 30:0.027291585 31:-0.16707166 32:5.3827949e-05 33:-4.8193133e-06 34:0.40002251 35:-0.15988238 36:5.8436712e-05 37:5.3071686e-05 38:0.083167411 39:-1.2458749e-05 40:4.6607696e-05 41:-0.041550636 42:0.047757078 43:0.24687856 44:-0.18973482 45:-3.8735827e-05 46:0.11619101 47:-0.22507377 48:-0.16269659 49:0.039695814 50:-0.15056551 51:-0.029462643 52:-0.0097165983 53:-3.5982983e-05 54:-0.21878222 55:0.017083596 56:1.4968366e-05 57:5.8436715e-05 58:0.15040748 59:0.15040748 60:2.1124837e-05 61:3.9075344e-06 62:-0.16617855 63:0.00024206217 64:0.23021916 65:0.25837129 66:-0.18509619 67:-4.4637552e-05 68:6.1035156e-05 69:-0.026353981 70:0.16024415 71:-1.0278583e-05 72:-2.1873208e-05 73:0.027892143 74:0.14832911 75:-3.2359021e-05 76:-0.016004452 77:6.2604442e-05 78:-0.0261881 79:-2.5565338e-05 80:1.4164523e-05 81:-0.21908422 82:-0.17971404 83:-0.29241389 84:0.40608877 85:0.31058204 86:1.9520694e-05 87:-0.29513806 88:-0.024116851 89:0.00027590862 90:3.8877955e-05 91:-5.5003984e-06 92:-0.23387927 93:2.8921189e-05 94:0.0097163497 95:-0.26726243 96:0.23283318 97:-0.02047166 98:1.2348334e-05 99:0.29736999 100:0.21009737 101:0.15332115 102:-0.045875058 103:0.28187343 104:-0.33701831 105:-0.19133298 106:2.2227629e-05 107:-0.040222563 108:-5.9315513e-05 109:-5.1734034e-05 110:-0.21792054 111:4.3753687e-05 112:-0.028218241 113:-0.023142887 114:0.027291555 115:0.31549382 116:-0.038149264 117:-0.026131431 118:-2.0688021e-05 119:2.4917499e-05 120:3.765857e-05 121:-2.5695223e-05 122:-2.2006585e-05 123:4.5205736e-05 124:0.012968277 125:-0.048609409 126:-0.23361602 127:-2.8772247e-05 128:-0.0033123503 129:-0.012901209 130:-5.3345178e-05 131:0.0203101 132:0.024220062 133:2.8089806e-05 134:0.18059498 135:0.025514904 136:0.01601452 137:0.040222567 138:-0.029304298 139:3.266272e-05 140:-0.15263902 141:-3.1440937e-05 142:-0.034062512 143:-0.013512745 144:0.33648869 145:-0.22618939 146:0.21009737 147:3.3738452e-05 148:4.771338e-05 149:0.024220031 150:0.042085595 151:-0.20499715 152:0.0098629147 153:0.23483421 154:0.020620441 155:-0.47355098 156:3.1353833e-05 157:0.2190273 158:-0.32814202 159:-0.22833073 160:-0.030796127 161:5.6729001e-05 162:0.050172821 163:-3.7137557e-05 164:-0.010975638 165:0.30168211 166:-6.6405075e-05 167:-0.15622011 168:-5.3827949e-05 169:0.16272408 170:0.23756461 171:0.030604199 172:-0.43092325 173:-0.15942337 174:-0.030794334 175:-2.6793552e-05 176:-0.0074062995 177:0.020527825 178:0.026994031 179:1.4386123e-05 180:-5.9698592e-05 181:-0.0010015653 182:-0.18777329 183:-0.0019756169 184:4.1522249e-05 185:-0.2961688 186:-0.29886487 187:-0.050620798 188:-3.7505801e-05 189:-4.0690105e-05 190:0.24812858 191:-0.07978753 192:0.16004007 193:-0.44743237 194:-4.2456635e-05 195:4.6125417e-05 196:6.1275663e-05 197:2.5869171e-05 198:5.6118919e-05 199:-1.9771707e-05 200:2.9180041e-05 201:0.018879257 202:-0.058559742 203:2.1273352e-05 204:3.6878602e-05 205:-0.33395284 206:-0.033042379 207:0.15985048 208:-0.031675491 209:-2.8545343e-05 210:-0.024246559 211:-0.20702919 212:-0.12220225 213:0.25792223 214:3.8812923e-05 215:-3.4869663e-05 216:0.16810262 217:1.5323336e-05 218:-2.4917499e-05 219:0.37633726 220:0.25836954 221:3.6788868e-05 222:-3.2493164e-05 223:0.00012919758 224:-4.4433575e-05 225:0.22618939 226:1.6021506e-05 227:-0.35004351 228:0.033601418 229:0.15496717 230:-0.44935381 231:-0.34398878 232:-0.23953493 233:3.6685349e-05 234:0.16351019 235:-1.0172525e-05 236:-4.6189329e-05 237:-0.24882001 238:-5.4329972e-05 239:0.16917329 240:-0.00094893912 241:2.1699929e-05 242:5.5031036e-05 243:-0.17311497 244:-0.19614843 245:-0.02004621 246:-3.0719832e-05 247:2.5044379e-05 248:-0.016155824 249:2.8772251e-05 250:-4.9228488e-06 251:0.1807794 252:0.14782813 253:-0.024246506 254:4.8869308e-05 255:0.0063744448 256:5.9376853e-05 257:-0.018113555 258:-0.230166 259:-4.7713376e-05 260:-1.6084176e-05 261:-0.29054067 262:-0.20822394 263:3.8735827e-05 264:-4.0927829e-05 265:-0.3132765 266:1.1589273e-05 267:2.4329351e-05 268:2.7405433e-05 269:-5.9269369e-05 270:1.5597127e-05 271:-3.9571823e-05 272:0.020310033 273:-6.4330423e-05 274:-0.050837718 275:-0.03837157 276:3.5238663e-05 277:-0.11566178 278:-0.05130985 279:-0.046459742 280:-0.37642464 281:-0.25524655 282:0.047757059 283:-0.089442156 284:-0.017526917 285:3.1331987e-05 286:2.1969714e-05 287:0.010125096 288:-0.32944143 289:-0.017083634 290:-5.3827949e-05 291:-0.23522265 292:0.17572121 293:3.0144423e-05 294:-0.0021652977 295:0.0025674396 296:-0.018879367 297:0.19773133 298:0.1667529 299:4.4920664e-05 300:0.25256622 301:0.17182238 302:-3.6122317e-05 303:0.21803707 304:-0.16024415 305:0.027265683 306:-0.17615606 307:-3.6677564e-05 308:-0.042819176 309:-0.016004575 310:-0.1469045 311:6.5698718e-05 312:1.1212808e-05 313:0.24130446 314:2.2603848e-05 315:-3.6853475e-05 316:3.7289628e-05 317:-1.0897209e-05 318:-0.19823742 319:-0.12283635 320:-2.2746461e-05 321:0.032688413 322:-0.2760261 323:-4.7707974e-05 324:0.34901148 325:-0.024116775 326:-0.038371585 327:-0.011682156 328:-0.0059190458 329:-0.022698319 330:0.15525858 331:0.015806293 332:0.056261413 333:-0.14497331 334:-3.0143219e-05 335:-0.050620791 336:0.025807956 337:-0.14802746 338:-0.27305272 339:0.05083771 340:0.33576646 341:2.8772249e-05 342:0.088186629 343:-0.37633726 344:-0.029648107 345:2.3997489e-05 346:-2.6146761e-05 347:0.0049711531 348:0.020400845 349:2.7904933e-05 350:0.016694972 351:0.25048733 352:-5.3345178e-05 353:-1.1931681e-05 354:-4.652606e-05 355:7.5441472e-05 356:-0.022100789 357:-8.8096695e-06 358:0.30766574 359:0.055306599 360:-0.14933185 361:5.8436712e-05 362:-0.097834393 363:0.20091853 364:-0.24882001 365:-3.6868973e-05 366:-0.26540038 367:-0.18576559 368:0.046838298 369:0.046011604 370:-0.013317302 371:0.030223489 372:-4.9365277e-05 373:-4.0059287e-05 374:-2.7889893e-05 375:0.29513806 376:3.5619378e-05 377:-6.6410008e-05 378:2.6156631e-05 379:-3.5601355e-05 380:-0.030388758 381:-3.8276594e-05 382:2.1579188e-05 383:0.18384567 384:0.012155706 385:-0.3639293 386:-0.021560684 387:0.038326964 388:6.7859211e-05 389:1.5676917e-05 390:0.15884201 391:-0.19637752 392:6.7284932e-06 393:2.0815978e-05 394:-0.0082595367 395:0.030492561 396:0.47741491 397:0.0084383236 398:0.0010002864 399:0.026928095 400:-0.053266332 401:-0.15306492 402:-0.030223509 403:-0.24184379 404:0.25152716 405:4.5492918e-05 406:0.19358519 407:-0.025808049 408:-0.030723 409:0.15622009 410:3.4339926e-05 411:0.067459069 412:-0.20524125 413:-0.017526982 414:0.12220228 415:-0.2627199 416:0.038855325 417:0.021775734 418:2.8786944e-05 419:3.2691853e-05 420:4.1632855e-05 421:0.16908433 422:0.043564435 423:0.054072801 424:-0.44451407 425:0.2466871 426:0.027265605 427:0.30996424 428:-4.9834998e-05 429:-0.048589349 430:0.21803707 431:-0.073082566 432:0.1577604 433:0.27778262 434:0.1935852 435:0.25520357 436:-0.012646223 437:-0.008438413 438:-3.47768e-05 439:0.033095006 440:0.011109722 441:-2.2746461e-05 442:0.051309865 443:0.26666203 444:-0.091792323 445:-0.14225642 446:0.39709237 447:-5.0791055e-05 448:0.021560684 449:-4.9834998e-05 450:-2.9798004e-05 451:6.800393e-05 452:-4.5815086e-05 453:3.3014403e-05 454:6.3172833e-05 455:-2.4333975e-05 456:0.0063746106 457:-4.8396312e-05 458:0.018423207 459:3.1554926e-05 460:-1.8367595e-05 461:-0.21792269 462:-1.9531111e-05 463:2.9218358e-05 464:0.38495633 465:-4.0810006e-05 466:-0.21587572 467:3.596531e-05 468:0.03789277 469:0.027571004 470:-3.580363e-05 471:-0.24092034 472:0.035514828 473:0.035448346 474:0.29452002 475:7.6124212e-05 476:0.17418085 477:-1.953289e-05 478:-2.831816e-05 479:-3.8138478e-05 480:-0.029383631 481:-0.034062486 482:0.038536731 483:0.086622342 484:-0.29634446 485:0.22041923 486:-5.7544497e-05 487:-3.8062106e-05 488:0.031676281 489:-0.014375813 490:0.02635403 491:0.20499714 492:3.613325e-05 493:-0.028218294 494:0.03079615 495:-3.1353833e-05 496:-0.21462765 497:3.6072332e-05 498:-0.1570536 499:1.8338782e-05 500:-0.039034721 501:0.22209653 502:0.0041491534 503:-0.013514522 504:-3.8659909e-05 505:0.15966944 506:-3.0000121e-05 507:-6.7476903e-05 508:3.2318792e-05 509:0.033499338 510:-0.030388728 511:0.18217976 512:0.0084178634 
0.2887431918222729 1:0.072774187 2:-0.082571425 3:0.16880736 4:-0.051568307 5:-0.32263857 6:0.21487539 7:0.24899782 8:0.11631002 9:-0.076148659 10:-0.008456911 11:-0.0095858397 12:-0.15328215 13:-0.0038257241 14:-0.011277829 15:-0.066862553 16:-0.0008120538 17:0.01516153 18:-0.14709894 19:-0.081083193 20:-0.36791867 21:-0.069249563 22:0.0473928 23:-0.11694054 24:0.15078288 25:-0.074211597 26:2.6943995e-05 27:0.15448518 28:0.092689604 29:-0.067166477 30:0.089559756 31:0.16827023 32:-0.0033243019 33:0.0037432462 34:0.05652722 35:0.11547936 36:0.0048306012 37:0.00038865005 38:0.058921579 39:-0.0023335989 40:0.057825871 41:0.043976001 42:-0.013000839 43:0.247363 44:-0.084186085 45:0.0074479273 46:0.093772277 47:0.047009882 48:-0.090799853 49:-0.20766644 50:-0.040310364 51:-0.064139575 52:-0.067960955 53:-0.044961773 54:-0.094459459 55:0.015500091 56:-0.049699973 57:-6.1667663e-05 58:-0.2067066 59:0.12520006 60:0.10032479 61:0.15768501 62:0.21748845 63:-0.10193276 64:0.24509202 65:0.065300182 66:-0.16112223 67:-0.086380392 68:-0.01039957 69:-0.053423602 70:0.14229362 71:0.12928955 72:-0.036713138 73:0.012368265 74:0.064038321 75:-0.39039534 76:0.014430528 77:-0.033043135 78:-0.070321344 79:-0.14672975 80:-0.009715504 81:0.1120694 82:-0.084814981 83:-0.10479852 84:-0.08830142 85:0.10442489 86:0.0067553031 87:0.12711419 88:0.28034645 89:0.070626594 90:-0.043108512 91:0.12871984 92:0.30499691 93:0.11533196 94:0.056340806 95:-0.053216174 96:-0.071786992 97:0.20909478 98:0.012845671 99:0.25673038 100:0.2277348 101:0.040039252 102:-0.16329612 103:0.066982381 104:-0.1644289 105:-0.058604397 106:0.00010411348 107:0.13976014 108:0.26663205 109:-0.18451777 110:0.082778484 111:-0.045840468 112:0.26187834 113:0.26497945 114:0.09296301 115:0.15138456 116:0.028006179 117:0.029817808 118:0.096582338 119:-0.040767841 120:0.029878406 121:-0.0099842958 122:0.025467549 123:-0.0061707399 124:0.030994538 125:-0.044538878 126:-0.15987198 127:0.025017418 128:-0.044593316 129:0.13709454 130:-0.038499255 131:0.070975102 132:0.030581715 133:0.21210594 134:0.15846689 135:0.13215299 136:0.16296501 137:0.030580286 138:-0.062905319 139:0.011794694 140:-0.24063396 141:-0.10651223 142:-0.093394771 143:0.013959312 144:-0.069322713 145:-0.091480993 146:0.24656202 147:-0.021530584 148:0.017567035 149:-0.21027075 150:0.15226524 151:-0.053093199 152:0.064390913 153:0.096294336 154:0.016630838 155:0.17554672 156:-0.10692579 157:0.25151783 158:-0.13508508 159:-0.18195876 160:-0.19317766 161:0.035365675 162:0.24500901 163:0.2665554 164:-0.068865485 165:0.11442157 166:0.0051446715 167:0.25904846 168:-0.045846842 169:-0.052603956 170:-0.11541324 171:0.079982594 172:-0.19932392 173:-0.10497072 174:0.019290542 175:0.11925901 176:0.14874741 177:-0.10299987 178:-0.063348323 179:0.021355273 180:-0.069641374 181:0.029610544 182:-0.075835668 183:0.10323379 184:0.16420679 185:-0.18863279 186:-0.13978611 187:-0.022969125 188:0.28617874 189:-0.11055727 190:0.17100359 191:-0.060943648 192:0.10331427 193:-0.097541675 194:0.00079446431 195:0.01564865 196:0.11200307 197:-0.044612635 198:-0.0051258886 199:-0.030949654 200:-0.0026124581 201:0.032447979 202:-0.11886272 203:0.056173399 204:0.0033962871 205:0.052270263 206:-0.1250343 207:0.11180064 208:-0.11168589 209:0.14521526 210:-0.098955587 211:-0.12974361 212:-0.0018933065 213:0.070829235 214:-0.036798175 215:-0.16642167 216:-0.017321797 217:0.032831732 218:-0.032666001 219:0.07889463 220:0.085178554 221:-0.011318794 222:-0.0040726801 223:-0.038348101 224:0.0046704165 225:0.052658066 226:-0.083610199 227:-0.093748942 228:0.10522182 229:0.033105712 230:-0.091572575 231:-0.079284824 232:-0.10400173 233:0.048234731 234:0.077960014 235:-0.11395878 236:-0.087945014 237:0.047065903 238:-6.1974692e-06 239:0.17707592 240:0.09849228 241:0.15817916 242:0.0059220931 243:-0.11959241 244:-0.23742801 245:0.06274692 246:0.0038204375 247:0.056146666 248:0.1804525 249:-4.3124073e-05 250:0.12567447 251:0.24380429 252:0.074814491 253:-0.037954461 254:0.017100105 255:-0.085499063 256:4.5658959e-05 257:-0.038629916 258:-0.15341702 259:-0.017165205 260:-0.080003045 261:-0.13153319 262:-0.076928236 263:-0.34988931 264:0.022756323 265:-0.10991941 266:0.11772399 267:-0.33578646 268:0.0077629234 269:-0.054306183 270:0.018874487 271:-4.5679128e-05 272:0.081119604 273:-0.033295568 274:-0.15013525 275:-0.047208685 276:0.012640503 277:-0.18884942 278:-0.18564275 279:-0.1038008 280:-0.24860384 281:-0.090794012 282:-0.11667171 283:-0.087813519 284:-0.040455319 285:-0.07229954 286:0.036530737 287:-0.31696066 288:-0.06251356 289:-0.10318829 290:-0.012612148 291:-0.088321887 292:0.083570592 293:0.15066777 294:-0.084186956 295:0.021434739 296:-0.039663192 297:0.095234402 298:0.11428303 299:-3.8189333e-05 300:0.065509312 301:0.090740532 302:0.0054005045 303:0.13395226 304:-0.22172707 305:0.078943782 306:-0.16416171 307:0.064032666 308:-0.10882339 309:-0.054548897 310:-0.038917422 311:0.0063518174 312:5.2756968e-05 313:0.49373299 314:-4.35314e-05 315:0.11598446 316:-0.023748791 317:0.0012098412 318:-0.16563055 319:-0.024400709 320:-0.08191558 321:0.031867653 322:0.033509791 323:0.0203219 324:0.10470888 325:0.027881596 326:0.059271358 327:0.036332987 328:-0.26023722 329:-0.036220782 330:0.092587069 331:0.055055261 332:0.016807744 333:0.40067804 334:0.13119398 335:-0.12422202 336:-0.11773849 337:-0.073649257 338:-0.039766449 339:0.14160518 340:-0.069243729 341:0.15511747 342:-0.30986828 343:-0.074593753 344:-0.0980656 345:0.013553475 346:0.14711483 347:-0.0017086845 348:-0.19893211 349:-0.20341553 350:0.05114878 351:0.15855205 352:0.054990355 353:0.012914286 354:-0.25507212 355:0.14108248 356:-0.12646484 357:-0.0014261133 358:0.1123912 359:0.024601381 360:-0.090669952 361:-0.096656628 362:0.0045207874 363:-0.24737282 364:0.10533025 365:0.0055303047 366:0.12839141 367:-0.16008122 368:0.15945736 369:-0.16545914 370:-0.010559762 371:-0.13013323 372:-0.0041868021 373:0.033962104 374:0.054962926 375:0.085314505 376:0.16968527 377:-0.025042683 378:0.0043328824 379:-0.0012259185 380:-0.23714137 381:-0.0017559183 382:0.015856007 383:0.058149081 384:0.10778069 385:0.16573171 386:-0.0066298326 387:0.038467173 388:0.430859 389:0.14554071 390:0.052231472 391:-0.078209653 392:-0.045030124 393:0.045485321 394:-0.079549678 395:0.057023309 396:0.074016437 397:0.0045871371 398:-0.0041354075 399:0.043415539 400:-0.068586819 401:-0.020537982 402:-0.024629161 403:-0.24815163 404:0.054776903 405:-3.4024783e-05 406:0.14998877 407:-0.058876965 408:-0.01518089 409:0.28875223 410:-0.17585237 411:0.070674188 412:0.13683948 413:-0.045789603 414:0.0020973124 415:-0.10867294 416:-0.10913571 417:-0.0019703521 418:0.026442565 419:0.032852892 420:0.091813885 421:-0.43219244 422:0.14038776 423:-0.049347118 424:-0.2402914 425:0.14022934 426:-0.15933307 427:0.093923293 428:-0.038408391 429:0.042373259 430:0.16441733 431:-0.020908594 432:0.1167905 433:0.12321761 434:0.14958046 435:-0.12913395 436:-0.020562405 437:-0.025192618 438:0.088356674 439:0.095947586 440:-0.045892812 441:-0.41591755 442:0.25934699 443:-0.056323364 444:0.22541973 445:-0.15443033 446:0.19800897 447:-2.5558156e-05 448:0.044533104 449:-7.7823162e-05 450:0.0028347797 451:0.0067983218 452:-0.024565762 453:0.0012862871 454:0.052835096 455:-0.13474761 456:0.0056653689 457:0.14047806 458:0.19590101 459:0.076112583 460:0.0044029658 461:0.069695875 462:0.23882346 463:0.049287695 464:-0.054017972 465:0.076436952 466:0.10353424 467:0.1426502 468:0.072955951 469:0.028753566 470:0.0027814803 471:-0.14906745 472:0.086488292 473:0.10471496 474:0.074128181 475:-0.009686484 476:0.17346086 477:-0.11540528 478:2.363985e-05 479:-0.028182657 480:0.064193301 481:-0.088661909 482:0.043212239 483:-0.075002082 484:-0.25559521 485:0.060679905 486:-3.8143789e-05 487:0.055036746 488:0.16113868 489:-0.027594505 490:-0.11394413 491:0.049374241 492:-0.00080559374 493:0.016175738 494:-0.11213243 495:0.098451734 496:-0.5385952 497:0.057693616 498:-0.14439994 499:0.32024106 500:-0.057074308 501:0.057322003 502:0.043569393 503:-0.1341631 504:-0.1734641 505:-0.055372033 506:-0.062730595 507:0.032366164 508:-0.0036846518 509:-0.052980084 510:-0.18210301 511:0.17211246 512:-0.44208276 
