svm_type c_svc
kernel_type linear
nr_class 2
total_sv 56
rho -0.856194
label 1 0
nr_sv 27 29
SV
1 1:0.084576361 2:-0.17508098 3:0.015598326 4:-0.0042642578 5:-0.012293916 6:0.047174506 7:0.00042435256 8:3.6677564e-05 9:-0.10407884 10:-0.016096896 11:4.2478667e-05 12:0.013146257 13:-0.012105934 14:-0.28562778 15:-0.013004229 16:-0.18999253 17:0.094484895 18:0.25862467 19:2.5281117e-05 20:0.14950076 21:0.096279003 22:-0.21303524 23:3.6274465e-05 24:0.081292659 25:-0.0075267311 26:0.25860894 27:0.00089083688 28:0.30899677 29:-0.08563599 30:-0.0046099247 31:3.0090738e-05 32:-2.5934953e-05 33:0.020119287 34:0.47961405 35:-0.013400054 36:-0.40106463 37:0.099376217 38:-1.4719438e-05 39:4.1942403e-05 40:0.20218466 41:-0.17604995 42:0.17703283 43:0.27417612 44:-0.0064925426 45:-0.0001949092 46:-2.5063073e-05 47:0.079130761 48:1.0172525e-05 49:0.13747293 50:0.093969271 51:-0.00042833845 52:-0.024947019 53:3.354621e-05 54:-0.044091824 55:-0.07237301 56:-0.061135251 57:-0.06520769 58:-0.023671908 59:-0.0025176513 60:-5.3587108e-05 61:0.0729881 62:0.024548201 63:2.5934954e-05 64:0.055751447 65:-0.12718184 66:-0.15748131 67:0.19870964 68:0.0018690233 69:-0.039463375 70:0.0031517053 71:4.5599347e-05 72:-0.18191914 73:-4.6032732e-05 74:-4.1989959e-05 75:0.051339813 76:5.663823e-05 77:-0.084515497 78:0.14553414 79:3.93761e-05 80:0.16275094 81:-0.50001699 82:0.27520958 83:0.010223776 84:0.0052575059 85:0.0010053935 86:0.0098024281 87:1.2842185e-05 88:0.0064742514 89:0.19124238 90:0.18169346 91:-0.0080991872 92:0.26317802 93:-0.21450281 94:0.18918753 95:-0.31604567 96:-0.0037368494 97:2.3125966e-05 98:-0.1959012 99:0.037102044 100:-0.22684366 101:0.11511108 102:0.18472356 103:0.14891145 104:0.12055588 105:2.4562127e-05 106:0.00043050342 107:-0.16806427 108:-3.5238663e-05 109:0.082003765 110:-0.3057898 111:-0.029193813 112:-0.29561701 113:-0.093132362 114:-0.013440652 115:0.090329513 116:-0.085130759 117:5.2522752e-05 118:-0.015499114 119:0.015929777 120:4.6951798e-05 121:-2.2675265e-05 122:0.036726799 123:2.6699901e-05 124:-0.00079731544 125:-0.18194403 126:-0.0073635317 127:0.11177397 128:0.047351424 129:-0.27529407 130:-0.18193129 131:-0.0089790244 132:0.15332025 133:1.0172525e-05 134:-0.0017122586 135:-0.13120426 136:0.032216165 137:0.16771743 138:-0.0037567848 139:-0.0032132203 140:4.771338e-05 141:-0.24130423 142:-0.12070584 143:0.073420577 144:4.771338e-05 145:-0.28470996 146:-4.9313148e-05 147:-0.3057898 148:2.295872e-05 149:-0.051223349 150:-0.12826654 151:1.4386124e-05 152:0.0046918509 153:0.13439512 154:0.11114357 155:-0.12052779 156:5.1869909e-05 157:-0.14379643 158:-0.00061890058 159:-0.16219874 160:0.018912736 161:0.44645494 162:0.0069567771 163:-0.34966281 164:4.4194916e-05 165:0.48495778 166:0.1120866 167:0.26398891 168:-0.0041580326 169:-0.0097974427 170:-0.0044529559 171:-3.411969e-05 172:-0.10725457 173:-0.22613795 174:-0.10034335 175:0.070184328 176:0.14463325 177:0.25246418 178:0.13980995 179:-2.1428215e-05 180:0.09286388 181:0.19491591 182:0.37634617 183:-1.245875e-05 184:0.17364572 185:-0.13687143 186:0.025869753 187:-0.0043203244 188:-0.31581381 189:-0.045713384 190:0.0017859954 191:0.043568444 192:-2.4917499e-05 193:-0.036768775 194:0.020377342 195:0.0032244669 196:0.29370385 197:-8.6426107e-06 198:-5.268356e-09 199:7.0124261e-05 200:-1.3001098e-05 201:-0.0060347733 202:-0.0060646031 203:0.0018684801 204:0.011657313 205:0.048793335 206:0.07447885 207:-0.29487371 208:0.11168964 209:0.0068469984 210:0.0052535362 211:4.7517358e-05 212:4.0987044e-05 213:-1.6869226e-05 214:-3.443165e-05 215:-0.0060645938 216:-0.11707233 217:-0.25444838 218:0.0021015378 219:0.21450281 220:5.1869909e-05 221:-4.434101e-05 222:-0.0004162043 223:0.1696347 224:-4.5973313e-05 225:0.28471318 226:-1.2831058e-05 227:0.032899003 228:-5.5250959e-05 229:-4.9834998e-05 230:-0.091098912 231:-0.14271587 232:-0.015476176 233:0.18841858 234:-0.052295525 235:-0.027899643 236:-4.3549517e-05 237:-0.28463575 238:3.5164805e-05 239:-0.2486352 240:1.3336293e-05 241:0.053052802 242:0.04797487 243:-0.14508197 244:-0.0064929412 245:0.17804015 246:0.26544818 247:-3.411969e-05 248:0.2847192 249:-3.2168351e-05 250:-4.748832e-09 251:-0.28729734 252:0.16272455 253:2.8659637e-05 254:-0.13731876 255:3.3380409e-05 256:2.16442e-05 257:5.1869909e-05 258:-2.9657756e-05 259:-0.083383426 260:0.12961248 261:-0.18131401 262:0.0019083656 263:1.5469264e-05 264:2.1579184e-05 265:-0.090329528 266:-0.41774002 267:-0.018744597 268:0.48119149 269:0.081415124 270:-0.40583929 271:4.0690105e-05 272:0.016212413 273:-0.096185125 274:-0.13727815 275:-0.0025547056 276:-0.0026019802 277:-0.00016853884 278:-0.0045438865 279:0.00059934083 280:0.087438278 281:-0.16766925 282:0.16358799 283:-0.16963471 284:0.046960518 285:-3.2962755e-05 286:-4.0315932e-05 287:0.0094388034 288:-0.10725456 289:-1.4386123e-05 290:0.0091719413 291:-0.15615942 292:0.44497326 293:0.16219874 294:-2.4722063e-05 295:0.15682092 296:1.0172528e-05 297:4.8785721e-05 298:-4.5492921e-05 299:0.13017468 300:-0.15899849 301:0.009497338 302:0.014140772 303:-0.0074600768 304:0.23605068 305:4.19424e-05 306:-3.5965177e-06 307:3.5919929e-05 308:2.1579186e-05 309:-0.003731749 310:4.9116028e-05 311:-0.0035468198 312:-0.12717661 313:-2.2024164e-05 314:-1.6821235e-05 315:0.0098968651 316:-0.0031055417 317:0.13933441 318:-0.010486275 319:0.1346204 320:-0.0048623132 321:0.07261502 322:0.0415534 323:-0.18302359 324:5.0229712e-05 325:0.25294423 326:0.011123238 327:6.0208389e-05 328:-0.10400367 329:-4.6960962e-05 330:0.034383442 331:-2.0660498e-05 332:0.24031034 333:-0.041519195 334:0.022391789 335:-0.006906501 336:0.27435938 337:0.1821155 338:-0.096594147 339:-4.9468137e-05 340:-0.10374357 341:3.4947851e-05 342:-0.012691521 343:0.054883949 344:-0.33306223 345:0.13680573 346:-0.29656836 347:-0.029330408 348:-0.20744313 349:0.0056115664 350:-0.20290354 351:-0.0018801844 352:0.26503161 353:0.015961269 354:-5.1869909e-05 355:0.031513251 356:0.090766996 357:-0.0031532696 358:0.16225016 359:0.0040019942 360:-0.12949279 361:-0.012595094 362:-0.24369957 363:-0.0042464356 364:0.25006554 365:0.0066915764 366:-0.065247275 367:-0.060040932 368:0.072404645 369:-4.1787916e-05 370:-4.6069039e-05 371:-0.0036668077 372:-6.2293744e-05 373:-1.945747e-05 374:-0.21040538 375:-2.2881988e-05 376:3.3270069e-05 377:-0.024946939 378:-0.27417964 379:-9.5918176e-06 380:1.9205945e-05 381:2.0345053e-05 382:0.28641135 383:0.16288044 384:-0.0045894529 385:-0.008414099 386:-0.13578504 387:0.16341048 388:-3.0517578e-05 389:0.17697388 390:0.00025719596 391:-0.076579183 392:-2.246033e-05 393:-0.41422534 394:0.059975412 395:0.086046718 396:0.26007438 397:0.0059728064 398:0.01596144 399:0.54518753 400:-0.013400105 401:0.18206644 402:-4.0049275e-05 403:-0.046417642 404:0.0030208363 405:4.1477222e-05 406:0.0025207808 407:-0.35599312 408:-0.15377356 409:2.2746461e-05 410:-3.3738452e-05 411:0.25414121 412:0.0065111797 413:0.13917513 414:0.0071061258 415:0.019079933 416:0.085450083 417:4.5492921e-05 418:6.5531916e-05 419:-0.13707478 420:-3.1966669e-05 421:-0.087414935 422:-0.16895838 423:-0.1255482 424:-0.078192398 425:0.070184328 426:-0.013596504 427:0.12829715 428:-0.0024460272 429:0.0058481414 430:0.12985301 431:-0.0020607684 432:-0.11694521 433:3.0517578e-05 434:0.093208499 435:-4.084843e-05 436:-5.8657646e-05 437:-0.25535694 438:0.18881641 439:2.4392863e-05 440:0.17795719 441:2.4917499e-05 442:0.04525914 443:0.096593246 444:5.3827949e-05 445:-0.00024337118 446:0.20047176 447:-0.009721322 448:0.20218459 449:0.23605068 450:-3.7790331e-05 451:0.0053624501 452:4.9834995e-05 453:-4.1042298e-05 454:-0.30090246 455:4.5327393e-05 456:-4.2392181e-05 457:0.012393904 458:-0.0019424023 459:0.28568554 460:0.12974444 461:-0.018558063 462:-0.38094929 463:0.12541541 464:0.34207341 465:0.1346204 466:-0.3526327 467:-0.003416508 468:0.036714438 469:-0.09999565 470:-6.5329106e-05 471:0.079112671 472:0.0031060164 473:0.12978774 474:0.083516777 475:0.19543961 476:-0.28630644 477:-0.17113395 478:0.26733178 479:-2.6913975e-05 480:-2.4019611e-05 481:0.0043202229 482:1.2831058e-05 483:-0.22271007 484:-0.16427976 485:-0.25401735 486:0.0010935701 487:3.1353833e-05 488:0.072404638 489:0.0049153725 490:0.0090235565 491:6.1706975e-05 492:0.0098022856 493:-0.30711603 494:1.4565737e-05 495:0.026779557 496:-0.039237954 497:5.2827396e-05 498:0.0052205147 499:0.053091325 500:-0.44643211 501:0.14897484 502:5.1869909e-05 503:0.10407701 504:2.0345053e-05 505:-0.15684593 506:-0.08821179 507:-0.01644619 508:-0.085149944 509:-0.060487293 510:-0.017137192 511:2.7356782e-05 512:-0.0104739 
1 1:0.060605504 2:-0.1780472 3:0.078528009 4:-0.018696133 5:-0.026831485 6:0.10977984 7:0.044943232 8:0.0062490227 9:-0.093194611 10:-0.09830375 11:0.0064720483 12:0.090134032 13:-0.018000776 14:-0.28612736 15:0.030541958 16:-0.17638969 17:0.12314237 18:0.26945898 19:0.080097191 20:0.13503727 21:0.0987406 22:-0.11360081 23:-0.084644929 24:0.063639216 25:-0.0082678171 26:0.26986772 27:0.0097750258 28:0.29390571 29:-0.10464367 30:0.0070997616 31:0.04173477 32:-0.0063881469 33:-0.0066695292 34:0.46345708 35:-0.048236497 36:-0.40042496 37:0.099560976 38:-2.4885034e-05 39:0.0039598052 40:0.19117904 41:-0.16931853 42:0.14766787 43:0.2692129 44:0.028352717 45:-0.00054349209 46:0.011637081 47:0.075334243 48:0.0098112784 49:0.20000522 50:0.095004186 51:-0.040273178 52:-0.058706976 53:0.0017615445 54:-0.046532612 55:-0.11323624 56:-0.077193283 57:-0.089544557 58:-0.017182214 59:-0.023399675 60:0.0085200667 61:0.12363368 62:0.016515361 63:0.037592027 64:0.13720566 65:-0.095145404 66:-0.14046478 67:0.18300359 68:0.068613797 69:-0.047655061 70:0.049272243 71:0.018002762 72:-0.16366294 73:0.012556292 74:-0.05836314 75:0.047491636 76:0.016666785 77:-0.12085584 78:0.12689066 79:-0.01053727 80:0.19014204 81:-0.48869935 82:0.27609521 83:-0.035558172 84:0.053115256 85:0.011735579 86:0.074894272 87:0.10745808 88:0.06131044 89:0.18212651 90:0.18852268 91:-0.01402184 92:0.27015209 93:-0.20063439 94:0.18466993 95:-0.29554716 96:-0.024063699 97:0.0039206273 98:-0.19414231 99:0.044246074 100:-0.20961553 101:0.097320668 102:0.17394647 103:0.13486108 104:0.11039208 105:-0.0051757107 106:0.005869112 107:-0.14720476 108:-4.3753691e-05 109:0.13740408 110:-0.30972165 111:-0.084690884 112:-0.27341953 113:-0.13575089 114:-0.016520081 115:0.06699837 116:-0.13636695 117:0.022164825 118:-0.026401039 119:0.017259179 120:-0.024619931 121:-2.686888e-05 122:0.13481075 123:-0.028007591 124:0.08022739 125:-0.18980363 126:-0.028747169 127:0.10699547 128:-0.033643879 129:-0.24706574 130:-0.16476226 131:-0.022470465 132:0.14173636 133:-5.2857999e-05 134:-0.017053807 135:-0.17785412 136:0.065400846 137:0.14569172 138:-0.018592425 139:-0.028513309 140:-0.024097798 141:-0.2799125 142:-0.11361386 143:0.073317267 144:5.8932648e-05 145:-0.29060426 146:0.017917411 147:-0.30897936 148:0.007561754 149:0.04187724 150:-0.18736263 151:0.080874257 152:0.0092412569 153:0.14812188 154:0.10316599 155:-0.12638712 156:0.093906343 157:-0.12443335 158:0.018910529 159:-0.15491426 160:0.031080296 161:0.43178654 162:0.002702096 163:-0.35547683 164:-0.0037050704 165:0.47962341 166:0.095868044 167:0.2540977 168:-0.014802184 169:-0.065591857 170:-0.027348967 171:-0.087974295 172:-0.13631746 173:-0.21529859 174:-0.12474829 175:0.074955791 176:0.12232553 177:0.23395479 178:0.12096068 179:0.014161396 180:0.097806834 181:0.19449711 182:0.37988356 183:-0.0094848974 184:0.1770727 185:-0.1032671 186:0.07142245 187:0.00642459 188:-0.27633628 189:-0.090416797 190:0.0086089866 191:0.10316808 192:-0.0062489286 193:-0.10217684 194:0.024846807 195:0.017234294 196:0.27492827 197:2.6899823e-05 198:0.013298101 199:0.01437119 200:-0.016480479 201:-0.07497979 202:0.028913751 203:0.042311657 204:0.016468601 205:-0.11947533 206:-0.04435375 207:-0.28254989 208:0.0995268 209:0.011938758 210:0.010364003 211:-0.086805187 212:0.011597245 213:-0.069580816 214:0.0024522282 215:0.025078442 216:-0.19240522 217:-0.19115275 218:0.016523838 219:0.20287958 220:0.016970491 221:-3.6941117e-05 222:0.0023254403 223:0.13609123 224:-0.01031736 225:0.29287651 226:4.2581916e-05 227:0.071099378 228:-0.0065507712 229:-6.3323467e-05 230:-0.12343965 231:-0.12240399 232:-0.10817024 233:0.1879489 234:-0.070610166 235:-0.029073481 236:-0.018314967 237:-0.28855798 238:-2.1063577e-05 239:-0.22828449 240:3.321395e-05 241:0.05786255 242:0.14208081 243:-0.14133805 244:-0.014400682 245:0.17543583 246:0.27675545 247:-0.0050496878 248:0.29280144 249:4.345705e-05 250:0.0052658571 251:-0.29143792 252:0.22705166 253:-0.026500395 254:-0.2092445 255:0.021312637 256:1.7424192e-05 257:0.032816105 258:-0.0036619222 259:-0.087729 260:0.13078007 261:-0.17123979 262:-0.0027612413 263:-0.013700562 264:0.024619967 265:-0.046123687 266:-0.41837588 267:-0.077576272 268:0.4541361 269:0.051116847 270:-0.39631864 271:-0.081429102 272:0.044030171 273:-0.094038099 274:-0.18728809 275:-0.013095675 276:-0.046150882 277:-0.052189883 278:-0.065792598 279:-0.052916408 280:-0.069779657 281:-0.16558851 282:0.095569305 283:-0.14602895 284:0.042680126 285:-7.1930613e-06 286:-0.037052277 287:0.075492047 288:-0.13104962 289:-0.0044881077 290:0.011843381 291:-0.1700668 292:0.440521 293:0.15463643 294:-0.0019261636 295:0.12936829 296:-0.025956044 297:0.097729862 298:-0.096387766 299:0.11910494 300:0.023734754 301:0.02566863 302:0.036119413 303:-0.0075564794 304:0.21907271 305:-0.01111186 306:-0.0064716004 307:-0.0043643024 308:0.00077945011 309:-0.059838649 310:0.0046124621 311:-0.034243032 312:0.011698413 313:-0.049653608 314:-3.6200559e-05 315:0.041527364 316:-0.0035821921 317:0.13189971 318:-0.011018225 319:0.13540453 320:-0.0021108605 321:0.051144555 322:0.10590619 323:-0.18087158 324:0.049811486 325:0.24972054 326:0.077300064 327:0.0053524133 328:-0.17951517 329:-0.0028763535 330:-0.088783011 331:-0.0092346352 332:0.22684234 333:-0.10525651 334:0.021146961 335:-0.008266272 336:0.25327417 337:0.1611889 338:-0.13762385 339:-4.3356358e-05 340:-0.14524494 341:0.045504302 342:-0.083058663 343:0.051830955 344:-0.32860166 345:0.10077316 346:-0.2750558 347:0.059400428 348:-0.19724472 349:-0.0062527242 350:-0.21299647 351:-0.0068147355 352:0.27333596 353:0.018098183 354:0.050630935 355:0.031902507 356:0.092727482 357:-0.0086370865 358:0.21994023 359:0.018331351 360:-0.1107622 361:-0.023811258 362:-0.21023932 363:-0.063085318 364:0.23462582 365:0.0027683948 366:-0.090070844 367:-0.088400126 368:0.062108882 369:-4.4048327e-05 370:0.035654698 371:0.017393731 372:4.3753687e-05 373:0.016795227 374:-0.21084008 375:0.0099529047 376:-3.9529757e-05 377:-0.061501428 378:-0.26812387 379:0.00069911603 380:0.035047844 381:-0.012796468 382:0.27955422 383:0.23783712 384:-0.018980032 385:0.016475672 386:-0.13471878 387:0.1626814 388:0.018806111 389:0.13697074 390:-0.013790873 391:-0.085579924 392:0.018231269 393:-0.41746664 394:-0.021960853 395:0.11639446 396:0.23530196 397:0.010143911 398:0.018098244 399:0.53038126 400:-0.020680517 401:0.16534798 402:0.0097570941 403:-0.055751722 404:-0.10366529 405:-0.084700063 406:0.069978416 407:-0.32882768 408:-0.17222865 409:-0.001455649 410:-0.017990397 411:0.22852509 412:0.017035548 413:0.12800719 414:0.018251149 415:0.050614014 416:0.067329042 417:0.031241141 418:6.7763831e-05 419:-0.10139443 420:-4.0530849e-05 421:-0.068004899 422:-0.15251246 423:-0.14776415 424:-0.10328915 425:0.076822996 426:0.087975599 427:0.18812902 428:0.0049401834 429:-0.0081674038 430:0.18976301 431:-0.0053869602 432:-0.17579231 433:4.9834998e-05 434:0.07435073 435:0.0026434206 436:-0.013091637 437:-0.23693079 438:0.1765746 439:8.809664e-06 440:0.13996799 441:0.022570856 442:0.088426217 443:0.15364093 444:-0.019972259 445:-0.011249609 446:0.19392481 447:-0.010904077 448:0.19016322 449:0.21908182 450:-4.0500192e-05 451:-0.0061305948 452:4.7713376e-05 453:0.061728131 454:-0.2988742 455:-0.018291388 456:-0.0094666453 457:0.05751716 458:-0.03288573 459:0.29239017 460:0.13825521 461:-0.010434249 462:-0.37327474 463:0.12950729 464:0.35284808 465:0.13666929 466:-0.33110279 467:-0.055165168 468:0.063807793 469:-0.13924527 470:-4.8230453e-05 471:0.10756755 472:0.018160364 473:0.11437363 474:0.059681639 475:0.19332235 476:-0.2712872 477:-0.16336779 478:0.251461 479:4.1650012e-09 480:0.023324652 481:-0.0028335007 482:0.036754511 483:-0.23319855 484:-0.22341089 485:-0.19923626 486:0.043153353 487:0.0032802592 488:0.049583603 489:0.059434894 490:0.072449572 491:6.251075e-05 492:0.076500267 493:-0.28624249 494:-0.0096429847 495:0.064850725 496:-0.033181608 497:-0.057749555 498:-0.0093602538 499:0.11270002 500:-0.43096679 501:0.13304783 502:6.4336709e-05 503:0.092457935 504:0.0051199044 505:-0.13497995 506:-0.14189379 507:-0.042813506 508:-0.1160393 509:-0.085758567 510:-0.1187666 511:4.3664997e-05 512:0.043172181 
0.3895499329188463 1:0.031536192 2:-0.17606939 3:-0.14907603 4:-0.061393943 5:-0.16699803 6:0.021240277 7:0.12164634 8:0.050743066 9:-0.030315978 10:-0.096739709 11:-0.19769368 12:0.13392822 13:-0.068416081 14:-0.11288013 15:0.071099892 16:0.2486787 17:-0.16539577 18:0.45038518 19:0.012459211 20:0.17155831 21:0.019606525 22:-0.23499732 23:-0.15497667 24:0.070546404 25:-0.070040494 26:0.4551613 27:0.12451009 28:0.3758848 29:-0.16428994 30:0.049954001 31:0.17616576 32:-0.1699241 33:0.036327332 34:-0.15852419 35:-5.1116309e-05 36:-0.25692764 37:0.041039534 38:0.023378193 39:-0.073187463 40:0.16181144 41:-0.18712838 42:0.14315607 43:0.26919186 44:0.1137105 45:0.055932745 46:0.15491009 47:-0.031770013 48:-0.0041469997 49:0.014288834 50:-0.073539525 51:4.2134707e-05 52:-0.053052951 53:0.021419181 54:0.016550582 55:0.091085598 56:0.026531985 57:-0.012527491 58:-0.063257121 59:0.018516216 60:0.026464237 61:0.15116088 62:-0.10064407 63:0.048411991 64:-0.086019255 65:-0.062707148 66:-0.19943659 67:0.15597996 68:-0.043604735 69:-0.0043896306 70:-2.3816125e-05 71:0.12658468 72:0.0058430727 73:0.047463618 74:-0.0072831977 75:0.058608305 76:0.10377057 77:-0.057888113 78:-0.0098471195 79:-0.096067846 80:0.063961089 81:-0.32356784 82:0.2641654 83:-0.14213262 84:0.10465109 85:-0.19852813 86:0.16997407 87:-0.075694129 88:0.03372192 89:0.27946904 90:0.24584395 91:-0.020187229 92:0.37918827 93:-0.060582329 94:0.25590411 95:-0.19300793 96:-0.02938924 97:-0.012850108 98:-0.013776749 99:-0.060914706 100:-0.08442419 101:0.042154975 102:0.28546438 103:0.039153077 104:0.011097035 105:-1.7409242e-05 106:-0.011723071 107:0.10159382 108:0.026892912 109:0.057034906 110:-0.21003756 111:0.1081237 112:-0.19882253 113:-0.046624005 114:-0.06468977 115:-0.059807874 116:-0.045839887 117:-0.04725901 118:-0.11714086 119:0.11215385 120:3.443785e-05 121:-0.020125482 122:0.14767766 123:-0.21327803 124:0.083303511 125:-0.1550056 126:0.1134315 127:0.055751685 128:0.034158234 129:-0.15566547 130:-0.081014819 131:0.087504685 132:-0.03470099 133:0.03614337 134:0.079645805 135:-0.02297752 136:-0.060297571 137:0.025457896 138:0.0099466117 139:-5.1684492e-05 140:-0.061036851 141:-0.30422843 142:-0.0070670648 143:0.072529688 144:0.10121037 145:-0.16514143 146:0.088195972 147:-0.15752931 148:-0.12728666 149:0.091468222 150:0.15023716 151:-2.2871582e-05 152:0.064596899 153:0.13130227 154:0.0057529951 155:0.18834254 156:0.11731727 157:-0.037736699 158:-0.12304298 159:-0.049415719 160:0.091293186 161:0.16795157 162:0.080866776 163:-0.44440773 164:0.019845303 165:0.19957064 166:0.014067677 167:0.32694447 168:-0.082276821 169:-0.093223624 170:-0.16819507 171:0.047483772 172:-0.021975808 173:-0.12172174 174:-0.025209021 175:0.1096399 176:0.1986023 177:0.11499524 178:0.14291193 179:0.15902087 180:0.0022003709 181:0.10320183 182:0.46391165 183:-0.076475725 184:0.20198396 185:0.13670993 186:0.11436275 187:0.09164615 188:0.034262151 189:-0.17521143 190:0.070652306 191:0.035279557 192:-0.026036127 193:-0.16059205 194:0.084755994 195:-0.0079787737 196:0.13941871 197:-0.023147969 198:-0.0039784512 199:-0.040424101 200:0.10534807 201:-0.16830173 202:0.12164652 203:-0.03914405 204:0.066922642 205:-0.14697795 206:-0.053394478 207:-0.39578629 208:0.027894318 209:0.095559202 210:0.014900178 211:-0.0035714675 212:0.10937874 213:-0.055432916 214:-2.8980099e-05 215:0.036288898 216:-0.049638059 217:-0.1374241 218:6.7859553e-05 219:0.11612091 220:0.015579243 221:-0.044054501 222:-0.045380991 223:0.24031514 224:-4.6551886e-05 225:0.16177316 226:-0.15312873 227:0.15880243 228:0.13792682 229:-3.2434109e-05 230:-0.021933245 231:-0.14739764 232:-0.042984314 233:0.28647035 234:0.11882675 235:0.041575197 236:0.018691087 237:-0.35044655 238:-0.059693456 239:-0.17278792 240:3.6288238e-05 241:-0.13911766 242:0.089938 243:0.10774567 244:-0.12100345 245:-0.028484493 246:0.23047285 247:0.12638973 248:0.35507485 249:0.060032688 250:0.1197373 251:-0.10938553 252:-0.043492004 253:0.10811762 254:-0.058519837 255:0.05607406 256:-0.064084083 257:2.8546581e-05 258:0.06124502 259:0.14846578 260:-0.055576034 261:0.06181803 262:-0.074751966 263:0.017991042 264:0.049100898 265:-0.017003024 266:-0.23657872 267:-0.12811776 268:0.11641676 269:-0.08121036 270:-0.21895012 271:2.2170507e-05 272:0.20331356 273:-0.14510849 274:-0.032252632 275:-0.10095307 276:0.047781292 277:-0.085142769 278:0.053226922 279:-0.045945637 280:-0.021026129 281:-0.26998582 282:0.15210544 283:-0.21929576 284:0.049136251 285:-0.0065866229 286:0.17373808 287:0.09284009 288:-0.092810139 289:-0.10635016 290:0.15077853 291:-0.15522875 292:0.20191152 293:-0.0047861445 294:-0.049176402 295:-0.10497429 296:-0.036374297 297:0.094953902 298:4.4029977e-05 299:0.01709272 300:-0.23547973 301:0.12340732 302:-0.0066192881 303:-0.037933327 304:0.040830161 305:-0.028988646 306:-0.049609918 307:-0.052124649 308:-2.8319113e-05 309:-0.0066359206 310:0.044926595 311:-0.037872486 312:-0.038743213 313:-0.13297211 314:-0.027029794 315:0.04778564 316:1.565194e-05 317:0.18669838 318:5.9206373e-05 319:-0.015852379 320:-0.0037769035 321:0.13042647 322:-0.080833122 323:0.2915608 324:-0.0014399312 325:0.33874971 326:-0.089084148 327:0.08795552 328:0.23367776 329:-0.065454185 330:-0.08729253 331:0.042269006 332:0.23887123 333:-0.13305885 334:0.16259 335:0.0091776345 336:0.15965712 337:0.094387591 338:-0.021929523 339:2.0553933e-05 340:0.070666954 341:-0.14960849 342:-0.004576881 343:-0.090010367 344:-0.290003 345:-0.077630594 346:0.080431022 347:-0.060628466 348:-0.025199575 349:-0.017311262 350:0.1173242 351:-0.0032822739 352:0.26052994 353:-3.437357e-05 354:-0.0031848112 355:0.0063935514 356:-0.11488342 357:-2.3029921e-05 358:0.1064719 359:0.082311198 360:-0.066880561 361:-0.0480005 362:-0.16837694 363:-0.050748371 364:0.32227722 365:0.10132069 366:-0.069101892 367:0.039045624 368:0.042942356 369:-1.4767186e-05 370:-0.012477936 371:0.15955102 372:3.9850922e-05 373:0.061545774 374:-0.11069154 375:0.00067089492 376:-0.017235527 377:-0.072981268 378:-0.23559831 379:0.0025324905 380:-0.12620482 381:-0.096960977 382:0.19787662 383:0.09899842 384:3.2294036e-05 385:-0.12958975 386:0.14534977 387:0.1795176 388:-2.7390362e-05 389:0.23065342 390:-0.13032132 391:-0.03516724 392:-0.036724765 393:-0.35352427 394:-0.0065251114 395:0.05835925 396:0.23424332 397:-0.0016148945 398:-0.036285393 399:0.30136102 400:0.089417219 401:0.17461111 402:0.21251498 403:-0.024186609 404:0.12464428 405:1.4212095e-05 406:0.021860179 407:-0.18244027 408:-0.12134306 409:0.094871409 410:-0.037883084 411:-0.079328477 412:0.065776497 413:0.010236311 414:0.0010178627 415:0.10515345 416:0.0063284761 417:0.01438005 418:-1.9264906e-05 419:-0.034657769 420:-0.021600213 421:0.10297379 422:-0.20467283 423:-0.1350804 424:0.033951674 425:0.081660397 426:0.10054549 427:0.043737069 428:0.13031873 429:-0.068031192 430:-0.04641515 431:0.059611879 432:-0.023322539 433:-0.061833739 434:0.099343836 435:0.043665428 436:0.066446021 437:-0.25143018 438:0.25233775 439:-0.00067183451 440:0.23229389 441:-0.050546352 442:0.15409981 443:-0.10999697 444:-0.049602825 445:-0.097730897 446:0.13872218 447:0.0039755041 448:0.1722476 449:0.085598983 450:0.11579226 451:0.075661227 452:0.14231591 453:-0.015266704 454:-0.13474612 455:3.2501091e-05 456:0.085954539 457:-0.10625285 458:0.032219958 459:0.063526303 460:0.025558576 461:-0.093249954 462:-0.044411957 463:0.012868137 464:0.55291247 465:0.11897971 466:-0.13533476 467:-0.1067604 468:-0.10841779 469:-0.055704296 470:-0.027029883 471:0.058097824 472:0.10817821 473:0.15612181 474:0.025845857 475:-0.046809152 476:-0.098672532 477:-0.028088273 478:0.21397442 479:2.4227553e-05 480:-0.23243508 481:0.015470117 482:0.032211971 483:0.14706188 484:-0.039155465 485:-0.12343834 486:0.075305708 487:0.1592842 488:0.0053004301 489:3.9398023e-05 490:0.10140783 491:-0.0038910063 492:0.12385982 493:-0.20233133 494:-0.076261379 495:0.086833887 496:-0.18342409 497:-0.090639152 498:-0.054473151 499:0.089646883 500:-0.15836632 501:0.15611067 502:0.13588202 503:0.028899437 504:-0.08689706 505:-0.046035621 506:-0.041945446 507:-0.022614056 508:-0.021249317 509:0.15794307 510:-0.086685501 511:1.4964916e-05 512:0.087295994 
1 1:0.021653229 2:-0.12517996 3:0.041679401 4:-2.9438876e-05 5:-0.0049756365 6:0.036577899 7:0.0067629162 8:0.0020770738 9:-0.069829375 10:-0.014437757 11:-0.024305955 12:-0.064938299 13:0.012353659 14:-0.20338258 15:-0.038836043 16:-0.27141705 17:0.088533737 18:0.34368658 19:0.039935339 20:0.18748364 21:0.049304988 22:-0.20545422 23:-0.035055615 24:0.024560235 25:-0.076380245 26:0.34529307 27:2.1124835e-05 28:0.33208522 29:-0.024265898 30:0.051351517 31:0.023133548 32:2.1089838e-05 33:0.044884671 34:0.39532068 35:-0.097586624 36:-0.36916718 37:0.094434768 38:-1.3456987e-05 39:2.7033861e-05 40:0.23840457 41:-0.13199592 42:0.17520079 43:0.27596107 44:0.010632399 45:3.6032143e-05 46:-0.012338174 47:0.048628952 48:-0.020729735 49:0.097832881 50:0.10699599 51:-0.0037665914 52:-0.063721225 53:1.1514519e-05 54:-0.032295864 55:-0.049973626 56:-0.023993459 57:-0.084082857 58:-0.027949061 59:-0.0074972198 60:0.015306757 61:0.034948159 62:0.0067669414 63:-0.022012392 64:0.077240586 65:-0.03344325 66:-0.14629972 67:0.19061892 68:0.0036287999 69:-0.0063126078 70:0.01207176 71:2.8526363e-05 72:-0.11615177 73:-5.6610308e-05 74:-0.032687828 75:0.082173236 76:5.3827949e-05 77:-0.094279632 78:0.077807188 79:4.6189158e-05 80:0.14737003 81:-0.48365784 82:0.29316249 83:0.048191864 84:0.021387892 85:-0.026559079 86:0.011746977 87:0.019602641 88:0.011735172 89:0.27977088 90:0.12887323 91:0.009839776 92:0.31750488 93:-0.11759168 94:0.22527704 95:-0.27461395 96:-0.065850697 97:-0.0088212872 98:-0.16418974 99:-0.035443928 100:-0.26732504 101:-0.087118834 102:0.27562129 103:0.17875975 104:0.099932224 105:-0.0036043909 106:0.00098786177 107:-0.090674929 108:0.028775014 109:0.049234837 110:-0.29023182 111:-0.08103808 112:-0.26397014 113:-0.082240492 114:-0.035005204 115:0.024855908 116:-0.10166933 117:0.0026026762 118:-0.10029823 119:0.039311081 120:-0.067440428 121:1.0373933e-05 122:0.12925202 123:-0.016985752 124:0.036203306 125:-0.17454644 126:-0.0077614775 127:0.076651752 128:0.07293424 129:-0.24734899 130:-0.11675938 131:-0.015648972 132:0.10806265 133:-2.8772251e-05 134:-0.013187927 135:-0.1295668 136:0.087278657 137:0.090018034 138:0.01413849 139:-0.01321823 140:-0.0047417856 141:-0.1901354 142:-0.10073362 143:0.095926329 144:5.7992318e-05 145:-0.19476013 146:8.0420923e-06 147:-0.28940451 148:-0.012648015 149:-0.016284691 150:-0.13714299 151:2.4917499e-05 152:0.034439024 153:0.11498146 154:0.062057685 155:0.18487453 156:-0.033075333 157:0.036924899 158:-0.0050917151 159:-0.092072904 160:0.054195032 161:0.43200812 162:0.0043148976 163:-0.42012677 164:-0.0056743268 165:0.37780613 166:0.079223119 167:0.2675024 168:0.0095312931 169:-0.010402408 170:4.2782092e-05 171:-4.7035046e-05 172:-0.10046762 173:-0.23377703 174:-0.10175569 175:0.11107016 176:0.23268479 177:0.11049335 178:0.18137389 179:-0.0034652762 180:0.07624355 181:0.18857692 182:0.43615103 183:-0.014174554 184:0.17673703 185:-0.081118755 186:0.035459168 187:-0.018085444 188:-0.28182819 189:0.063732341 190:0.027302803 191:0.094391532 192:-0.015908219 193:-0.10168889 194:0.048729502 195:-0.015252652 196:0.30638492 197:-3.4678204e-05 198:0.043817151 199:0.0035097694 200:-0.013004257 201:0.034994334 202:-0.035867579 203:-0.01700283 204:0.028270502 205:0.14315534 206:0.0035277954 207:-0.28105456 208:0.079246119 209:-0.010811397 210:0.0095100477 211:-3.5065023e-05 212:-1.3072318e-05 213:-0.036792915 214:0.0019702346 215:0.022179501 216:-0.13081323 217:-0.13151799 218:4.8390473e-05 219:0.11759168 220:0.025849586 221:-4.8183687e-05 222:-0.00028987238 223:0.16735817 224:-3.2649506e-05 225:0.19483474 226:-0.011208852 227:0.035698354 228:0.013152856 229:-3.2962751e-05 230:-0.096690513 231:-0.19888219 232:-0.016101681 233:0.21583964 234:-0.048134815 235:-0.023351979 236:0.018362587 237:-0.35539928 238:-2.7920822e-05 239:-0.21830635 240:-0.010276495 241:0.089795776 242:0.029252512 243:0.049144607 244:-0.0034978108 245:0.15611199 246:0.22108698 247:0.012865571 248:0.35495758 249:-9.1756747e-06 250:-2.1522555e-05 251:-0.24784309 252:0.1467593 253:-2.8581788e-05 254:-0.1499851 255:2.6831154e-05 256:4.579364e-05 257:-0.023701461 258:0.013152868 259:-0.093035005 260:0.10263386 261:-0.1113845 262:0.0034486917 263:-0.0017890836 264:0.067455694 265:-0.016207691 266:-0.37676144 267:-0.078461394 268:0.4256219 269:-0.040012319 270:-0.41996959 271:-0.0011631596 272:0.059139166 273:-0.045510206 274:-0.1499851 275:0.0098209446 276:0.025495252 277:-0.015396811 278:-0.019852424 279:-0.025335114 280:0.067507029 281:-0.19427499 282:0.1664975 283:-0.16735817 284:0.069645479 285:-1.5405994e-05 286:-0.011793024 287:0.0065943003 288:-0.10051211 289:-1.7982657e-05 290:0.048411001 291:-0.1412551 292:0.39175949 293:0.092196673 294:0.0035492897 295:0.083156347 296:3.3738452e-05 297:0.02943589 298:0.00078745966 299:0.10970651 300:-0.26231322 301:-0.010586174 302:0.035683937 303:-0.0040372564 304:0.12623957 305:3.6919231e-05 306:-0.00077158498 307:-0.0003833833 308:1.715436e-05 309:-0.020755824 310:4.8818853e-05 311:-0.025244562 312:-0.033463452 313:0.022626886 314:-0.0095737316 315:0.017005758 316:0.013371468 317:0.17353801 318:-0.057409447 319:0.11277774 320:-0.00107895 321:0.092583962 322:0.078475334 323:-0.11095271 324:0.023750756 325:0.27930638 326:0.013909746 327:-7.112405e-06 328:-0.11105081 329:-4.0222109e-05 330:-0.10807818 331:-2.8675388e-05 332:0.29859635 333:-0.11314043 334:0.030520506 335:-0.013012132 336:0.22905403 337:0.17916265 338:-0.064612947 339:-2.3503129e-05 340:-0.10970581 341:0.0099715665 342:-0.013094274 343:0.079998672 344:-0.36624545 345:0.03659926 346:-0.28485456 347:0.075279161 348:-0.10029824 349:-3.1662472e-05 350:-0.14806852 351:-4.8601221e-05 352:0.21186598 353:0.079254955 354:-0.0097883502 355:0.041802138 356:0.063403703 357:-4.8516511e-05 358:0.13243377 359:5.1368741e-05 360:-0.035279356 361:-0.036047369 362:-0.25955838 363:-0.055862594 364:0.28260842 365:-0.008177775 366:-0.086808734 367:-0.044138398 368:0.010518472 369:-0.00070564536 370:-0.013358602 371:-0.0029944293 372:-3.0090736e-05 373:-0.0064405426 374:-0.1631581 375:0.019033667 376:0.016834497 377:-0.060665403 378:-0.27584204 379:0.00071485853 380:0.0029305865 381:-3.1353833e-05 382:0.3089503 383:0.13960896 384:0.009810417 385:0.018942159 386:-0.12891047 387:0.11757203 388:-3.7289628e-05 389:0.19530356 390:0.0012153588 391:-0.090750977 392:0.011431561 393:-0.44982919 394:0.028781176 395:0.026123583 396:0.2341743 397:0.024449619 398:0.079254977 399:0.47726026 400:-0.098106958 401:0.18326236 402:-0.019774565 403:-0.012616927 404:-0.034746524 405:4.9794973e-05 406:0.036643825 407:-0.35203469 408:-0.11822138 409:-0.024902375 410:-0.0036043217 411:0.12815383 412:-3.8735827e-05 413:0.11686751 414:6.0165316e-05 415:0.03777476 416:0.043333277 417:-0.0026645805 418:3.1929292e-05 419:-0.036240395 420:2.6229412e-05 421:-0.024172498 422:-0.15845716 423:-0.15425672 424:-0.089944318 425:0.10792998 426:-0.047760617 427:0.13704045 428:-0.01204578 429:0.016225502 430:0.10093837 431:4.2093779e-05 432:-0.12884581 433:2.2550646e-05 434:-0.036605742 435:0.0049351673 436:0.026658084 437:-0.25156903 438:0.22430335 439:3.739382e-05 440:0.17391346 441:0.0069942679 442:0.034788411 443:0.065823004 444:-0.032988984 445:-0.0021729046 446:0.14552763 447:-0.053924266 448:0.2329438 449:0.12585951 450:0.001924013 451:0.0033291948 452:0.018895099 453:-2.7632372e-05 454:-0.24352606 455:-0.026678402 456:-0.0022471645 457:0.068142019 458:-0.077864259 459:0.20296429 460:0.1044347 461:-0.050796233 462:-0.37980917 463:0.090807967 464:0.42469487 465:0.12025049 466:-0.28596327 467:-0.015623384 468:0.044595417 469:-0.085899778 470:-0.0099379681 471:0.081942029 472:-0.04531711 473:0.15508318 474:-0.092830792 475:0.15885971 476:-0.29896861 477:-0.11802113 478:0.29214531 479:1.7619333e-05 480:0.026272012 481:-0.0052328026 482:0.034149531 483:-0.15991062 484:-0.15350848 485:-0.21994388 486:0.0015480038 487:0.00061549235 488:0.015531832 489:0.021383975 490:0.0066319397 491:3.0499999e-05 492:0.014282183 493:-0.28249985 494:-0.010739323 495:0.075238593 496:-0.012572675 497:2.4151401e-05 498:2.555772e-05 499:0.093050875 500:-0.43192375 501:0.19960764 502:3.1763702e-05 503:0.070681237 504:3.5238667e-05 505:-0.083156347 506:-0.11495364 507:-0.036992215 508:-0.10102689 509:-0.047793895 510:-0.018867111 511:-7.7346167e-06 512:-0.030406773 
0.5776979138137653 1:0.12916557 2:-0.11206677 3:0.16858111 4:-0.0045954976 5:-0.10074723 6:0.1516698 7:0.16339216 8:0.003773073 9:-0.036549259 10:0.21555348 11:5.9097038e-05 12:-6.4336702e-05 13:-0.012300808 14:-0.21331108 15:0.085298181 16:-0.28096899 17:0.26342982 18:0.31655705 19:0.26451725 20:0.084394187 21:0.3195194 22:0.15043956 23:-0.029244402 24:0.09228725 25:1.0172525e-05 26:0.28869432 27:1.0172522e-05 28:0.26785991 29:-0.16271372 30:-0.082845077 31:0.027913714 32:-0.062517092 33:-0.20435965 34:0.3280099 35:-0.011544232 36:-0.34527487 37:0.046230536 38:-2.6982963e-05 39:0.061434913 40:0.23250513 41:-0.20858179 42:0.11629014 43:0.17902714 44:0.010966342 45:2.1496173e-05 46:0.079497188 47:-0.14362092 48:-3.5603844e-05 49:0.15615252 50:-0.043418072 51:-0.16332626 52:-0.16821679 53:-0.024771737 54:-0.14277112 55:-0.048792966 56:-0.030182015 57:-0.047467217 58:-0.081378408 59:-0.034027103 60:-4.7168061e-05 61:0.12259585 62:0.0813784 63:-0.00040354938 64:0.26998979 65:0.13850383 66:-0.29242817 67:-0.074552715 68:0.25843519 69:-0.080899522 70:0.15776108 71:0.0039789812 72:-0.056382738 73:0.0031834359 74:-0.19254847 75:0.15479217 76:0.14094038 77:-0.1259366 78:0.23579025 79:-0.015814057 80:0.25748196 81:-0.37937978 82:0.28996882 83:0.11181453 84:0.23557186 85:-4.3582531e-05 86:-0.18509376 87:1.2458748e-05 88:-0.021196702 89:0.10431863 90:0.18922253 91:-0.1561586 92:0.39793411 93:-0.20533513 94:0.30404475 95:-0.23110288 96:-0.089630596 97:-0.14707126 98:-0.10860027 99:0.080218114 100:-0.11970913 101:0.12536833 102:-0.022219324 103:0.15620959 104:-0.079589546 105:2.8238952e-05 106:0.00033244089 107:-0.16055602 108:2.9657755e-05 109:0.10503601 110:-0.31255221 111:-0.26568744 112:-0.27216864 113:-0.29627091 114:-0.016168837 115:0.18201178 116:-0.13890296 117:0.0068205725 118:-0.0057036225 119:-0.003123716 120:-1.8094051e-05 121:-3.7591923e-05 122:0.1473859 123:-0.01058325 124:0.025752654 125:-0.20336162 126:-0.092665374 127:0.036499538 128:0.048260953 129:-0.35339186 130:-0.056410894 131:-0.0099193053 132:0.049136467 133:-0.0026170886 134:-0.14049511 135:-0.12906736 136:-0.065415367 137:0.16135561 138:-0.18418781 139:-0.081546672 140:-0.016958013 141:-0.18064792 142:-0.11918032 143:0.14749126 144:-0.034511164 145:-0.15630148 146:0.0044076424 147:-0.3159112 148:-0.024838585 149:-0.039403364 150:-0.21886639 151:4.19424e-05 152:2.246033e-05 153:0.063359946 154:-0.1387171 155:-0.10490428 156:-0.053240191 157:-0.099089831 158:-0.011956419 159:-0.25253993 160:0.064679995 161:0.373431 162:-2.6000296e-05 163:-0.29534975 164:3.5284516e-05 165:0.33914912 166:0.039080888 167:0.21519153 168:0.14330764 169:0.0629742 170:-0.0050104987 171:-3.1763702e-05 172:-0.19607688 173:-0.11610515 174:-0.2342117 175:0.25763389 176:0.093699284 177:0.21221785 178:-0.20164357 179:0.079497188 180:0.040765509 181:0.12560202 182:0.30550322 183:0.0011526343 184:0.15559469 185:-0.14699562 186:-0.029155914 187:0.093222678 188:-0.14449434 189:0.091230705 190:0.018930828 191:0.17363068 192:-0.0037729377 193:-0.14736687 194:0.02337129 195:-0.010186531 196:0.24416839 197:0.00093816157 198:4.492066e-05 199:0.0032891396 200:-0.14049511 201:-5.9506016e-05 202:-0.23827532 203:0.22778673 204:0.015821803 205:0.24754782 206:-0.13939151 207:-0.2363054 208:-0.11380794 209:-0.074689172 210:-0.0038351242 211:1.4034372e-05 212:0.063524947 213:-0.022289254 214:3.2224292e-05 215:0.12188704 216:-0.13453209 217:-0.24719642 218:0.0088865655 219:0.20533513 220:0.19177976 221:2.1277365e-05 222:1.724836e-05 223:0.27841756 224:0.063323058 225:0.2001076 226:-2.1907064e-05 227:-0.010299447 228:-0.010571208 229:4.0210438e-05 230:-0.10336408 231:-0.089585148 232:4.3790627e-05 233:0.14985493 234:-0.020616328 235:-0.18097091 236:-0.01110394 237:-0.34242943 238:-3.1433574e-05 239:-0.30434939 240:0.029662324 241:0.18797132 242:0.13292225 243:0.033283591 244:0.030314598 245:0.093264498 246:0.24739221 247:-0.08513888 248:0.36813951 249:2.5934954e-05 250:0.01733179 251:-0.16909574 252:0.1606608 253:-8.8200004e-06 254:-0.23490262 255:0.010224118 256:-1.9938848e-06 257:-0.0077818362 258:7.1930617e-06 259:-0.15628754 260:0.069151729 261:-0.054436956 262:0.0095388517 263:0.0059957183 264:2.2460328e-05 265:-0.096641608 266:-0.33442661 267:-0.28665826 268:0.35980648 269:-0.15675543 270:-0.28821087 271:-0.20526975 272:0.023460111 273:-0.027073866 274:-0.22317989 275:2.476699e-05 276:0.0037693656 277:-0.14497119 278:-0.19533302 279:-0.11278059 280:-0.09248323 281:-0.31780696 282:-0.12505129 283:-0.26420751 284:0.11283401 285:-2.187684e-05 286:-0.069840744 287:5.6409386e-05 288:-0.17825449 289:-0.032141931 290:0.0012862188 291:-0.15966095 292:0.30102706 293:0.25581717 294:-4.2063653e-05 295:0.21600582 296:-0.013815255 297:-0.04967694 298:1.9699015e-05 299:0.075572304 300:0.059428547 301:0.0026892675 302:0.01309491 303:-0.0068641417 304:0.24487853 305:4.0370964e-05 306:-4.021043e-06 307:3.1391653e-05 308:1.4159559e-05 309:0.097229652 310:4.5563949e-05 311:-0.15374734 312:-0.15148345 313:-0.00365871 314:-0.020287646 315:0.021700777 316:0.21320789 317:0.075832523 318:3.6853475e-05 319:0.088724561 320:-0.0073864064 321:0.069527358 322:0.15490745 323:0.17722017 324:0.018180212 325:0.16181739 326:-0.081859984 327:-1.5133977e-05 328:-0.31722516 329:-4.963106e-05 330:-0.26191163 331:-0.002376175 332:0.12697211 333:-0.17842396 334:0.14873587 335:-7.1159542e-05 336:0.27905613 337:0.2443551 338:-0.16784969 339:7.7867116e-06 340:-0.2817426 341:0.12718771 342:-0.1770269 343:0.11419755 344:-0.43641025 345:0.15107341 346:-0.28891474 347:0.17988309 348:0.1305712 349:0.13146822 350:-0.1446331 351:-5.7431993e-05 352:0.15586571 353:0.0085875457 354:0.017153384 355:0.019899452 356:-0.12855175 357:-0.071035773 358:0.24502757 359:0.004449015 360:-0.19509205 361:-0.02182463 362:-0.15882637 363:-0.11236613 364:0.24454872 365:-0.013632195 366:-0.047937952 367:-0.04285033 368:0.11478897 369:-5.1869905e-05 370:0.11720371 371:0.0024869589 372:4.2706437e-05 373:-0.01580419 374:-0.10262921 375:0.13891022 376:0.0022650531 377:-0.10734139 378:-0.20532823 379:0.011574902 380:-0.07896588 381:-4.4631775e-05 382:0.24486889 383:0.27161595 384:-0.0029687642 385:0.012143797 386:-0.18224767 387:0.1891965 388:0.015397276 389:0.34662306 390:-0.011235743 391:0.32089305 392:0.1349605 393:-0.40726444 394:0.037977498 395:0.23867518 396:0.25519231 397:0.1017918 398:6.5925502e-05 399:0.3843675 400:0.0089051593 401:0.13257502 402:0.094270378 403:-0.23058088 404:0.075157687 405:2.543143e-06 406:0.022700666 407:-0.30365452 408:-0.16881885 409:0.092007421 410:0.014433848 411:0.24678314 412:0.10179263 413:0.076082647 414:0.16274421 415:0.035195287 416:-0.11129145 417:4.0690105e-05 418:0.018676843 419:-0.15313995 420:0.029989829 421:-0.14821118 422:-0.12758645 423:-0.28310123 424:-0.1977274 425:0.14395933 426:-0.023488143 427:0.16118053 428:-0.025050024 429:-0.033725634 430:-0.072157703 431:-0.097229652 432:-0.18964371 433:3.6677564e-05 434:0.086053222 435:0.0088860234 436:0.042768575 437:-0.30444816 438:0.33997738 439:4.5403976e-05 440:0.17338179 441:-0.059053324 442:0.14283881 443:0.18835105 444:5.0989627e-05 445:-6.5729e-05 446:0.14223827 447:-2.8772249e-05 448:0.23561327 449:0.24487942 450:4.8444308e-05 451:1.7795484e-05 452:2.1277367e-05 453:-4.3850971e-05 454:0.11261071 455:-0.21000172 456:-5.5325214e-05 457:0.18128486 458:-0.016052384 459:0.21331108 460:0.065684788 461:-0.020185135 462:-0.2956982 463:0.057576105 464:0.26275221 465:0.0882762 466:-0.25329405 467:-0.26611817 468:0.038197346 469:-0.25939959 470:-6.6635723e-05 471:0.14670277 472:0.079410799 473:-0.025280898 474:0.067247495 475:0.10541037 476:-0.19276792 477:-0.18579207 478:0.21130159 479:6.1035156e-05 480:-0.056644823 481:-0.0050417851 482:0.017027546 483:-0.15988278 484:-0.30115417 485:0.1971222 486:0.0044400119 487:0.0041201841 488:0.11434557 489:0.23797372 490:-1.9072559e-05 491:3.7548889e-05 492:-6.1032417e-05 493:-0.32056144 494:-0.038764235 495:0.061261516 496:-0.077447556 497:0.12883013 498:0.065888271 499:0.1909741 500:-0.35600045 501:0.17685822 502:6.2293744e-05 503:0.036549263 504:-0.030104494 505:-0.21607496 506:-0.16198368 507:-0.01349393 508:-0.13814726 509:-0.077651426 510:-0.0049183136 511:-3.9441158e-05 512:-0.10246364 
1 1:0.089057125 2:-0.15196419 3:0.041554615 4:-1.9031053e-05 5:-0.02455111 6:0.10168934 7:0.018640544 8:0.010034536 9:-0.11326813 10:-0.019268425 11:0.0065989709 12:0.014700845 13:-0.027594836 14:-0.23405312 15:-0.035245258 16:-0.23876324 17:0.10840783 18:0.30741796 19:0.044677768 20:0.17652346 21:0.087412603 22:-0.15666683 23:-0.03039344 24:0.071322352 25:-0.0020847225 26:0.30766529 27:1.7619332e-05 28:0.34222755 29:-0.066006325 30:-0.0046125031 31:-1.7869912e-05 32:-2.1579184e-05 33:0.060422789 34:0.42315716 35:-0.0035514245 36:-0.39711845 37:0.10141448 38:1.5881853e-05 39:4.5207697e-05 40:0.23033856 41:-0.14803699 42:0.18683314 43:0.30059105 44:0.012988918 45:5.4239397e-05 46:-0.010617668 47:0.07852596 48:-0.0049950648 49:0.18791322 50:0.11339493 51:-0.0081371386 52:-0.052765116 53:2.0064968e-05 54:-0.031421501 55:-0.082045436 56:-0.083120279 57:-0.1117104 58:-0.028342597 59:-0.019043239 60:-5.8547284e-05 61:0.067528509 62:0.026695147 63:0.015750384 64:0.10653324 65:-0.1392597 66:-0.16134456 67:0.21473698 68:0.0095542194 69:-0.064010635 70:0.01135852 71:0.0032429728 72:-0.1919027 73:0.0015248146 74:-0.053695813 75:0.05662246 76:4.8785718e-05 77:-0.13781136 78:0.095512792 79:7.3555479e-05 80:0.18920772 81:-0.50699162 82:0.28700918 83:0.01800576 84:-0.010088157 85:-1.6596576e-05 86:-0.013351809 87:-4.9362308e-05 88:-0.021290287 89:0.23255526 90:0.16325636 91:0.033689898 92:0.28715485 93:-0.15013462 94:0.21126138 95:-0.30263004 96:-0.017604813 97:-0.011835461 98:-0.17546807 99:0.050853308 100:-0.24336234 101:0.13099726 102:0.22754577 103:0.17286405 104:0.10790461 105:2.9380462e-05 106:3.4496712e-05 107:-0.12184592 108:0.011180889 109:0.09424033 110:-0.31606337 111:-0.067662582 112:-0.27702108 113:-0.10833602 114:-0.043163609 115:0.10017535 116:-0.12960772 117:-0.0015245656 118:-0.0038255462 119:0.0038240093 120:-7.1619856e-06 121:-0.0044721952 122:0.084729269 123:-0.061708212 124:1.7382492e-05 125:-0.18318141 126:-0.0031438868 127:0.13368563 128:0.048717782 129:-0.25621787 130:-0.1919027 131:-0.026663795 132:0.18140168 133:-2.2746461e-05 134:-0.024178805 135:-0.19358607 136:0.037553526 137:0.11230997 138:0.00088470278 139:-0.015072286 140:-0.062857047 141:-0.21697828 142:-0.10855522 143:0.082199961 144:5.6179611e-05 145:-0.22328408 146:0.0013644464 147:-0.31606337 148:0.011529876 149:-0.058104333 150:-0.19928549 151:1.0172527e-05 152:0.010075438 153:0.12702329 154:0.065753177 155:0.077425778 156:0.0091353646 157:-0.062108636 158:-0.0011685067 159:-0.11672749 160:0.078013532 161:0.4374038 162:0.023604022 163:-0.39281011 164:-0.00096824276 165:0.41924459 166:0.1273856 167:0.30381995 168:0.0116627 169:-0.010481494 170:-3.315838e-05 171:-2.7390364e-05 172:-0.13696918 173:-0.2376442 174:-0.12647353 175:0.10196756 176:0.18268418 177:0.15392287 178:0.16233727 179:2.6222762e-05 180:0.076900691 181:0.21609665 182:0.41308486 183:2.8345641e-05 184:0.19826993 185:-0.13539203 186:0.043886017 187:-0.02389792 188:-0.3056815 189:-0.073660292 190:0.017542917 191:0.085154682 192:-0.010034603 193:-0.083225854 194:0.058704957 195:0.064046741 196:0.3061803 197:-0.010429634 198:-0.00054058153 199:0.022327185 200:-0.026103502 201:0.014893437 202:-0.043650776 203:-0.03199625 204:0.034866925 205:0.12837061 206:0.081207171 207:-0.28462833 208:0.1281428 209:-0.030255742 210:0.0015899434 211:-3.1514566e-05 212:-0.0051259105 213:-1.6869226e-05 214:-2.2987058e-05 215:-0.017059892 216:-0.18544081 217:-0.16293906 218:4.9705046e-05 219:0.15013464 220:0.053683057 221:0.011529778 222:-0.0083961608 223:0.16651545 224:-4.5219607e-05 225:0.22347951 226:1.8757743e-05 227:0.040017094 228:3.9398026e-05 229:-5.3345178e-05 230:-0.13747838 231:-0.18262115 232:-0.017173478 233:0.22460291 234:-0.084212929 235:-0.04101073 236:0.0060765045 237:-0.3246845 238:2.9382836e-05 239:-0.24270312 240:2.420989e-05 241:0.068097606 242:0.091123134 243:0.083282448 244:-0.012317193 245:0.1638341 246:0.23154607 247:0.001230721 248:0.32698143 249:2.5014642e-05 250:0.0021826054 251:-0.27956244 252:0.18887968 253:4.9050144e-05 254:-0.18425362 255:0.018016566 256:4.4615717e-05 257:3.0517578e-05 258:-4.8519854e-05 259:-0.080834605 260:0.1187505 261:-0.18529822 262:0.0090962937 263:2.4326484e-05 264:1.7248358e-05 265:-0.097764939 266:-0.38395664 267:-0.03897541 268:0.43851107 269:0.087862805 270:-0.41360292 271:-0.007043527 272:0.029472621 273:-0.078565508 274:-0.18425362 275:1.3713747e-05 276:-0.0047830832 277:2.1876845e-05 278:-0.017978711 279:0.00014710097 280:0.10238884 281:-0.1800417 282:0.13195297 283:-0.16654702 284:0.0509611 285:-3.468369e-05 286:-0.037908256 287:0.01106302 288:-0.13696918 289:-0.018586427 290:0.0023317949 291:-0.16722296 292:0.42443579 293:0.11672748 294:-0.0043344265 295:0.10145349 296:-0.066523738 297:-0.0074732509 298:1.6084181e-05 299:0.11275424 300:-0.15633443 301:0.033031233 302:0.042918943 303:-0.021577584 304:0.16040355 305:4.3158372e-05 306:3.2268723e-05 307:6.360963e-05 308:-2.6925236e-05 309:-0.0067373361 310:6.6414206e-05 311:-0.014264909 312:-0.13943769 313:-3.226196e-09 314:3.3231445e-05 315:0.038486682 316:0.018030865 317:0.17153285 318:-0.0027864368 319:0.12651621 320:-0.0070646522 321:0.048845313 322:0.06718754 323:-0.17921591 324:1.6581158e-05 325:0.29564068 326:0.012638173 327:2.1416707e-05 328:-0.14932424 329:-3.7971131e-05 330:-0.083279967 331:0.0020149872 332:0.28236812 333:-0.094873995 334:0.072760992 335:-0.0016937878 336:0.24475093 337:0.18339738 338:-0.097546265 339:-2.7358265e-05 340:-0.14876159 341:0.0027615111 342:-0.025610261 343:0.06352219 344:-0.35186476 345:0.1375007 346:-0.28302664 347:0.063048057 348:-0.12672755 349:2.1504127e-05 350:-0.23071975 351:-3.6677564e-05 352:0.23132585 353:0.0040234141 354:-5.0735318e-05 355:0.038305636 356:0.042299852 357:-8.8096567e-06 358:0.18719424 359:5.1494491e-05 360:-0.054018568 361:-0.044639971 362:-0.20794724 363:-0.025497302 364:0.26965436 365:0.013019158 366:-0.11309038 367:-0.059864417 368:0.0503821 369:3.4308719e-05 370:-0.0031612534 371:0.033706654 372:-6.1877057e-05 373:0.015856886 374:-0.16794211 375:0.044524942 376:5.430232e-05 377:-0.047591824 378:-0.3001923 379:-3.9533785e-05 380:0.013058059 381:-0.01765994 382:0.31366533 383:0.18989325 384:2.4994435e-05 385:-0.037871715 386:-0.11194708 387:0.13574418 388:0.04244497 389:0.18656582 390:-0.0050655873 391:-0.10354547 392:0.023858085 393:-0.43973508 394:0.052109756 395:0.066025563 396:0.24868289 397:-0.0001871579 398:0.0040237517 399:0.50664145 400:-0.0035513262 401:0.19978663 402:-0.0057697864 403:-0.06493517 404:2.882839e-05 405:0.00053978531 406:-4.492066e-05 407:-0.34515232 408:-0.10959711 409:-0.010353342 410:-1.4386125e-05 411:0.15557337 412:-1.0172526e-05 413:0.12658471 414:4.5278812e-05 415:0.032120712 416:0.10760461 417:4.9834998e-05 418:5.8685204e-05 419:-0.13796362 420:-3.8547532e-05 421:-0.10555238 422:-0.17434032 423:-0.15359873 424:-0.11789867 425:0.095047154 426:-0.067080587 427:0.19393076 428:-0.011852393 429:0.025839439 430:0.18100289 431:4.2326144e-05 432:-0.1843641 433:4.9313148e-05 434:0.05382121 435:-3.5426649e-05 436:-4.205068e-05 437:-0.25271231 438:0.21274854 439:3.3811943e-05 440:0.17138563 441:0.053178102 442:0.048746817 443:0.096549392 444:-0.016113667 445:0.016213186 446:0.18775615 447:-0.0025205077 448:0.23033856 449:0.16035885 450:2.2225136e-05 451:0.018224519 452:6.6705717e-05 453:-4.0537088e-05 454:-0.29932165 455:-0.053691074 456:-4.0956376e-05 457:0.070706502 458:-0.0097147925 459:0.23213984 460:0.12359659 461:-0.064348109 462:-0.37294444 463:0.097787939 464:0.38957748 465:0.12653516 466:-0.32207495 467:-0.012693097 468:0.030711841 469:-0.1367052 470:-6.0393253e-05 471:0.10844044 472:0.00073913747 473:0.14219891 474:0.094417043 475:0.16935734 476:-0.28136778 477:-0.19570145 478:0.29480663 479:-2.1579186e-05 480:-2.8300092e-05 481:0.0085480148 482:0.0088826576 483:-0.1812354 484:-0.20929421 485:-0.22574557 486:-0.0079563493 487:2.4917495e-05 488:0.050376687 489:0.016808594 490:0.010688002 491:6.1903185e-05 492:0.011715868 493:-0.29099894 494:4.5100962e-05 495:0.065163679 496:-0.072745182 497:4.4011609e-05 498:-0.0030776758 499:0.068097599 500:-0.43734828 501:0.1725385 502:3.4496716e-05 503:0.11353188 504:6.1035156e-05 505:-0.10589469 506:-0.14908092 507:-0.043034121 508:-0.12959243 509:-0.08352042 510:-0.032088634 511:2.8311153e-05 512:-0.026668126 
1 1:0.05180208 2:-0.16792797 3:0.030487463 4:-4.4920656e-05 5:-0.013554304 6:0.02359559 7:0.0076024369 8:-4.2402477e-05 9:-0.091419458 10:-0.019406248 11:-0.02524456 12:0.026300117 13:-0.0019166677 14:-0.28224948 15:-0.0034878561 16:-0.22201042 17:0.080827169 18:0.28374645 19:0.0023826533 20:0.16348423 21:0.068758279 22:-0.27135876 23:0.015262599 24:0.053996976 25:-0.0049512619 26:0.28397775 27:-1.6084176e-05 28:0.28993714 29:-0.052682158 30:-0.0038477336 31:-0.010512928 32:-2.6672589e-05 33:-0.0079463506 34:0.44607624 35:-0.0089915376 36:-0.37994215 37:0.096380368 38:-1.6676428e-05 39:3.0517578e-05 40:0.22855574 41:-0.15892583 42:0.18144876 43:0.28077888 44:1.6084176e-05 45:3.0728777e-05 46:1.6333561e-05 47:0.065923259 48:-3.4869663e-05 49:0.085874684 50:0.099061631 51:-0.002334869 52:-0.055729851 53:2.4754741e-05 54:-0.025945803 55:-0.052859932 56:-0.039352026 57:-0.044001125 58:-0.011928096 59:-0.008491762 60:-5.0503735e-05 61:0.040539615 62:0.011687304 63:-0.0027993952 64:0.041062482 65:-0.087993138 66:-0.18422183 67:0.17518598 68:0.0054835808 69:-0.018550521 70:0.012346406 71:0.014642885 72:-0.15676208 73:0.0097135697 74:-0.0026494095 75:0.035286084 76:5.5717221e-05 77:-0.054404873 78:0.12139633 79:-0.0038372753 80:0.12856112 81:-0.50274241 82:0.26245597 83:0.011802808 84:0.029567914 85:-0.019870946 86:0.026863873 87:-0.012204996 88:0.013205082 89:0.20051365 90:0.19013837 91:0.0011404098 92:0.27426928 93:-0.16923636 94:0.18344223 95:-0.31162956 96:-0.011625065 97:0.00082024129 98:-0.1958998 99:0.017487338 100:-0.23222411 101:0.07671155 102:0.19724371 103:0.16191727 104:0.12260082 105:-1.7167506e-05 106:2.785861e-05 107:-0.13995665 108:2.6913975e-05 109:0.053685784 110:-0.30070207 111:-0.062309973 112:-0.25226024 113:-0.080311783 114:-0.0024707152 115:0.063556723 116:-0.053403076 117:-0.0097135007 118:-0.010035384 119:0.0091132773 120:-1.6003143e-05 121:-0.0059394189 122:0.081556849 123:-0.025244612 124:-1.4386259e-05 125:-0.21045229 126:-0.016109312 127:0.092976913 128:0.0056664273 129:-0.29812223 130:-0.15676208 131:-0.0013535959 132:0.13298036 133:-4.19424e-05 134:0.009938892 135:-0.09508618 136:0.059598163 137:0.13899504 138:-0.0053733662 139:-0.012288518 140:0.020612568 141:-0.24291898 142:-0.12393863 143:0.05871309 144:0.011729194 145:-0.26086548 146:0.00235124 147:-0.30066741 148:-0.013340988 149:-0.028464159 150:-0.086736016 151:3.2168351e-05 152:0.0056472411 153:0.13496669 154:0.083337754 155:-0.11829945 156:-0.0056961747 157:-0.11574938 158:-4.4267141e-05 159:-0.13312903 160:-0.0039077871 161:0.47022152 162:-4.1632855e-05 163:-0.3811574 164:5.7740843e-05 165:0.41671893 166:0.08862333 167:0.25658715 168:-0.0029255089 169:-0.017470682 170:-0.0083814207 171:-2.910747e-05 172:-0.088859051 173:-0.21369417 174:-0.071330704 175:0.053684704 176:0.15797709 177:0.1870902 178:0.12992679 179:1.1963009e-05 180:0.085266195 181:0.20098662 182:0.40637088 183:-0.0042420346 184:0.17932768 185:-0.088763274 186:0.047457308 187:-0.013612217 188:-0.33137301 189:-0.036748618 190:0.00040036355 191:0.088792779 192:-2.0345053e-05 193:-0.081556767 194:0.0035106137 195:-0.0060649319 196:0.32709661 197:2.988668e-05 198:1.4386124e-05 199:4.4990556e-05 200:0.014469231 201:-0.0145159 202:-0.0039888369 203:0.0054835863 204:0.0022631241 205:0.14395067 206:0.04739714 207:-0.31926602 208:0.088601515 209:0.001339359 210:0.0026838703 211:3.2102274e-05 212:0.012231067 213:-3.2518288e-05 214:-3.0428164e-05 215:-0.0032378258 216:-0.077728093 217:-0.20075884 218:4.6464378e-05 219:0.16924338 220:0.0045127054 221:-0.0014589864 222:-5.1869909e-05 223:0.16735955 224:-5.3007101e-05 225:0.2608999 226:-0.016513892 227:0.033775233 228:4.3605622e-05 229:-4.9834998e-05 230:-0.064072303 231:-0.1349996 232:-0.027647128 233:0.19622697 234:-0.031560712 235:-0.01714568 236:-4.4670953e-05 237:-0.32016945 238:1.4990495e-05 239:-0.23456803 240:-0.0013588562 241:0.031173877 242:0.037452493 243:-0.097357012 244:-5.3827949e-05 245:0.17352912 246:0.27315846 247:-3.3929606e-05 248:0.32012689 249:3.7072194e-05 250:-1.9276387e-05 251:-0.2620557 252:0.12783322 253:-0.00027477663 254:-0.11310439 255:-2.0512431e-05 256:4.1816922e-05 257:4.2249674e-05 258:-2.8772251e-05 259:-0.057625808 260:0.11968117 261:-0.14608051 262:-0.0021921145 263:0.0014469412 264:1.7619332e-05 265:-0.063748501 266:-0.40967172 267:-0.064117461 268:0.48453203 269:0.058797307 270:-0.41683882 271:2.0345053e-05 272:0.043960914 273:-0.068776935 274:-0.11326164 275:-0.014099448 276:0.0027778822 277:0.0082227867 278:-0.017899111 279:-3.4727367e-05 280:0.094754897 281:-0.20045538 282:0.17618525 283:-0.16799746 284:0.038126331 285:-2.3029035e-05 286:-0.0016248123 287:0.017834717 288:-0.088859044 289:2.002464e-05 290:0.0065963636 291:-0.14606006 292:0.43044448 293:0.13313702 294:-4.1710457e-05 295:0.11471524 296:4.5625304e-09 297:-0.0034238447 298:7.1930644e-06 299:0.1125629 300:-0.20878915 301:0.016481988 302:0.023909424 303:-0.0060573826 304:0.19119506 305:-0.0012279534 306:-3.5965265e-06 307:4.2874475e-05 308:3.7720736e-05 309:-0.0039040495 310:4.9574763e-05 311:-0.014600965 312:-0.087454163 313:0.0094118947 314:-2.389055e-05 315:-3.8829628e-05 316:0.0017897475 317:0.13900033 318:-0.0073188925 319:0.13646178 320:-0.0014004851 321:0.064807005 322:0.074547626 323:-0.13122241 324:-0.005419746 325:0.25089294 326:-0.0059176264 327:2.9692797e-05 328:-0.089274891 329:1.9103285e-05 330:0.038013555 331:-1.8172715e-05 332:0.24891318 333:-0.09060403 334:0.037656046 335:-0.0043504587 336:0.2740674 337:0.20820686 338:-0.077102877 339:-1.5806512e-05 340:-0.088742897 341:2.7332617e-05 342:-0.017886456 343:0.043051217 344:-0.35855335 345:0.091821149 346:-0.27170354 347:0.051373553 348:-0.14237611 349:0.0010751808 350:-0.15921919 351:-3.2168351e-05 352:0.27294114 353:0.010296958 354:-7.8136654e-05 355:0.020359928 356:0.077637933 357:-0.00057321251 358:0.11626575 359:1.6084179e-05 360:-0.083679378 361:-0.0021907366 362:-0.22542985 363:-0.0296159 364:0.23308618 365:2.668002e-05 366:-0.044002958 367:-0.038622461 368:0.04201287 369:3.2193475e-05 370:-4.7768935e-05 371:-3.816816e-05 372:-5.0591574e-05 373:-0.0025362626 374:-0.18583141 375:0.0019606554 376:1.6003145e-05 377:-0.055714086 378:-0.28029373 379:2.4385054e-05 380:-5.1179501e-05 381:2.2746459e-05 382:0.30899921 383:0.11757106 384:4.3207223e-05 385:-0.013968622 386:-0.10274234 387:0.17355731 388:-4.345705e-05 389:0.20441623 390:-0.0053509278 391:-0.059001032 392:0.0014714801 393:-0.45819783 394:0.038301963 395:0.049956296 396:0.29141366 397:-0.0041269497 398:0.010297046 399:0.5171206 400:-0.0090265991 401:0.16229273 402:-0.0094119571 403:-0.022058915 404:5.717099e-05 405:-3.3642439e-06 406:-5.3526728e-05 407:-0.3592318 408:-0.13004693 409:-3.8400445e-05 410:-0.0049418276 411:0.1998765 412:0.0014289955 413:0.14041844 414:0.0015403382 415:0.036773771 416:0.072581522 417:5.3827949e-05 418:4.1632855e-05 419:-0.091311529 420:4.1671676e-05 421:-0.061167862 422:-0.17810053 423:-0.12197576 424:-0.069354601 425:0.054525208 426:0.026085418 427:0.087682165 428:0.018004475 429:-0.0038987987 430:0.082627833 431:-0.00032807875 432:-0.076329954 433:-1.4719438e-05 434:0.012370076 435:-3.1896736e-05 436:0.0055192211 437:-0.28988293 438:0.18325892 439:1.9842131e-05 440:0.12793088 441:0.020493357 442:0.031462476 443:0.07371442 444:0.008308731 445:-3.8400445e-05 446:0.20416825 447:-0.0055844146 448:0.22853075 449:0.19119506 450:3.3198154e-05 451:-1.2278142e-05 452:4.0690105e-05 453:-2.8102195e-05 454:-0.26845226 455:-0.0032011156 456:-2.1513893e-05 457:0.011915646 458:-0.0099843396 459:0.28247595 460:0.12002911 461:-0.0030443531 462:-0.39297327 463:0.11801371 464:0.36047453 465:0.138476 466:-0.33345646 467:-0.026042078 468:0.025914622 469:-0.078690752 470:-6.467288e-05 471:0.056441013 472:0.012791867 473:0.14348648 474:0.053464767 475:0.19588423 476:-0.32652599 477:-0.15139626 478:0.28998408 479:-1.0172529e-05 480:3.6892125e-05 481:3.4496716e-05 482:-1.806444e-05 483:-0.19020098 484:-0.1339308 485:-0.25965011 486:0.0042317319 487:4.3605618e-05 488:0.040102329 489:0.020229401 490:0.014516002 491:5.3850472e-05 492:0.020724453 493:-0.25978762 494:2.846204e-05 495:0.054577786 496:-0.025467759 497:3.1878029e-05 498:0.0010293068 499:0.041948218 500:-0.47019407 501:0.13530084 502:5.2857999e-05 503:0.095109068 504:5.5717221e-05 505:-0.11471524 506:-0.060554393 507:-0.031267282 508:-0.053417444 509:-0.032320123 510:-0.023583919 511:3.6417197e-05 512:-0.0040254947 
0.1948567231138884 1:0.12460337 2:0.051191349 3:-0.12831375 4:-0.11557791 5:-0.26404634 6:0.14543237 7:0.041358296 8:-0.2571156 9:-0.12039183 10:-0.18668607 11:-0.034160297 12:0.13521756 13:0.17218229 14:0.033697225 15:-0.055280197 16:-0.12349898 17:0.068217233 18:0.20182519 19:-0.15041471 20:0.24330962 21:0.04148107 22:0.081716113 23:-0.13917394 24:0.031505939 25:0.014150381 26:0.20914696 27:0.11042949 28:0.044737369 29:-0.31835464 30:-0.065018006 31:0.13225198 32:-0.1002661 33:0.16950195 34:-0.17417845 35:0.047289234 36:-0.062052827 37:0.089037679 38:0.11572386 39:0.26627576 40:0.18889992 41:-0.041861806 42:0.097475745 43:0.2212182 44:0.07059177 45:0.25513744 46:0.36266798 47:-0.071648166 48:0.097798064 49:0.18757245 50:-0.074151903 51:0.21837515 52:0.098819435 53:-0.017672861 54:-0.10257491 55:0.05770608 56:-0.006654758 57:-0.071941897 58:-0.091864884 59:0.078072414 60:-0.08984296 61:0.17278439 62:0.083535098 63:0.070918016 64:-0.099604748 65:-0.1453483 66:-0.024657181 67:0.15987389 68:0.063430309 69:-0.13918461 70:0.047919899 71:0.076211452 72:-0.21575409 73:0.038742453 74:-0.075596906 75:0.12929778 76:0.076184891 77:-0.22301094 78:-0.10031386 79:-0.1830298 80:-0.13033767 81:-0.22274271 82:0.21006595 83:0.17560434 84:0.069786072 85:-0.027349399 86:0.21971664 87:0.24661075 88:-0.12147102 89:0.16361466 90:-0.047922444 91:0.024378518 92:0.27230924 93:-0.094068058 94:0.19680701 95:-0.16674207 96:-0.18620619 97:-0.12457442 98:-0.17283781 99:0.047542311 100:-0.066157624 101:0.13124932 102:0.050049167 103:-0.24694064 104:-0.10440464 105:-0.1422613 106:0.073538199 107:-0.13629861 108:0.099368095 109:0.075543396 110:-0.20673752 111:0.024461046 112:-0.17815951 113:0.19761965 114:-0.14598924 115:0.24681552 116:-0.1705123 117:0.052216079 118:-0.14050952 119:0.053012814 120:-0.021660205 121:-0.057457436 122:0.12337852 123:-0.053860813 124:0.10489622 125:-0.12812856 126:-0.16068503 127:-2.2315891e-05 128:0.12927362 129:-0.19148618 130:-0.026062997 131:-0.18498731 132:-0.1702255 133:-0.050177477 134:-0.066777505 135:-0.14922841 136:0.29640409 137:0.1195048 138:0.094571456 139:-0.027960181 140:-0.095963933 141:-0.14937569 142:-0.20379663 143:0.13613671 144:-0.05366144 145:0.047558378 146:0.13401932 147:-0.21201664 148:0.11597566 149:0.059918605 150:-0.16816251 151:0.044772793 152:0.1298786 153:0.0026257129 154:-0.066994831 155:-0.069478452 156:0.17047502 157:0.097673237 158:-0.14690584 159:-0.13280796 160:0.13326414 161:0.17465663 162:0.1215894 163:-0.16560411 164:-0.11684404 165:0.16753902 166:-0.034626517 167:0.23668557 168:0.13955249 169:-0.14236104 170:-0.20839487 171:0.17436303 172:0.20173693 173:-0.10003786 174:-0.10215484 175:0.20511602 176:0.10533108 177:-0.087918691 178:0.12220766 179:0.16861333 180:0.12058549 181:0.219926 182:0.24632432 183:0.14752355 184:-0.020520935 185:-0.12909155 186:0.22935873 187:-0.18518586 188:0.12443757 189:0.1124208 190:-0.093776986 191:0.057125676 192:-0.048363406 193:-0.10475767 194:0.038640346 195:-0.21149176 196:0.028482849 197:-0.11833359 198:-0.091125928 199:0.13682537 200:-0.055194043 201:0.035898946 202:-0.14003347 203:-0.28388932 204:0.043751825 205:0.056386843 206:-0.08152847 207:0.14492379 208:-0.18848243 209:0.1027573 210:0.11414989 211:-0.077025548 212:0.15214428 213:-0.068707943 214:0.017044872 215:0.079715312 216:-0.22173505 217:-0.076855935 218:0.15894751 219:0.15621983 220:0.090990283 221:0.05440098 222:-0.0066945734 223:0.094456851 224:-0.0049995277 225:-0.015738452 226:-0.1851892 227:0.11441127 228:0.15629752 229:-0.18413299 230:-0.15657224 231:-0.13554217 232:-0.072113402 233:0.22127704 234:0.053850647 235:0.19146718 236:0.3178741 237:-0.29275507 238:-0.14594758 239:-0.17040099 240:-0.11324704 241:0.23678705 242:0.14424308 243:0.24769925 244:-0.17325076 245:0.10701165 246:0.15715577 247:0.025461536 248:0.26404285 249:-0.064879149 250:0.0078419689 251:-0.23105487 252:0.13672772 253:0.039886475 254:-0.13201086 255:0.062390495 256:0.092739791 257:0.040167861 258:0.14524391 259:-0.12925054 260:0.088788174 261:0.23330519 262:0.030132221 263:0.16770528 264:-0.070441745 265:-0.087785915 266:-0.23532 267:-0.10374036 268:0.098461084 269:-0.093882084 270:-0.11911519 271:-0.063589692 272:0.064665109 273:-0.19225797 274:-0.120983 275:-0.10202005 276:-0.1617447 277:-0.215408 278:0.18272772 279:-0.22549681 280:-0.10451137 281:-0.060075615 282:-0.17047431 283:-0.058240641 284:0.09459202 285:0.046237241 286:0.064640015 287:-0.14522266 288:-0.12017071 289:-0.060900636 290:0.21062867 291:0.16898218 292:0.23727393 293:0.12527737 294:-0.35514015 295:0.094388679 296:-0.21167134 297:0.13460539 298:0.049348947 299:0.11600738 300:0.11894739 301:0.086373106 302:-0.031605273 303:-0.11873804 304:0.12254107 305:0.13115954 306:0.2463204 307:-0.055984218 308:-0.21694086 309:-0.15008438 310:0.023605598 311:-0.018241582 312:-0.080239974 313:0.089891307 314:0.015036034 315:0.19735093 316:0.055211455 317:0.095933132 318:-0.080392465 319:0.13439941 320:-0.071851991 321:0.096008033 322:-0.15865694 323:-0.27057183 324:0.096818738 325:0.13826059 326:-0.036836691 327:-0.075910285 328:-0.045943003 329:-0.18489641 330:-0.050552398 331:-0.070643283 332:0.12641093 333:-0.12234447 334:0.058979951 335:-0.10284412 336:0.036619339 337:0.098152563 338:-0.050435167 339:0.028522909 340:-0.1497605 341:-0.12346666 342:-0.069591418 343:0.11295793 344:-0.2956256 345:0.068790324 346:-0.1021546 347:-0.073734954 348:-0.098620966 349:-0.13525839 350:-0.16259943 351:-0.087108605 352:-0.11875519 353:0.030437153 354:0.10825718 355:-0.13932115 356:0.02463598 357:-0.060186949 358:0.38722789 359:0.11981922 360:0.14041102 361:0.26194486 362:-0.072496951 363:-0.13454632 364:0.14117703 365:-0.097844608 366:-0.17204836 367:0.063622117 368:0.095550753 369:0.047659956 370:-0.20174374 371:-0.063938886 372:-4.8953814e-05 373:0.027546609 374:-0.12158709 375:0.11455214 376:0.017538426 377:0.32678121 378:-0.20203651 379:0.0128065 380:-0.12043431 381:-0.0082347877 382:0.19528498 383:0.17321879 384:-0.072922282 385:-0.17018951 386:-0.17173775 387:0.21958798 388:0.026618537 389:0.087135054 390:0.11116675 391:0.015211133 392:-0.046566088 393:-0.35048851 394:-0.41032284 395:0.069361091 396:0.24797264 397:0.20382831 398:0.03438155 399:0.25450706 400:-0.21559727 401:0.16831878 402:0.11819271 403:-0.10280056 404:0.19636887 405:0.027257774 406:0.098416537 407:0.034818392 408:-0.11283036 409:-0.078970931 410:-0.073920406 411:0.17223525 412:0.10140312 413:-0.11616218 414:0.09961009 415:0.13756211 416:-0.1439501 417:-0.19084029 418:-0.035578448 419:-0.18415754 420:0.068333261 421:-0.11475714 422:-0.16927105 423:-0.18661624 424:-0.067860782 425:0.17061552 426:0.089343995 427:0.2309784 428:-0.050591189 429:-0.178176 430:-0.085867822 431:0.088844374 432:0.13345797 433:-0.062648147 434:0.14716904 435:-0.24544364 436:-0.045429576 437:-0.12762877 438:0.21133138 439:0.048903611 440:0.19634141 441:-0.26842776 442:0.21650684 443:0.1951849 444:-0.067826644 445:-0.086679667 446:-0.091239564 447:-0.02700717 448:0.24188599 449:0.13332534 450:-0.0094746789 451:0.044582676 452:0.0053052721 453:-0.039947037 454:-0.19053908 455:-0.030970555 456:-0.06084628 457:0.22502519 458:0.46129739 459:0.12730537 460:0.255043 461:0.098364279 462:-0.044964783 463:0.24460039 464:0.21186149 465:0.16120581 466:-0.24305798 467:-0.096162096 468:0.16666411 469:-0.21773639 470:-0.20773289 471:0.079819396 472:0.015601504 473:-0.13731107 474:0.086948656 475:-0.14314672 476:-0.061512187 477:-0.19583544 478:0.17366257 479:-0.020126758 480:-0.16858438 481:-0.078626961 482:0.13388361 483:0.062510662 484:-0.13510506 485:0.029951341 486:0.174438 487:0.3153221 488:0.065297388 489:0.028239198 490:0.15469386 491:-0.037031919 492:0.20832799 493:-0.083896779 494:-0.17745973 495:0.1354904 496:-0.18219055 497:0.16773741 498:-0.11963619 499:0.19890091 500:-0.13919356 501:0.15366821 502:0.097570986 503:-0.017216692 504:0.017346628 505:-0.14171427 506:-0.2134905 507:-0.046910126 508:-0.15558814 509:-0.11750798 510:-0.16414863 511:0.18765324 512:-0.13098201 
1 1:0.080165789 2:-0.17788376 3:0.015814316 4:-4.1942396e-05 5:-0.012895807 6:0.045214653 7:-5.7992322e-05 8:-2.9875031e-05 9:-0.11776417 10:-0.014514795 11:4.0450981e-05 12:0.0082966909 13:-0.0096115749 14:-0.29097229 15:-0.010071315 16:-0.18804593 17:0.088659912 18:0.25216529 19:-1.5320753e-05 20:0.14839038 21:0.10860501 22:-0.21416388 23:2.2134012e-05 24:0.081745148 25:-0.011631248 26:0.25212267 27:2.3856688e-05 28:0.29785138 29:-0.077217922 30:-0.0016945142 31:-2.0345053e-05 32:3.9068331e-05 33:0.015934564 34:0.48309997 35:-0.020688958 36:-0.39645019 37:0.096618682 38:1.7059843e-05 39:3.3738452e-05 40:0.20191176 41:-0.17223601 42:0.17421545 43:0.27421406 44:-0.010542791 45:-0.00057827064 46:-1.5258786e-05 47:0.085116029 48:-3.5238663e-05 49:0.14959359 50:0.10818429 51:3.4496363e-05 52:-0.027048228 53:-2.3377452e-05 54:-0.039525084 55:-0.063032821 56:-0.059006978 57:-0.069894686 58:-0.020572752 59:-2.1876845e-05 60:-3.8568498e-05 61:0.081680804 62:0.023115311 63:-1.7619332e-05 64:0.043458048 65:-0.12537658 66:-0.1674539 67:0.19520923 68:-4.3268388e-05 69:-0.04221236 70:1.7804125e-05 71:-2.0671945e-05 72:-0.19991255 73:-3.34014e-05 74:-4.2249674e-05 75:0.043049473 76:7.3355128e-05 77:-0.091097444 78:0.15443218 79:6.3910411e-05 80:0.1443273 81:-0.49637491 82:0.26428461 83:0.0069320593 84:3.2962751e-05 85:-2.6793983e-05 86:0.0063226745 87:-1.2458749e-05 88:-0.0092533203 89:0.18528882 90:0.18361847 91:-0.010583982 92:0.25878179 93:-0.21651337 94:0.18065894 95:-0.31950805 96:-0.002689051 97:-1.6627881e-05 98:-0.19279499 99:0.038709432 100:-0.22435394 101:0.11077464 102:0.18001409 103:0.14689806 104:0.12273991 105:-3.6812326e-05 106:-3.6677564e-05 107:-0.17431767 108:1.761933e-05 109:0.090701446 110:-0.30561438 111:-0.030598549 112:-0.28579959 113:-0.085034549 114:-0.010539597 115:0.089621387 116:-0.08894632 117:3.8465194e-05 118:-0.023199216 119:0.025093827 120:2.1952052e-05 121:-8.9009618e-06 122:0.037917778 123:-3.3396536e-05 124:2.7259177e-05 125:-0.18824247 126:-0.010260303 127:0.12276655 128:0.040039375 129:-0.28426689 130:-0.19991255 131:-0.0068824114 132:0.16510107 133:-2.0345053e-05 134:-2.6672587e-05 135:-0.12798932 136:0.032293815 137:0.17348467 138:-0.0046367454 139:-3.1146876e-05 140:-2.4917499e-05 141:-0.24064098 142:-0.12273994 143:0.063035652 144:5.8877751e-05 145:-0.29143679 146:-2.2746461e-05 147:-0.30561441 148:1.1373227e-05 149:-0.055939224 150:-0.13911933 151:-3.5238663e-05 152:0.0078192549 153:0.13524085 154:0.11212638 155:-0.13012904 156:3.3738452e-05 157:-0.15287797 158:-0.00035431649 159:-0.16585675 160:0.014736661 161:0.44655266 162:0.010998528 163:-0.34205079 164:6.8523113e-05 165:0.4904587 166:0.11827234 167:0.25932151 168:2.5175717e-05 169:-0.0059265723 170:-0.00031421825 171:-3.8735827e-05 172:-0.095472842 173:-0.22459081 174:-0.085398875 175:0.060093787 176:0.14192617 177:0.26146695 178:0.1327344 179:-3.1559048e-05 180:0.089965865 181:0.19608037 182:0.36876994 183:-2.6672589e-05 184:0.18067536 185:-0.13613982 186:0.027697502 187:-0.0074129603 188:-0.31785136 189:-0.03960656 190:0.0015245898 191:0.045903865 192:2.0345053e-05 193:-0.037913997 194:0.015923545 195:0.0053401417 196:0.29503542 197:4.9525468e-05 198:-3.8062106e-05 199:3.7669004e-05 200:8.4645462e-06 201:0.0086868536 202:-0.01037046 203:4.9834998e-05 204:0.0093883378 205:0.08091794 206:0.088038251 207:-0.29835621 208:0.11757634 209:0.0095279515 210:0.0074555944 211:5.3975808e-05 212:4.2989454e-05 213:-3.0728774e-05 214:-1.8728999e-05 215:-0.010370412 216:-0.12450288 217:-0.26217765 218:4.9705053e-05 219:0.21651338 220:3.2168355e-05 221:-2.6913973e-05 222:-0.00067843962 223:0.16817775 224:-2.2770122e-05 225:0.29143676 226:1.8962619e-05 227:0.030770076 228:4.4341017e-05 229:-5.5717221e-05 230:-0.099436499 231:-0.13600005 232:-0.010010811 233:0.18748331 234:-0.062280808 235:-0.021728776 236:-4.4347835e-05 237:-0.28249055 238:3.8944774e-05 239:-0.23870203 240:4.495664e-05 241:0.046020027 242:0.045388468 243:-0.14089796 244:-0.010542899 245:0.17207801 246:0.2703796 247:-4.3158376e-05 248:0.28263801 249:-2.0345053e-05 250:-8.809664e-06 251:-0.28986266 252:0.14432819 253:8.8096658e-06 254:-0.11921031 255:2.2166472e-05 256:-1.4030504e-05 257:5.9097038e-05 258:-4.7713376e-05 259:-0.074312381 260:0.12795483 261:-0.20012234 262:0.0026892794 263:1.7619333e-05 264:-9.5155274e-06 265:-0.089621402 266:-0.41539574 267:-0.024281554 268:0.48260531 269:0.088710964 270:-0.39867276 271:5.7544497e-05 272:0.019157238 273:-0.10860501 274:-0.11921032 275:-2.4353991e-05 276:-0.0020316551 277:1.8338782e-05 278:-5.6638233e-05 279:0.00080222904 280:0.096208282 281:-0.1708436 282:0.15195067 283:-0.16817777 284:0.041864913 285:-2.7153214e-05 286:-3.3844615e-05 287:0.0061549419 288:-0.095472828 289:-4.4631775e-05 290:0.01475036 291:-0.1617474 292:0.44700336 293:0.16585673 294:2.2024165e-05 295:0.15510166 296:-1.0172525e-05 297:1.7619333e-05 298:-3.8062106e-05 299:0.1232704 300:-0.14297733 301:0.014784263 302:0.013278225 303:-0.0118387 304:0.2425874 305:3.0517578e-05 306:3.411969e-05 307:4.6616111e-05 308:-3.9068327e-05 309:-0.0016002335 310:5.8987494e-05 311:4.5136105e-05 312:-0.12537657 313:1.8688123e-05 314:2.316903e-05 315:0.011838692 316:-0.0048342259 317:0.13777649 318:-0.01656522 319:0.1318101 320:-0.0077263792 321:0.025500521 322:0.044903342 323:-0.1808766 324:4.5597299e-05 325:0.24758762 326:0.0072648856 327:5.249415e-05 328:-0.091935948 329:2.575522e-05 330:0.082440741 331:-4.2782092e-05 332:0.24308138 333:-0.043119047 334:0.024750816 335:-0.010809493 336:0.28456625 337:0.18899982 338:-0.087079115 339:-5.1545485e-05 340:-0.091298282 341:1.3696026e-05 342:-0.012895714 343:0.048128095 344:-0.33265164 345:0.13523217 346:-0.28550234 347:0.050483152 348:-0.2118139 349:0.0084287096 350:-0.22346489 351:-4.0690105e-05 352:0.26938248 353:0.025081536 354:-5.1869913e-05 355:0.030148303 356:0.092109136 357:-0.0043552788 358:0.14448752 359:-2.1579186e-05 360:-0.13892063 361:-0.0094205933 362:-0.21723236 363:-0.0043758242 364:0.23578222 365:0.010800596 366:-0.069911301 367:-0.063915826 368:0.073611185 369:3.1966665e-05 370:-5.422076e-05 371:-3.1559433e-05 372:-7.0843445e-05 373:3.168526e-05 374:-0.20857988 375:2.4860654e-05 376:-2.6246013e-05 377:-0.027048176 378:-0.27422327 379:2.223616e-05 380:-7.0975315e-05 381:4.434101e-05 382:0.28219241 383:0.1457143 384:2.2888184e-05 385:-0.021155503 386:-0.13170063 387:0.17150047 388:3.2962751e-05 389:0.18155076 390:-2.0024636e-05 391:-0.067119971 392:1.7619332e-05 393:-0.41317791 394:0.058424361 395:0.078410283 396:0.26475248 397:0.0093933903 398:0.02508161 399:0.54602784 400:-0.020688951 401:0.17532629 402:-4.6616369e-05 403:-0.040539064 404:4.2857617e-05 405:-2.6913973e-05 406:-2.2746459e-05 407:-0.36237088 408:-0.16139027 409:-3.4496716e-05 410:-3.3738452e-05 411:0.26199517 412:0.0093590282 413:0.1378099 414:0.0098163364 415:0.01982647 416:0.092687294 417:-3.5238667e-05 418:4.9834998e-05 419:-0.13551979 420:-4.5917437e-05 421:-0.085715801 422:-0.17458609 423:-0.11668098 424:-0.06851308 425:0.060093798 426:-0.012178998 427:0.13911933 428:3.0938529e-05 429:0.0049590413 430:0.14428577 431:-0.0023363379 432:-0.12513183 433:5.9315513e-05 434:0.10060207 435:3.2766329e-05 436:-4.2857617e-05 437:-0.26303121 438:0.1800392 439:3.596532e-06 440:0.16268447 441:3.3738452e-05 442:0.040080652 443:0.087079138 444:4.5492921e-05 445:-5.3223801e-05 446:0.20960586 447:-0.014818813 448:0.20191178 449:0.2425874 450:2.1353218e-05 451:0.0083165532 452:5.3827949e-05 453:-2.633642e-05 454:-0.30263641 455:2.5507879e-05 456:-4.2788008e-05 457:0.014299249 458:3.3511547e-05 459:0.29094669 460:0.12805089 461:-0.016891306 462:-0.37397349 463:0.12570071 464:0.32913807 465:0.13181008 466:-0.3577801 467:-3.124039e-05 468:0.03143594 469:-0.088635162 470:-6.2300125e-05 471:0.088561483 472:0.0048344522 473:0.13216379 474:0.081682064 475:0.19250669 476:-0.28929821 477:-0.18625569 478:0.26359171 479:3.8062106e-05 480:2.6933976e-05 481:0.0074130706 482:-1.2353962e-05 483:-0.22399877 484:-0.14766459 485:-0.26456708 486:0.00034301178 487:4.5492921e-05 488:0.0736112 489:3.0517578e-05 490:0.0060574003 491:6.3559215e-05 492:0.0063223047 493:-0.29491395 494:1.8599721e-05 495:0.028191183 496:-0.038050964 497:3.1456799e-05 498:0.0072109401 499:0.046020024 500:-0.44654363 501:0.13954097 502:4.9834998e-05 503:0.11776363 504:4.9834998e-05 505:-0.15510167 506:-0.095117249 507:-0.019023044 508:-0.089025378 509:-0.064913034 510:-0.012014733 511:-1.3450341e-05 512:-0.016571842 
0.004541853395840639 1:0.020815112 2:-0.14360419 3:0.037636511 4:-0.047068276 5:-0.011451168 6:0.029201746 7:0.035885699 8:0.0059392969 9:-0.071237616 10:-0.10285865 11:4.0049275e-05 12:0.10414339 13:-0.00903368 14:-0.22926661 15:0.011987906 16:-0.22728775 17:0.057179507 18:0.25043797 19:0.06013361 20:0.15539439 21:0.083147347 22:-0.24161108 23:-0.075401127 24:-0.0069192508 25:-0.013762093 26:0.25466639 27:0.032857224 28:0.27138269 29:-0.060742214 30:-0.042564575 31:-0.021749116 32:-0.007914993 33:-0.020233374 34:0.44948983 35:-0.050112877 36:-0.36349943 37:0.12465841 38:0.0020370737 39:0.0075571961 40:0.20984875 41:-0.1252953 42:-0.088418938 43:0.29378867 44:-0.024860371 45:-3.2318789e-05 46:-0.0050238287 47:0.055094942 48:-1.7619332e-05 49:0.089307874 50:0.1150591 51:-0.035225406 52:-0.092538998 53:1.7376771e-05 54:-0.10634965 55:-0.054492772 56:-0.011862969 57:-0.037379771 58:-0.018253131 59:-0.049479194 60:-5.3583331e-05 61:0.048879322 62:0.022493996 63:2.7390362e-05 64:0.075363368 65:-0.047287375 66:-0.18312289 67:0.15597013 68:0.013864267 69:-0.010159841 70:0.040383019 71:0.012945964 72:-0.11174633 73:0.013781137 74:-0.044217065 75:0.10238009 76:0.0088693034 77:-0.085389763 78:0.15105012 79:6.7219124e-05 80:0.10688156 81:-0.49663532 82:0.23987255 83:0.078602076 84:0.081034735 85:0.016246989 86:0.0902844 87:4.345705e-05 88:0.050724361 89:0.18058147 90:0.15776323 91:-0.048932292 92:0.24626353 93:-0.2008943 94:0.15811944 95:-0.31588218 96:-0.051573269 97:0.012536227 98:-0.25035784 99:-0.0095163221 100:-0.21459942 101:0.055432145 102:0.15201214 103:0.14800906 104:0.13601369 105:2.7757742e-05 106:0.030266384 107:-0.17237736 108:3.0090741e-05 109:0.064576343 110:-0.31524563 111:-0.13438033 112:-0.24285388 113:-0.083109185 114:-0.011779513 115:0.022926986 116:-0.059503503 117:0.040693473 118:-0.062631033 119:0.020360662 120:-0.024347218 121:-2.4126262e-05 122:0.12812507 123:1.5415153e-05 124:0.063045807 125:-0.24071494 126:-0.022534 127:0.073074408 128:0.071154356 129:-0.27325606 130:-0.11185461 131:0.023423228 132:0.093509503 133:-5.0862633e-05 134:-0.042923134 135:-0.092792578 136:0.13844217 137:0.16890088 138:-0.012524197 139:-0.044915192 140:5.7544497e-05 141:-0.23405875 142:-0.15155551 143:0.189639 144:0.0097527513 145:-0.23910764 146:0.0041825846 147:-0.31600362 148:2.7945533e-05 149:0.064488955 150:-0.087107643 151:-1.4386123e-05 152:0.0061507765 153:0.093356878 154:0.1278214 155:-0.099275008 156:0.0050302241 157:-0.12483544 158:-0.011646059 159:-0.16507316 160:0.017652884 161:0.44529051 162:0.029118735 163:-0.33696729 164:-0.026216868 165:0.47692847 166:0.063122779 167:0.24236332 168:-0.035204154 169:-0.08241877 170:-0.039021835 171:-4.8386381e-05 172:-0.077974148 173:-0.21660526 174:-0.073017418 175:0.15103479 176:0.14529297 177:0.24609263 178:0.10783643 179:0.014521638 180:0.14343916 181:0.20823239 182:0.38220659 183:-1.1424978e-05 184:0.15910813 185:-0.042863291 186:0.080747172 187:0.0164812 188:-0.27871153 189:0.11753614 190:0.031855516 191:0.15080504 192:-0.0059393309 193:-0.13855866 194:0.017058039 195:0.0075203222 196:0.31593087 197:-0.0066297166 198:0.010405543 199:0.0030842035 200:-0.0021048558 201:-0.06241978 202:-0.0038910576 203:0.012685059 204:0.01075835 205:0.027059501 206:-0.13514374 207:-0.26467988 208:0.064608082 209:0.0042166286 210:-0.05551067 211:4.5108685e-05 212:0.012888691 213:-0.055281956 214:0.005998238 215:0.016693877 216:-0.10812795 217:-0.23636597 218:0.0081795864 219:0.20096555 220:0.0072603133 221:-4.3233234e-05 222:-0.010109403 223:0.15854667 224:-2.2781562e-05 225:0.23988752 226:3.0898253e-05 227:0.080291711 228:0.04978912 229:-6.7284935e-05 230:-0.082674481 231:-0.15753017 232:-0.12574305 233:0.20089097 234:-0.017156722 235:0.037086178 236:-2.1959833e-05 237:-0.31278104 238:3.6793204e-05 239:-0.19141595 240:-1.6467855e-05 241:0.12535843 242:0.1361338 243:-0.17702846 244:-0.024860492 245:0.20270437 246:0.23861079 247:-0.017106267 248:0.31059295 249:-3.2368778e-05 250:-9.9675835e-06 251:-0.30123064 252:0.095996067 253:4.2134707e-05 254:-0.10635447 255:3.9509672e-05 256:-8.6302543e-06 257:5.5484579e-05 258:0.022811966 259:-0.19239524 260:0.15638791 261:-0.11740758 262:0.024205873 263:0.0062233587 264:0.024347004 265:0.041691195 266:-0.45612246 267:-0.10569132 268:0.43237448 269:-0.052630603 270:-0.36846533 271:0.0017963152 272:0.091900229 273:0.054227374 274:-0.0925401 275:-0.073413432 276:-0.039134528 277:-0.031311613 278:-0.063350067 279:-0.045540232 280:0.045092389 281:-0.18479232 282:0.14719038 283:-0.158528 284:0.11399288 285:-2.1579188e-05 286:-0.021089317 287:0.08450263 288:-0.075212799 289:0.0015940993 290:0.014755677 291:-0.12724622 292:0.46204695 293:0.16481823 294:-8.6354201e-05 295:0.13217758 296:3.0517578e-05 297:0.077307314 298:-6.0020062e-05 299:0.12412613 300:-0.18290998 301:0.04015433 302:0.028187331 303:-0.028797453 304:0.24396482 305:-9.169391e-06 306:2.8546579e-05 307:2.8579478e-05 308:1.1928347e-05 309:-0.0054947548 310:-0.03042111 311:-0.060110554 312:-0.032018371 313:0.011577984 314:4.5136108e-05 315:0.079896718 316:0.002569922 317:0.13523942 318:-0.015456939 319:0.1662813 320:-0.014747548 321:0.10887071 322:0.15318327 323:-0.16642042 324:0.052096006 325:0.25199199 326:0.05884935 327:4.3788586e-05 328:-0.093975775 329:-3.2245138e-05 330:-0.080116048 331:-0.0021099995 332:0.23472086 333:-0.16065785 334:0.07365907 335:0.042572241 336:0.28260967 337:0.19982117 338:-0.065864623 339:-1.8655652e-05 340:-0.073770493 341:0.025984831 342:-0.041222218 343:0.13052496 344:-0.33482358 345:0.046743348 346:-0.22938219 347:0.067870729 348:-0.20279935 349:-0.061233878 350:-0.132624 351:-0.031877987 352:0.23735648 353:0.021534311 354:-4.6198278e-05 355:0.029144615 356:0.10912248 357:2.6053114e-05 358:0.11628669 359:0.055934194 360:-0.096761405 361:-0.0046866313 362:-0.18918803 363:-0.075364061 364:0.19525711 365:0.01804712 366:-0.057083249 367:-0.032614861 368:0.027822696 369:3.4590092e-05 370:0.033069491 371:-0.029865844 372:-5.6427369e-05 373:0.0054068849 374:-0.24677654 375:0.0033005653 376:3.0176483e-05 377:-0.09341345 378:-0.29388773 379:4.1575218e-05 380:-0.011479913 381:-0.0017037083 382:0.29742485 383:0.14777403 384:-0.057139788 385:-0.059571065 386:-0.22842117 387:0.15791544 388:1.1373229e-05 389:0.2006387 390:-0.033725597 391:0.058674838 392:0.0019296688 393:-0.46737221 394:-0.0090559656 395:0.0653558 396:0.26234764 397:-0.046084907 398:0.021534324 399:0.5322538 400:-0.01762634 401:0.13015364 402:-0.0097372197 403:-0.0092584379 404:0.067391358 405:3.3036245e-05 406:0.055008989 407:-0.35485417 408:-0.16239327 409:0.020848064 410:-4.4631779e-05 411:0.23555315 412:-0.039833121 413:0.1674578 414:3.3924636e-05 415:0.09518268 416:0.018660584 417:4.9834998e-05 418:4.689303e-05 419:-0.034585625 420:3.1250525e-05 421:-0.021958916 422:-0.16027248 423:-0.23983207 424:0.03977159 425:0.15097198 426:0.10392232 427:0.12517521 428:-0.048932824 429:-0.019293688 430:-0.079024367 431:4.4631779e-05 432:-0.070904724 433:-4.3790627e-05 434:0.090271167 435:-1.1699944e-05 436:-0.011997643 437:-0.2824502 438:0.15673873 439:2.4016428e-05 440:0.068162061 441:-0.0077498504 442:0.14021675 443:0.058480293 444:0.0068849218 445:-0.040159572 446:0.16664985 447:-0.011544065 448:0.20885122 449:0.24399503 450:0.0061601517 451:0.012679056 452:5.5717221e-05 453:-0.0038382197 454:-0.30172893 455:-0.0046493784 456:-4.0853061e-05 457:0.04515874 458:-0.020687254 459:0.24310616 460:0.15658842 461:-0.039762586 462:-0.33954141 463:0.12987463 464:0.32149044 465:0.16800772 466:-0.35853422 467:-0.053483047 468:0.11206304 469:-0.088972874 470:-7.1532384e-05 471:0.07229764 472:-0.009177288 473:0.14072336 474:0.015594332 475:0.25008059 476:-0.30286589 477:-0.12545861 478:0.25746122 479:1.6869222e-05 480:-0.017254416 481:0.0091215745 482:0.047810487 483:-0.25626487 484:-0.11671512 485:-0.26112151 486:0.053182583 487:0.033847094 488:0.019799143 489:0.082780473 490:0.022903522 491:6.2630264e-05 492:0.089894161 493:-0.29988495 494:-0.013231583 495:0.10252169 496:-0.0050412426 497:0.031903684 498:-0.040189978 499:0.12537032 500:-0.44524464 501:0.15596752 502:0.05021577 503:0.071138062 504:4.8785721e-05 505:-0.15917058 506:-0.065296605 507:-0.034107398 508:-0.051128808 509:-0.068398371 510:-0.12970382 511:4.3948214e-05 512:-0.041862324 
0.0603853984850491 1:0.23613651 2:-0.035644028 3:0.11700787 4:-0.023293994 5:-0.20199744 6:0.12211607 7:-0.21196038 8:-0.45498654 9:0.031045498 10:-0.075471625 11:0.079269677 12:-0.061160963 13:0.13539703 14:0.05370215 15:0.31614536 16:-0.21144809 17:0.025500825 18:0.20021705 19:-0.30283451 20:0.22771019 21:0.060238522 22:0.099628903 23:-0.11955595 24:0.012016102 25:-0.12447633 26:0.073109739 27:-0.10078482 28:0.077475049 29:-0.1308675 30:0.13919652 31:-0.043372151 32:-0.11317027 33:0.15664577 34:0.043399606 35:-0.0080005117 36:-0.028008215 37:0.010488287 38:0.059572779 39:0.13630179 40:-0.22011626 41:-0.082293667 42:0.01924883 43:0.025365805 44:-0.16021095 45:0.12911113 46:0.38862583 47:0.084727228 48:0.20297574 49:0.072987176 50:0.073539086 51:-0.14342575 52:0.088953242 53:0.060641501 54:-0.10153245 55:-0.030378034 56:0.084511504 57:0.032815967 58:-0.11014298 59:0.12448283 60:0.0066188066 61:-0.058154751 62:-0.057694998 63:-0.0047346577 64:0.12426707 65:-0.039988033 66:-0.13728355 67:0.011159714 68:0.16980444 69:-0.019268593 70:0.039621193 71:0.032444555 72:-0.050282754 73:0.017805466 74:-0.030458018 75:0.063302211 76:0.047847588 77:-0.046453379 78:-0.13039789 79:-0.20275235 80:0.12710467 81:0.13447201 82:0.10359267 83:0.13452762 84:-0.10075732 85:-0.13201217 86:0.056389723 87:0.10735311 88:-0.087596469 89:-0.21034552 90:-0.054400589 91:0.046422858 92:-0.32448614 93:-0.08096303 94:0.021086967 95:0.097087711 96:-0.10145365 97:-0.031911872 98:-0.18323164 99:-0.083537802 100:0.085506737 101:0.078944407 102:-0.037070107 103:-0.27742288 104:-0.11333525 105:-0.036573857 106:-0.10285227 107:-0.10706013 108:0.11976355 109:-0.044038467 110:0.084033176 111:0.06114525 112:-0.0054034791 113:-0.13981189 114:-0.044186596 115:0.46543348 116:-0.11374891 117:-0.058048446 118:0.070078045 119:-0.041804709 120:-0.075666249 121:0.037527535 122:0.14805478 123:-0.071797922 124:-0.23466693 125:-0.078384005 126:-0.20384468 127:-0.069917992 128:0.049835283 129:-0.13989025 130:-0.033252224 131:-0.15007888 132:0.087436408 133:-0.014939489 134:0.025166906 135:0.043112073 136:0.14343537 137:0.041855309 138:0.078521289 139:0.061226778 140:0.049192164 141:-0.027813489 142:-0.14682832 143:0.17220956 144:0.040531348 145:0.048093412 146:-0.16866352 147:0.10427047 148:0.30314526 149:-0.047421616 150:0.098205015 151:0.040125523 152:0.14768407 153:-0.036799632 154:-0.12431909 155:0.078779653 156:0.23637643 157:0.21942335 158:0.090407915 159:-0.038512349 160:-0.039856769 161:0.092777677 162:0.026601512 163:0.040612314 164:-0.049847562 165:-0.15134192 166:-0.016685754 167:0.097182117 168:-0.063739344 169:0.028713623 170:-0.20848002 171:0.18429978 172:0.28184298 173:0.0063126232 174:-0.057069767 175:0.27330646 176:0.091856077 177:-0.10303759 178:-0.15246074 179:0.062977657 180:-0.02022085 181:-0.10232302 182:0.16303359 183:0.27359748 184:-0.18653098 185:0.086857811 186:0.19505495 187:-0.1389412 188:0.10243909 189:0.10079359 190:-0.067202389 191:-0.028968154 192:-0.010552381 193:-0.12519589 194:-0.080513321 195:0.049872678 196:-0.15779911 197:-0.18349631 198:-0.19870815 199:0.097027272 200:0.017675163 201:-0.058151953 202:-0.093879387 203:-0.44053727 204:0.0033395807 205:-0.022855395 206:-0.026353529 207:0.11421689 208:0.083303355 209:-0.15025124 210:-0.062402725 211:-0.060210649 212:-0.14498742 213:-0.04775615 214:-0.0033980256 215:-0.04742378 216:-0.11913113 217:0.36621332 218:0.12188955 219:0.10993141 220:0.10453311 221:-0.055170931 222:-0.04706154 223:-0.13193326 224:0.084476247 225:-0.046982169 226:-0.31226969 227:-0.15854926 228:0.075643688 229:-0.065780506 230:-0.1283097 231:0.042657468 232:0.0087997345 233:-0.02600929 234:-0.20599467 235:-0.077091046 236:0.17753005 237:0.064524911 238:-0.19715108 239:-0.10126295 240:0.096504644 241:0.34789085 242:0.069061697 243:0.10157817 244:-0.065269895 245:-0.041596957 246:-0.075757034 247:-0.089525402 248:0.073677182 249:-0.015536966 250:0.047428004 251:0.040193591 252:0.30981806 253:-0.1731334 254:-0.15664668 255:-0.043348126 256:0.2214895 257:-0.17330626 258:-0.06222225 259:-0.064892024 260:0.035294931 261:0.1393158 262:0.02305576 263:0.069463231 264:0.091768987 265:0.015770135 266:-0.12100448 267:-0.079288624 268:-0.0022417319 269:-0.094428845 270:0.11400097 271:-0.0844668 272:0.028720796 273:-0.087551199 274:-0.14100146 275:0.039128445 276:0.088833675 277:-0.096314982 278:-0.13351947 279:-0.11013854 280:-0.10332248 281:0.11811022 282:0.05662328 283:-0.13329974 284:0.0098010357 285:0.027705541 286:-0.049751643 287:-0.19974016 288:0.086297296 289:-0.046324622 290:0.078184523 291:0.013223329 292:0.17671864 293:-0.030352484 294:-0.38393506 295:0.075862944 296:-0.026127877 297:-0.20321402 298:-0.085921161 299:0.016576253 300:0.026526287 301:0.045859598 302:0.045720618 303:-0.062225882 304:-0.06121593 305:-0.29761621 306:0.16929172 307:-0.045460165 308:-0.029883491 309:-0.34280646 310:0.093987808 311:0.13244709 312:0.1149332 313:-0.0034755438 314:0.053828191 315:0.088193469 316:-0.033134446 317:0.0042711175 318:-0.12814732 319:0.068706013 320:0.062048107 321:-0.14275263 322:0.10561442 323:-0.15030241 324:0.01496092 325:0.27589837 326:-0.1815826 327:-0.22439159 328:-0.24706434 329:-0.37594968 330:-0.055088881 331:-0.066231281 332:0.036480766 333:-0.097982503 334:0.1277706 335:-0.11686233 336:0.0034917213 337:0.079821765 338:0.032511957 339:-0.15495911 340:-0.2468029 341:0.21702658 342:-0.024489257 343:-0.052943092 344:-0.17296116 345:0.18781111 346:-0.10164043 347:-0.17199528 348:0.055387851 349:0.0063327597 350:-0.064906746 351:-0.031044552 352:-0.24942251 353:0.037242722 354:0.18366469 355:0.12446937 356:-0.056378204 357:0.021406818 358:0.19039826 359:0.053257834 360:-0.10579733 361:0.2303798 362:-0.10971029 363:-0.21192254 364:0.15850782 365:-0.08055862 366:-0.022500318 367:0.017075317 368:-0.056012239 369:0.013509054 370:-0.065699369 371:-0.074896023 372:-0.0078964606 373:-0.01960057 374:-0.033985216 375:0.032299429 376:0.0081989812 377:0.26052624 378:0.20196697 379:-0.047832824 380:-0.22234039 381:0.071277246 382:0.072689191 383:-0.022036681 384:0.014005631 385:-0.055089541 386:0.017064778 387:0.094529249 388:-0.035481248 389:-0.13451698 390:-0.11864188 391:-0.01021951 392:0.020168936 393:-0.21694396 394:-0.56485283 395:0.085973069 396:0.10473641 397:0.18620767 398:-0.052468803 399:-0.13338557 400:-0.18223114 401:0.065010928 402:-0.080710053 403:-0.11692464 404:-0.099351935 405:0.048735384 406:0.097138777 407:0.064919151 408:-0.21721335 409:0.11585379 410:-0.029583756 411:-0.25707093 412:0.079668298 413:-0.32259583 414:0.059508622 415:-0.069286928 416:-0.18865953 417:-0.070191883 418:-0.13354367 419:-0.076967426 420:-0.049347188 421:0.15116976 422:-0.042746972 423:-0.12675448 424:-0.14726719 425:0.09990073 426:-0.24679828 427:0.067281283 428:0.11320958 429:-0.27762297 430:0.05577711 431:0.14285079 432:-0.027602781 433:0.074485697 434:0.091003738 435:-0.23381191 436:-0.18375926 437:-0.12441285 438:0.053250272 439:0.028032495 440:0.062505715 441:-0.12828706 442:0.15849599 443:0.081626914 444:-0.057680801 445:0.099959426 446:-0.17136684 447:0.14790086 448:0.08376874 449:-0.039569266 450:-0.030194566 451:-0.026771368 452:0.028653737 453:-0.19125274 454:0.089657642 455:-0.0033159547 456:-0.1640705 457:0.13257733 458:0.38813567 459:-0.11320298 460:0.13585612 461:0.07937067 462:0.095099427 463:0.20975919 464:0.090851285 465:0.046112351 466:-0.055954684 467:-0.056403052 468:0.072801791 469:-0.10400809 470:-0.11458496 471:-0.048961513 472:0.023045078 473:-0.029140363 474:-0.010835361 475:-0.0085503776 476:-0.019587575 477:-0.09900137 478:0.25485957 479:-0.020305006 480:-0.13691954 481:0.014811555 482:0.042184159 483:0.094527513 484:-0.092838883 485:0.061475065 486:0.062027287 487:0.21975785 488:0.051373702 489:0.044849668 490:0.20676042 491:-0.011408034 492:0.10878767 493:0.11226962 494:-0.041430276 495:0.032998156 496:-0.39654374 497:0.083170943 498:0.15830475 499:-0.27337644 500:-0.20811431 501:0.090255968 502:0.16893891 503:-0.017058287 504:0.1353956 505:-0.051793855 506:-0.17975205 507:-0.05863677 508:-0.023502184 509:0.11118884 510:-0.042812064 511:0.080609009 512:0.03042876 
1 1:0.039150618 2:-0.1516061 3:0.070195965 4:-0.012587995 5:-0.016259396 6:0.046160422 7:0.016384332 8:0.013483435 9:-0.066493295 10:-0.0041854102 11:-0.01798344 12:-0.0055788676 13:-0.0089950776 14:-0.20946358 15:0.027674487 16:-0.22972788 17:0.13241251 18:0.31284013 19:0.12751061 20:0.16838211 21:0.075412251 22:-0.29124311 23:-0.068858892 24:0.04187391 25:-1.7619332e-05 26:0.33116922 27:0.0019821161 28:0.33359134 29:-0.032818094 30:-0.0021861852 31:0.055428587 32:-0.014252565 33:0.038196478 34:0.39975506 35:-0.012551918 36:-0.39220443 37:0.068079352 38:1.1654092e-05 39:0.011257295 40:0.24141729 41:-0.13312469 42:0.15605266 43:0.28854024 44:0.047006305 45:3.2839893e-05 46:0.029254043 47:0.031331901 48:-0.0061446386 49:0.10334002 50:0.10116763 51:5.1554074e-05 52:-0.055428248 53:0.010514142 54:-0.045713801 55:0.054982878 56:-0.040838648 57:-0.053254936 58:-0.018271696 59:-1.1085253e-05 60:-3.7028556e-05 61:0.040264186 62:0.018651361 63:-0.053123187 64:0.096482314 65:-0.063458428 66:-0.21932338 67:0.18170027 68:3.6544647e-05 69:-0.017125688 70:1.8267754e-05 71:0.028293222 72:-0.10536721 73:0.025604943 74:-0.091410711 75:0.093040511 76:0.027122881 77:-0.068467714 78:0.073019989 79:-0.0030059442 80:0.17189716 81:-0.51383078 82:0.29159164 83:0.008610704 84:-0.012986596 85:-0.066579342 86:-0.0085808793 87:-0.013287442 88:-0.014364017 89:0.2332197 90:0.15189366 91:0.0028115793 92:0.28190494 93:-0.13515881 94:0.20136207 95:-0.29227054 96:-0.027934646 97:-0.031629313 98:-0.1097355 99:-0.014388831 100:-0.22423737 101:0.056427326 102:0.22336875 103:0.17358793 104:0.071841538 105:-0.0092905732 106:0.00012417151 107:-0.10250773 108:0.0095428871 109:0.084814899 110:-0.29677507 111:-0.055144142 112:-0.26342961 113:-0.15270819 114:-0.030751787 115:0.055391971 116:-0.070935614 117:0.033164687 118:-0.016443605 119:-0.0053204685 120:0.0046632076 121:-0.0008016408 122:0.079865269 123:-0.041345704 124:0.11288253 125:-0.21908455 126:-0.034654692 127:0.069147401 128:0.091956399 129:-0.29590347 130:-0.10544438 131:-0.019829847 132:0.099933155 133:-3.6677564e-05 134:-0.012675421 135:-0.13372204 136:-0.060381941 137:0.09835612 138:-0.013522908 139:-2.9783561e-05 140:-0.03227856 141:-0.21066619 142:-0.07281743 143:0.14604335 144:0.0051742769 145:-0.20516494 146:0.0046686018 147:-0.29321781 148:-0.012873973 149:-0.043394085 150:-0.12827973 151:0 152:0.0080559105 153:0.10864528 154:0.047116358 155:0.051401328 156:-0.11008138 157:-0.07718274 158:-0.01640477 159:-0.10193206 160:0.073931351 161:0.43248722 162:0.0049158111 163:-0.43852139 164:-0.0010092232 165:0.39202216 166:0.068412974 167:0.28095716 168:0.041065656 169:0.0044495063 170:-0.01936722 171:-5.5250959e-05 172:-0.13819991 173:-0.21687247 174:-0.12532051 175:0.17707996 176:0.17163484 177:0.14016971 178:0.15123808 179:0.031269636 180:0.035027158 181:0.20265576 182:0.44541064 183:-0.049071394 184:0.19659568 185:0.014322564 186:0.017182985 187:0.056310516 188:-0.29749572 189:0.091606468 190:0.019040121 191:0.076137215 192:-0.050817475 193:-0.079511113 194:0.041400269 195:0.016405882 196:0.32089695 197:-3.7979557e-05 198:2.3308185e-05 199:0.0086246524 200:-0.024838552 201:0.017793117 202:-0.07737831 203:-0.015162901 204:0.031821102 205:0.2410071 206:-0.051753849 207:-0.33660138 208:0.069880269 209:-0.011278557 210:-0.0080118924 211:2.3760846e-05 212:0.023705596 213:-0.10651243 214:-4.0914292e-05 215:0.027584041 216:-0.11509906 217:-0.15037909 218:0.0010402841 219:0.13524416 220:0.0676791 221:2.504694e-05 222:-0.00038007696 223:0.1948345 224:-0.0056378394 225:0.20515372 226:-0.012423762 227:-0.058117926 228:-0.021397606 229:-4.7441503e-05 230:-0.074772559 231:-0.17441052 232:0.005578557 233:0.2037431 234:-0.029474441 235:-0.062540889 236:-0.01029482 237:-0.34468582 238:-2.9302289e-05 239:-0.24916407 240:-0.014392842 241:0.10454292 242:0.039611083 243:0.15248407 244:-0.018658863 245:0.10077672 246:0.2119883 247:0.027989687 248:0.33061329 249:3.5070982e-05 250:0.018989792 251:-0.26075485 252:0.17805326 253:-1.2188144e-05 254:-0.19132206 255:0.003616923 256:-2.5218216e-05 257:-0.0013463714 258:-0.009053004 259:-0.11845362 260:0.073515467 261:-0.096976213 262:-0.0055167885 263:0.0055236756 264:-0.0020083995 265:0.076335534 266:-0.40229809 267:-0.075494111 268:0.41381884 269:0.027771603 270:-0.41695255 271:6.2707666e-05 272:0.033315841 273:-0.048612043 274:-0.18508956 275:-0.0050315675 276:-0.0021500639 277:-0.028537903 278:-6.3527405e-05 279:-0.085980773 280:0.051072452 281:-0.23887613 282:0.18882629 283:-0.19532445 284:0.10338186 285:-2.3183975e-05 286:-0.050485302 287:0.002350115 288:-0.13326317 289:-0.014012049 290:0.0021684191 291:-0.12854353 292:0.41463029 293:0.10117131 294:-0.0054425276 295:0.084313937 296:-0.037992977 297:-0.039724033 298:-3.6323181e-05 299:0.072916582 300:-0.21856922 301:0.035184618 302:0.017544091 303:-0.0070831468 304:0.14326094 305:2.8274502e-05 306:0.0025411618 307:-0.0086758733 308:0.013912418 309:-0.0054393555 310:5.5426266e-05 311:0.0043346295 312:-0.059333738 313:-0.0040685316 314:-0.039958321 315:0.037138607 316:0.078700483 317:0.14971471 318:4.781493e-05 319:0.076001287 320:-0.0024917473 321:0.042404983 322:0.064967416 323:0.12809004 324:0.078344621 325:0.29056069 326:-0.029130049 327:0.019962482 328:-0.146181 329:-0.0031381298 330:-0.11399689 331:-0.0010605681 332:0.25054628 333:-0.086938068 334:0.049160581 335:-0.0015837782 336:0.27330348 337:0.21978311 338:-0.077818207 339:-3.0348228e-05 340:-0.13425294 341:-0.017089941 342:-0.0078252787 343:0.10523852 344:-0.35636613 345:0.058249827 346:-0.27114391 347:0.11323294 348:-0.11023473 349:0.0023478987 350:-0.12936535 351:-0.0052261348 352:0.20754243 353:1.5231773e-05 354:0.0058729853 355:0.038048837 356:-0.048582651 357:-0.00085378042 358:0.16264674 359:0.0053312336 360:-0.060297206 361:-0.025071165 362:-0.2496417 363:-0.056688301 364:0.27917963 365:0.0047838022 366:-0.056645099 367:-0.038364522 368:0.034225143 369:-0.023477027 370:0.040681239 371:0.03268059 372:1.5018478e-05 373:0.015104235 374:-0.1103119 375:0.071611568 376:4.6049361e-05 377:-0.054281846 378:-0.28639099 379:0.027857631 380:-0.011687847 381:-0.02028618 382:0.31913447 383:0.16796809 384:-0.0024728773 385:0.01089039 386:-0.14443344 387:0.1368286 388:0.019620834 389:0.222744 390:-0.002246141 391:-0.062195133 392:0.010593182 393:-0.46192765 394:0.017538641 395:0.050817113 396:0.26448014 397:-0.0026091486 398:4.771338e-05 399:0.46541128 400:0.052158438 401:0.1787243 402:0.020981511 403:-0.029542444 404:-0.0878333 405:2.9401093e-05 406:0.10720433 407:-0.35355198 408:-0.094004981 409:-0.0091157285 410:-3.6500802e-05 411:0.14183466 412:0.0034311886 413:0.077473104 414:0.0043073636 415:0.064757474 416:0.045451049 417:6.4336702e-05 418:4.7034246e-05 419:-0.060127258 420:2.6043825e-05 421:-0.042734955 422:-0.19499756 423:-0.16697629 424:0.037434042 425:0.14569296 426:-0.058390804 427:0.10968898 428:0.039567459 429:-0.016141141 430:0.020349247 431:0.012023482 432:-0.099608578 433:-2.0052415e-05 434:0.074368782 435:0.013317673 436:0.086495042 437:-0.31456724 438:0.1889922 439:1.9673347e-05 440:0.1709668 441:0.0274144 442:0.060804393 443:0.080220833 444:-0.0051231771 445:-0.0058272565 446:0.14968085 447:-1.6869226e-05 448:0.22843334 449:0.1430445 450:0.012341049 451:0.0039590825 452:0.046799347 453:-4.0767161e-05 454:-0.25133622 455:-0.08138904 456:-4.2080475e-05 457:0.096848011 458:0.0045762286 459:0.20940885 460:0.071043298 461:-0.044527113 462:-0.38778868 463:0.060039189 464:0.4321034 465:0.079489566 466:-0.30710027 467:0.0072743823 468:0.093639299 469:-0.12066688 470:-0.039899796 471:0.068749599 472:0.028938172 473:0.16059531 474:0.036762331 475:0.10529459 476:-0.29825255 477:-0.12417049 478:0.31257883 479:-0.0073121977 480:0.093429811 481:-0.0051564309 482:0.064575516 483:-0.11661429 484:-0.20011711 485:-0.19649714 486:0.014854194 487:0.0023691996 488:0.021347532 489:3.9398026e-05 490:2.642521e-05 491:5.6837707e-05 492:0.0098129371 493:-0.29749477 494:-0.021372089 495:0.052812729 496:-0.03657005 497:0.053023256 498:-0.004103526 499:0.1145453 500:-0.43265331 501:0.1782113 502:-0.017083589 503:0.068725064 504:0.0051126028 505:-0.093811236 506:-0.077718943 507:-0.050795648 508:-0.067792617 509:-0.053178351 510:0.0014854863 511:-1.6046351e-05 512:-0.09432216 
