svm_type c_svc
kernel_type linear
nr_class 2
total_sv 32
rho 1.07936
label 1 0
nr_sv 16 16
SV
0.9534107944944954 1:-9.5155283e-06 2:-4.1006762e-05 3:0.13444103 4:-0.048150502 5:0.056820434 6:0.079555355 7:0.0058468753 8:0.4859961 9:-0.32316679 10:-3.9382972e-05 11:2.8996159e-05 12:-0.10779976 13:6.1890125e-05 14:-0.073447034 15:-0.048516963 16:8.8682027e-05 17:0.049094692 18:0.044718668 19:-0.08086399 20:1.9699011e-05 21:-0.048413809 22:1.580272e-05 23:-0.076568305 24:-0.2734713 25:-2.4874729e-05 26:-5.0004495e-05 27:0.061533161 28:0.14892296 29:-3.0198014e-05 30:-0.048682287 31:0.069344088 32:3.6234047e-05 33:-0.035635211 34:-0.075209484 35:-5.8927872e-06 36:0.17649351 37:2.2746462e-05 38:0.056863476 39:0.13192619 40:4.2343763e-05 41:0.0019430299 42:-1.1373229e-05 43:0.13994376 44:2.8742988e-05 45:-5.3410469e-05 46:0.10249627 47:0.040769685 48:0.15016074 49:-0.0041384897 50:2.3114875e-05 51:-2.5431316e-05 52:1.6895219e-05 53:0.21800731 54:3.4695342e-05 55:-0.21959609 56:0.10069433 57:0.075640932 58:-0.11209229 59:0.084679045 60:4.0643878e-05 61:0.30904946 62:9.6001131e-06 63:-6.1399762e-05 64:0.079278357 65:-2.9722336e-05 66:-3.496918e-05 67:0.040502608 68:0.23764953 69:6.7044202e-05 70:0.031774599 71:3.2907043e-05 72:2.2746461e-05 73:-3.9052869e-05 74:0.13013901 75:5.1190345e-05 76:0.19177152 77:-0.17608599 78:0.037079692 79:-0.047124676 80:-0.078342877 81:-2.9657756e-05 82:-0.040243383 83:0.24819276 84:-0.16783993 85:-0.080171153 86:-3.8203401e-05 87:4.2498155e-05 88:0.070499994 89:0.069410972 90:-0.47951767 91:0.27873459 92:0.070624709 93:0.051369276 94:0.083994977 95:-0.060736131 96:-0.041477472 97:0.12315546 98:-0.10420344 99:-0.039832242 100:1.7826022e-05 101:-0.035950448 102:-0.44234401 103:-0.048787985 104:-0.019623322 105:-0.023975205 106:-3.6345435e-05 107:-6.0181475e-05 108:-4.1006762e-05 109:-0.051301423 110:-4.9914812e-05 111:-0.073611356 112:0.0053474382 113:0.041109718 114:-4.4467986e-05 115:3.1287225e-05 116:-0.10816745 117:1.3124432e-05 118:-0.030956348 119:-0.030284351 120:-0.076487415 121:2.2585562e-05 122:-0.013566491 123:-4.2805037e-05 124:-2.7000411e-05 125:0.00084644178 126:-0.040169287 127:0.17390066 128:0.14904754 129:-0.10396893 130:0.029598501 131:-0.038066253 132:-0.0035019901 133:0.0012681738 134:2.3308185e-05 135:-0.20247631 136:0.22684029 137:2.9657756e-05 138:-0.092100628 139:0.034457766 140:3.7806371e-05 141:-0.2494271 142:-4.0831907e-05 143:-0.16947015 144:0.099790588 145:0.065955348 146:-0.16140592 147:-0.18750583 148:-0.029598471 149:0.029750165 150:-0.25134426 151:0.076487407 152:0.23584157 153:0.066428229 154:-6.9291978e-05 155:-3.6440935e-05 156:0.062449366 157:0.086991452 158:2.0808204e-05 159:-0.041207258 160:-0.074829891 161:0.30234334 162:1.4481267e-05 163:-3.6293786e-05 164:1.7665156e-05 165:-0.076568328 166:-2.1581154e-05 167:1.3456989e-05 168:-3.7740505e-05 169:1.785854e-05 170:3.4158169e-05 171:5.7431997e-05 172:-0.0042541851 173:-8.7507382e-05 174:0.022188332 175:0.042966891 176:0.0016163656 177:-0.24112919 178:-1.7571079e-05 179:0.060934026 180:0.076763846 181:-0.25390583 182:0.17643647 183:-4.7794751e-06 184:0.32797167 185:-0.14880829 186:4.5252382e-05 187:0.090364657 188:0.1128516 189:-0.10988135 190:0.04827638 191:-7.1053015e-05 192:4.0698913e-05 193:0.020891067 194:-1.8858276e-05 195:-2.8926983e-05 196:0.10017338 197:-0.18041445 198:3.5308982e-05 199:-0.078751996 200:-5.4038515e-05 201:0.10798809 202:-0.040811263 203:-7.4245659e-06 204:2.8849281e-05 205:-0.043107178 206:0.052001897 207:0.047462411 208:0.072312705 209:0.085930578 210:-0.029880021 211:0.20780824 212:0.017594464 213:-3.8823575e-05 214:-1.1891107e-05 215:-0.052053951 216:0.0030436642 217:0.1501469 218:3.9816459e-05 219:-0.045836847 220:-2.1745822e-05 221:3.6122317e-05 222:1.5853479e-05 223:3.364859e-05 224:4.8469847e-05 225:-0.013566356 226:-0.11733752 227:0.10848083 228:0.13856807 229:0.12843612 230:-0.027744263 231:2.4483674e-05 232:-0.19366001 233:0.18814597 234:-0.22643058 235:-0.088469915 236:-0.0023001588 237:-0.10684881 238:-0.04375067 239:-0.078490719 240:0.046273027 241:0.088314943 242:-0.22067012 243:-0.031434286 244:0.058487006 245:-4.4927576e-05 246:0.052957039 247:-0.0069627976 248:0.13190345 249:4.1571046e-05 250:0.049116544 251:0.014540704 252:0.23681667 253:-0.16140592 254:0.04069199 255:-0.0024033224 256:2.3029035e-05 257:0.040586777 258:0.34161884 259:2.7272046e-05 260:0.10012081 261:-0.038529865 262:0.049116533 263:0.054397125 264:0.022470295 265:-7.1930608e-06 266:-0.015872398 267:-0.055500999 268:-1.2196429e-05 269:0.033516038 270:0.061004274 271:-4.3047057e-05 272:-0.54867023 273:0.0055578672 274:2.8597064e-05 275:0.23021469 276:0.13276362 277:-0.077651285 278:-0.049592283 279:0.0053330972 280:-4.9964608e-05 281:2.1478438e-05 282:-0.096983194 283:-2.1680133e-05 284:3.9002942e-05 285:-0.062426079 286:0.11600257 287:-0.0036844846 288:-0.030457145 289:-7.1257473e-06 290:-0.0023001786 291:0.0035019924 292:0.031262618 293:-0.078253277 294:-1.0785657e-05 295:1.3929305e-05 296:2.6821381e-05 297:0.13017081 298:-0.11213653 299:-3.6189398e-05 300:0.0055579348 301:-6.46837e-05 302:0.16565698 303:-0.12043923 304:-0.00037679562 305:0.14919622 306:-3.4882418e-05 307:0.19890007 308:2.7991628e-05 309:-2.3856688e-05 310:-0.041806348 311:-5.7544501e-05 312:0.11213652 313:0.0053472528 314:3.7322134e-05 315:-2.9657756e-05 316:-0.024650563 317:-1.0172529e-05 318:0.003572169 319:0.080175065 320:-2.7432932e-05 321:3.0154393e-05 322:-0.10977153 323:-1.2683052e-05 324:0.098869689 325:-0.11424952 326:0.177128 327:-3.2411976e-05 328:-0.28458279 329:4.8507412e-05 330:-4.2376254e-05 331:-0.016503677 332:0.052001879 333:-0.20626383 334:0.12680422 335:-0.026795343 336:-0.032070044 337:-0.21883665 338:3.4825222e-05 339:0.0039123781 340:-0.093926579 341:-0.045642015 342:4.1663701e-05 343:-1.4887253e-05 344:-0.13053991 345:0.12050272 346:-0.20811032 347:0.064756379 348:-0.057559408 349:-0.035682708 350:2.4072935e-05 351:0.38286808 352:0.086758092 353:0.016571568 354:3.2819386e-05 355:0.068866678 356:-3.6512563e-05 357:-0.048150551 358:-6.3527405e-05 359:0.072312705 360:0.11755197 361:0.045270376 362:0.083021641 363:-0.43871322 364:0.2885707 365:8.1670485e-05 366:-0.089793853 367:-0.09222576 368:-0.069887064 369:0.037569258 370:-4.1184321e-05 371:0.020958196 372:-1.7318896e-05 373:-0.11601239 374:0.0016154944 375:2.8465822e-05 376:-0.086282939 377:-0.051579032 378:-0.13994376 379:2.9581726e-05 380:0.080049463 381:4.4284949e-05 382:0.069760121 383:1.3456986e-05 384:0.02519899 385:3.1559433e-05 386:-0.19815077 387:1.2842184e-05 388:2.2888184e-05 389:-0.1490376 390:-0.10629244 391:4.4413879e-05 392:-5.3102143e-05 393:-0.14277197 394:0.043107182 395:-4.5219003e-05 396:-0.11083164 397:0.0052858167 398:1.9024696e-05 399:0.1289112 400:6.6947665e-05 401:1.47503e-05 402:0.053301089 403:5.4662542e-05 404:0.21408966 405:-0.067345552 406:3.8062106e-05 407:0.20428389 408:-0.2057012 409:0.0036842192 410:-0.0019471062 411:-0.063096784 412:-2.3817445e-05 413:-3.2732016e-05 414:-2.6138623e-05 415:-0.37268451 416:-0.28557673 417:1.6869228e-05 418:2.7885189e-05 419:-0.13134247 420:3.8964725e-05 421:1.8945901e-05 422:-0.056907002 423:-0.21294323 424:0.096451938 425:0.05220196 426:0.093519807 427:0.16546471 428:3.5262532e-05 429:0.61254972 430:-0.013998793 431:-1.978092e-05 432:-3.6589292e-05 433:-0.14878529 434:-1.409947e-05 435:5.5776683e-05 436:0.040169302 437:6.413534e-05 438:-0.04120728 439:-0.040350981 440:4.3158368e-05 441:-0.088818617 442:0.30552307 443:-0.20046423 444:-0.056837928 445:4.0290783e-05 446:0.087054357 447:1.9600637e-05 448:0.078342885 449:-0.016732827 450:-2.9767916e-05 451:-2.0284491e-05 452:3.3735054e-05 453:-2.1139182e-05 454:-0.03836979 455:-3.3913337e-05 456:-0.0036241724 457:0.39607418 458:-0.063170798 459:-0.054669578 460:0.15066852 461:0.030979643 462:0.016285278 463:0.046017941 464:-0.088470362 465:0.14970542 466:0.022413803 467:0.016928654 468:0.11755197 469:-0.098667666 470:1.3246708e-05 471:-1.622144e-05 472:2.2618953e-05 473:-0.062416714 474:0.042725097 475:0.093491741 476:2.8897435e-05 477:-0.13576268 478:1.9207388e-05 479:-0.14878531 480:-0.10530439 481:-1.040715e-05 482:-3.829729e-05 483:0.045150708 484:-0.093253963 485:0.31482255 486:0.031774528 487:0.13169982 488:-4.5864927e-05 489:2.1124841e-05 490:-0.18557517 491:5.2304491e-05 492:-2.0571282e-05 493:0.00011541164 494:3.3795754e-05 495:0.26022425 496:-0.1173536 497:0.27353498 498:-0.10079672 499:0.13677427 500:-0.037711538 501:-1.1977666e-05 502:0.1175571 503:-0.0036092799 504:0.30904967 505:-2.4942765e-05 506:-0.11930578 507:-0.18339132 508:-0.072319627 509:-0.081885405 510:-0.047835838 511:-0.44234401 512:0.19890006 
1 1:1.3929302e-05 2:-4.7441506e-05 3:0.12454183 4:-0.025809804 5:-0.13078658 6:0.12586492 7:0.015187434 8:0.45027041 9:-0.14974871 10:-0.034438401 11:-0.073839664 12:-0.072397865 13:6.1483857e-05 14:-1.2802343e-05 15:-0.047138419 16:6.823938e-05 17:0.036784962 18:0.13823959 19:-0.11196332 20:1.162805e-05 21:-0.03336142 22:-1.7610895e-05 23:-0.057045907 24:-0.2325685 25:8.3537634e-06 26:-5.5272903e-05 27:0.053252492 28:0.19776522 29:0.034289982 30:1.7172493e-05 31:-1.6059024e-05 32:2.3243061e-05 33:-0.015926383 34:1.6473969e-05 35:2.913048e-05 36:0.16810197 37:-2.000779e-05 38:0.054074071 39:0.12958091 40:-2.5592803e-05 41:-3.4308719e-05 42:-1.0172531e-05 43:0.11438307 44:-1.5041346e-05 45:-4.5973648e-05 46:0.23098387 47:0.042893548 48:0.16227205 49:-1.245875e-05 50:-3.4042128e-05 51:-2.4126264e-05 52:3.1429547e-05 53:0.23827922 54:3.6302907e-05 55:-0.24659044 56:0.11389703 57:0.020196073 58:-0.021157378 59:-0.0025920412 60:-0.036533721 61:0.28047219 62:-1.6964803e-05 63:-5.8504793e-05 64:0.094354078 65:-0.018058686 66:-0.081348836 67:0.042893551 68:0.22406593 69:5.9337479e-05 70:0.034355801 71:2.9080617e-05 72:-2.0345053e-05 73:-2.7651837e-05 74:0.12213336 75:2.6140406e-05 76:0.058335092 77:-0.18851198 78:-0.0022746935 79:-0.095737919 80:1.7228642e-05 81:-3.3562021e-05 82:-0.024047514 83:0.23716846 84:-0.068861566 85:-0.069665648 86:-4.1637883e-05 87:0.012908276 88:0.031922165 89:0.14083207 90:-0.38781482 91:0.23048091 92:0.034223191 93:0.072094217 94:0.027321169 95:-3.7634909e-05 96:-0.14581347 97:0.088061333 98:-0.047158554 99:-0.083668567 100:-0.0069328514 101:-0.018772999 102:-0.46810755 103:0.023438511 104:0.10422377 105:-0.10144517 106:3.9020822e-05 107:-5.9641719e-05 108:4.2134241e-05 109:-0.10553651 110:-4.1799551e-05 111:-0.049121171 112:-0.073839664 113:0.036361799 114:-2.4027349e-05 115:3.4758286e-05 116:-0.032159053 117:1.0373315e-05 118:0.068054475 119:-0.092315085 120:-0.089723378 121:2.9958661e-05 122:-0.0046720318 123:1.1825442e-05 124:-2.8141121e-05 125:4.9284274e-05 126:-0.069926091 127:0.16831815 128:0.15267016 129:-0.23874462 130:-3.2168351e-05 131:-0.050251864 132:-0.087894134 133:-1.0172526e-05 134:-4.2249678e-05 135:-0.21343473 136:0.22326052 137:4.8885049e-05 138:1.7321923e-05 139:-1.6265358e-05 140:4.8104503e-05 141:-0.26198384 142:0.034282636 143:-0.18434471 144:0.13348812 145:0.050967921 146:-0.081095748 147:-0.14130861 148:0.070883498 149:0.089596331 150:-0.26075864 151:0.036492378 152:0.25480604 153:-0.042474676 154:-4.2220963e-05 155:-3.3683758e-05 156:0.060859736 157:0.021528924 158:4.1492622e-05 159:3.7634909e-05 160:-0.069998339 161:0.30703068 162:1.6210637e-05 163:0.059790485 164:3.5424575e-05 165:-0.057045918 166:0.068315901 167:3.8568502e-05 168:0.012542848 169:0.0035180268 170:-0.091050558 171:-0.0084679527 172:-0.05680798 173:-0.00010172526 174:0.044684745 175:0.073312618 176:-3.7441077e-05 177:-0.21743636 178:0.018729236 179:3.5343663e-05 180:0.037887417 181:-0.098293558 182:0.045256335 183:0.041052349 184:0.38872886 185:-0.22454123 186:1.3665637e-05 187:0.025883457 188:0.091907963 189:-0.053848743 190:-0.064963117 191:-0.11758667 192:-3.8700691e-05 193:0.080262423 194:-3.2240132e-05 195:-2.5476074e-05 196:0.0096763493 197:-0.20103098 198:-1.2452077e-05 199:-2.7072087e-05 200:-1.8143315e-05 201:0.046969607 202:0.052896004 203:-2.3403367e-05 204:1.6481377e-05 205:0.0022741258 206:0.046779495 207:0.030695532 208:0.11811846 209:0.05315727 210:-0.11846963 211:0.21997917 212:2.3242295e-05 213:-4.1075124e-05 214:-1.4163894e-05 215:-0.031279434 216:5.6661054e-05 217:0.18183865 218:-2.407733e-05 219:-1.8963668e-05 220:-2.2587355e-05 221:0.060029328 222:0.069156289 223:6.1522165e-05 224:5.3405463e-05 225:-0.0046715792 226:-0.05147811 227:0.097378768 228:0.09269695 229:0.14439601 230:-0.18498139 231:3.6809579e-05 232:-0.19102053 233:0.12428205 234:-0.22318529 235:0.12114156 236:0.032635629 237:0.048104316 238:-1.9247302e-05 239:-0.020196065 240:2.3903156e-05 241:0.11527281 242:-0.15737869 243:-0.088497072 244:0.046487417 245:3.8321563e-05 246:0.050950348 247:0.092833854 248:0.021411903 249:3.4198856e-05 250:0.050886933 251:-0.13799101 252:0.23283523 253:-0.08109574 254:0.073934346 255:-0.046584304 256:3.1146872e-05 257:-0.068347804 258:0.27974352 259:-2.9562196e-05 260:0.081022099 261:0.14032073 262:0.050886955 263:-4.4048347e-06 264:6.3933338e-05 265:1.7341845e-05 266:0.099306248 267:0.085221112 268:1.1848204e-05 269:0.043678984 270:-0.039621174 271:-5.5365505e-05 272:-0.52234775 273:-1.2891736e-05 274:4.0878418e-05 275:0.073286638 276:0.083224669 277:-0.1095518 278:-0.10360418 279:0.0087660206 280:-1.9115823e-05 281:3.1716849e-05 282:0.13118075 283:0.038267203 284:5.0093884e-05 285:-0.10003406 286:0.25993758 287:-3.957206e-05 288:0.062297519 289:2.9428476e-05 290:2.4346386e-05 291:0.087894134 292:-0.050697945 293:-4.641795e-05 294:5.4156928e-05 295:2.6306358e-05 296:-3.6613503e-05 297:0.12567751 298:-0.085051171 299:-3.4962275e-05 300:2.5465462e-05 301:-5.8943697e-05 302:0.17389035 303:-0.10323257 304:-0.076022349 305:0.15134944 306:-3.9973107e-05 307:0.2575089 308:-3.5382731e-05 309:-1.1373228e-05 310:-0.030695524 311:-2.3308185e-05 312:0.085051179 313:2.9336776e-05 314:-1.82116e-05 315:-3.3182747e-05 316:-0.018466046 317:-6.7476903e-05 318:-3.5558398e-05 319:0.031819299 320:-2.7681983e-05 321:0.041657284 322:-0.088664025 323:3.4063523e-05 324:0.070107087 325:-0.06038776 326:0.21703671 327:0.022170503 328:-0.2811338 329:0.038734518 330:0.053374328 331:-0.067301214 332:0.046779495 333:-0.17326552 334:0.041554287 335:-0.042697169 336:-0.095558703 337:-0.15675704 338:2.9674375e-05 339:-0.079808913 340:-0.052781209 341:0.085976042 342:0.028594546 343:-2.6948379e-05 344:-0.046969593 345:0.037735727 346:-0.24600263 347:0.070829228 348:-0.085390337 349:0.076584645 350:0.020170681 351:0.30386043 352:0.021528799 353:0.076377787 354:-0.051543634 355:0.11316309 356:-2.9401806e-05 357:-0.025809808 358:0.03263554 359:0.12135304 360:0.066599764 361:0.12544034 362:0.073881917 363:-0.41503471 364:0.13355705 365:-0.032157633 366:-0.096655384 367:-0.055245388 368:-0.21816044 369:0.15997139 370:1.7109725e-05 371:4.2894168e-05 372:-1.91418e-05 373:-0.25993758 374:-5.5516334e-06 375:-1.1062343e-05 376:-0.11303239 377:0.029004386 378:-0.11298926 379:3.4718909e-05 380:0.046788666 381:0.06154241 382:0.13348813 383:1.1378133e-05 384:-0.062704846 385:-1.6869226e-05 386:-0.1191764 387:3.9408282e-05 388:3.6099929e-05 389:-0.23661193 390:0.13308141 391:4.7441503e-05 392:-0.062165014 393:-0.073116913 394:2.2444952e-05 395:-5.1750929e-05 396:-0.16795851 397:0.008766029 398:2.6280681e-05 399:0.081976101 400:4.5492921e-05 401:-2.80761e-05 402:0.070391349 403:-3.2168347e-05 404:0.22510292 405:-4.5886147e-05 406:4.4341014e-05 407:0.14130861 408:-0.24028069 409:1.8496343e-05 410:-0.053536862 411:-0.10828571 412:1.7365139e-05 413:-2.1400492e-05 414:2.0100288e-05 415:-0.29081184 416:-0.26904398 417:5.6179615e-05 418:3.5943409e-05 419:-0.088973053 420:1.2320089e-05 421:0.017802104 422:-0.072531141 423:-0.13684981 424:-0.056465939 425:0.0071436651 426:-0.042597629 427:0.12871528 428:1.0895853e-05 429:0.57160366 430:-0.061422117 431:2.9459094e-05 432:2.3412007e-05 433:-0.013017745 434:-2.9294892e-05 435:3.6928344e-05 436:0.016619457 437:5.5309458e-05 438:-1.7714938e-05 439:-0.020509165 440:3.8902432e-05 441:0.043905057 442:0.24838051 443:-0.075457118 444:-0.050384838 445:-0.053059239 446:0.1463393 447:0.045531798 448:0.031830162 449:-4.7704809e-05 450:-4.0393799e-05 451:-1.8009197e-05 452:1.6633358e-05 453:-3.2020795e-05 454:-0.062155172 455:-1.7925055e-05 456:-5.738144e-05 457:0.4139283 458:0.018865034 459:-0.036547936 460:0.16848627 461:0.066337988 462:0.11651134 463:0.012908336 464:-0.19728819 465:0.079644449 466:0.050119668 467:0.04740417 468:0.066599779 469:-0.076197788 470:-0.027477192 471:-0.013776054 472:3.9836916e-05 473:3.5008496e-05 474:-0.018773025 475:0.047158562 476:-1.6503969e-05 477:-0.11548358 478:4.1429637e-05 479:-0.08277192 480:-0.058037642 481:-1.0146296e-05 482:0.032786556 483:0.074275464 484:-0.05577901 485:0.31004316 486:0.034355741 487:0.15434791 488:-3.329197e-05 489:-2.6275609e-05 490:-0.14646821 491:0.11179443 492:-2.6474056e-05 493:0.00011209639 494:2.5245563e-05 495:0.25437847 496:-0.051478144 497:0.23256849 498:-0.134948 499:0.086319603 500:-0.038680471 501:1.5139274e-05 502:0.084596403 503:2.9296742e-05 504:0.28047216 505:-0.021461301 506:-0.070001692 507:-0.20595644 508:0.076063424 509:-0.15132919 510:-0.094974652 511:-0.46348882 512:0.25750887 
0.3037334534732782 1:-2.727205e-05 2:-0.053944632 3:0.12637071 4:2.09712e-05 5:-0.11982641 6:-0.016096009 7:-4.0650346e-05 8:0.36768013 9:-0.18345115 10:-2.3425433e-05 11:4.7579768e-05 12:-0.010241275 13:-0.01123502 14:-0.012717954 15:-0.022000566 16:6.9180664e-05 17:0.015428993 18:0.02835794 19:4.6111974e-05 20:2.5149042e-05 21:-5.328851e-05 22:1.0976046e-05 23:-0.01673343 24:-0.29790586 25:-3.4606001e-05 26:-5.2805939e-05 27:0.50137353 28:0.27129722 29:0.0074325213 30:-1.9576464e-05 31:0.10873889 32:-0.091220796 33:1.4661447e-05 34:-0.040990479 35:6.7956549e-05 36:0.2493411 37:-2.6146889e-05 38:-1.4016991e-05 39:0.088463105 40:-4.816251e-05 41:-1.606035e-05 42:-2.4857305e-05 43:0.096927576 44:3.9237766e-05 45:-1.7924056e-05 46:0.10257085 47:0.042642701 48:0.048344322 49:2.2693086e-05 50:-8.8537427e-06 51:5.8209924e-05 52:2.3832026e-05 53:0.33210918 54:4.3834603e-05 55:0.047444772 56:6.9320748e-05 57:-3.1678173e-05 58:-0.098997846 59:0.020987229 60:-0.015730532 61:0.31442454 62:-3.8905778e-06 63:-5.4209755e-05 64:-1.6357111e-05 65:-1.886292e-05 66:-0.1100923 67:0.042642687 68:0.13935734 69:4.7681133e-05 70:2.7350841e-05 71:3.8179882e-05 72:4.5561326e-05 73:-1.8558734e-05 74:0.20348854 75:4.4930603e-05 76:0.11722836 77:-0.42208603 78:-2.3017206e-05 79:-0.00088477851 80:-0.29271013 81:-0.071858592 82:8.3155801e-06 83:0.26419687 84:-0.096056186 85:-0.019107059 86:-4.0987183e-05 87:3.4898258e-05 88:0.019609185 89:2.0346744e-05 90:-0.39494869 91:0.16607317 92:0.058693934 93:-0.065445788 94:0.020987239 95:0.1306226 96:-0.085086629 97:0.11787126 98:-0.026825557 99:-0.022358192 100:4.7996291e-05 101:-0.030641388 102:-0.54481697 103:-0.083054595 104:-0.095138311 105:-0.034809336 106:3.4776993e-05 107:3.2667118e-05 108:-2.8924585e-05 109:0.14029378 110:-5.1890012e-05 111:-0.081898704 112:3.2755754e-05 113:-4.6884863e-05 114:1.7617394e-05 115:0.0014401794 116:8.6646496e-06 117:2.6756023e-05 118:-0.02882934 119:4.2390569e-05 120:5.9347632e-05 121:-3.4115103e-05 122:3.3126253e-05 123:-1.4793928e-05 124:2.0669355e-05 125:3.8497961e-05 126:2.1335019e-05 127:0.21114844 128:0.23129371 129:-0.077264994 130:0.1261428 131:-0.051852155 132:-0.0010579535 133:4.2115513e-05 134:3.4823261e-05 135:-0.30911496 136:0.2379795 137:4.5028512e-05 138:-4.3860698e-05 139:3.0198849e-05 140:3.3446173e-05 141:-0.0042801355 142:0.095138311 143:-0.27817723 144:3.2531923e-05 145:2.4906554e-05 146:-0.017828139 147:-0.028472643 148:-0.1261428 149:-0.00197849 150:-0.10667136 151:0.0025765365 152:0.34662876 153:0.014808821 154:-7.0719543e-05 155:-3.0269926e-05 156:0.014808938 157:-1.873807e-05 158:3.663759e-05 159:5.3587104e-05 160:0.0079300376 161:0.063542947 162:4.1843166e-05 163:1.4352631e-05 164:-1.4390869e-05 165:-0.016733518 166:0.060460616 167:4.76965e-05 168:1.7218967e-05 169:-3.3285163e-05 170:-2.9103394e-05 171:1.9799414e-05 172:-0.054748479 173:-8.074192e-05 174:-4.272383e-05 175:3.368266e-05 176:-5.5482597e-05 177:-0.31870502 178:-6.5981794e-06 179:0.024387101 180:0.090076439 181:-0.10861941 182:0.090458199 183:2.0802219e-05 184:0.54446709 185:0.095675178 186:0.05833964 187:-0.068736851 188:0.1153431 189:-0.019078083 190:0.03567664 191:-6.5585722e-05 192:-1.4828477e-05 193:0.033260044 194:-3.5490175e-05 195:1.5606804e-05 196:-3.5287463e-05 197:-0.20348854 198:3.2879561e-05 199:-1.8178842e-05 200:0.068736829 201:-1.7619332e-05 202:-0.035886891 203:3.2134816e-05 204:-4.4714809e-05 205:-0.080798864 206:0.069696426 207:0.021054666 208:0.065186486 209:0.09820772 210:-0.066424519 211:0.31652603 212:0.05202847 213:1.4109167e-05 214:2.1257678e-05 215:-0.035886895 216:-7.861248e-05 217:0.019577181 218:-8.3400855e-06 219:5.3670137e-05 220:-3.2058899e-05 221:6.1864346e-05 222:0.079151616 223:5.6916575e-05 224:4.1367464e-05 225:0.09567517 226:-0.098944888 227:0.19520286 228:0.062049549 229:-0.022360871 230:-0.051087484 231:0.053944644 232:1.3530498e-05 233:0.11118552 234:-0.30946505 235:3.9391747e-05 236:-2.7316963e-05 237:-0.045817669 238:-0.0068420782 239:0.051630795 240:3.7413371e-05 241:0.10301785 242:-0.12197455 243:-0.040896811 244:-4.4039611e-05 245:-5.5327011e-05 246:0.029137827 247:0.12490024 248:-0.11619297 249:-2.9892532e-05 250:-1.1401286e-05 251:-5.4210308e-05 252:0.081193991 253:-0.017828126 254:1.7263657e-05 255:-3.5238667e-05 256:-5.0138904e-05 257:-2.6793554e-05 258:0.21130683 259:-2.0582089e-05 260:0.093766153 261:-0.023025384 262:-2.9548519e-05 263:0.093786471 264:0.024354583 265:-2.5367657e-05 266:-1.6573769e-05 267:-0.1087497 268:-4.1220217e-05 269:-0.00065517635 270:-0.016448723 271:-0.0025774993 272:-0.36633125 273:-1.5232621e-05 274:3.0243915e-05 275:0.21208814 276:0.098997846 277:1.0248436e-05 278:-3.0918953e-05 279:0.033698268 280:-0.22769678 281:8.0276368e-06 282:-0.12793539 283:-1.0300711e-05 284:4.4413886e-05 285:0.136545 286:0.11090207 287:-3.1353833e-05 288:-0.071764991 289:-2.4931416e-05 290:3.0255303e-05 291:0.21093364 292:-1.449808e-05 293:-2.2165859e-05 294:5.1970874e-05 295:-2.2765895e-05 296:-1.8139077e-05 297:-0.030452009 298:-0.01549822 299:2.2044242e-05 300:1.3897038e-05 301:-3.0339605e-05 302:0.22024138 303:-0.14104755 304:3.1633939e-05 305:0.048344329 306:-2.2469687e-05 307:-1.2181654e-05 308:-3.2582611e-05 309:4.7168065e-05 310:-0.0065143541 311:-3.5479199e-05 312:0.015498189 313:1.7114791e-05 314:7.1101213e-06 315:3.0483976e-05 316:-2.0131154e-05 317:-5.1116309e-05 318:-3.1626943e-05 319:0.051328797 320:-3.566144e-05 321:-0.11272429 322:0.030772168 323:5.4131582e-05 324:0.136545 325:-0.15033752 326:3.2402182e-05 327:1.7731236e-05 328:-0.087119102 329:-0.13723367 330:0.11272427 331:-0.00088490988 332:0.069696434 333:-0.11233313 334:0.010330828 335:-0.070416398 336:-0.019155389 337:-0.1880272 338:-4.7815665e-05 339:-0.065602921 340:0.15838407 341:-0.10873888 342:3.4499397e-05 343:4.1270076e-05 344:-0.14318329 345:2.8068553e-05 346:0.037027106 347:0.20004037 348:3.0861102e-05 349:-0.049838133 350:2.2833494e-05 351:0.28362486 352:0.057509679 353:3.6614387e-05 354:-0.29054525 355:0.19369239 356:-5.2363062e-05 357:1.3529958e-05 358:0.049813416 359:0.065186486 360:0.078676902 361:0.077326499 362:0.054758314 363:-0.31828389 364:0.11089721 365:8.9685076e-05 366:-0.18845688 367:-0.14500475 368:-0.090163589 369:3.3049131e-05 370:-2.0241625e-05 371:0.0037089235 372:2.235478e-05 373:-0.11107039 374:-2.295269e-05 375:1.4346135e-05 376:5.1331623e-05 377:0.01880957 378:-0.096927576 379:2.2280501e-05 380:0.019389767 381:2.2687271e-05 382:0.044481926 383:4.484861e-05 384:-0.079151601 385:0.011235161 386:-0.09416315 387:3.2815267e-05 388:3.2017204e-05 389:-2.9024028e-05 390:-0.18944108 391:4.4341014e-05 392:-0.052655365 393:-0.08734145 394:-2.1388161e-05 395:-5.7530895e-05 396:-0.38608089 397:0.033698268 398:3.0451217e-06 399:0.11015029 400:4.6083544e-05 401:-1.6075992e-05 402:0.038183022 403:1.2257753e-05 404:0.33210918 405:-0.032760896 406:2.0645417e-05 407:0.18745866 408:-0.29341871 409:-2.3790266e-05 410:-0.0048305532 411:-0.083589032 412:2.1949227e-05 413:2.6882062e-05 414:-5.4478391e-05 415:-0.26789713 416:-0.26354983 417:-1.2884158e-05 418:-4.8870857e-05 419:-0.027333658 420:-0.015389677 421:4.592539e-05 422:-0.027333634 423:-0.11233313 424:0.11811128 425:0.020266237 426:-0.007929761 427:0.10931401 428:3.8378726e-05 429:0.49496648 430:-3.4527809e-05 431:-5.1330582e-05 432:-3.4020206e-05 433:0.085387178 434:-0.026531624 435:0.0041206144 436:-2.6937658e-05 437:5.7796547e-05 438:2.4799074e-05 439:-1.3314629e-05 440:5.9315509e-05 441:-0.088463098 442:0.21130683 443:-0.11722836 444:-2.0212343e-05 445:-0.13774088 446:0.28729782 447:2.5798583e-05 448:0.20294666 449:-3.3154123e-05 450:-2.2060767e-05 451:5.4741704e-05 452:-2.802848e-05 453:-8.4204921e-06 454:0.0060668094 455:-3.6932634e-05 456:2.8473309e-05 457:0.37037796 458:-0.024981029 459:-0.045799632 460:0.13500844 461:-0.07185857 462:1.8587465e-05 463:0.028515959 464:0.1630716 465:0.064876974 466:0.023331277 467:4.6405745e-05 468:0.078676917 469:4.7864327e-05 470:-2.5941241e-05 471:-1.7593713e-05 472:-1.3410797e-05 473:-0.015180296 474:-0.023829514 475:0.024705855 476:1.940838e-05 477:-0.054511949 478:2.2539212e-05 479:-0.12057986 480:2.8843575e-05 481:6.4273318e-06 482:3.6139147e-05 483:0.069713153 484:3.0245834e-05 485:0.06354294 486:-5.3450447e-05 487:0.18944108 488:-4.6382585e-05 489:-3.1332103e-05 490:-0.22705163 491:5.478524e-05 492:0.025053194 493:9.0486676e-05 494:2.6130419e-05 495:0.3342931 496:-0.098944895 497:0.25278294 498:-0.066635326 499:0.075286373 500:-1.9767829e-05 501:3.8860766e-05 502:0.060732216 503:4.9915765e-05 504:0.31442454 505:-0.019450953 506:-0.11995363 507:-0.22024138 508:-0.081898689 509:-0.17879069 510:-0.0039626504 511:-0.45796233 512:-0.0026897432 
1 1:-3.7202808e-05 2:-3.0517578e-05 3:0.098028027 4:-0.018151257 5:-0.078898415 6:0.058480833 7:0.012267942 8:0.52669817 9:-0.1299053 10:-0.0022703374 11:-0.015555172 12:-0.037149068 13:3.1869382e-05 14:-0.01608873 15:-0.041966479 16:7.3355128e-05 17:0.014698702 18:0.031848311 19:-0.043905817 20:3.3057651e-05 21:-0.010583824 22:3.3362569e-05 23:-0.020023352 24:-0.2763302 25:2.0145029e-05 26:-5.8932648e-05 27:-3.8742555e-06 28:0.27959862 29:-2.259646e-05 30:2.39609e-05 31:-2.5046942e-05 32:4.9746261e-05 33:-4.14848e-05 34:2.9987941e-06 35:-1.6662349e-05 36:0.29561815 37:2.9511628e-05 38:-2.3396407e-05 39:0.044466622 40:-1.2193345e-05 41:-2.8703391e-05 42:3.3385502e-05 43:0.16039115 44:4.1282005e-05 45:2.9437042e-05 46:0.08487694 47:0.035574686 48:0.080537826 49:1.4386124e-05 50:-1.5882466e-05 51:0.014367061 52:3.2559805e-05 53:0.32876959 54:-1.9522124e-05 55:-0.096499287 56:0.036580216 57:3.0065283e-05 58:-0.053667463 59:-0.005711583 60:8.2934994e-06 61:0.37733996 62:4.0530846e-05 63:-5.878602e-05 64:0.03928443 65:-1.4841709e-05 66:-2.225276e-05 67:0.035246 68:0.21084049 69:4.7790207e-05 70:2.2577871e-05 71:3.8367831e-05 72:-0.019196684 73:-2.1888398e-05 74:0.14508128 75:3.3661599e-05 76:0.079663485 77:-0.28686991 78:-2.7798405e-05 79:-0.052056674 80:-4.5566168e-05 81:-1.8338782e-05 82:-0.045212723 83:0.40446201 84:-0.090014935 85:-0.016899835 86:-5.0995663e-05 87:-3.242047e-05 88:0.03623822 89:0.10086641 90:-0.45406049 91:0.27861372 92:0.07773824 93:0.051773217 94:0.0088529671 95:-0.012324446 96:-0.044100706 97:0.14457007 98:-0.046857387 99:-0.038583741 100:3.4013192e-05 101:-0.0094928956 102:-0.41041201 103:-0.027808655 104:0.0099772532 105:-0.0037871758 106:2.7123426e-05 107:-6.4336702e-05 108:6.1207584e-06 109:-0.067458384 110:-3.0373985e-05 111:-0.036235102 112:-0.015555209 113:0.016489817 114:-4.2651827e-05 115:3.2075826e-05 116:-1.3256149e-05 117:3.9098522e-05 118:-0.016307477 119:3.5723213e-05 120:-0.11247242 121:2.6946975e-05 122:1.0485602e-05 123:-3.5290199e-05 124:2.2949169e-05 125:5.7756934e-05 126:-1.8688124e-05 127:0.14935927 128:0.28119594 129:-0.11112992 130:-4.1006762e-05 131:-0.011938791 132:-0.0033147982 133:2.2746461e-05 134:1.6084179e-05 135:-0.2969377 136:0.36948276 137:4.5064404e-05 138:-1.0704116e-05 139:-3.6980495e-05 140:-4.0530846e-05 141:-0.079237074 142:-1.15189e-05 143:-0.26911727 144:0.19803163 145:0.0049323007 146:-0.02672668 147:-0.077835105 148:0.016088743 149:0.0091883298 150:-0.31188858 151:0.11247241 152:0.22621426 153:-0.026376305 154:-6.7332978e-05 155:-2.7777725e-05 156:0.025764713 157:2.0876287e-05 158:-1.0370609e-05 159:4.0049275e-05 160:-0.059755556 161:0.11965989 162:-2.9628705e-05 163:0.00910783 164:-2.3394736e-05 165:-0.019310419 166:-2.9588207e-05 167:4.7441503e-05 168:0.0072664693 169:-1.8911636e-05 170:-0.017458398 171:0.010847598 172:2.9833549e-05 173:-8.9263551e-05 174:-2.2960376e-05 175:-4.1240721e-05 176:1.7054892e-05 177:-0.31980664 178:-3.5157998e-05 179:5.6381286e-05 180:0.028944021 181:-0.1281675 182:0.055283438 183:-4.8874193e-05 184:0.34813482 185:-0.19581735 186:3.2168351e-05 187:-3.503171e-05 188:0.18866085 189:-0.029221855 190:0.064756006 191:-5.8764195e-05 192:7.6074557e-06 193:0.018866645 194:2.4171341e-05 195:2.7463868e-05 196:-0.012235261 197:-0.14640783 198:2.1416969e-05 199:-0.00227018 200:-5.3769611e-05 201:4.9834998e-05 202:0.040605038 203:-2.1749938e-05 204:-2.2250624e-05 205:3.1291194e-05 206:0.059841216 207:0.055714287 208:0.068286464 209:-0.0037872754 210:-0.012867506 211:0.2160341 212:3.9084349e-05 213:-3.0594896e-05 214:3.3927456e-05 215:-0.024466192 216:5.6620946e-05 217:0.040541589 218:6.5160377e-05 219:-0.0040910332 220:3.597964e-05 221:0.016088797 222:-9.3214912e-06 223:6.4040491e-05 224:8.5595675e-05 225:-2.5258792e-05 226:-0.070551701 227:0.16375896 228:0.13886903 229:0.1674376 230:-0.033485699 231:1.9031055e-05 232:-0.076998152 233:0.16122769 234:-0.20141026 235:0.066590846 236:2.8755019e-05 237:-0.069078937 238:-0.0042023398 239:5.9315516e-05 240:0.010583739 241:0.16065302 242:-0.19865912 243:-0.050966188 244:0.029098673 245:2.3815208e-05 246:0.01935426 247:0.0037697798 248:0.090108 249:-8.419247e-06 250:4.275133e-05 251:-0.03915764 252:0.11642632 253:-0.026726624 254:-2.1500195e-05 255:-0.0096754469 256:-4.9313148e-05 257:-0.0025335157 258:0.35470429 259:-3.8568498e-05 260:0.060309008 261:0.079898298 262:-2.8319113e-05 263:5.3707663e-05 264:6.2707666e-05 265:1.8426737e-05 266:0.051773198 267:-0.1765022 268:3.218092e-05 269:-0.040089041 270:-0.038608141 271:-1.8755802e-05 272:-0.53264153 273:0.0052216011 274:1.5393087e-05 275:0.08902055 276:0.053893641 277:-0.040323082 278:-0.051463448 279:1.855647e-05 280:-2.3856688e-05 281:3.9006012e-05 282:0.11196187 283:-4.7650363e-05 284:3.4496719e-05 285:0.065924838 286:0.10394259 287:-0.010847372 288:5.9389953e-05 289:3.8623417e-05 290:3.8323429e-05 291:0.0033150059 292:-0.029075528 293:-2.640903e-05 294:4.7398058e-05 295:4.8386381e-05 296:-0.0048892195 297:0.067551881 298:-0.038557325 299:-4.9116028e-05 300:0.0052216067 301:5.0480787e-05 302:0.22933313 303:-0.059895914 304:-4.8082937e-05 305:0.078025974 306:-4.1555344e-05 307:0.23822995 308:-1.9274954e-05 309:-5.1869909e-05 310:-0.05571432 311:-2.95805e-05 312:0.038557317 313:5.0622799e-05 314:-1.2747407e-05 315:4.7848829e-05 316:-0.0049139387 317:-6.2707666e-05 318:-0.011731667 319:0.057643749 320:5.0826293e-05 321:0.016015168 322:-0.062308576 323:4.0145947e-05 324:0.085197978 325:-0.059895895 326:0.06042131 327:-0.00031657249 328:-0.12861629 329:0.0099458937 330:-1.1928344e-05 331:0.0097200386 332:0.059841212 333:-0.23508939 334:0.046720698 335:-0.0031434065 336:-0.024435977 337:-0.2262125 338:1.3486743e-05 339:7.6124219e-05 340:-0.055615794 341:0.057902101 342:-4.7179528e-05 343:-1.9965244e-05 344:-3.701984e-05 345:2.7279459e-05 346:0.061529551 347:0.1339862 348:-0.051695175 349:0.031352222 350:-1.471764e-05 351:0.33308989 352:-4.8118127e-05 353:9.4888883e-06 354:2.819273e-05 355:0.15970244 356:-3.5043398e-05 357:-0.018151259 358:0.020392813 359:0.068286471 360:0.06494543 361:0.079003453 362:0.083729833 363:-0.56983525 364:0.13350749 365:5.3631691e-05 366:-0.065520108 367:-0.066637695 368:-0.075200848 369:0.045040287 370:-1.3145993e-05 371:6.8389782e-05 372:3.6204099e-05 373:-0.1039426 374:3.065652e-05 375:-1.2147495e-05 376:-0.036399834 377:0.011573514 378:-0.16039115 379:5.4339882e-05 380:0.015451611 381:-1.8651275e-05 382:0.19775459 383:0.013617546 384:0.0026629586 385:2.2024165e-05 386:-0.17277785 387:2.6913975e-05 388:1.1514518e-05 389:-0.19596593 390:-0.19588622 391:4.3158372e-05 392:-5.4780739e-05 393:-0.11066987 394:-0.0028745208 395:-4.3978529e-05 396:-0.17224842 397:1.4874655e-05 398:-2.9750037e-05 399:0.15713806 400:-2.785861e-05 401:-3.9603776e-05 402:-0.012740082 403:4.5492921e-05 404:0.32866123 405:-2.8871593e-05 406:-1.245875e-05 407:0.07783509 408:-0.37818614 409:1.0232665e-05 410:4.4559267e-05 411:-0.062166702 412:3.3553741e-05 413:4.5750639e-05 414:-3.5816651e-05 415:-0.32066175 416:-0.42390844 417:1.5920417e-05 418:-3.9785431e-05 419:-0.059874222 420:4.1056021e-05 421:5.6827514e-05 422:-0.059735566 423:-0.22700101 424:0.11500805 425:0.0062987879 426:-0.028232593 427:0.16678835 428:3.231156e-05 429:0.51047969 430:-0.033212122 431:3.4592646e-05 432:4.2171061e-05 433:-0.05463751 434:1.6309392e-05 435:-0.014367007 436:3.5281661e-05 437:6.9386348e-05 438:0.0025450452 439:-0.0036069001 440:-0.013617286 441:3.7376249e-05 442:0.35161629 443:-0.07966347 444:3.1250602e-05 445:-1.692604e-05 446:0.10545503 447:2.7161021e-05 448:-3.603732e-05 449:-2.6137852e-05 450:-5.3000753e-05 451:-4.8627935e-05 452:9.77129e-06 453:-1.4828878e-05 454:-0.025281832 455:-4.6494632e-05 456:-5.5773518e-05 457:0.43925655 458:-0.014174695 459:-0.013032787 460:0.10324145 461:0.010004382 462:0.013289767 463:3.2696749e-05 464:-0.10928627 465:0.050824672 466:0.029822152 467:-6.3527405e-05 468:0.064945415 469:-0.076665729 470:-1.008152e-05 471:8.5397287e-06 472:4.1961794e-05 473:-0.016449871 474:-0.0094927112 475:0.04685735 476:-7.8009871e-06 477:-0.1140987 478:0.0025333907 479:-0.054637518 480:-0.063359067 481:3.424516e-05 482:-2.2040345e-05 483:0.034065407 484:-0.054140985 485:0.13095666 486:-1.4415999e-05 487:0.25119853 488:-5.9895188e-05 489:2.6190375e-05 490:-0.2573832 491:8.2289072e-05 492:-4.7716803e-06 493:8.2937688e-05 494:-3.1212439e-05 495:0.45456117 496:-0.067605838 497:0.2763302 498:-0.15761194 499:0.15705624 500:3.0514126e-05 501:5.3042128e-05 502:0.13793391 503:-2.0945381e-05 504:0.37733996 505:1.0815871e-05 506:-0.13680212 507:-0.21295527 508:-0.036235064 509:-0.096509442 510:-0.02178474 511:-0.41041201 512:0.23822995 
1 1:-4.4048365e-06 2:-4.255473e-05 3:0.15947495 4:-0.066769019 5:-0.059800103 6:0.039687477 7:-4.5588342e-05 8:0.47235003 9:-0.22937824 10:-3.0674761e-05 11:4.4938653e-05 12:-0.039260667 13:7.1150891e-05 14:1.482267e-05 15:-4.7095171e-05 16:6.7476903e-05 17:0.0058602449 18:0.088706754 19:-0.059949815 20:5.5335086e-06 21:-3.8358314e-05 22:-3.0336649e-05 23:-0.12528917 24:-0.24522217 25:-3.0331834e-05 26:-5.7593385e-05 27:-3.8809558e-05 28:0.09603706 29:0.016586034 30:1.6195067e-05 31:-2.1579186e-05 32:4.6227557e-05 33:-3.2788386e-05 34:1.5582662e-05 35:1.1696805e-05 36:0.12947451 37:-3.5027784e-05 38:-2.5567539e-05 39:0.067435563 40:4.643017e-05 41:3.5965313e-05 42:-1.4642827e-05 43:0.077404425 44:-2.0427229e-05 45:-4.7094432e-05 46:0.070929393 47:0.01077185 48:0.14609176 49:5.0862677e-06 50:-3.2469776e-05 51:5.3428389e-06 52:-1.5115962e-05 53:0.22698306 54:3.0390489e-05 55:-0.19179839 56:0.065497473 57:3.8763756e-05 58:-0.14293562 59:0.10081755 60:-0.0066257147 61:0.34644681 62:-3.9813422e-05 63:-6.1151157e-05 64:0.015258448 65:-2.7104867e-05 66:-0.003642645 67:0.010771996 68:0.19784385 69:5.297258e-05 70:-1.6821234e-05 71:1.6129008e-05 72:3.596531e-05 73:-1.5510173e-05 74:0.14840831 75:4.7849382e-05 76:0.096480519 77:-0.1749813 78:-2.9592973e-05 79:-0.018747667 80:-3.497053e-05 81:-3.47768e-05 82:-0.0316981 83:0.24622515 84:-0.11663586 85:-0.083412439 86:-3.3120814e-05 87:4.5312365e-05 88:0.014967739 89:0.078292608 90:-0.43775731 91:0.22389862 92:0.065201573 93:0.039415572 94:0.10081755 95:-4.0690105e-05 96:-0.070513494 97:0.19184522 98:-0.0077348701 99:-0.039260648 100:3.3016357e-05 101:-0.074352026 102:-0.50140435 103:-0.075475492 104:0.003901311 105:-0.012569408 106:-3.0295485e-05 107:-6.3527405e-05 108:1.0938423e-05 109:-0.030711444 110:-5.6123255e-05 111:-0.11753014 112:4.7204805e-05 113:-1.7318584e-05 114:-2.3076364e-05 115:4.3648364e-05 116:-1.9595738e-05 117:-1.4553906e-05 118:-0.068184353 119:4.8955142e-05 120:-0.080548614 121:1.7590643e-05 122:-3.3866712e-05 123:-3.2742017e-05 124:-1.5874524e-05 125:6.2025887e-05 126:-0.0059484602 127:0.15588273 128:0.12783967 129:-0.090476803 130:-2.1220296e-05 131:1.0789595e-05 132:-2.4159748e-05 133:4.0210442e-05 134:-1.0172523e-05 135:-0.17693852 136:0.18111211 137:1.5676915e-05 138:-4.0899202e-05 139:3.5693258e-05 140:3.823165e-05 141:-0.26887441 142:-2.6566788e-05 143:-0.24262513 144:0.11034674 145:0.1088831 146:-0.13706408 147:-0.11708982 148:2.1728525e-05 149:0.03329454 150:-0.22066079 151:0.080548599 152:0.36344481 153:0.098402791 154:-6.2740124e-05 155:-2.7759443e-05 156:0.098402791 157:4.6687677e-05 158:-1.9200759e-05 159:1.4386124e-05 160:-0.052693944 161:0.27808511 162:2.6763659e-05 163:-3.9749422e-05 164:2.1751575e-05 165:-0.12528917 166:-3.5506142e-05 167:2.2908891e-05 168:3.1488024e-05 169:0.0085607953 170:-3.3356278e-05 171:5.4181332e-05 172:-3.0700554e-05 173:-9.5426753e-05 174:-5.5871791e-05 175:2.982089e-06 176:-7.5753951e-06 177:-0.26553598 178:-3.2873897e-05 179:3.9039925e-05 180:0.002470603 181:-0.13693751 182:0.11547282 183:-3.6682206e-05 184:0.39856395 185:-0.14638822 186:4.1787913e-05 187:1.7982653e-05 188:0.12144185 189:-0.083249159 190:-0.0039011072 191:-0.012569593 192:4.2758864e-05 193:-3.1680345e-05 194:-3.9962706e-05 195:-1.7525503e-05 196:3.1247524e-05 197:-0.21061093 198:-2.48833e-05 199:-3.1291878e-05 200:-4.6029127e-05 201:-2.0345053e-05 202:-0.1220271 203:3.1432712e-05 204:-8.0420914e-06 205:-1.6938269e-05 206:0.11401152 207:0.013586143 208:0.045498226 209:-3.3401302e-05 210:-0.0090810442 211:0.32931975 212:3.6386158e-05 213:-4.5625748e-05 214:-2.4100085e-05 215:-0.12224191 216:-3.6380367e-05 217:0.16970433 218:2.8512453e-05 219:4.7796126e-05 220:3.042752e-05 221:2.2549946e-05 222:0.0050732954 223:3.793947e-05 224:6.7719739e-05 225:3.8153587e-05 226:-0.071825132 227:0.17345504 228:0.10097685 229:0.10587736 230:-0.058975626 231:2.6943997e-05 232:-0.15974627 233:0.13742957 234:-0.27325282 235:0.069702126 236:4.5639197e-05 237:-0.040823184 238:-3.1490894e-05 239:9.5155274e-06 240:1.3958296e-05 241:0.087951645 242:-0.18054068 243:-0.030918356 244:0.010040274 245:4.1853622e-05 246:0.068184339 247:0.02139328 248:0.038835991 249:2.4346851e-05 250:-1.9482186e-05 251:-0.033740196 252:0.16611621 253:-0.13706408 254:6.9697926e-06 255:3.2168351e-05 256:2.4124254e-05 257:2.7974447e-05 258:0.26881289 259:1.8945904e-05 260:0.011424047 261:0.03811964 262:-3.1763699e-05 263:2.2509768e-05 264:5.3827946e-05 265:-3.9887458e-05 266:0.039415576 267:0.047280278 268:1.8574221e-05 269:7.6979624e-05 270:3.9538907e-05 271:-4.2635384e-05 272:-0.54351449 273:1.7222415e-05 274:-3.1299503e-05 275:0.1559938 276:0.17968339 277:-0.076784365 278:-0.023944953 279:2.2018894e-05 280:-3.8735827e-05 281:1.0882124e-05 282:-0.11384591 283:-1.233066e-05 284:-4.0640403e-05 285:-0.13492122 286:0.11486792 287:2.5934954e-05 288:-1.3071399e-05 289:-3.1943662e-05 290:1.9401392e-05 291:2.945581e-05 292:-0.060431596 293:-2.7998585e-05 294:4.5130793e-05 295:3.5845154e-05 296:2.0671629e-05 297:0.084597908 298:-0.072658382 299:-6.0737821e-05 300:3.0975814e-05 301:-5.9808113e-05 302:0.21703742 303:-0.13367935 304:-0.019671919 305:0.14314111 306:-2.3991024e-05 307:0.18885167 308:-3.2556174e-05 309:-5.1619932e-05 310:-0.013586193 311:-4.7441503e-05 312:0.072658367 313:4.1816285e-05 314:-2.1178686e-05 315:3.47768e-05 316:-0.024202982 317:-6.1035156e-05 318:-3.2834341e-05 319:0.031908385 320:2.1010712e-05 321:-3.3585282e-05 322:0.010405228 323:-2.8959666e-05 324:0.023088437 325:-0.13367935 326:0.19125903 327:-3.3663924e-05 328:-0.22121361 329:-0.01272419 330:0.0059484532 331:2.1621763e-05 332:0.11401151 333:-0.16377059 334:0.059097253 335:-0.0060542957 336:-0.068785429 337:-0.16051081 338:2.9254617e-05 339:-0.0066408203 340:0.011292006 341:0.017302355 342:-2.9300607e-05 343:-1.5298756e-05 344:-3.271642e-05 345:-2.8739612e-05 346:-0.17269504 347:0.10722542 348:-0.023944883 349:0.0090138381 350:3.1409276e-05 351:0.312866 352:-3.6866451e-05 353:4.120409e-05 354:4.1933316e-05 355:0.14295134 356:-2.8627754e-05 357:-0.066769034 358:-4.9834998e-05 359:0.045498237 360:0.013146634 361:0.059800077 362:0.07903152 363:-0.40758276 364:0.18425626 365:6.4051761e-05 366:2.9892788e-05 367:-0.018760126 368:-0.076421 369:0.033740193 370:-3.4644723e-05 371:4.5699519e-05 372:-2.3392249e-05 373:-0.11486791 374:-4.1515908e-05 375:2.8467932e-05 376:-0.15812773 377:0.068785369 378:-0.07740441 379:1.3872893e-05 380:0.0058604642 381:3.1689684e-05 382:0.11034674 383:2.2170505e-05 384:0.0060507865 385:1.6869226e-05 386:-0.1078999 387:2.7390364e-05 388:1.4329818e-05 389:-0.14482346 390:-0.079713225 391:3.733296e-05 392:-0.010405444 393:-0.077477694 394:1.5282541e-05 395:-4.3530341e-05 396:-0.18411621 397:-3.4637043e-05 398:-2.4438386e-05 399:0.060398981 400:2.6099373e-05 401:-1.862082e-05 402:-1.0408213e-05 403:-1.4828876e-05 404:0.22662647 405:-3.4428267e-05 406:3.3216108e-06 407:0.11708981 408:-0.21176887 409:2.6250897e-05 410:5.7057481e-05 411:-2.4453728e-05 412:2.0151045e-05 413:4.5950612e-05 414:-3.8919461e-05 415:-0.31221634 416:-0.29385483 417:4.9574759e-05 418:-1.842631e-05 419:2.7507223e-05 420:-0.013655547 421:-1.2930915e-05 422:3.9157141e-05 423:-0.16655457 424:0.1864506 425:0.0086462041 426:2.7854512e-05 427:0.13913791 428:3.7236954e-05 429:0.64529383 430:-4.9400493e-05 431:4.0640403e-05 432:-2.6687976e-05 433:-0.21621653 434:-3.3080934e-05 435:4.0948045e-05 436:1.5318761e-05 437:7.1139526e-05 438:8.6687342e-06 439:-0.024848167 440:5.9315513e-05 441:1.5590327e-05 442:0.24400547 443:-0.096480496 444:3.0970565e-05 445:4.0064417e-05 446:0.18710096 447:6.4822008e-05 448:-3.5404126e-05 449:4.0942228e-05 450:-3.2074826e-05 451:1.9697391e-05 452:2.5371353e-05 453:4.3008258e-05 454:-0.01605122 455:-3.0047726e-05 456:3.0895426e-05 457:0.41870612 458:-0.0052188998 459:-0.068788894 460:0.086721316 461:-1.8363291e-05 462:0.019198831 463:-3.8196245e-05 464:-0.062686108 465:0.11998688 466:0.029354054 467:-2.1876844e-05 468:0.013146543 469:-0.026244521 470:-4.4993492e-05 471:-0.015433412 472:3.2614305e-05 473:2.9176823e-05 474:-0.074352026 475:0.0077346852 476:2.917345e-05 477:-0.086702526 478:-2.8272621e-05 479:-0.21659064 480:-0.05419651 481:-1.8803359e-05 482:-1.2747407e-05 483:0.098348163 484:-0.028857471 485:0.27957842 486:-1.4032439e-05 487:0.12670322 488:-4.7560639e-05 489:2.8926375e-05 490:-0.17191824 491:0.019671995 492:-1.7212917e-05 493:0.00011928961 494:-2.3002463e-05 495:0.24908671 496:-0.071825132 497:0.24522218 498:-0.10559776 499:0.105666 500:2.0520887e-05 501:5.5070868e-05 502:0.10097685 503:2.2534763e-05 504:0.34644678 505:-3.0049576e-05 506:-0.13725087 507:-0.26437703 508:-0.11753013 509:-0.04265685 510:-0.056106828 511:-0.50140435 512:0.18885167 
0.0862415445942305 1:0.22625086 2:0.099422723 3:0.11327398 4:-0.021997316 5:-0.064101167 6:-0.2977227 7:0.054097321 8:-0.22510354 9:0.042095661 10:-0.35020599 11:0.15416007 12:-0.24187486 13:-0.030835606 14:0.039590757 15:-0.034576219 16:-0.13980232 17:0.061888922 18:0.042663079 19:0.12242917 20:-0.031900432 21:0.032252826 22:0.22294903 23:-0.09778142 24:0.046630371 25:0.014432645 26:0.019968772 27:0.075876668 28:-0.28523725 29:0.048783127 30:-0.18868114 31:0.058548354 32:-0.044630773 33:-0.17921317 34:0.087545343 35:-0.015951686 36:-0.0048199627 37:-0.21892218 38:0.20812742 39:0.034924977 40:-0.21064144 41:0.0274246 42:-0.015616335 43:0.080847025 44:0.16985522 45:0.020991269 46:-0.15331237 47:-0.065024607 48:0.085689373 49:0.26670432 50:0.014809408 51:0.031562924 52:0.083260514 53:-0.073799625 54:0.045062035 55:-0.054535039 56:0.099438243 57:0.20320153 58:0.063897267 59:-0.029570641 60:0.074818827 61:-0.033271696 62:0.072390482 63:-0.037978765 64:0.12456674 65:-0.042191774 66:-0.092431605 67:-0.26718354 68:0.053220145 69:-0.023884457 70:0.074376069 71:0.025888273 72:-0.15703933 73:0.14550368 74:-0.039517105 75:0.03648806 76:0.022716414 77:-0.18947405 78:0.035907421 79:0.013801907 80:-0.1798984 81:0.11581884 82:0.063715309 83:-0.062517807 84:0.44313762 85:-0.090970762 86:0.16091378 87:-0.0084787933 88:0.15127534 89:-0.24042225 90:0.062660255 91:-0.18776646 92:0.002373406 93:-0.17418599 94:0.15260443 95:-0.22548479 96:-0.089376912 97:-0.029590676 98:-0.073120601 99:0.013081201 100:-0.15703149 101:0.11147209 102:-0.027618036 103:-0.015340262 104:-0.043682173 105:-0.10841992 106:0.082730256 107:-0.39252076 108:0.095517099 109:-0.090780154 110:-0.041044831 111:-0.15248832 112:-0.2246747 113:0.11666504 114:0.11419863 115:0.068335555 116:-0.24732634 117:0.21928467 118:-0.019633126 119:-0.051453944 120:-0.24170946 121:-0.049432453 122:-0.042824499 123:0.010212339 124:-0.19748457 125:-0.0093439939 126:-0.17349029 127:0.0066084163 128:-0.1510125 129:0.029287471 130:-0.16608076 131:-0.14803669 132:0.010514808 133:0.030646401 134:0.10908311 135:0.059427943 136:0.014852053 137:0.22277454 138:-0.18803485 139:0.028278846 140:-0.28804639 141:-0.099835187 142:-0.2328483 143:0.077920832 144:0.010432425 145:0.16270876 146:0.039070878 147:0.15212439 148:-0.088976331 149:0.11460683 150:0.01629648 151:-0.081460193 152:0.057671834 153:0.14163908 154:0.016598662 155:-0.018559305 156:0.045479193 157:-0.01268355 158:-0.046470352 159:-0.070292607 160:-0.062809929 161:0.11098124 162:0.024473732 163:0.088846393 164:-0.049302589 165:0.3063927 166:-0.075590365 167:0.016132656 168:-0.058144305 169:0.085244238 170:-0.021346651 171:0.036400896 172:-0.096887067 173:-0.052848272 174:0.083593085 175:-0.048760641 176:0.067631401 177:-0.014530882 178:-0.05836536 179:-0.082040474 180:-0.043784056 181:0.079615518 182:-0.040126827 183:-0.13988554 184:-0.10395067 185:0.063275889 186:-0.24699545 187:-0.1788206 188:0.036869027 189:0.076888509 190:0.077658944 191:-0.14441563 192:-0.10713636 193:-0.047761913 194:-0.050866019 195:-0.14090081 196:0.10949805 197:-0.072972149 198:0.0087562846 199:0.3231315 200:-0.0754591 201:0.10970104 202:-0.025292266 203:-0.067090467 204:-5.7413516e-05 205:-0.070163019 206:-0.046915904 207:0.29189527 208:0.054762643 209:-0.11032103 210:-0.26978925 211:-0.049069591 212:-0.12986945 213:-0.050444361 214:-0.087105826 215:0.34533429 216:0.027585711 217:-0.040673111 218:-0.19667432 219:-0.18129107 220:0.17559971 221:0.013055276 222:-0.47457805 223:-0.022156728 224:0.023360556 225:0.069165483 226:0.032610316 227:-0.040191073 228:-0.053814769 229:0.013062319 230:-0.36940983 231:0.043435533 232:-0.33872187 233:0.075997137 234:-0.13193412 235:0.025504971 236:0.19938421 237:-0.22535247 238:-0.034618095 239:-0.028891901 240:-0.050810952 241:0.016416047 242:-0.0067019467 243:0.086694315 244:0.18830527 245:-0.019601371 246:0.084256306 247:0.0092503587 248:0.276436 249:0.038815416 250:0.067753583 251:-0.056642842 252:0.13583367 253:0.0086054755 254:0.048145615 255:-0.057539407 256:-0.098250963 257:0.078436524 258:0.021915073 259:0.014423868 260:0.1422274 261:0.047982033 262:0.014914687 263:-0.1040429 264:0.25292736 265:-0.2618044 266:0.023784023 267:0.016765958 268:0.33743736 269:0.13236634 270:0.079161122 271:-0.009416162 272:-0.05464185 273:-0.24527442 274:-0.013104333 275:-0.19592546 276:-0.19572987 277:-0.070548154 278:-0.14649749 279:-0.020738769 280:0.033853378 281:-0.070732765 282:-0.081367396 283:-0.0540847 284:-0.028914809 285:0.035165478 286:0.17678329 287:0.024605887 288:0.062165648 289:-0.043139458 290:0.25726458 291:0.14691995 292:0.077063233 293:-0.054873213 294:0.049217403 295:-0.068914779 296:-0.038648546 297:0.17512316 298:0.34021822 299:0.01798578 300:-0.039435744 301:-0.18345283 302:-0.041203409 303:-0.14806737 304:-0.064627528 305:0.0068262196 306:0.042309318 307:-0.12414465 308:-0.033627618 309:-0.34301466 310:0.071456149 311:-0.049547844 312:0.03016841 313:0.051993795 314:-0.057523079 315:-0.080973975 316:-0.066784233 317:0.0079104863 318:-0.026903354 319:0.19646108 320:-0.042744871 321:-0.44507262 322:-0.20285404 323:-0.067488119 324:-0.00069052732 325:-0.058784343 326:-0.13546285 327:0.04604131 328:0.11904845 329:-0.079440236 330:0.43410942 331:-0.028569164 332:-0.044221207 333:0.026415963 334:-0.031716455 335:-0.045568518 336:-0.048364308 337:0.026391882 338:0.038755648 339:0.084547624 340:-0.23163046 341:0.082297392 342:-0.077439018 343:-0.040944092 344:-0.26127359 345:0.092817858 346:-0.091195621 347:-0.35548204 348:-0.059107341 349:0.20917384 350:-0.051639929 351:0.1217759 352:0.12914138 353:0.13693188 354:-0.11351591 355:-0.3332307 356:-0.069195278 357:-0.029702453 358:-0.040533748 359:-0.059336826 360:-0.061186124 361:0.43020773 362:-0.066393487 363:0.29751536 364:-0.068624809 365:-0.184305 366:-0.047476757 367:0.028978936 368:-0.10139925 369:0.025632637 370:-0.051460721 371:0.056173198 372:-3.2168351e-05 373:-0.053864133 374:-0.063084669 375:0.051085025 376:0.15640302 377:-0.10026304 378:-0.049164645 379:0.29448333 380:0.16015846 381:-0.11126745 382:0.16965306 383:0.41242132 384:-0.0029931979 385:0.062042274 386:-0.13823488 387:0.25501263 388:0.25892499 389:-0.024672206 390:-0.087101713 391:0.2902135 392:0.055047426 393:-0.039434828 394:-0.034888789 395:0.046148654 396:-0.052658614 397:-0.050838508 398:0.036182474 399:0.079835191 400:-0.32155842 401:0.30202842 402:0.11942066 403:0.0043026139 404:-0.075575292 405:-0.2197039 406:-0.094534233 407:-0.035075653 408:-0.10029929 409:0.25263944 410:-0.063894674 411:0.024394648 412:-0.025911076 413:0.014281846 414:0.056406207 415:0.090826914 416:0.078441761 417:-0.09752024 418:-0.057988916 419:0.025370263 420:-0.04278475 421:-0.16501829 422:0.058302712 423:0.054566488 424:0.045102812 425:0.048619881 426:0.022014763 427:-0.036841322 428:-0.061463535 429:0.39415064 430:0.053916153 431:0.11375667 432:0.15945865 433:0.068975382 434:0.01022184 435:-0.053516299 436:0.18083763 437:-0.019764861 438:-0.060640547 439:-0.10550041 440:0.24376068 441:0.055764813 442:0.19254741 443:-0.076775953 444:0.22950438 445:0.025182202 446:-0.36245218 447:0.053260863 448:-0.21068898 449:-0.064168833 450:-0.01351304 451:0.10300872 452:-0.025636008 453:-0.041828174 454:0.1138808 455:-0.023579445 456:0.056504119 457:-0.025044082 458:-0.14087467 459:0.067811631 460:0.092460588 461:-0.12115154 462:0.29455894 463:0.072120413 464:0.056377616 465:0.062474478 466:0.014176182 467:0.097081803 468:0.05106375 469:-0.38507527 470:0.23338427 471:0.1246459 472:-0.030066414 473:0.030678136 474:0.036925256 475:0.053295463 476:-0.028899351 477:0.031950679 478:0.27134025 479:-0.094253719 480:0.016211459 481:0.19009212 482:0.35141143 483:-0.071947828 484:-0.019841602 485:-0.033271074 486:0.38640893 487:-0.037223157 488:0.26811615 489:-0.012507082 490:0.065354392 491:0.040219694 492:0.050269142 493:-0.036868211 494:-0.056019031 495:0.10032693 496:-0.23045255 497:0.22848792 498:-0.065661132 499:0.068598069 500:0.26706758 501:0.05845841 502:-0.033763032 503:0.074748673 504:0.052438527 505:0.16646563 506:-0.094032288 507:-0.04321605 508:0.030294316 509:0.030005973 510:-0.052609678 511:-0.08887203 512:-0.079144858 
1 1:6.2293761e-06 2:2.4917499e-05 3:0.15165296 4:-0.047608629 5:-0.033198297 6:-2.6428997e-05 7:-5.7600664e-05 8:0.44025987 9:-0.37509724 10:-5.8821537e-05 11:4.2857613e-05 12:-0.025620658 13:4.633806e-05 14:9.8951768e-06 15:-5.85124e-05 16:7.6124212e-05 17:-4.9574763e-05 18:0.051675107 19:-0.076703601 20:2.6913975e-05 21:-2.7508175e-05 22:-2.2218283e-05 23:-0.11690477 24:-0.28909203 25:-4.2974982e-05 26:-4.8870574e-05 27:-2.514892e-05 28:0.027045004 29:2.6913975e-05 30:-2.4620336e-05 31:4.0690105e-05 32:3.8985465e-05 33:-4.0119201e-05 34:3.5351626e-05 35:2.4933386e-05 36:0.04757854 37:-1.5258791e-05 38:-3.7664948e-05 39:0.071784176 40:1.1821661e-05 41:-4.3083379e-05 42:-1.9031051e-05 43:0.035722036 44:3.6186488e-05 45:-6.0874074e-05 46:0.066067122 47:-1.0172525e-05 48:0.12137154 49:3.1353829e-05 50:1.3316058e-05 51:5.0862595e-06 52:2.9950814e-05 53:0.12873858 54:3.998867e-05 55:-0.2280838 56:0.071784176 57:1.0674842e-05 58:-0.14851066 59:0.12824887 60:2.9082934e-05 61:0.2392057 62:1.9780922e-05 63:-7.8100958e-05 64:3.6401056e-05 65:-1.7738557e-05 66:-4.862521e-05 67:3.6278285e-05 68:0.18506403 69:3.8735823e-05 70:2.6913975e-05 71:1.9933072e-05 72:-2.4917499e-05 73:2.7698827e-05 74:0.17653868 75:3.8707301e-05 76:0.24331261 77:-0.085328348 78:1.4386123e-05 79:1.9818344e-05 80:5.1580853e-05 81:1.4386123e-05 82:-3.9150964e-05 83:0.15973051 84:-0.13293211 85:-1.970658e-05 86:1.6932379e-05 87:3.448944e-05 88:2.8634933e-05 89:0.05670261 90:-0.47603208 91:0.26728651 92:-0.078681223 93:4.4176968e-06 94:0.1282489 95:-3.5238663e-05 96:-0.041437566 97:4.3705597e-05 98:-5.8878461e-05 99:-0.025620673 100:-3.5409073e-05 101:-1.7527324e-05 102:-0.44551167 103:-0.042674888 104:-4.57112e-05 105:-1.3761006e-05 106:-1.9031053e-05 107:-5.1869909e-05 108:-2.8772251e-05 109:-7.3640018e-05 110:-6.1389903e-05 111:-0.08027941 112:3.5912326e-05 113:-3.1230989e-05 114:-3.695827e-05 115:-2.5399875e-05 116:-2.0944826e-05 117:-3.7126847e-05 118:-0.060753986 119:3.8429454e-05 120:-0.03888699 121:1.1763989e-05 122:-2.4754743e-05 123:-3.2436263e-05 124:1.5403546e-05 125:4.9138282e-05 126:-2.1277365e-05 127:0.2421363 128:0.047578558 129:-0.083665803 130:2.1876845e-05 131:-2.8772252e-05 132:3.2017208e-05 133:-4.1320996e-05 134:-3.3738452e-05 135:-0.085328363 136:0.091945767 137:-1.9031055e-05 138:-2.0974738e-05 139:-1.2393972e-05 140:-7.1930604e-06 141:-0.36470649 142:-2.7641796e-05 143:-0.14513347 144:0.052181032 145:0.12470177 146:-0.19257723 147:-0.22194375 148:-1.6676429e-05 149:-2.9365534e-05 150:-0.17090829 151:0.038886998 152:0.31162393 153:-8.6025375e-06 154:-6.4265987e-05 155:-9.5861287e-06 156:-2.6120832e-05 157:-3.8547532e-05 158:2.8797404e-05 159:-2.0345053e-05 160:3.0517578e-05 161:0.34217057 162:2.4295499e-05 163:-1.8557446e-05 164:2.3788816e-05 165:-0.11690477 166:-3.7085298e-05 167:2.2746461e-05 168:-3.9855684e-05 169:4.2173069e-05 170:3.8985469e-05 171:5.5250959e-05 172:1.716049e-05 173:-9.5426753e-05 174:-2.8578686e-05 175:-2.1876845e-05 176:4.4595537e-05 177:-0.15927102 178:-4.5593501e-05 179:3.1472515e-05 180:2.8723249e-05 181:-0.24557325 182:0.21124478 183:-2.8049475e-05 184:0.29695672 185:-0.094484761 186:4.6616373e-05 187:3.0517578e-05 188:-4.2396578e-06 189:4.1164178e-05 190:3.411969e-05 191:-7.8172336e-05 192:3.2778229e-05 193:-1.8459403e-05 194:6.8245968e-06 195:3.3223419e-05 196:-1.0299533e-05 197:-0.25732917 198:3.3168875e-05 199:-1.5876736e-05 200:-6.4338143e-05 201:-5.3827949e-05 202:-0.093145914 203:-2.2327584e-05 204:1.7434832e-05 205:-6.8316091e-05 206:-2.4588311e-05 207:-5.9408326e-06 208:0.064061359 209:-4.9834998e-05 210:4.0067829e-05 211:0.27223307 212:1.8955518e-05 213:-5.3502332e-05 214:-1.0930203e-05 215:-0.093145922 216:3.0730571e-05 217:0.17562947 218:4.7073867e-05 219:2.192751e-05 220:1.1768466e-05 221:5.1368741e-05 222:3.2148859e-05 223:7.120768e-05 224:3.8568498e-05 225:3.4223893e-05 226:-0.071032681 227:0.096190684 228:0.1171344 229:0.091982283 230:-0.016660033 231:1.471944e-05 232:-0.23879987 233:0.20537573 234:-0.22492486 235:0.056702595 236:1.4816034e-05 237:-8.5274347e-05 238:-1.4040772e-05 239:2.2170507e-05 240:-1.2458749e-05 241:-0.10053707 242:-0.18036526 243:9.9124763e-06 244:-3.1649113e-05 245:-2.9073835e-05 246:0.060753983 247:1.7304019e-05 248:7.1930608e-06 249:1.7373204e-05 250:2.9700219e-05 251:-0.01928282 252:0.22417234 253:-0.19257721 254:-2.9060595e-05 255:-7.0477327e-05 256:-4.1006762e-05 257:3.6144691e-05 258:0.37104142 259:-1.2458748e-05 260:2.7390364e-05 261:0.017445842 262:-2.3308188e-05 263:1.8514278e-05 264:5.3827949e-05 265:3.2168351e-05 266:-4.5986191e-05 267:0.13985068 268:-1.4386123e-05 269:6.2085754e-05 270:1.4640009e-05 271:-4.5395533e-05 272:-0.5716989 273:4.9050144e-05 274:1.6631142e-05 275:0.25006336 276:0.19392253 277:-0.068948634 278:-2.6388845e-05 279:1.2458749e-05 280:-3.806211e-05 281:-4.7967865e-06 282:0.027404362 283:4.0547478e-05 284:-3.6672744e-05 285:-0.12933424 286:0.099011414 287:2.0345055e-05 288:-4.0927829e-05 289:-4.3689586e-05 290:2.6041711e-05 291:1.8049503e-05 292:-0.097753011 293:3.4119686e-05 294:4.1058007e-05 295:4.0927829e-05 296:-4.0879742e-05 297:0.064969175 298:-0.091781922 299:-5.5484583e-05 300:2.4188841e-05 301:-6.1195817e-05 302:0.17800887 303:-0.15338898 304:-3.5238667e-05 305:0.12137154 306:-3.8784496e-05 307:0.14138578 308:-1.8056517e-05 309:-1.3929303e-05 310:-1.5932674e-05 311:-6.2707666e-05 312:0.091781922 313:3.5089764e-05 314:-1.9031057e-05 315:-3.7028552e-05 316:-3.0221647e-05 317:-4.4341014e-05 318:-1.5779717e-05 319:-3.932718e-05 320:3.7104946e-05 321:3.2233806e-05 322:-3.6182028e-05 323:-3.8860515e-05 324:3.0517578e-05 325:-0.15338896 326:0.243187 327:-2.9486542e-05 328:-0.29207128 329:2.1783904e-05 330:-2.785861e-05 331:2.4134872e-05 332:-4.7713376e-05 333:-0.11989138 334:0.10053708 335:-2.4796131e-05 336:-0.034680244 337:-0.28155836 338:2.7786064e-05 339:-4.0690105e-05 340:-1.0172528e-05 341:-4.380778e-05 342:3.1930227e-05 343:-4.6749537e-05 344:-2.3880984e-05 345:-2.0185484e-05 346:-0.2280838 347:0.051543847 348:3.411969e-05 349:-4.3234551e-05 350:2.3308186e-05 351:0.43387729 352:-2.5776475e-05 353:3.4233155e-05 354:-1.3573524e-05 355:-0.11178014 356:-2.3048486e-05 357:-0.047608625 358:-4.0690105e-05 359:0.064061396 360:-1.3676703e-05 361:0.033198275 362:0.072829746 363:-0.37744242 364:0.32013345 365:9.9159508e-05 366:-1.6046397e-05 367:4.9705053e-05 368:-0.066067107 369:0.019282859 370:-1.8480019e-05 371:5.450692e-05 372:-1.7509004e-05 373:-0.099011421 374:6.2293848e-06 375:3.0138825e-05 376:-0.14910319 377:0.034680113 378:-0.035722036 379:3.6912763e-05 380:1.9586027e-05 381:3.474535e-05 382:0.05218105 383:4.0690102e-05 384:-4.5608282e-05 385:-1.6869224e-05 386:-0.065601327 387:-1.7619332e-05 388:2.4722063e-05 389:-0.094484769 390:-0.077161849 391:4.5136108e-05 392:-5.9750058e-05 393:-0.0493287 394:1.9364079e-05 395:-3.5261499e-05 396:-0.11559428 397:2.8772251e-05 398:2.9423556e-05 399:-4.8785721e-05 400:5.5601024e-05 401:-2.7858609e-05 402:-2.2746461e-05 403:2.2746459e-05 404:0.12873858 405:-3.8957827e-05 406:-2.0345053e-05 407:0.22194374 408:-0.11868846 409:1.1530698e-05 410:3.5367477e-05 411:1.0726917e-05 412:1.5046209e-05 413:5.5353288e-05 414:-3.1944008e-05 415:-0.43387729 416:-0.20552661 417:4.0690105e-05 418:-2.8015795e-05 419:1.3153805e-05 420:3.4167046e-05 421:4.5492921e-05 422:3.3289751e-05 423:-0.15469195 424:-2.460514e-05 425:-1.8514276e-05 426:3.4776807e-05 427:0.12006581 428:3.6459365e-05 429:0.66668355 430:-2.6148096e-05 431:-2.6672587e-05 432:-1.6773105e-05 433:-0.22737928 434:-3.14996e-05 435:2.9966583e-05 436:-3.7634996e-05 437:8.8096655e-05 438:2.0345053e-05 439:1.6412547e-05 440:5.1869909e-05 441:1.0172526e-05 442:0.28582954 443:-0.24331261 444:2.6577945e-05 445:5.2489642e-05 446:0.11147457 447:4.1875861e-05 448:-3.5592544e-05 449:-2.2070179e-05 450:-5.4733566e-05 451:-4.1059375e-05 452:-2.486527e-05 453:-2.2746461e-05 454:-2.4140689e-05 455:-1.4834356e-05 456:5.571888e-05 457:0.38085237 458:-2.4392859e-05 459:-0.056742173 460:0.064969167 461:6.258479e-05 462:2.8029906e-05 463:3.3718799e-05 464:-0.062966496 465:0.15800987 466:-1.4960506e-05 467:0 468:1.2573373e-05 469:3.8305567e-05 470:-2.5872265e-05 471:1.2967477e-05 472:1.6906311e-05 473:4.0049275e-05 474:4.3855016e-05 475:2.3536933e-05 476:1.0963754e-05 477:-0.072829746 478:-3.2148859e-05 479:-0.22737929 480:-0.078681223 481:1.731386e-05 482:-1.7710861e-05 483:0.077934839 484:3.7376249e-05 485:0.34217057 486:-2.5398513e-05 487:0.08358518 488:-5.7544497e-05 489:-1.0172526e-05 490:-0.15539823 491:4.7030746e-05 492:-1.4816032e-05 493:0.00012691507 494:3.3450586e-05 495:0.17793401 496:-0.071032681 497:0.28909203 498:-0.091982283 499:-3.7273381e-05 500:2.5079651e-05 501:4.8632464e-05 502:0.11713441 503:1.7785607e-05 504:0.2392057 505:-4.6651203e-05 506:3.1493815e-05 507:-0.23220445 508:-0.080279402 509:-0.017445778 510:-0.055092566 511:-0.44551167 512:0.14138578 
0.3396166873007106 1:3.5875288e-05 2:-3.5146775e-05 3:0.16200097 4:-0.038597912 5:-0.17354754 6:0.069600776 7:0.01463118 8:0.42167196 9:-0.31202194 10:-6.1582665e-05 11:5.1116313e-05 12:-0.12358529 13:5.1817573e-05 14:-2.3002522e-05 15:-3.0675415e-05 16:6.2958949e-05 17:0.09244018 18:0.22599354 19:-0.034024276 20:2.7352777e-05 21:-4.0157218e-05 22:-2.0678166e-05 23:-0.21985261 24:-0.15306365 25:-2.6724536e-05 26:-6.1644176e-05 27:-3.3764743e-05 28:0.15981133 29:0.061111588 30:2.8228487e-05 31:-4.633491e-05 32:-9.483615e-06 33:4.1847827e-05 34:-1.9099571e-05 35:2.1215115e-05 36:0.20263231 37:1.4960634e-05 38:-4.7946112e-05 39:0.075135008 40:4.1201965e-05 41:0.038298991 42:-2.8766448e-05 43:0.14729583 44:3.650341e-05 45:3.2717024e-05 46:0.17406438 47:0.062402438 48:0.22542356 49:-2.1277365e-05 50:1.0391976e-05 51:-2.0390187e-05 52:2.9912513e-05 53:0.2478884 54:2.8744138e-05 55:-0.26179284 56:0.070155568 57:4.571825e-05 58:-0.10077148 59:0.18595479 60:-0.0035924718 61:0.34140706 62:3.1366722e-05 63:-4.6822399e-05 64:0.047982775 65:4.5324468e-05 66:-0.03970347 67:0.062402438 68:0.28893527 69:4.3447748e-05 70:0.019142397 71:2.6200067e-05 72:-5.5229008e-05 73:-3.6839469e-05 74:0.10754329 75:5.4704466e-05 76:0.10720716 77:-0.18995501 78:-3.6558951e-05 79:-0.0073164213 80:-2.7586466e-05 81:4.9054663e-05 82:-0.013869022 83:0.29840502 84:-0.17807789 85:-0.097358137 86:-2.2021441e-05 87:3.1364008e-05 88:0.031325519 89:0.061187394 90:-0.44437349 91:0.2483888 92:0.079182692 93:0.024843484 94:0.18595478 95:-2.1081492e-05 96:-0.16661511 97:0.13355048 98:-0.026614882 99:-0.12358529 100:4.5705885e-05 101:-0.0803385 102:-0.39625442 103:-0.11512681 104:0.050815899 105:-0.075812131 106:1.1592376e-05 107:-4.2418924e-05 108:0.025156109 109:-0.013881424 110:-4.1372754e-05 111:-0.12324844 112:0.027500378 113:0.019265685 114:-3.345076e-05 115:3.7717338e-05 116:3.1700423e-05 117:-2.6222908e-05 118:-0.071040832 119:-0.027281903 120:-0.083559431 121:-2.9994033e-05 122:-0.034530766 123:-2.4516727e-05 124:3.4640692e-05 125:5.9261165e-05 126:-4.0880373e-06 127:0.15051247 128:0.19636998 129:-0.20065345 130:3.0517576e-05 131:-1.6773103e-05 132:3.1405358e-05 133:0.015814804 134:-3.7891805e-05 135:-0.2024038 136:0.27657217 137:3.8757586e-05 138:-4.0714513e-05 139:9.4502557e-06 140:4.2019426e-05 141:-0.19015257 142:0.035848845 143:-0.1719635 144:0.10992534 145:0.11000422 146:-0.28040528 147:-0.1379295 148:5.4384866e-05 149:0.07201878 150:-0.22507414 151:0.083559416 152:0.31655371 153:0.1177464 154:-6.9029054e-05 155:0.025156055 156:0.11443775 157:3.093142e-05 158:-3.2182594e-05 159:1.5859912e-05 160:-0.075215936 161:0.38388294 162:2.5371348e-05 163:-3.8573507e-05 164:2.2582321e-05 165:-0.21985261 166:-4.2139134e-05 167:2.0424312e-05 168:-4.1747749e-05 169:0.0066968845 170:-1.9324305e-05 171:5.0591701e-05 172:2.5366589e-05 173:-8.2013525e-05 174:0.049786739 175:0.038942769 176:0.059407271 177:-0.25958219 178:-5.1539802e-05 179:4.4545472e-05 180:0.038032874 181:-0.18198781 182:0.25591871 183:2.6437398e-05 184:0.28968066 185:-0.11723123 186:-2.7854981e-05 187:-2.1408989e-05 188:0.1449564 189:-0.092831902 190:-0.062188383 191:-0.066034511 192:-1.3100408e-05 193:1.8911995e-05 194:-3.0297135e-05 195:3.5535915e-05 196:-2.2299555e-05 197:-0.2018657 198:-3.2198139e-05 199:-2.3934794e-05 200:-5.3917334e-05 201:-2.9734099e-05 202:-0.15897042 203:-1.9977906e-05 204:4.4048327e-05 205:-3.2581502e-05 206:0.081411265 207:0.021294367 208:0.067466013 209:-0.019417301 210:-0.047408734 211:0.28407732 212:3.1083386e-05 213:-1.6587315e-05 214:4.8478046e-06 215:-0.15989731 216:4.4387496e-05 217:0.34151655 218:4.8616526e-05 219:2.1041649e-05 220:-2.7016351e-05 221:3.3280478e-05 222:0.040852897 223:4.4469878e-05 224:5.0353989e-05 225:-0.034530703 226:-0.14382197 227:0.16495331 228:0.086408854 229:-0.012466729 230:-0.19032937 231:4.9216942e-05 232:-0.10905426 233:0.18142715 234:-0.26673409 235:-0.065330125 236:4.515313e-05 237:-0.10776915 238:-4.8032434e-05 239:5.6409386e-05 240:1.8161589e-05 241:0.081923172 242:-0.22556312 243:-0.055679623 244:-2.458468e-05 245:3.4749079e-05 246:0.071040809 247:0.023136588 248:0.10655853 249:3.2656644e-05 250:0.010250093 251:-0.067332685 252:0.25581542 253:-0.28040525 254:0.017767565 255:-2.3867973e-05 256:3.554919e-05 257:2.2888182e-05 258:0.1819299 259:-2.5303842e-05 260:0.042099193 261:0.14746824 262:0.010250075 263:-0.02868103 264:-3.4261557e-05 265:-8.8547522e-06 266:0.024843458 267:0.19478664 268:-1.6084176e-05 269:3.5700636e-05 270:2.7727308e-06 271:-4.3104981e-05 272:-0.46256375 273:3.0364572e-05 274:3.5762434e-05 275:0.21327862 276:0.14918384 277:-0.083597712 278:-0.013852752 279:-5.6796485e-05 280:3.198185e-05 281:3.1566713e-05 282:-0.08819849 283:2.8458722e-05 284:1.6382977e-05 285:-0.079363942 286:0.23486699 287:-4.306122e-05 288:3.2904449e-05 289:-4.4251563e-05 290:2.1062911e-05 291:4.805718e-05 292:-0.060324524 293:4.7931917e-05 294:5.3378968e-05 295:-2.1372087e-05 296:2.4784931e-05 297:0.16342831 298:-0.14330289 299:-4.0430994e-05 300:1.9760022e-05 301:3.1610158e-05 302:0.18699083 303:-0.2098753 304:-0.087966293 305:0.2204638 306:-2.4526729e-05 307:0.1321402 308:-2.7941784e-05 309:-1.5542018e-05 310:-0.021294383 311:-4.6555178e-05 312:0.14330287 313:0.027500344 314:3.3255761e-05 315:2.3974999e-05 316:-0.057235163 317:-4.8453163e-05 318:2.1560447e-05 319:0.044111408 320:-2.1797503e-05 321:-7.0268479e-06 322:-0.042153936 323:-1.13436e-05 324:0.063551232 325:-0.20987527 326:0.12645091 327:-2.7874517e-05 328:-0.30897862 329:-0.012679396 330:-4.6507699e-05 331:-1.0062014e-05 332:0.081411265 333:-0.22878484 334:0.1173428 335:-0.067947656 336:-0.16178399 337:-0.094145738 338:4.0430405e-05 339:0.048466481 340:0.028682925 341:0.016608216 342:-2.8944474e-05 343:-2.8505674e-05 344:-2.2212191e-05 345:-5.6155048e-05 346:-0.25850877 347:0.13477089 348:-0.029539611 349:-2.2651875e-05 350:2.7097654e-05 351:0.21689783 352:-3.9605242e-05 353:0.026830908 354:2.2688448e-05 355:0.15428008 356:-2.9425284e-05 357:-0.038597919 358:-4.2658907e-05 359:0.067466006 360:0.039368071 361:0.17354754 362:0.1055474 363:-0.38363633 364:0.2393007 365:7.5619777e-05 366:3.722019e-05 367:-0.044215363 368:-0.2047682 369:0.067332685 370:-3.6289792e-05 371:3.1947729e-05 372:-2.4899124e-05 373:-0.23486699 374:0.059407283 375:-2.0151014e-05 376:-0.12612782 377:0.16178396 378:-0.14729582 379:4.3081032e-05 380:0.092440195 381:3.5874949e-05 382:0.10992533 383:3.468369e-05 384:-0.039460026 385:-3.3352855e-05 386:-0.19445172 387:1.8945904e-05 388:-0.038942769 389:-0.11502879 390:-0.071032852 391:3.3060711e-05 392:-0.025544999 393:-0.14814357 394:2.6206937e-05 395:2.9895744e-05 396:0.14901799 397:-3.7784037e-05 398:-1.7307071e-05 399:0.11013993 400:4.5430141e-05 401:-1.5475202e-05 402:-4.3753691e-05 403:3.7470036e-05 404:0.24449101 405:-5.0894247e-05 406:-3.09473e-05 407:0.13792948 408:-0.26108414 409:-0.027716672 410:-0.037241455 411:-3.6254176e-05 412:2.776735e-05 413:3.7425361e-05 414:-4.1595831e-05 415:-0.2146524 416:-0.32413664 417:5.7319277e-05 418:3.4146116e-05 419:0.04873734 420:-0.068871319 421:1.1607006e-05 422:2.4583327e-05 423:-0.22643654 424:0.11250703 425:0.038556162 426:-2.3358645e-05 427:0.18676123 428:-1.0463875e-05 429:0.50993145 430:1.692634e-05 431:-1.3168535e-05 432:-3.6217309e-05 433:-0.19364099 434:3.3273347e-05 435:2.6327025e-05 436:-2.355112e-05 437:5.7544497e-05 438:3.3822216e-05 439:-0.046736915 440:3.0251509e-05 441:-2.9577925e-06 442:0.17153341 443:-0.10720714 444:4.7518835e-05 445:3.3097371e-05 446:0.18893273 447:-1.2721605e-05 448:0.020092856 449:2.7236272e-05 450:-3.8237809e-05 451:-2.7123762e-05 452:-2.999523e-05 453:-3.3612534e-05 454:-0.0089580324 455:-1.4702476e-05 456:2.7329987e-05 457:0.34049746 458:-0.06448897 459:-0.20585464 460:0.18429606 461:0.031903327 462:0.048971429 463:-1.6515231e-05 464:-0.16777951 465:0.21887901 466:0.10921153 467:0.017623371 468:0.039368082 469:-0.064532883 470:2.0006e-05 471:-0.041997757 472:1.0367151e-05 473:7.4449061e-05 474:-0.080338471 475:0.026614843 476:2.1899255e-05 477:-0.13839139 478:-3.7383779e-05 479:-0.19405565 480:-0.061802752 481:-2.3297514e-05 482:-2.2888184e-05 483:0.15291883 484:-0.071999833 485:0.38927144 486:0.019142274 487:0.1140401 488:-3.0102587e-05 489:2.5841271e-05 490:-0.12968403 491:0.087966315 492:3.4519031e-05 493:0.00010891275 494:-0.049289942 495:0.25218338 496:-0.14883405 497:0.15306364 498:-0.052460425 499:0.14013585 500:4.2583863e-05 501:5.4006883e-05 502:0.086408861 503:3.4183191e-05 504:0.34140706 505:-3.2350752e-05 506:-0.12315397 507:-0.21626987 508:-0.12324844 509:-0.15981907 510:-0.08321742 511:-0.39625442 512:0.1321402 
0.04485303681629015 1:0.090218708 2:-0.0063677654 3:0.12078886 4:-0.067661524 5:0.042634238 6:-0.17312649 7:0.068736956 8:-0.12486342 9:-0.037208561 10:0.090300292 11:-0.041353036 12:-0.062936105 13:-0.015501572 14:-0.14995684 15:-0.016220065 16:-0.045271497 17:0.013263443 18:-0.2134424 19:-0.078153513 20:0.026837818 21:-0.15867667 22:-0.036821071 23:-0.032021046 24:-0.065418787 25:-0.024653025 26:0.0053322576 27:0.089735188 28:0.15461375 29:-0.021045389 30:-0.15851031 31:0.097093306 32:-0.02836756 33:-0.23303135 34:-0.074502505 35:-0.0016664423 36:0.11275458 37:-0.025648057 38:0.15121529 39:0.11533238 40:-0.01534639 41:0.054735087 42:-3.1741634e-05 43:0.10116721 44:0.12758224 45:0.020433055 46:0.10039612 47:0.11570212 48:0.18235086 49:0.044398226 50:0.024154555 51:0.081228033 52:0.051242515 53:0.10237961 54:-0.039138544 55:-0.23495342 56:0.16277824 57:0.039661393 58:0.24385683 59:0.13858229 60:0.012857644 61:0.11656281 62:-0.049813651 63:-1.0953275e-05 64:0.065030962 65:-0.019427344 66:0.0089538153 67:0.066284187 68:0.10220387 69:2.8095794e-05 70:0.16644755 71:-4.2790303e-05 72:0.11740055 73:-2.8627437e-05 74:-0.0063099032 75:2.542428e-05 76:-0.017449455 77:-0.11256264 78:0.20356126 79:-0.14375766 80:-0.061008163 81:0.0010458141 82:-0.019857949 83:0.057854913 84:-0.022443609 85:-0.071458094 86:-0.017367724 87:-0.0025357939 88:0.18495564 89:-0.076301984 90:0.088976987 91:-0.27329957 92:0.0046149492 93:0.095693678 94:0.13582392 95:-0.14270049 96:-0.10749517 97:-0.12666093 98:-0.046517853 99:0.035190862 100:-3.2700267e-05 101:-0.039331507 102:-0.084981777 103:-0.097136721 104:-0.096436076 105:-0.2887992 106:0.00060670561 107:0.040845178 108:0.055218361 109:-0.13599379 110:-0.047422681 111:-0.12373088 112:-0.04222203 113:0.18267481 114:0.012277322 115:-0.055520188 116:-0.4787913 117:0.10423797 118:0.11520753 119:-0.12402906 120:-0.060557369 121:0.037226405 122:-0.2888101 123:-3.1743384e-05 124:-0.013647046 125:-0.013593078 126:-0.11588487 127:0.10330474 128:-0.43459225 129:-0.054017022 130:0.16823982 131:-0.030044047 132:-0.0057320422 133:0.080135427 134:0.0058533838 135:-0.13117643 136:0.14767955 137:0.013134743 138:-0.13299935 139:0.3678917 140:-0.0536943 141:-0.086937234 142:-0.018997902 143:-0.046145841 144:0.070191294 145:0.25213608 146:-0.018929992 147:0.035736866 148:-0.17161022 149:0.03292286 150:0.20883274 151:0.064750239 152:0.11193955 153:0.28147468 154:0.020815223 155:-0.020689774 156:-0.060036518 157:0.061941445 158:-0.0090217786 159:-0.055133548 160:-0.049480435 161:0.081828594 162:0.020863926 163:-0.057166755 164:-0.031847972 165:0.075016335 166:-0.0058577294 167:0.042428147 168:0.01958245 169:0.0012921159 170:-0.071742728 171:0.017244795 172:-0.019522112 173:-0.01148268 174:0.056007765 175:0.15576454 176:0.071671359 177:-0.096309587 178:-0.0088766636 179:0.037188351 180:-0.10524473 181:0.18197986 182:0.1045391 183:-0.009056055 184:-0.15258928 185:-0.11929358 186:-0.12640266 187:0.055546351 188:-0.041703425 189:-0.06004497 190:0.031150311 191:-0.0022815822 192:-0.01977862 193:0.016428407 194:-0.0038756425 195:-0.059214015 196:0.045782067 197:-0.049540199 198:-0.025503872 199:-0.20825946 200:-0.043285239 201:0.034878626 202:-0.19300276 203:0.06675344 204:5.2789019e-06 205:-0.10935721 206:0.08359462 207:0.050500222 208:0.022874152 209:-0.45586979 210:-0.22343338 211:0.063227952 212:0.047077555 213:0.024352241 214:0.068747714 215:-0.19305055 216:-0.040220682 217:0.014322409 218:-0.13844134 219:-0.2671898 220:-0.0054538553 221:0.024591586 222:-0.022334602 223:-0.056301784 224:0.033813067 225:-0.31959474 226:-0.043285526 227:0.11962592 228:-0.04985426 229:0.14745817 230:-0.053862967 231:0.03116031 232:0.34208325 233:0.19858238 234:-0.12667851 235:-0.079353772 236:0.014855167 237:0.13090463 238:-0.1067003 239:-0.13016894 240:0.13069789 241:0.1578794 242:0.028739134 243:-0.018129732 244:0.18155919 245:1.774866e-05 246:0.12402147 247:0.051770657 248:0.091078445 249:0.013350969 250:0.24665792 251:0.022804087 252:-0.021203889 253:-0.017530471 254:0.23528931 255:-0.031019643 256:-0.025468316 257:-0.18765759 258:0.16064614 259:0.045265753 260:-0.11687551 261:-0.03464542 262:0.22161388 263:0.028344851 264:0.047777556 265:-0.089872472 266:0.10035771 267:-0.069403686 268:-0.038366608 269:0.15966839 270:0.15572955 271:-0.0055671823 272:-0.11767574 273:-0.066178381 274:5.8170932e-05 275:0.061068811 276:0.062863812 277:-0.17151687 278:-0.1194379 279:0.063730761 280:-0.0065644984 281:0.0076092132 282:0.10039132 283:-0.026263433 284:-0.024675628 285:-0.12945737 286:0.026535468 287:0.027509589 288:0.045888368 289:0.010102376 290:0.090196967 291:-0.052870721 292:-0.20629102 293:-0.076845713 294:-0.0047948044 295:-0.019247135 296:-0.09552072 297:0.20479792 298:0.051753566 299:-4.8652972e-05 300:0.031743363 301:-0.031249143 302:-0.26499164 303:-0.23770137 304:0.042707663 305:0.029662058 306:-0.015750492 307:0.045776621 308:1.0484395e-05 309:-0.10955042 310:0.031238008 311:-0.017461475 312:0.029927976 313:-0.023158047 314:-4.0049275e-05 315:-0.027420206 316:-0.17071126 317:0.022392372 318:-0.10334442 319:0.2126624 320:0.0090591339 321:-0.040692627 322:-0.17194359 323:0.023200983 324:0.047200225 325:-0.15074739 326:0.14564691 327:-0.021467345 328:0.15761694 329:-0.02474035 330:0.048681989 331:0.080019698 332:0.084925227 333:0.081313483 334:0.10136368 335:-0.063124754 336:-0.13638771 337:0.11330009 338:-0.019654706 339:0.016129734 340:-0.10048456 341:0.13878526 342:-0.0099581843 343:-0.035229523 344:-0.19967213 345:0.084021688 346:0.017090334 347:0.098166049 348:-0.24220538 349:0.12681378 350:-0.040558748 351:0.33185136 352:0.065079711 353:0.34175518 354:-0.044608496 355:0.18293385 356:-0.045994576 357:-0.068218201 358:0.053481702 359:-0.0038681412 360:0.026060527 361:-0.080112457 362:0.090376377 363:-0.14227773 364:0.040052146 365:-0.14061083 366:-0.051994275 367:0.021232367 368:-0.05113595 369:0.014958691 370:-0.025609856 371:0.11172781 372:-3.5603844e-05 373:-0.029589819 374:-0.087388843 375:-1.0720527e-05 376:0.51371926 377:-0.0645312 378:-0.096013524 379:0.047557339 380:0.41165742 381:-0.0099478513 382:-0.078679517 383:0.03606271 384:0.069650009 385:0.015636008 386:0.21050471 387:0.079980835 388:0.10496746 389:-0.062407762 390:0.047095578 391:0.022072891 392:0.0074072555 393:-0.078717664 394:0.096100003 395:0.055025473 396:-0.094362676 397:-0.032291491 398:-0.0079913633 399:-0.42263088 400:-0.032245871 401:-0.013028391 402:-0.14836268 403:-0.0053156596 404:0.094299756 405:-0.23072411 406:-0.018243987 407:0.067534558 408:-0.1897023 409:-0.043047607 410:-0.049545858 411:-0.17910182 412:0.010330352 413:-0.028126473 414:0.0097938795 415:-0.082338504 416:0.020061556 417:-1.3214498e-05 418:0.0031889034 419:-0.081794225 420:-0.01660645 421:0.011449665 422:-0.015718363 423:-0.087039679 424:-0.062049236 425:0.026673462 426:0.084992543 427:-0.11877743 428:-0.012368342 429:0.085301727 430:-0.024121344 431:-0.018523095 432:0.021360623 433:-0.071170956 434:0.080894761 435:0.012101979 436:0.11444493 437:-0.0076035308 438:0.10095452 439:-0.081351534 440:0.035897221 441:-0.11442669 442:0.23048423 443:-0.015011554 444:0.090462372 445:-0.046630703 446:0.24187213 447:0.085846193 448:0.057897497 449:-0.065877192 450:0.0050007291 451:-0.015412221 452:0.01052543 453:-0.0084655778 454:-0.056644894 455:-0.0096788276 456:0.018084664 457:0.11017019 458:-0.063080654 459:0.22285748 460:0.055950958 461:0.072118506 462:0.094046183 463:0.032384448 464:0.099958912 465:0.057207782 466:-0.065503947 467:0.31434321 468:0.022937505 469:0.31506738 470:0.092698485 471:-0.025628654 472:-0.029978808 473:0.36651734 474:0.15171137 475:0.03520526 476:0.068747729 477:0.20379253 478:0.056439914 479:-0.049692623 480:-0.035482693 481:0.030736998 482:0.015507956 483:0.22357747 484:-0.056423526 485:0.056802657 486:0.14876184 487:0.14748295 488:0.069919296 489:0.034042586 490:-0.24010526 491:-0.048306558 492:0.036285609 493:-0.028294301 494:-0.045173168 495:0.097422905 496:-0.12649342 497:0.035812788 498:-0.18403827 499:0.04637485 500:-0.14575516 501:0.004711485 502:-0.14349051 503:-0.012286513 504:0.09648779 505:0.0073250104 506:-0.041815691 507:-0.080432378 508:0.090124503 509:0.11523639 510:-0.17100638 511:-0.08704631 512:0.061311331 
1 1:0.014941263 2:-4.3158372e-05 3:0.14664482 4:-0.048767596 5:-0.066607021 6:0.095712379 7:0.017640127 8:0.48557764 9:-0.28633758 10:0.0051036784 11:2.6298509e-05 12:0.05951276 13:6.4392683e-05 14:-1.4439728e-05 15:0.018301627 16:-0.024979206 17:0.029085899 18:-0.019886797 19:-0.067287162 20:0.018926265 21:0.018897817 22:-1.0147894e-05 23:-0.057984155 24:-0.32055867 25:2.1579506e-05 26:-2.270874e-05 27:0.21934764 28:0.11448482 29:-0.0079533206 30:-1.4162149e-05 31:-2.6913973e-05 32:-2.2684177e-05 33:-3.9525195e-05 34:-0.035191067 35:2.2105589e-05 36:0.12520464 37:-6.2810956e-05 38:0.013113316 39:0.050794017 40:-2.9020295e-05 41:-0.025508784 42:0.03515321 43:0.081412442 44:1.1468023e-05 45:-4.4088883e-05 46:0.10821106 47:0.030881325 48:0.091415219 49:-0.043007702 50:-0.037374798 51:2.6245703e-05 52:2.9463878e-05 53:0.25668451 54:0.013814701 55:-0.17650883 56:0.053687505 57:3.9573679e-05 58:-0.12679534 59:0.075068429 60:1.8723629e-05 61:0.30033836 62:-0.020151338 63:-6.1048318e-05 64:0.024796249 65:-0.027865712 66:-2.357453e-05 67:0.030881321 68:0.19404835 69:6.1981496e-05 70:0.0070656398 71:0.064387575 72:2.2861679e-05 73:5.7868597e-06 74:0.1781214 75:4.0523184e-05 76:0.16351292 77:-0.24230795 78:-2.9505249e-05 79:-0.019262608 80:4.1389249e-05 81:0.019880142 82:-0.035071012 83:0.22132872 84:-0.13040522 85:0.054528929 86:0.0079532871 87:3.8914961e-05 88:3.0459241e-05 89:0.048854686 90:-0.48496345 91:0.26407641 92:-0.083623543 93:-0.019703042 94:0.080766253 95:-6.823938e-05 96:-0.04280353 97:0.060474224 98:-0.030282104 99:0.088129126 100:-0.017655067 101:0.01906329 102:-0.56120408 103:-0.048611671 104:-0.034327958 105:-4.9948496e-05 106:3.370272e-05 107:-0.0139733 108:3.8735827e-05 109:-4.1972726e-05 110:-0.010719828 111:-0.07753887 112:1.3698535e-05 113:0.0045767119 114:0.019703051 115:-0.058590464 116:-3.6564252e-05 117:-0.04663476 118:0.019519227 119:0.015750656 120:-0.060204308 121:-0.033977784 122:-0.0098092454 123:-2.8892046e-05 124:-1.418531e-05 125:-0.022059897 126:0.017543474 127:0.17533763 128:0.1086267 129:-0.076888971 130:-0.01611237 131:3.0938529e-05 132:-2.9657756e-05 133:-6.7284968e-06 134:3.1353833e-05 135:-0.21746486 136:0.16390789 137:1.2458747e-05 138:-1.8365083e-05 139:2.2534483e-05 140:0.023202669 141:-0.22431137 142:0.027813543 143:-0.22591467 144:0.089154042 145:0.069324538 146:-0.11657211 147:-0.12070302 148:0.040196437 149:-0.020635074 150:-0.21463111 151:0.062329132 152:0.34784913 153:0.017599493 154:-5.1290943e-05 155:-3.4435208e-05 156:0.042362165 157:0.028721979 158:-2.246769e-05 159:-2.4917499e-05 160:-0.063773617 161:0.2156322 162:2.4095803e-05 163:0.029797861 164:-1.4981926e-05 165:-0.056126423 166:-3.1728672e-05 167:0.023461988 168:0.038545832 169:2.50381e-05 170:-0.017972955 171:-0.070122786 172:-0.0081063863 173:-0.0001076559 174:0.023431275 175:0.053110939 176:-0.018150689 177:-0.2624135 178:-0.01783561 179:3.0376945e-05 180:0.024641484 181:-0.20729272 182:0.13081889 183:-2.3750745e-05 184:0.47211814 185:-0.18308102 186:4.6616369e-05 187:4.2857613e-05 188:0.037215292 189:-0.035119224 190:-0.037540562 191:0.021344731 192:-0.02431459 193:0.020688497 194:0.024418324 195:-2.6229116e-05 196:0.024841834 197:-0.22169989 198:-2.0673526e-05 199:0.045417178 200:-0.026762696 201:-7.8796053e-05 202:-0.06455908 203:-2.4814421e-05 204:1.0485599e-05 205:4.5013625e-05 206:-0.017472478 207:0.050721787 208:0.057088215 209:0.034180004 210:-0.057390954 211:0.30476826 212:-0.02068848 213:-4.7100235e-05 214:-3.1736381e-05 215:-0.0764452 216:-0.016509984 217:0.078472823 218:3.392353e-05 219:0.047303766 220:1.4263621e-05 221:0.016702421 222:-2.2711969e-05 223:8.3575833e-05 224:5.9404036e-05 225:-0.011158034 226:-0.11131634 227:0.13957253 228:0.13036133 229:0.087968908 230:-0.030535009 231:-0.013130659 232:-0.18724094 233:0.11288438 234:-0.28802273 235:0.065636672 236:3.2484611e-05 237:-0.020887582 238:-3.1328498e-05 239:1.0172526e-05 240:3.1763702e-05 241:-0.086211018 242:-0.18024652 243:-0.05302304 244:2.4634941e-05 245:-8.2296929e-06 246:0.086390078 247:0.03166423 248:0.020887543 249:3.4736378e-05 250:-0.01536897 251:-0.048937332 252:0.15501736 253:-0.093557581 254:0.033257268 255:-0.030540729 256:-3.8031478e-05 257:-0.048487063 258:0.30707389 259:-0.021477431 260:0.042561445 261:0.038302232 262:0.018974956 263:0.014343615 264:0.045112092 265:-3.1353833e-05 266:-0.017747628 267:0.095796794 268:-0.016529219 269:-0.02045504 270:0.0086523853 271:-5.8757694e-05 272:-0.53311378 273:3.6820671e-05 274:2.8805161e-05 275:0.2427697 276:0.1398076 277:-0.088252097 278:-1.9711712e-05 279:-2.4852527e-05 280:-3.5238663e-05 281:-2.1895001e-05 282:0.04110945 283:-0.026071178 284:2.1124837e-05 285:-0.065735973 286:0.0964984 287:-5.0862633e-05 288:1.2344675e-05 289:2.2780292e-05 290:0.022814451 291:2.1811054e-05 292:-0.067696691 293:1.5257784e-05 294:-2.3338544e-05 295:2.120124e-05 296:-0.024979334 297:0.077475138 298:-0.057320889 299:-3.811784e-05 300:0.061204795 301:-5.1081337e-05 302:0.23017967 303:-0.14133692 304:-0.043914277 305:0.091415219 306:1.3306771e-05 307:0.1779862 308:-3.9756742e-05 309:-4.7713376e-05 310:-0.045103643 311:-4.4525739e-05 312:0.057320897 313:0.012107356 314:-0.012406874 315:0.012871451 316:-1.9665271e-05 317:-3.8062106e-05 318:-0.0053181001 319:0.051260788 320:0.015882406 321:0.038533244 322:0.029463736 323:1.3757845e-05 324:0.077165246 325:-0.13158049 326:0.19393541 327:-3.3430078e-05 328:-0.18958297 329:0.046651211 330:-3.5054651e-05 331:-2.4088542e-05 332:0.023779675 333:-0.1539984 334:0.085503079 335:-0.023227425 336:-0.026282089 337:-0.21585155 338:1.8402472e-05 339:3.9398023e-05 340:0.09718883 341:0.039402571 342:-3.6253998e-05 343:-0.030825283 344:0.019295435 345:4.6506058e-05 346:-0.18075117 347:0.12160903 348:-0.018289091 349:-0.040295456 350:-0.014546199 351:0.3762539 352:-2.8581442e-05 353:0.034188893 354:-0.17535126 355:0.10846165 356:-0.022136144 357:-0.051288698 358:0.059048116 359:0.057088211 360:0.042367246 361:0.046097189 362:0.081143811 363:-0.39654005 364:0.23493843 365:0.0095868325 366:1.1952293e-05 367:-0.070363946 368:-0.0805225 369:0.042510327 370:0.030867463 371:0.010989944 372:-2.3475295e-05 373:-0.096635722 374:-0.016339339 375:-3.0760348e-05 376:-0.088619635 377:0.026281953 378:-0.081412442 379:6.0238839e-05 380:0.031475209 381:0.027663959 382:0.089154035 383:0.018366059 384:0.028032355 385:-1.0485602e-05 386:-0.093048468 387:2.4126262e-05 388:-2.4917499e-05 389:-0.15592261 390:-0.13046777 391:4.771338e-05 392:-6.5925509e-05 393:-0.063859992 394:-2.036876e-05 395:-3.7775797e-05 396:-0.2422803 397:-1.5243245e-05 398:1.9440047e-05 399:0.027637618 400:0.023921719 401:-0.025233613 402:0.045052718 403:-0.012404865 404:0.25910926 405:-4.1484433e-05 406:2.1428808e-05 407:0.12022606 408:-0.2192359 409:-1.0033168e-05 410:-0.056595065 411:-0.014218491 412:0.037531827 413:4.158029e-05 414:-4.2625052e-05 415:-0.37223211 416:-0.24805728 417:4.4422759e-05 418:0.035191055 419:-0.024078509 420:4.2835381e-05 421:-0.016653111 422:5.2140022e-05 423:-0.15859275 424:0.029036494 425:0.029997749 426:-0.067860581 427:0.16894326 428:3.8118582e-05 429:0.65821964 430:0.024841802 431:-2.5934954e-05 432:0.016381705 433:-0.17053925 434:-3.7763864e-05 435:2.7566175e-05 436:3.3654142e-05 437:8.4575848e-05 438:3.8146973e-05 439:-4.6762991e-05 440:-0.020635054 441:1.6478662e-05 442:0.27926126 443:-0.16351292 444:-0.020151354 445:-0.11456811 446:0.17698143 447:0.0086526489 448:1.4936178e-05 449:-0.059917651 450:-4.0781197e-05 451:-3.131538e-05 452:0.010563625 453:-3.2962755e-05 454:-0.030399501 455:-8.7624339e-06 456:-2.4956598e-05 457:0.45193693 458:-0.034660745 459:-0.04177336 460:0.089076668 461:5.7920191e-05 462:2.8223509e-05 463:5.01904e-05 464:-0.068406984 465:0.10662711 466:0.019204291 467:0.029769471 468:0.033204298 469:-0.013540727 470:-0.033589344 471:0.027865687 472:0.036470469 473:0.005103847 474:-0.016532565 475:0.030282086 476:0.01929543 477:-0.092748426 478:-2.2674185e-05 479:-0.17684661 480:-0.080805488 481:3.780931e-05 482:-0.023990052 483:0.050840802 484:-0.032010596 485:0.21735215 486:0.0070655043 487:0.1522388 488:-6.5575245e-05 489:-1.0757355e-05 490:-0.19640958 491:7.9065161e-05 492:-3.8329767e-05 493:-0.0064175213 494:2.6558484e-05 495:0.25765175 496:-0.11317445 497:0.30562869 498:-0.13652754 499:0.032470945 500:-0.034511294 501:0.058048252 502:0.111246 503:2.5183615e-05 504:0.29984647 505:-0.072840244 506:-0.051955275 507:-0.25072941 508:-0.076204054 509:-0.11044629 510:-0.053884923 511:-0.5349021 512:0.17971891 
1 1:3.7376249e-05 2:-0.006690355 3:0.13985248 4:-0.081653111 5:-0.072706588 6:-2.9438877e-05 7:-4.2876472e-05 8:0.5111618 9:-0.35517287 10:-5.4509823e-05 11:6.4659427e-05 12:-0.075238243 13:4.921803e-05 14:2.1507976e-05 15:-4.9068014e-05 16:6.4336702e-05 17:0.059847414 18:0.15135938 19:-0.074448071 20:3.4496712e-05 21:-1.7229397e-05 22:1.6779244e-05 23:-0.13874522 24:-0.24221247 25:-4.2963246e-05 26:-6.4070678e-05 27:-0.034396682 28:0.056563251 29:0.0042663389 30:-1.4007899e-05 31:-2.0285281e-05 32:4.1632858e-05 33:1.428713e-05 34:2.0414387e-05 35:-1.6672526e-05 36:0.082931548 37:2.5621339e-05 38:-5.2132036e-05 39:0.1509541 40:4.4925047e-05 41:-4.9095535e-05 42:-1.7619332e-05 43:0.0822533 44:-3.958762e-05 45:-6.5286673e-05 46:0.14083524 47:0.019261174 48:0.16043307 49:-2.0345051e-05 50:-3.0516323e-05 51:-2.4338944e-05 52:1.5084344e-05 53:0.17189129 54:3.2753618e-05 55:-0.28135735 56:0.15095411 57:8.8494762e-06 58:-0.17065851 59:0.13065253 60:-0.0012517058 61:0.2689403 62:3.5900248e-05 63:-5.7939546e-05 64:5.3394961e-05 65:-3.529451e-05 66:-0.00034748332 67:0.019261185 68:0.2799077 69:-2.7694035e-05 70:4.6288085e-05 71:-2.0616175e-05 72:-2.0345053e-05 73:2.8897872e-05 74:0.099603534 75:3.7592064e-05 76:0.1931522 77:-0.11982169 78:-2.8546581e-05 79:-0.01086928 80:5.714345e-05 81:-0.012484619 82:-1.7231476e-05 83:0.23303202 84:-0.15770428 85:-0.050450221 86:-2.6545778e-05 87:3.1271225e-05 88:7.2549892e-06 89:0.068047009 90:-0.5058257 91:0.34058303 92:-0.13360244 93:0.026836284 94:0.13065253 95:0.034396719 96:-0.082815625 97:0.079826094 98:-0.04023606 99:-0.076457255 100:4.0157436e-05 101:-0.025688853 102:-0.40776339 103:-0.055802695 104:-2.9061159e-05 105:-0.0034006508 106:-1.9285888e-05 107:-6.1035156e-05 108:-2.8772251e-05 109:0.010537615 110:-0.0066516646 111:-0.08951316 112:-1.4536166e-05 113:1.8207786e-05 114:-3.4204499e-05 115:2.5021534e-05 116:-4.1914791e-05 117:1.4565856e-05 118:-0.087050483 119:1.6961723e-05 120:-0.12500143 121:-2.9820063e-05 122:-2.3967341e-05 123:-2.2580822e-05 124:-4.2768377e-05 125:6.6235596e-05 126:-0.00079372473 127:0.11448892 128:0.013902569 129:-0.17858745 130:3.8568498e-05 131:1.7619332e-05 132:3.3207103e-05 133:-5.0862609e-06 134:-5.0222821e-05 135:-0.12059087 136:0.15201208 137:7.1930658e-06 138:1.4532963e-05 139:1.4860298e-05 140:-1.2967478e-05 141:-0.20484678 142:-4.2442542e-05 143:-0.12813525 144:0.12322821 145:0.079225868 146:-0.25805023 147:-0.21275106 148:5.2366286e-05 149:0.02496017 150:-0.30185321 151:0.12881796 152:0.25676471 153:0.028545726 154:-7.699147e-05 155:-1.8421706e-05 156:0.028545732 157:-3.5010369e-05 158:2.8074923e-05 159:1.7550279e-05 160:3.2168351e-05 161:0.38699594 162:-3.3570032e-05 163:-4.2939224e-05 164:4.321929e-05 165:-0.13874523 166:-2.5908112e-05 167:2.0024638e-05 168:-3.5335892e-05 169:0.0021399383 170:3.3066823e-05 171:7.6674463e-05 172:-7.9142092e-06 173:-9.5426753e-05 174:-2.1812333e-05 175:-2.4206649e-05 176:3.4730274e-05 177:-0.1846347 178:-5.525348e-05 179:4.0530547e-05 180:0.017889192 181:-0.29536876 182:0.2544792 183:-2.3183782e-05 184:0.29083228 185:-0.17385456 186:0.027375737 187:-0.02762912 188:0.067636475 189:-0.050437711 190:-2.706325e-05 191:-0.0034011044 192:-1.671524e-06 193:1.7543805e-05 194:-1.482278e-05 195:4.3232103e-05 196:3.7727874e-05 197:-0.17397691 198:2.4675208e-05 199:-1.6177719e-05 200:0.027629063 201:3.8062106e-05 202:-0.075427555 203:-0.0042917156 204:-8.8479328e-06 205:-0.0051393299 206:0.036741979 207:0.05427504 208:0.1011221 209:1.9031053e-05 210:-0.013874517 211:0.21533555 212:1.4790334e-05 213:-3.3810364e-05 214:-7.5245962e-06 215:-0.084832989 216:-1.3368625e-05 217:0.29345512 218:3.420229e-05 219:3.8061902e-05 220:-3.5488818e-05 221:5.6350964e-05 222:5.735782e-06 223:3.596531e-05 224:5.2067262e-05 225:3.3640299e-05 226:-0.093846455 227:0.093949698 228:0.17250472 229:0.16133139 230:-0.080157302 231:0.0066904025 232:-0.15593369 233:0.16750008 234:-0.22028351 235:0.068047039 236:2.931259e-05 237:-0.047683995 238:-3.6530386e-05 239:0.010877257 240:5.1827104e-05 241:-0.14486608 242:-0.26737592 243:9.2232622e-06 244:0.0067703417 245:-1.7759867e-05 246:0.087686248 247:0.0064227572 248:0.047923233 249:2.7920029e-05 250:-2.1823444e-05 251:-0.069571711 252:0.33607852 253:-0.25805023 254:1.9818332e-05 255:-4.5492921e-05 256:-4.7520818e-05 257:-3.7720736e-05 258:0.33407772 259:2.5431316e-05 260:0.028900566 261:0.051844094 262:1.2967478e-05 263:2.520781e-05 264:5.8436715e-05 265:-4.5492921e-05 266:0.026836306 267:0.14426672 268:-2.6306358e-05 269:6.6062748e-05 270:1.4725057e-05 271:-0.031124009 272:-0.5506801 273:2.0816427e-05 274:-1.3222345e-05 275:0.25320134 276:0.18815173 277:-0.045432728 278:-0.020884961 279:2.6793554e-05 280:-0.026577907 281:1.2089461e-05 282:0.060609967 283:-3.407499e-05 284:3.5779532e-05 285:-0.04525023 286:0.19088364 287:1.02912e-05 288:-4.0370964e-05 289:-1.4287134e-05 290:3.0028556e-05 291:3.5537487e-05 292:-0.091529585 293:-2.0265425e-05 294:3.4099292e-05 295:3.8516613e-05 296:5.6500849e-06 297:0.10808214 298:-0.15980692 299:-6.0503015e-05 300:3.5756511e-05 301:-6.6558205e-05 302:0.16393797 303:-0.17833184 304:-0.0061326516 305:0.15950246 306:-3.3351709e-05 307:0.25063565 308:-2.75611e-05 309:-4.4631775e-05 310:-0.054275043 311:-6.0609818e-05 312:0.15980691 313:-3.2572989e-05 314:-3.8735827e-05 315:1.1928344e-05 316:-0.010784576 317:-3.9398023e-05 318:-2.8172914e-05 319:0.0037649181 320:-2.0019765e-05 321:-0.020666795 322:0.0017048951 323:2.9505536e-05 324:0.087136999 325:-0.17833182 326:0.14151333 327:1.4434849e-05 328:-0.36574486 329:-0.00504422 330:0.020682069 331:2.8106409e-05 332:0.036741957 333:-0.2392488 334:0.15253325 335:-0.027894858 336:-0.069111004 337:-0.22716062 338:5.3930915e-05 339:-0.0050063659 340:0.0056962627 341:0.0080081234 342:3.2146749e-05 343:-3.4823635e-05 344:-1.6606311e-05 345:-3.7868311e-05 346:-0.27561134 347:0.046256661 348:-0.020884871 349:0.0037109798 350:3.7720736e-05 351:0.34999675 352:0.01053993 353:3.1571835e-05 354:2.8891409e-05 355:-0.063624159 356:-2.9026703e-05 357:-0.081653118 358:0.0010518609 359:0.10112209 360:0.037748553 361:0.072706595 362:0.087165594 363:-0.48588166 364:0.34036037 365:7.3505777e-05 366:2.5714702e-05 367:-0.062647678 368:-0.13543065 369:0.071280286 370:-4.4129309e-05 371:4.0017694e-05 372:-2.4490193e-05 373:-0.19088364 374:-4.1594001e-05 375:3.420029e-05 376:-0.12907864 377:0.069110967 378:-0.0822533 379:4.7362308e-05 380:0.059847441 381:3.1524924e-05 382:0.12718205 383:-1.8827251e-06 384:-1.0749773e-05 385:3.2567976e-05 386:-0.13293356 387:-2.0345053e-05 388:3.0358216e-05 389:-0.17236274 390:0.051621825 391:-3.5965238e-06 392:-0.0017052261 393:-0.13401729 394:-3.2127457e-05 395:-3.5696168e-05 396:0.059686158 397:-5.4346656e-05 398:9.3352055e-06 399:0.019954847 400:4.5987807e-05 401:-4.0170209e-05 402:-2.6913975e-05 403:4.0690105e-05 404:0.17189127 405:-2.1113787e-05 406:-5.6866211e-06 407:0.21275106 408:-0.17277332 409:-3.1633463e-05 410:3.3301261e-05 411:-6.1271596e-05 412:4.1694471e-05 413:3.9317532e-05 414:-1.7084325e-05 415:-0.34062016 416:-0.26323447 417:3.2168355e-05 418:3.0346311e-05 419:9.0958774e-06 420:-0.0056962827 421:3.3834163e-05 422:5.8889571e-05 423:-0.25615698 424:0.080551304 425:0.0010520756 426:2.6786009e-05 427:0.18354002 428:2.362725e-05 429:0.55802071 430:-2.4713663e-05 431:-3.0208799e-05 432:2.459091e-05 433:-0.19680792 434:-0.004526244 435:3.3128526e-05 436:6.7161209e-06 437:5.5717221e-05 438:4.9313148e-05 439:-0.022726368 440:6.1877057e-05 441:-4.6051632e-06 442:0.3172648 443:-0.1931522 444:0.0042920429 445:2.2532202e-05 446:0.13784091 447:3.4215009e-05 448:-3.5036588e-05 449:-2.4071162e-05 450:-4.6756839e-05 451:-4.441278e-05 452:2.8309607e-05 453:-4.1483814e-05 454:2.0638237e-05 455:-2.0030026e-05 456:5.436299e-05 457:0.3869158 458:-0.046342932 459:-0.12921521 460:0.11191046 461:-0.012270046 462:0.01387458 463:0.0045264671 464:-0.16446985 465:0.17200385 466:0.0037700955 467:-3.8400445e-05 468:0.037748594 469:2.8815104e-05 470:4.1936681e-05 471:-0.0029949842 472:-2.0873153e-05 473:4.6824018e-05 474:-0.025688794 475:0.040236011 476:1.8262639e-05 477:-0.087165602 478:-3.8659517e-05 479:-0.19687255 480:-0.13667929 481:-4.5105007e-06 482:7.0211154e-06 483:0.073195793 484:-3.4307709e-06 485:0.38704622 486:-2.9736768e-05 487:0.11733609 488:-5.5108212e-05 489:2.488137e-05 490:-0.17194046 491:0.0061329114 492:-1.5438465e-05 493:0.00011612599 494:3.5873676e-05 495:0.23254365 496:-0.093846463 497:0.24221247 498:-0.16419551 499:0.04760877 500:-2.5024476e-05 501:3.5465149e-05 502:0.17250472 503:-1.5293466e-05 504:0.2689403 505:-3.4026187e-05 506:-0.048881132 507:-0.20416199 508:-0.08951313 509:-0.08259099 510:-0.06257499 511:-0.40761831 512:0.25063565 
