svm_type c_svc
kernel_type linear
nr_class 2
total_sv 38
rho 0.77562
label 1 0
nr_sv 19 19
SV
0.167036644648858 1:-1.017253e-05 2:3.3738452e-05 3:0.24845962 4:-4.345705e-05 5:0.024540007 6:-0.31135225 7:0.36019763 8:2.6672589e-05 9:-1.066714e-05 10:4.1006766e-05 11:-2.1579186e-05 12:-0.087297469 13:0.18889157 14:-5.2612711e-05 15:-0.049513493 16:4.2249678e-05 17:0.2408978 18:0.055635806 19:0.34720978 20:4.6616373e-05 21:-0.2898564 22:0.0076765972 23:-4.3158372e-05 24:-3.1763702e-05 25:-0.19505912 26:0.13473321 27:4.3158372e-05 28:-0.50096947 29:-0.14053418 30:0.056111746 31:2.1579188e-05 32:1.4386123e-05 33:-0.26911226 34:-4.7287886e-05 35:-0.33792576 36:-1.4386125e-05 37:2.4917497e-05 38:0.22703607 39:4.7168065e-05 40:-4.5776367e-05 41:0.14243589 42:6.8239373e-05 43:-1.7982657e-05 44:-0.23703295 45:-0.24173163 46:-0.34488508 47:-4.9574759e-05 48:-0.18456383 49:0.08474461 50:0.031134104 51:2.3463748e-05 52:0.22586241 53:-0.037953131 54:-3.3738455e-05 55:-0.012574674 56:-0.30551067 57:0.004785812 58:-4.6616369e-05 59:-0.16618286 60:-4.8419781e-05 61:0.20998925 62:-0.3285493 63:3.3352855e-05 64:0.13176888 65:-0.10746485 66:0.37359163 67:0.20658372 68:-0.049754687 69:4.5492921e-05 70:0.058485802 71:0.31783527 72:0.027980268 73:-0.29756612 74:-0.21908765 75:0.03751738 76:0.023310604 77:-2.2746461e-05 78:0.24961984 79:0.062065031 80:1.7232713e-05 81:0.17241426 82:-0.19211619 83:-0.36396345 84:-7.1930626e-05 85:-0.34988731 86:0.10375436 87:-6.0189948e-05 88:1.5944652e-05 89:-0.07460691 90:0.0042976243 91:-0.0419963 92:0.51878315 93:-2.4413088e-05 94:0.14643182 95:0.33918658 96:0.050090484 97:0.072935991 98:-0.08114069 99:-0.15727235 100:0.038281426 101:2.8735345e-05 102:1.6183591e-05 103:2.8055898e-05 104:-0.077509306 105:-0.16170083 106:0.41319042 107:0.17189154 108:-3.4292068e-05 109:-0.23189127 110:1.7619333e-05 111:-0.0059903525 112:-5.6839042e-05 113:2.8772249e-05 114:-2.3370647e-05 115:0.21908765 116:-0.020513393 117:0.12319656 118:1.0043916e-05 119:2.6805428e-05 120:-0.19217829 121:-8.0714462e-06 122:8.2164312e-05 123:0.10842762 124:0.22349419 125:0.12005592 126:-4.9233997e-05 127:2.4126264e-05 128:-0.14246747 129:2.5431314e-05 130:-0.39179569 131:-4.4920656e-05 132:-3.3738455e-05 133:-0.26365626 134:-5.7544497e-05 135:0.0028174499 136:-5.0862654e-06 137:0.15971747 138:-0.21512967 139:-0.17380057 140:-2.7130409e-05 141:0.2190197 142:0.19217235 143:0.009748647 144:-0.030264908 145:4.3753691e-05 146:0.0059344028 147:3.2962751e-05 148:-0.037953146 149:-0.26193637 150:-0.14872701 151:0.19267558 152:0.098661803 153:-4.1787916e-05 154:0.017499771 155:-0.28792089 156:-0.16307834 157:0.062862217 158:-0.050636765 159:-0.41775858 160:-0.31983787 161:-0.027295763 162:0.048769921 163:0.21060765 164:0.13733983 165:5.865765e-05 166:-0.027345086 167:0.013834 168:0.21163628 169:0.43683228 170:-0.43344828 171:-2.1201236e-05 172:-0.12344731 173:-6.4737556e-05 174:2.3308185e-05 175:-4.4341014e-05 176:0.23066297 177:-4.6685687e-05 178:-3.6522856e-06 179:-0.024985651 180:0.0012886226 181:3.2567972e-05 182:-0.24583802 183:0.037341878 184:-0.26783949 185:0.040841542 186:-0.18836255 187:0.19708996 188:1.7619332e-05 189:-0.12666556 190:-4.8785721e-05 191:0.24720436 192:-2.3856688e-05 193:4.5625304e-09 194:0.019941736 195:3.7159227e-06 196:0.10116728 197:-0.19126491 198:-0.20929047 199:6.1903163e-05 200:4.0049275e-05 201:0.18889157 202:-0.047572047 203:0.004596869 204:4.3158376e-05 205:4.0832023e-05 206:-4.492066e-05 207:-0.33740896 208:-4.0132722e-06 209:1.2912816e-05 210:3.3738452e-05 211:-0.16615212 212:-1.2229531e-05 213:-0.068895519 214:-1.9005167e-05 215:0.34486502 216:-0.18957937 217:0.21922319 218:3.1775689e-05 219:0.26193637 220:-0.0077168318 221:-1.7612929e-05 222:-3.8587394e-05 223:-0.18811376 224:3.7252903e-09 225:3.6146645e-05 226:0.0093148435 227:0.16982976 228:0.26761499 229:0.24678846 230:0.081404798 231:6.5925509e-05 232:-4.8269281e-05 233:-0.13733979 234:-0.06704393 235:2.5054273e-06 236:-0.30658403 237:-0.32510746 238:3.3065979e-05 239:-0.0047857594 240:0.12506936 241:-0.086760506 242:4.3158372e-05 243:-0.17021815 244:0.0015481453 245:4.961183e-05 246:2.2746461e-05 247:-0.37364906 248:0.28093615 249:-4.8571725e-05 250:-0.2239275 251:-2.0345051e-05 252:0.17796819 253:1.7419105e-05 254:-0.055441581 255:-0.078989662 256:-2.6913973e-05 257:-0.23909932 258:-0.21863635 259:0.32276395 260:-0.1048367 261:0.20077778 262:-0.15497401 263:-0.068895511 264:3.3929606e-05 265:-4.0816565e-05 266:-0.12991673 267:0.11302663 268:-1.9200221e-05 269:-0.038555775 270:0.038318619 271:3.5626541e-05 272:0.10013891 273:-4.3158372e-05 274:-0.084370509 275:0.24216133 276:0.23950101 277:-4.5492918e-05 278:-4.5100271e-05 279:-0.36175889 280:0.0092527485 281:4.6616373e-05 282:-0.0029990282 283:-0.27535617 284:-0.28484118 285:4.9834995e-05 286:3.8062106e-05 287:3.7376249e-05 288:-0.17380059 289:-0.060704786 290:4.295183e-05 291:-4.0690105e-05 292:0.16170084 293:0.410741 294:3.9398023e-05 295:-0.024572551 296:0.048859406 297:-0.24089779 298:-2.2746459e-05 299:-2.8089806e-05 300:3.5238663e-05 301:-4.6616373e-05 302:0.22303778 303:4.633806e-05 304:0.21573654 305:-0.038281441 306:-2.9037952e-05 307:-2.9969597e-05 308:2.4917501e-05 309:-0.097978249 310:-0.24585564 311:-4.9599214e-05 312:-5.1869909e-05 313:-0.0037201908 314:0.13473321 315:0.26777416 316:-2.120124e-05 317:1.4386124e-05 318:2.4917499e-05 319:0.13194041 320:-0.009106488 321:0.074250244 322:7.0477334e-05 323:0.041125253 324:-3.1941367e-05 325:0.24216132 326:-0.23059554 327:6.2707666e-05 328:-0.16258384 329:0.19301862 330:2.8772251e-05 331:-0.28623512 332:4.2681586e-05 333:-0.19520214 334:-0.14187273 335:0.037285879 336:-2.9617719e-05 337:-0.39529386 338:0.17294723 339:-6.7476903e-05 340:-0.23695138 341:0.23719773 342:-2.3308186e-05 343:4.7232395e-05 344:-0.0098061888 345:-0.050636765 346:0.42054942 347:-5.6021094e-05 348:7.6124212e-05 349:-3.9334842e-05 350:-0.23233083 351:1.4386122e-05 352:0.1862244 353:-1.5881853e-05 354:1.9031053e-05 355:0.19201732 356:-0.32661131 357:-0.019333892 358:-5.0639359e-05 359:-3.7523529e-05 360:-0.46899933 361:-4.8252525e-05 362:-0.26717478 363:0.24836731 364:1.1880366e-05 365:0.03821487 366:0.2057644 367:0.17241427 368:0.015682941 369:0.35295749 370:3.2612705e-05 371:-0.33918661 372:-6.0161321e-05 373:-0.012675313 374:-2.0281052e-05 375:6.2754145e-05 376:4.3158372e-05 377:-1.4450471e-05 378:-2.7369997e-05 379:5.5484576e-05 380:0.01400769 381:-2.1579186e-05 382:-2.9788969e-05 383:-0.070256673 384:-0.31407824 385:0.041996315 386:-0.017500056 387:-0.067244291 388:-0.20259018 389:0.023791891 390:0.19112726 391:2.385669e-05 392:-4.0370964e-05 393:-0.17379272 394:-3.9398026e-05 395:0.12171204 396:-3.1783184e-05 397:-0.021368368 398:2.4917497e-05 399:0.037341911 400:-0.070256673 401:-0.021368325 402:0.19301862 403:-0.053996786 404:5.1494488e-05 405:0.16913486 406:0.19018322 407:-0.26365626 408:-6.2293675e-06 409:2.0024638e-05 410:5.7768844e-05 411:-4.0690105e-05 412:0.049966563 413:-0.28535736 414:-4.5563946e-05 415:0.17271467 416:-0.0062961774 417:-0.13297448 418:-5.6265886e-05 419:-0.077509277 420:0.061693482 421:0.084694676 422:4.9198257e-05 423:-0.29756612 424:-0.26547855 425:0.065877579 426:0.27991447 427:-0.062064961 428:0.28393716 429:0.15727237 430:-0.010809659 431:0.16886966 432:0.050063446 433:3.0411431e-05 434:0.0093195383 435:-4.325193e-05 436:-0.23909931 437:-1.9031053e-05 438:-3.3738452e-05 439:-0.055635791 440:4.19424e-05 441:1.449808e-05 442:4.19424e-05 443:-0.10071305 444:-0.24804139 445:-0.077429056 446:-0.22234087 447:-0.28615957 448:-0.0014724709 449:0.21991821 450:-0.16874762 451:4.0520077e-05 452:0.27933705 453:-2.5934954e-05 454:-1.7619332e-05 455:1.0012459e-05 456:0.13143662 457:3.2168351e-05 458:0.0043555521 459:0.053996772 460:0.084370494 461:-3.390948e-05 462:0.15702476 463:-2.4917499e-05 464:4.3916487e-05 465:0.022285009 466:0.16822244 467:-0.011344781 468:0.040841542 469:2.3446513e-05 470:4.4909695e-05 471:-0.35604113 472:-5.9315513e-05 473:-2.0345053e-05 474:4.344829e-05 475:0.013789402 476:0.1767547 477:-1.5396221e-05 478:-2.6155289e-05 479:2.2746461e-05 480:0.29534125 481:-1.9866051e-05 482:2.8273244e-05 483:-0.1888817 484:-0.26031539 485:0.14657192 486:-3.4496716e-05 487:0.31176063 488:0.050453156 489:0.0059903008 490:3.3322543e-05 491:-1.4602661e-05 492:2.8772251e-05 493:-0.053682119 494:1.5870888e-05 495:0.048769884 496:-2.4392861e-05 497:-0.14394747 498:-0.25045222 499:0.060010768 500:-2.8696697e-05 501:4.1588675e-05 502:0.22493908 503:0.3162739 504:0.28258517 505:0.0082709473 506:-0.12536275 507:0.32868528 508:4.7713376e-05 509:-3.5505182e-05 510:-0.22530785 511:-0.0059143123 512:-0.30528522 
1 1:0.083051682 2:-0.024965558 3:0.2142556 4:-0.025594449 5:0.0011618853 6:-0.312168 7:0.32785237 8:0.0065302895 9:0.024121093 10:0.036554586 11:-0.0037113132 12:-0.040858306 13:0.14982931 14:-6.709242e-05 15:-0.045441851 16:-1.2571794e-05 17:0.20352794 18:0.062938899 19:0.36135066 20:0.12430181 21:-0.30973658 22:-0.038573809 23:-0.085301429 24:2.4117884e-05 25:-0.23716739 26:0.13998969 27:0.0091156447 28:-0.49133259 29:-0.13303812 30:0.13021694 31:-0.019946387 32:4.7441503e-05 33:-0.25435013 34:-0.032306679 35:-0.3363862 36:-0.016408006 37:-2.4917497e-05 38:0.24885449 39:-0.12593852 40:-5.501635e-05 41:0.1169806 42:-0.0040599979 43:0.041507546 44:-0.22453371 45:-0.22380003 46:-0.34515047 47:0.031517852 48:-0.18388301 49:0.04599322 50:-0.073605627 51:0.058398221 52:0.21708077 53:-0.062352147 54:-0.0059496062 55:0.048338871 56:-0.27688324 57:-4.5613117e-05 58:-0.0032107041 59:-0.10580921 60:-5.95196e-05 61:0.18181279 62:-0.35624135 63:0.015299476 64:-0.068320327 65:0.017416149 66:0.36440194 67:0.23837619 68:-0.06807474 69:-0.024590366 70:0.11458343 71:0.34684137 72:0.033451129 73:-0.27463204 74:-0.20363353 75:0.067850262 76:-0.02036475 77:-0.031490564 78:0.26074719 79:-0.035135705 80:1.1698155e-05 81:0.14017038 82:-0.15330163 83:-0.38226449 84:0.021468354 85:-0.2885277 86:0.041981149 87:-0.0081656603 88:0.0016103168 89:0.010484157 90:0.032516588 91:-0.050671984 92:0.51794595 93:-0.058747597 94:0.13860078 95:0.33281562 96:0.090776317 97:0.054119296 98:-0.069112606 99:-0.13352124 100:0.054258157 101:0.0504453 102:1.8656481e-05 103:-0.0022991202 104:-0.082223155 105:-0.11272827 106:0.3941721 107:0.15596648 108:-3.2994009e-05 109:-0.2379297 110:-0.018660102 111:-0.074477933 112:5.5433243e-06 113:0.015738558 114:0.053665031 115:0.20163944 116:-0.011839967 117:0.09513507 118:-2.2385368e-05 119:0.040420856 120:-0.15448348 121:-0.0051360717 122:0.021309817 123:0.059659526 124:0.19259147 125:0.064204603 126:-0.022272371 127:0.003791709 128:-0.097229399 129:3.2168351e-05 130:-0.38487512 131:-0.028322335 132:4.689303e-05 133:-0.24352153 134:2.0345053e-05 135:0.035172652 136:0.039294224 137:0.14986256 138:-0.23050568 139:-0.14425483 140:-2.9137987e-05 141:0.19214861 142:0.17677213 143:0.020091083 144:-0.045764618 145:-3.2962751e-05 146:0.064052224 147:-0.026837537 148:-0.033223793 149:-0.27431604 150:-0.10096414 151:0.15819545 152:0.051222801 153:0.010590812 154:0.045644626 155:-0.28938755 156:-0.15343434 157:0.03692412 158:-0.02968438 159:-0.41940448 160:-0.33441305 161:-0.043209895 162:0.13421962 163:0.16969667 164:0.12220665 165:0.019315647 166:-0.051375292 167:0.035581496 168:0.22371241 169:0.43999895 170:-0.41896203 171:0.033214547 172:-0.10647802 173:-0.074962378 174:-0.013939339 175:0.045277834 176:0.23322557 177:0.027605129 178:-0.010841904 179:0.10120586 180:0.027804604 181:-2.3750554e-05 182:-0.23394847 183:0.087788932 184:-0.22805202 185:0.075608619 186:-0.19317815 187:0.23562033 188:0.029331874 189:-0.065912507 190:-4.7168065e-05 191:0.24931757 192:-0.0065305158 193:0.063880153 194:0.061717968 195:0.026562769 196:-0.027210452 197:-0.16691166 198:-0.20102005 199:7.7513345e-05 200:-0.069645084 201:0.15102032 202:-0.043233663 203:0.029540509 204:2.6744705e-05 205:0.081835687 206:-2.9657756e-05 207:-0.32439491 208:-4.2441683e-05 209:2.3116294e-05 210:-0.0056252987 211:-0.12025727 212:-0.048549589 213:-0.051497076 214:0.0042573628 215:0.33624601 216:-0.12516108 217:0.17117405 218:0.034512825 219:0.28493151 220:0.029969929 221:0.040087674 222:4.1246487e-05 223:-0.15672059 224:-0.021012789 225:5.1323925e-05 226:0.028143005 227:0.15776305 228:0.24104978 229:0.25366423 230:0.07554543 231:-0.046461709 232:0.040858664 233:-0.081215449 234:0.094976932 235:-0.02347976 236:-0.30467361 237:-0.28727087 238:4.0922976e-05 239:-0.016342353 240:0.13003381 241:-0.058665883 242:4.9834995e-05 243:-0.12602706 244:0.060560998 245:0.021507604 246:-2.9657755e-05 247:-0.36761704 248:0.23591216 249:-2.9954223e-05 250:-0.21513613 251:-0.046228945 252:0.17308156 253:0.052948546 254:0.061812263 255:-0.013040024 256:-6.5925509e-05 257:-0.22108397 258:-0.23492603 259:0.28973174 260:-0.097235888 261:0.185487 262:-0.17999361 263:0.0046067964 264:2.762548e-05 265:-0.0038872401 266:-0.073876314 267:0.090501145 268:3.2442589e-05 269:-0.042981945 270:0.023253093 271:2.3412009e-05 272:0.090421312 273:3.2962755e-05 274:-0.023222346 275:0.21063302 276:0.15419006 277:0.035963956 278:-0.0058387076 279:-0.35682341 280:0.070190862 281:0.04326969 282:0.034752049 283:-0.30113885 284:-0.30478811 285:0.02654247 286:0.027076667 287:0.061192978 288:-0.15099856 289:-0.061583821 290:0.019104762 291:-0.019281657 292:0.11195448 293:0.41262457 294:4.7713376e-05 295:0.037923791 296:0.094687581 297:-0.23046443 298:-4.3158372e-05 299:0.0038751257 300:-0.018164206 301:0.029905031 302:0.20709629 303:-3.6897323e-05 304:0.18147391 305:0.055445589 306:4.1016621e-05 307:2.4359695e-05 308:-2.5934954e-05 309:-0.066622287 310:-0.25267047 311:-0.024220405 312:-2.2746457e-05 313:-0.030296657 314:0.1133153 315:0.22514373 316:-4.3772165e-05 317:-2.6913975e-05 318:-0.046268791 319:0.12793422 320:-0.06970112 321:0.062930711 322:-0.035963908 323:0.053812381 324:0.011525922 325:0.21063302 326:-0.22143357 327:0.0030880277 328:-0.11417297 329:0.17077261 330:0.037690673 331:-0.28757739 332:-2.4917499e-05 333:-0.17466556 334:-0.15969734 335:0.023468118 336:-1.5827809e-05 337:-0.43251911 338:0.16160263 339:-6.7476903e-05 340:-0.13027973 341:0.22361566 342:3.2368782e-05 343:4.8979273e-05 344:-0.086341798 345:-0.029684406 346:0.46251318 347:-0.016310833 348:0.029791085 349:-1.9147859e-05 350:-0.22659549 351:-2.385669e-05 352:0.13624939 353:9.3439057e-06 354:0.038506422 355:0.16556391 356:-0.33516666 357:-0.06767793 358:0.012901133 359:-1.3500525e-05 360:-0.47506982 361:-0.026842469 362:-0.27003217 363:0.23354031 364:-4.7146201e-05 365:0.065237455 366:0.15357396 367:0.14383917 368:0.041206837 369:0.33085808 370:-0.011783025 371:-0.30477086 372:-4.3816868e-05 373:-0.041492604 374:-0.08617463 375:2.4753483e-05 376:0.0071470728 377:-2.4553325e-05 378:-0.024524199 379:-2.0513808e-05 380:0.021516979 381:2.8405866e-05 382:0.0055101989 383:0.012901213 384:-0.33927655 385:0.050590053 386:-0.030593527 387:-0.083578289 388:-0.16720547 389:-0.034937881 390:0.17484032 391:-2.2746461e-05 392:-3.7891808e-05 393:-0.13562855 394:-0.033835467 395:-0.0900319 396:0.034336213 397:-0.050738648 398:1.9031051e-05 399:0.11977383 400:0.03040394 401:-0.068786882 402:0.17222749 403:-0.070205435 404:0.01405828 405:0.17052607 406:0.14383879 407:-0.24341632 408:0.0048297136 409:-0.082113571 410:7.2557283e-05 411:2.2746461e-05 412:0.074124955 413:-0.30496836 414:-4.6581677e-05 415:0.13423316 416:-0.0074971034 417:-0.053274088 418:-1.1157945e-05 419:-0.041600656 420:0.12220786 421:-0.075043529 422:-0.026916647 423:-0.27577582 424:-0.31258965 425:0.029175743 426:0.26089692 427:5.0144627e-05 428:0.257085 429:0.12349974 430:-0.038506415 431:0.17218271 432:0.036459651 433:0.043181203 434:0.040479373 435:-0.078197673 436:-0.21852782 437:-0.043259103 438:-0.079883665 439:0.048073307 440:-0.026084509 441:0.0032333555 442:0.043564543 443:-0.058851305 444:-0.22134411 445:-0.017232694 446:-0.1998861 447:-0.25977132 448:-3.9315859e-05 449:0.17134632 450:-0.16248734 451:4.2109055e-05 452:0.2464022 453:1.6869228e-05 454:0.027870426 455:-3.8146896e-05 456:0.10284006 457:4.9050144e-05 458:0.10491949 459:0.070205435 460:0.0064609288 461:-0.050964355 462:0.14605978 463:-0.046570808 464:-0.052265905 465:0.059169285 466:0.1800601 467:-0.10994338 468:0.077399112 469:-0.032727767 470:-0.023089321 471:-0.36384872 472:-4.5882211e-05 473:0.056983702 474:0.070934542 475:0.028089669 476:0.1791694 477:-0.042758603 478:0.033521745 479:-6.1457547e-05 480:0.31231403 481:-3.3931439e-05 482:0.037386283 483:-0.16049829 484:-0.25003609 485:0.097957566 486:0.0029195871 487:0.29996839 488:0.067206062 489:0.037678163 490:0.022133056 491:-0.016159238 492:4.5492921e-05 493:-0.044157386 494:2.4400999e-05 495:0.13464665 496:-0.013755917 497:0.025017833 498:-0.27090114 499:0.057320684 500:-0.031181026 501:0.067503318 502:0.20857672 503:0.34205046 504:0.21285371 505:0.092111684 506:-0.13485308 507:0.33320358 508:0.01791179 509:0.053085726 510:-0.2295398 511:-0.048237499 512:-0.33621472 
1 1:0.05630286 2:4.5492921e-05 3:0.21339558 4:-3.5238663e-05 5:0.0066156918 6:-0.33414784 7:0.33471072 8:-1.9367913e-05 9:5.615082e-05 10:4.6082201e-05 11:-0.015969783 12:-0.010713391 13:0.19487348 14:-6.0743056e-05 15:-0.065244973 16:-2.3584031e-05 17:0.21793947 18:0.1229541 19:0.33090517 20:0.0066609643 21:-0.29025957 22:0.046292603 23:-7.1930626e-06 24:-0.0053400816 25:-0.2131573 26:0.19273853 27:0.0015650737 28:-0.43619865 29:-0.025344599 30:0.18254527 31:4.8185462e-05 32:3.5649227e-05 33:-0.24413449 34:-4.9415219e-05 35:-0.31923059 36:-2.4259929e-05 37:2.7858612e-05 38:0.24991192 39:-0.013239904 40:-5.7087851e-05 41:0.016861022 42:4.5727171e-05 43:0.0083637107 44:-0.21736664 45:-0.2961196 46:-0.33659548 47:-0.026061643 48:-0.18717588 49:0.062881589 50:0.046891399 51:0.046020046 52:0.23473735 53:-0.049382795 54:-1.4386125e-05 55:-0.048432443 56:-0.2414639 57:-3.343905e-05 58:-4.730498e-05 59:-0.21790716 60:-5.31478e-05 61:0.11367848 62:-0.31974632 63:-1.6481377e-05 64:-0.1214039 65:-0.083447203 66:0.38192528 67:0.18873532 68:-0.069779426 69:0.065196909 70:0.081140548 71:0.32240096 72:0.046061564 73:-0.25261247 74:-0.2110423 75:0.055397995 76:0.035297755 77:-0.048042901 78:0.23960736 79:-0.02165726 80:-3.522863e-05 81:0.19708556 82:-0.14505355 83:-0.30918536 84:-5.8312067e-05 85:-0.3488791 86:0.04794034 87:-6.9933361e-05 88:0.004072946 89:-0.10485162 90:0.032947365 91:-0.038336899 92:0.41696429 93:-0.10741325 94:0.079252243 95:0.34074807 96:0.054062013 97:0.049945366 98:-0.076968156 99:-0.090271957 100:0.077923566 101:-4.8795533e-05 102:-2.5778983e-05 103:0.10726312 104:-0.17806087 105:-0.11926989 106:0.38414323 107:0.18215078 108:4.7828838e-05 109:-0.29602557 110:0.054423697 111:-0.02938506 112:-3.1771458e-05 113:1.8338784e-05 114:0.067701392 115:0.1983757 116:-0.0011404492 117:0.069253504 118:-1.9872894e-05 119:0.0066852937 120:-0.164361 121:-3.5507168e-05 122:0.077287257 123:0.06977544 124:0.21318106 125:0.071205117 126:5.8757232e-06 127:0.012064049 128:-0.050052013 129:0.048324868 130:-0.35774603 131:-6.3933338e-05 132:-4.5207693e-05 133:-0.25000456 134:-3.6677564e-05 135:0.072444037 136:-0.018895963 137:0.15134467 138:-0.22089583 139:-0.09292648 140:-2.9876733e-06 141:0.21533184 142:0.18189768 143:0.052697469 144:-0.043924611 145:-1.6084174e-05 146:0.072361156 147:1.0562419e-05 148:-0.049382772 149:-0.28774816 150:-0.13956204 151:0.18132721 152:0.058858585 153:-3.0351559e-05 154:0.059444211 155:-0.29477337 156:-0.15913886 157:0.080196477 158:-0.031259868 159:-0.38179141 160:-0.33415884 161:0.048366982 162:0.075172879 163:0.19455412 164:0.11578707 165:-0.038574003 166:-0.043573227 167:0.12661514 168:0.24562658 169:0.41568631 170:-0.36174026 171:0.028434744 172:-0.12206832 173:-0.01378536 174:0.013956645 175:0.061060175 176:0.19953026 177:1.2842185e-05 178:1.3799616e-05 179:0.081608333 180:0.097150937 181:-0.013435261 182:-0.18456413 183:0.076916821 184:-0.27000034 185:0.11572733 186:-0.18128453 187:0.21478586 188:0.052815285 189:-0.065942787 190:0.0057377443 191:0.26722968 192:-5.6294615e-05 193:-0.076163463 194:-0.11402254 195:0.057753481 196:-0.019381374 197:-0.17351148 198:-0.25233507 199:7.4520955e-05 200:-0.014000909 201:0.19487345 202:-0.056437857 203:0.035448987 204:-1.2597556e-05 205:0.011943735 206:-3.4728906e-05 207:-0.37623295 208:-0.048645463 209:2.1897536e-05 210:-0.008087323 211:-0.12103251 212:-0.012986031 213:-0.13436821 214:0.014408765 215:0.33625314 216:-0.14616123 217:0.12106088 218:0.036437821 219:0.30733302 220:-0.059172347 221:1.3940712e-05 222:-4.3542605e-05 223:-0.16823168 224:2.4425981e-05 225:4.0036484e-05 226:0.067262247 227:0.21515816 228:0.24801658 229:0.209071 230:0.076335423 231:0.066485621 232:-0.0064682933 233:-0.11444764 234:0.084802002 235:3.9938033e-05 236:-0.28848904 237:-0.31990629 238:4.58752e-05 239:3.4103061e-05 240:0.13382052 241:-0.096174464 242:3.6323181e-05 243:-0.13053291 244:0.065270618 245:0.079677589 246:0.033305682 247:-0.38322899 248:0.2718364 249:-6.4196547e-06 250:-0.22166763 251:-0.062647149 252:0.17584933 253:4.5510686e-05 254:-0.072446547 255:-0.1102505 256:-4.9050144e-05 257:-0.19836602 258:-0.23641661 259:0.28291041 260:-0.073179394 261:0.16922168 262:-0.22516885 263:-0.0074376124 264:4.0210438e-05 265:0.12004755 266:-0.072397016 267:-0.03642083 268:-2.7650873e-05 269:-0.058688201 270:0.0048934803 271:3.8330276e-05 272:0.14957689 273:0.063149959 274:-0.065112136 275:0.27522948 276:0.16343944 277:-0.0085944785 278:0.051377561 279:-0.31624961 280:0.061597854 281:1.4386126e-05 282:-0.080279596 283:-0.27885035 284:-0.25276461 285:4.2635376e-05 286:0.024626603 287:-0.031005858 288:-0.092926525 289:-0.049229514 290:0.056930937 291:-2.0345055e-05 292:0.1185093 293:0.34199515 294:3.806211e-05 295:0.092835747 296:0.028948674 297:-0.25768444 298:-4.9620139e-05 299:1.9040821e-05 300:1.3456988e-05 301:3.6677564e-05 302:0.24927427 303:2.2460332e-05 304:0.20360255 305:0.10845481 306:2.881846e-05 307:-1.1692471e-05 308:-3.1353833e-05 309:-0.058306288 310:-0.23632731 311:4.1144016e-05 312:2.8946133e-05 313:-0.0033084443 314:0.1145641 315:0.26729569 316:-1.4664413e-05 317:0.038574014 318:-0.027919898 319:0.13595754 320:0.04261519 321:0.034886692 322:-0.034490883 323:-0.049125765 324:-1.2931493e-05 325:0.27533436 326:-0.2172175 327:0.0088254204 328:0.0055267182 329:0.1989352 330:0.00096490775 331:-0.28132522 332:4.1265953e-06 333:-0.18993695 334:-0.15414055 335:0.056768574 336:-5.0617655e-05 337:-0.38458937 338:0.16947745 339:-4.5598124e-05 340:-0.16290472 341:0.2902171 342:-5.6888628e-05 343:5.4880416e-05 344:-0.054653596 345:0.091170788 346:0.37500831 347:-0.04199072 348:0.048645526 349:0.014403338 350:-0.21614699 351:2.4917499e-05 352:0.0797197 353:-3.6559857e-05 354:0.042479526 355:0.18612917 356:-0.34962344 357:-0.13621292 358:-1.6083601e-05 359:-0.013624787 360:-0.44070697 361:-0.042588502 362:-0.28480366 363:0.2082646 364:0.015233017 365:-0.072278574 366:0.17055467 367:0.19708556 368:0.052725334 369:0.29029033 370:0.0058901533 371:-0.2944856 372:-4.703322e-05 373:-0.090801932 374:-0.015950799 375:-1.8904839e-05 376:-2.4392861e-05 377:4.1351232e-05 378:-0.048042886 379:-4.1372732e-05 380:0.078371622 381:3.2439897e-05 382:-3.4246277e-05 383:-0.0084001496 384:-0.33395511 385:0.062786877 386:0.081359088 387:-0.050263036 388:-0.1904207 389:0.058207303 390:0.16215906 391:4.2249674e-05 392:-4.19424e-05 393:-0.23195526 394:-0.058600396 395:-0.066000506 396:-0.0054980461 397:-0.099965796 398:5.9151731e-05 399:0.1169761 400:-0.0084002391 401:-0.099965774 402:0.18484816 403:-0.10422272 404:-1.4001666e-05 405:0.22592638 406:0.17596449 407:-0.25000456 408:-2.2559505e-05 409:-0.015950888 410:5.3827949e-05 411:4.0690105e-05 412:0.077330366 413:-0.25375187 414:0.006613764 415:0.18964347 416:-0.0074577867 417:-0.10281263 418:-3.8034093e-05 419:-0.058375567 420:0.080670536 421:-0.10127576 422:-3.6709236e-05 423:-0.26857066 424:-0.23775601 425:0.045266043 426:0.25558317 427:0.0074635264 428:0.29794991 429:0.090271972 430:-0.042480234 431:0.18872884 432:0.0065075746 433:0.088812493 434:0.0052117631 435:-0.085557073 436:-0.19520779 437:-4.0717277e-05 438:-0.10261095 439:0.053831637 440:2.238074e-05 441:4.0049272e-05 442:0.092631415 443:-0.060750298 444:-0.18852982 445:0.12153719 446:-0.22409709 447:-0.2462164 448:-1.2967477e-05 449:0.21027224 450:-0.18436077 451:1.1463478e-05 452:0.23728597 453:5.5053329e-06 454:0.084759526 455:-4.4534288e-05 456:0.068845458 457:0.0078163175 458:0.11763053 459:0.10422273 460:0.009670998 461:-5.8106765e-05 462:0.13608256 463:-0.062647119 464:0.094933338 465:0.091483369 466:0.082449503 467:-0.091255486 468:0.05652779 469:0.056133717 470:-0.011052439 471:-0.33819139 472:0.0086824195 473:0.097214065 474:4.7541842e-05 475:0.062796026 476:0.16113247 477:-2.4183049e-05 478:0.043629814 479:-3.9561844e-05 480:0.27569234 481:-3.9005779e-05 482:2.8205421e-05 483:-0.1895024 484:-0.25708148 485:0.1342338 486:2.2243315e-05 487:0.24440461 488:0.076137766 489:0.029329827 490:-1.6298072e-05 491:0.081095912 492:-3.5796988e-05 493:-0.058902346 494:2.0754111e-05 495:0.075172871 496:-0.011284794 497:0.0073523833 498:-0.21691397 499:0.067511313 500:-1.9968105e-05 501:3.8849521e-05 502:0.21811047 503:0.36425328 504:0.2203867 505:0.088857055 506:-0.15323968 507:0.26837277 508:3.2962755e-05 509:0.14012651 510:-0.27258116 511:-0.038120847 512:-0.28755766 
0.5968079408722792 1:0.033817071 2:4.2249674e-05 3:0.14094615 4:0.07613682 5:-0.048402838 6:-0.41816095 7:0.20629069 8:-0.0042385473 9:2.5817795e-05 10:-0.037219256 11:3.3170567e-05 12:0.041453995 13:-0.034112647 14:-7.1615235e-05 15:-0.093870558 16:0.037219271 17:0.10582961 18:0.072044306 19:0.28733033 20:5.1004481e-05 21:-0.431936 22:0.11648969 23:7.6049961e-05 24:0.1264127 25:0.019283226 26:0.05235539 27:0.11859106 28:-0.35072926 29:-0.037494089 30:0.1230339 31:0.1469187 32:5.0862633e-05 33:-0.13111755 34:-0.075428985 35:-0.18751842 36:2.8793313e-05 37:-3.1814565e-05 38:0.31973168 39:-0.26405555 40:3.3881919e-05 41:-0.0045974106 42:0.15689231 43:0.032337513 44:-0.088057943 45:-0.18125679 46:-0.48124176 47:-4.5150159e-06 48:-0.020640282 49:-0.1568923 50:-0.05255232 51:0.035883766 52:0.15673257 53:0.035126381 54:0.0070610573 55:-0.0040203058 56:-0.06173626 57:0.12246221 58:-2.0939222e-05 59:0.066799916 60:-3.7968584e-05 61:-3.7412665e-06 62:-0.12228367 63:-2.3019225e-05 64:-0.26664245 65:-0.014957847 66:0.28289086 67:0.1436307 68:-0.21228839 69:0.019455511 70:0.1103797 71:0.11580507 72:0.045642938 73:-0.14163685 74:-0.18069224 75:0.052793454 76:0.0099655325 77:-0.37884405 78:0.26921445 79:-0.0021292409 80:-0.1748994 81:0.068617553 82:-0.10145707 83:-0.18938382 84:-3.7753372e-05 85:-0.16515738 86:-0.12471894 87:-7.2622344e-05 88:0.040405154 89:0.076789193 90:0.029660957 91:-0.040247846 92:0.1102837 93:-0.15319711 94:0.030062078 95:-0.22133391 96:0.2772707 97:0.020141177 98:-0.021816965 99:-0.049891911 100:0.055828713 101:4.3465796e-05 102:-0.056867424 103:-0.046196997 104:-0.064080872 105:-0.0077575883 106:0.26161695 107:-0.069028124 108:-1.414856e-05 109:0.15230004 110:0.061182354 111:-0.27784464 112:3.5157682e-05 113:0.005404341 114:0.15205383 115:0.090099968 116:-4.4735203e-05 117:-0.07554362 118:-1.7248358e-05 119:2.9356908e-05 120:-0.011158258 121:-0.068358861 122:-0.0056311968 123:-6.053855e-05 124:-0.17129086 125:2.5665342e-05 126:-2.9325103e-05 127:0.096293718 128:0.054295719 129:0.0037466015 130:-0.17399997 131:9.8495093e-06 132:0.0062918728 133:-0.081043638 134:-4.5350534e-05 135:-0.069121383 136:-0.084324673 137:0.084072337 138:-0.12479689 139:-0.083268136 140:-8.465423e-06 141:-0.085194461 142:0.17843351 143:0.15750737 144:-0.037984844 145:0.073129989 146:-0.023904826 147:0.021298064 148:-0.032602616 149:-0.074767195 150:-0.024362747 151:0.011158179 152:0.014486464 153:-0.029737594 154:0.0024325156 155:-0.54558265 156:0.14986593 157:0.068204977 158:-0.18915284 159:-0.17820774 160:-0.31252426 161:0.11012951 162:0.12982062 163:0.012727479 164:-0.075348213 165:-0.069456369 166:-0.036297705 167:0.016851131 168:0.18966107 169:0.35803583 170:-0.20905726 171:-0.061829645 172:-0.042003669 173:-0.33349118 174:0.11084889 175:0.029998727 176:0.091374539 177:-3.4213946e-05 178:1.7008791e-05 179:0.15660469 180:0.00048233508 181:0.17114986 182:-0.19571573 183:0.032511868 184:-0.021090271 185:-0.050361328 186:-0.04004126 187:0.41217294 188:-0.066643879 189:0.11588728 190:0.12547466 191:0.086982176 192:3.1482487e-05 193:0.11939935 194:-0.18756495 195:-0.020694129 196:-0.0021296917 197:-0.07657519 198:-0.05873229 199:5.9888673e-05 200:-0.11711645 201:-0.06608633 202:-0.27869692 203:0.083935194 204:-2.2387514e-05 205:0.23182778 206:0.032904644 207:-0.31489706 208:0.048953678 209:0.10297175 210:-0.00070406502 211:-0.043673575 212:0.14006041 213:-0.063711472 214:0.086834483 215:0.34830895 216:-0.12907977 217:0.036678515 218:0.10424462 219:0.10247283 220:-0.21880445 221:0.041813418 222:-1.7206643e-05 223:-0.039220095 224:0.22019272 225:3.0118235e-05 226:0.088090032 227:0.081587642 228:0.021641392 229:0.14117186 230:-3.944226e-05 231:-0.085730948 232:-0.042881485 233:0.16718508 234:0.26146853 235:-0.080119051 236:-0.15369032 237:-0.14207141 238:-0.0044090706 239:5.5027296e-05 240:0.028747786 241:-0.1138814 242:-0.0042291856 243:-0.12217856 244:0.052418832 245:-0.01248669 246:0.038322266 247:-0.2907733 248:0.08185865 249:3.9806306e-05 250:-0.10731848 251:-0.025104551 252:0.16991399 253:-1.009766e-05 254:0.1136281 255:-0.023960412 256:-5.8657646e-05 257:-0.048569079 258:-0.094977595 259:0.19189861 260:-0.034225509 261:0.047827967 262:0.18005198 263:0.0060495911 264:0.015422011 265:-0.083863966 266:0.0062918123 267:-4.3596352e-05 268:-0.021645362 269:-0.072713479 270:0.09346766 271:2.2888184e-05 272:0.053247064 273:-0.1018383 274:-0.028371122 275:0.021076225 276:-0.10683192 277:-0.093635179 278:-0.033198331 279:-0.21746436 280:0.12207843 281:3.4599587e-05 282:-0.11223957 283:-0.084418692 284:-0.16162458 285:0.11797602 286:-1.724836e-05 287:0.058886264 288:-0.26937595 289:-0.076335199 290:0.25628644 291:0.088947617 292:0.035912603 293:0.17579158 294:4.7441503e-05 295:0.0049756262 296:0.15658541 297:-0.14151178 298:0.021837601 299:4.1760835e-05 300:2.7691245e-05 301:1.4386123e-05 302:0.22605111 303:6.655061e-06 304:-0.08950188 305:-0.025291761 306:-1.8841036e-05 307:0.031972766 308:-0.0054041576 309:-0.075203486 310:0.074278794 311:-0.03102283 312:0.051476695 313:-0.26612833 314:-0.01180646 315:-0.037524346 316:-5.0824507e-05 317:0.069181368 318:-0.014839102 319:0.099617906 320:0.084032834 321:2.5507572e-05 322:-0.1266401 323:0.11034978 324:-1.9031053e-05 325:0.034697801 326:-0.14223187 327:0.019630129 328:0.033146255 329:0.1092611 330:0.03125475 331:-0.15369032 332:2.1148579e-05 333:-0.027690481 334:-0.17729925 335:0.057383131 336:4.4699413e-05 337:-0.38235724 338:-0.043389082 339:-9.8495066e-06 340:0.13776229 341:-0.047148269 342:-4.4776451e-05 343:-4.9934799e-05 344:-0.29915002 345:-3.5935591e-05 346:0.37957186 347:-0.016049961 348:0.022775497 349:-0.12085176 350:-0.12627506 351:0.075996049 352:-0.052793398 353:-3.6181969e-05 354:-0.051596358 355:-0.062608063 356:-0.43341386 357:-0.0057513574 358:0.017835917 359:-0.12691116 360:-0.16361663 361:0.025601424 362:-0.31267765 363:0.24498324 364:-3.2254753e-05 365:-0.0026220221 366:-0.030491671 367:0.076823376 368:0.18237495 369:0.091143005 370:0.052768737 371:0.20423849 372:-4.7352292e-05 373:-0.0057674474 374:-0.2390289 375:1.6626942e-05 376:0.075543597 377:0.029213069 378:3.7367117e-05 379:-1.5329613e-05 380:-0.034689814 381:-4.2388834e-05 382:-3.4085107e-05 383:0.0024604001 384:-0.34304887 385:0.043547701 386:0.010246639 387:0.11468075 388:-0.095618621 389:-0.045564722 390:-0.093323544 391:4.3083382e-05 392:-0.020975405 393:-0.27675098 394:-0.013807802 395:-0.12722915 396:-0.031654354 397:-0.0004637407 398:2.1728527e-05 399:0.11123613 400:-0.12042209 401:-0.00045905952 402:0.26033431 403:-0.21933259 404:0.035726 405:0.046683714 406:0.077318266 407:0.069466665 408:0.10714836 409:-0.18831739 410:5.0608971e-05 411:-0.047626697 412:0.22372577 413:-0.1601686 414:0.020975338 415:-0.075730555 416:0.024683779 417:-0.077771068 418:-2.7974445e-05 419:-4.6342422e-05 420:0.097941794 421:-0.29245421 422:-0.34242555 423:-0.1751119 424:-0.28037629 425:-3.4496712e-05 426:0.11418094 427:0.078901671 428:0.018325444 429:0.028905652 430:-0.023910737 431:0.039884962 432:4.2383406e-05 433:0.018494258 434:0.037339203 435:-0.049920458 436:-0.044117205 437:-0.10789111 438:-0.10272799 439:0.061182346 440:-0.23921071 441:1.6839249e-05 442:-0.090953007 443:5.8436715e-05 444:-0.08805795 445:0.017269697 446:-0.12348508 447:-0.075389229 448:2.8912395e-05 449:-0.20768648 450:-0.030128015 451:2.0658073e-05 452:0.088247374 453:2.9204519e-05 454:0.23001105 455:-6.0852843e-05 456:3.3858047e-05 457:2.7695156e-05 458:0.17313732 459:0.21935213 460:0.0043034912 461:-0.12133195 462:-0.065883495 463:-0.025104508 464:-0.077192105 465:-0.029729525 466:-0.021795336 467:-0.18432458 468:0.029333314 469:0.16259845 470:-0.056381881 471:-0.44618142 472:0.10516886 473:0.044397842 474:6.2067629e-05 475:4.2141863e-05 476:0.069989935 477:-0.05387304 478:0.020313302 479:-5.7262325e-05 480:0.38629267 481:0.057240058 482:0.16333009 483:-0.054703258 484:-0.045293678 485:0.10052717 486:0.10084981 487:0.23507392 488:0.094230615 489:0.011149125 490:-0.080214053 491:0.12578706 492:0.0069468045 493:-0.072713457 494:-4.9886021e-05 495:0.12982063 496:-0.049310125 497:0.12222871 498:-0.19647869 499:0.17927423 500:2.5271598e-05 501:5.0674698e-05 502:-0.041528784 503:0.37580323 504:-0.12040365 505:0.16288275 506:-0.0081741 507:0.17643727 508:-1.1085249e-05 509:0.0091156876 510:-0.18966109 511:-0.043045096 512:-0.32573247 
0.6051488084095039 1:0.097599886 2:-0.035092141 3:0.21239017 4:-0.054348718 5:-0.051681094 6:-0.29134127 7:0.32646009 8:0.052234173 9:-0.093540043 10:0.10172324 11:0.0022462173 12:-0.11631926 13:0.17869408 14:-5.3041214e-05 15:-0.10142967 16:-0.0072688228 17:0.22892319 18:0.055710759 19:0.31869435 20:0.044604801 21:-0.254904 22:0.045838434 23:-0.068191782 24:0.0036221889 25:-0.18357554 26:0.13311432 27:0.045372281 28:-0.485544 29:-0.1032081 30:0.082202934 31:-0.070180856 32:-2.6551073e-05 33:-0.23848987 34:0.031762008 35:-0.31963804 36:-0.0050450116 37:-0.013097757 38:0.22636224 39:-0.045615677 40:-0.037555214 41:0.097175643 42:0.060445335 43:0.050690208 44:-0.21029863 45:-0.18060809 46:-0.33239123 47:0.074047215 48:-0.1846198 49:0.077910893 50:-0.041314647 51:0.077456214 52:0.2089421 53:-0.057122484 54:0.071453586 55:-0.059641574 56:-0.29667339 57:0.066682912 58:-0.0572359 59:-0.16460139 60:0.04601527 61:0.18754652 62:-0.3136349 63:-0.026051542 64:-0.057675764 65:-0.11957019 66:0.34129098 67:0.21477185 68:-0.082000777 69:-0.076348707 70:0.098063797 71:0.32276905 72:-0.040991131 73:-0.27467397 74:-0.19212115 75:0.083982095 76:0.049189877 77:-0.075311877 78:0.24680953 79:-0.033538856 80:0.065767266 81:0.16641533 82:-0.13816243 83:-0.34434855 84:0.067765698 85:-0.32187739 86:0.094113953 87:-0.0093792686 88:0.089741111 89:0.03258374 90:0.024156498 91:-0.085372381 92:0.51595932 93:-0.07720165 94:0.13955593 95:0.32019222 96:0.10612735 97:0.06832587 98:-0.079446778 99:-0.090561792 100:0.08093027 101:0.045667898 102:2.4270073e-05 103:-0.019729398 104:-0.091460243 105:-0.12582234 106:0.38797703 107:0.20585595 108:0.015185904 109:-0.22292447 110:0.030380763 111:-0.10613617 112:-0.059260063 113:0.04764365 114:0.10649069 115:0.20204735 116:-0.061042339 117:0.10387686 118:-0.086621694 119:-0.049725153 120:-0.14079776 121:-0.045608535 122:0.0036065481 123:0.089644536 124:0.20436381 125:0.095465891 126:-0.035683088 127:-0.0014412354 128:0.050091352 129:-0.088311642 130:-0.37570021 131:-0.11857659 132:0.0046443515 133:-0.24527577 134:-0.040318172 135:0.048073921 136:0.033544444 137:0.14901176 138:-0.21048002 139:-0.14953268 140:0.007225953 141:0.20370981 142:0.18404131 143:0.084658451 144:-0.024335084 145:0.057842702 146:0.05423804 147:0.095075183 148:-0.047110613 149:-0.26762545 150:-0.11040013 151:0.1792516 152:0.095659189 153:-0.063330963 154:0.072797045 155:-0.26829734 156:-0.14456168 157:0.10888355 158:-0.097354695 159:-0.40660638 160:-0.2805236 161:0.11549719 162:0.077118024 163:0.17674528 164:0.10452714 165:0.088292599 166:0.037535038 167:0.1211919 168:0.18441279 169:0.41379759 170:-0.41944942 171:0.047238294 172:-0.10963089 173:-0.048273724 174:-0.03643012 175:0.10426479 176:0.21907021 177:-0.040324658 178:-0.098987825 179:0.048623215 180:0.099889286 181:0.045308501 182:-0.24431103 183:0.071990952 184:-0.25033998 185:0.0086984616 186:-0.17968172 187:0.21201101 188:0.037478846 189:-0.10061659 190:-0.027311314 191:0.23743671 192:-0.05160505 193:0.068039298 194:0.056420416 195:-0.071621075 196:0.067688793 197:-0.18594179 198:-0.19116057 199:0.017782476 200:-0.021375677 201:0.17946127 202:-0.070624061 203:-0.028668026 204:0.061462317 205:0.041248027 206:-0.054083005 207:-0.2752395 208:0.075628094 209:0.010698587 210:-0.057651184 211:-0.1308551 212:-0.061131332 213:-0.053394344 214:-1.9569587e-05 215:0.33077422 216:-0.15491806 217:0.21227291 218:0.1302236 219:0.27872109 220:-0.084560402 221:-0.035973459 222:4.3037715e-05 223:-0.17673272 224:-0.034817789 225:0.04120671 226:0.044673994 227:0.16736792 228:0.24036725 229:0.18617496 230:0.08858452 231:-0.032331482 232:0.084076881 233:-0.10965981 234:0.1086506 235:0.063373141 236:-0.28194979 237:-0.33004761 238:-0.021580128 239:-0.07366468 240:0.078934669 241:-0.088560753 242:-0.086776726 243:-0.1465881 244:0.05221523 245:-0.0025629846 246:0.005965597 247:-0.35040274 248:0.2660574 249:0.053148802 250:-0.20955861 251:-0.040867884 252:0.17280211 253:0.077278323 254:0.054499824 255:-0.017476875 256:-0.053148843 257:-0.22326042 258:-0.21494828 259:0.33363703 260:-0.09155117 261:0.20875323 262:-0.11806192 263:0.019823469 264:-0.06009578 265:-0.030303722 266:-0.11329418 267:0.10250584 268:-0.039904173 269:-0.14156657 270:-0.054198924 271:0.036976326 272:0.080482535 273:-0.055720903 274:-0.069400147 275:0.21747443 276:0.17455529 277:-0.035716776 278:0.12494573 279:-0.35620993 280:0.077253506 281:0.068779647 282:-0.094331659 283:-0.32031238 284:-0.26204121 285:0.0093135964 286:0.09464819 287:-0.040847488 288:-0.14919816 289:-0.052117571 290:-0.010974338 291:-0.10388499 292:0.12891631 293:0.40245959 294:-0.081344694 295:-0.023081863 296:-0.089002989 297:-0.23823456 298:0.043216377 299:0.093779832 300:0.042156801 301:0.030061245 302:0.20259844 303:-0.0076296264 304:0.18721381 305:-0.047907218 306:0.056463104 307:4.2876476e-05 308:-0.058653768 309:-0.1327754 310:-0.23049749 311:-0.030429654 312:-0.027692493 313:0.078552283 314:0.10094251 315:0.23834138 316:-0.048651379 317:-2.3446511e-05 318:-0.059971102 319:0.13285463 320:-0.081471831 321:0.12162083 322:-0.040901586 323:-0.10378968 324:-0.037833713 325:0.22670983 326:-0.22765514 327:0.0042008222 328:-0.098636463 329:0.17179564 330:0.10981143 331:-0.26929682 332:0.018242942 333:-0.18934524 334:-0.1168606 335:-0.022459298 336:0.049823515 337:-0.36330545 338:0.13436338 339:1.6869233e-05 340:-0.18473738 341:0.22212775 342:-1.531168e-05 343:-0.057562899 344:0.067918964 345:-0.047388356 346:0.40087187 347:0.057766926 348:0.055661563 349:-0.049539685 350:-0.23244256 351:-0.054786626 352:0.14604439 353:1.0306811e-05 354:0.014090098 355:0.17928566 356:-0.32053632 357:-0.071346626 358:0.10444108 359:0.023280064 360:-0.44011331 361:-0.073969938 362:-0.23558049 363:0.23769459 364:0.0055889557 365:0.049139697 366:0.1555022 367:0.16004269 368:0.077600695 369:0.34438196 370:-0.017530937 371:-0.30706972 372:-6.1173472e-05 373:0.079900272 374:-0.084607184 375:0.031215223 376:-1.245875e-05 377:0.023718052 378:-0.021502461 379:-3.8067108e-05 380:-0.11569577 381:3.0732514e-05 382:0.030908005 383:0.055369616 384:-0.28542635 385:0.085833572 386:-0.064507812 387:-0.015252796 388:-0.20423552 389:-0.054163467 390:0.19417062 391:-3.2168355e-05 392:-0.057983015 393:-0.1659414 394:-0.12197037 395:0.046400223 396:0.021072961 397:0.086132564 398:-0.028427469 399:0.095856138 400:-0.048826821 401:-0.075003415 402:0.1452288 403:-0.099800877 404:0.048290696 405:0.15827139 406:0.12989405 407:-0.24347417 408:0.058486804 409:-0.031398993 410:6.709242e-05 411:-0.066673785 412:0.10395887 413:-0.26107079 414:0.052375421 415:0.14916797 416:0.027950034 417:-0.066933781 418:0.05454696 419:-0.099932164 420:0.092748083 421:-0.1206607 422:-0.045876019 423:-0.29361036 424:-0.24904868 425:0.046857253 426:0.2304429 427:0.045032214 428:0.26040331 429:0.067927711 430:-0.071285807 431:0.17981061 432:0.098344795 433:0.017268632 434:0.024101991 435:-0.09490639 436:-0.22342527 437:-0.11431844 438:0.0038288883 439:0.030703191 440:0.084480867 441:-0.024700614 442:0.057868376 443:-0.087795503 444:-0.22601698 445:-0.085683472 446:-0.17401864 447:-0.26918942 448:-0.032235708 449:0.18830097 450:-0.16994293 451:-3.5406061e-05 452:0.27802253 453:1.3456988e-05 454:-0.010151227 455:-2.8330249e-05 456:0.12051158 457:0.038272582 458:0.042088054 459:0.14295237 460:0.082936078 461:-0.052653715 462:0.14489922 463:-0.05333326 464:-0.075184926 465:0.072891057 466:0.17605676 467:-0.083437197 468:0.086973421 469:-0.098437965 470:-0.069476344 471:-0.3239429 472:-0.018249201 473:0.063668683 474:0.034933064 475:0.088502705 476:0.19066933 477:-0.041460723 478:0.048539151 479:-0.028121961 480:0.29991609 481:0.06614241 482:0.040933236 483:-0.18350022 484:-0.23985158 485:0.11439604 486:0.11536621 487:0.29845604 488:0.096895345 489:0.041068953 490:0.070038319 491:0.038512729 492:0.060804375 493:-0.10533413 494:-0.031116925 495:0.078405529 496:-0.087198757 497:-0.098536924 498:-0.23749663 499:0.13972233 500:-0.084335953 501:0.069328815 502:0.21215576 503:0.30017051 504:0.25330445 505:0.041893698 506:-0.14132574 507:0.3273001 508:6.5630535e-05 509:0.0064344658 510:-0.23721275 511:-0.090878926 512:-0.31625322 
0.3326617837895554 1:0.032780975 2:2.3720751e-05 3:0.38487732 4:0.036795359 5:-0.081764482 6:-0.26394784 7:0.37264284 8:0.093402863 9:5.1869905e-05 10:-0.04963414 11:-0.0013661316 12:0.088051476 13:0.2543658 14:-4.9571532e-05 15:-0.048189476 16:-0.020112546 17:0.17938221 18:0.0077611306 19:0.2441003 20:0.025309863 21:-0.24075703 22:0.06857574 23:0.01980908 24:0.070031956 25:-0.1780978 26:0.14063825 27:-4.0594376e-05 28:-0.31471556 29:-0.0058205687 30:0.13981672 31:0.028971912 32:-0.018858906 33:-0.09173996 34:-1.1279535e-05 35:-0.28080058 36:3.4496716e-05 37:0.010968863 38:0.15332775 39:0.0057463935 40:-5.0607676e-05 41:0.042034674 42:1.43835e-05 43:0.021596119 44:-0.2855964 45:-0.24786618 46:-0.29991907 47:0.015426739 48:-0.21903127 49:0.10693141 50:0.078459375 51:-0.11912716 52:0.10538168 53:-0.10140674 54:0.054257087 55:-0.079163522 56:-0.26324174 57:-0.072429799 58:0.0064096912 59:-0.1961991 60:-0.025255376 61:0.077363469 62:-0.21366429 63:-0.0074440716 64:0.34132695 65:-0.095372394 66:0.27977145 67:0.10155796 68:0.18583176 69:-3.7520811e-05 70:0.14194682 71:0.24493535 72:0.046377435 73:-0.13051251 74:-0.14174724 75:0.10945059 76:-0.04381511 77:-0.0045974976 78:0.14867799 79:-0.03359209 80:0.056572586 81:0.21445949 82:-0.19559775 83:-0.29213247 84:0.0038426002 85:-0.32929751 86:0.1051885 87:0.0096694743 88:-0.18659174 89:-0.25193325 90:-0.0067649377 91:-0.090042084 92:0.29550913 93:-0.021038407 94:0.066685304 95:0.18610346 96:0.054196734 97:0.038043816 98:-0.038957108 99:-0.096208341 100:0.082914561 101:-3.1228319e-05 102:0.08429651 103:0.24428684 104:-0.094146237 105:-0.32118878 106:0.31543729 107:0.19832751 108:-3.845002e-05 109:-0.28827855 110:0.037847925 111:-0.12665345 112:0.045263793 113:-3.9120227e-05 114:0.058880135 115:0.1638992 116:-0.014023581 117:-0.033434514 118:-4.5886165e-05 119:-3.5937748e-05 120:-0.097314581 121:1.4952713e-05 122:0.030077031 123:0.083971106 124:0.1412034 125:0.075802103 126:-0.0067441161 127:-0.06022894 128:-0.073545501 129:-0.10948718 130:-0.2525565 131:2.2460328e-05 132:0.048315883 133:-0.24876231 134:0.047473308 135:0.050567865 136:-0.023332842 137:0.15333153 138:-0.10324813 139:-0.083842494 140:-0.041120771 141:0.13690658 142:0.16072364 143:0.049549203 144:-0.18002011 145:-2.3001536e-05 146:0.10140483 147:0.0091902679 148:-0.086222135 149:-0.23564577 150:-0.30110577 151:0.076909855 152:0.069993638 153:0.017662534 154:0.013069525 155:-0.29345635 156:-0.10291331 157:0.098764479 158:-0.049565788 159:-0.28276902 160:-0.24811843 161:-0.07049074 162:0.10959896 163:0.20767584 164:-0.026290152 165:0.014631001 166:-0.093590789 167:0.18675351 168:0.21254045 169:0.28088215 170:-0.28605622 171:0.067700647 172:-0.15031722 173:-0.016979868 174:0.055653859 175:0.057902567 176:-0.15453251 177:-2.8707764e-05 178:1.936182e-05 179:0.12230884 180:0.026511852 181:-0.10648362 182:-0.096972622 183:0.14903778 184:-0.19794318 185:0.1542547 186:-0.087624788 187:0.16590165 188:0.10232684 189:-0.089660324 190:-3.7376249e-05 191:0.31679049 192:0.043045282 193:-0.029821431 194:-0.20064382 195:-0.017621156 196:-0.031536605 197:-0.16327277 198:-0.26652941 199:0.015724275 200:-2.6961339e-05 201:0.25490126 202:-0.086669847 203:0.17586674 204:-2.70291e-05 205:0.014574092 206:-0.039944503 207:-0.21589272 208:0.034576364 209:5.155697e-05 210:-0.099631727 211:-0.1022115 212:-0.01930117 213:-0.028602516 214:-0.034320667 215:0.29292271 216:-0.25688288 217:0.2683576 218:0.029203366 219:0.23694937 220:-0.13129804 221:2.877364e-05 222:2.8327526e-05 223:-0.25293389 224:4.3190055e-05 225:3.5394471e-05 226:-0.017719347 227:0.14963672 228:0.18232581 229:0.10432591 230:0.069683731 231:0.18903653 232:-0.055988189 233:-0.057938077 234:0.078937672 235:-0.013222959 236:-0.16530834 237:-0.21923944 238:-7.7683708e-06 239:0.025469325 240:0.23258044 241:-0.12662764 242:-0.063894793 243:-0.14375432 244:0.07071878 245:0.0049018394 246:0.088966593 247:-0.26582712 248:0.20269743 249:-3.2614171e-05 250:-0.16647963 251:-0.054741632 252:0.15385227 253:-0.023266457 254:-0.054593828 255:-0.29578161 256:4.0514413e-05 257:-0.17277828 258:-0.20376675 259:0.16916023 260:-0.032546304 261:0.13947913 262:-0.20394897 263:-0.0093619078 264:0.0761218 265:0.13381605 266:-0.098163709 267:-0.13879256 268:-0.051180299 269:-0.029081894 270:-0.012240812 271:-0.045940336 272:0.096243344 273:-0.015545726 274:-0.032137066 275:0.18231398 276:0.26209295 277:-0.005583873 278:0.0235497 279:-0.27795127 280:0.11369926 281:0.027367657 282:-0.027309654 283:-0.23210561 284:-0.15517728 285:0.014764678 286:-0.05083932 287:-0.068499461 288:-0.075862586 289:-0.14948335 290:-0.031839412 291:-3.6677564e-05 292:0.32091123 293:0.19763787 294:0.026055163 295:0.025208263 296:0.11836673 297:-0.18097264 298:0.020900007 299:2.4691268e-05 300:-0.023526506 301:0.0059416327 302:0.28367794 303:0.016789602 304:0.11891945 305:0.11062683 306:-0.010878585 307:0.034179453 308:0.015688647 309:-0.10368244 310:-0.23292546 311:0.068883754 312:0.022349827 313:-0.064402759 314:0.13788612 315:0.14454314 316:-0.076804399 317:1.4044655e-05 318:-0.0098371757 319:-0.090950169 320:-0.12869585 321:0.059831668 322:0.03986105 323:-0.096307442 324:0.014764651 325:0.18285482 326:-0.22998653 327:-0.043716639 328:-0.16964778 329:0.096208081 330:-0.080166727 331:-0.15952219 332:0.035199746 333:-0.39018086 334:-0.11634606 335:0.1848363 336:-5.3234231e-05 337:-0.29773027 338:0.1416647 339:-0.062841207 340:-0.21759667 341:0.33006364 342:0.056413218 343:-0.023147844 344:-0.095414102 345:0.12384737 346:0.26773062 347:0.09330973 348:-0.010140131 349:-0.010140113 350:-0.17269845 351:0.049425919 352:-0.077539898 353:0.1368981 354:0.036129139 355:0.16410685 356:-0.29805267 357:-0.025640536 358:7.8673029e-06 359:0.0024419818 360:-0.35007259 361:-0.0030984485 362:-0.26902753 363:-0.26444641 364:0.04650481 365:-0.049141835 366:0.23465157 367:0.20485979 368:0.016189573 369:0.2749874 370:0.0015324601 371:-0.18400668 372:-0.021656023 373:-0.02012535 374:0.1029982 375:0.045955468 376:-5.1656774e-05 377:0.1638395 378:0.024084073 379:0.068239607 380:0.057200931 381:1.4103874e-05 382:0.020158274 383:-0.0043041995 384:-0.22436072 385:0.086540513 386:-0.056783687 387:0.056321725 388:-0.18945847 389:-0.048669245 390:0.024067702 391:-0.067523517 392:0.022329759 393:-0.18604445 394:-0.031337868 395:0.14714615 396:0.039789591 397:-0.075939536 398:0.0076813232 399:0.15976018 400:-0.012465093 401:-0.031966213 402:0.1078499 403:-0.07108169 404:-0.064858414 405:0.2448971 406:0.24379195 407:-0.24684972 408:-0.017713949 409:0.057247315 410:-0.011813446 411:-0.030357249 412:0.06713707 413:-0.1543939 414:0.020094389 415:0.17262377 416:0.030650843 417:-0.21709183 418:-2.5366451e-05 419:-0.085497215 420:0.097850025 421:-0.095710158 422:0.017050158 423:-0.16971733 424:-0.3025476 425:0.090177268 426:0.23075911 427:0.0031277265 428:0.24182139 429:0.077271208 430:0.031707495 431:0.25006819 432:0.041575264 433:0.0089198733 434:0.049743008 435:-0.032687269 436:-0.1960645 437:-5.2757132e-05 438:0.13345578 439:0.029475573 440:-0.034046523 441:-2.7096314e-05 442:0.099617377 443:-0.069124371 444:-0.27955976 445:-0.039404389 446:-0.23126738 447:-0.27553031 448:0.059273068 449:0.1213192 450:-0.15415363 451:-3.2587526e-05 452:0.18313454 453:-4.0166062e-05 454:0.067027591 455:-0.020039869 456:-0.01237436 457:0.020550003 458:0.20646428 459:0.069466606 460:0.064698689 461:0.0091290362 462:0.069919862 463:-0.054829918 464:0.019270113 465:0.19060296 466:-0.056591801 467:-0.11191522 468:0.15273315 469:-2.4764946e-05 470:0.025019897 471:-0.26768252 472:-0.017466292 473:0.043218907 474:2.5087937e-05 475:0.031552397 476:0.14429139 477:-0.018174864 478:0.071385458 479:-0.077121504 480:0.25697666 481:0.0041908403 482:-0.0080361413 483:-0.28965122 484:-0.24556154 485:0.22633184 486:0.00780473 487:0.1275966 488:0.038796879 489:0.11839435 490:0.068488695 491:0.050203919 492:0.0057442123 493:-0.047937784 494:-1.5813095e-05 495:0.084130615 496:-0.011067101 497:-0.11834767 498:-0.10337201 499:0.083752818 500:-0.010668711 501:0.076938696 502:0.14820167 503:0.28567526 504:0.25352177 505:0.099288486 506:-0.10284218 507:-0.21966648 508:4.8008973e-05 509:-0.048387967 510:-0.21750586 511:-0.13334709 512:-0.1865077 
1 1:0.038206253 2:2.2746461e-05 3:0.16865411 4:-2.8996161e-05 5:0.077733308 6:-0.37109539 7:0.34860942 8:-0.031591296 9:3.8442526e-05 10:-2.3975001e-05 11:1.6420028e-05 12:0.033488892 13:0.1396479 14:-7.8672834e-05 15:-0.14497374 16:-5.7242032e-05 17:0.11200819 18:0.047325097 19:0.34538656 20:-3.4429271e-05 21:-0.34787676 22:0.071971245 23:-4.19424e-05 24:1.97707e-05 25:-0.21689005 26:0.11631097 27:-1.0172528e-05 28:-0.47773924 29:0.1160635 30:0.16504246 31:-7.1930617e-06 32:4.3753691e-05 33:-0.18881352 34:-9.4622783e-06 35:-0.31162566 36:-5.6581102e-05 37:3.8062106e-05 38:0.33621541 39:-1.0638681e-05 40:-3.2168351e-05 41:-0.045676857 42:3.2567976e-05 43:-3.9283772e-05 44:-0.19303676 45:-0.275693 46:-0.3466306 47:-2.5311825e-05 48:-0.14707962 49:0.011541355 50:0.02126454 51:0.078441754 52:0.19589828 53:-0.085635081 54:-0.0079934588 55:-0.0049937209 56:-0.21423841 57:-3.1180112e-05 58:-0.013196081 59:-0.15074743 60:-4.7339148e-05 61:0.0085654231 62:-0.31119603 63:-3.3905028e-05 64:-0.12373047 65:-0.13182901 66:0.36893567 67:0.24188106 68:-0.20092663 69:-3.8735827e-05 70:0.13014738 71:0.36944875 72:0.082164668 73:-0.1928301 74:-0.20596687 75:0.035341766 76:0.036231298 77:-4.605807e-05 78:0.29703993 79:-0.03264213 80:3.0500776e-05 81:0.085598916 82:-0.057479121 83:-0.35437536 84:1.1774594e-05 85:-0.27350512 86:-0.10968447 87:-7.054778e-05 88:0.065845534 89:0.0051752538 90:0.03889519 91:-0.093940273 92:0.4925395 93:-0.035084348 94:0.0064758891 95:0.28508985 96:0.2398764 97:0.032754749 98:-0.038467448 99:-0.048364509 100:0.16561103 101:2.0812076e-05 102:2.0093592e-05 103:-0.082655936 104:-0.046006098 105:-0.036777765 106:0.35226807 107:0.046345558 108:3.2258857e-05 109:-0.26937628 110:0.047216799 111:-0.064474843 112:3.7893762e-05 113:-2.9218356e-05 114:0.048048235 115:0.20596689 116:4.23704e-05 117:0.015136877 118:-3.1400785e-05 119:3.200287e-05 120:-0.1292966 121:7.5495345e-06 122:-0.010756631 123:0.019003771 124:0.24850215 125:0.018856924 126:2.1397687e-05 127:0.10843233 128:0.049291465 129:2.8659637e-05 130:-0.37930736 131:-3.6765625e-05 132:3.4308719e-05 133:-0.20775281 134:-5.5075092e-05 135:0.026180955 136:-0.13674282 137:0.1575162 138:-0.21080028 139:-0.0064135096 140:2.1599953e-05 141:0.099186093 142:0.13888817 143:0.14772569 144:-0.015220184 145:2.9881121e-05 146:0.088979542 147:-2.8772247e-05 148:-0.085635073 149:-0.26536554 150:-0.042085849 151:0.12993179 152:0.013671864 153:2.1542872e-05 154:0.036714051 155:-0.35212138 156:-0.21004866 157:0.046840783 158:4.7405018e-05 159:-0.39862704 160:-0.36838025 161:0.080764599 162:0.13859276 163:0.17656603 164:0.086487204 165:2.1579186e-05 166:-0.050718538 167:-0.08274807 168:0.25774878 169:0.48732471 170:-0.36500052 171:0.003530862 172:-0.11981173 173:-6.0181472e-05 174:0.12149528 175:0.02872034 176:0.19715209 177:-0.010984682 178:-0.013192617 179:0.14356504 180:0.027670801 181:-1.9063378e-05 182:-0.17845486 183:0.10893781 184:-0.24122481 185:0.066113368 186:-0.13642125 187:0.32091498 188:-0.069197707 189:0.093152635 190:-4.6616373e-05 191:0.28884897 192:-5.8643862e-05 193:-2.3029035e-05 194:-0.23402594 195:0.027432634 196:-0.032642178 197:-0.16299683 198:-0.20710319 199:7.6166645e-05 200:1.8366052e-05 201:0.13964793 202:-0.20809691 203:0.064267248 204:1.1139799e-05 205:9.6011363e-06 206:-2.4917499e-05 207:-0.38362029 208:-3.8155638e-05 209:-2.7806514e-05 210:-5.829363e-05 211:-0.048943449 212:-2.7609012e-05 213:-0.045840655 214:0.088126525 215:0.34663013 216:-0.055749614 217:0.058600526 218:0.0088293571 219:0.2672101 220:-0.11844608 221:-0.013196174 222:-4.5503381e-05 223:-0.072846577 224:-2.8772247e-05 225:3.8038448e-05 226:0.100128 227:0.18355656 228:0.23431854 229:0.16363274 230:0.024835061 231:6.0605566e-05 232:0.072827525 233:-0.090135172 234:0.20227197 235:-3.712617e-05 236:-0.29387391 237:-0.3430706 238:5.0142055e-05 239:-0.0094896695 240:0.13039474 241:-0.14883052 242:-0.019200841 243:-0.15327235 244:0.064565577 245:0.018313168 246:0.033488911 247:-0.36975139 248:0.25604922 249:-1.7801922e-05 250:-0.11322625 251:-0.023273729 252:0.1724311 253:-3.7491118e-05 254:-0.0095805591 255:-0.041848283 256:-2.0345056e-05 257:-0.16740938 258:-0.26981583 259:0.13596655 260:-0.032802671 261:0.17366433 262:-0.10010643 263:-5.7544501e-05 264:2.2888185e-05 265:-0.11273118 266:-0.019003816 267:0.0045821401 268:2.333297e-05 269:-0.050906055 270:6.9878297e-05 271:1.5258787e-05 272:0.049649738 273:4.4772387e-05 274:-0.0051779361 275:0.25149074 276:0.054845035 277:-4.3158372e-05 278:0.014968245 279:-0.3539753 280:0.096734814 281:-1.4386123e-05 282:-0.046061132 283:-0.2819114 284:-0.27566096 285:-0.0077618933 286:0.0001545881 287:-0.0035310464 288:-0.0064136349 289:-0.080567539 290:1.9699011e-05 291:-2.2746461e-05 292:-0.034600552 293:0.38027513 294:6.4336702e-05 295:0.02289685 296:0.14125913 297:-0.12128673 298:0.027512792 299:5.1257299e-05 300:4.2857617e-05 301:-1.4386124e-05 302:0.25997752 303:2.9786952e-05 304:0.17102385 305:-0.15927534 306:3.5174038e-05 307:-1.8250399e-05 308:-3.28768e-05 309:-0.026993975 310:-0.2011098 311:-4.2573723e-05 312:4.7983707e-05 313:-0.00058410282 314:0.095997453 315:0.24086505 316:-4.2364329e-05 317:-2.3875564e-05 318:0.0096202418 319:0.087537676 320:-0.0720414 321:0.0091903787 322:5.9315509e-05 323:0.087286599 324:-2.5431318e-05 325:0.25149074 326:-0.23275483 327:0.08373709 328:-0.11446287 329:0.13767029 330:-3.6677564e-05 331:-0.2938363 332:-5.0246083e-05 333:-0.1116892 334:-0.23424232 335:0.10121599 336:3.6773094e-05 337:-0.36577654 338:0.17043564 339:-6.4336702e-05 340:-0.063950211 341:0.25730956 342:-4.037096e-05 343:-2.4221743e-05 344:-0.087719932 345:-1.3257041e-05 346:0.47443399 347:-0.032430787 348:6.2707666e-05 349:-2.7670079e-05 350:-0.22402722 351:0.046278059 352:-0.034639988 353:-2.8203691e-05 354:0.016601427 355:0.07117255 356:-0.39341232 357:-0.058168672 358:-4.311508e-05 359:-3.032413e-05 360:-0.42329794 361:-0.016860487 362:-0.2600483 363:0.18148291 364:-4.6678873e-05 365:-0.026180902 366:0.061116003 367:0.085476898 368:0.017979272 369:0.27080783 370:0.091490149 371:-0.28114194 372:-4.5235593e-05 373:-0.057496853 374:0.0076001226 375:5.5434546e-05 376:3.7940295e-05 377:2.8968259e-05 378:2.1049838e-05 379:4.3885211e-05 380:-0.015763227 381:1.6994469e-05 382:-3.2844218e-05 383:3.9270857e-05 384:-0.36838025 385:0.093940273 386:-0.035840563 387:-0.060910329 388:0.13817376 389:-0.063998707 390:0.11622264 391:2.6428997e-05 392:-3.1763702e-05 393:-0.17148125 394:-0.023828184 395:-0.14426881 396:3.6128891e-05 397:-0.047001291 398:3.5238663e-05 399:0.11202991 400:7.7627774e-06 401:-0.047001272 402:0.13767029 403:-0.21481758 404:-1.6109288e-05 405:0.19931324 406:-0.085545428 407:-0.20775279 408:-4.4277156e-05 409:-4.0029721e-05 410:7.9814934e-05 411:2.0345053e-05 412:0.20192148 413:-0.27570954 414:-5.0955685e-05 415:0.064334318 416:6.5925509e-05 417:0.11754797 418:-3.5427427e-05 419:-0.014016618 420:0.12517376 421:-0.29903907 422:-3.3024611e-05 423:-0.1928301 424:-0.2457356 425:0.0051956419 426:0.26780036 427:5.315126e-05 428:0.25184706 429:0.017841967 430:-0.016601462 431:0.09086477 432:4.2819873e-05 433:0.017387906 434:0.00045639835 435:-0.066363864 436:-0.16420242 437:-3.6704852e-05 438:-0.04553093 439:0.047216818 440:2.2746461e-05 441:-2.5175717e-05 442:-0.10813731 443:-0.017362902 444:-0.18525043 445:0.033185549 446:-0.11072504 447:-0.20291834 448:4.4066681e-05 449:0.18999553 450:-0.083939783 451:3.610786e-05 452:0.12638678 453:-2.8140543e-05 454:3.3738452e-05 455:-4.0769432e-05 456:0.0044657593 457:3.3310411e-05 458:0.11357211 459:0.2148176 460:-3.6061105e-05 461:-6.3593748e-06 462:0.12364112 463:-0.023494735 464:-0.064252272 465:0.048956286 466:0.12947892 467:-0.15051126 468:0.06533055 469:1.698258e-05 470:-0.076269612 471:-0.34725952 472:-0.025383364 473:0.049647797 474:-7.8671837e-06 475:0.038312752 476:0.1656466 477:3.4815996e-05 478:0.032610755 479:-3.8432212e-05 480:0.39075291 481:-3.1953816e-05 482:2.906404e-05 483:-0.14684626 484:-0.21435785 485:0.061689205 486:-3.5817193e-05 487:0.20380257 488:0.14823756 489:0.064474821 490:-0.013517083 491:-0.027512746 492:2.8772247e-05 493:-0.050906029 494:-3.0016849e-05 495:0.13925038 496:-4.0769501e-05 497:0.14482258 498:-0.18337069 499:0.18664731 500:-2.3316583e-05 501:2.6744461e-05 502:0.2318987 503:0.41901386 504:0.081736147 505:0.11958297 506:-0.1267993 507:0.25365075 508:4.2402477e-05 509:0.029487561 510:-0.26368272 511:-0.015554646 512:-0.43169171 
0.4741800976830541 1:0.022644479 2:-2.2746461e-05 3:0.20561357 4:-2.3584031e-05 5:0.034854826 6:-0.35549343 7:0.39304757 8:-2.0893956e-05 9:5.501635e-05 10:3.3352855e-05 11:-0.0092306342 12:-0.10131514 13:0.22123913 14:-7.8384575e-05 15:0.1158672 16:-2.6672589e-05 17:0.23059927 18:0.12211552 19:0.33816397 20:0.021105532 21:-0.29957169 22:0.007751402 23:3.8062106e-05 24:-1.4301536e-05 25:-0.22288871 26:0.14610714 27:-2.0345053e-05 28:-0.42123413 29:0.065777153 30:0.071999744 31:-2.9685001e-05 32:3.596531e-05 33:-0.30982789 34:-2.7969383e-05 35:-0.29095149 36:1.5881853e-05 37:-2.7858609e-05 38:0.31669626 39:-0.15186206 40:-4.7747253e-05 41:0.056901798 42:4.0848743e-05 43:0.059461821 44:-0.23638086 45:-0.34573314 46:-0.34239459 47:-1.9284251e-05 48:-0.19752432 49:0.080854483 50:-0.098742597 51:0.023627579 52:0.29566342 53:-0.010436161 54:-5.4780729e-05 55:-0.031945933 56:-0.26079831 57:0.02486912 58:-3.8568498e-05 59:-0.23534091 60:2.3446515e-05 61:0.13066283 62:-0.3314335 63:-2.372075e-05 64:-0.080062613 65:-0.088661052 66:0.39002329 67:0.1859625 68:-0.072490849 69:3.0517578e-05 70:0.011887358 71:0.31110641 72:0.028246079 73:-0.26894808 74:-0.19455965 75:0.010023697 76:0.038256034 77:-3.5238663e-05 78:0.27374399 79:0.087937072 80:-2.0392059e-05 81:0.19527933 82:-0.14998966 83:-0.31959167 84:-3.9857045e-05 85:-0.35878056 86:0.063142538 87:-6.5817665e-05 88:-4.2629788e-05 89:-0.12570824 90:0.0052500092 91:-0.063320838 92:0.40261436 93:-0.064339779 94:0.09283904 95:0.24609059 96:0.064766206 97:0.067197829 98:-0.06267859 99:-0.11722784 100:0.049787048 101:2.5256179e-05 102:-4.8698232e-05 103:0.013932319 104:-0.10814176 105:-0.13582017 106:0.34448308 107:0.13063556 108:-2.957614e-05 109:-0.28259343 110:0.019355206 111:-0.0076488149 112:1.064389e-05 113:3.2168351e-05 114:0.042982221 115:0.1940898 116:-0.047668505 117:0.10128459 118:3.86067e-05 119:0.053574782 120:-0.20179148 121:-3.8740149e-05 122:0.018426277 123:0.094243765 124:0.23064595 125:0.073228478 126:1.4712879e-05 127:1.8570856e-05 128:-0.050079811 129:-1.3929305e-05 130:-0.36829129 131:-4.7983707e-05 132:2.9657755e-05 133:-0.31933257 134:-3.9398023e-05 135:0.00077116874 136:-5.0862627e-06 137:0.14426018 138:-0.17211068 139:-0.095393226 140:2.2663804e-05 141:0.14782456 142:0.17087945 143:0.021021945 144:-0.0067394548 145:3.0938529e-05 146:0.0077088894 147:-1.6869226e-05 148:-0.010436011 149:-0.25026157 150:-0.14470507 151:0.20643409 152:0.040374503 153:-1.2196429e-05 154:0.034880694 155:-0.28813404 156:-0.20978183 157:0.09700647 158:-0.042370532 159:-0.31899041 160:-0.39897934 161:-0.005112323 162:0.011454446 163:0.24143967 164:0.11890012 165:-1.2458749e-05 166:-0.0055089518 167:0.044399273 168:0.29114982 169:0.46912923 170:-0.32440764 171:0.017046619 172:-0.13060299 173:-0.1351068 174:5.22228e-05 175:0.00029696984 176:0.19099309 177:1.3214502e-05 178:-4.3380245e-05 179:-0.076177537 180:0.015878545 181:-0.0072435648 182:-0.23630318 183:-0.01488903 184:-0.25335997 185:0.04213652 186:-0.19346885 187:0.2313391 188:0.011563952 189:-0.081247754 190:-6.7859211e-05 191:0.32294601 192:-4.8362355e-05 193:0.14316717 194:-0.17900847 195:0.034993876 196:0.12562118 197:-0.15756015 198:-0.23424324 199:9.1631096e-05 200:-0.1276038 201:0.22123913 202:-0.043945022 203:0.0031739378 204:-2.9487133e-05 205:0.12545161 206:2.6043828e-05 207:-0.44516668 208:-1.0466303e-05 209:4.5221706e-05 210:4.5421784e-05 211:-0.13000321 212:-0.14316715 213:-0.090379827 214:3.6713434e-05 215:0.31459898 216:-0.13641097 217:0.20136987 218:0.023738418 219:0.27412516 220:-0.0094939861 221:3.2561838e-05 222:3.4791363e-05 223:-0.18428679 224:1.9031055e-05 225:3.6340763e-05 226:-0.0023513231 227:0.1852527 228:0.26629055 229:0.25914308 230:0.065340489 231:-0.021408912 232:0.031015411 233:0.089741938 234:-0.1086656 235:-2.4627934e-05 236:-0.25905654 237:-0.32190958 238:2.9823732e-05 239:-0.024869047 240:0.11647634 241:-0.10041382 242:3.2168351e-05 243:-0.14455265 244:0.00091175205 245:0.010351864 246:-2.2746461e-05 247:-0.39008403 248:0.26681086 249:-4.1456184e-05 250:-0.20379123 251:4.6616369e-05 252:0.21182546 253:-8.8307679e-06 254:0.12241486 255:-0.11392912 256:2.8772251e-05 257:-0.17751141 258:-0.2286744 259:0.26581818 260:-0.082412824 261:0.14941782 262:-0.17076445 263:-0.062552489 264:4.6858539e-05 265:0.013626384 266:-0.14954935 267:0.10355294 268:-2.5460819e-05 269:-0.046967447 270:0.041636106 271:-2.4126266e-05 272:0.09625335 273:4.0690105e-05 274:-0.10831158 275:0.29622242 276:0.11624166 277:-4.8785721e-05 278:0.0083815549 279:-0.29745796 280:0.010025121 281:1.4386123e-05 282:-0.013409618 283:-0.24519899 284:-0.2270637 285:4.2663825e-05 286:0.010186717 287:-0.017046614 288:-0.095393233 289:-0.097349226 290:0.048747599 291:-0.058428887 292:0.136048 293:0.28642249 294:5.4780729e-05 295:0.046774775 296:0.0070727305 297:-0.27644986 298:-2.6672589e-05 299:3.0717997e-06 300:1.9699011e-05 301:2.4917499e-05 302:0.27124694 303:-1.3091565e-05 304:0.15484747 305:-0.043018162 306:3.1402142e-05 307:-1.4088011e-05 308:3.6677564e-05 309:-0.067315146 310:-0.27777943 311:-6.5491804e-05 312:-3.0517578e-05 313:-0.0027730276 314:0.11715874 315:0.25326809 316:-3.9806306e-05 317:-1.1792014e-05 318:-0.020597786 319:0.12740234 320:-0.0014563516 321:0.068389319 322:3.2168351e-05 323:0.0062265419 324:-2.7902532e-05 325:0.29622242 326:-0.15280153 327:3.6677564e-05 328:-0.019091424 329:0.24073397 330:0.012528013 331:-0.24881755 332:-4.3008502e-05 333:-0.23391761 334:-0.23219386 335:-0.13561581 336:-4.3089301e-05 337:-0.39469314 338:0.17490938 339:-7.4057112e-05 340:-0.14571418 341:0.31699753 342:-4.7681599e-05 343:4.5903569e-05 344:-0.010396504 345:-0.041041806 346:0.42117006 347:-0.013172702 348:7.1930626e-05 349:-1.5932674e-05 350:-0.19420506 351:-1.6084176e-05 352:0.13597628 353:3.6968537e-05 354:0.0023920431 355:0.17165948 356:-0.36213046 357:-0.068283148 358:8.6053997e-06 359:2.3754777e-05 360:-0.45478383 361:-0.003231921 362:-0.33391228 363:0.24447256 364:0.007243481 365:0.041628968 366:0.17890045 367:0.19527937 368:0.048340261 369:0.34508315 370:3.3971162e-05 371:-0.14008754 372:-4.2306601e-05 373:-0.04734892 374:-0.1799463 375:-4.245598e-05 376:5.2366286e-05 377:-2.7230939e-05 378:-3.2349988e-05 379:-3.5081754e-05 380:0.056567416 381:4.2574761e-06 382:-6.1112994e-05 383:-0.093446672 384:-0.38701209 385:0.064240478 386:0.021190563 387:-0.075426668 388:-0.11149181 389:0.009639862 390:0.21397606 391:3.9398026e-05 392:-2.2170507e-05 393:-0.207302 394:-0.006321725 395:-0.16393462 396:3.8874961e-05 397:-0.05717871 398:5.5016346e-05 399:0.029176215 400:-0.093446679 401:-0.081751689 402:0.24073397 403:-0.084505208 404:4.1188723e-05 405:0.21622908 406:0.12266944 407:-0.31933254 408:1.4784468e-05 409:-0.17994632 410:6.5433145e-05 411:-4.3158372e-05 412:0.072560273 413:-0.22708338 414:-3.9807346e-05 415:0.17382038 416:-0.019694079 417:-0.13984893 418:-3.3314973e-05 419:-0.081377588 420:0.013182531 421:0.049802307 422:3.884517e-05 423:-0.26931274 424:-0.24720356 425:0.048150897 426:0.28446752 427:-0.091570415 428:0.2593877 429:0.11722786 430:-0.023758968 431:0.15328023 432:0.084338076 433:0.051943496 434:0.026588604 435:-0.030057635 436:-0.17558691 437:-3.7784641e-05 438:-0.10463544 439:-0.10032178 440:2.6913976e-05 441:-4.0181927e-05 442:0.12421556 443:-0.076981552 444:-0.2518144 445:-0.026627785 446:-0.18867987 447:-0.27109942 448:-0.0015975919 449:0.07159172 450:-0.15311046 451:4.1117153e-05 452:0.20393294 453:-2.4525072e-05 454:0.0084072901 455:-3.3950517e-05 456:0.1005899 457:5.5250959e-05 458:-0.023738381 459:0.084505215 460:0.10511009 461:3.7356305e-05 462:0.11156902 463:-2.4917497e-05 464:-0.097546034 465:0.055757623 466:0.16200212 467:-0.011038947 468:-0.04760832 469:-2.1950627e-05 470:3.0040235e-05 471:-0.37762806 472:0.0068543884 473:0.027901355 474:5.8378493e-05 475:0.050914757 476:0.22597922 477:4.1070733e-05 478:0.026208319 479:-1.0172524e-05 480:0.31951854 481:3.0853436e-05 482:3.973817e-05 483:-0.25324303 484:-0.21384995 485:0.12692408 486:3.3250039e-05 487:0.25317529 488:0.048243061 489:0.0072962139 490:5.099786e-05 491:1.9989358e-05 492:-3.8062106e-05 493:-0.06694673 494:-3.5469751e-05 495:0.011454326 496:-4.9509486e-05 497:-0.1154809 498:-0.27981099 499:0.066941544 500:3.2265852e-05 501:0.0018197494 502:0.24732248 503:0.43495202 504:0.27172342 505:0.010525616 506:-0.12143134 507:0.31531942 508:6.3527405e-05 509:0.053579446 510:-0.29877317 511:-0.0068226131 512:-0.34672284 
0.1358992877832298 1:0.21386784 2:-0.30283687 3:0.039657123 4:0.039143175 5:-0.17445488 6:0.10085003 7:-0.1259357 8:-0.089786865 9:-0.10177235 10:-0.179735 11:-0.020264657 12:0.020329183 13:0.2511619 14:0.021059973 15:0.12989302 16:0.13925064 17:0.079421133 18:0.10008493 19:0.34706548 20:0.068874732 21:0.15215681 22:-0.12051634 23:-0.22668244 24:0.43247417 25:-0.017194565 26:0.022719607 27:-0.10913295 28:0.0891288 29:0.06606482 30:-0.11232518 31:-0.045428146 32:-0.30603254 33:-0.24880244 34:-0.076390125 35:0.12834477 36:-0.13864417 37:-0.022736441 38:0.11085289 39:0.074102283 40:-0.064443521 41:-0.18933026 42:0.029935377 43:0.097283825 44:0.055736296 45:-0.0078132749 46:0.059811298 47:-0.084221259 48:0.073848598 49:0.068014905 50:-0.29683676 51:-0.0800796 52:-0.060242176 53:-0.18105076 54:-0.09832637 55:-0.092944928 56:-0.045836519 57:0.0011439099 58:-0.017318364 59:-0.068537891 60:-0.068315379 61:-0.012762372 62:-0.025726452 63:0.024513148 64:0.018510688 65:-0.057791281 66:-0.33614227 67:-0.13250761 68:0.051459294 69:0.022421645 70:0.1333625 71:0.016654696 72:0.054885332 73:3.9737701e-05 74:-0.014792236 75:-0.030556785 76:-0.032235958 77:-0.1409319 78:0.028694736 79:-0.13920586 80:0.11045133 81:0.25201568 82:0.25153396 83:-0.007032129 84:0.30062321 85:-0.17815129 86:-0.074376315 87:0.0260878 88:0.037834458 89:0.17361939 90:-0.045608655 91:-0.16531307 92:-0.054916788 93:0.050360821 94:0.3304522 95:0.075958461 96:-0.12736006 97:-0.020461924 98:-0.06216415 99:0.12882033 100:-0.13291089 101:0.081669785 102:-0.26217082 103:-0.12401691 104:-0.36285159 105:-0.20935254 106:-0.022432338 107:0.26815954 108:0.028077725 109:-0.061775554 110:-0.0950673 111:-0.039897844 112:0.018522756 113:-0.071222164 114:0.093822084 115:0.19189087 116:-0.099544063 117:-0.11361209 118:0.087640524 119:-0.03126312 120:0.05581677 121:-0.10253586 122:-0.094894275 123:-0.17642853 124:-0.11978418 125:-0.06665428 126:-0.056316048 127:0.12064788 128:-0.016183266 129:-0.29927763 130:0.068916731 131:-0.064317606 132:0.083605133 133:-0.057147734 134:-0.3441852 135:-0.078071855 136:0.084376223 137:0.0016029256 138:-0.097108595 139:0.22142461 140:-0.24589996 141:-0.23966448 142:-0.050033413 143:0.063778155 144:0.29788801 145:-0.05609785 146:-0.035742782 147:0.032603998 148:0.1333812 149:-0.11622492 150:0.3010456 151:0.13163999 152:0.077610604 153:0.18852465 154:0.032045741 155:0.030844608 156:0.11133622 157:0.10912459 158:0.052510545 159:-0.094329871 160:0.21465896 161:0.14670557 162:0.35598052 163:0.25543457 164:-0.075734571 165:0.41333538 166:0.10119425 167:0.056959961 168:0.0049051689 169:-0.087558977 170:-0.21607615 171:-0.069215111 172:-0.36410213 173:0.053847786 174:0.090810202 175:0.17001764 176:0.074254543 177:-0.0032329073 178:0.012062973 179:0.080030181 180:-0.043478161 181:0.075896226 182:0.040827364 183:0.047522146 184:0.21050353 185:-0.033867691 186:0.048488963 187:-0.033398423 188:0.36425644 189:0.1704722 190:0.097991355 191:-0.047314379 192:0.059750203 193:0.027511932 194:0.064938918 195:0.033753805 196:-0.041828748 197:-0.28489214 198:-0.19033854 199:0.076867282 200:-0.31499237 201:0.089603066 202:-0.36177418 203:-0.23976493 204:0.037052099 205:-0.42794618 206:-0.28689623 207:-0.095788814 208:-0.097293898 209:0.20685187 210:-0.13620208 211:0.024278754 212:0.10827596 213:0.10825333 214:-0.029598314 215:0.042830199 216:-0.084475137 217:0.11116989 218:-0.057415549 219:0.088251755 220:-0.033217933 221:0.090614386 222:0.22274818 223:-0.21714933 224:0.0954246 225:0.11767668 226:-0.051105913 227:0.026601307 228:-0.25847146 229:0.15834568 230:0.084775791 231:0.19008228 232:-0.040545549 233:-0.090963602 234:0.098920234 235:0.028654668 236:0.02332582 237:-0.234548 238:-0.06538716 239:-0.071912177 240:-0.024790639 241:0.16436975 242:-0.024691671 243:-0.079308145 244:-0.29056746 245:-0.13464466 246:0.1391196 247:0.092282541 248:0.090055831 249:-0.034862392 250:0.043942418 251:0.1170477 252:-0.05490936 253:-0.12368964 254:0.27243686 255:-0.061624423 256:-0.0067345998 257:0.025564305 258:0.26360339 259:0.11113805 260:0.056185171 261:0.19422203 262:0.016291086 263:-0.23320386 264:-0.030529262 265:0.0037522519 266:-0.10278136 267:-0.065459386 268:0.0054479949 269:0.04006679 270:0.11602198 271:-0.098648064 272:0.050516006 273:-0.029730164 274:-0.01656251 275:-0.21883678 276:-0.18981548 277:-0.0888284 278:-0.048075326 279:0.096571103 280:-0.36701396 281:0.16938385 282:0.3003161 283:-0.11560152 284:-0.13215213 285:0.046894416 286:-0.12305918 287:0.010393898 288:-0.031009819 289:-0.055401381 290:-0.038278863 291:-0.10641832 292:-0.24419035 293:-0.056708142 294:-0.036048327 295:-0.10393191 296:-0.044442263 297:0.19073926 298:-0.03443785 299:0.0086491508 300:-0.032854982 301:0.0075332983 302:-0.031107634 303:-0.11188313 304:-0.10539734 305:-0.069155559 306:-0.14370839 307:0.038879249 308:-0.021855693 309:-0.10663368 310:0.041997638 311:-0.12595941 312:-0.11408668 313:-0.033633135 314:-0.042759195 315:0.010266604 316:0.21954262 317:0.1086464 318:-0.32088494 319:-0.13037404 320:0.047268905 321:-0.16092043 322:-0.10525021 323:0.049824797 324:0.013228487 325:0.049959991 326:-0.22559623 327:0.12678532 328:-0.0052815303 329:0.064591512 330:0.17130522 331:-0.023823222 332:0.021505553 333:-0.045319676 334:0.046058685 335:-0.09942998 336:-0.052039899 337:0.079561479 338:-0.10648268 339:-0.079141773 340:0.048475217 341:0.17698666 342:-0.099497385 343:-0.1224303 344:-0.10912327 345:-0.078073494 346:-0.048848264 347:0.15588237 348:0.067056291 349:0.07519225 350:0.32246733 351:0.096134141 352:0.13359754 353:0.4876152 354:0.26636711 355:0.026056321 356:-0.27849656 357:-0.25566235 358:0.3178772 359:0.10569617 360:0.015956927 361:-0.029754179 362:0.018139297 363:0.11995593 364:-0.21654083 365:0.016989112 366:-0.032027993 367:-0.059732672 368:-0.014258618 369:0.041716199 370:0.016588194 371:0.039241929 372:-0.021530412 373:0.22374752 374:-0.041194133 375:0.030038189 376:0.33243164 377:0.052283291 378:0.087681569 379:0.0541053 380:-0.098391421 381:-0.068796627 382:0.041357037 383:-0.167665 384:0.1112686 385:0.18706515 386:-0.03349847 387:0.29606524 388:0.024239693 389:-0.038407564 390:0.2803852 391:0.2429747 392:0.17271355 393:0.20244896 394:0.015712658 395:0.043487981 396:0.31383011 397:0.27030224 398:0.015530503 399:-0.094043992 400:-0.26128778 401:0.18613325 402:-0.052031074 403:-0.12663314 404:0.11413921 405:-0.01406085 406:-0.0053475364 407:0.048796814 408:0.013178184 409:0.22742184 410:0.28149542 411:-0.054402236 412:0.26953593 413:-0.030338971 414:0.072325498 415:-0.28141028 416:0.06193741 417:-0.0839625 418:0.11113279 419:0.10809834 420:-0.048208471 421:0.12353012 422:0.18299025 423:-0.1980857 424:-0.062308531 425:0.31608731 426:-0.096261516 427:-0.016180752 428:-0.032749701 429:-0.05285858 430:-0.022077613 431:-0.015136141 432:0.15292351 433:0.091507941 434:0.043411445 435:0.24172741 436:0.035387356 437:-0.11310898 438:-0.028172795 439:0.066518746 440:0.10699382 441:0.20658457 442:0.15963836 443:0.10902966 444:0.24688923 445:-0.0083737709 446:0.13529292 447:0.12424644 448:0.28768909 449:-0.042058889 450:0.033836193 451:-0.11639325 452:3.7781723e-05 453:0.097352922 454:-0.045311421 455:-0.025830545 456:-0.054292701 457:0.081066273 458:0.31250298 459:0.24068648 460:0.11853288 461:0.37070143 462:0.081179194 463:0.051404167 464:0.13546556 465:0.050102688 466:-0.029745197 467:0.19882074 468:-0.02248084 469:0.11255431 470:-0.081711933 471:0.030442871 472:0.095753781 473:-0.094907321 474:0.29338539 475:0.016777016 476:0.018782206 477:0.15554509 478:0.089422911 479:-0.047755804 480:-0.042575691 481:-0.062402595 482:-0.11497958 483:0.022613026 484:0.28767419 485:0.12272098 486:-0.061505675 487:0.11171999 488:0.060191724 489:0.011715734 490:-0.02582375 491:0.13273776 492:0.062834576 493:0.082595207 494:-0.02560439 495:0.044098359 496:-0.42546377 497:-0.024850078 498:0.046381932 499:0.11505479 500:-0.11944784 501:0.088681675 502:0.025106302 503:0.089269228 504:0.028410763 505:0.045805592 506:-0.30279779 507:-0.083131619 508:0.091330387 509:-0.19444568 510:0.081534676 511:0.077770539 512:-0.077403255 
0.6602821033274175 1:0.072266385 2:-2.6459569e-05 3:0.18074566 4:-4.1164178e-05 5:0.011185386 6:-0.27596483 7:0.42651981 8:2.9438876e-05 9:4.2421747e-05 10:4.6242007e-05 11:-0.0013511856 12:-0.027096415 13:0.1834318 14:-5.0158393e-05 15:-0.079312332 16:-3.4453831e-05 17:0.18273398 18:0.14186271 19:0.2798495 20:0.13160688 21:-0.25980267 22:0.04283715 23:-0.010523851 24:-2.6950926e-05 25:-0.32217839 26:0.21029094 27:-3.6677564e-05 28:-0.44689849 29:-0.057849552 30:0.16017127 31:8.8096622e-06 32:4.6617013e-05 33:-0.21826014 34:-3.5716927e-05 35:-0.30732736 36:4.7441503e-05 37:-3.2962755e-05 38:0.23458245 39:-3.6323185e-05 40:-2.785861e-05 41:0.12903424 42:4.1913478e-05 43:-6.0455714e-05 44:-0.25814089 45:-0.22926594 46:-0.29589471 47:1.9862495e-05 48:-0.22105424 49:0.052859314 50:0.058803376 51:0.099786453 52:0.14183919 53:-0.075861074 54:-3.0286143e-05 55:-0.083612792 56:-0.32805344 57:0.025131911 58:-3.1690597e-05 59:-0.1423365 60:-6.6503511e-05 61:0.29607904 62:-0.28241709 63:-0.011040029 64:0.067794248 65:-0.070545413 66:0.30065468 67:0.21573471 68:-0.091434099 69:-1.3052767e-05 70:0.12237898 71:0.36571249 72:0.051665865 73:-0.24297303 74:-0.17702781 75:0.085997641 76:-0.16274826 77:-2.9657753e-05 78:0.24291213 79:-0.03331067 80:2.9443992e-05 81:0.21255529 82:-0.13622883 83:-0.32206324 84:-4.4109234e-05 85:-0.28945184 86:-0.03198402 87:-6.7443965e-05 88:-2.7851049e-05 89:-0.020273387 90:0.032585416 91:-0.11690053 92:0.51890439 93:-0.070087023 94:0.17388181 95:0.26101762 96:0.117434 97:0.015818147 98:-0.087701194 99:-0.18756656 100:0.11107115 101:3.7897349e-05 102:-4.3182394e-05 103:4.652757e-05 104:-0.11142151 105:-0.19001681 106:0.32782343 107:0.22717048 108:6.0580201e-06 109:-0.23534486 110:0.084817737 111:-0.04586567 112:-4.3818207e-05 113:4.434101e-05 114:0.089672193 115:0.17702781 116:-0.012041653 117:0.26070836 118:0.0071662087 119:3.2564596e-05 120:-0.10481822 121:-0.030181373 122:0.0023849846 123:0.01415311 124:0.18203551 125:0.014925672 126:0.015839586 127:-5.4523585e-05 128:-0.11903812 129:5.7544497e-05 130:-0.34412551 131:-2.6913973e-05 132:-2.3856688e-05 133:-0.26319289 134:-1.8688124e-05 135:0.040935982 136:5.0799019e-05 137:0.12002727 138:-0.17086446 139:-0.20360257 140:2.4288143e-05 141:0.19158487 142:0.22058856 143:0.063068688 144:-0.055631187 145:-2.756146e-05 146:0.077857465 147:-3.4600591e-05 148:-0.075861081 149:-0.243257 150:-0.15485378 151:0.15540007 152:0.0099026691 153:-3.9755498e-05 154:0.039365504 155:-0.27823216 156:-0.15450652 157:0.084430285 158:-0.04157554 159:-0.36087984 160:-0.26475331 161:-0.023708636 162:0.11237104 163:0.14483809 164:0.091472536 165:3.1250525e-05 166:-0.054917004 167:0.11472716 168:0.21369843 169:0.39349344 170:-0.37154081 171:0.084023967 172:-0.096913427 173:-4.7227048e-05 174:-3.9811246e-05 175:0.05913578 176:0.1186369 177:-2.6059261e-05 178:-3.8273916e-05 179:0.11898828 180:0.085107021 181:-1.0132714e-05 182:-0.20847341 183:-0.045125253 184:-0.20592402 185:0.13391869 186:-0.17845306 187:0.2386474 188:-4.0143208e-05 189:-0.075755976 190:-5.5494995e-05 191:0.33879599 192:-3.9068327e-05 193:-4.2640317e-05 194:-0.12089469 195:0.052009244 196:-0.033284813 197:-0.12569636 198:-0.21332867 199:7.7258272e-05 200:2.7449336e-05 201:0.1834318 202:-0.071410477 203:0.051087622 204:-4.4964971e-05 205:3.0991756e-05 206:-1.1939625e-05 207:-0.26892871 208:2.0029924e-05 209:3.9552906e-05 210:2.530384e-05 211:-0.15397687 212:-6.7938413e-06 213:-0.11900876 214:2.3978513e-05 215:0.28384775 216:-0.14194147 217:0.27252817 218:0.11453006 219:0.25292271 220:-0.07565967 221:-3.4007742e-05 222:2.4937846e-05 223:-0.26518229 224:-5.2384221e-05 225:1.4218088e-05 226:0.061817158 227:0.15031056 228:0.25392601 229:0.18754223 230:0.15812522 231:5.0804236e-05 232:-6.2706109e-05 233:-0.097143322 234:0.11139403 235:-9.3190692e-06 236:-0.22104196 237:-0.28644884 238:4.9317503e-05 239:-0.025131922 240:0.1174698 241:-0.099747434 242:2.8907441e-05 243:-0.17928673 244:0.043363407 245:0.060815338 246:-3.2971824e-05 247:-0.3083685 248:0.1897278 249:-4.2105079e-05 250:-0.19360828 251:-0.051059742 252:0.19731697 253:3.8663253e-05 254:-0.04052322 255:0.12686004 256:-5.1179533e-05 257:-0.22796613 258:-0.24113567 259:0.31275648 260:-0.18419914 261:0.14618757 262:-0.18968461 263:-0.014251008 264:3.9724982e-05 265:-5.4883778e-05 266:-0.022929471 267:0.20475706 268:2.3501847e-05 269:-0.090301238 270:0.0064890236 271:4.5194283e-05 272:0.10440782 273:-2.1360225e-05 274:-0.046306655 275:0.18750091 276:0.15522322 277:-3.0081694e-05 278:0.072296001 279:-0.34373167 280:0.067355804 281:4.8785721e-05 282:-0.053398453 283:-0.3461293 284:-0.20408523 285:3.9059003e-05 286:0.071519323 287:-0.089201048 288:-0.20360257 289:-0.089683957 290:2.7264985e-05 291:-3.315838e-05 292:0.19477576 293:0.32114553 294:3.1011703e-05 295:0.049700208 296:0.090484552 297:-0.21011552 298:-2.7815047e-05 299:2.1183647e-05 300:2.6890595e-05 301:-4.1914562e-05 302:0.22825356 303:1.7434833e-05 304:0.12208653 305:-0.083456241 306:2.1428807e-05 307:-2.316903e-05 308:5.1460123e-05 309:-0.16511184 310:-0.25067967 311:3.510074e-05 312:-3.9715862e-05 313:-0.084416158 314:0.1083836 315:0.18958588 316:-3.353033e-05 317:-4.4194912e-05 318:-0.094503723 319:0.14639093 320:-0.065142311 321:0.22711663 322:-0.011933034 323:0.042952709 324:-3.0929954e-05 325:0.18750091 326:-0.23491251 327:5.8986738e-05 328:-0.058625836 329:0.20608608 330:3.0692641e-05 331:-0.15326676 332:-1.6217266e-05 333:-0.31754896 334:-0.20275711 335:0.09945327 336:2.3203622e-05 337:-0.33318752 338:0.11895765 339:-4.0990908e-05 340:-0.18473177 341:0.25136796 342:-3.6063131e-05 343:5.5327746e-05 344:-0.089110784 345:-0.014727002 346:0.39193526 347:-0.063597187 348:8.8998204e-05 349:1.9565488e-05 350:-0.19252458 351:-4.8068203e-05 352:0.22442144 353:1.3484603e-05 354:0.06544634 355:0.20879182 356:-0.30410326 357:-0.06235674 358:0.030266257 359:-5.812e-05 360:-0.41321847 361:-0.055631042 362:-0.24635395 363:0.21813259 364:-1.6637987e-05 365:-0.040418398 366:0.14858887 367:0.21218796 368:0.093227118 369:0.40339276 370:-1.171573e-05 371:-0.23913132 372:-5.7081455e-05 373:-0.085046597 374:1.6632272e-05 375:5.7377583e-05 376:3.5031579e-05 377:2.8001812e-05 378:-3.2585929e-05 379:1.0431057e-05 380:0.088898137 381:-2.4632596e-05 382:-4.9844708e-05 383:-0.018327374 384:-0.26092499 385:0.11088824 386:0.062955298 387:-0.089514092 388:-0.19267762 389:0.078715779 390:0.20355302 391:3.9006198e-05 392:-1.6283988e-05 393:-0.14225459 394:-0.090567954 395:0.14665167 396:-2.6507339e-05 397:-0.063201711 398:-1.686922e-05 399:0.18898654 400:-0.018327454 401:-0.063201718 402:0.20608608 403:-0.10899675 404:2.2633656e-05 405:0.19492035 406:0.18645066 407:-0.26102281 408:-2.3944263e-05 409:-3.9037277e-05 410:6.4986838e-05 411:4.1006762e-05 412:0.10565723 413:-0.20422332 414:-4.0042294e-05 415:0.14999512 416:-0.027148748 417:-0.11731479 418:-3.2462598e-05 419:-0.032558125 420:0.14899264 421:0.13868003 422:-5.937492e-06 423:-0.24297301 424:-0.20986618 425:0.032668039 426:0.28961256 427:-0.033719979 428:0.21414153 429:0.18756656 430:-0.06608931 431:0.19917747 432:0.018203311 433:0.07450211 434:0.1273893 435:-0.14006221 436:-0.20072681 437:2.8758195e-05 438:-0.11641044 439:0.077413797 440:3.9224287e-05 441:-2.4371917e-05 442:5.4749973e-05 443:-0.011754412 444:-0.25127849 445:0.078362532 446:-0.20630307 447:-0.28223553 448:-0.010596753 449:0.15091439 450:-0.17219658 451:-2.5943946e-05 452:0.26388276 453:-6.7284927e-06 454:0.035389859 455:-4.51286e-05 456:0.20639198 457:5.9582686e-05 458:0.060395584 459:0.10899676 460:0.022854991 461:-0.045570586 462:0.091968969 463:-0.051059734 464:0.072234556 465:0.085103884 466:0.16603395 467:-0.12164377 468:0.11203089 469:2.207951e-05 470:2.7901213e-05 471:-0.36622164 472:-0.0086241346 473:0.073014773 474:-1.252503e-05 475:0.043773666 476:0.2347648 477:1.7263992e-05 478:0.10806155 479:-5.1619936e-05 480:0.36176795 481:2.4331493e-05 482:2.153983e-05 483:-0.25772247 484:-0.20204002 485:0.1077053 486:-1.3576606e-05 487:0.27770463 488:0.08414115 489:0.043409601 490:-3.7047652e-05 491:-4.1521798e-05 492:3.0679377e-05 493:-0.10008784 494:-2.3821354e-05 495:0.10271598 496:-3.0514459e-05 497:-0.064160347 498:-0.20746596 499:0.11243147 500:-7.6712204e-06 501:3.4031895e-05 502:0.14675528 503:0.31973901 504:0.20955858 505:0.066175267 506:-0.10383302 507:0.29531285 508:3.6010239e-05 509:0.11870691 510:-0.22580072 511:-0.080385856 512:-0.3701444 
1 1:0.050146323 2:3.5238667e-05 3:0.232825 4:0.017579926 5:-0.04255997 6:-0.35710755 7:0.33159256 8:0.020391291 9:-0.007501014 10:-0.0055608577 11:-0.0090845907 12:-0.038786713 13:0.15622658 14:-4.713377e-05 15:-0.078878485 16:0.0055610216 17:0.15455101 18:0.095749743 19:0.37350762 20:0.013116899 21:-0.34154353 22:0.029126598 23:2.4917499e-05 24:0.0095318891 25:-0.17131908 26:0.14341424 27:0.0055432701 28:-0.48394808 29:-0.11387073 30:0.080412596 31:0.040002037 32:4.2249674e-05 33:-0.28529119 34:-4.6939931e-05 35:-0.33678681 36:-4.5207693e-05 37:-3.5238663e-05 38:0.25358167 39:-0.035274342 40:-1.7982655e-05 41:0.08395797 42:0.0060363505 43:0.017474834 44:-0.23193933 45:-0.25834614 46:-0.37395582 47:-0.031381689 48:-0.15257913 49:0.027383637 50:0.018592898 51:0.044902686 52:0.26279381 53:-0.046341926 54:0.0071942634 55:-0.011418154 56:-0.25955814 57:0.047555503 58:-5.953318e-05 59:-0.14896345 60:-2.60826e-05 61:0.12362964 62:-0.32770169 63:-2.8089806e-05 64:0.057743859 65:-0.070829004 66:0.39097744 67:0.21527211 68:-0.086229846 69:0.025762849 70:0.069873929 71:0.28773558 72:0.046832874 73:-0.29381579 74:-0.21600743 75:0.034788996 76:0.033846054 77:-0.049007215 78:0.25949514 79:0.045772109 80:-5.4269494e-05 81:0.12882321 82:-0.17258863 83:-0.36933959 84:0.0038100879 85:-0.29948303 86:0.083778739 87:-6.8866e-05 88:-0.010786317 89:-0.074024387 90:0.013845284 91:-0.051160689 92:0.48197326 93:-0.060831614 94:0.091233276 95:0.34497216 96:0.092350848 97:0.064271674 98:-0.048548128 99:-0.11916242 100:0.063682921 101:-3.4894027e-05 102:-0.013115832 103:-0.016291024 104:-0.10062823 105:-0.12476594 106:0.41079488 107:0.0991254 108:-2.7344271e-05 109:-0.22710679 110:0.050643496 111:-0.020761332 112:1.3065648e-05 113:0.0074385446 114:0.035313819 115:0.21550924 116:-0.019274859 117:0.064756967 118:-3.9182894e-05 119:0.0082490006 120:-0.17439824 121:-3.2864831e-05 122:0.025203479 123:0.038167674 124:0.20954604 125:0.029144717 126:-0.0010515016 127:2.2425185e-05 128:-0.067276493 129:0.0015650531 130:-0.38788655 131:-4.7577636e-05 132:0.0085578309 133:-0.24656098 134:-3.4869659e-05 135:0.0037768714 136:2.6428996e-05 137:0.15691978 138:-0.19776647 139:-0.10317823 140:3.832419e-05 141:0.15309881 142:0.14022446 143:0.037078314 144:-0.036977343 145:0.001438853 146:-0.0084380256 147:0.024740083 148:-0.046341941 149:-0.24248354 150:-0.13008815 151:0.17478012 152:0.033637058 153:-0.029202012 154:0.022879485 155:-0.34190118 156:-0.14890285 157:0.059610788 158:-0.02756417 159:-0.40064973 160:-0.36480805 161:-0.028038736 162:0.065280832 163:0.15587835 164:0.110502 165:-0.030343875 166:-0.030850966 167:0.02887273 168:0.24681924 169:0.44836146 170:-0.40727955 171:0.01309458 172:-0.11167379 173:-0.037153557 174:0.06797801 175:0.0046288166 176:0.24921614 177:-2.975978e-05 178:2.2340801e-05 179:0.064387724 180:0.0025319988 181:0.031157129 182:-0.25803432 183:0.041580729 184:-0.2421398 185:0.064573981 186:-0.17163289 187:0.23154181 188:0.032073997 189:-0.041712377 190:0.012446364 191:0.23307908 192:-1.9821749e-05 193:0.014972878 194:-0.18160819 195:0.043403309 196:0.080075048 197:-0.17172381 198:-0.17972916 199:7.1695278e-05 200:-0.023322562 201:0.15632176 202:-0.092814103 203:0.014299484 204:4.2469987e-05 205:0.02296201 206:0.013996554 207:-0.37514269 208:-0.025871512 209:-2.2852493e-05 210:-0.00087941618 211:-0.1401398 212:-0.02833524 213:-0.10938689 214:-5.9055543e-05 215:0.3720482 216:-0.17328121 217:0.12438667 218:0.034338355 219:0.25040713 220:-0.032748628 221:-4.1809664e-05 222:-4.8922477e-05 223:-0.12168277 224:3.6677564e-05 225:3.1991862e-05 226:0.016757702 227:0.1456213 228:0.23783088 229:0.25711036 230:0.047053669 231:-0.013810582 232:-0.013046365 233:-0.1139838 234:0.053481102 235:0.0083453618 236:-0.31783614 237:-0.29034856 238:-0.023479164 239:-0.0048648589 240:0.11183574 241:-0.073173672 242:-0.028274037 243:-0.15451252 244:-0.012057225 245:-0.013908819 246:0.061277602 247:-0.39127883 248:0.25777128 249:-3.0899821e-05 250:-0.16860424 251:-0.011769085 252:0.18085992 253:-2.8345055e-05 254:-0.037080351 255:-0.10126644 256:-4.9313148e-05 257:-0.21335246 258:-0.21919675 259:0.22450143 260:-0.072186217 261:0.16788903 262:-0.10967526 263:-0.059893426 264:0.035457563 265:0.038674559 266:-0.077044882 267:0.054274142 268:-0.013245242 269:-0.043308899 270:0.026242342 271:5.1577656e-05 272:0.098368101 273:-0.014210059 274:-0.084606864 275:0.23049746 276:0.18552406 277:-0.032609519 278:-0.0070325364 279:-0.36665255 280:0.033869836 281:-2.3856688e-05 282:-0.053684056 283:-0.24235111 284:-0.30346179 285:0.003191313 286:0.020146981 287:-0.033927433 288:-0.10317826 289:-0.052492637 290:0.051303253 291:-0.011766486 292:0.12479808 293:0.39649117 294:4.4341014e-05 295:0.047034059 296:0.064497024 297:-0.1789975 298:0.043270741 299:3.3870074e-05 300:5.4780729e-05 301:0.0024216382 302:0.24784896 303:-0.0015683235 304:0.18618809 305:-0.014949608 306:2.4428064e-05 307:0.042120002 308:-0.007438628 309:-0.056618556 310:-0.23676696 311:0.0094638802 312:0.024479935 313:0.0097111426 314:0.1056591 315:0.24173087 316:-4.4835095e-05 317:0.030030685 318:-0.03284812 319:0.13719845 320:0.042593271 321:0.03203037 322:-0.028182229 323:0.043692287 324:0.0031911486 325:0.23101774 326:-0.18721633 327:-1.7619333e-05 328:-0.14921339 329:0.1967411 330:0.010475418 331:-0.31165597 332:0.011563561 333:-0.17017868 334:-0.17051809 335:0.043340083 336:-3.3521093e-05 337:-0.39245984 338:0.16443601 339:-6.8993431e-05 340:-0.18928246 341:0.24230447 342:-3.5649227e-05 343:-2.5395204e-05 344:-0.034694433 345:0.0348497 346:0.44149792 347:-0.028424872 348:0.029667307 349:0.02166909 350:-0.20537318 351:0.06659136 352:0.105869 353:3.0776886e-05 354:0.016200496 355:0.13365467 356:-0.36469385 357:-0.026672686 358:-4.6987985e-05 359:-0.022978231 360:-0.4391849 361:-0.025434205 362:-0.27291486 363:0.2635451 364:0.0042389203 365:0.02596917 366:0.18060492 367:0.12437938 368:0.053096578 369:0.30792052 370:-1.8069306e-05 371:-0.33102357 372:-4.2528733e-05 373:-0.018337363 374:0.016469622 375:0.0069193626 376:0.015871329 377:1.5476739e-05 378:-0.015597422 379:0.0060174991 380:0.0092396457 381:1.2400118e-05 382:2.4280384e-05 383:-0.061751857 384:-0.35944468 385:0.061261192 386:0.040256776 387:-0.059704948 388:-0.10127085 389:0.030392861 390:0.20978327 391:1.761933e-05 392:-0.013332737 393:-0.14777619 394:-0.014107843 395:-0.076527297 396:-0.002885801 397:-0.029559391 398:3.4590328e-05 399:0.053145722 400:-0.070976816 401:-0.028189035 402:0.19283795 403:-0.10094865 404:2.6973985e-05 405:0.1607068 406:0.18504316 407:-0.24374735 408:0.018805299 409:-0.033356287 410:6.4386943e-05 411:-0.003353325 412:0.09600313 413:-0.30334154 414:0.043739818 415:0.097849891 416:0.012764894 417:-0.11669426 418:-4.0275005e-05 419:-0.027592467 420:0.080043159 421:-0.097933054 422:4.0353436e-05 423:-0.29466274 424:-0.29520932 425:0.022348937 426:0.27064246 427:-0.048775095 428:0.23353049 429:0.10190939 430:-0.022897083 431:0.11674745 432:0.044747531 433:0.056711156 434:0.0066056661 435:-0.055456392 436:-0.21254924 437:-3.3012169e-05 438:-0.067269832 439:0.011897507 440:-0.021020943 441:-5.6782051e-06 442:0.04357164 443:-0.036907967 444:-0.23618679 445:0.065073803 446:-0.17004916 447:-0.25896505 448:-0.0043011359 449:0.19417697 450:-0.11471992 451:-0.024274714 452:0.18979973 453:2.6428997e-05 454:0.040003598 455:-3.8966697e-05 456:0.076153934 457:0.0081491098 458:0.04187952 459:0.1009602 460:0.074512169 461:0.0082603833 462:0.11991486 463:-0.011054086 464:0.045085415 465:0.03528649 466:0.14802806 467:-0.040973436 468:0.046582386 469:0.051149879 470:4.6529021e-05 471:-0.38536859 472:0.012019728 473:0.059791092 474:4.6500591e-05 475:0.015560923 476:0.16580744 477:-0.0080581419 478:0.038732689 479:-4.014001e-05 480:0.31830797 481:0.028790042 482:1.7771916e-05 483:-0.17161959 484:-0.22790141 485:0.13571519 486:0.01823283 487:0.29291946 488:0.082253493 489:0.020508388 490:1.5045367e-05 491:0.023139298 492:0.039921913 493:-0.045766979 494:-4.2500986e-05 495:0.065280825 496:-4.037096e-05 497:-0.068967171 498:-0.26677579 499:0.086906791 500:3.7251491e-05 501:0.013703864 502:0.20585059 503:0.35209981 504:0.24581598 505:0.032903589 506:-0.10555708 507:0.3356981 508:5.3827946e-05 509:0.057721335 510:-0.24864359 511:-0.014066451 512:-0.31188682 
