svm_type c_svc
kernel_type linear
nr_class 2
total_sv 32
rho 0.225675
label 1 0
nr_sv 15 17
SV
1 1:0.017729694 2:-0.18589598 3:0.14643475 4:-3.8062106e-05 5:0.017572708 6:0.0094819721 7:-0.081701174 8:2.246033e-05 9:3.4063556e-05 10:-0.25476411 11:4.3522872e-05 12:-0.016803674 13:-0.38956714 14:-1.0172524e-05 15:-0.005141234 16:-4.1446689e-05 17:-1.0223839e-05 18:-0.29689232 19:-2.6973983e-05 20:0.016854249 21:0.074050672 22:-2.8276259e-05 23:-4.7961519e-05 24:0.020508071 25:-0.13688865 26:0.052363232 27:0.0030434993 28:0.067723654 29:-3.3146047e-05 30:-1.4016676e-05 31:4.2268857e-05 32:4.8118309e-05 33:1.5250297e-05 34:-2.9946259e-05 35:5.5717221e-05 36:4.4341014e-05 37:3.4490244e-05 38:0.022945762 39:-4.9504004e-05 40:3.9164748e-05 41:-1.4280367e-05 42:0.0042834557 43:0.33749646 44:-0.14840193 45:-8.4521589e-06 46:-0.31032464 47:-0.010567278 48:-0.014596005 49:0.032845508 50:1.9174086e-05 51:-0.10251733 52:-3.7698435e-05 53:4.9637787e-05 54:-0.13617317 55:3.9947583e-05 56:0.10619925 57:-2.0563151e-05 58:-1.9187682e-05 59:3.2381267e-05 60:-2.2706372e-05 61:0.40098602 62:-0.079338931 63:-0.23733823 64:-0.19998328 65:2.8089806e-05 66:-3.9480019e-05 67:-3.067221e-05 68:8.6020746e-06 69:1.8916158e-05 70:0.12053108 71:-3.1708725e-05 72:-5.9370002e-05 73:-2.6740207e-05 74:-0.1944931 75:0.0024155676 76:-0.10894237 77:-0.0055732527 78:0.17523304 79:-1.9441226e-05 80:-2.4430517e-05 81:0.015912719 82:-1.7196206e-05 83:-0.31740472 84:1.5854341e-05 85:1.3525127e-05 86:-0.16418663 87:0.25904852 88:-5.7608362e-05 89:-4.0609732e-05 90:0.28351596 91:-2.0971202e-05 92:-0.16642325 93:3.2818571e-05 94:-0.39042482 95:-3.6565478e-05 96:5.1672054e-05 97:-0.013851951 98:-0.15985784 99:-6.3699423e-05 100:-0.36810285 101:4.003846e-05 102:-6.1000559e-05 103:8.1380211e-05 104:3.9358278e-05 105:-1.7475808e-05 106:0.13893408 107:0.16014275 108:-5.052891e-05 109:0.1944931 110:0.030608369 111:-0.47082362 112:-4.9313148e-05 113:0.0021694894 114:5.4670395e-06 115:0.28347567 116:-0.30565315 117:0.11501881 118:0.17518254 119:0.25107896 120:2.0216848e-05 121:0.002565654 122:2.9487575e-05 123:-1.0535464e-05 124:-2.5279227e-05 125:3.0206196e-05 126:0.44525173 127:2.8855156e-05 128:0.0043890695 129:-0.25420934 130:-2.0345055e-05 131:5.9750062e-05 132:-0.29888225 133:-0.061179437 134:3.823165e-05 135:1.3929307e-05 136:2.2746459e-05 137:0.14769812 138:5.0862609e-06 139:-0.20696782 140:-3.806211e-05 141:-0.20183422 142:2.6551073e-05 143:0.19547796 144:-0.091456994 145:9.5592059e-06 146:-6.1035156e-05 147:0.21203397 148:-2.1960665e-05 149:-3.6853478e-05 150:5.0957908e-05 151:2.3340535e-05 152:1.4625404e-05 153:3.0940057e-05 154:0.30241725 155:-0.3412089 156:1.4159559e-05 157:6.1633882e-06 158:-0.020508107 159:2.0473033e-05 160:-3.9561841e-05 161:-0.048950389 162:4.2195257e-05 163:-5.0862633e-05 164:-3.5238663e-05 165:-0.16128258 166:-0.048950385 167:-3.0213689e-05 168:-0.19547795 169:-0.18935463 170:-0.0029038265 171:-3.9561841e-05 172:-0.39021179 173:-0.22743714 174:-5.7078665e-05 175:-0.011346696 176:-0.32253501 177:-4.3824119e-05 178:-1.7456232e-05 179:0.17803347 180:-4.8237489e-05 181:1.6090842e-05 182:0.016973076 183:-0.010457757 184:-0.14570953 185:0.090859979 186:-1.264246e-05 187:-0.29834908 188:-4.7848735e-05 189:2.7123424e-05 190:-0.3198427 191:1.3636025e-05 192:-4.0650346e-05 193:0.30459034 194:3.9804989e-05 195:3.1693027e-05 196:2.8172031e-05 197:-0.057881139 198:-0.00063918665 199:2.6914047e-05 200:-2.1416779e-05 201:3.5238663e-05 202:-0.11726168 203:3.6080979e-05 204:4.979963e-05 205:-0.17568396 206:-1.2341267e-06 207:-0.0047804513 208:-0.014056901 209:-0.13462585 210:-3.5457819e-05 211:-0.016816754 212:-0.14854246 213:-0.3279011 214:3.3775537e-05 215:0.22084682 216:-0.36811182 217:0.0016619386 218:0.013771207 219:0.0010586923 220:-1.4386125e-05 221:-1.9451214e-05 222:4.3448286e-05 223:-0.001661961 224:3.5965313e-05 225:1.5011437e-05 226:1.9404251e-05 227:-0.26115859 228:0.37126166 229:-0.022756159 230:-0.1322763 231:0.22605838 232:-2.1431708e-05 233:0.26687688 234:0.1379872 235:-3.0932377e-05 236:-0.018635863 237:3.080747e-05 238:-3.8062106e-05 239:5.5484583e-05 240:-6.1035156e-05 241:-3.7376249e-05 242:3.1491923e-05 243:-2.2810456e-05 244:2.322197e-05 245:0.38497829 246:-5.0482195e-05 247:0.0010256809 248:-0.34167477 249:2.4422194e-05 250:-6.576548e-06 251:0.13352743 252:-0.11881209 253:5.1619936e-05 254:5.4037806e-05 255:-4.0793886e-05 256:0.13462585 257:3.468369e-05 258:0.17896061 259:0.14125347 260:-0.30828464 261:0.19693379 262:4.0967316e-05 263:-1.2196429e-05 264:-4.8652975e-05 265:3.9019313e-05 266:-0.26177117 267:3.6244288e-05 268:-4.8851962e-05 269:4.0690105e-05 270:-0.28543249 271:4.6128225e-05 272:0.019792568 273:0.14206854 274:-0.26503757 275:5.1838728e-05 276:-1.9061932e-05 277:-0.31786263 278:-3.0899311e-05 279:-0.0050187297 280:-0.017834451 281:2.0971198e-05 282:-5.0029288e-05 283:5.2331536e-05 284:-2.2024165e-05 285:2.1895528e-05 286:-3.9264625e-05 287:-0.015292964 288:-0.18302131 289:1.2957276e-05 290:-0.018635914 291:0.29888225 292:-0.2412836 293:-3.1756677e-05 294:-0.220788 295:-0.21857078 296:0.17803346 297:-0.020365026 298:-2.4857298e-05 299:2.8772247e-05 300:1.9367913e-05 301:-3.4360128e-05 302:-6.2707666e-05 303:4.0268838e-05 304:-4.7202331e-05 305:6.9431294e-06 306:-2.7862801e-05 307:4.9834995e-05 308:-0.0021693353 309:-0.002896812 310:1.6084176e-05 311:-5.0270592e-05 312:1.0172525e-05 313:0.1756797 314:0.052363228 315:-3.0318246e-05 316:-4.7460708e-05 317:-3.3738452e-05 318:5.8602494e-05 319:4.0690105e-05 320:-0.13129705 321:0.34210676 322:-0.18768883 323:3.4633584e-05 324:-1.9105859e-05 325:-1.7861024e-05 326:-5.8919709e-06 327:-0.01962149 328:-0.15469202 329:5.0770897e-05 330:0.0043892311 331:-5.4245662e-05 332:0.12862767 333:-0.072132654 334:-3.560384e-05 335:-0.079338901 336:-1.519843e-05 337:-0.0023915565 338:-5.4170665e-05 339:0.26503757 340:-3.7104022e-05 341:-1.3525126e-05 342:0.31382796 343:-3.0517576e-05 344:-4.3073091e-05 345:0.0030745715 346:-1.7619333e-05 347:0.27369252 348:0.20061165 349:-0.0095195575 350:0.25056785 351:-4.6715206e-05 352:0.0060504614 353:4.5037348e-05 354:-2.8238577e-05 355:6.7650828e-05 356:0.30494484 357:2.2289303e-05 358:0.023126746 359:0.37501183 360:-0.0017207005 361:-2.5441157e-05 362:-2.3377452e-05 363:-0.13148198 364:4.494502e-05 365:5.6523924e-05 366:-0.14570951 367:5.3827949e-05 368:-0.29276162 369:0.11321841 370:-0.0041498314 371:-0.098096795 372:2.6913975e-05 373:-2.1277365e-05 374:-0.29271355 375:4.7720674e-05 376:-2.4812929e-05 377:-3.8282615e-05 378:-3.2992244e-05 379:1.023745e-06 380:-3.096585e-05 381:-2.3179695e-05 382:2.0345053e-05 383:-3.1822579e-05 384:-4.5501536e-05 385:0.29970372 386:1.8338782e-05 387:-4.0049275e-05 388:-0.015861215 389:0.15024647 390:-2.9875031e-05 391:-0.01459601 392:-2.9657756e-05 393:1.8088758e-05 394:-0.0045015835 395:-2.2170509e-05 396:0.37214515 397:-4.771338e-05 398:2.316903e-05 399:0.12352791 400:0.001024237 401:3.7092785e-05 402:-0.19213659 403:-0.32152513 404:1.7141509e-05 405:-4.1787916e-05 406:0.096637838 407:-3.7700731e-05 408:-4.1859563e-05 409:1.0167882e-05 410:-5.5717224e-05 411:-0.18768883 412:4.871939e-05 413:4.0119747e-05 414:3.1186046e-05 415:0.11201363 416:4.5064404e-05 417:4.7928588e-05 418:0.15962265 419:0.0044081793 420:-0.37214425 421:0.0027125808 422:2.6943995e-05 423:-4.6417998e-05 424:-3.9724982e-05 425:-3.0358218e-05 426:-2.6580843e-05 427:0.16493203 428:0.082168587 429:-4.2460906e-05 430:-2.1617498e-05 431:4.0452844e-05 432:0.29057154 433:-2.6545435e-05 434:-2.2283464e-05 435:0.43636644 436:-4.5334535e-05 437:1.483611e-05 438:2.6121317e-05 439:-0.14086393 440:3.2765958e-05 441:-1.914767e-05 442:-3.9403218e-05 443:0.13408916 444:-0.14840193 445:1.7295164e-05 446:0.19211461 447:-0.096526042 448:2.9603187e-05 449:-0.13195373 450:0.0026337942 451:5.1663355e-05 452:-5.0717164e-05 453:-9.6839585e-06 454:0.1543792 455:-0.0025712342 456:0.023888581 457:0.32152516 458:0.23443097 459:4.5928839e-05 460:0.019624732 461:0.32530135 462:-4.1924239e-05 463:0.20009176 464:0.29530716 465:0.14124298 466:0.0059228339 467:5.8870173e-05 468:0.090859972 469:-0.063610911 470:-1.7962338e-05 471:-0.012234807 472:-3.5238663e-05 473:2.3489412e-05 474:1.743483e-05 475:0.22124216 476:0.21898034 477:-0.11228074 478:3.1775689e-05 479:-4.112778e-05 480:0.29811174 481:-2.9938165e-05 482:0.0041498817 483:0.29477003 484:-0.13617316 485:2.3264567e-05 486:-0.21857078 487:-5.268356e-09 488:-3.0468114e-05 489:5.9349681e-05 490:-0.0055734143 491:-0.10621071 492:-4.8177928e-05 493:2.507936e-05 494:0.37501183 495:-0.15854929 496:-0.32651025 497:0.21769591 498:-1.7681497e-05 499:-0.017729659 500:-3.128979e-05 501:-1.0172525e-05 502:4.6200981e-05 503:-0.0031070237 504:-0.055496026 505:1.8915312e-05 506:-3.7832659e-05 507:-3.1302221e-05 508:-3.6273872e-05 509:-0.1968991 510:0.068850964 511:5.9595495e-05 512:-0.24555413 
0.1684807074130034 1:0.17961818 2:0.13851126 3:0.2434939 4:0.094375163 5:-0.090617083 6:0.14497001 7:-0.035526074 8:-0.03452602 9:-0.093858495 10:-0.058071382 11:-0.011177243 12:0.080289595 13:-0.094347715 14:0.11858467 15:0.055562306 16:0.034101203 17:-0.15829499 18:0.1004217 19:0.070025109 20:0.024638345 21:-0.18460682 22:-0.075744681 23:-0.057846073 24:-0.10114656 25:0.017133022 26:0.063088074 27:0.12365062 28:0.16007338 29:-0.11186945 30:0.055000726 31:0.10532215 32:-0.1004761 33:-0.026139064 34:0.044845141 35:-0.11339079 36:-0.23337241 37:0.062624387 38:0.062974639 39:0.26357993 40:-3.4703226e-05 41:0.040668227 42:0.0087321326 43:0.12151512 44:-0.10379724 45:-0.020816274 46:-0.11158693 47:-0.06823688 48:-0.084643431 49:0.086416364 50:0.21734183 51:0.019649893 52:0.064178526 53:-0.026366184 54:-0.055305168 55:0.033246189 56:-0.14255092 57:0.015225369 58:-2.2375312e-05 59:-0.064145692 60:-0.026207192 61:-0.056650378 62:-0.045130312 63:-2.3024646e-05 64:0.41131446 65:-0.24363868 66:-0.1171973 67:-0.032830659 68:-0.23566131 69:0.03890571 70:0.1409858 71:0.14497748 72:0.088858411 73:-3.1858141e-05 74:0.12303983 75:-2.5184874e-05 76:0.08847639 77:-0.19886456 78:-0.081454948 79:-0.32408008 80:0.072479509 81:-0.21766427 82:-0.26199105 83:-0.12010369 84:0.05647134 85:0.10000336 86:0.085768059 87:0.088090293 88:-0.050763618 89:-0.066017136 90:-0.026640831 91:-0.1899149 92:0.043929838 93:-0.016382849 94:0.09345594 95:-0.062022019 96:0.028128283 97:0.24474117 98:0.045964263 99:0.1677805 100:-0.1163953 101:0.2404139 102:0.023361826 103:-0.083578333 104:-0.25282386 105:-0.084617712 106:0.21233627 107:0.046717525 108:0.18851054 109:0.1372215 110:0.03117303 111:-4.4504617e-05 112:-0.052615911 113:0.12221426 114:0.011436862 115:0.04199801 116:-0.19265018 117:-0.071761414 118:-0.0018980785 119:-0.034269586 120:0.021806123 121:-0.18360534 122:0.12135862 123:-0.052066371 124:0.1082132 125:-0.058218941 126:-0.061863169 127:0.074029498 128:-0.18237916 129:-0.069551766 130:-0.12752783 131:0.12543307 132:0.10546737 133:0.18420175 134:-0.037030995 135:-0.17455561 136:-0.0305383 137:0.051942732 138:-0.059265722 139:-4.5593435e-05 140:-0.027541349 141:-0.17854223 142:-0.012777231 143:0.31987911 144:-0.071421608 145:-0.029979372 146:-2.7799511e-05 147:-0.12002515 148:-0.013440516 149:-0.14826772 150:0.1631096 151:-0.015947139 152:0.051761318 153:0.013721728 154:-0.059693687 155:-0.13096637 156:0.067747563 157:0.29345122 158:-0.042549122 159:-0.081946872 160:0.0068546059 161:0.074914478 162:0.044648681 163:-0.23400486 164:-0.034905519 165:0.24716946 166:-0.06102705 167:0.19066156 168:-0.26440454 169:-0.056779645 170:-0.091852538 171:-0.031710066 172:-0.25735742 173:-0.048177257 174:0.075359829 175:0.066095635 176:0.044063177 177:0.020709841 178:-9.7558095e-06 179:0.084679767 180:-0.022068672 181:0.14381151 182:0.24281116 183:-0.032821346 184:-0.18705164 185:0.05528225 186:-0.069350079 187:-0.13418794 188:0.069993332 189:4.1162184e-05 190:-0.041647293 191:-0.10927019 192:-0.063595816 193:0.11536092 194:0.078787036 195:0.18801951 196:-0.07407628 197:-0.17092113 198:-0.047734879 199:0.11610659 200:-0.0054347781 201:0.051534217 202:-0.17329235 203:-0.023953415 204:0.0032301841 205:-0.074824259 206:-0.14954682 207:-0.13110241 208:-0.034367073 209:-0.062789448 210:-0.11623736 211:-0.073154934 212:0.0037239946 213:0.01976018 214:-2.708039e-05 215:0.1750531 216:-0.27747419 217:-0.043970592 218:0.055444352 219:-0.0070553846 220:0.057327248 221:0.012518523 222:-0.12477069 223:-0.051561661 224:0.0045277188 225:0.026676586 226:-0.019939246 227:0.10460179 228:0.20854349 229:-0.015996071 230:-0.014298255 231:0.022988729 232:-0.019912547 233:0.093589947 234:0.17322019 235:-2.254173e-05 236:-0.037827142 237:-0.077268831 238:-0.076604657 239:0.14206599 240:0.18339238 241:0.046185866 242:0.080446541 243:-0.041375469 244:-0.025870804 245:-0.039849602 246:0.033960186 247:0.023769259 248:0.16655658 249:1.5970056e-05 250:-0.061371844 251:-0.096942365 252:0.11128131 253:-0.06901332 254:-0.19555517 255:0.039443109 256:-0.0051327599 257:-0.15019995 258:0.07529936 259:0.018034004 260:-0.28881481 261:-0.11174423 262:0.010700073 263:-0.11108173 264:0.021041343 265:-0.024370881 266:-0.19490421 267:0.016413655 268:0.068920642 269:0.26559159 270:-0.097779118 271:-4.7369558e-05 272:0.24530016 273:0.10849402 274:-0.25778827 275:-0.12424819 276:0.12290655 277:-0.096800327 278:-0.065772012 279:-0.075791597 280:0.11091737 281:-0.029493082 282:0.074311502 283:-0.042411298 284:-0.011751562 285:0.012956737 286:-0.061236206 287:-0.049294978 288:0.091633491 289:0.26347291 290:-0.040442433 291:-0.10567217 292:0.23759557 293:-0.045327939 294:0.096296012 295:-0.014629337 296:0.074336641 297:0.088600621 298:-0.078013666 299:3.3399872e-05 300:0.065019585 301:0.083164707 302:0.029716965 303:-0.16928738 304:-0.061804123 305:0.050115068 306:0.069209784 307:-0.029911015 308:-0.053492099 309:-0.21064512 310:-0.013731178 311:3.4326004e-05 312:0.080257885 313:0.016849449 314:-0.048172187 315:0.10888595 316:-0.13005644 317:0.0015097968 318:-0.10959464 319:0.27871111 320:-0.15343207 321:-0.036339432 322:-0.086951502 323:0.1341839 324:-0.0086883595 325:0.20388828 326:0.033229038 327:-0.025374416 328:-0.12350131 329:0.053615313 330:0.049626395 331:0.12270362 332:0.064875767 333:0.12760261 334:-0.19653441 335:0.070032403 336:0.014721386 337:-0.24441861 338:-0.090023533 339:-0.029076472 340:-0.04960696 341:0.12677214 342:0.019528829 343:-0.076846771 344:0.24218102 345:0.068412185 346:0.0072978646 347:-0.38458535 348:0.061815992 349:0.098162428 350:-0.13325232 351:0.083033361 352:0.064666033 353:0.11568805 354:0.039457984 355:0.12206366 356:-0.11304764 357:2.3513348e-05 358:0.30491573 359:0.058710862 360:0.021531945 361:-0.2769745 362:0.10781765 363:-0.082120322 364:0.038152382 365:0.024915935 366:0.040202457 367:0.094749793 368:-0.040124658 369:-0.082790025 370:0.021317793 371:-2.5990366e-05 372:-0.021272458 373:-0.2606445 374:0.010043867 375:0.037437785 376:0.33747768 377:0.05468512 378:-0.13607362 379:0.088245675 380:0.18025534 381:-0.0048364676 382:0.039280556 383:0.3014099 384:-0.0010839995 385:-0.12578797 386:0.024975086 387:1.3153178e-05 388:0.11828115 389:-0.076426625 390:-0.16063003 391:-0.04552323 392:0.053811222 393:-0.28572282 394:-0.07939475 395:0.024867145 396:-0.04949471 397:-0.12988822 398:-1.3225235e-05 399:0.077356987 400:-0.043422207 401:-0.2292784 402:-0.062260062 403:-0.13532533 404:-0.01182922 405:0.028730212 406:0.16135168 407:-0.082004324 408:0.016777102 409:-0.13155134 410:0.033436649 411:0.087326929 412:0.23518708 413:-0.030573562 414:0.017660581 415:0.071740106 416:0.044754542 417:1.8040982e-05 418:-0.02558252 419:0.13721746 420:0.012836343 421:-0.084711827 422:-0.032922711 423:-0.082072273 424:0.080367334 425:0.038252503 426:0.088045411 427:0.14168298 428:0.038673058 429:0.14576259 430:-0.074305311 431:0.037638295 432:0.080115028 433:0.033493407 434:0.0062431521 435:0.038710315 436:0.058881957 437:-0.11904944 438:-0.021133199 439:0.10931242 440:-0.16999654 441:-0.099254645 442:0.12313844 443:0.079651989 444:-0.12288747 445:-0.094386913 446:0.12446037 447:-0.086560339 448:0.032718677 449:-0.10316349 450:0.1343565 451:-0.011846586 452:-4.9366146e-05 453:0.039201215 454:-0.17451508 455:0.075280257 456:-0.05971862 457:0.16501565 458:-0.026054077 459:0.047268547 460:0.072848693 461:-0.014647692 462:-0.046515949 463:0.12498514 464:0.3066988 465:0.0018981663 466:-0.037989233 467:0.10255143 468:0.042103373 469:0.025427245 470:-0.048431519 471:0.24943073 472:0.08064203 473:0.048107263 474:-0.031865045 475:0.032492265 476:0.24100389 477:-0.10434706 478:0.068993941 479:-0.027515199 480:0.039398357 481:0.10180748 482:-0.093443997 483:-0.073610559 484:-0.30551323 485:0.25050256 486:0.22405624 487:0.12780756 488:0.043137677 489:4.088214e-05 490:0.028119473 491:-0.025508309 492:0.077167176 493:0.063407838 494:-0.01573023 495:0.0087922756 496:-0.1520963 497:0.026493268 498:0.028190143 499:-0.11746134 500:-0.29037639 501:0.079628319 502:0.22413923 503:0.067379408 504:0.10044497 505:-0.12544346 506:-0.055229899 507:-0.062213261 508:-3.6489506e-05 509:0.0073701902 510:-0.18056321 511:0.016315829 512:-0.10804389 
0.5009470507253962 1:0.12111059 2:-0.13931954 3:0.10929471 4:-6.632819e-05 5:0.031256381 6:1.4568483e-05 7:-0.073204711 8:-1.4937516e-05 9:1.4533778e-05 10:-0.2652908 11:4.1319461e-05 12:-5.2366282e-05 13:-0.33665746 14:3.3465287e-05 15:2.9956022e-05 16:3.5967798e-05 17:-1.8866531e-05 18:-0.25633889 19:2.1250022e-05 20:0.044823397 21:0.060573097 22:5.466427e-06 23:-2.8043351e-05 24:-3.8183818e-05 25:-0.14457187 26:0.077897392 27:1.7122853e-05 28:-0.11021247 29:-5.3454478e-05 30:-5.0620965e-05 31:2.9341521e-05 32:4.19424e-05 33:2.0117488e-05 34:-3.1724529e-05 35:6.1233703e-05 36:2.1579186e-05 37:-3.1278902e-05 38:0.064043649 39:-5.5012006e-05 40:1.4633268e-05 41:0.041378316 42:-2.6354939e-05 43:0.31030065 44:-0.19976537 45:4.8648817e-05 46:-0.2966142 47:-1.8050137e-05 48:-0.16451314 49:0.10664227 50:-7.1158602e-06 51:-0.15603429 52:-3.5244248e-05 53:3.8595354e-05 54:-0.16857833 55:4.1074622e-05 56:0.078307323 57:1.2617723e-05 58:-4.1717147e-05 59:1.6478745e-06 60:-4.0958097e-05 61:0.35355154 62:-0.11104649 63:-0.23865874 64:-0.16597763 65:-5.4249587e-05 66:-3.0511606e-05 67:-3.8815164e-05 68:-3.998083e-05 69:-2.4891397e-05 70:-2.907702e-05 71:-2.8625715e-05 72:-2.5561238e-05 73:-8.5386791e-06 74:-0.15160277 75:1.5496395e-05 76:-0.073807642 77:-3.7505801e-05 78:0.17710838 79:-1.7424611e-05 80:-3.4026019e-05 81:0.0070066825 82:-5.1275005e-05 83:-0.29600501 84:2.2963803e-05 85:2.6436355e-05 86:5.7842048e-05 87:0.27590513 88:-6.5458487e-05 89:-2.8119739e-05 90:0.28132951 91:-4.0718478e-05 92:-0.11989822 93:3.0020821e-05 94:-0.39623639 95:-3.3737e-05 96:2.8749708e-05 97:0.054057904 98:-0.13227352 99:-4.7929581e-05 100:-0.35418773 101:4.1706895e-05 102:-5.5707129e-05 103:8.0275815e-05 104:7.9581878e-06 105:-2.1510696e-05 106:0.24780639 107:0.020563724 108:-4.7898437e-05 109:0.15160277 110:0.082934104 111:-0.47650191 112:-3.2717639e-05 113:3.9877632e-05 114:-1.3816907e-05 115:0.28132948 116:-0.25000879 117:0.12662755 118:-0.0014079006 119:0.20424673 120:-3.8972419e-05 121:0.0016907648 122:3.501965e-05 123:-3.7121627e-05 124:-2.5914513e-05 125:4.7932484e-05 126:0.42411324 127:-4.5873283e-05 128:0.028655516 129:-0.26533154 130:2.5143585e-05 131:4.2497697e-05 132:-0.27514544 133:-4.633806e-05 134:5.8606158e-05 135:3.8568494e-05 136:2.6121315e-05 137:0.13866465 138:2.3308186e-05 139:-0.16493008 140:-3.983295e-05 141:-0.16000351 142:4.2924363e-05 143:0.17776453 144:2.8901099e-05 145:-2.4562036e-05 146:-6.4998843e-05 147:0.1459289 148:-3.9298691e-05 149:-4.2846197e-05 150:5.9419835e-05 151:2.0533282e-05 152:-3.9139926e-05 153:9.1802294e-06 154:0.2947821 155:-0.33451012 156:-4.1144536e-05 157:4.5355835e-05 158:-1.2594426e-05 159:4.1267758e-05 160:3.4869554e-05 161:2.8995539e-05 162:-4.1165158e-06 163:-0.026287608 164:-3.8144895e-05 165:-0.1643035 166:-3.8070899e-05 167:-4.8488371e-05 168:-0.17776455 169:-0.1693515 170:-0.054057881 171:-4.9936018e-05 172:-0.39570245 173:-0.21784928 174:-5.5700391e-05 175:0.022637192 176:-0.26561531 177:-1.6929387e-05 178:3.3380726e-05 179:4.9240774e-05 180:-3.8498776e-05 181:-3.32626e-05 182:-0.0020445185 183:-0.023195324 184:-2.9309269e-05 185:2.2622955e-05 186:-3.99501e-05 187:-0.19709979 188:-4.2008069e-05 189:2.5033529e-05 190:-0.28488421 191:3.0411431e-05 192:2.7512404e-05 193:0.29630551 194:3.9050123e-05 195:-1.1970933e-05 196:-2.807228e-05 197:-0.083786793 198:-0.00017329208 199:3.2992772e-05 200:1.585061e-05 201:-5.2846448e-05 202:-0.20109059 203:-7.6110591e-06 204:5.7067013e-05 205:-0.14300352 206:2.5604777e-05 207:-4.9987124e-05 208:3.8547947e-05 209:-0.12946713 210:-2.928779e-05 211:-8.053853e-06 212:-0.12988983 213:-0.34107238 214:3.9242223e-05 215:0.20838462 216:-0.35419175 217:0.0012952075 218:0.00073184702 219:0.0007692278 220:-3.2250085e-05 221:-3.3230601e-05 222:2.7014388e-05 223:-0.0012948059 224:-1.9561952e-05 225:-1.471763e-05 226:0.041378316 227:-0.25301903 228:0.34289154 229:-0.075493127 230:-0.09498135 231:0.21620329 232:-4.3461248e-05 233:0.23563316 234:0.18950884 235:-4.3563323e-05 236:-0.034037918 237:-3.1468597e-05 238:1.3546436e-05 239:6.4764383e-05 240:-4.6094199e-05 241:-2.7149497e-05 242:1.7198425e-05 243:-2.0708032e-05 244:-1.0250691e-05 245:0.33649129 246:-4.1619664e-05 247:-2.6925289e-05 248:-0.29197958 249:3.3985656e-05 250:1.7024035e-05 251:0.10162961 252:-4.0157604e-05 253:5.1397339e-05 254:3.9509483e-05 255:-2.7485508e-05 256:0.12946713 257:5.1807525e-05 258:0.14114231 259:0.12602538 260:-0.27836749 261:0.14216061 262:2.2433882e-05 263:1.3456986e-05 264:-1.7341845e-05 265:5.8847825e-05 266:-0.21303949 267:4.051127e-05 268:-0.050241847 269:2.1826545e-05 270:-0.29348904 271:5.778288e-05 272:0.086575873 273:0.1320889 274:-0.28027025 275:4.4163677e-05 276:-3.1241012e-05 277:-0.34472877 278:9.8245837e-06 279:-3.208821e-05 280:2.2222952e-05 281:3.0037574e-05 282:-4.0290779e-05 283:-0.00072940142 284:-0.050241843 285:3.1959498e-05 286:-1.0336307e-05 287:-0.039827827 288:-0.14169736 289:3.6186244e-05 290:-0.034037959 291:0.27514544 292:-0.26165551 293:-4.1985791e-06 294:-0.2134054 295:-0.19940563 296:-4.2491443e-05 297:-0.060231049 298:-3.2804975e-05 299:-2.8673745e-05 300:-2.0318897e-05 301:2.9444067e-05 302:-5.0829593e-05 303:3.2554144e-05 304:-2.7375601e-05 305:3.2063919e-05 306:2.8588151e-05 307:2.4005722e-05 308:3.6641268e-05 309:-0.021655593 310:-3.1271389e-05 311:-4.8826219e-05 312:2.0157058e-05 313:0.010730455 314:0.0778974 315:-2.9221836e-05 316:-4.9917271e-05 317:-4.6233265e-05 318:-2.6505335e-05 319:3.0625706e-05 320:-1.8144199e-05 321:0.2655265 322:-0.14428988 323:2.9597866e-05 324:3.0184283e-05 325:-1.9065179e-05 326:1.2583714e-05 327:-0.060231045 328:0.089341067 329:1.8251192e-05 330:0.028655497 331:-7.0398323e-06 332:0.16532974 333:-0.23518059 334:3.4823277e-06 335:-0.11104648 336:4.4021301e-05 337:-0.0012426923 338:-3.9458715e-05 339:0.28027022 340:-1.6069016e-05 341:9.5545693e-06 342:0.29146171 343:2.6155773e-05 344:-5.0910978e-05 345:0.0024352428 346:4.5996647e-05 347:0.24757525 348:0.19360152 349:6.3649481e-06 350:0.20040452 351:-5.2737465e-05 352:-2.4991641e-05 353:3.3255696e-05 354:1.1928201e-05 355:6.329298e-05 356:0.34107238 357:-3.981941e-05 358:0.076124176 359:0.35128963 360:-0.0017136682 361:4.1667645e-05 362:6.2293748e-06 363:-0.077865221 364:3.6004454e-05 365:4.8430138e-05 366:5.4961627e-05 367:4.9635379e-05 368:-0.28164902 369:0.16440156 370:-0.026991557 371:-0.1618298 372:4.1955816e-05 373:4.345705e-05 374:-0.28165644 375:0.0082261255 376:4.6257228e-05 377:-2.2905135e-05 378:-2.2371809e-05 379:-3.7854395e-05 380:1.9744461e-05 381:1.1887464e-05 382:-3.3800519e-05 383:-2.8051536e-05 384:-3.795667e-05 385:0.27830341 386:2.038475e-05 387:-2.271089e-05 388:-0.022671375 389:0.17668885 390:-1.9523168e-05 391:-0.16451316 392:1.9284251e-05 393:3.8560036e-05 394:-0.063675933 395:7.6606211e-06 396:0.37340704 397:-3.4087458e-05 398:-1.1476456e-05 399:0.11981071 400:-3.3080694e-05 401:2.4610446e-05 402:-0.17511499 403:-0.31456056 404:-3.0561314e-05 405:-3.5617581e-05 406:0.084402531 407:-4.2865526e-05 408:-5.5604469e-05 409:-1.5119767e-05 410:-3.5579957e-05 411:-0.1442899 412:6.5839609e-05 413:4.4733242e-05 414:2.7907734e-05 415:-1.9987114e-05 416:2.0345238e-05 417:3.605193e-05 418:-1.126402e-05 419:2.2460332e-05 420:-0.37340701 421:0.0015156211 422:3.4234108e-05 423:-6.5692417e-05 424:-3.3153581e-05 425:1.9154339e-05 426:-4.0618866e-05 427:2.9392548e-05 428:0.080962934 429:-3.7013859e-05 430:4.8626651e-05 431:4.0408431e-05 432:0.26091331 433:-2.8354993e-05 434:4.1696596e-05 435:0.39254072 436:-4.9464765e-05 437:-1.1947401e-05 438:2.4418587e-05 439:-0.10959759 440:5.8169226e-05 441:2.2116246e-05 442:2.7808917e-05 443:0.095747083 444:-0.19976537 445:3.2379154e-05 446:0.17557395 447:-0.25815448 448:-2.3520441e-05 449:-0.12235583 450:0.0020432526 451:2.6509309e-05 452:-1.0918732e-05 453:-2.6466309e-05 454:0.12401291 455:-0.086575888 456:0.08527004 457:0.31456059 458:0.24858256 459:9.717116e-06 460:-3.6075373e-05 461:0.27613139 462:-4.3983589e-05 463:0.19757479 464:0.26075193 465:0.12601373 466:-0.011415663 467:5.1224099e-05 468:-3.0570627e-05 469:-0.040804129 470:3.5922887e-05 471:-0.051094174 472:-6.3353029e-05 473:3.0616382e-05 474:5.4272343e-05 475:0.20649312 476:0.23867626 477:-0.086365052 478:-3.4088778e-05 479:-3.3836623e-05 480:0.31070811 481:2.8614168e-05 482:0.02699155 483:0.26075307 484:-0.16857833 485:-2.7966516e-05 486:-0.19940563 487:4.7532576e-05 488:-2.5308842e-05 489:3.1397518e-05 490:2.4293875e-05 491:-0.079135023 492:-4.8211317e-05 493:-1.5918999e-05 494:0.35128963 495:-0.22620288 496:-0.27575025 497:0.26380146 498:3.491094e-05 499:-0.12111058 500:3.7176353e-05 501:-6.4274827e-05 502:-2.621872e-05 503:1.9021161e-05 504:0.25815871 505:-2.3335235e-05 506:-7.9347328e-06 507:4.0128896e-05 508:2.6028036e-05 509:-0.14216059 510:0.077726401 511:3.838768e-05 512:-0.28689057 
0.968089596227159 1:0.035960283 2:-0.20006993 3:0.092591055 4:-4.3158376e-05 5:-4.4048331e-05 6:0.01034521 7:-0.075265102 8:3.3497978e-05 9:-0.0045190826 10:-0.26164174 11:4.4405257e-05 12:-5.3284522e-05 13:-0.38416415 14:5.2857999e-05 15:4.0610554e-05 16:7.4934533e-06 17:-2.2090358e-05 18:-0.27671903 19:-2.3029032e-05 20:0.011350725 21:0.075970218 22:8.6709215e-06 23:-3.9678125e-05 24:-5.3941741e-05 25:-0.10803564 26:0.044737287 27:-2.0024638e-05 28:0.15106212 29:-5.9230686e-05 30:-3.6553396e-05 31:3.8284197e-05 32:3.2962755e-05 33:-2.8321925e-05 34:-2.1600823e-05 35:5.9315509e-05 36:-5.3827949e-05 37:-1.3806993e-05 38:0.039308455 39:-5.1242681e-05 40:-1.3360565e-05 41:1.8338782e-05 42:-1.0787271e-05 43:0.33786094 44:-0.10555167 45:0.00058462715 46:-0.31174707 47:-0.011372273 48:-1.5112387e-05 49:0.062982842 50:-0.0022009863 51:-0.090283558 52:-3.7561858e-05 53:4.1514235e-05 54:-0.099212341 55:-3.0318246e-05 56:0.10637704 57:1.7727089e-05 58:-2.0926147e-05 59:-2.135322e-05 60:1.674815e-05 61:0.44444388 62:-0.087894574 63:-0.19078779 64:-0.27160838 65:-2.139105e-05 66:-4.7236572e-05 67:2.6474852e-05 68:-2.6434964e-05 69:5.7466459e-05 70:0.023503881 71:-3.9834798e-05 72:0.01717649 73:1.9262869e-05 74:-0.20273156 75:1.8380328e-05 76:-0.07754264 77:-0.0064613223 78:0.1426609 79:2.0424372e-05 80:-2.98251e-05 81:3.5425433e-05 82:-4.7750706e-05 83:-0.28634164 84:-2.3015415e-05 85:3.7454171e-05 86:-0.044766895 87:0.29920828 88:-6.0846822e-05 89:6.7301726e-06 90:0.30338809 91:-2.785861e-05 92:-0.20241398 93:2.5816744e-05 94:-0.38172522 95:-2.7069822e-05 96:1.6517391e-05 97:1.8698094e-05 98:-0.15397732 99:-5.6926619e-05 100:-0.37088037 101:3.7987109e-05 102:-6.1649647e-05 103:7.8796053e-05 104:6.9470334e-06 105:3.0603416e-05 106:0.090659566 107:0.045731191 108:-6.2387619e-05 109:0.2036981 110:0.04760262 111:-0.49565676 112:-5.6638226e-05 113:0.0089263637 114:-4.1087831e-05 115:0.30338806 116:-0.3042056 117:0.090362407 118:0.060922801 119:0.29245424 120:0.025289442 121:1.9728046e-05 122:-3.1693624e-05 123:1.8266728e-05 124:1.8927622e-05 125:-3.9650793e-05 126:0.48768952 127:-1.8285833e-05 128:0.011527526 129:-0.26164174 130:1.6676428e-05 131:4.9313156e-05 132:-0.29379994 133:-0.033076994 134:4.2402477e-05 135:-0.0064611142 136:4.3120894e-05 137:0.14177975 138:3.0090738e-05 139:-0.13900299 140:-5.9315509e-05 141:-0.22774556 142:2.530384e-05 143:0.14452435 144:-0.014900965 145:-3.5185723e-05 146:-3.3738452e-05 147:0.21834248 148:-3.2162319e-05 149:-3.2962755e-05 150:5.3132586e-05 151:2.458101e-05 152:-3.7211834e-05 153:-2.5163072e-05 154:0.26810792 155:-0.29719973 156:-4.7983711e-05 157:1.1638893e-05 158:-0.023874382 159:1.4371729e-05 160:-1.1085256e-05 161:-0.022842741 162:3.5652563e-05 163:-0.0033893671 164:-0.0030029113 165:-0.13029826 166:-0.022842716 167:-2.9875031e-05 168:-0.14452435 169:-0.18502261 170:3.3059954e-05 171:-4.2891792e-05 172:-0.38172522 173:-0.27290493 174:-4.7713376e-05 175:-0.025289545 176:-0.29897627 177:-3.1501062e-05 178:2.9190198e-05 179:0.046878442 180:1.5707956e-05 181:0.023442719 182:0.0028413255 183:0.017467642 184:-0.048284184 185:0.01651473 186:2.3572638e-05 187:-0.26512644 188:-3.9724986e-05 189:2.2621725e-05 190:-0.37265706 191:2.1876845e-05 192:-5.3086918e-05 193:0.27341869 194:1.5342688e-05 195:1.029841e-05 196:2.3770117e-05 197:-0.045452077 198:-6.5630535e-05 199:0.0094169918 200:-1.7173503e-05 201:-0.0043880981 202:-0.14359544 203:-1.842333e-05 204:5.3362233e-05 205:0.12703313 206:3.4084216e-05 207:-3.411969e-05 208:-2.0345053e-05 209:-0.13936377 210:-4.3446496e-05 211:3.1757707e-05 212:-0.14931953 213:-0.35819682 214:4.1726023e-05 215:0.15799227 216:-0.37088668 217:2.5911013e-05 218:0.017176582 219:-1.7619333e-05 220:1.9200223e-05 221:-3.4753546e-05 222:2.4917497e-05 223:-4.154025e-05 224:-2.9657755e-05 225:-2.3300863e-05 226:-2.8323455e-05 227:-0.2850107 228:0.36155167 229:-0.045660671 230:-0.068562485 231:0.22668576 232:2.2674014e-05 233:0.31261486 234:0.1012252 235:-4.1417454e-05 236:5.029131e-05 237:2.0860543e-05 238:-0.0014108673 239:3.2567972e-05 240:-6.3118867e-05 241:-4.5492921e-05 242:2.7906972e-05 243:4.8146492e-05 244:3.4451194e-05 245:0.38472334 246:-4.8468341e-05 247:-3.6005822e-05 248:-0.30321878 249:1.9446881e-05 250:-3.2751617e-05 251:0.088114738 252:-0.047398992 253:6.4236097e-05 254:0.0014531862 255:0.0014100373 256:0.13929074 257:0.0022012328 258:0.19798982 259:0.14012791 260:-0.32882622 261:0.21283913 262:5.0319311e-05 263:2.5934954e-05 264:1.9284251e-05 265:5.5119999e-05 266:-0.3021605 267:4.1642059e-05 268:-3.3060711e-05 269:-2.0345053e-05 270:-0.29532766 271:5.7600664e-05 272:4.439073e-05 273:0.13579151 274:-0.27287436 275:-2.06605e-05 276:-0.00063032401 277:-0.28667578 278:-2.3360155e-05 279:1.6199423e-05 280:-0.019819848 281:1.6676428e-05 282:-2.2170507e-05 283:5.3707663e-05 284:-3.560384e-05 285:-2.585006e-05 286:3.3872937e-05 287:-0.020668203 288:-0.12808429 289:3.0325711e-05 290:-4.5611243e-05 291:0.2937775 292:-0.28202614 293:2.4055855e-05 294:-0.26287517 295:-0.26893771 296:0.046878412 297:-0.044355281 298:-1.7433396e-05 299:2.0345051e-05 300:-5.697977e-05 301:1.2458747e-05 302:-4.9834998e-05 303:2.5493717e-05 304:-2.6951495e-05 305:9.1449883e-06 306:1.8985949e-05 307:3.1353833e-05 308:-5.1754487e-05 309:-0.0032552811 310:3.315838e-05 311:-2.8532419e-05 312:4.4776451e-05 313:0.060922831 314:0.044737276 315:-3.8860846e-05 316:-4.2810101e-05 317:8.8096649e-06 318:-2.5809964e-05 319:2.8772247e-05 320:-0.0087940451 321:0.32569659 322:-0.19434097 323:-0.00058348314 324:3.7724916e-05 325:-2.8840979e-05 326:-2.8852646e-05 327:-0.044355288 328:-0.097241744 329:2.5763242e-05 330:0.011527515 331:2.3630748e-05 332:0.10657602 333:-0.041079111 334:2.6428997e-05 335:-0.087894559 336:7.8545727e-06 337:1.540839e-05 338:-4.6093817e-05 339:0.27287436 340:-1.1145118e-05 341:-4.2623185e-05 342:0.30630645 343:4.6616369e-05 344:-4.5744506e-05 345:1.727987e-05 346:0.0034733105 347:0.28509623 348:0.14829196 349:-5.3044514e-05 350:0.23706287 351:-5.3772375e-05 352:-1.4868898e-05 353:5.0759892e-05 354:2.5641551e-05 355:6.7197841e-05 356:0.35742486 357:3.8514179e-05 358:0.04618853 359:0.3960312 360:-1.6032011e-05 361:1.2246393e-05 362:2.9218356e-05 363:-0.078367747 364:3.185682e-05 365:-0.013836758 366:-0.04846444 367:7.3355128e-05 368:-0.32359126 369:0.099766672 370:1.3611184e-05 371:0.061349913 372:5.6179615e-05 373:3.155943e-05 374:-0.3228834 375:2.7974447e-05 376:2.7305732e-05 377:-2.9339712e-05 378:4.9576583e-06 379:-5.0517639e-05 380:-2.4049335e-05 381:-5.0290851e-06 382:-2.6913975e-05 383:-1.4243997e-05 384:-6.4320215e-05 385:0.27471137 386:-2.8433074e-05 387:-3.5238667e-05 388:-5.5717221e-05 389:0.049686033 390:-4.1477218e-05 391:-4.0370964e-05 392:-0.0011831563 393:9.5950227e-06 394:-0.020017872 395:-3.7202808e-05 396:0.36610577 397:-4.7168065e-05 398:-3.28645e-05 399:0.18824187 400:-0.0042267437 401:4.2351083e-05 402:-0.1556403 403:-0.28503329 404:1.9963292e-05 405:-4.0049272e-05 406:0.054002296 407:-1.8085811e-05 408:-5.6985664e-05 409:2.5671974e-05 410:-6.4336702e-05 411:-0.19432019 412:6.3323467e-05 413:5.5648707e-05 414:0.0011828572 415:0.043864574 416:2.4259927e-05 417:2.5206336e-05 418:0.045731172 419:2.9657756e-05 420:-0.36610577 421:3.8062106e-05 422:4.2421536e-05 423:-2.9875031e-05 424:-2.0345053e-05 425:-4.112488e-05 426:-4.8253049e-05 427:0.044966012 428:0.063689612 429:0.02244184 430:-2.0345051e-05 431:-3.0989846e-05 432:0.29562205 433:-3.6093737e-05 434:-3.789004e-05 435:0.43378508 436:-5.7423513e-05 437:-3.4541215e-05 438:4.0049275e-05 439:-0.12726338 440:3.9724982e-05 441:3.686807e-05 442:-2.4795612e-05 443:0.086675741 444:-0.1055517 445:-3.1263455e-05 446:0.15564029 447:-0.060715072 448:2.9162964e-05 449:-0.12559834 450:-2.3084711e-05 451:3.9035334e-05 452:-4.1271072e-05 453:-3.5813151e-05 454:0.11435781 455:-2.7666336e-05 456:0.050103463 457:0.28505516 458:0.2617709 459:5.0856503e-05 460:0.022890726 461:0.36808363 462:-3.6289868e-05 463:0.14826795 464:0.2965762 465:0.13979615 466:-2.7281707e-05 467:2.386467e-05 468:0.016514618 469:-0.055965494 470:0.011372061 471:-0.015894704 472:-2.8772247e-05 473:-1.0323925e-05 474:3.31273e-05 475:0.26158231 476:0.21315546 477:-0.092509672 478:2.4917499e-05 479:-3.4829267e-05 480:0.30807588 481:3.3304721e-05 482:-2.0145199e-05 483:0.29657623 484:-0.099212334 485:1.9324894e-05 486:-0.26893759 487:0.0035328995 488:-1.2252609e-05 489:3.6677564e-05 490:0.004388222 491:-0.10637705 492:-5.4435535e-05 493:8.3249115e-06 494:0.3960312 495:-0.13112707 496:-0.29060227 497:0.18406452 498:3.9793053e-05 499:-0.035960253 500:3.6008918e-05 501:-7.4505806e-09 502:3.9334565e-05 503:1.7701876e-05 504:0.033709314 505:-2.3182534e-05 506:-0.011587877 507:-3.0090736e-05 508:-3.0219893e-05 509:-0.21283913 510:0.064941548 511:2.1142505e-05 512:-0.2778444 
0.1321429488714986 1:0.066795461 2:-0.037535664 3:0.079381011 4:-6.0396029e-05 5:0.018782513 6:-0.016703391 7:0.090737872 8:0.0096765067 9:-0.012926452 10:-0.25542161 11:-0.004564093 12:-0.0072339042 13:-0.17758858 14:-0.0034195839 15:-0.0079283044 16:-3.2483804e-05 17:3.367104e-05 18:-0.087111115 19:0.0051929066 20:0.014091878 21:0.084534742 22:2.7825838e-05 23:-5.5467775e-05 24:-2.8488565e-05 25:-0.12484691 26:0.02842948 27:-3.9949477e-06 28:-0.19263953 29:-2.9200803e-05 30:-4.9510767e-05 31:0.063322045 32:3.4765177e-05 33:-1.6233042e-05 34:1.0064864e-05 35:3.4352521e-05 36:-0.021506872 37:0.0044652936 38:0.018641133 39:-4.9463426e-05 40:-2.6154688e-05 41:-2.3944269e-05 42:-2.4482581e-05 43:0.17743707 44:-0.068956576 45:0.0056057731 46:-0.19449954 47:-3.7466976e-05 48:-0.050221492 49:0.0444135 50:-0.0074920189 51:-0.07956633 52:0.022171229 53:1.8473826e-05 54:-0.051191159 55:4.2005322e-05 56:0.035982698 57:2.7992975e-05 58:-8.4570365e-06 59:-3.1328997e-05 60:-3.2054744e-05 61:0.34099418 62:-0.072152562 63:-0.35630512 64:-0.21666358 65:-0.0047775353 66:5.4524617e-06 67:-2.7059084e-05 68:2.4843606e-05 69:1.0696689e-05 70:0.11625734 71:-4.2129253e-05 72:0.0093264952 73:-9.274002e-06 74:-0.046694208 75:0.021921437 76:0.089572251 77:-0.012465146 78:0.20875429 79:-0.017633736 80:-1.4019683e-05 81:0.014858142 82:-0.012064304 83:-0.088501491 84:-8.506101e-06 85:-0.00081859558 86:-0.123275 87:0.25798056 88:-3.6365756e-05 89:0.0056264587 90:0.11094152 91:-3.173824e-05 92:-0.076291084 93:-0.016392566 94:-0.23479164 95:2.5106423e-05 96:1.7282067e-05 97:0.00082029327 98:-0.095641166 99:-4.7432444e-05 100:-0.17051142 101:3.7926879e-05 102:-4.7281279e-05 103:0.00010216934 104:-2.4442867e-05 105:5.1075964e-05 106:0.26510951 107:0.067271575 108:-4.3837641e-05 109:0.046694208 110:0.028834224 111:-0.6417802 112:2.66119e-05 113:0.0057019885 114:2.4501343e-05 115:0.11134598 116:-0.23918273 117:0.062806919 118:0.18085378 119:0.20635208 120:0.012465213 121:0.078189239 122:0.0051920256 123:3.6227073e-05 124:-3.8513845e-05 125:0.049366992 126:0.40480617 127:-2.6288873e-05 128:0.01656192 129:-0.25531915 130:2.5494815e-05 131:4.5952635e-05 132:-0.26377884 133:-0.02076162 134:4.9932234e-05 135:-2.2024165e-05 136:3.9006198e-05 137:0.030647252 138:1.1373227e-05 139:-0.16911121 140:-2.2352659e-05 141:-0.08508987 142:5.5386954e-05 143:0.1069743 144:-0.06761165 145:-3.9541883e-05 146:-5.7544497e-05 147:0.10073763 148:3.3043787e-05 149:-3.9951243e-05 150:0.0039021943 151:-3.8054743e-05 152:-3.9169195e-06 153:1.9568583e-05 154:0.37455815 155:-0.11744612 156:-2.0562438e-05 157:4.7608784e-05 158:-0.01292647 159:4.8165766e-05 160:-0.0032568241 161:-0.023661558 162:3.8567887e-05 163:0.0096026873 164:-0.012925819 165:-0.23776792 166:-0.02366155 167:2.5846923e-05 168:-0.10697428 169:-0.095092297 170:-0.010042086 171:2.8441767e-05 172:-0.23467116 173:-0.13255362 174:-4.5853143e-05 175:0.014403002 176:-0.10058111 177:-2.5306224e-05 178:3.3355238e-05 179:0.073424719 180:-3.3840864e-05 181:6.1024231e-05 182:-0.017289598 183:0.049409281 184:-0.11865623 185:0.0425836 186:-0.009326553 187:-0.34748203 188:2.2409859e-05 189:3.4188801e-05 190:-0.37158847 191:-0.021505577 192:-2.8183187e-05 193:0.29738733 194:0.0060723084 195:-1.2146738e-05 196:4.8364476e-05 197:0.052305151 198:-0.036080863 199:3.6813542e-06 200:0.002429331 201:0.0030700748 202:-0.042289224 203:-0.0045643733 204:5.2203297e-05 205:0.21930626 206:-0.0051648254 207:-3.1016822e-05 208:2.4819172e-05 209:-0.067482077 210:-2.8157192e-05 211:0.012064213 212:-0.083103418 213:-0.42854083 214:1.4551118e-05 215:0.1458132 216:-0.18788302 217:0.032786019 218:-0.038260419 219:0.051811632 220:-3.8907729e-05 221:2.7818758e-05 222:2.321323e-05 223:-0.032786019 224:-2.9655486e-05 225:-2.5809682e-05 226:-2.071593e-05 227:-0.28695765 228:0.15823618 229:-0.067262784 230:-0.17061751 231:0.10517367 232:3.0233958e-05 233:0.30541706 234:0.11685666 235:2.1164185e-05 236:-0.051111564 237:-7.7915838e-06 238:-4.3008258e-05 239:-0.019861516 240:-2.008535e-05 241:-4.3753691e-05 242:1.940812e-05 243:3.5530116e-05 244:-3.3233682e-05 245:0.32104024 246:-4.1752588e-05 247:0.033704564 248:-0.13862258 249:-6.9654552e-06 250:2.4097433e-05 251:0.16707081 252:-0.034621559 253:4.3373973e-05 254:0.0039020432 255:-0.0030978543 256:0.067380182 257:0.0074922279 258:0.074009798 259:0.058869261 260:-0.21957976 261:0.091278166 262:-3.1042877e-05 263:-0.0057019214 264:-2.0265423e-05 265:-0.0057256948 266:-0.22411579 267:0.0060722595 268:0.00042310864 269:3.3874985e-05 270:-0.22980033 271:7.8198704e-05 272:0.022297993 273:0.080821224 274:-0.15496214 275:3.7302096e-05 276:-4.8025206e-05 277:-0.093165942 278:3.0926181e-05 279:-0.0049668625 280:2.8120556e-05 281:1.8150873e-05 282:-5.6527053e-05 283:3.9727616e-05 284:-3.3510041e-05 285:-1.5486881e-05 286:4.7444323e-06 287:-0.052978229 288:-0.042850714 289:-1.3053816e-05 290:-0.050076112 291:0.2628822 292:-0.25014409 293:-0.0036051357 294:-0.20562381 295:-0.098566584 296:0.073424712 297:-0.03644447 298:-3.5902587e-05 299:-1.5469264e-05 300:0.062876299 301:3.2121756e-05 302:-5.5566827e-05 303:6.1822167e-05 304:-3.1331016e-05 305:-5.0743811e-06 306:1.5338595e-05 307:3.7934453e-05 308:0.0036047839 309:5.0111219e-05 310:-4.5855937e-05 311:-4.2322237e-05 312:1.3748376e-05 313:0.17722993 314:0.028429484 315:1.8990117e-05 316:-0.022246443 317:-5.4067717e-05 318:-0.0051918393 319:-2.4917497e-05 320:-0.085399739 321:0.2830438 322:-0.064171068 323:-0.0057773567 324:0.0063625583 325:3.9258954e-05 326:-9.7966249e-06 327:-0.028564593 328:-0.11776022 329:2.6905373e-05 330:0.019106135 331:0.051921494 332:0.097958505 333:-0.063179165 334:4.7202328e-05 335:-0.07215254 336:-0.02746162 337:-0.026414679 338:-2.7311855e-05 339:0.15496214 340:-2.5930964e-05 341:0.036703218 342:0.16356751 343:1.5364389e-05 344:-0.0049264194 345:0.095890023 346:-0.0098846275 347:0.19520661 348:0.27313402 349:0.0019442635 350:0.022765025 351:-2.2117567e-05 352:0.029604243 353:0.0055674589 354:3.4957528e-05 355:4.9696402e-05 356:0.41275316 357:3.9359027e-05 358:0.068196781 359:0.43531927 360:-0.051755778 361:1.8450855e-05 362:2.4722065e-05 363:-0.11958029 364:-2.3738814e-06 365:3.2616292e-05 366:-0.11842377 367:0.0096762804 368:-0.26580405 369:0.081650414 370:2.6698066e-05 371:-0.10905606 372:-0.036703199 373:-0.01644586 374:-0.26453954 375:2.9861498e-05 376:0.003235349 377:-0.016788801 378:-1.6799488e-05 379:-6.4624808e-05 380:0.028049523 381:-2.0331925e-05 382:2.2675265e-05 383:-4.0354851e-05 384:-2.3658289e-05 385:0.086365573 386:3.1146878e-06 387:-3.1610623e-05 388:-0.030086327 389:0.081389949 390:3.3207103e-05 391:-0.048735939 392:-0.0018618576 393:-1.5729916e-05 394:-0.027407233 395:-2.2447088e-05 396:0.38338989 397:-0.022246411 398:-2.5326011e-05 399:-0.21867049 400:0.03352987 401:1.9920953e-05 402:-0.24345878 403:-0.16801292 404:-0.0051931259 405:2.2634244e-05 406:0.16359223 407:-5.3521489e-05 408:-2.3273449e-05 409:-2.8937966e-05 410:-7.3355128e-05 411:-0.064171039 412:5.9349575e-05 413:-0.0080273794 414:0.0018621581 415:0.11459608 416:2.5587791e-05 417:3.6051417e-05 418:0.047898378 419:0.0091119921 420:-0.38328484 421:0.09968248 422:0.004735461 423:-5.1413088e-05 424:-3.3807279e-05 425:0.0060194479 426:-3.1277363e-05 427:0.12332264 428:0.058849446 429:-4.2423919e-05 430:5.3339856e-05 431:6.1090759e-05 432:0.22696386 433:-4.5137444e-05 434:-8.7992667e-06 435:0.35225862 436:0.0049261688 437:2.6419066e-05 438:0.027461646 439:-0.047252759 440:-2.9791103e-05 441:0.0030976702 442:-3.7683487e-05 443:0.058054715 444:-0.068920575 445:2.5843779e-05 446:0.2425822 447:-0.098990902 448:-3.4607852e-05 449:-0.18497756 450:4.7031044e-05 451:3.3042412e-05 452:0.015756156 453:4.1733059e-05 454:0.17795345 455:0.059458409 456:0.03962265 457:0.16802406 458:0.29519692 459:-0.0074594012 460:0.0037068666 461:0.27793273 462:-2.1418287e-05 463:0.27619186 464:0.1109874 465:0.024418652 466:0.030410741 467:2.2081602e-05 468:0.042408668 469:-0.028079052 470:0.0079525448 471:-0.019352252 472:-3.3320059e-05 473:-2.3192415e-05 474:-3.2621643e-05 475:0.20437074 476:0.14096126 477:-0.054752778 478:4.6106001e-05 479:-4.4313994e-05 480:0.1487356 481:2.2058246e-05 482:-1.7584249e-05 483:0.12036884 484:-0.051089786 485:-0.0013978827 486:-0.098458447 487:0.006464066 488:-3.340474e-05 489:3.7720736e-05 490:0.0033460036 491:-0.03784078 492:0.016392564 493:2.1526235e-05 494:0.43531927 495:-0.13357805 496:-0.18958086 497:0.16318154 498:9.5315809e-06 499:-0.066767126 500:-0.023682112 501:3.4869659e-05 502:4.0733292e-05 503:0.023682162 504:0.07288225 505:-3.2301439e-05 506:-4.0993062e-05 507:0.0091208098 508:-3.6821315e-05 509:-0.090211108 510:0.034164131 511:4.1110678e-05 512:-0.24416317 
0.04058938833321494 1:-0.042168602 2:-0.12817489 3:0.44681686 4:-1.5364389e-05 5:1.4216538e-05 6:-0.0089912713 7:-0.48156729 8:-4.1555111e-05 9:-0.024997547 10:-0.041334011 11:-0.0061148447 12:0.033652604 13:-0.23172054 14:-0.019854482 15:-3.9265626e-05 16:0.060064428 17:-0.14509705 18:-0.032317579 19:-1.2229194e-05 20:-0.011270248 21:-0.013339376 22:-0.17802578 23:-6.4580854e-05 24:0.077731065 25:0.17091677 26:0.15331849 27:4.218323e-05 28:0.20362702 29:-0.06301517 30:9.679743e-06 31:-2.2911789e-05 32:-0.15429573 33:-0.0026820111 34:-0.08361467 35:-0.12317643 36:-0.14688362 37:-0.057093926 38:0.060882512 39:0.10402825 40:-3.7133785e-05 41:-0.0065834019 42:-0.029661978 43:0.03306035 44:-0.12739229 45:-4.6421803e-05 46:-0.09831582 47:0.018286303 48:-0.018055288 49:0.061430063 50:-0.20896205 51:-3.6695928e-05 52:-0.016701482 53:-3.6294037e-05 54:-0.17462663 55:-0.080011867 56:0.26733994 57:1.9518882e-05 58:-0.045116443 59:3.4779564e-06 60:-4.3048989e-05 61:0.0086888596 62:-5.2092644e-05 63:-0.075200379 64:-0.058167242 65:-0.13433087 66:-0.50735539 67:-4.5205412e-05 68:-0.22578242 69:-0.040183991 70:-5.8950682e-05 71:-4.7472156e-05 72:0.3519004 73:-3.728619e-05 74:-0.013698134 75:-3.7919905e-05 76:0.011833854 77:-0.012128196 78:-0.35136163 79:-0.054279152 80:6.079314e-05 81:-0.15221855 82:-5.3010961e-05 83:-0.24515833 84:-0.0011058655 85:-3.7418282e-05 86:0.0054252823 87:-9.1438515e-06 88:0.0069130897 89:-0.025194993 90:0.065416247 91:-0.037602596 92:-0.10392958 93:-0.033284958 94:-0.097536996 95:-0.057916295 96:1.2225137e-05 97:0.0024043247 98:0.15371382 99:0.060925286 100:-0.11812015 101:0.047451351 102:-0.010986409 103:-5.6376328e-05 104:0.0081499973 105:-0.014075577 106:0.1080742 107:3.5825524e-05 108:0.015151641 109:0.03167852 110:0.082131185 111:-0.062648296 112:0.0023095084 113:0.01679216 114:4.3856267e-05 115:0.065101668 116:-0.078524172 117:0.021885021 118:4.3040171e-05 119:-0.030206408 120:0.012078056 121:-0.20892693 122:0.0020994807 123:-0.061836857 124:-2.3600067e-05 125:-0.0074641532 126:0.009230203 127:6.6622553e-05 128:-0.069494806 129:-0.070109762 130:-0.078239158 131:0.27013382 132:-0.025450502 133:0.017907087 134:9.9718654e-06 135:-0.47667864 136:0.01142105 137:0.1746826 138:3.677918e-05 139:-0.027270192 140:0.007904673 141:-0.064628839 142:-0.0096672596 143:0.38663313 144:5.4785352e-05 145:-0.06036168 146:-1.6650667e-05 147:0.011830926 148:-1.9793884e-05 149:-0.019562449 150:0.024198938 151:-1.6522763e-05 152:2.9071256e-05 153:-0.0030761091 154:0.15127473 155:-0.19406502 156:0.046039324 157:0.069983289 158:1.0232714e-05 159:-3.158698e-05 160:-0.019939778 161:0.010013199 162:-0.092296213 163:-0.070256799 164:4.0171119e-05 165:0.13857839 166:-0.010032501 167:0.17445518 168:-0.18337582 169:-0.084312834 170:-0.0024049608 171:3.4613211e-05 172:-0.14391047 173:-1.7207556e-05 174:0.00058482343 175:0.038192023 176:-0.049749918 177:5.4804303e-05 178:2.0605476e-05 179:7.5367084e-06 180:0.00061529799 181:-1.1855685e-05 182:0.070265599 183:-0.00084243336 184:0.24428159 185:-0.0028752701 186:2.6654701e-05 187:0.035665855 188:0.03646709 189:-2.0694371e-05 190:0.029925402 191:-4.6863748e-05 192:-0.055913355 193:0.17419228 194:-6.8061439e-05 195:0.25960177 196:-0.035504229 197:-0.13340466 198:-4.4869728e-05 199:-0.0015227129 200:0.001537301 201:-0.017337771 202:0.011831029 203:-0.033588648 204:0.080677137 205:-0.33638194 206:-0.38479152 207:-0.27048528 208:-2.1734684e-05 209:-0.014001579 210:0.0037118108 211:0.012348558 212:-0.026125519 213:-1.6721995e-05 214:-4.749453e-05 215:0.14172067 216:-0.11811952 217:-8.8301749e-06 218:-3.8143498e-05 219:1.0981463e-05 220:-0.10473944 221:-0.046068083 222:-3.8512291e-05 223:1.4158242e-05 224:1.2481247e-05 225:0.060361665 226:0.0035469313 227:0.0090200612 228:0.11832224 229:0.017734187 230:0.036194663 231:0.12993367 232:-0.018727614 233:0.0025987101 234:0.12014695 235:3.5000226e-05 236:-2.4727409e-05 237:-0.0066483906 238:-0.046996661 239:0.10266181 240:-0.10388654 241:0.022459744 242:0.0074641639 243:2.1917516e-05 244:0.024304112 245:0.10610616 246:0.023892405 247:0.0037117626 248:-0.040060695 249:-1.0064191e-05 250:-2.5677868e-05 251:-0.13173755 252:-3.8187321e-05 253:-2.7133721e-05 254:0.019877536 255:0.046996634 256:-4.9951727e-06 257:0.054390952 258:5.4095744e-05 259:0.29513723 260:-0.25337589 261:0.016912771 262:0.0077695791 263:-0.039966896 264:0.0011020449 265:0.08357355 266:-0.085024081 267:-3.5228943e-05 268:0.0249773 269:0.022744747 270:-0.053451873 271:2.6960752e-05 272:0.30957642 273:0.16445398 274:0.059230685 275:4.0066232e-05 276:-0.25960177 277:-0.2520085 278:0.0014916268 279:-0.21268263 280:7.5120515e-06 281:-0.046327017 282:0.13962792 283:2.6645857e-05 284:0.10358839 285:1.7090037e-05 286:0.012554945 287:0.0088692633 288:-0.021592511 289:0.1020994 290:4.3939202e-05 291:0.031942196 292:-0.081763759 293:-0.0049835476 294:2.6931182e-05 295:0.027682902 296:-0.0014917582 297:-0.042291213 298:-3.3804285e-05 299:4.2602085e-05 300:-1.7486596e-05 301:-0.1540751 302:1.4950679e-05 303:-0.060276188 304:-0.049402062 305:0.047189683 306:6.4601049e-06 307:4.8616595e-05 308:0.0049836934 309:-0.10937484 310:-0.0093109701 311:-0.036848046 312:-3.410866e-05 313:0.012204366 314:0.15275168 315:5.3921187e-05 316:-0.010170004 317:-2.3596858e-05 318:1.1317054e-05 319:0.013073105 320:-0.034013201 321:0.006525937 322:-0.054344848 323:0.27032813 324:-0.077731051 325:0.15815713 326:-0.010816297 327:-0.0015206158 328:0.032483347 329:-1.3605641e-05 330:0.0073259724 331:-3.867353e-05 332:0.021542242 333:0.00147316 334:0.0082755312 335:5.0573512e-05 336:0.23089464 337:-0.19426472 338:4.2813546e-05 339:0.00058130512 340:2.4274006e-05 341:0.22655995 342:0.03246519 343:2.1791171e-05 344:0.20459135 345:0.044943716 346:-2.2035065e-05 347:-0.27221662 348:0.13391976 349:0.043160625 350:-0.033941079 351:8.096501e-06 352:0.023896417 353:0.10257513 354:-0.0069129816 355:0.016882265 356:-2.8740786e-05 357:2.9516668e-05 358:0.065593801 359:0.077157319 360:-0.0052707843 361:-0.039781719 362:0.0040287105 363:-0.074842192 364:-0.0073579419 365:0.024745159 366:0.04940208 367:2.5489764e-05 368:-0.077580594 369:0.03076921 370:-0.17559198 371:-2.430233e-05 372:-0.0068878657 373:-4.7376099e-05 374:-0.0056716162 375:0.021793388 376:0.13327934 377:-0.00972535 378:0.016331838 379:-2.9643654e-05 380:-0.050895985 381:-3.4085773e-05 382:-0.020158876 383:0.041873891 384:2.6928032e-05 385:0.24260727 386:-0.011143985 387:0.21508573 388:-3.9724986e-05 389:0.056515064 390:-0.088599108 391:-0.018055443 392:-2.9929102e-05 393:-0.088422596 394:-0.032226063 395:-1.3893281e-05 396:0.2349095 397:-0.010170105 398:-3.8015045e-05 399:0.039989166 400:-0.030531131 401:-0.14680618 402:-0.029893709 403:-0.18396018 404:2.4237563e-05 405:0.21268263 406:-0.14265493 407:-0.23034942 408:-4.2076594e-05 409:5.8507726e-06 410:0.15428899 411:-0.029453468 412:0.22578244 413:-2.9756606e-05 414:-2.1449792e-05 415:0.00074313179 416:-0.00043032554 417:-0.022102097 418:2.474678e-05 419:0.13390385 420:-0.094448954 421:-0.013708779 422:-0.24428159 423:-6.0852039e-05 424:0.053814493 425:0.038191997 426:0.057961047 427:5.6733676e-05 428:0.1060617 429:-2.1736716e-05 430:-0.047079649 431:-4.4749682e-05 432:-2.3454086e-05 433:3.5097484e-05 434:-6.3031548e-05 435:0.037768688 436:0.00053361658 437:-0.17802578 438:-3.9771272e-05 439:-0.16355021 440:-0.01956252 441:-0.12317643 442:0.012410034 443:0.017212888 444:-0.12283082 445:3.0423871e-05 446:0.025816603 447:-0.095517755 448:2.1935992e-05 449:-3.1284228e-05 450:-0.47667864 451:-2.9586321e-05 452:-3.0308176e-05 453:-3.3206376e-05 454:0.020492332 455:-0.042568922 456:0.010712747 457:0.18396018 458:0.0046374821 459:0.026017945 460:0.023827255 461:-0.068456158 462:-0.039979592 463:0.1339177 464:0.20972137 465:0.296624 466:-0.0051993714 467:4.0084571e-05 468:0.087289542 469:0.028114548 470:-3.2181935e-05 471:0.13384539 472:1.2004371e-05 473:3.2268599e-05 474:-5.5617966e-05 475:0.0052774455 476:0.22177161 477:-0.036677975 478:-2.2510903e-05 479:3.8405244e-05 480:0.041778684 481:1.8767196e-05 482:0.17542414 483:0.038696606 484:-0.17462662 485:-0.012852289 486:0.014086313 487:0.088599108 488:0.0077120252 489:4.1760236e-06 490:0.035899095 491:-0.2673445 492:0.033724245 493:-0.0068552261 494:0.023072112 495:-0.059397377 496:-0.038785029 497:0.037823688 498:7.5920066e-06 499:-0.048338499 500:-0.024829119 501:-1.7758464e-05 502:0.12100001 503:0.024997458 504:0.096509658 505:1.1359327e-05 506:-0.1433216 507:2.8179553e-05 508:-3.722516e-05 509:-4.3795862e-05 510:0.074842192 511:4.4014116e-05 512:-0.017305331 
1 1:0.037278607 2:-0.046270754 3:0.28723043 4:-4.791627e-05 5:-2.0145389e-05 6:4.0129937e-05 7:-0.11952842 8:0.032870524 9:0.024314132 10:-0.17087081 11:-0.0050889184 12:-6.5011125e-05 13:-0.32901925 14:-0.046253491 15:1.264802e-05 16:-3.4588364e-05 17:2.4618075e-05 18:-0.015629347 19:0.075188711 20:0.021446861 21:0.12905407 22:2.2692961e-05 23:-5.219621e-05 24:-3.8709783e-05 25:-0.10449816 26:0.017330835 27:5.3910964e-05 28:-0.14091629 29:-2.6094678e-05 30:-3.8636146e-05 31:6.9407561e-06 32:3.3250501e-05 33:1.7486345e-05 34:1.6317843e-05 35:6.709242e-05 36:8.8096667e-06 37:0.012557195 38:0.048509851 39:-4.9187747e-05 40:3.9924409e-05 41:-1.8852406e-05 42:-9.7505763e-06 43:0.38362411 44:-0.22821279 45:-2.3664588e-05 46:-0.34696394 47:-3.4430672e-05 48:-1.9512598e-05 49:0.074800365 50:-1.8604458e-05 51:-0.088674687 52:-3.6856247e-05 53:-5.438731e-06 54:-0.17060082 55:0.0071116788 56:0.011867476 57:1.4920636e-05 58:0.02485352 59:1.3080404e-05 60:-4.126173e-05 61:0.27213809 62:-0.10774642 63:-0.23662011 64:-0.14007472 65:-0.041195948 66:-1.7720198e-06 67:1.0509759e-05 68:-4.0134972e-05 69:-6.8575896e-06 70:0.11046293 71:2.3495228e-05 72:3.2567976e-05 73:-2.7356784e-05 74:-0.058222361 75:0.072173759 76:0.17765597 77:-3.9490453e-05 78:0.14473036 79:2.4084813e-05 80:-2.7232149e-05 81:-3.4084424e-05 82:-0.027240811 83:-0.37944004 84:4.3055705e-05 85:-3.116066e-05 86:-0.13797076 87:0.14406484 88:-5.0308896e-05 89:0.035810582 90:0.23906332 91:-6.1505794e-05 92:0.059135094 93:3.77916e-05 94:-0.44712433 95:-2.5291212e-05 96:-2.5926585e-05 97:4.3728094e-05 98:-0.033158869 99:-5.6992245e-05 100:-0.35407877 101:-2.3460258e-05 102:-7.4347387e-05 103:7.8467048e-05 104:1.3010046e-05 105:-2.5672894e-05 106:0.15626332 107:0.17431472 108:-6.2438601e-05 109:0.058222342 110:0.065751247 111:-0.43387261 112:-2.5362608e-05 113:2.9056077e-05 114:2.0180973e-05 115:0.23906332 116:-0.040024329 117:-0.13075994 118:-0.039620336 119:0.079894722 120:-0.0089695882 121:0.11558533 122:-3.3026925e-05 123:2.2441038e-05 124:2.8405748e-05 125:0.033087313 126:0.30085427 127:-6.452151e-06 128:0.023707962 129:-0.17024769 130:3.6858961e-05 131:5.3767839e-05 132:-0.32511503 133:-0.016599724 134:3.5146779e-05 135:9.6839685e-06 136:-3.4496716e-05 137:0.057992164 138:3.0955736e-05 139:-0.13212036 140:-4.9834998e-05 141:-0.046765264 142:5.1661002e-05 143:0.19963369 144:-0.12272316 145:1.9499023e-05 146:-1.7398253e-05 147:0.032789309 148:-2.8239932e-05 149:3.9917981e-05 150:7.4768752e-05 151:4.669515e-05 152:-2.2790753e-05 153:-2.0295643e-05 154:0.24177334 155:-0.51532215 156:-1.3140287e-05 157:2.3808043e-05 158:-2.9569574e-05 159:2.644835e-05 160:-0.071133152 161:-0.0097499853 162:3.6060319e-05 163:0.033087257 164:2.8772251e-05 165:-0.10304693 166:-0.0097500356 167:-2.5814341e-05 168:-0.19963367 169:-0.051531613 170:-3.3917415e-05 171:-5.9293354e-05 172:-0.44712433 173:-0.22903402 174:-3.6325848e-05 175:-3.1426342e-05 176:-0.25175405 177:-2.9757502e-05 178:-1.5241416e-05 179:0.15429164 180:-5.7486501e-05 181:-5.8997164e-05 182:-0.14485437 183:-0.035377327 184:-0.12481782 185:0.09394788 186:-3.2442062e-05 187:0.12889969 188:-6.6326109e-05 189:2.5912936e-05 190:-0.31959808 191:3.0126028e-05 192:-0.050894942 193:0.36407229 194:0.059753425 195:3.4452478e-05 196:0.013664389 197:0.063975275 198:-0.020555845 199:-4.4045875e-05 200:0.024329567 201:-2.0345053e-05 202:-0.15754545 203:-0.0050891214 204:6.4249551e-05 205:-0.25083524 206:-0.056131914 207:-3.7899346e-05 208:3.6144691e-05 209:-0.027481446 210:-4.4191787e-05 211:0.027240818 212:-0.042455483 213:-0.20374624 214:3.0807088e-05 215:0.26176175 216:-0.3724671 217:0.097277902 218:0.018116329 219:0.033189088 220:-5.5475291e-05 221:2.8126282e-05 222:-3.2611286e-05 223:-0.097277902 224:1.1210415e-05 225:2.9844776e-05 226:2.9127257e-05 227:-0.16365218 228:-0.065490395 229:-0.049981456 230:-0.27225497 231:0.17977613 232:-4.2553878e-05 233:0.22945379 234:0.18720765 235:-3.4474895e-05 236:-5.6057008e-05 237:2.1569085e-05 238:3.7376249e-05 239:3.0726962e-05 240:-5.408475e-05 241:1.7706001e-05 242:-1.9306328e-05 243:2.2930102e-05 244:-3.7815702e-05 245:0.08403638 246:-4.6475274e-05 247:0.018056821 248:-0.25823361 249:2.2100639e-05 250:-9.6903314e-06 251:0.22883372 252:0.126966 253:4.3472213e-05 254:-2.8098853e-05 255:-3.2737746e-05 256:0.027481431 257:2.316903e-05 258:0.03156485 259:0.10087507 260:-0.12696686 261:0.048516426 262:-3.7634909e-05 263:2.9493747e-05 264:0.0089694057 265:7.8107012e-05 266:-0.15375265 267:0.059753429 268:0.040017966 269:-5.5250959e-05 270:-0.26621434 271:3.7411792e-05 272:0.04119597 273:0.049630277 274:-0.195106 275:4.4048327e-05 276:2.3913155e-05 277:-0.37944004 278:7.0220522e-06 279:-1.5298227e-05 280:-1.4315853e-05 281:2.2919683e-05 282:7.526397e-06 283:-0.018116204 284:-3.1738437e-05 285:2.4556328e-05 286:-2.7249216e-05 287:-0.042411167 288:0.12157343 289:-0.038818229 290:-1.7885612e-05 291:0.32486504 292:-0.12960362 293:-0.049929455 294:-0.20305431 295:-0.19326103 296:0.15873885 297:-0.045769196 298:-3.6904181e-05 299:-1.4386127e-05 300:-2.2543576e-05 301:-3.5874542e-05 302:-5.0733404e-05 303:-0.0075158877 304:-2.5063746e-05 305:1.810924e-05 306:-3.1534662e-05 307:2.9349245e-05 308:0.049929447 309:2.9099294e-05 310:-4.0049275e-05 311:-0.01457935 312:2.3722398e-05 313:0.13871945 314:0.017330823 315:-6.2383556e-06 316:-4.9582901e-05 317:-4.7713376e-05 318:4.4604469e-05 319:-0.0054483977 320:-0.10766787 321:0.11918118 322:-0.061082523 323:-0.0026473806 324:-3.3828197e-05 325:-2.0929341e-05 326:4.0426461e-05 327:-0.045769196 328:0.10276944 329:-3.3380409e-05 330:0.023707973 331:-1.3176771e-05 332:0.17371953 333:-0.13643852 334:2.9240908e-05 335:-0.10774641 336:-2.8922039e-05 337:-0.092759728 338:-3.4547422e-06 339:0.19281548 340:-4.3250329e-05 341:-3.8314083e-05 342:0.38254112 343:-2.1069784e-05 344:-0.0081646899 345:0.1325397 346:3.8561015e-05 347:0.086250871 348:0.21695144 349:3.4415414e-05 350:0.038984586 351:-4.7494439e-05 352:-0.072173752 353:3.3008506e-05 354:-2.8208457e-05 355:0.0079916436 356:0.16872422 357:1.7901746e-05 358:0.050037064 359:0.35669225 360:-0.091003872 361:2.6887943e-05 362:8.7789331e-06 363:-0.059523135 364:-1.4697315e-05 365:-1.3517722e-05 366:-0.12481782 367:0.032870561 368:-0.24282587 369:0.12267549 370:1.0814901e-05 371:0.078840159 372:-2.7153214e-05 373:-4.5255529e-05 374:-0.26208889 375:-1.7284159e-05 376:4.4923989e-05 377:2.3773009e-05 378:-7.8296507e-06 379:2.8238934e-05 380:1.3756294e-05 381:2.3525341e-05 382:-5.1008949e-05 383:-0.046414722 384:-2.2820866e-05 385:0.2979953 386:-3.0510955e-05 387:-3.3642467e-05 388:-0.092919618 389:0.061829615 390:-4.3827535e-05 391:-3.067611e-05 392:-5.5948894e-05 393:1.0704194e-05 394:-0.01426732 395:-4.0070983e-05 396:0.38528219 397:-5.7768841e-05 398:3.3289216e-05 399:-0.085253656 400:-0.042758401 401:-0.012746322 402:-0.20217416 403:-0.42757037 404:-0.075188734 405:2.3669354e-05 406:0.17781503 407:1.8931014e-05 408:-5.5269204e-05 409:-3.7094575e-05 410:-4.1213883e-05 411:-0.051557399 412:4.5848385e-05 413:-0.035810541 414:6.1077924e-05 415:0.054713327 416:3.3503195e-05 417:-0.032755405 418:0.11977904 419:3.0886225e-05 420:-0.38528219 421:0.021996057 422:0.058435455 423:-6.043804e-05 424:-1.8601402e-05 425:0.03813123 426:-3.3334818e-05 427:0.13797078 428:0.066771284 429:-3.1197585e-05 430:2.8768884e-05 431:-1.5407235e-05 432:0.13489468 433:-1.8160961e-05 434:3.7386879e-05 435:0.34238482 436:0.0081645185 437:-5.1972088e-06 438:-3.5421723e-05 439:0.043128483 440:-2.45925e-05 441:0.024314124 442:4.3925784e-06 443:0.20677371 444:-0.2312427 445:-0.029027564 446:0.071861841 447:-0.13924074 448:-1.5868025e-05 449:-0.12504853 450:0.098621383 451:5.4334505e-05 452:-4.7447906e-05 453:2.2390013e-05 454:0.2519491 455:3.3252505e-05 456:0.0084117893 457:0.42757037 458:0.10835043 459:0.033463079 460:0.029808234 461:0.10320022 462:-2.1128877e-05 463:0.21615639 464:0.30019814 465:0.053978492 466:-0.026617825 467:3.8417369e-05 468:0.093947887 469:-0.029339714 470:0.052252002 471:-0.024504771 472:-4.8785718e-05 473:3.3761065e-05 474:1.1315065e-05 475:0.20227405 476:0.13234253 477:-0.028841656 478:-5.5459132e-05 479:-1.8471263e-05 480:0.30617404 481:2.2483193e-05 482:3.0111432e-05 483:0.29632035 484:-0.17060082 485:-0.0026473822 486:-0.19285263 487:2.1826063e-05 488:-1.7308843e-05 489:4.1997868e-05 490:-6.1783971e-06 491:-0.011867447 492:-4.3003336e-05 493:-0.014338148 494:0.35661307 495:-0.20709486 496:-0.23011626 497:0.17218703 498:-1.5333542e-05 499:-0.037278622 500:-4.3966829e-05 501:2.9218356e-05 502:1.5670541e-05 503:2.5466217e-05 504:0.11999334 505:1.5847134e-05 506:-4.4051398e-05 507:3.827599e-05 508:1.5222996e-06 509:-0.048516434 510:0.023440475 511:5.0705887e-05 512:-0.21475177 
0.4976226975614605 1:0.02858009 2:-0.12049699 3:0.19771789 4:-4.2143864e-05 5:-3.5787856e-05 6:-0.1058783 7:-0.57566416 8:-3.1406449e-05 9:5.3318461e-05 10:-0.10719953 11:2.2521912e-05 12:-3.0735016e-05 13:-0.25400922 14:-2.4223296e-05 15:-0.017164938 16:0.0034503373 17:-1.6628519e-05 18:-0.19511047 19:-2.7219236e-05 20:0.018155556 21:0.035247277 22:-0.013378487 23:-7.5617601e-05 24:-0.034258917 25:0.20513436 26:0.22626762 27:0.031378165 28:0.1020801 29:-0.1517719 30:-3.6514186e-05 31:-5.6315133e-05 32:-0.087107234 33:-2.6341988e-06 34:1.5473137e-05 35:2.3985256e-05 36:-0.011159223 37:-3.4228749e-05 38:0.033585902 39:-3.5009023e-05 40:8.9658724e-06 41:5.2469186e-05 42:3.1817654e-05 43:0.22722958 44:-0.15619549 45:-5.0944658e-05 46:-0.24667524 47:-0.011729469 48:3.1406955e-05 49:0.04351607 50:3.9949424e-05 51:-0.05053794 52:1.9966616e-05 53:3.9818937e-05 54:-0.15725148 55:-0.076990612 56:0.11163188 57:-3.0861058e-05 58:6.0305447e-05 59:-2.0165993e-05 60:2.2420245e-05 61:0.23356022 62:-0.04522064 63:-0.1540556 64:-0.10493221 65:-2.5701478e-05 66:-0.40029916 67:3.5801629e-06 68:-2.3344563e-05 69:-1.1259331e-05 70:0.014926037 71:0.00079357385 72:0.0091591254 73:1.9578805e-05 74:-0.14474812 75:0.0014937379 76:-0.038867492 77:-0.026511554 78:0.12611048 79:1.2217743e-05 80:-8.5283828e-06 81:-0.0085500702 82:-4.299088e-05 83:-0.26927397 84:1.6323072e-05 85:-4.6835619e-05 86:-0.026083013 87:0.10982347 88:3.1682859e-05 89:5.1825697e-05 90:0.19326073 91:-2.6492115e-05 92:-0.094053909 93:3.0545372e-05 94:-0.25136909 95:4.3763121e-05 96:-1.6015285e-05 97:0.097776107 98:-0.21197791 99:0.00079445168 100:-0.22683391 101:-0.12312046 102:-1.8086199e-05 103:-3.4151271e-06 104:-0.097994089 105:3.0188372e-05 106:0.13854903 107:0.065614045 108:-3.7399084e-05 109:0.14474812 110:0.03788073 111:-0.23889303 112:-3.0887746e-05 113:0.0029007201 114:3.7061327e-05 115:0.19210415 116:-0.16850199 117:0.097760513 118:-0.034175392 119:0.1414239 120:0.026511468 121:0.014918266 122:1.0793368e-05 123:-3.0161682e-05 124:-2.0179174e-05 125:-2.7373097e-05 126:0.24674539 127:5.2100077e-05 128:0.0079654809 129:-0.17093882 130:4.9069713e-05 131:0.11768943 132:-0.18159252 133:-0.015922302 134:-0.089378141 135:-0.45176205 136:2.4414938e-05 137:0.26119503 138:2.4910962e-05 139:-0.1341325 140:-4.046442e-05 141:-0.11878436 142:2.4526087e-05 143:0.17064273 144:-0.0077826423 145:3.8527207e-05 146:1.4584094e-05 147:0.13131259 148:-2.5732568e-05 149:-1.2588316e-05 150:0.0065437085 151:2.0400263e-05 152:-3.024634e-05 153:-0.025399888 154:0.22926176 155:-0.3213312 156:0.012403484 157:4.2493182e-05 158:-0.0096023735 159:-3.7836846e-05 160:-4.0516832e-05 161:-0.015028802 162:-3.2953707e-05 163:-4.2446231e-05 164:2.5898084e-05 165:-0.078637339 166:-0.015028879 167:2.4313384e-05 168:-0.17252186 169:-0.13948016 170:-0.017191859 171:-2.7868355e-05 172:-0.25136909 173:-0.14390376 174:-8.9794585e-06 175:2.2096712e-05 176:-0.20651998 177:-2.2164848e-05 178:2.0122854e-05 179:0.030343529 180:-2.0128449e-05 181:-3.1904478e-05 182:-0.043041509 183:-0.0087119471 184:0.029516689 185:0.011643579 186:2.1158876e-05 187:-0.037132803 188:-4.0745763e-05 189:2.5643732e-05 190:-0.16117261 191:-0.0096505303 192:-1.7427423e-05 193:0.20696314 194:0.018159227 195:0.048880763 196:-1.3972252e-05 197:-0.15696609 198:-0.16495861 199:-6.5221167e-05 200:3.3585824e-05 201:1.3362981e-05 202:0.064312354 203:1.5350694e-05 204:0.076990612 205:-0.20672537 206:-0.0099202394 207:-0.05864808 208:8.8887091e-06 209:-0.056540094 210:9.4337947e-06 211:-3.0290295e-05 212:-0.11400992 213:-0.12646888 214:6.5048594e-06 215:0.20143202 216:-0.2259915 217:0.034059379 218:-0.013288385 219:0.0073589445 220:-0.0045753014 221:-2.8394985e-05 222:-1.8069999e-05 223:-0.034059312 224:-4.9403767e-05 225:1.8041805e-05 226:1.4360621e-05 227:-0.10260481 228:0.25037366 229:-0.02751396 230:0.15620777 231:0.15648492 232:-1.3215487e-05 233:0.14209357 234:0.13124582 235:2.7796257e-05 236:-9.4666657e-06 237:-4.4082662e-05 238:2.7346134e-05 239:3.3785331e-05 240:-0.0045752237 241:1.807767e-05 242:4.4179233e-05 243:2.8593066e-05 244:3.1409611e-05 245:0.22745708 246:-3.0843319e-05 247:0.0080667082 248:-0.25431117 249:-8.8709612e-06 250:-0.018159181 251:0.080773763 252:-0.029428091 253:3.6340483e-05 254:0.0065436903 255:6.099338e-06 256:0.056540113 257:1.2129962e-05 258:0.070194863 259:0.22752382 260:-0.1881195 261:0.11430388 262:-3.1250525e-05 263:4.757764e-05 264:-1.811688e-05 265:0.11679638 266:-0.1461767 267:-3.2855824e-05 268:-3.0330355e-05 269:0.012815284 270:-0.19022168 271:-1.8026569e-05 272:0.11776355 273:0.17578007 274:-0.12306795 275:-0.0034107098 276:-0.048880752 277:-0.26927397 278:7.1874988e-06 279:-0.030020921 280:-0.01897791 281:-0.031399455 282:0.12567481 283:-2.9999561e-05 284:2.4403591e-05 285:5.0362109e-05 286:0.026365045 287:-0.015928898 288:-0.11398894 289:-0.0025183435 290:2.0807442e-05 291:0.18133591 292:-0.13555709 293:-3.1081821e-05 294:-0.12824725 295:-0.12084044 296:0.030343501 297:-0.036912285 298:-6.0284481e-05 299:-3.7869489e-05 300:-0.02003324 301:-2.8191726e-05 302:-5.4737167e-05 303:-0.024812259 304:-2.7983211e-05 305:-1.5040389e-05 306:-3.269943e-05 307:1.7682238e-05 308:2.5076395e-05 309:-0.02707847 310:-0.0086410241 311:-3.0037927e-05 312:1.3095105e-05 313:0.028673911 314:0.22626762 315:-2.7832806e-05 316:-3.1271953e-05 317:-4.4184268e-05 318:2.5324365e-05 319:3.4892331e-05 320:-0.0070523955 321:0.24833852 322:-0.11819846 323:0.054716468 324:0.0082940934 325:-0.054052152 326:-3.3302254e-05 327:-0.024567526 328:-0.035434809 329:2.317695e-05 330:0.0079657305 331:-3.4573419e-05 332:0.097809374 333:-0.19392204 334:-1.4873867e-05 335:-0.045220625 336:-2.5166833e-05 337:-0.14538245 338:-2.7456297e-05 339:0.12306795 340:0.035579186 341:0.17114314 342:0.21359371 343:-1.9870653e-05 344:-3.5647907e-05 345:0.014798544 346:-4.3785174e-05 347:0.092783056 348:0.15262866 349:-3.1426247e-05 350:0.13985679 351:-3.6268844e-05 352:0.022894939 353:0.010793062 354:-1.9572157e-05 355:0.0038419601 356:0.125585 357:1.516855e-05 358:0.15473875 359:0.20536934 360:-0.017607564 361:-1.8915969e-05 362:-3.7565831e-05 363:-0.091060355 364:-2.8380915e-05 365:1.1372912e-05 366:-0.021914532 367:5.6391909e-05 368:-0.17326435 369:0.089032263 370:2.5862519e-05 371:0.073110417 372:4.5008514e-05 373:0.0082939938 374:-0.18478787 375:-2.8704868e-05 376:0.068597861 377:-1.880791e-05 378:3.7178484e-05 379:-8.013777e-06 380:-1.4412001e-05 381:2.9248482e-05 382:-3.3924491e-05 383:-2.7976575e-05 384:-2.6112939e-05 385:0.21703224 386:0.0074572712 387:0.12014282 388:-0.025149425 389:0.035267372 390:-3.4869659e-05 391:-5.7319274e-05 392:-4.3933374e-05 393:-0.0024631282 394:-0.0072663459 395:-3.29959e-05 396:0.24714291 397:-3.5508125e-05 398:1.6257722e-05 399:0.09648487 400:0.0080667492 401:2.4706535e-05 402:-0.13065542 403:-0.25119838 404:9.9866447e-06 405:1.2901606e-05 406:0.067815319 407:0.025209375 408:-2.0823883e-05 409:3.1673542e-05 410:0.087107226 411:-0.11819848 412:4.7775629e-05 413:6.4261658e-06 414:2.9792935e-05 415:0.0043115281 416:-5.3014392e-06 417:3.3333865e-05 418:0.022266563 419:-3.1896099e-05 420:-0.21597528 421:0.047623653 422:-0.036762469 423:-4.5845365e-05 424:-2.2427492e-05 425:2.6127691e-05 426:-4.7487283e-05 427:0.026481023 428:0.22608189 429:-3.2843065e-05 430:-3.8988146e-05 431:-4.9527123e-05 432:0.10321769 433:3.5941855e-05 434:-3.3005119e-05 435:0.26329181 436:2.824331e-05 437:-0.013378461 438:-1.0696695e-06 439:-0.17164989 440:2.7593956e-05 441:2.5813937e-05 442:5.674674e-05 443:0.093513578 444:-0.20445184 445:1.4916919e-05 446:0.11749697 447:-0.14283662 448:3.6580113e-05 449:-0.084088713 450:-0.44704348 451:4.6337871e-05 452:0.0044115176 453:1.8833658e-05 454:0.087215453 455:1.8377112e-05 456:0.027670113 457:0.25119838 458:0.077247113 459:-1.4467797e-05 460:0.0041774679 461:0.1106961 462:-1.8031647e-05 463:0.15286605 464:0.19040653 465:0.22696315 466:0.010727198 467:2.9066327e-05 468:0.11713816 469:-0.032870218 470:-2.3249306e-05 471:0.087202318 472:-3.9219198e-05 473:0.018022757 474:-4.3789238e-05 475:0.1275398 476:0.15401398 477:-0.082050279 478:4.6279674e-05 479:6.4546784e-06 480:0.22023587 481:2.6826692e-05 482:-2.3190803e-05 483:0.18921903 484:-0.15725146 485:-2.0026882e-05 486:-0.12014582 487:2.2333994e-05 488:-3.2757504e-05 489:3.2414595e-05 490:-2.4588051e-05 491:-0.11645947 492:-3.7796104e-05 493:-0.0013004985 494:0.19812857 495:-0.11130312 496:-0.21125534 497:0.14540274 498:2.778514e-05 499:-0.011032024 500:-0.012881125 501:1.695522e-05 502:0.018526463 503:-6.3549196e-05 504:0.14059103 505:-0.0042411406 506:-0.019978372 507:-1.494797e-05 508:-3.4294317e-05 509:-0.10690422 510:0.090958208 511:6.470448e-05 512:-0.16322091 
0.08781411381815254 1:0.12728031 2:0.044153202 3:0.14373094 4:-0.033912908 5:0.12374257 6:-0.014508718 7:-0.14643367 8:-0.0060447538 9:-0.059384998 10:-0.12823169 11:0.066789068 12:0.1329629 13:0.10274889 14:0.019642709 15:-0.06269592 16:-0.017980056 17:-0.16446009 18:0.10217327 19:0.032908425 20:0.1444677 21:-0.12979177 22:0.016833385 23:-0.1598957 24:-0.040782545 25:-0.079055391 26:0.14905837 27:0.016543388 28:-0.036355443 29:-0.1170491 30:-0.04316758 31:-0.018822595 32:0.16194327 33:0.022797249 34:0.11853243 35:0.046372857 36:-0.086851589 37:0.18608338 38:0.00059374038 39:0.14845204 40:-0.22458421 41:-0.14910036 42:0.0037142183 43:-0.14297919 44:-0.097239919 45:0.025603982 46:-0.16129059 47:0.15035984 48:-0.1947542 49:0.24368048 50:0.099515639 51:-0.15002197 52:-0.033657622 53:0.010015919 54:-0.062603593 55:-0.2044802 56:-0.12284641 57:0.008130813 58:0.009257921 59:-0.0043997783 60:0.023400862 61:-0.13157864 62:-0.063070431 63:-0.14294039 64:0.16366091 65:-0.061546586 66:0.042075045 67:0.14489317 68:-0.10408954 69:-0.019869793 70:0.19349892 71:0.032990113 72:0.032990947 73:0.038039904 74:0.12378988 75:-1.8835355e-05 76:0.1660599 77:-0.16885012 78:-0.14343806 79:-0.15109125 80:0.14257251 81:0.094940417 82:0.034590665 83:-0.096989647 84:0.045312937 85:-0.050010607 86:0.1055932 87:0.22022326 88:-0.021989012 89:-0.091633603 90:-0.17979038 91:-0.12414981 92:0.17900403 93:-0.014700737 94:-0.075805441 95:-0.11614776 96:-0.16981839 97:0.15430923 98:-0.10704878 99:0.11010946 100:-0.069892809 101:0.10980547 102:-0.0068880343 103:-0.053409509 104:-0.14610387 105:-0.06777928 106:0.23290671 107:0.22325312 108:0.18157507 109:0.13564533 110:-0.045478228 111:-0.16297577 112:-0.030763509 113:0.13590418 114:-0.023556121 115:0.039500721 116:-0.165452 117:-0.17399134 118:0.1001492 119:-0.075342372 120:0.15645087 121:0.03289837 122:0.052846774 123:-0.04517052 124:0.061286334 125:-0.08247602 126:0.060636956 127:1.0511612e-05 128:-0.17738608 129:-0.12340844 130:-0.18181868 131:0.066681266 132:0.11443286 133:0.015584743 134:-0.066372208 135:-0.045417272 136:0.046319574 137:-0.045509193 138:0.073347457 139:-0.062456742 140:-0.089420877 141:-0.015084092 142:-0.14240608 143:0.16525824 144:-0.022398125 145:-0.020796828 146:-3.4284785e-05 147:0.053263344 148:0.016080448 149:-0.050455064 150:-0.0043693273 151:-0.010994003 152:0.036408816 153:-0.021865239 154:0.17249173 155:-0.059227791 156:0.021420352 157:0.11044411 158:-0.036195427 159:-0.017805891 160:0.0058924803 161:0.054831803 162:-0.027799768 163:-0.044905551 164:-0.042451732 165:-0.14509881 166:-0.045171317 167:0.15808091 168:-0.11148252 169:-0.075794511 170:-0.10096144 171:0.017809065 172:-0.06563551 173:-0.063318767 174:0.038161691 175:0.031253882 176:-0.13034858 177:-2.4827288e-05 178:0.17946503 179:0.011019162 180:0.29435855 181:0.089771554 182:0.077655107 183:-0.071684703 184:-0.10837924 185:0.066338383 186:-0.021694161 187:-0.22956342 188:0.053103112 189:-0.21522254 190:-0.30040994 191:-0.011975502 192:-0.11373562 193:0.060851451 194:0.088216081 195:0.1329062 196:0.10219807 197:-0.14869307 198:-0.068035133 199:0.21107145 200:0.073447064 201:0.047101166 202:-0.19102445 203:-0.042880062 204:0.0013070547 205:-0.056487113 206:-0.018993035 207:0.25076517 208:-0.027038598 209:-0.095260791 210:-0.13876696 211:-0.06130565 212:-0.058381096 213:-0.1686334 214:-0.020732822 215:0.15729377 216:-0.14474852 217:-0.19053742 218:-0.081751645 219:-0.04192907 220:0.052865662 221:-0.12582593 222:-0.11176846 223:-0.04375824 224:0.0016350604 225:-0.071824655 226:0.035437495 227:-0.098632753 228:0.16399103 229:-0.057509586 230:0.088739246 231:-0.098256245 232:-0.10907483 233:0.084876813 234:0.13541156 235:0.0014342529 236:-0.18979084 237:-0.11584663 238:-0.15247904 239:-0.023002509 240:0.13629645 241:0.032132331 242:0.05738923 243:0.10821474 244:-0.044628836 245:0.22505125 246:0.016270258 247:0.040016543 248:0.27309194 249:0.0010245526 250:-0.091671824 251:0.10610852 252:0.13410775 253:0.069699012 254:-0.20175745 255:0.035057534 256:0.10646521 257:0.051977094 258:0.087162875 259:0.077329762 260:-0.11665754 261:-0.055905577 262:-0.070190541 263:0.083023369 264:0.010657479 265:-0.11288253 266:0.10538414 267:-0.012403766 268:0.14042741 269:0.025614813 270:-0.17634943 271:-0.0033488281 272:0.20704786 273:0.0067959614 274:-0.24063182 275:-0.065601289 276:-0.05412003 277:-0.22880122 278:0.026394598 279:-0.09042991 280:0.14374778 281:-0.040407754 282:-0.13304026 283:-0.055043902 284:0.02675545 285:-4.7907342e-05 286:-0.15338132 287:-0.058615219 288:0.15424478 289:0.14807172 290:-0.071492679 291:0.038382653 292:0.18530777 293:-0.052188791 294:0.18776435 295:0.014515816 296:-0.063086674 297:-0.052800704 298:0.0045891004 299:0.032142807 300:-0.018069899 301:0.12523974 302:0.042191498 303:0.045670778 304:-0.081515528 305:0.015420131 306:0.046741471 307:-0.036894895 308:0.048500791 309:-0.25523239 310:-0.22019897 311:-0.011811687 312:0.014409136 313:0.15271629 314:0.10421848 315:0.035275403 316:-0.036793146 317:3.4805322e-05 318:-0.079397514 319:0.20233658 320:-0.18780454 321:-0.20091128 322:-0.18593967 323:0.055838149 324:0.042242289 325:0.048962481 326:-0.071159147 327:0.064351924 328:0.047206882 329:-0.0083514964 330:0.14230475 331:0.10762284 332:0.059893142 333:0.067588374 334:-0.089929551 335:-0.12272859 336:0.022172743 337:-0.18242255 338:-0.030619727 339:0.14146765 340:0.085271515 341:0.084633596 342:0.04832495 343:-0.075742371 344:-0.018492298 345:0.10006879 346:0.078120247 347:-0.21615437 348:-0.12174243 349:-0.039309304 350:0.12934487 351:-0.053271666 352:-0.046211142 353:0.10815579 354:0.003734661 355:0.087056465 356:0.17056783 357:-0.0064837299 358:0.12438435 359:0.084243178 360:-0.027795913 361:-0.13893466 362:0.085429259 363:-0.070553496 364:0.032075953 365:-0.01451988 366:0.024208508 367:0.05088922 368:-0.026951851 369:0.057607796 370:-0.1720704 371:-0.17034659 372:-0.043659352 373:-0.10124606 374:-0.11056814 375:0.04156163 376:0.17894998 377:-0.10765775 378:0.018142458 379:-0.010015667 380:0.19850926 381:-0.0081302673 382:-0.040841278 383:0.10561085 384:0.057005566 385:-0.18356889 386:0.14295222 387:0.0044025998 388:0.10453358 389:0.22798839 390:0.017231885 391:-0.19251429 392:-0.0084809605 393:-0.12390757 394:-0.045149412 395:0.025860952 396:0.14875393 397:0.10803654 398:-0.0022511273 399:0.21642877 400:-0.15778652 401:-0.10133765 402:-0.23730907 403:-0.11207492 404:-0.0097046997 405:0.055069469 406:0.053747512 407:-0.026165962 408:0.0021733376 409:-0.23424137 410:0.056972615 411:0.12325402 412:0.24600862 413:0.065407425 414:0.0094904359 415:-0.032266971 416:-0.054578178 417:-0.21999982 418:-0.0044837552 419:-0.27927253 420:-0.10000546 421:-0.079415247 422:0.039819118 423:-0.16239303 424:0.084864512 425:0.051964931 426:0.13733949 427:0.031842977 428:0.061187059 429:0.3696475 430:0.0066794618 431:0.01092098 432:0.09575735 433:0.00082730863 434:0.024986681 435:0.029464412 436:-0.021090383 437:-0.040182598 438:-0.038815424 439:-0.1318111 440:0.040572338 441:0.040508822 442:0.087281168 443:0.14958215 444:-0.09147577 445:-0.089185677 446:-0.059636615 447:-0.2084993 448:0.048772644 449:-0.076800525 450:0.12545261 451:-2.4015733e-05 452:0.068291701 453:-0.078071997 454:0.083102271 455:-0.091320105 456:0.042324014 457:0.1285557 458:0.32138363 459:0.13980456 460:0.18534289 461:0.054131996 462:-0.14977393 463:0.23705049 464:0.23788291 465:0.11551402 466:-0.018077824 467:-0.096583925 468:0.017635064 469:-0.13196141 470:-0.22421519 471:0.064638488 472:-0.067740262 473:0.057873849 474:0.085441798 475:0.076990977 476:0.11146848 477:-0.083688386 478:0.027595373 479:-0.032536007 480:0.073379286 481:0.065196343 482:0.22607756 483:-0.11962263 484:-0.2059612 485:0.086979076 486:0.21553542 487:0.11176565 488:0.050675992 489:0.010249356 490:0.03637138 491:0.035647243 492:0.061083425 493:-0.045439791 494:0.067111783 495:-0.12925714 496:-0.24291949 497:-0.02908005 498:-0.01519842 499:-0.080308802 500:-0.13682061 501:0.025374066 502:0.062651478 503:0.0784868 504:0.23410892 505:0.024016052 506:-0.063529022 507:-0.11913592 508:4.2733427e-05 509:-0.065557465 510:0.078737184 511:-0.065177076 512:-0.060101572 
0.3137012549171743 1:0.027383486 2:-0.28615007 3:0.13877887 4:-7.1541821e-05 5:0.026360432 6:-0.018684123 7:-0.16285816 8:-2.7212696e-05 9:-0.14122599 10:-0.15373252 11:2.9469415e-05 12:-3.466522e-05 13:-0.42579356 14:3.806211e-05 15:-0.096766166 16:-2.0311742e-05 17:1.7434832e-05 18:-0.24578336 19:-2.1635309e-05 20:-0.029026102 21:0.096467152 22:3.3950448e-05 23:-0.00040729076 24:0.023120428 25:-0.1855471 26:0.15322615 27:1.8921453e-05 28:0.40158671 29:0.05219603 30:-2.6831442e-05 31:2.2396689e-05 32:1.7619333e-05 33:0.00058999279 34:1.3465185e-05 35:-0.017967097 36:4.3753691e-05 37:3.5193698e-05 38:0.024994735 39:-5.5403347e-05 40:-0.0019058782 41:3.2368778e-05 42:1.1602329e-05 43:0.2419893 44:-0.14937244 45:0.034180846 46:-0.22732659 47:-2.5305682e-05 48:-0.062513433 49:0.029073153 50:-0.1555066 51:-0.064238541 52:-2.7317503e-06 53:3.5344354e-05 54:-0.16465703 55:-0.070499241 56:0.22728299 57:3.0955121e-05 58:-1.8774444e-05 59:-6.7284964e-06 60:-4.0245337e-05 61:0.42552269 62:-0.10645352 63:-0.1656625 64:-0.20415166 65:-2.2746461e-05 66:-0.055058271 67:3.071937e-05 68:-1.0125062e-05 69:4.2257619e-05 70:0.010328561 71:-1.9340543e-05 72:0.028176069 73:-1.5151455e-05 74:-0.23869568 75:1.4751535e-05 76:-0.093860507 77:3.4950717e-05 78:0.15656005 79:-2.2415119e-05 80:4.7865022e-05 81:0.057339121 82:-4.3912241e-05 83:-0.21533717 84:-9.6190142e-06 85:2.3972008e-05 86:0.13787839 87:0.19425447 88:-4.7007146e-05 89:2.1323656e-05 90:0.28887129 91:-0.038420275 92:-0.22172229 93:4.8186183e-05 94:-0.26577514 95:-4.497296e-05 96:0.030107662 97:4.0820538e-05 98:-0.20570228 99:-4.5760113e-05 100:-0.30116236 101:4.0409384e-05 102:-2.0235435e-05 103:6.2948871e-05 104:1.7845279e-05 105:-2.7040296e-05 106:0.14293492 107:0.018565971 108:-3.4128185e-05 109:0.23869604 110:0.058361325 111:-0.40497181 112:0.045426544 113:-0.066131353 114:-1.208286e-05 115:0.27826166 116:-0.23515366 117:0.10489883 118:0.023560736 119:0.26019105 120:2.0446063e-05 121:-0.031328879 122:4.879649e-05 123:-3.3551376e-05 124:4.1185001e-05 125:-3.1999614e-05 126:0.50525755 127:-1.7601109e-05 128:0.0093958359 129:-0.15373251 130:-2.1876845e-05 131:4.2249674e-05 132:-0.19529007 133:-0.01307867 134:4.5064404e-05 135:-0.05610168 136:1.5676917e-05 137:0.15723266 138:-5.0061593e-05 139:-0.18243299 140:-3.8501199e-05 141:-0.33993661 142:-0.00071138842 143:0.15092278 144:-0.0094200978 145:-0.00085469271 146:-3.2459884e-05 147:0.32736692 148:-4.288325e-05 149:-3.6314836e-05 150:4.0700037e-05 151:4.0355826e-05 152:-6.1548276e-06 153:-1.2101427e-05 154:0.28956535 155:-0.20266113 156:-4.4776451e-05 157:0.010730983 158:-0.14122599 159:2.3365503e-05 160:-3.6765625e-05 161:-0.0078875013 162:1.7795721e-05 163:-4.6416506e-05 164:-0.10991156 165:-0.081577405 166:-0.0078874901 167:-4.2317948e-05 168:-0.15028244 169:-0.3043144 170:-0.076525815 171:-3.4077566e-05 172:-0.26573718 173:-0.18104964 174:-6.5036576e-05 175:0.011937981 176:-0.30389813 177:-1.7312103e-05 178:1.6749524e-05 179:0.017794339 180:-3.2487933e-05 181:3.3819499e-05 182:-4.8327209e-05 183:0.018374106 184:0.059602898 185:0.0074336817 186:3.4864741e-05 187:-0.32161528 188:0.00041876431 189:4.9751328e-05 190:-0.29612902 191:3.804086e-05 192:-2.2165126e-05 193:0.25516808 194:5.4695563e-05 195:-2.0076959e-05 196:2.9657402e-05 197:-0.125745 198:1.7619332e-05 199:2.2345073e-05 200:-2.8101167e-05 201:-0.082127765 202:0.35294428 203:-2.7997856e-05 204:0.070517614 205:0.083397865 206:-0.027652018 207:-0.077569842 208:3.3235294e-05 209:-0.11465359 210:3.78923e-05 211:-3.9709543e-05 212:-0.16062222 213:-0.21995254 214:3.8785292e-05 215:0.13809225 216:-0.32715586 217:2.3029465e-05 218:-0.072646007 219:3.9353603e-05 220:-0.021366594 221:3.1966669e-05 222:2.3843548e-05 223:3.761209e-06 224:3.8062106e-05 225:0.00085476832 226:2.5606168e-05 227:0.10625408 228:0.28842908 229:-0.035254784 230:0.22294608 231:0.30213064 232:-3.6498543e-05 233:0.25865623 234:0.19883023 235:3.009074e-05 236:-0.074478671 237:1.6144681e-05 238:-0.11961146 239:3.761263e-05 240:-0.02136657 241:-2.8319111e-05 242:4.0784613e-05 243:6.1196864e-05 244:2.7642966e-05 245:0.37759909 246:-3.2647131e-05 247:-3.0323437e-05 248:-0.2605454 249:2.6210888e-05 250:-2.2775117e-05 251:0.17276478 252:-0.017375955 253:5.5105629e-05 254:3.7028556e-05 255:0.11961146 256:0.10920843 257:0.15589719 258:0.17099641 259:0.19144353 260:-0.33799368 261:0.22957943 262:0.025304951 263:2.7916589e-05 264:2.365249e-05 265:0.059947651 266:-0.27749828 267:3.0275218e-05 268:-5.6968529e-05 269:2.6913975e-05 270:-0.28872055 271:6.2501051e-05 272:0.018711461 273:0.1654271 274:-0.1443432 275:3.1185784e-05 276:1.7565288e-05 277:-0.23225267 278:-3.8607781e-05 279:-0.061301429 280:1.9344066e-05 281:-0.053166751 282:-4.5492918e-05 283:-2.7783854e-05 284:3.8062106e-05 285:3.1024105e-05 286:2.8961105e-05 287:0.18332288 288:-0.12698118 289:4.4578224e-05 290:-0.074503064 291:0.18591054 292:-0.18656601 293:-2.6714757e-05 294:-0.19968829 295:-0.20835654 296:0.017794259 297:-0.064539313 298:-2.2037726e-05 299:-3.9270115e-05 300:-2.0816424e-05 301:-0.035774443 302:-3.8568498e-05 303:2.5344396e-05 304:-2.1210766e-05 305:2.2074124e-05 306:2.1417871e-05 307:3.8104565e-05 308:1.389768e-05 309:-0.044982459 310:-1.9200221e-05 311:-3.8753515e-05 312:3.7376249e-05 313:0.064813949 314:0.15322617 315:0.0012355092 316:-5.0146518e-05 317:2.002464e-05 318:5.5096294e-05 319:2.9875031e-05 320:-0.035082132 321:0.37173045 322:-0.2996023 323:-0.03418082 324:-0.023120414 325:-0.050381452 326:-0.019764215 327:-0.004551996 328:-0.16796145 329:2.2459657e-05 330:0.0093958667 331:-4.2241711e-05 332:0.09695904 333:-0.19813749 334:-3.0084819e-05 335:-0.10645352 336:-2.9091423e-05 337:4.1492076e-06 338:-4.2705258e-05 339:0.14434318 340:1.8993951e-05 341:-2.286738e-05 342:0.18372037 343:3.910331e-05 344:0.035416216 345:-5.752066e-06 346:0.045178335 347:0.1975109 348:0.15207833 349:-1.9864232e-05 350:0.12849653 351:-3.6848811e-05 352:0.067484647 353:4.8956997e-05 354:-4.4631775e-05 355:2.3535293e-05 356:0.2197099 357:-1.819052e-05 358:0.06732101 359:0.27130714 360:-3.7991533e-05 361:1.0502184e-05 362:3.3011765e-05 363:-0.25068033 364:-4.0419975e-05 365:5.5717217e-05 366:-0.018402785 367:4.8248454e-05 368:-0.21786746 369:0.19813274 370:-0.057736363 371:0.17405535 372:5.8139387e-05 373:1.4386125e-05 374:-0.23624644 375:4.8474776e-05 376:-3.2332504e-05 377:1.9481201e-06 378:1.3023755e-05 379:-4.7573991e-05 380:-0.010730981 381:-3.2744596e-05 382:-2.1068147e-06 383:0.069283538 384:-4.5223362e-05 385:0.25810662 386:2.3584031e-05 387:0.046035297 388:-0.011938201 389:0.097520813 390:9.5155274e-06 391:-0.059655942 392:6.2293752e-06 393:4.6198278e-05 394:-0.0097738998 395:-3.9398023e-05 396:0.29357108 397:5.0351435e-05 398:1.7707736e-05 399:0.3613801 400:-0.10730683 401:1.8161592e-05 402:-0.10884889 403:-0.22054116 404:-1.0352788e-05 405:0.0011970834 406:0.13098697 407:-2.0611755e-05 408:-5.0726216e-05 409:-2.5092979e-05 410:-5.2612711e-05 411:-0.2996023 412:5.7431997e-05 413:3.7435049e-05 414:2.0641182e-05 415:0.013846446 416:-1.3214499e-05 417:4.0897492e-05 418:0.018014105 419:0.091866277 420:-0.28993919 421:-0.026702071 422:-0.062379211 423:0.00031065897 424:-0.0004156756 425:-2.6913975e-05 426:-0.0012362051 427:0.017452881 428:0.034636836 429:-2.8147308e-05 430:2.4917499e-05 431:2.5594265e-05 432:0.20850712 433:-2.4569948e-05 434:5.2576499e-05 435:0.37060237 436:-2.8387945e-05 437:-2.4807388e-05 438:3.4225228e-05 439:-0.19142954 440:1.8688124e-05 441:-0.017967051 442:-1.2444969e-05 443:0.14623336 444:-0.14937244 445:6.246422e-05 446:0.10884891 447:-0.15283671 448:2.6054764e-05 449:-0.10962676 450:-0.056101691 451:4.9595918e-05 452:-2.9217996e-05 453:-2.3308183e-05 454:0.17210637 455:-0.018711433 456:0.014849451 457:0.22142552 458:0.12986875 459:3.7673752e-05 460:0.034913674 461:0.20514588 462:3.6773145e-05 463:0.17026955 464:0.20160985 465:0.18186572 466:0.030401574 467:3.5152323e-05 468:0.060406782 469:-0.20960374 470:-1.6982507e-05 471:-0.021312257 472:-6.823938e-05 473:2.1095395e-05 474:4.2967702e-05 475:0.19968829 476:0.28033406 477:-0.20413704 478:-2.1564654e-05 479:-3.1135616e-05 480:0.25001439 481:-0.00071293552 482:0.057702821 483:0.20160985 484:-0.16465731 485:2.4147081e-05 486:-0.15944541 487:0.019770313 488:-3.642049e-05 489:-2.5934954e-05 490:0.10788342 491:-0.25075665 492:0.088319287 493:2.5392947e-05 494:0.26658756 495:-0.15909125 496:-0.30043411 497:0.20610899 498:-1.140428e-05 499:-0.010465083 500:-2.483887e-05 501:-4.6750829e-05 502:2.9876963e-05 503:4.6200625e-05 504:0.15584008 505:2.5711455e-05 506:-2.461548e-05 507:-4.0650346e-05 508:-2.6793045e-05 509:-0.21229836 510:0.25029764 511:4.1653711e-05 512:-0.24698545 
0.01592986539745693 1:-0.012207962 2:-0.044393733 3:0.013213811 4:-3.3497974e-05 5:-0.0053337701 6:-0.057730548 7:-0.0094857384 8:0.011154524 9:-0.12442124 10:-0.095695943 11:-0.042164117 12:0.011598092 13:-0.42217946 14:-0.0057689464 15:-0.018741123 16:-0.020591313 17:0.02381452 18:-0.091274507 19:0.010173666 20:4.9899088e-05 21:0.042710312 22:0.011094287 23:-0.035659727 24:0.0099034589 25:-0.048057899 26:1.170884e-05 27:0.012358155 28:0.5458079 29:-3.9116869e-05 30:0.032834619 31:0.0021294865 32:2.8289194e-05 33:0.069525898 34:0.041194201 35:0.020186372 36:0.012417525 37:0.04956587 38:0.015437989 39:-3.6027435e-05 40:-0.19294247 41:2.1895314e-05 42:0.038431872 43:0.072310686 44:0.0088282172 45:0.025780944 46:-0.042764612 47:0.037223835 48:0.022751441 49:-0.057027116 50:-0.007029084 51:-0.0054575168 52:-0.00067770062 53:5.0706392e-05 54:-0.0010040924 55:0.11880102 56:0.090534031 57:-0.0057871789 58:0.026903968 59:3.4417531e-05 60:1.9532099e-05 61:0.32493213 62:-0.0067338813 63:-0.029658904 64:-0.34525448 65:2.8374474e-05 66:-3.0610543e-05 67:-1.9496298e-05 68:6.0492806e-05 69:-0.011716627 70:-0.033936042 71:3.4540157e-05 72:-2.7689024e-05 73:1.8350682e-05 74:-0.069506615 75:0.019172432 76:-0.050917201 77:-0.080226108 78:0.014174754 79:4.5465735e-05 80:0.010434401 81:2.3669183e-05 82:-9.8555965e-06 83:0.018382918 84:0.060248423 85:0.0018900973 86:0.21518843 87:0.21022193 88:0.052464731 89:-2.2901173e-05 90:0.027900681 91:-2.1554244e-05 92:-0.40313503 93:-3.7665632e-05 94:-0.057954337 95:-0.041196514 96:-0.03172927 97:-0.039901059 98:-0.073050104 99:-0.0059395144 100:-0.055002019 101:0.0068064928 102:-3.502065e-05 103:-0.046835426 104:0.031471107 105:3.8608621e-05 106:0.0073053092 107:-0.025777943 108:-4.4750141e-05 109:0.069590501 110:-0.13354175 111:-0.39172667 112:-0.0094719529 113:-0.014058704 114:-1.2715658e-05 115:0.027307197 116:-0.30988878 117:0.0072850822 118:0.055425074 119:0.34050411 120:0.051359206 121:0.02815658 122:-1.8545959e-05 123:-3.1793033e-06 124:0.020628717 125:-4.1276558e-05 126:0.47571975 127:-5.2800024e-05 128:0.012417383 129:-0.06933704 130:-4.7322068e-05 131:-0.0035791683 132:-0.05470179 133:-0.070153467 134:0.014138052 135:-0.099743158 136:0.0015662265 137:0.0020215467 138:-5.3594649e-05 139:-0.030625856 140:-2.5807274e-05 141:-0.34215307 142:-0.16583408 143:-0.015431094 144:-0.012459575 145:-0.014947965 146:1.5203638e-05 147:0.43232167 148:-3.8061116e-05 149:0.024921458 150:0.020186426 151:0.002789651 152:0.0060726232 153:-1.5430927e-05 154:0.07403747 155:-0.016443286 156:0.0012177032 157:4.3455773e-05 158:-0.12643613 159:-4.5354725e-05 160:-0.011959934 161:-0.0037356929 162:-8.8404558e-06 163:-0.0076494054 164:-0.044861957 165:0.14473584 166:-0.004461356 167:0.047307581 168:-0.0055489289 169:-0.063115917 170:-0.0057609598 171:0.0041197278 172:-0.057954326 173:-0.056528445 174:-0.001159993 175:-0.060016938 176:-0.043004811 177:-0.0019656438 178:-4.1218478e-05 179:0.011472592 180:3.2137119e-05 181:0.0042622075 182:-0.032937896 183:-0.011747425 184:-0.025068412 185:-0.00046946059 186:-0.0043913829 187:-0.35275692 188:0.023910535 189:-2.3534656e-05 190:-0.36087871 191:-0.0035826219 192:-0.018931076 193:0.050995942 194:0.019336173 195:-2.8870105e-05 196:0.030696388 197:0.051122975 198:-0.0034335156 199:0.051458038 200:-4.8827378e-06 201:-0.028907958 202:0.42833325 203:-0.041615255 204:-3.711578e-05 205:0.1987633 206:-0.032525502 207:-0.0057242694 208:-0.027074285 209:-0.064623326 210:-0.020369682 211:-0.018705957 212:-0.3190819 213:-0.30862164 214:-0.037761837 215:0.071017243 216:-0.09651956 217:3.9713377e-05 218:-0.11865979 219:0.058193855 220:-5.57278e-05 221:-3.8489005e-05 222:-0.035119671 223:5.0767307e-05 224:3.3741868e-05 225:0.014947858 226:-1.6305277e-05 227:0.40168422 228:0.3548575 229:0.036759593 230:0.25504252 231:0.041637082 232:-0.065939717 233:0.26378822 234:0.0010779835 235:0.011368615 236:0.1931935 237:-0.047646906 238:-0.070274577 239:0.0039701276 240:0.010944868 241:0.038374517 242:0.0078762136 243:6.5324071e-05 244:2.5039941e-05 245:0.35490483 246:-3.8006438e-05 247:0.085040905 248:-0.046187647 249:2.3413002e-05 250:2.5693624e-05 251:-0.27848804 252:-0.049518354 253:6.0530721e-05 254:-0.046383798 255:0.070274569 256:-0.18752179 257:0.008132631 258:0.35089937 259:0.32360855 260:-0.20795044 261:0.27034822 262:2.9983081e-05 263:8.2406932e-06 264:0.0065633655 265:-2.5829915e-05 266:-0.34008679 267:0.019336019 268:0.017247399 269:0.0062614535 270:-0.049288299 271:4.4701195e-05 272:0.016085468 273:-0.067511864 274:-0.039039869 275:-0.0066711227 276:-0.069788337 277:-0.052313324 278:-0.0069178976 279:-0.046377108 280:-0.0021236034 281:1.2777825e-05 282:-0.020711496 283:-0.0083306199 284:4.3158372e-05 285:4.5357738e-05 286:6.6020177e-05 287:0.44673038 288:-0.0137327 289:-4.0989737e-05 290:-0.0079135606 291:-0.32468238 292:-0.2865186 293:-0.03431746 294:-0.09195362 295:-0.068620741 296:0.014520006 297:-0.10456945 298:-3.6654812e-05 299:-2.9194616e-05 300:0.042015646 301:-3.2371019e-05 302:-0.022751424 303:-0.00062206452 304:1.8644814e-05 305:-1.1247238e-05 306:3.2039719e-05 307:-1.0619679e-05 308:-0.0011310945 309:-0.050317228 310:1.1947897e-05 311:-0.0014286311 312:1.623611e-05 313:0.051047374 314:-0.048579238 315:0.19866616 316:-0.0051845815 317:0.02931127 318:1.7434833e-05 319:-0.065607391 320:-0.015313365 321:0.35806498 322:-0.1415727 323:-0.080172569 324:-2.0154852e-05 325:0.069525898 326:1.8334747e-05 327:1.2072855e-05 328:-0.039508965 329:5.0680192e-05 330:2.3323679e-05 331:1.5400448e-05 332:0.0044923816 333:-0.032181665 334:-0.067266434 335:-0.044296324 336:-0.020450987 337:0.064445853 338:-0.0021959979 339:0.056273784 340:-0.023005387 341:0.0017272228 342:0.035110865 343:1.725159e-05 344:-0.03599868 345:0.052386004 346:0.33435398 347:0.29266879 348:0.035846684 349:-0.017626619 350:-0.041031018 351:3.0772422e-05 352:0.11849763 353:0.0010521037 354:-0.024492482 355:7.8151286e-05 356:0.31039059 357:4.8690414e-05 358:0.047226373 359:0.23927711 360:-0.024402974 361:0.0053334674 362:-0.041196439 363:-0.039187334 364:-2.7093851e-05 365:-0.041668721 366:-0.02965381 367:4.5478002e-05 368:-0.14888686 369:0.0050633173 370:-0.20861265 371:0.14079699 372:5.3329299e-05 373:5.8113081e-05 374:-0.14013103 375:6.6154978e-05 376:2.7103955e-05 377:0.019964218 378:-9.5623427e-06 379:-5.7231031e-05 380:-0.047307551 381:-0.022810543 382:-0.0024392386 383:0.042665388 384:1.6099917e-05 385:0.31186697 386:-0.011757695 387:0.011368443 388:-0.012291633 389:0.050965309 390:1.6676428e-05 391:-0.0041229827 392:-0.067799352 393:3.6604746e-05 394:-0.046948344 395:-1.8528022e-05 396:0.089054704 397:0.0090842312 398:0.0010520399 399:0.29131538 400:-0.16140653 401:-0.067259021 402:-0.016655486 403:-0.030298492 404:0.02754035 405:0.046598792 406:0.0073463717 407:-0.0045345495 408:-0.046835478 409:-2.4437049e-05 410:-2.683248e-05 411:-0.12488502 412:-0.0037451936 413:-0.007583831 414:0.067799352 415:0.049373187 416:0.0063877827 417:-0.066783056 418:0.0092528034 419:-0.007087443 420:-0.088292919 421:0.026932064 422:0.0072607314 423:0.12267663 424:0.012421241 425:-2.5934953e-05 426:-0.19839849 427:0.025247304 428:-0.043042004 429:0.011559159 430:0.0050617498 431:-0.013104543 432:0.29435641 433:-4.8148828e-05 434:0.022810543 435:0.23131923 436:0.036020067 437:-3.841121e-05 438:-0.037251625 439:-0.0050592665 440:0.029137846 441:0.028903859 442:0.0048117847 443:0.0049835029 444:0.0065118005 445:5.464417e-05 446:0.091634922 447:0.041446276 448:0.0071618827 449:-0.034271285 450:0.0045884633 451:5.1044906e-05 452:0.016303172 453:3.3602209e-05 454:-0.26682121 455:-2.3955055e-05 456:0.048365783 457:0.26819298 458:0.25789294 459:0.029473968 460:0.1993645 461:0.39031303 462:0.036782101 463:0.10901873 464:-0.049719758 465:3.4022843e-05 466:0.079969957 467:2.6437991e-05 468:0.00073467096 469:-0.080919199 470:-0.017102022 471:3.926588e-05 472:-2.7126065e-05 473:1.4071893e-05 474:-0.021245262 475:0.096833132 476:0.069107622 477:-0.042591605 478:4.9808601e-05 479:3.356006e-05 480:0.030641163 481:-0.1658341 482:-1.582404e-05 483:0.036547054 484:-0.12268072 485:-0.075914338 486:0.40212342 487:0.26647604 488:0.029137829 489:-0.005690936 490:-0.038646694 491:-0.090565942 492:0.11652271 493:-0.048365779 494:0.23924954 495:-0.0069042244 496:-0.09230338 497:-0.26780319 498:1.579544e-05 499:0.0046411091 500:-1.4968518e-05 501:-2.2797012e-05 502:3.9671646e-05 503:5.0260973e-05 504:-0.027563294 505:-1.7072325e-05 506:-0.058372036 507:-0.010575267 508:-0.0046051885 509:-0.26770154 510:-0.23691343 511:-2.3821725e-05 512:0.38075677 
