svm_type c_svc
kernel_type linear
nr_class 2
total_sv 36
rho 0.719971
label 1 0
nr_sv 16 20
SV
1 1:0.29187965 2:-0.022287924 3:-1.7619332e-05 4:-0.29257604 5:-0.1598217 6:3.5238663e-05 7:0.08079046 8:2.3584027e-05 9:0.07055331 10:-0.015251556 11:-0.18355285 12:-0.079900652 13:0.31920162 14:0.15074442 15:-0.21045905 16:-0.039288837 17:-0.19316374 18:-0.064267576 19:-0.092696719 20:0.27298346 21:0.081630252 22:0.051683463 23:-0.21861477 24:-0.015879245 25:-0.22302163 26:0.18318538 27:0.0030757734 28:0.12126048 29:-0.066549018 30:0.24591528 31:-0.090646714 32:-0.11437237 33:-2.6913973e-05 34:0.072486989 35:0.01073436 36:0.083465688 37:0.10103222 38:0.13327402 39:0.13085532 40:-0.16852494 41:1.8161591e-05 42:0.035073932 43:0.18396154 44:-0.016998135 45:5.4484775e-05 46:0.21071391 47:0.15796012 48:-0.078689687 49:0.17760985 50:-0.0044512078 51:-0.044318967 52:-0.15572512 53:-3.5238663e-05 54:2.7946176e-05 55:-0.019551693 56:4.2445354e-05 57:2.0345051e-05 58:-0.0064242589 59:3.3929609e-05 60:0.010734341 61:2.5934954e-05 62:-0.228927 63:3.2168351e-05 64:0.036218874 65:0.26731506 66:-0.24634674 67:0.045838278 68:-0.266579 69:4.7928923e-05 70:-0.00010956146 71:0.073423959 72:-0.080350861 73:0.11461969 74:4.4520792e-05 75:0.066929199 76:-3.5584839e-05 77:-0.012195331 78:-0.26860368 79:-0.094646856 80:-0.26703504 81:0.29569018 82:0.11098814 83:-0.059176899 84:-0.25230235 85:-0.1112446 86:-0.055842958 87:0.07152769 88:-0.10071597 89:-0.14656226 90:0.049428843 91:3.9891809e-05 92:1.8027557e-05 93:4.8562073e-05 94:2.3991855e-05 95:-0.068881676 96:-0.053693626 97:-0.17476776 98:4.6616369e-05 99:0.00075967913 100:0.008690374 101:0.012009317 102:7.0109301e-05 103:-0.29968286 104:-0.0952987 105:-0.088853404 106:1.9534165e-05 107:0.069897458 108:0.0281273 109:-0.070989303 110:-0.094446525 111:-0.26436806 112:0.071131997 113:-0.16229536 114:0.22442508 115:0.044636536 116:-0.0076498082 117:-0.11331803 118:0.20668165 119:-0.034238309 120:0.021835094 121:-0.0084300833 122:0.14223576 123:-0.13419044 124:-6.1877057e-05 125:-0.13582122 126:-0.081047744 127:-0.12478355 128:0.083465666 129:-0.16142707 130:7.1930635e-06 131:0.17139564 132:0.068843022 133:-0.37548777 134:0.16395712 135:-0.071065694 136:0.11996716 137:0.0015148484 138:0.11819421 139:-0.042286824 140:-0.30720592 141:-0.15209682 142:-0.11486366 143:-0.096260004 144:2.4917497e-05 145:0.0073119858 146:0.046165422 147:-1.4828878e-05 148:0.17904954 149:0.057480633 150:0.060617588 151:-2.8772247e-05 152:-0.16743965 153:-0.094253473 154:4.345705e-05 155:0.21045962 156:0.23197165 157:3.487647e-05 158:1.5258791e-05 159:3.6677564e-05 160:-0.1243103 161:0.0034218647 162:0.14072867 163:0.0058327527 164:0.014275974 165:-0.018621692 166:-0.21488635 167:0.21576446 168:0.24424516 169:2.6913975e-05 170:-0.10126252 171:-0.032486491 172:0.21501836 173:5.8712751e-05 174:5.9315513e-05 175:0.18853624 176:-0.32823017 177:-0.014919148 178:-0.24891637 179:-3.0309078e-05 180:-4.2630654e-05 181:0.047256075 182:0.018711107 183:0.30768359 184:0.12223442 185:2.5934953e-05 186:0.16967015 187:-0.10207812 188:0.075760871 189:0.076389007 190:-0.11727644 191:-0.0363972 192:4.255473e-05 193:-0.14245774 194:4.8706865e-05 195:-0.14048329 196:-4.3225871e-05 197:-0.32983392 198:-0.45703322 199:0.0054279696 200:3.8062106e-05 201:0.004135387 202:6.7476903e-05 203:-0.18355285 204:1.4107281e-05 205:0.25959659 206:-0.056095574 207:-0.296361 208:0.042231511 209:0.067883126 210:-0.046835948 211:-0.0089691747 212:0.159226 213:-0.31749082 214:-0.13809887 215:0.16202274 216:-0.025411891 217:-0.34883004 218:-0.024525004 219:0.018684158 220:0.29266378 221:0.17904954 222:-0.0031974113 223:0.30768633 224:0.055127375 225:-3.0632684e-05 226:-0.092696719 227:-0.11534565 228:0.15779667 229:0.069314122 230:-0.054229178 231:-0.11690506 232:-1.7619332e-05 233:-0.043793477 234:0.048991848 235:4.0690105e-05 236:0.20550005 237:0.27282146 238:3.9398026e-05 239:-0.10962846 240:-0.17273609 241:0.069314145 242:1.9031053e-05 243:0.1199441 244:0.068348981 245:0.074155904 246:0.01525223 247:3.3290296e-05 248:0.11803613 249:3.3087559e-05 250:0.07841824 251:-0.14237367 252:-0.079185493 253:-4.9834998e-05 254:0.094225466 255:-0.094841123 256:-1.8784998e-05 257:-0.24861561 258:0.17648776 259:-0.11741623 260:0.28702462 261:-0.083855107 262:-0.40810871 263:0.076668821 264:0.056744371 265:-0.0033606563 266:4.3651948e-05 267:-0.034358792 268:0.087901317 269:-0.049804859 270:-0.14563827 271:4.9834998e-05 272:0.19183727 273:-0.031353589 274:2.8261962e-05 275:-0.20767926 276:-1.0172528e-05 277:-0.10043594 278:-0.3572928 279:-0.18059142 280:0.047652952 281:0.025906371 282:0.25626653 283:-0.11021066 284:0.16082938 285:4.2511136e-05 286:0.022881651 287:0.058870446 288:-0.025473401 289:-0.19455217 290:4.4704168e-05 291:0.0032752375 292:-0.079459742 293:-6.6802604e-05 294:-0.24455993 295:5.5948894e-05 296:-4.19424e-05 297:0.07389643 298:0.071533315 299:-3.596531e-05 300:0.025630632 301:0.016959095 302:2.7858612e-05 303:-0.093129985 304:0.31851926 305:0.11939063 306:0.15005447 307:2.2608318e-05 308:-0.016178424 309:-0.13683404 310:0.011007763 311:-0.031137874 312:5.9979666e-06 313:0.20668165 314:4.8252528e-05 315:0.13301197 316:1.7434832e-05 317:3.7376245e-05 318:-0.021009669 319:0.3612279 320:-0.16518658 321:0.23142917 322:2.8772251e-05 323:0.24431963 324:-2.0345056e-05 325:0.068307273 326:-0.36956924 327:0.22235988 328:-0.020044181 329:-0.11512015 330:0.013249397 331:-3.2501226e-05 332:1.3373797e-05 333:3.4871999e-05 334:0.12405796 335:0.30540118 336:4.3158376e-05 337:-0.080790073 338:-0.096840873 339:0.091784343 340:0.13846214 341:0.5337019 342:-0.0046142782 343:-0.24823906 344:-0.034869749 345:0.0059556584 346:-0.1128856 347:-0.012009178 348:-0.046393905 349:-0.0050907452 350:0.14622444 351:0.064553328 352:-2.3907465e-05 353:-2.9657756e-05 354:0.22395031 355:-2.7263648e-05 356:0.3165679 357:-0.1670054 358:0.22320741 359:0.15839292 360:0.42032564 361:0.058739223 362:-0.099472396 363:-0.37092587 364:0.097696528 365:0.071579345 366:-0.075576499 367:-2.0345055e-05 368:0.24772799 369:4.7713376e-05 370:-0.14280225 371:-0.071527705 372:3.1635886e-05 373:-7.310533e-05 374:-0.11391599 375:0.17234251 376:0.05777381 377:-0.1238853 378:0.44314346 379:-3.2962755e-05 380:-0.26116449 381:0.13237436 382:0.10104752 383:-0.097388014 384:0.30912212 385:0.1112771 386:5.5250959e-05 387:0.048991866 388:0.0063834102 389:-6.1035156e-05 390:-0.31435469 391:0.048975635 392:-0.1432468 393:0.13565323 394:-0.11266103 395:0.17190954 396:-0.091493808 397:0.35315594 398:-0.1711892 399:0.26121381 400:-0.25984123 401:0.11694768 402:-0.079965033 403:-0.048429318 404:0.015539711 405:0.45689079 406:-5.5695451e-05 407:0.25273642 408:-0.067579269 409:-0.23374623 410:0.11437237 411:0.11524313 412:0.17013989 413:0.0046718763 414:0.026047504 415:0.25359309 416:0.06839586 417:-0.26505199 418:-0.0072269142 419:-0.0059555364 420:-0.069827512 421:0.41716227 422:0.14797692 423:0.25475255 424:-0.00075756299 425:0.2511 426:0.10418709 427:0.11690508 428:0.11944082 429:0.10115191 430:-0.27752015 431:7.0477327e-05 432:0.1594214 433:5.3827949e-05 434:-1.7619333e-05 435:0.023508385 436:0.034127556 437:-0.063583247 438:-0.059221994 439:-0.039288878 440:-0.068371393 441:0.19320983 442:0.41748652 443:-0.17411248 444:0.051306222 445:0.41436392 446:0.031319454 447:0.16586673 448:5.2857995e-05 449:3.2168351e-05 450:0.012884974 451:-5.3587104e-05 452:3.6756966e-05 453:-0.014872303 454:-0.27082774 455:7.1698769e-06 456:0.17818266 457:0.011714996 458:0.44258925 459:0.17030039 460:3.3096338e-05 461:0.076214112 462:-0.15671797 463:-0.14237367 464:0.32037005 465:0.1203959 466:0.041259214 467:-0.22295421 468:3.4496712e-05 469:0.034333222 470:-0.21872376 471:-0.12168857 472:0.29503012 473:-9.1250607e-09 474:0.00445172 475:0.02324984 476:-0.052920103 477:0.0010767872 478:0.26836601 479:4.3158372e-05 480:-0.042487122 481:-3.9961305e-05 482:0.12548263 483:0.030258808 484:-0.182868 485:-0.07527253 486:5.6776338e-05 487:0.0918281 488:-0.17395207 489:1.6743548e-05 490:-0.11163022 491:0.21045962 492:0.048792332 493:0.090352677 494:-0.18399626 495:0.19093105 496:-0.16803637 497:0.22819604 498:-0.16623956 499:0.0978202 500:-0.13775457 501:0.17773387 502:-5.2539497e-05 503:0.038268022 504:-0.046356689 505:4.3585253e-05 506:-0.085422702 507:-0.18928024 508:-5.6866129e-06 509:0.3763622 510:-0.24435039 511:0.06590648 512:0.020880539 
1 1:0.26911804 2:-0.058765728 3:0.023410834 4:-0.34068048 5:-0.13635804 6:-6.5531916e-05 7:0.16400595 8:4.2402477e-05 9:0.15710916 10:-0.029777288 11:-0.19207431 12:-0.073017016 13:0.28540334 14:0.1286588 15:-0.2007128 16:-0.064989425 17:-0.22297342 18:-0.061541621 19:-0.11343187 20:0.24815498 21:0.057669617 22:0.096538 23:-0.22987455 24:-0.020059187 25:-0.21074739 26:0.20952807 27:0.021272784 28:0.18476301 29:-0.11617767 30:0.20462845 31:-0.04180602 32:-0.070950992 33:0.0026071258 34:0.031148838 35:0.021480171 36:0.076444 37:0.12900801 38:0.14285664 39:0.10248641 40:-0.14672802 41:3.9602692e-05 42:0.015028873 43:0.20076746 44:1.4664415e-05 45:2.9793739e-05 46:0.11059099 47:0.072826974 48:-0.11828005 49:0.11955674 50:-0.0016291174 51:-0.046552736 52:-0.1847973 53:-0.015400437 54:3.784911e-05 55:-0.035979819 56:0.0083182771 57:2.5431314e-05 58:-0.021218913 59:-1.0172526e-05 60:0.025771938 61:-0.0034580566 62:-0.22201715 63:3.8400445e-05 64:-0.062435266 65:0.22203287 66:-0.25421098 67:0.085511595 68:-0.28009337 69:4.8851962e-05 70:-0.00010121537 71:0.13374889 72:-0.050526764 73:0.14671913 74:-2.5644582e-05 75:0.071959145 76:1.1849349e-05 77:-0.031353682 78:-0.24655744 79:-0.08418943 80:-0.28299776 81:0.23105145 82:0.088200726 83:-0.071653746 84:-0.25624421 85:-0.099950559 86:-0.024594134 87:0.11981858 88:-0.092767209 89:-0.18373188 90:0.05250141 91:0.036118262 92:2.7552222e-05 93:-4.3042688e-05 94:-1.35468e-05 95:-0.063131131 96:-0.091112494 97:-0.17447448 98:0.011522664 99:0.0020124754 100:0.023672588 101:0.0058817263 102:0.0012673798 103:-0.29088905 104:-0.049691036 105:-0.051672321 106:3.8964725e-05 107:0.034286674 108:0.0063814558 109:-0.054620873 110:-0.065645762 111:-0.19712877 112:0.037593994 113:-0.10930131 114:0.16991162 115:0.039208613 116:-0.025720077 117:-0.14678104 118:0.16578503 119:-0.0086434707 120:0.032459039 121:-0.049119849 122:0.16212693 123:-0.11720902 124:-5.0862629e-05 125:-0.10742331 126:-0.10086888 127:-0.077055797 128:0.076471388 129:-0.18447705 130:-0.014046058 131:0.17429397 132:0.040583018 133:-0.32646853 134:0.11334006 135:-0.051633205 136:0.12221325 137:3.1508156e-05 138:0.15677966 139:-0.036731482 140:-0.27594817 141:-0.131358 142:-0.15461935 143:-0.044471335 144:0.073613375 145:0.016034089 146:-0.022864731 147:-0.016764589 148:0.18119076 149:-0.039169934 150:0.031892885 151:-4.6616369e-05 152:-0.10300414 153:-0.03476214 154:-1.9534164e-05 155:0.16253525 156:0.19870311 157:0.0047179274 158:0.0038765671 159:2.3856686e-05 160:-0.12158964 161:0.00089460413 162:0.13082753 163:-2.591848e-05 164:-0.067653738 165:-0.023127371 166:-0.25586909 167:0.24403957 168:0.25962961 169:1.9534165e-05 170:-0.078885593 171:-0.058292393 172:0.18602279 173:3.4237957e-05 174:0.0033482758 175:0.17527346 176:-0.2677871 177:-0.017327335 178:-0.19559762 179:3.3036249e-05 180:-3.4520141e-05 181:0.0083080325 182:0.023127588 183:0.28151059 184:0.13027696 185:-0.0088208113 186:0.19839396 187:-0.09810444 188:0.073788904 189:0.052463308 190:-0.055244152 191:0.17160231 192:-2.365249e-05 193:-0.16954754 194:-2.238786e-05 195:-0.11299554 196:0.0058054947 197:-0.27409905 198:-0.44190818 199:5.3697418e-05 200:-3.3024011e-05 201:3.2747794e-05 202:1.4386123e-05 203:-0.19207431 204:-3.0458203e-05 205:0.26614666 206:-0.040214598 207:-0.29348519 208:-0.022548782 209:0.091368027 210:-0.025431924 211:-0.0037672867 212:0.15104325 213:-0.24656156 214:-0.095678926 215:0.18638425 216:-0.041498676 217:-0.33185467 218:0.047522232 219:0.014409218 220:0.24342598 221:0.1782622 222:4.2096319e-05 223:0.37141848 224:0.12076163 225:-2.0554508e-05 226:-0.10731019 227:-0.076625258 228:0.13729113 229:0.10176612 230:-0.018013857 231:-0.046170183 232:-0.016515853 233:-0.024460869 234:0.050556682 235:5.1776311e-05 236:0.16427952 237:0.26353222 238:-4.9050144e-05 239:-0.050869528 240:-0.13648069 241:0.031247154 242:2.8089806e-05 243:0.093677104 244:0.045122948 245:0.037078936 246:0.0061022853 247:-0.011674549 248:0.060932048 249:-2.1906397e-05 250:0.041193314 251:-0.10191762 252:-0.040821645 253:6.1035156e-05 254:0.097481228 255:-0.048726436 256:0.011456635 257:-0.1961973 258:0.16958818 259:-0.074102923 260:0.31329796 261:-0.066247992 262:-0.36836109 263:0.036184397 264:0.13091934 265:-0.0078299968 266:4.1193627e-05 267:-0.084310599 268:0.14505422 269:-0.093041979 270:-0.24728166 271:-0.0015051215 272:0.20396543 273:-0.078730889 274:-0.0078299763 275:-0.18971074 276:4.3753687e-05 277:-0.07616733 278:-0.25403413 279:-0.12519346 280:0.04572976 281:-0.10304207 282:0.2300453 283:-0.1274966 284:0.16440518 285:0.058859084 286:0.07276585 287:0.033749945 288:-0.073313467 289:-0.1815507 290:1.780192e-05 291:0.021254661 292:0.060100235 293:-3.6677568e-05 294:-0.16659012 295:-2.6428999e-05 296:-6.823938e-05 297:0.072579935 298:0.052568354 299:-3.560384e-05 300:0.027253164 301:-0.011522412 302:-3.2567976e-05 303:-0.11101587 304:0.35503626 305:0.08503601 306:0.13311946 307:0.011037195 308:-0.032125842 309:-0.14086136 310:0.017696891 311:-0.0057743858 312:3.3060711e-05 313:0.16580237 314:1.8161591e-05 315:0.10672648 316:0.0029265902 317:6.5729e-05 318:-0.041000765 319:0.31815487 320:-0.14624721 321:0.20599701 322:-0.007583905 323:0.26242849 324:-3.3738452e-05 325:-0.06229049 326:-0.33725131 327:0.28103322 328:0.08295206 329:0.081430368 330:-6.2413848e-05 331:-3.0944575e-05 332:3.0559153e-05 333:0.0023499629 334:-0.1323874 335:0.29263428 336:4.5492921e-05 337:-0.14946869 338:-0.11157562 339:0.078025304 340:0.13008474 341:0.55664539 342:-0.017842906 343:-0.2946842 344:-0.10809591 345:0.0080532311 346:-0.10658586 347:-0.039744124 348:0.085063897 349:0.017378323 350:0.079727285 351:0.010732807 352:-5.2160598e-05 353:0.0042628185 354:0.20820734 355:-4.1646585e-05 356:0.24614032 357:-0.14136916 358:0.1833345 359:0.12288288 360:0.43671474 361:0.083890043 362:-0.10594158 363:-0.3609882 364:0.14782333 365:0.043469813 366:0.069122061 367:-1.9943729e-05 368:0.24312052 369:0.02959381 370:-0.11622583 371:-0.11726626 372:3.5060526e-05 373:0.00042190281 374:-0.1386596 375:0.14934656 376:0.033854209 377:-0.14065461 378:0.3969503 379:-3.4119686e-05 380:-0.28658956 381:0.066339351 382:0.085972346 383:0.059235983 384:0.27862245 385:0.10941759 386:3.1250525e-05 387:0.027542543 388:0.0042890529 389:-5.7431997e-05 390:-0.31338817 391:0.046512995 392:-0.18175605 393:0.12837549 394:-0.09598586 395:0.16990595 396:-0.10744869 397:0.32867533 398:-0.22871855 399:0.21566778 400:-0.21685541 401:0.14410308 402:0.11433172 403:0.10916678 404:0.0638166 405:0.44186616 406:-4.7560636e-05 407:0.22033946 408:-0.10438529 409:-0.24185172 410:0.070935346 411:0.044510387 412:0.14908616 413:3.5054647e-05 414:0.0060599833 415:0.20869596 416:0.031319164 417:-0.23458824 418:0.028204659 419:0.003462286 420:-0.035780728 421:0.39421624 422:0.10187024 423:0.22837909 424:-0.041843422 425:0.21838111 426:0.080162995 427:0.046170183 428:0.12124315 429:0.15345037 430:-0.25046593 431:-0.060737163 432:0.144824 433:0.12027851 434:-2.7625481e-05 435:-0.11956452 436:0.089467727 437:-0.080475271 438:-0.10338198 439:-0.065868072 440:-0.097729795 441:0.090176925 442:0.35646021 443:-0.25704095 444:0.017770238 445:0.42030171 446:0.051803391 447:0.1030727 448:3.1198742e-05 449:-0.065649539 450:1.1791321e-05 451:-3.4214336e-05 452:4.7361609e-05 453:0.017842926 454:-0.25788331 455:-0.0032779041 456:0.12005955 457:0.038744714 458:0.37909594 459:0.12199014 460:0.001205201 461:-0.11639304 462:-0.1996417 463:-0.097520389 464:0.35300729 465:0.12333918 466:0.086214036 467:-0.21221903 468:4.1490617e-05 469:-0.028003003 470:-0.18404233 471:-0.1044448 472:0.2777268 473:-0.001853355 474:4.9842532e-05 475:0.032980777 476:-0.02153731 477:2.9051871e-05 478:0.20116095 479:6.1035156e-05 480:-0.11219811 481:-9.231052e-06 482:0.18316387 483:0.057611294 484:-0.22893013 485:-0.10665696 486:5.0656457e-05 487:0.090519018 488:-0.15173654 489:4.7375437e-05 490:-0.1191767 491:0.16249104 492:0.018804491 493:0.049401913 494:-0.19941866 495:0.20249847 496:-0.16043642 497:0.22345001 498:-0.15661868 499:0.11325409 500:-0.026591176 501:0.19101405 502:-5.2613941e-05 503:0.067655407 504:-0.12217706 505:4.7147492e-05 506:-0.10988591 507:-0.21649891 508:0.03161728 509:0.36790684 510:-0.25985032 511:0.011757755 512:-0.060039576 
0.1327253346667572 1:0.14299126 2:-0.11428731 3:0.038458135 4:-0.18921687 5:-0.054079741 6:0.057674557 7:0.13956368 8:0.024994917 9:0.13517275 10:-0.049044747 11:-0.12623049 12:-0.040879305 13:0.14052571 14:0.1574837 15:-0.1457295 16:-0.1096363 17:-0.19534309 18:-0.042198483 19:-0.12590812 20:0.18961494 21:0.16777301 22:0.026770487 23:-0.12878859 24:-0.032604489 25:-0.16517459 26:0.13402152 27:0.11909118 28:0.30528989 29:-0.097866654 30:0.19100584 31:0.16020986 32:-0.082182005 33:0.097046487 34:0.011853771 35:0.043631278 36:-0.013408911 37:-0.083776869 38:0.11706515 39:0.14586158 40:-0.071231201 41:-2.8433074e-05 42:-0.036428533 43:0.13482076 44:-0.023856098 45:0.0085812397 46:0.060481835 47:0.10128597 48:-0.18044977 49:0.12039207 50:-0.15776496 51:0.06550812 52:-0.12595552 53:-0.024710327 54:1.7818946e-05 55:-0.078017332 56:0.075631626 57:-0.019051995 58:-0.022539411 59:0.055691965 60:0.058470499 61:-0.027600879 62:-0.19625428 63:-0.013298249 64:-0.16461287 65:0.15128392 66:-0.18137665 67:0.21646775 68:-0.17772777 69:-0.0046718223 70:0.017629564 71:0.1429003 72:-0.01720777 73:0.14912058 74:0.0036049194 75:0.12788743 76:-0.0097118737 77:-0.16990569 78:-0.22955441 79:-0.12678857 80:-0.22639339 81:0.09794496 82:0.11168476 83:-0.044439521 84:-0.034610197 85:-0.090671547 86:-0.043155398 87:0.084922053 88:-0.023723481 89:0.17484829 90:0.052692749 91:-0.14531036 92:-0.057891827 93:-0.02487262 94:4.4085024e-05 95:-0.12159909 96:-0.18339592 97:-0.20182087 98:-0.028261771 99:0.078037247 100:0.013093927 101:0.052246079 102:0.062322963 103:-0.23513094 104:-0.10690453 105:-0.099293411 106:0.018001545 107:-0.045674443 108:0.042591013 109:-0.01813229 110:0.018760392 111:-0.21607055 112:0.068662308 113:-0.073369287 114:0.16451341 115:0.083851069 116:-0.14262176 117:-0.16864312 118:0.22474758 119:-0.018580163 120:-0.055520616 121:-0.16264831 122:0.046702743 123:-0.14267482 124:-0.10249642 125:-0.024468252 126:0.15728576 127:-0.083721437 128:0.12648281 129:-0.13618326 130:-0.022863645 131:0.14457545 132:0.039991714 133:-0.32105219 134:0.13070384 135:-0.0513338 136:0.20196854 137:-0.0063545774 138:-0.1196947 139:-0.18905485 140:-0.18074219 141:-0.24079616 142:-0.13876328 143:0.24848744 144:0.016116496 145:0.13100278 146:0.124938 147:-0.0020586785 148:0.20224479 149:-0.079054333 150:0.082155772 151:0.06763979 152:-0.21845473 153:-0.068969093 154:0.013298331 155:0.12940614 156:0.2133411 157:0.12452137 158:0.067194983 159:-0.0011914402 160:-0.26305991 161:0.14945179 162:0.16827872 163:-0.053428032 164:-0.039694387 165:-0.12063357 166:-0.10994059 167:0.20989825 168:0.15456812 169:-0.032618642 170:-0.071497738 171:-0.13585377 172:0.082937926 173:-2.6793552e-05 174:0.019605268 175:0.24014696 176:-0.24514771 177:-0.077511564 178:-0.2889207 179:0.032494377 180:-3.3107488e-05 181:-0.035239238 182:0.13682939 183:0.26748425 184:0.147613 185:-0.08001586 186:0.022974802 187:-0.11457085 188:0.10305557 189:0.18263528 190:0.095525265 191:0.089700773 192:-4.7040819e-05 193:-0.055104706 194:0.025430718 195:-0.09542916 196:-0.045107387 197:-0.28708366 198:-0.29807439 199:0.021389231 200:0.0048208605 201:0.021075958 202:-0.038405765 203:-0.12511288 204:0.013719464 205:0.17700827 206:-0.023498921 207:-0.19889385 208:-0.081750564 209:-0.063920192 210:-0.063488372 211:-0.014115778 212:0.2068422 213:-0.21137086 214:-0.12242833 215:0.23429312 216:-0.11143432 217:-0.24693799 218:0.10884177 219:-0.021017237 220:0.22740594 221:0.20525281 222:4.0573336e-06 223:0.23528168 224:0.14721037 225:0.010282634 226:-0.057464398 227:-0.097181909 228:0.1638968 229:-0.24090642 230:-0.025343698 231:-0.021420594 232:0.038960434 233:-0.045843285 234:0.068907045 235:0.043989014 236:0.20648924 237:0.13242735 238:-3.9654384e-05 239:-0.13516423 240:-0.12799361 241:0.032189477 242:4.0450985e-05 243:0.06047764 244:0.14849128 245:0.010135205 246:0.050775744 247:-0.14603326 248:0.064882644 249:-2.2777222e-05 250:0.064129405 251:-0.15276188 252:-0.053412247 253:-0.0771382 254:0.19159184 255:-0.094786808 256:0.047310077 257:-0.17827937 258:0.16731997 259:-0.16160977 260:0.21049562 261:-0.024728978 262:-0.28435647 263:-0.053198211 264:-0.026440779 265:-0.024100477 266:-0.025019893 267:-0.023821009 268:0.14399713 269:-0.080822185 270:-0.17327897 271:-0.088807181 272:0.21035306 273:0.057276841 274:-0.024912754 275:-0.16351856 276:-0.017868983 277:-0.15790302 278:-0.24746589 279:-0.11593448 280:0.15407068 281:-0.086009152 282:0.26474351 283:-0.18867773 284:0.17740357 285:0.11150317 286:0.10929599 287:0.049132694 288:-0.021090152 289:-0.25887427 290:1.5335409e-05 291:0.12218975 292:0.13887905 293:-0.0095427763 294:-0.15731017 295:-0.005088584 296:-4.2065225e-05 297:0.10487481 298:0.14284633 299:-2.6712492e-05 300:0.024801694 301:0.056405444 302:-0.012071609 303:-0.16416022 304:-0.11647312 305:-0.073332317 306:0.14972676 307:-2.4988754e-05 308:-0.13433252 309:-0.20678757 310:0.033293165 311:0.013179145 312:0.016925843 313:0.22477429 314:-0.0011422398 315:0.18710016 316:-0.023315683 317:0.012688594 318:-0.12582707 319:0.25449213 320:-0.266671 321:0.31097171 322:-0.060241576 323:0.11630495 324:-0.01789383 325:0.1743557 326:-0.33423465 327:0.18226562 328:-0.0578431 329:-0.057545751 330:-4.050291e-05 331:-0.019647593 332:-0.010282616 333:0.039785583 334:-0.052565727 335:0.26786906 336:0.052730236 337:-0.1281237 338:0.13787526 339:0.035703149 340:0.098586105 341:0.31422448 342:-0.0084392438 343:-0.16596098 344:-0.15495735 345:0.092908688 346:-0.18964812 347:-0.085404806 348:0.047806833 349:-0.10224637 350:-0.1163919 351:-0.13185883 352:0.01099655 353:0.058775425 354:0.27793151 355:0.031235151 356:0.21030296 357:-0.13343169 358:0.24773423 359:0.15810513 360:0.302313 361:0.11736728 362:-0.15481497 363:-0.2389327 364:0.15965037 365:-0.090022191 366:0.017302038 367:0.027519112 368:0.21245791 369:0.014487836 370:0.1370216 371:-0.09643621 372:-0.073356859 373:-0.0079354923 374:-0.12800549 375:0.12875506 376:0.057674352 377:0.13229053 378:0.22840907 379:0.0017302448 380:-0.20872104 381:0.047249198 382:0.032944877 383:-0.024333678 384:0.20860285 385:0.12662393 386:-0.0222563 387:-0.0087498594 388:0.095099382 389:-1.0789591e-05 390:0.13059694 391:0.14502962 392:-0.098861545 393:-0.096353821 394:-0.1672558 395:0.056332123 396:-0.12077057 397:0.30014104 398:-0.10933018 399:0.27946419 400:-0.10425866 401:0.23913082 402:0.087045304 403:0.09705434 404:0.16821027 405:0.29882827 406:0.001133177 407:0.1970439 408:-0.085236214 409:0.04204677 410:0.078793645 411:-0.039379854 412:0.049497206 413:-0.017272372 414:0.077331051 415:0.22177301 416:0.13201442 417:-0.13375551 418:0.06203118 419:-0.0086704791 420:-0.019633034 421:0.2571944 422:-0.061716542 423:-0.088133186 424:0.026346589 425:0.2487008 426:-0.15718231 427:0.025474172 428:0.14422607 429:0.1469323 430:-0.33982393 431:-0.092326462 432:0.10760964 433:0.0921387 434:-5.268356e-09 435:-0.13529788 436:0.11423003 437:-0.18202779 438:-0.03833564 439:-0.0979985 440:0.26580387 441:-0.057339337 442:0.26542327 443:-0.15618539 444:-0.049431711 445:0.29349756 446:0.14696223 447:0.11578462 448:-0.027293336 449:-0.11198954 450:3.35351e-05 451:-0.021392135 452:1.3658096e-05 453:0.0084395809 454:-0.081940442 455:-0.082712784 456:0.1155867 457:0.065554105 458:0.2569477 459:0.15015976 460:0.049348611 461:-0.14761174 462:-0.12318732 463:-0.14331847 464:0.32933551 465:0.041038428 466:0.16672674 467:-0.18548065 468:0.028628513 469:-0.17805704 470:-0.079459816 471:0.040845472 472:0.21017174 473:-0.067094252 474:-1.6948885e-05 475:0.094034135 476:-0.012497766 477:-0.04138862 478:0.18198083 479:-0.017950322 480:-0.13590309 481:0.0081949616 482:0.098756649 483:0.033135448 484:-0.094948441 485:-0.16889974 486:3.9147431e-05 487:0.093486361 488:-0.15048531 489:0.039268982 490:-0.17882849 491:0.12607916 492:0.015046027 493:0.056879405 494:-0.13572618 495:0.1971986 496:-0.15306157 497:0.17185336 498:-0.16568868 499:0.15859254 500:0.10171548 501:0.19352205 502:0.0061985925 503:0.029354988 504:-0.092197351 505:-0.020904414 506:-0.16297548 507:-0.14463389 508:0.071781255 509:0.37817919 510:-0.15409495 511:-0.016393285 512:-0.11695366 
0.2431956775089067 1:0.18294479 2:-0.084910162 3:-4.4341014e-05 4:-0.25707322 5:-0.20709111 6:-3.3738452e-05 7:0.15564491 8:-0.0004877777 9:0.13165559 10:-0.095670432 11:-0.21657668 12:-0.085899577 13:0.19002767 14:0.12425343 15:-0.17607363 16:-0.1266349 17:-0.13862258 18:-0.11561354 19:-0.15763159 20:0.15613361 21:0.15250202 22:0.15408897 23:0.074724801 24:-0.030591287 25:-0.15108143 26:0.15305418 27:0.020981198 28:0.24495949 29:-0.16079353 30:0.26929525 31:-0.048692588 32:-0.14249295 33:0.012964513 34:0.022988325 35:2.1311364e-05 36:0.11010536 37:0.046647277 38:0.11904939 39:0.1706644 40:-0.12118328 41:-7.2642292e-06 42:0.027051987 43:0.23761596 44:4.7577636e-05 45:3.9398023e-05 46:0.17106828 47:0.10172953 48:-0.17683691 49:0.20007008 50:4.7577632e-05 51:-0.11502978 52:-0.26148921 53:-1.4386125e-05 54:4.0640403e-05 55:-0.076667212 56:-2.6337071e-05 57:4.0690105e-05 58:6.7476903e-05 59:-1.1373231e-05 60:-1.5728599e-05 61:-4.2782092e-05 62:-0.20404968 63:-3.5238663e-05 64:0.090127192 65:0.15047847 66:-0.22785915 67:0.1555225 68:-0.21744689 69:-0.0099904276 70:-0.00010473256 71:0.14404035 72:-0.040523153 73:0.20630936 74:2.4216728e-05 75:0.15460588 76:-2.260665e-05 77:-0.048805598 78:-0.2578083 79:-0.081275947 80:-0.24004564 81:0.23666155 82:0.065809578 83:-0.10195162 84:-0.19479628 85:-0.090955302 86:-0.096931569 87:0.14622214 88:-0.1471322 89:-0.15595707 90:0.089544758 91:4.4435776e-05 92:1.4494798e-05 93:2.3966733e-05 94:-1.2172991e-05 95:-0.11113682 96:-0.15174533 97:-0.11472181 98:5.6866149e-05 99:3.1080916e-05 100:-0.040049352 101:0.013474101 102:0.020542465 103:-0.20050982 104:-0.11864955 105:-0.1722395 106:-4.9964608e-05 107:-0.089924432 108:2.5934956e-05 109:-0.09182629 110:-0.11183462 111:-0.23584768 112:0.14410536 113:-0.12344971 114:0.24343047 115:0.11026306 116:-0.050874464 117:-0.20701696 118:0.20736374 119:-2.8622691e-05 120:0.090498537 121:2.9107472e-05 122:0.18705988 123:-0.11631599 124:1.017253e-05 125:-0.10498463 126:-0.085564077 127:-0.25689343 128:0.11345122 129:-0.18699743 130:-1.4828875e-05 131:0.13615973 132:0.0862507 133:-0.37405944 134:0.14208895 135:-0.13218863 136:0.10981195 137:-1.761933e-05 138:0.20999518 139:-0.12100822 140:-0.24628615 141:-0.18813425 142:-0.21149002 143:-0.0057474119 144:2.5175717e-05 145:0.038470138 146:-0.0707113 147:-2.7858612e-05 148:0.25391421 149:0.036058694 150:0.1091566 151:-1.4386125e-05 152:0.091454402 153:0.076854557 154:5.7768848e-05 155:0.12915464 156:0.22673397 157:-1.8039791e-05 158:3.468369e-05 159:3.0517578e-05 160:-0.1447539 161:-3.0517578e-05 162:0.1308938 163:2.2949191e-05 164:4.368955e-05 165:-0.051858991 166:-0.16643788 167:0.28545186 168:0.19048171 169:-5.8621303e-05 170:-0.096259721 171:-0.090068989 172:0.2364496 173:4.8785721e-05 174:5.4780729e-05 175:0.19755757 176:-0.28140521 177:-0.040330965 178:-0.25856671 179:-2.5431332e-06 180:-2.4656578e-05 181:0.029147889 182:0.051907614 183:0.32827646 184:0.19787832 185:-3.7376249e-05 186:0.079605609 187:-0.12485214 188:0.060276624 189:0.11338558 190:0.036925554 191:-0.099279955 192:-1.9984223e-05 193:-0.18741126 194:2.3580687e-05 195:-0.16217706 196:-2.0202431e-05 197:-0.29546794 198:-0.41473201 199:5.9122114e-05 200:-1.0172525e-05 201:0.0023196901 202:4.0690105e-05 203:-0.21657668 204:-2.6162223e-05 205:0.22445714 206:-0.0075100493 207:-0.30397978 208:-0.11770934 209:0.1523466 210:2.8577933e-05 211:4.19424e-05 212:0.20846537 213:-0.28490838 214:-0.11896254 215:0.24287815 216:-0.060699821 217:-0.28047898 218:0.080819696 219:0.029437065 220:0.15808357 221:0.25391421 222:-2.0345053e-05 223:0.34597719 224:0.18109959 225:2.7487236e-05 226:-0.15763159 227:-2.0660498e-05 228:0.21238127 229:0.086635225 230:-0.0071370336 231:-0.051088341 232:2.5471178e-05 233:-0.11405718 234:0.13992023 235:4.4011609e-05 236:0.20716088 237:0.27141628 238:4.7168061e-05 239:-0.17027047 240:-0.19772187 241:0.086635239 242:-6.4837395e-06 243:0.095511645 244:0.15724029 245:0.031081973 246:0.020085407 247:1.1234752e-05 248:0.14530417 249:4.9615457e-05 250:0.099165365 251:-0.17678189 252:-0.13482039 253:3.0938532e-05 254:0.21753199 255:-0.12361176 256:2.6183141e-05 257:-0.29149291 258:0.18646041 259:-0.20860951 260:0.34530735 261:0.083880477 262:-0.33956912 263:-0.074594215 264:-0.10342721 265:2.4392863e-05 266:-0.0020016546 267:-0.09084183 268:0.13062568 269:-0.14614062 270:-0.15446416 271:-0.019069487 272:0.068043165 273:-0.11663578 274:3.1353829e-05 275:-0.14101584 276:3.7376249e-05 277:-0.12789188 278:-0.34797728 279:-0.070451155 280:0.089544766 281:-0.072940625 282:0.23196875 283:-0.24182761 284:0.15076746 285:5.2755007e-05 286:0.091055855 287:0.11837437 288:-0.077448025 289:-0.25154287 290:4.1759558e-05 291:0.036179714 292:-0.079746082 293:-5.3466279e-05 294:-0.24757756 295:6.7572684e-05 296:-5.9097034e-05 297:0.17823924 298:0.14089791 299:2.3584031e-05 300:0.0016469089 301:0.010595635 302:4.1787916e-05 303:-0.15079983 304:0.27825177 305:0.11423056 306:0.20709017 307:2.2746461e-05 308:-0.054928333 309:-0.24486019 310:-2.0444151e-05 311:-0.022099774 312:-1.9821748e-05 313:0.20736374 314:-2.8772251e-05 315:0.1308507 316:0.016947787 317:5.9912207e-05 318:-3.0517578e-05 319:0.33797833 320:-0.19358417 321:0.22673166 322:0.0069676014 323:0.1137337 324:3.1303036e-05 325:0.12327903 326:-0.37258673 327:0.18365474 328:0.061802499 329:-0.21911767 330:-4.2757609e-05 331:-2.1505957e-05 332:-2.1669797e-05 333:5.2447347e-05 334:0.068038121 335:0.30696279 336:0.012562838 337:-0.083617233 338:0.11144106 339:-0.11674286 340:0.052438494 341:0.50782311 342:5.5916578e-05 343:-0.2685844 344:-0.11597614 345:-5.2857995e-05 346:-0.14463791 347:0.020542303 348:0.12321024 349:-0.031022966 350:0.18497372 351:0.054564968 352:-3.8735823e-05 353:0.017101515 354:0.20187153 355:0.0017761196 356:0.28410375 357:-0.118682 358:0.24816361 359:0.14781687 360:0.38104102 361:-0.011227695 362:-0.12692489 363:-0.32939324 364:0.18766683 365:-0.086678319 366:5.0013125e-05 367:4.0690105e-05 368:0.14456922 369:1.7982655e-05 370:-0.16217704 371:-0.14622213 372:5.2093437e-05 373:-0.0047430652 374:-0.19027048 375:0.19938405 376:0.094402403 377:-0.14020163 378:0.42070597 379:3.28645e-05 380:-0.34875122 381:-1.6579192e-05 382:0.042696282 383:0.10245252 384:0.27903363 385:0.11422216 386:-0.00050960446 387:0.13994457 388:-3.3594373e-05 389:-4.9834998e-05 390:-0.38065812 391:0.10294487 392:-0.098904662 393:0.12198766 394:-0.17233084 395:0.096022472 396:-0.10964631 397:0.33932069 398:-0.13517009 399:0.23557439 400:-0.19308415 401:0.27160496 402:0.04156604 403:0.13383158 404:0.11944889 405:0.41473058 406:-6.7668334e-05 407:0.22991204 408:-0.13828367 409:-0.22707053 410:0.14249296 411:0.052133795 412:0.1224675 413:6.5417422e-05 414:4.6198278e-05 415:0.24053375 416:-0.064539202 417:-0.30435556 418:3.8178016e-05 419:3.706084e-05 420:4.0480329e-05 421:0.38566634 422:-0.027889863 423:0.20733567 424:0.0028115625 425:0.21759723 426:-0.059297528 427:0.051088367 428:0.14205401 429:0.19346638 430:-0.25872317 431:3.3738452e-05 432:0.18720837 433:-3.7028556e-05 434:4.6616373e-05 435:0.034018572 436:0.086786054 437:-0.16408479 438:-0.084616669 439:-0.12643552 440:0.14126952 441:0.17519529 442:0.37794998 443:-0.24384439 444:0.014937425 445:0.34628278 446:0.1185114 447:0.21411842 448:-0.0026094911 449:1.2458749e-05 450:4.0212402e-05 451:-0.00062266842 452:2.8671577e-05 453:4.4486635e-05 454:-0.29276308 455:-0.0023168423 456:0.19940205 457:0.051145446 458:0.45762241 459:0.14732963 460:3.1810116e-05 461:-0.20001386 462:-0.17396373 463:-0.17651498 464:0.30384007 465:0.086215526 466:0.11563158 467:-0.12896229 468:4.4850734e-05 469:-0.13896775 470:-0.2537179 471:-0.14487356 472:0.35073391 473:-0.013229781 474:6.1422805e-05 475:0.060066123 476:-0.030125204 477:-1.4386129e-05 478:0.29460329 479:-2.8772251e-05 480:-0.12600034 481:-0.01093424 482:0.18249181 483:0.069353022 484:-0.16137859 485:-0.12772594 486:2.3148013e-05 487:0.1048035 488:-0.13666435 489:2.6296559e-05 490:-0.095809214 491:0.12914243 492:0.087656118 493:-0.080240481 494:-0.17431717 495:0.20813753 496:-0.19500899 497:0.27271858 498:-0.076553971 499:0.20633689 500:0.065671548 501:0.18922321 502:-3.0318193e-05 503:0.061311509 504:-0.096579157 505:2.0874735e-05 506:-0.19736856 507:-0.21233469 508:-2.762548e-05 509:0.3799172 510:-0.1905742 511:0.033700105 512:-0.062759928 
0.2157402847028941 1:0.1537981 2:-0.034784291 3:0.055870336 4:-0.13739803 5:0.14790311 6:3.2667118e-05 7:0.090498604 8:-0.0081967805 9:0.076436371 10:0.061631624 11:-0.14447954 12:-0.0063392771 13:0.21057443 14:0.034197226 15:-0.03339415 16:-0.090859205 17:0.14689377 18:0.09725152 19:0.19969551 20:0.1077283 21:0.08408241 22:0.14525665 23:0.071765289 24:-0.055437855 25:-0.070301585 26:0.087389246 27:0.25682822 28:0.49049774 29:-0.10429733 30:0.19333956 31:0.1946951 32:-0.079031065 33:0.066540115 34:-3.7943857e-05 35:0.022704411 36:-0.054995682 37:-0.092690572 38:0.09923856 39:0.14096166 40:-0.045735173 41:-0.01728869 42:-2.2432705e-05 43:0.027927501 44:0.052061509 45:-0.35124549 46:0.17589195 47:0.079644755 48:-0.020159287 49:0.027466653 50:-0.12727399 51:-0.018028634 52:0.023015721 53:-0.0086773559 54:0.089559779 55:0.052328497 56:0.052392535 57:-0.33595818 58:0.029269684 59:-0.0071446043 60:0.011337529 61:-0.014045235 62:-0.082132198 63:3.0570514e-05 64:-0.26447004 65:0.1634592 66:-0.07864435 67:0.17113592 68:-0.10511721 69:4.2402477e-05 70:0.0091810878 71:0.17525144 72:0.057061348 73:0.079581387 74:0.0097968327 75:0.013557178 76:-0.024724489 77:-0.30813852 78:-0.29725438 79:-0.10623079 80:-0.16106677 81:0.11546051 82:0.05387022 83:-0.0045993347 84:-0.064338051 85:-0.01787558 86:-0.035832368 87:0.10976423 88:0.021575749 89:0.13705391 90:0.043190889 91:-0.022789305 92:-0.050489537 93:-0.11701223 94:0.024484284 95:0.19368675 96:-0.17753601 97:-0.034647312 98:-0.0051882821 99:0.12728459 100:-0.1359994 101:0.038699515 102:0.0700652 103:-0.2035889 104:-0.041429557 105:-0.022003073 106:-6.7084602e-06 107:0.1396879 108:0.058825675 109:-0.24924318 110:0.055916112 111:-0.097390138 112:1.9179153e-05 113:0.14875364 114:0.12242099 115:-0.1394278 116:-0.095168613 117:-0.33018783 118:0.032266755 119:-0.07805489 120:-0.063660614 121:-0.12217509 122:0.018026767 123:-0.027606217 124:-0.013927641 125:-0.22665493 126:0.030029334 127:0.12578012 128:0.084384955 129:-0.31405687 130:-0.016549982 131:0.026518598 132:0.11294732 133:-0.10800976 134:-0.10989556 135:0.0081800474 136:-0.19427444 137:4.3605622e-05 138:-0.044135701 139:-0.11526915 140:-0.11981399 141:-0.1339386 142:-0.09068881 143:0.18679734 144:-2.950745e-05 145:0.14150582 146:0.13787246 147:-0.0027601637 148:0.34421718 149:-0.13690229 150:0.19045651 151:-0.20375353 152:0.054202382 153:-0.039200757 154:4.3008258e-05 155:0.058255989 156:0.048802271 157:2.5836371e-05 158:0.0044870502 159:4.2326144e-05 160:0.27455109 161:0.023564611 162:0.02609136 163:0.13839206 164:-0.0029639974 165:-0.053644534 166:-0.18158269 167:0.19882242 168:0.079184718 169:0.098060645 170:-0.097747229 171:-0.30396786 172:-0.10271628 173:2.0660502e-05 174:0.18132219 175:0.099026009 176:-0.07192935 177:-0.025700023 178:-0.076988123 179:-0.044274621 180:0.004545745 181:-0.2356123 182:0.066575006 183:0.07236173 184:0.11865438 185:0.043840356 186:-0.038615227 187:-0.038526714 188:0.015813313 189:0.046122886 190:-0.11727425 191:0.12008955 192:-3.1312709e-05 193:-0.033833019 194:-0.087661207 195:-0.053367384 196:0.030794604 197:-0.40096638 198:-0.33000913 199:4.6574343e-05 200:0.055861969 201:0.025217086 202:0.0035640842 203:-0.15180439 204:0.021778699 205:0.082190625 206:-0.067108102 207:-0.37985554 208:-0.23131074 209:-0.26608801 210:-0.23669676 211:-0.11473465 212:0.29031438 213:-0.064751506 214:-0.013027847 215:0.075754352 216:-0.1985994 217:-0.20657228 218:-0.076981835 219:0.08177235 220:0.090051182 221:0.34661323 222:3.0182036e-05 223:-0.10181815 224:0.12723275 225:0.027482973 226:0.023599869 227:-0.10172027 228:0.269916 229:0.020631282 230:0.025565971 231:0.0076312269 232:0.12545851 233:-0.0029495014 234:-0.096978121 235:0.010202765 236:0.054678366 237:0.026771497 238:3.6005727e-05 239:-0.039488912 240:-0.055603243 241:-0.15061055 242:-0.0068877856 243:-0.15972961 244:-0.16512822 245:0.021240175 246:0.1463241 247:0.17980035 248:0.045444258 249:0.0026487191 250:0.020182904 251:-0.017493384 252:-0.058114555 253:-0.17214863 254:0.18966603 255:-0.052689482 256:-0.0026491904 257:-0.15135726 258:0.27021182 259:-0.096335083 260:0.13963516 261:-0.18895495 262:-0.31752703 263:-0.030026304 264:0.084149495 265:-0.17575826 266:0.077018544 267:0.053838421 268:0.11130232 269:-0.12721431 270:0.19357842 271:-0.11977796 272:0.062615521 273:0.13888967 274:4.0708252e-05 275:-0.20940958 276:4.9468646e-05 277:-0.25812903 278:-0.28861254 279:-0.3384254 280:-0.048094273 281:0.015416393 282:0.19248986 283:-0.064862691 284:0.015231417 285:1.6191816e-05 286:0.064603321 287:8.042085e-06 288:0.024583347 289:-0.1115462 290:3.1557531e-05 291:0.11210712 292:-0.076734513 293:-4.8790869e-05 294:-0.17016944 295:-0.056277718 296:-1.4068694e-05 297:-0.13578868 298:0.032262683 299:2.3244147e-05 300:0.028818872 301:-0.0011256438 302:-0.095941991 303:-0.19367413 304:-0.09114784 305:-0.095339119 306:-0.091670804 307:0.0022496576 308:-0.12512381 309:-0.037770886 310:0.29792166 311:0.089631051 312:1.5377536e-05 313:0.029049207 314:2.2691414e-05 315:0.013905454 316:-0.083209977 317:2.1691289e-05 318:0.026761802 319:0.11767861 320:0.055596504 321:-0.045840468 322:-0.055506237 323:-0.17406461 324:-0.012322715 325:0.21020487 326:-0.17644078 327:0.15436999 328:0.053222131 329:-0.057521403 330:2.8191967e-05 331:-0.0039772191 332:-0.02748294 333:0.0009088965 334:0.14905195 335:0.10137167 336:4.0530849e-05 337:0.10002783 338:0.026612738 339:-0.14780825 340:0.055191606 341:0.42573422 342:-0.017859861 343:-0.10351411 344:-0.10485461 345:-0.0076833437 346:0.077934459 347:-0.030542251 348:0.021765718 349:-0.10430427 350:0.16903199 351:-0.078135744 352:-0.014217952 353:0.33196256 354:0.077530563 355:-0.10440585 356:0.060172014 357:-0.04994854 358:0.14301576 359:-0.25138235 360:0.1443111 361:0.058954619 362:-0.08950834 363:-0.16793662 364:0.048663527 365:-0.069143936 366:-0.033732865 367:0.097362228 368:0.11192049 369:-0.12715577 370:0.14810961 371:-0.10607823 372:6.4229316e-06 373:0.030788803 374:-0.029787051 375:0.014251955 376:0.094433896 377:0.089246698 378:0.32258824 379:0.12711528 380:-0.074698955 381:0.15736695 382:0.11701223 383:0.0082745198 384:0.11666573 385:0.015892619 386:-0.086109564 387:0.25924021 388:0.0048828763 389:-0.033081591 390:0.18710303 391:0.154485 392:-0.03578743 393:0.14085697 394:-0.10488328 395:0.041874204 396:-0.16616575 397:0.19119649 398:-0.068201154 399:0.11395089 400:0.094109617 401:0.10546782 402:0.030349674 403:-0.22560899 404:0.053746361 405:0.33013326 406:0.15234743 407:0.034181803 408:-0.026531022 409:0.1881696 410:0.062100425 411:-0.029132467 412:0.022895148 413:-1.2661917e-05 414:0.022003064 415:0.032136071 416:0.016424496 417:-0.052089937 418:0.024389237 419:0.042397562 420:-0.0258474 421:0.29967436 422:-0.11519773 423:0.062664635 424:-0.022263059 425:0.050779607 426:-0.10590108 427:0.0079172393 428:0.029265847 429:-0.026847275 430:-0.10091281 431:0.076380096 432:0.21746553 433:-0.027270464 434:-1.9451145e-05 435:-0.068410441 436:0.090757102 437:-0.30030224 438:-0.067907475 439:-0.13503392 440:-0.15742521 441:0.062907405 442:0.27429789 443:-0.1599139 444:0.012095033 445:0.31027794 446:0.11736611 447:0.22121209 448:-0.062666193 449:-0.080355018 450:-0.076380081 451:-0.096801929 452:-3.2561878e-05 453:0.017859904 454:0.1179098 455:-0.12192249 456:-0.020473544 457:0.19358025 458:0.26407 459:0.34442037 460:0.060081072 461:-0.08543583 462:-0.085561246 463:-0.016668189 464:0.22996785 465:0.018238457 466:0.13579285 467:-0.12322203 468:5.6638226e-05 469:0.05004428 470:-0.12422671 471:0.094243042 472:0.11350724 473:0.040068973 474:0.033296391 475:0.060090717 476:-0.048139662 477:0.010529107 478:0.20778134 479:1.7710861e-05 480:-0.061112922 481:0.012408528 482:-0.080038764 483:0.031638484 484:0.16136697 485:-0.16340838 486:0.0084399171 487:0.097156383 488:-0.023705088 489:-2.0589852e-05 490:-0.25484082 491:0.026244234 492:2.7142418e-05 493:-0.14641765 494:-0.029521069 495:-0.1056355 496:-0.12602094 497:0.11450685 498:-0.048309404 499:0.09172418 500:0.019869352 501:0.037072513 502:2.1322234e-05 503:0.34591484 504:-0.02611101 505:0.11066556 506:-0.028189743 507:-0.16471127 508:0.0082235672 509:-0.21285811 510:-0.085782267 511:-0.089453749 512:-0.11562418 
1 1:0.22141285 2:-0.05861754 3:-2.6913975e-05 4:-0.26855749 5:-0.19570376 6:2.8772251e-05 7:0.13596492 8:3.0517578e-05 9:-0.084555149 10:-0.057091013 11:-0.20513287 12:-0.090216786 13:0.28150183 14:0.14771821 15:-0.18344823 16:-0.082803778 17:-0.15540011 18:-0.11699697 19:-0.14256902 20:0.18671498 21:0.088921726 22:0.1001117 23:-0.091486067 24:-0.019497512 25:-0.18273751 26:0.16314934 27:0.0043943841 28:0.17506152 29:-0.12712818 30:0.26468343 31:-0.094496191 32:-0.14951974 33:2.8772249e-05 34:0.072027013 35:1.2763248e-05 36:0.11033191 37:0.057216186 38:0.13485187 39:0.18019386 40:-0.14568645 41:-2.4917497e-05 42:0.062670097 43:0.22909962 44:4.2857613e-05 45:4.7168065e-05 46:0.2058215 47:0.10987425 48:-0.1342611 49:0.19182988 50:4.4341014e-05 51:-0.069606341 52:-0.214145 53:-3.8062106e-05 54:-1.0172524e-05 55:-0.05448113 56:-3.1146876e-05 57:-2.0345051e-05 58:7.4057112e-05 59:1.0172526e-05 60:-7.1930644e-06 61:-1.9031053e-05 62:-0.21254063 63:2.0345053e-05 64:0.13066874 65:0.19162416 66:-0.2159325 67:0.082540832 68:-0.23242584 69:5.3345178e-05 70:-0.000105716 71:0.13501671 72:-0.062959038 73:0.16672871 74:4.2623185e-05 75:0.11629098 76:2.6724825e-05 77:-0.020322865 78:-0.26728672 79:-0.086276956 80:-0.23959787 81:0.26112598 82:0.086640552 83:-0.06149907 84:-0.23080651 85:-0.10508199 86:-0.05637724 87:0.13877921 88:-0.13096991 89:-0.1956391 90:0.075369306 91:3.4874211e-05 92:1.6084176e-05 93:-1.4815243e-05 94:3.8062106e-05 95:-0.10361263 96:-0.098621719 97:-0.087444641 98:4.4341014e-05 99:1.8409692e-05 100:-0.02130945 101:3.0090738e-05 102:5.9315513e-05 103:-0.20727168 104:-0.11718062 105:-0.16486533 106:2.1277367e-05 107:-0.069236822 108:4.6616373e-05 109:-0.10187491 110:-0.120651 111:-0.25390303 112:0.13392253 113:-0.15927482 114:0.24304859 115:0.086561948 116:-0.017820455 117:-0.16672871 118:0.19444497 119:-3.8062106e-05 120:0.073455304 121:2.0345051e-05 122:0.19163103 123:-0.13022465 124:-2.4917499e-05 125:-0.15604855 126:-0.1406122 127:-0.24136133 128:0.11033189 129:-0.17956951 130:-2.09712e-05 131:0.13699493 132:0.10415497 133:-0.37100756 134:0.17323822 135:-0.1263545 136:0.15461159 137:-1.7619332e-05 138:0.19576851 139:-0.05874294 140:-0.28182682 141:-0.17334346 142:-0.18434155 143:2.6913975e-05 144:6.1035156e-05 145:0.012692647 146:-0.13220435 147:-2.0345051e-05 148:0.21973275 149:0.068647385 150:0.098730877 151:-4.19424e-05 152:0.042879261 153:0.054481126 154:3.596531e-05 155:0.1512457 156:0.25757694 157:2.8319113e-05 158:5.0862629e-05 159:3.2168351e-05 160:-0.15013108 161:-3.2168351e-05 162:0.11717738 163:-2.6592908e-05 164:2.8643766e-05 165:-0.026302997 166:-0.19460669 167:0.27737316 168:0.21114522 169:-2.0345053e-05 170:-0.094831377 171:-0.047410212 172:0.24416682 173:5.6638226e-05 174:5.3827949e-05 175:0.20129684 176:-0.30325752 177:-0.023803949 178:-0.25437903 179:3.3546206e-05 180:-4.3605622e-05 181:0.071488589 182:0.026303124 183:0.33815247 184:0.17522001 185:2.6913975e-05 186:0.079373747 187:-0.1313923 188:0.034634773 189:0.12047545 190:0.070181869 191:-0.10973535 192:2.3308185e-05 193:-0.19225104 194:2.5590376e-05 195:-0.17948453 196:-3.3993991e-05 197:-0.30694112 198:-0.44395247 199:5.1933865e-05 200:3.3738452e-05 201:3.8995833e-05 202:-4.9834998e-05 203:-0.20513289 204:4.3673874e-05 205:0.24012744 206:-2.5934954e-05 207:-0.32364896 208:-0.10341033 209:0.13220571 210:-1.6481375e-05 211:2.4917499e-05 212:0.19016996 213:-0.31170139 214:-0.13710539 215:0.20172307 216:-0.034887221 217:-0.32585868 218:0.027011152 219:0.020454194 220:0.23304248 221:0.21973275 222:5.5717221e-05 223:0.30648261 224:0.12122641 225:3.7296186e-06 226:-0.14256904 227:-1.1085252e-05 228:0.19546743 229:0.085964739 230:-0.015427291 231:-0.14442489 232:-2.785861e-05 233:-0.10845827 234:0.12255492 235:5.3345178e-05 236:0.23150104 237:0.31160235 238:-2.0345053e-05 239:-0.17180522 240:-0.18220249 241:0.085964739 242:1.7619332e-05 243:0.12709388 244:0.089616895 245:0.087365635 246:0.039446019 247:3.5054647e-05 248:0.15742035 249:3.4727964e-05 250:0.11571831 251:-0.15583327 252:-0.07852187 253:3.5238663e-05 254:0.14551558 255:-0.12788031 256:1.5983334e-05 257:-0.28083163 258:0.19177605 259:-0.13706084 260:0.30689669 261:-0.051800568 262:-0.36638319 263:-0.070105903 264:-0.092720561 265:4.5207693e-05 266:5.640939e-05 267:-0.079218119 268:0.10368399 269:-0.097813472 270:-0.09024033 271:3.2168351e-05 272:0.088865995 273:-0.081762165 274:1.2458745e-05 275:-0.14782977 276:2.2746461e-05 277:-0.11769087 278:-0.36894453 279:-0.16680945 280:0.075369313 281:-0.082139663 282:0.2358214 283:-0.1463069 284:0.16711691 285:3.7028556e-05 286:0.054523718 287:0.12118986 288:-0.049865384 289:-0.15533744 290:4.1632858e-05 291:0.011224676 292:-0.10900535 293:-5.3526728e-05 294:-0.24981801 295:5.0862633e-05 296:-4.0690105e-05 297:0.13828994 298:0.095536187 299:5.8902012e-09 300:3.5603844e-05 301:4.9313148e-05 302:4.19424e-05 303:-0.10379785 304:0.26642928 305:0.11557759 306:0.19570376 307:1.6869226e-05 308:-0.025965961 309:-0.21608469 310:-3.3738452e-05 311:-0.044597257 312:1.8688124e-05 313:0.19444498 314:1.7619332e-05 315:0.1429354 316:1.9031055e-05 317:3.4496716e-05 318:-1.4386125e-05 319:0.35040054 320:-0.15796332 321:0.25757694 322:-3.7252903e-09 323:0.19016387 324:-2.6913973e-05 325:0.10758803 326:-0.34569359 327:0.19764698 328:-0.0057697706 329:-0.20888828 330:-3.7454174e-05 331:-2.0971202e-05 332:-4.7038793e-05 333:5.9042293e-05 334:0.12427115 335:0.30005583 336:3.3738452e-05 337:0.064523473 338:-0.027877178 339:0.062703207 340:0.076255016 341:0.54604149 342:6.0020055e-05 343:-0.25185058 344:-0.075797834 345:-5.5717221e-05 346:-0.12318691 347:2.5105097e-05 348:-0.04785683 349:-0.014438957 350:0.20500736 351:0.08838623 352:-3.5238663e-05 353:-4.9574755e-05 354:0.20040992 355:2.4994866e-05 356:0.30754068 357:-0.12287087 358:0.25879523 359:0.12625892 360:0.40513858 361:0.044476349 362:-0.086625382 363:-0.32057962 364:0.14177467 365:-0.061598204 366:1.7619332e-05 367:-2.4917497e-05 368:0.17866991 369:-2.2746457e-05 370:-0.17948453 371:-0.13877922 372:6.0221762e-05 373:-5.4306431e-05 374:-0.10721502 375:0.19834957 376:0.10354526 377:-0.15535128 378:0.45631438 379:-2.7858609e-05 380:-0.32867214 381:-4.8252528e-05 382:0.12281086 383:0.065698713 384:0.29605743 385:0.10849224 386:4.5776364e-05 387:0.12255493 388:-3.0090736e-05 389:-6.7476903e-05 390:-0.37431771 391:0.061647497 392:-0.11054656 393:0.16724372 394:-0.13920556 395:0.11592069 396:-0.086885355 397:0.3520017 398:-0.14060083 399:0.24725285 400:-0.24156059 401:0.22308613 402:-0.11027598 403:0.10085361 404:0.045554545 405:0.44395247 406:-6.9739326e-05 407:0.22734158 408:-0.11155874 409:-0.26105434 410:0.14951976 411:0.14844809 412:0.15427576 413:5.2612711e-05 414:5.0862629e-05 415:0.25321651 416:-0.068474993 417:-0.31797472 418:4.3753691e-05 419:4.7943679e-05 420:3.5133835e-05 421:0.42826572 422:0.14128605 423:0.19892731 424:4.4341017e-05 425:0.25711778 426:0.087887451 427:0.1444249 428:0.12795621 429:0.2026659 430:-0.26798564 431:2.6913973e-05 432:0.16890158 433:3.0517578e-05 434:2.4917499e-05 435:0.083976068 436:0.070158795 437:-0.10548168 438:-0.098712131 439:-0.082803793 440:-0.09202069 441:0.21101242 442:0.41667163 443:-0.17646261 444:0.065289497 445:0.37675127 446:0.067260236 447:0.23045774 448:5.0862641e-06 449:3.8062106e-05 450:8.3363457e-06 451:2.634178e-09 452:3.5483401e-05 453:4.9834998e-05 454:-0.30714941 455:-3.8149214e-05 456:0.19182986 457:0.024080534 458:0.48848739 459:0.1785434 460:2.2238337e-06 461:-0.13488212 462:-0.16970426 463:-0.15583327 464:0.30679503 465:0.099520363 466:0.089853525 467:-0.14200531 468:2.6913975e-05 469:0.058882356 470:-0.27621844 471:-0.16096739 472:0.34701228 473:-2.4917499e-05 474:6.1772451e-05 475:0.032382991 476:-0.075021371 477:-3.2168347e-05 478:0.3065109 479:2.8772249e-05 480:-0.089208521 481:1.4352197e-05 482:0.16070515 483:0.05230739 484:-0.16484398 485:-0.098797843 486:4.5368357e-05 487:0.090422273 488:-0.14423384 489:-1.6084176e-05 490:-0.1079562 491:0.1512457 492:0.094418779 493:-0.032336961 494:-0.17041916 495:0.1934358 496:-0.20970835 497:0.26954266 498:-0.10896707 499:0.15314229 500:-0.086897679 501:0.17766955 502:2.5367657e-05 503:0.064181387 504:-0.086560108 505:-3.8271821e-05 506:-0.12632826 507:-0.19957396 508:3.7376249e-05 509:0.39940089 510:-0.21114521 511:0.091363743 512:-0.047484834 
0.76542569091246 1:0.26492569 2:-0.11771379 3:-4.9313148e-05 4:-0.25254309 5:-0.16059825 6:-3.6677564e-05 7:0.21077584 8:2.372075e-05 9:0.12662968 10:-0.12671047 11:-0.18664202 12:-0.079871118 13:0.274037 14:0.14179039 15:-0.15535375 16:-0.13107768 17:-0.12039986 18:-0.13237981 19:-0.1024733 20:0.22309197 21:0.12838869 22:0.1532675 23:-0.18291199 24:-0.055475805 25:-0.13894603 26:0.23111063 27:0.078105837 28:0.27224708 29:-0.22651313 30:0.24127999 31:-0.099489026 32:-0.15720388 33:0.032695819 34:0.032664552 35:1.286086e-05 36:0.10126085 37:-0.065166749 38:0.13528809 39:0.2096009 40:-0.15172978 41:8.4346148e-06 42:0.031005537 43:0.21236482 44:0.013582895 45:-0.050244275 46:0.10809182 47:0.10067642 48:-0.15682912 49:0.16174202 50:-3.2368778e-05 51:-0.10593905 52:-0.22132379 53:-6.5334236e-05 54:3.4898632e-05 55:-0.10081698 56:-4.2057891e-05 57:-0.045222223 58:7.6463301e-05 59:-2.7508175e-05 60:3.091239e-05 61:-1.6869226e-05 62:-0.18450941 63:-5.268356e-09 64:0.16508439 65:0.22428624 66:-0.19019425 67:0.13974507 68:-0.21300805 69:4.6616369e-05 70:-7.8136662e-05 71:0.19138481 72:0.065947525 73:0.21255192 74:-1.3485252e-05 75:0.1696554 76:-2.1279919e-05 77:-0.08518406 78:-0.25185108 79:-0.11271059 80:-0.25605643 81:0.27946261 82:0.098058403 83:-0.091724761 84:-0.21869513 85:-0.094269209 86:-0.056742709 87:0.22349001 88:-0.11962928 89:-0.073707484 90:0.097071275 91:4.9724011e-05 92:-3.3304343e-05 93:-0.015480374 94:3.806211e-05 95:-0.10894068 96:-0.15046552 97:-0.051537361 98:5.1869909e-05 99:2.4846044e-05 100:-0.091541857 101:0.0098642949 102:0.040103931 103:-0.17524067 104:-0.1188982 105:-0.17360191 106:2.5872536e-05 107:0.067045718 108:0.0065661105 109:-0.10352618 110:-0.09603481 111:-0.19587347 112:0.16441384 113:0.054818589 114:0.21792147 115:0.14025378 116:-0.091455124 117:-0.22655301 118:0.18408464 119:-0.012618656 120:0.12811039 121:0.010278981 122:0.18906687 123:-0.11707708 124:-3.4496716e-05 125:-0.15181729 126:-0.10068437 127:-0.27918339 128:0.11041454 129:-0.16397791 130:-0.011931634 131:0.09889777 132:0.14853464 133:-0.33683497 134:0.10068959 135:-0.13425225 136:0.08985655 137:-7.1930604e-06 138:0.20143898 139:-0.074128002 140:-0.22392261 141:-0.19945249 142:-0.17806172 143:-0.0091901217 144:6.2707666e-05 145:0.060254272 146:-0.13625921 147:2.5934954e-05 148:0.23943374 149:0.10655578 150:0.12620272 151:-0.03188863 152:-0.048323046 153:0.10039722 154:-1.9031051e-05 155:0.16078331 156:0.22903353 157:-5.0862536e-06 158:-2.2746459e-05 159:6.0181475e-05 160:-0.12019505 161:3.0090738e-05 162:0.091300212 163:0.058680825 164:2.5008581e-05 165:-0.09417396 166:-0.13153972 167:0.27814054 168:0.16612068 169:0.068965264 170:-0.13076159 171:-0.16396689 172:0.18683314 173:5.3947966e-05 174:5.6409386e-05 175:0.17546329 176:-0.26029921 177:-0.073080704 178:-0.25196603 179:7.193064e-06 180:-3.7977054e-05 181:-0.054377746 182:0.09417399 183:0.32869416 184:0.17580704 185:0.028159644 186:-0.033689607 187:-0.089523733 188:0.05446431 189:0.13937493 190:0.10976719 191:-0.099301741 192:-0.010574443 193:-0.18981521 194:0.019782057 195:-0.13631406 196:2.3790819e-05 197:-0.32230407 198:-0.41693452 199:6.3391934e-05 200:1.6084176e-05 201:-0.0055852081 202:-2.8772251e-05 203:-0.18720593 204:2.8881075e-05 205:0.19822839 206:-0.0063977446 207:-0.33019269 208:-0.18980604 209:0.15672222 210:-0.062945403 211:-0.016823612 212:0.20209792 213:-0.27725077 214:-0.11766006 215:0.18915571 216:-0.12741488 217:-0.29586673 218:0.030952597 219:0.10888486 220:0.26260859 221:0.23943372 222:4.255473e-05 223:0.31594357 224:0.18419629 225:-1.7858245e-05 226:-0.13560598 227:-0.025178816 228:0.21879263 229:0.091383137 230:-0.017625442 231:-0.056307044 232:3.3576438e-05 233:-0.15026221 234:0.15175502 235:1.8338786e-05 236:0.22654295 237:0.23721126 238:3.1353833e-05 239:-0.17994857 240:-0.16099234 241:0.091383152 242:4.2249674e-05 243:0.099275067 244:0.13467884 245:0.033592738 246:0.021614265 247:0.022063836 248:0.15165526 249:0.036354464 250:0.11411736 251:-0.15044953 252:-0.078883097 253:0.043205112 254:0.19513376 255:-0.14717942 256:-0.036354452 257:-0.25772163 258:0.14717676 259:-0.18758371 260:0.34593451 261:-0.093920968 262:-0.33219051 263:-0.1240971 264:-0.12223917 265:0.017897317 266:5.9858208e-05 267:-0.11418693 268:0.090838388 269:-0.13653003 270:0.12111857 271:-0.034594137 272:0.056598406 273:-0.091860406 274:-3.9233521e-05 275:-0.20422839 276:-2.0345053e-05 277:-0.18596299 278:-0.38013601 279:-0.09445563 280:0.097071275 281:-0.084515691 282:0.19978175 283:-0.19541639 284:0.13980509 285:2.9657756e-05 286:0.083960637 287:0.12457349 288:-0.050502677 289:-0.17920737 290:4.7193764e-05 291:0.069776893 292:-0.14175576 293:-5.8932645e-05 294:-0.23270582 295:-0.022183413 296:-3.596531e-05 297:0.18077622 298:0.12036455 299:-4.9834998e-05 300:0.0080050593 301:4.9378679e-05 302:3.2168351e-05 303:-0.14099744 304:0.21703485 305:0.081654608 306:0.16034612 307:1.3214499e-05 308:-0.08486601 309:-0.23246287 310:0.030901477 311:-0.023391485 312:-1.9616762e-05 313:0.17810762 314:-4.605807e-05 315:0.12951241 316:0.040229198 317:4.8519858e-05 318:0.021781577 319:0.30784613 320:-0.16569501 321:0.22593726 322:9.5155256e-06 323:0.12709321 324:-2.9657758e-05 325:0.14975354 326:-0.37899438 327:0.19189788 328:-0.081736244 329:-0.2340717 330:-3.2556283e-05 331:-3.1146872e-05 332:-7.8628309e-06 333:-1.2967479e-05 334:-0.081923164 335:0.29137504 336:1.7619339e-05 337:-0.043676384 338:0.053328808 339:-0.12871262 340:0.079261951 341:0.50435668 342:6.0040653e-05 343:-0.24644284 344:-0.1278699 345:0.013938665 346:-0.091553755 347:0.042778999 348:0.064713657 349:-0.10928643 350:0.23174822 351:0.030993924 352:-0.014243674 353:0.078408852 354:0.19830433 355:0.011950403 356:0.27603704 357:-0.149763 358:0.2414488 359:0.10394812 360:0.38921157 361:0.088712759 362:-0.11389885 363:-0.3863219 364:0.19230707 365:-0.10367281 366:-0.009390139 367:0.035021808 368:0.17942426 369:-0.033777762 370:-0.13654891 371:-0.22349001 372:2.2532202e-05 373:0.025446383 374:-0.16212238 375:0.17309123 376:0.13449885 377:-0.11137414 378:0.44702467 379:0.031980112 380:-0.28345963 381:0.020387059 382:0.052008811 383:0.086515628 384:0.27346864 385:0.11156069 386:0.02815965 387:0.15810943 388:-3.7028556e-05 389:-0.04320519 390:-0.31927624 391:0.094960704 392:-0.089617096 393:0.13121928 394:-0.1370953 395:0.14903907 396:-0.073865034 397:0.36576915 398:-0.14091657 399:0.25325313 400:-0.27204764 401:0.29816169 402:0.063766539 403:0.121271 404:0.10976907 405:0.41615725 406:0.0069272886 407:0.19117771 408:-0.12351198 409:-0.20679007 410:0.15720388 411:0.059460454 412:0.1528208 413:5.1116313e-05 414:0.00030652911 415:0.25618336 416:-0.029628785 417:-0.26833358 418:3.9912786e-05 419:4.5678436e-05 420:-0.007940012 421:0.42750731 422:0.11558207 423:0.20800868 424:4.6616373e-05 425:0.23313645 426:-0.070161447 427:0.056307033 428:0.12083758 429:0.10491227 430:-0.25645193 431:0.027220959 432:0.18826815 433:2.09712e-05 434:-3.2168351e-05 435:0.049847767 436:0.093256019 437:-0.14114238 438:-0.1316926 439:-0.1243173 440:0.091846958 441:0.20942785 442:0.39159295 443:-0.19881827 444:0.025749441 445:0.36383414 446:0.10952801 447:0.2587567 448:0.0098645696 449:-0.032944251 450:-0.027220875 451:-4.1671676e-05 452:2.5995392e-05 453:3.2168351e-05 454:-0.2352078 455:-0.029468173 456:0.15782559 457:0.10616022 458:0.47897425 459:0.17961378 460:-2.2943799e-05 461:-0.21055855 462:-0.15648954 463:-0.15044951 464:0.32305345 465:0.10790583 466:0.14424235 467:-0.20064974 468:-8.8096676e-06 469:-0.035012562 470:-0.23493822 471:-0.1274437 472:0.36632591 473:-0.012729344 474:5.9301881e-05 475:0.098485969 476:-0.033403918 477:-4.492066e-05 478:0.26301193 479:2.4917499e-05 480:-0.14037609 481:2.505476e-05 482:0.12900788 483:0.098309182 484:0.058348324 485:-0.10278773 486:5.4370863e-05 487:0.077847332 488:-0.10020154 489:1.8514276e-05 490:-0.10912009 491:0.16078331 492:0.10688882 493:0.074123263 494:-0.15256882 495:0.17185037 496:-0.19358499 497:0.26846012 498:-0.13079004 499:0.18836738 500:-0.066179924 501:0.18228708 502:-3.7598944e-05 503:0.09764117 504:-0.12712635 505:0.016174214 506:-0.21607119 507:-0.17524627 508:-2.6748256e-05 509:0.42276549 510:-0.16268851 511:-0.055857569 512:-0.16407369 
1 1:0.23727649 2:-0.041444361 3:-3.596531e-05 4:-0.27112958 5:-0.16002235 6:2.8772249e-05 7:0.11263585 8:3.5330311e-05 9:0.072696254 10:-0.034999359 11:-0.16715088 12:-0.085390523 13:0.29534823 14:0.19251774 15:-0.19424701 16:-0.064558595 17:-0.19905382 18:-0.08107055 19:-0.10632011 20:0.22049107 21:0.066808753 22:0.068679266 23:-0.16174293 24:-0.022712322 25:-0.22748938 26:0.15778464 27:0.0058046742 28:0.14796245 29:-0.095681831 30:0.24277717 31:-0.073523201 32:-0.13239194 33:-2.0345053e-05 34:0.039433207 35:-3.648565e-05 36:0.087699972 37:0.11559831 38:0.13950554 39:0.14879389 40:-0.14056726 41:4.730498e-05 42:0.016322646 43:0.18641177 44:-3.5965345e-06 45:4.70737e-05 46:0.19652168 47:0.1226096 48:-0.098305799 49:0.18144163 50:2.7272046e-05 51:-0.042044625 52:-0.17871754 53:-5.1994448e-05 54:3.9846906e-05 55:-0.037349839 56:-2.5841269e-05 57:5.7544497e-05 58:9.1269729e-05 59:5.2857999e-05 60:3.2256194e-05 61:3.9398026e-05 62:-0.24188159 63:-2.0345053e-05 64:0.074440368 65:0.20897691 66:-0.25592741 67:0.061243057 68:-0.23930795 69:-0.013511012 70:-9.0985843e-05 71:0.11154695 72:-0.078516044 73:0.14035596 74:5.8625181e-05 75:0.087802865 76:-1.2248055e-05 77:-0.020464191 78:-0.27943626 79:-0.1378869 80:-0.242109 81:0.24466014 82:0.12058131 83:-0.074061729 84:-0.23080017 85:-0.13414377 86:-0.044654366 87:0.10862666 88:-0.10870168 89:-0.14273536 90:0.075617723 91:8.418172e-06 92:2.4607341e-05 93:2.68568e-05 94:3.6323181e-05 95:-0.079252608 96:-0.068477981 97:-0.18882522 98:5.1869909e-05 99:-3.4789657e-05 100:-0.020446945 101:0.02955089 102:6.3527405e-05 103:-0.29970363 104:-0.10395439 105:-0.11895422 106:-3.4509892e-05 107:0.035127353 108:0.0012077333 109:-0.089276753 110:-0.1012876 111:-0.26285708 112:0.10160755 113:-0.17732525 114:0.22468895 115:0.061391789 116:-0.016411383 117:-0.14035596 118:0.22926141 119:-0.0033105984 120:0.047900252 121:2.9766592e-05 122:0.14832114 123:-0.17988546 124:-3.6994425e-05 125:-0.10648743 126:-0.06869211 127:-0.16666245 128:0.092931755 129:-0.15351655 130:1.9031053e-05 131:0.1857924 132:0.073727496 133:-0.38127086 134:0.183404 135:-0.088684291 136:0.14067477 137:-3.3158376e-05 138:0.13813891 139:-0.03907682 140:-0.30694214 141:-0.18091604 142:-0.13494919 143:-0.026966901 144:3.0517578e-05 145:0.010695656 146:-0.090071425 147:1.9451216e-05 148:0.18791489 149:0.042048585 150:0.075457335 151:-2.4917497e-05 152:-0.14210083 153:0.035697442 154:5.4662542e-05 155:0.17026673 156:0.26043504 157:-2.8468596e-05 158:2.6672589e-05 159:4.9834998e-05 160:-0.12182658 161:-2.6913975e-05 162:0.1657684 163:-1.8456878e-05 164:2.7582464e-05 165:-0.029141389 166:-0.1691685 167:0.2257807 168:0.25837278 169:1.4386122e-05 170:-0.084537394 171:-0.04958098 172:0.21889573 173:4.370747e-05 174:5.7544497e-05 175:0.20236701 176:-0.32076466 177:-0.024151774 178:-0.26249716 179:1.7341845e-05 180:-2.2097458e-05 181:0.033539232 182:0.030375879 183:0.33057761 184:0.15839429 185:3.5238663e-05 186:0.14058825 187:-0.10298225 188:0.13061227 189:0.074842878 190:0.039546438 191:-0.051056165 192:3.560384e-05 193:-0.14863361 194:3.3645298e-05 195:-0.15252571 196:4.4792727e-05 197:-0.32457393 198:-0.44757727 199:5.0274841e-05 200:1.9031057e-05 201:2.0800077e-05 202:-4.9834998e-05 203:-0.16715088 204:3.3263281e-05 205:0.26087528 206:-0.0066772876 207:-0.30905342 208:-0.084510319 209:0.090992227 210:-0.010329715 211:-0.00057949923 212:0.1668407 213:-0.31511518 214:-0.17990531 215:0.17163609 216:-0.036971036 217:-0.32869944 218:0.038868278 219:0.021919819 220:0.25620893 221:0.18791488 222:-2.2746461e-05 223:0.29986927 224:0.090186842 225:-2.1809359e-05 226:-0.10632011 227:-0.013335763 228:0.16319728 229:0.086265579 230:-0.0087442547 231:-0.074911498 232:-4.771338e-05 233:-0.068862244 234:0.07476259 235:4.3158372e-05 236:0.22991748 237:0.29369244 238:-6.1035156e-05 239:-0.1434443 240:-0.17794168 241:0.086265609 242:1.137323e-05 243:0.13827308 244:0.071090356 245:0.045712773 246:0.015719742 247:2.4103256e-05 248:0.13550715 249:3.8566246e-05 250:0.094201751 251:-0.1579435 252:-0.061179642 253:7.0477334e-05 254:0.12452949 255:-0.11717316 256:3.4845722e-05 257:-0.25346094 258:0.17615129 259:-0.098720655 260:0.28383142 261:-0.060807224 262:-0.38409662 263:-0.050930381 264:-0.054555967 265:3.6323181e-05 266:3.8189333e-05 267:-0.056233779 268:0.084276691 269:-0.065181807 270:-0.082965843 271:4.9834995e-05 272:0.21789499 273:-0.055850707 274:3.6010239e-05 275:-0.17323166 276:-1.7619333e-05 277:-0.12675156 278:-0.34573671 279:-0.21388108 280:0.075617731 281:-0.07552968 282:0.25921887 283:-0.12635179 284:0.18582115 285:2.623712e-05 286:0.040302627 287:0.081089988 288:-0.040688902 289:-0.20220457 290:4.4740325e-05 291:0.010544959 292:-0.087837644 293:-3.6677564e-05 294:-0.22046128 295:4.3753687e-05 296:-5.0862633e-05 297:0.10657651 298:0.062431779 299:-3.5785029e-05 300:0.0035283107 301:0.032513771 302:-4.605807e-05 303:-0.099913813 304:0.31781128 305:0.12302849 306:0.15976427 307:3.6831534e-05 308:-0.026672259 309:-0.16196391 310:-2.6244819e-05 311:-0.018065283 312:2.3480969e-05 313:0.22926143 314:5.7093159e-05 315:0.16552696 316:2.0205496e-05 317:5.8436712e-05 318:-2.4917497e-05 319:0.36314592 320:-0.20287971 321:0.26043504 322:0.0065575484 323:0.24782097 324:-3.2168355e-05 325:0.096676968 326:-0.37338519 327:0.20618524 328:-0.0420072 329:-0.14814794 330:-3.087693e-05 331:-1.7434833e-05 332:-8.4167004e-06 333:6.3135907e-05 334:0.11220792 335:0.33149782 336:0.028072309 337:-0.12705167 338:-0.058239087 339:0.15925212 340:0.11931583 341:0.53587663 342:1.2426262e-05 343:-0.25696942 344:-0.05855893 345:-5.4603348e-05 346:-0.16068721 347:3.822468e-05 348:0.057852607 349:-0.014306467 350:0.16474727 351:0.085827544 352:-2.7999724e-05 353:-5.6638233e-05 354:0.23713732 355:-2.5174284e-05 356:0.3143332 357:-0.1507443 358:0.24679019 359:0.10483457 360:0.40827447 361:0.16933852 362:-0.063989483 363:-0.36557958 364:0.11941104 365:-0.038306624 366:-0.010405991 367:2.4917499e-05 368:0.23547062 369:4.8785725e-05 370:-0.15256019 371:-0.10862666 372:5.5159551e-05 373:-0.0086954115 374:-0.16947632 375:0.18966022 376:0.075885184 377:-0.12910075 378:0.43995011 379:-4.8785721e-05 380:-0.23961848 381:0.01543401 382:0.06393943 383:-0.088098608 384:0.31184924 385:0.17557287 386:4.7713376e-05 387:0.074762613 388:-4.5492921e-05 389:-2.0345053e-05 390:-0.32054871 391:0.041300431 392:-0.13869302 393:0.14308852 394:-0.12609562 395:0.12725316 396:-0.090407133 397:0.34408283 398:-0.14513171 399:0.28280991 400:-0.25019559 401:0.16010596 402:-0.047538303 403:0.084071934 404:0.03036995 405:0.44757727 406:-6.3578293e-05 407:0.25624898 408:-0.081058033 409:-0.22941673 410:0.13239196 411:0.074290015 412:0.13963012 413:4.8499023e-05 414:2.4126264e-05 415:0.27719471 416:0.12781002 417:-0.26574534 418:5.2118688e-05 419:4.3061606e-05 420:-0.0061353398 421:0.41794109 422:0.21300505 423:0.25408691 424:3.6677564e-05 425:0.29684201 426:0.11189131 427:0.074911512 428:0.11785712 429:0.13562301 430:-0.30638537 431:5.2857999e-05 432:0.15341769 433:5.0351435e-05 434:1.7619332e-05 435:0.040177241 436:0.055013999 437:-0.081406593 438:-0.087330639 439:-0.06455861 440:-0.068846561 441:0.24269171 442:0.42013639 443:-0.17743525 444:0.0079265013 445:0.38482252 446:0.055233166 447:0.18960886 448:5.2118688e-05 449:4.0049272e-05 450:3.6763038e-05 451:-3.8735827e-05 452:3.4662669e-05 453:4.3158368e-05 454:-0.26991129 455:-5.1293657e-05 456:0.18028374 457:0.022005904 458:0.44163486 459:0.21688999 460:1.221526e-05 461:-0.099045731 462:-0.14302069 463:-0.15773772 464:0.30602255 465:0.085378692 466:0.068159468 467:-0.16156188 468:2.0345051e-05 469:0.023033651 470:-0.22746257 471:-0.15410793 472:0.30644274 473:2.8772251e-05 474:6.4345732e-05 475:0.03541375 476:-0.035445146 477:2.4917495e-05 478:0.26140141 479:2.0345051e-05 480:-0.06696745 481:-0.032239344 482:0.12635843 483:0.039285522 484:-0.16090761 485:-0.079286776 486:5.6663852e-05 487:0.088941149 488:-0.18583789 489:3.8102269e-05 490:-0.13742621 491:0.17026673 492:0.073525108 493:0.08187335 494:-0.19208828 495:0.22956328 496:-0.1848017 497:0.23585215 498:-0.14696939 499:0.12851363 500:-0.098965816 501:0.18881281 502:-2.7993196e-05 503:0.057362687 504:-0.076755323 505:4.368171e-05 506:-0.11337855 507:-0.17104153 508:4.3073996e-05 509:0.37539256 510:-0.25851905 511:0.044288103 512:-0.036519628 
0.1903975539586345 1:0.1509382 2:-0.14450857 3:0.14024717 4:-0.041347679 5:0.41306394 6:0.10063284 7:0.14904441 8:0.006955219 9:0.16319039 10:0.016918292 11:-0.029015245 12:-0.0023474621 13:0.10929655 14:0.028966766 15:-0.019649995 16:-0.028667683 17:-0.038994975 18:0.013171582 19:-0.2940034 20:0.11988468 21:0.1416837 22:-0.24558158 23:-0.1724283 24:-0.016700702 25:-0.032540392 26:0.084024481 27:-0.037805036 28:0.1383357 29:-0.042239595 30:0.028327128 31:-0.15046203 32:-0.018389242 33:-0.094967782 34:0.15801464 35:0.05803024 36:-0.14150095 37:-0.081227899 38:0.11652414 39:0.17829214 40:-0.055641867 41:-0.014188971 42:0.20585193 43:0.036418449 44:0.019353187 45:-0.041851286 46:0.02242201 47:0.029427171 48:-0.11421676 49:-2.8622706e-05 50:-0.19349973 51:0.038570426 52:0.10214818 53:-0.017713318 54:0.034798849 55:-0.0060283919 56:0.1780812 57:-0.095292479 58:-0.083106689 59:0.02700693 60:-0.001704897 61:-0.036293231 62:-0.1246869 63:0.011176954 64:-0.054569401 65:0.066961184 66:-0.074438967 67:0.12449404 68:-0.049196657 69:0.026932843 70:0.050137475 71:0.10764806 72:0.034588177 73:0.045441195 74:0.0045993081 75:0.045836553 76:0.0064145564 77:-0.059145793 78:-0.061484896 79:-0.030961955 80:0.018831475 81:0.074333623 82:0.059046738 83:-0.044752039 84:-0.051025748 85:-0.10237987 86:-0.003408984 87:-0.076969385 88:0.04461154 89:0.084612973 90:0.1230571 91:-0.35943443 92:-0.10761452 93:-0.0028450405 94:0.024058076 95:-0.093138449 96:0.10395709 97:0.07636632 98:-0.0096768709 99:0.10901038 100:0.096884154 101:0.11050902 102:0.028399428 103:-0.21218272 104:-0.06346105 105:-0.15801601 106:0.0015916157 107:-0.030084552 108:0.023721932 109:-0.0077368533 110:0.1373214 111:-0.059138704 112:4.1174964e-05 113:0.052468345 114:-0.015256879 115:-0.068485878 116:-0.12597276 117:-0.079879463 118:0.032024644 119:-0.026268704 120:-0.014242582 121:-0.20295133 122:-0.11729904 123:-0.11160287 124:-0.016534736 125:0.12342013 126:-0.044604182 127:0.047992345 128:0.034213483 129:-0.13187189 130:-0.16661631 131:0.052639041 132:0.033352528 133:0.042419396 134:0.0084041953 135:0.007417744 136:-0.20478578 137:-0.044198465 138:-0.2582193 139:0.052945726 140:-0.065714285 141:-0.06797082 142:0.15699998 143:0.63001615 144:0.074052043 145:0.025926698 146:-0.02683595 147:-0.013221473 148:0.070091046 149:-0.074778236 150:-0.10117987 151:-0.028982174 152:-0.015127284 153:-0.052198809 154:0.0049665472 155:0.035184618 156:0.098349355 157:0.14858024 158:0.11987375 159:-0.01681431 160:-0.36871395 161:0.077295721 162:0.042567305 163:-0.0078827748 164:-0.12359259 165:-0.070092268 166:0.029988369 167:-0.050243281 168:0.084798142 169:0.1064698 170:-0.063577138 171:0.087178536 172:-0.081845418 173:-0.0028936591 174:0.089504972 175:0.071332008 176:-0.018198192 177:-0.015084251 178:-0.080143251 179:-0.015441328 180:0.0014568693 181:0.1233454 182:0.064365774 183:-0.056692898 184:-0.033785034 185:-0.10237895 186:-0.065849565 187:-0.055526227 188:0.019757459 189:0.11561278 190:0.067782454 191:-0.0023688949 192:-4.5661523e-05 193:-0.063485421 194:-0.023473579 195:0.078007907 196:0.016026193 197:-0.15626001 198:-0.075964235 199:-0.0085946284 200:0.033790112 201:-0.0042012408 202:0.013677835 203:-0.013889213 204:0.0058245836 205:0.047720511 206:-0.14006928 207:-0.11739086 208:0.055064376 209:-0.089457259 210:-0.031208307 211:-0.048725408 212:-0.087171353 213:-0.031227482 214:0.0020759141 215:0.01568857 216:-0.044453863 217:0.07369522 218:0.034317106 219:-0.038293175 220:0.069163688 221:-0.053008094 222:0.0013517853 223:0.11928663 224:0.0047265966 225:1.0984651e-05 226:0.079689167 227:-0.037659802 228:0.015076487 229:-0.53711498 230:-0.066429757 231:-0.11735701 232:0.27203813 233:0.083953507 234:0.14522497 235:0.063192278 236:0.056122724 237:-0.09081465 238:-0.0031540114 239:0.041439362 240:-0.023914892 241:-0.30145004 242:-0.0020554159 243:-0.28139427 244:-0.026448626 245:0.075808205 246:0.12551819 247:-0.059655856 248:0.053258456 249:0.023147345 250:-0.0089197541 251:-0.12126897 252:-0.13317811 253:-0.15266041 254:0.060281076 255:0.011731822 256:-0.023147389 257:-0.056868441 258:0.077829264 259:0.071784593 260:-0.10139585 261:0.083661638 262:-0.01110831 263:0.23719668 264:0.0095278472 265:-0.36554042 266:-0.07957013 267:-0.065168314 268:-0.00062578049 269:-0.13276209 270:-0.045449831 271:-0.038301859 272:0.072265886 273:0.0066805589 274:-0.35820022 275:-0.065856449 276:-0.032351267 277:-0.14337204 278:0.045673124 279:-0.12687908 280:0.16621031 281:0.012385008 282:0.27470031 283:-0.16310285 284:0.10874598 285:-0.038738299 286:0.07756269 287:0.0051123002 288:0.010514988 289:-0.063529447 290:-0.006551506 291:0.013845643 292:0.22484562 293:-0.010989448 294:-0.060460262 295:-0.021689994 296:-0.0048874449 297:0.048843116 298:0.028558012 299:0.011092988 300:0.085268192 301:0.0014947384 302:-0.020613113 303:0.024493534 304:-0.53157157 305:-0.085909605 306:0.050887849 307:0.0029663281 308:-0.038413309 309:-0.11960549 310:0.031457692 311:-0.044772036 312:0.0065182229 313:0.031140834 314:-0.0076937973 315:0.027715383 316:-0.021355988 317:0.076113939 318:-0.12992847 319:0.1161022 320:-0.044201083 321:0.32090554 322:-0.040849481 323:0.13011971 324:-0.0047226762 325:0.036775492 326:-0.086284749 327:0.098517805 328:-0.05124522 329:0.26104784 330:0.014508687 331:-0.013468416 332:0.0013014672 333:0.0076048407 334:-0.061903611 335:0.092118829 336:-4.8327074e-06 337:0.088152461 338:0.029289 339:0.010270773 340:0.052876402 341:0.22175036 342:-0.033508219 343:-0.060053173 344:0.038210459 345:0.0099044042 346:-0.014293183 347:-0.21670061 348:-0.039590783 349:-0.074942835 350:-0.068417929 351:0.29108772 352:-0.022685954 353:0.068586901 354:0.074318215 355:0.08330033 356:-0.068317093 357:-0.046686884 358:0.058542892 359:-0.04374902 360:0.14325549 361:0.016032491 362:-0.042633824 363:0.12826604 364:0.12126362 365:0.027931308 366:0.10008238 367:0.046954464 368:0.054143455 369:0.098412789 370:0.41841853 371:-0.026329782 372:-3.8066424e-05 373:-0.0042908927 374:0.18932158 375:0.079365663 376:-0.031745523 377:0.10380591 378:-0.12092321 379:0.071754463 380:-0.16563526 381:0.08067397 382:0.15300563 383:0.02097334 384:0.063267589 385:-0.15671146 386:0.028881978 387:-0.069066778 388:0.049532857 389:-0.040461708 390:0.41769901 391:0.027842749 392:-0.035452999 393:0.077260941 394:-0.049698524 395:-0.14160271 396:0.22186776 397:0.12754139 398:-0.054879036 399:0.019939978 400:0.048098043 401:0.1262702 402:0.22623557 403:-0.099356674 404:0.018571064 405:0.08039169 406:-0.018704966 407:0.037260551 408:-0.032327071 409:-0.054490175 410:-0.02746026 411:0.07961569 412:0.11965653 413:-0.020519285 414:0.18076065 415:-0.23651829 416:0.020338206 417:-0.028969834 418:0.12511174 419:-0.028454961 420:-0.043883562 421:0.14064904 422:0.030575445 423:-0.39024195 424:-0.20815413 425:0.063929178 426:-0.034930009 427:0.066927306 428:-0.0050876052 429:-0.042356484 430:-0.10187321 431:-0.0051428964 432:0.14564876 433:0.15928249 434:0.0021834581 435:0.29859042 436:0.012782281 437:-0.10268002 438:0.13504575 439:-0.025862835 440:0.23284964 441:-0.17243284 442:-0.026696667 443:0.077415638 444:0.027210666 445:0.16847758 446:0.059177089 447:0.041528355 448:-0.0055471426 449:-0.048847962 450:-0.0058953934 451:-0.020393359 452:-2.6550004e-05 453:0.032158162 454:-0.0304219 455:4.3985048e-05 456:-0.014003946 457:0.063762218 458:-0.02110992 459:0.12910423 460:0.063377902 461:0.022750799 462:0.033125319 463:-0.0060707321 464:0.14540686 465:0.021498876 466:0.15709481 467:-0.10777557 468:0.024263559 469:-0.021410041 470:-0.18899727 471:-0.023230044 472:0.034297865 473:0.047064375 474:0.021606619 475:-0.018760594 476:-0.10005417 477:0.016998941 478:0.1587902 479:-0.0081646973 480:-0.1023837 481:0.019064778 482:-0.17994498 483:0.034242641 484:-0.058685388 485:-7.4057105e-05 486:0.0053319978 487:0.02942243 488:-0.025410347 489:0.0051679644 490:0.082685038 491:0.036682904 492:-0.23869634 493:-0.083259679 494:-0.02369949 495:-0.12700309 496:-0.12044089 497:-0.05322466 498:-0.097458087 499:0.13127246 500:-0.055311754 501:0.23934987 502:0.0011822954 503:0.051497784 504:-0.10998397 505:0.023067022 506:-0.070945814 507:0.13936265 508:0.076750979 509:0.33129916 510:-0.12565245 511:0.073521309 512:-0.1194756 
0.4484510668354748 1:0.19634236 2:-0.016801182 3:0.0009173798 4:-0.25171196 5:-0.1806633 6:-0.031412862 7:-0.17070581 8:-0.057830404 9:-0.14950618 10:-0.1054694 11:-0.26927078 12:0.08646895 13:0.20569487 14:0.076408722 15:-0.15113074 16:-0.072453439 17:-0.17036551 18:-0.066297933 19:-0.22727367 20:0.20740432 21:0.031890053 22:0.19278741 23:0.1447323 24:-0.08967793 25:-0.17945811 26:0.15354994 27:0.091512658 28:0.20742148 29:-0.11867519 30:0.25539675 31:0.085519239 32:-0.0847684 33:-0.095266417 34:0.11247301 35:0.031771135 36:0.15568443 37:-0.089417636 38:0.20833714 39:0.1557335 40:-0.13725972 41:-5.0926174e-05 42:-0.08319819 43:0.21975264 44:0.037295487 45:0.0077631208 46:0.18217492 47:0.096273802 48:-0.091196626 49:0.1319865 50:0.061588179 51:-0.04289918 52:-0.17768419 53:-0.030804399 54:4.4740329e-05 55:0.099998407 56:0.035256706 57:-0.010490973 58:-0.14071894 59:-0.026364569 60:2.0305277e-05 61:-0.023116726 62:-0.27499709 63:-0.020036098 64:-0.092552952 65:0.17424583 66:-0.14052391 67:-0.13244772 68:-0.2283138 69:-0.040893007 70:0.065659352 71:0.049983528 72:-0.12930655 73:0.092438512 74:-0.036171585 75:0.080922671 76:0.0019013127 77:-0.088709809 78:-0.26822564 79:-0.12831728 80:-0.25636035 81:0.21757932 82:0.060479023 83:0.069995448 84:-0.22776474 85:-0.076332025 86:-0.029003389 87:0.04809586 88:-0.25251088 89:-0.28296381 90:-0.011994702 91:-0.032900248 92:-0.032638859 93:-1.6721873e-05 94:3.2017208e-05 95:-0.16140246 96:-0.084866159 97:-0.083156258 98:-0.00037620298 99:-0.0022434953 100:-0.12231556 101:0.092797838 102:0.048484296 103:0.20846118 104:-0.10509764 105:-0.079906374 106:0.017351871 107:-0.09911193 108:0.033691496 109:-0.11446857 110:-0.11719954 111:-0.13637051 112:0.11808456 113:-0.12961078 114:0.20141062 115:0.078173697 116:-0.16421244 117:-0.097245395 118:0.17381594 119:-0.040250298 120:-0.21654703 121:0.0026720362 122:0.27164981 123:-0.065330662 124:-0.022245361 125:-0.16682047 126:-0.24838452 127:-0.14262308 128:0.16662517 129:-0.20926313 130:-0.030522764 131:0.12669268 132:0.080729403 133:-0.27008289 134:0.15709528 135:-0.10964643 136:0.2487275 137:2.3308185e-05 138:0.23929268 139:-0.058860302 140:-0.18223444 141:-0.24401352 142:-0.25948143 143:-0.05675495 144:5.5717221e-05 145:0.0068995068 146:-0.10681479 147:3.2567976e-05 148:0.20321444 149:0.06440077 150:0.10723469 151:0.031419419 152:0.010994273 153:0.059221365 154:0.01984393 155:0.18039039 156:0.27381095 157:0.027532991 158:3.1146872e-05 159:2.7390364e-05 160:-0.25759503 161:0.044032704 162:0.16755071 163:0.018049432 164:2.9712222e-05 165:-0.090062685 166:-0.27304992 167:0.32579952 168:0.19493692 169:-0.027593382 170:-0.10950532 171:-0.13096571 172:0.13873976 173:-0.053239841 174:5.0957911e-05 175:0.22456181 176:-0.19002284 177:-0.13419342 178:-0.29821742 179:-0.044829879 180:0.0011318278 181:-0.040843282 182:0.11426478 183:0.36837149 184:0.14277416 185:0.013874966 186:0.022867134 187:0.13289723 188:0.073169313 189:0.058105029 190:0.067850076 191:0.31841245 192:-0.04246521 193:-0.2739453 194:0.026016222 195:-0.19185506 196:0.023925759 197:-0.23550032 198:-0.29847258 199:-0.056411885 200:-4.1372274e-05 201:0.082979813 202:-0.032582939 203:-0.26926687 204:0.013619607 205:0.25553834 206:-0.11471176 207:-0.2312417 208:-0.13613337 209:0.22393946 210:-0.046511218 211:-0.036067754 212:0.19257896 213:-0.19171371 214:-0.065970965 215:0.3109684 216:-0.1129472 217:-0.21984631 218:0.096340522 219:0.085611418 220:0.2941978 221:0.20492168 222:3.2168351e-05 223:0.26188654 224:0.11590613 225:-2.4103734e-05 226:-0.2284271 227:-0.061623972 228:0.18334426 229:0.063441828 230:0.038374696 231:-0.052192688 232:-5.2609289e-06 233:-0.10636151 234:0.21127579 235:-0.0021855873 236:0.27514747 237:0.24077238 238:-0.00033680862 239:-0.072370164 240:-0.12656178 241:0.06528765 242:3.5238663e-05 243:0.069724463 244:0.046814192 245:0.014771421 246:0.00078134733 247:0.030185487 248:0.077597566 249:0.013054482 250:0.1311366 251:-0.19544172 252:-0.026357552 253:-2.2170505e-05 254:0.12804294 255:-0.12117442 256:-0.013054458 257:-0.21700871 258:0.20934956 259:-0.078243695 260:0.25343212 261:-0.16959928 262:-0.25690594 263:0.043043587 264:0.30128863 265:3.9068327e-05 266:-0.10037015 267:-0.050767273 268:0.35009813 269:-0.088777751 270:-0.31475279 271:-1.7248358e-05 272:0.14295097 273:0.1035639 274:-0.031748526 275:-0.16873261 276:0.0014798885 277:-0.14621603 278:-0.24065231 279:0.077423379 280:0.033292387 281:-0.015593328 282:0.13996381 283:-0.066417038 284:0.17588024 285:-1.3462875e-05 286:0.13770513 287:0.13565069 288:-0.059283156 289:-0.13362463 290:-4.3416538e-05 291:0.067104675 292:0.21912041 293:-0.0019434018 294:-0.20606913 295:3.5965313e-05 296:-0.030506905 297:0.072252743 298:0.036132589 299:0.0018418314 300:0.028991913 301:0.086910047 302:-0.03054193 303:-0.23847114 304:0.16103409 305:0.12203421 306:0.16227323 307:4.3997828e-05 308:-0.1007423 309:-0.15113656 310:0.023382125 311:-0.0036996088 312:-3.7806367e-05 313:0.17337407 314:4.9181821e-05 315:0.23668422 316:-0.1436564 317:0.048449922 318:-2.4917497e-05 319:0.15899041 320:-0.23638891 321:0.24693905 322:-0.083250999 323:-0.12626433 324:-0.018048938 325:-0.12249429 326:-0.33701757 327:0.2064718 328:-0.053117536 329:-0.14307435 330:-0.07526949 331:-4.1433625e-05 332:0.01999478 333:-0.0386228 334:0.12705167 335:0.33369172 336:0.02313251 337:0.033389989 338:-0.16466966 339:0.051809184 340:0.14942576 341:0.40693578 342:-3.4849541e-05 343:-0.23360442 344:-0.096906386 345:0.1533094 346:-0.1098244 347:0.067680731 348:0.047384374 349:-0.042429857 350:0.14182201 351:-0.020725019 352:0.033158969 353:0.03019578 354:0.23843153 355:0.14126498 356:0.18815188 357:-0.16095752 358:0.28362927 359:0.22789747 360:0.33386838 361:-0.088374995 362:-0.13589551 363:-0.47824192 364:0.073915266 365:0.047435068 366:-0.062965006 367:-0.042414006 368:0.13933043 369:-0.017917309 370:-0.19251111 371:-0.053123076 372:1.3214501e-05 373:-0.0313292 374:-0.19908839 375:0.20020403 376:0.089894406 377:-0.11864248 378:0.30768999 379:-0.036856774 380:-0.23208135 381:0.067142107 382:-0.018571259 383:-0.043654941 384:0.19853714 385:0.064464703 386:-0.099722497 387:0.14916033 388:-1.9699013e-05 389:-4.5776367e-05 390:-0.26996362 391:0.043838494 392:-0.14304848 393:0.18975498 394:-0.16070069 395:0.14642639 396:-0.12875915 397:0.27735618 398:-0.19639988 399:0.26559401 400:-0.19066028 401:0.15237619 402:-0.043675371 403:0.055152729 404:0.056752063 405:0.31041402 406:-0.030522792 407:0.098439179 408:-0.22200553 409:-0.19238444 410:0.088179536 411:0.038749292 412:0.13104072 413:-0.001762658 414:4.2096319e-05 415:0.25220153 416:-0.24274209 417:-0.22593766 418:4.9162474e-05 419:-0.14952208 420:-0.046972718 421:0.25411612 422:-0.042972524 423:-0.19498669 424:0.136638 425:0.25446504 426:0.11829176 427:0.022458125 428:0.26192427 429:0.15904079 430:-0.29456702 431:0.027538234 432:0.17913091 433:2.0458887e-05 434:-4.0690105e-05 435:-0.013620141 436:0.053900104 437:-0.081331447 438:-0.086589351 439:-0.16661322 440:-0.34405729 441:0.11216985 442:0.3389962 443:-0.30406585 444:-0.069855548 445:0.25239134 446:0.094378449 447:0.14860247 448:-0.02206587 449:-0.018199662 450:-0.027978422 451:-0.05482012 452:3.4416225e-05 453:1.8688119e-05 454:-0.22010462 455:-0.060811572 456:0.11942711 457:0.15638393 458:0.42457888 459:0.14035046 460:0.041403551 461:-0.053605866 462:-0.24228807 463:-0.17257431 464:0.31816941 465:0.16877343 466:0.078761376 467:-0.16411975 468:0.010597655 469:0.10058268 470:-0.11559276 471:-0.035872854 472:0.20736128 473:-0.056203723 474:0.00073437573 475:0.079039492 476:-0.011996008 477:-0.027593385 478:0.26703271 479:-0.0091024209 480:-0.097924575 481:-0.04100338 482:0.25952891 483:0.064776167 484:-0.13642907 485:-0.22096519 486:0.0038884173 487:0.12493172 488:-0.11803693 489:-1.0563343e-05 490:-0.18909381 491:0.12192435 492:0.04647027 493:-0.17630203 494:-0.14588657 495:0.33078122 496:-0.23128322 497:0.28616092 498:-0.14031152 499:0.062961109 500:-0.088260151 501:0.21576388 502:-0.045641474 503:-0.14689447 504:0.045493655 505:4.0791641e-05 506:-0.086955957 507:-0.27876401 508:-0.0074045784 509:0.29611993 510:-0.18742907 511:-0.022856763 512:-0.026185181 
0.1099929415850209 1:0.033411659 2:-0.0097135929 3:-0.0014934029 4:-0.052067962 5:-0.063981943 6:-0.019428398 7:0.10306946 8:-0.080613226 9:-0.23201843 10:0.14041142 11:-0.01066314 12:0.022500653 13:0.087283358 14:0.026732311 15:-0.069011688 16:-0.07123258 17:-0.044588253 18:-0.16582102 19:-0.20850308 20:0.032401539 21:0.33104083 22:0.14739491 23:-0.085239932 24:-0.022466417 25:-0.11646297 26:0.047686931 27:0.032287102 28:0.08454214 29:0.050192278 30:-0.029341416 31:-0.020299582 32:-0.017991127 33:-0.15523912 34:0.0097873295 35:-0.019113144 36:-0.1492988 37:-0.081765309 38:0.072887734 39:0.076592661 40:-0.022154944 41:1.9438223e-05 42:0.0037362492 43:0.15476808 44:0.37164223 45:0.0082565974 46:-0.23254828 47:0.13463147 48:-0.11049085 49:0.0053052711 50:-0.021925416 51:-0.013473455 52:-0.043759346 53:-0.04251565 54:0.13355875 55:-0.05565777 56:0.27172068 57:0.071069464 58:-0.31472597 59:0.030221976 60:0.10563676 61:-0.037934985 62:-0.19728634 63:-0.0041303062 64:0.028919175 65:0.066370621 66:-0.053815361 67:-0.096933693 68:-0.13794789 69:-0.010158735 70:0.043000694 71:0.035540193 72:0.043823514 73:0.057550814 74:-0.026466519 75:0.070167296 76:-0.067667201 77:-0.080182962 78:0.063091218 79:0.18872774 80:-0.22623819 81:-0.052883103 82:0.077446043 83:-0.053978477 84:-0.078123569 85:-0.046262309 86:-0.020276142 87:0.039298672 88:0.035666775 89:0.082536481 90:-0.063047856 91:0.12312455 92:-0.036241382 93:-0.014595539 94:0.031076524 95:-0.12634605 96:-0.031343188 97:0.13344979 98:-0.01963559 99:0.016295975 100:-0.04718158 101:0.079549663 102:0.040368833 103:-0.09783686 104:0.044650957 105:-0.18974195 106:-0.018576706 107:0.48192143 108:-1.6723014e-05 109:-0.062700637 110:-0.052797608 111:-0.06396766 112:0.048713706 113:0.049684059 114:0.073620908 115:-0.45699933 116:-0.31526408 117:-0.063332558 118:0.062868804 119:-0.093006596 120:-0.10159756 121:0.16357163 122:-0.061651699 123:-0.043470234 124:-0.0075039393 125:-0.057004578 126:-0.11300856 127:0.056608949 128:-0.054613497 129:-0.25618812 130:-0.18569104 131:-0.074686728 132:0.11910108 133:0.094728187 134:-0.036121529 135:-0.11619306 136:0.035925489 137:0.033337358 138:-0.065176569 139:-0.2840277 140:0.23751302 141:-0.045003563 142:0.25910053 143:-0.063478641 144:0.0086803148 145:-0.021791607 146:-0.036220815 147:-0.036809165 148:0.023924794 149:0.087422237 150:-0.23815981 151:-0.016724497 152:0.02249988 153:-0.065714732 154:0.0079192398 155:0.094559371 156:0.12862286 157:0.0029876244 158:0.041510619 159:-0.007763674 160:0.044410668 161:0.029552553 162:0.05886212 163:0.015634188 164:-0.024223467 165:0.020352213 166:0.21604168 167:-0.093314327 168:0.079748347 169:-0.0030333637 170:-0.01929857 171:-0.037227634 172:-0.03116571 173:-0.003286219 174:0.058575358 175:-0.021448575 176:-0.1056019 177:-0.0069514043 178:-0.014954314 179:-0.36861318 180:0.024433563 181:-0.084588736 182:0.029202677 183:-0.13115945 184:-0.068304442 185:-0.076927438 186:-0.11669562 187:0.2983017 188:0.043621045 189:0.093924977 190:0.085249372 191:-0.037635922 192:-0.1591486 193:-0.075750604 194:0.046056949 195:0.02525229 196:0.021061443 197:-0.20111874 198:0.097659007 199:0.076309659 200:0.015232163 201:-0.14286648 202:0.020693457 203:-0.031652804 204:0.01711723 205:0.06897977 206:-0.052223802 207:-0.070315637 208:0.052027419 209:0.1200293 210:-0.13919924 211:-0.078987233 212:0.053298213 213:-0.030795442 214:-0.015607174 215:0.062496044 216:-0.17175095 217:-0.038989335 218:0.1270626 219:0.057588074 220:0.086309031 221:-0.015988898 222:-0.049771089 223:-0.1030451 224:0.013196347 225:-0.051141787 226:-0.11692733 227:-0.10333502 228:0.02538321 229:-0.032797992 230:-0.14494635 231:0.0063742669 232:-0.11433682 233:-0.19491492 234:0.22264136 235:0.089453511 236:0.05510835 237:0.05200408 238:-0.011798038 239:-0.043769479 240:0.0087838182 241:0.028181601 242:-0.0010989801 243:0.041561976 244:-0.033480585 245:0.00907957 246:0.21019913 247:0.078999765 248:-0.292427 249:0.10516106 250:0.14285184 251:-0.11537837 252:-0.046111859 253:0.12573144 254:0.053372275 255:-0.032650866 256:0.30086547 257:0.045918629 258:-0.45991987 259:0.10043765 260:0.083483025 261:0.18453026 262:-0.20874028 263:0.063822091 264:0.15474996 265:-0.0053775716 266:-0.06225577 267:-0.049792755 268:0.056774918 269:-0.1763792 270:0.059316061 271:0.053151872 272:0.061711755 273:-0.061915562 274:-0.023151904 275:-0.052653596 276:-0.085604124 277:-0.086540416 278:-0.10475376 279:0.0088110138 280:0.022317821 281:-0.01697254 282:0.15956292 283:-0.13598762 284:0.090577066 285:0.1026528 286:0.21085036 287:0.0072476002 288:0.14725937 289:-0.059498508 290:0.010880116 291:0.049042981 292:0.15748076 293:-0.034297105 294:0.028184962 295:0.00755277 296:-0.019038869 297:0.01023399 298:-3.143946e-05 299:0.014512351 300:0.062193677 301:-0.028805263 302:0.067625143 303:-0.089948528 304:-0.07947658 305:0.021791209 306:-0.2225538 307:-0.083913043 308:-0.033510864 309:-0.13711528 310:0.034091003 311:0.016660403 312:4.1594005e-05 313:0.049641401 314:-0.034308862 315:0.0099152103 316:-0.35672733 317:-7.7346294e-06 318:-0.10130855 319:0.055038054 320:0.050236918 321:0.10565854 322:-0.11735067 323:0.063675523 324:-0.016255299 325:-0.029468138 326:-0.12843075 327:0.1781579 328:-0.16589315 329:-0.132566 330:0.040531799 331:-0.0093439389 332:0.0085700676 333:-0.0056956694 334:0.09824878 335:0.058860939 336:-0.0033232446 337:-0.059722871 338:-0.04571972 339:0.0093895206 340:0.038058788 341:0.11066377 342:-0.085895985 343:-0.10122575 344:-0.065650634 345:0.042683668 346:-0.014031702 347:-0.071524784 348:-0.025712611 349:0.052322745 350:0.033573378 351:-0.048167322 352:-0.074518621 353:0.069169998 354:-0.069968164 355:0.35958165 356:0.035220787 357:-0.038556632 358:-0.1644633 359:0.074932247 360:0.067220688 361:0.061700322 362:-0.082576595 363:-0.17840686 364:0.046817809 365:0.072151929 366:-0.048287086 367:0.034996353 368:0.095207125 369:-0.28233621 370:-0.061939854 371:-0.021037739 372:-2.232947e-05 373:0.040543269 374:-0.015801327 375:0.015313885 376:0.074429646 377:0.26022887 378:0.089609496 379:-0.31518272 380:-0.07351017 381:0.045405094 382:0.027709037 383:0.025539655 384:0.051544804 385:-0.02143256 386:-0.11634554 387:0.37362757 388:0.036214709 389:-0.13111359 390:0.21220502 391:0.038707793 392:-0.085641578 393:0.10563275 394:-0.045367546 395:0.0068524294 396:-0.052655458 397:0.091388203 398:-0.11464031 399:-0.12372107 400:0.082170002 401:0.20961042 402:-0.11832725 403:-0.02107778 404:0.09212634 405:0.12631822 406:-0.1750567 407:0.058199756 408:-0.076357014 409:-0.00095795019 410:-0.025029905 411:-0.081656225 412:0.02304847 413:0.078271762 414:0.18334854 415:0.053045735 416:0.045083266 417:-0.018529734 418:-0.016029187 419:0.051723346 420:-0.04967897 421:0.080136493 422:0.031215174 423:0.069021367 424:-0.043947879 425:0.085042223 426:0.066149175 427:-0.19620255 428:0.017377086 429:0.060663696 430:-0.036422089 431:0.12380246 432:0.058115076 433:-0.041777123 434:0.013273056 435:-0.02193247 436:0.099954821 437:-0.07472223 438:0.020892799 439:-0.043213893 440:0.11036325 441:-0.1237985 442:0.10092253 443:-0.043056373 444:0.032851271 445:0.13314825 446:0.060129005 447:0.066343658 448:0.082676791 449:-0.19240336 450:-0.14340413 451:-0.23280692 452:-0.0072865505 453:0.018468786 454:0.082792915 455:-0.099908181 456:0.029297384 457:0.13186307 458:0.13873018 459:0.20135102 460:0.047364328 461:0.10715185 462:0.10400026 463:0.016791783 464:0.13886921 465:0.045557443 466:0.15170754 467:0.033939376 468:0.0070391498 469:0.14214249 470:-0.098560616 471:0.077190869 472:0.090501912 473:0.20540217 474:0.01704381 475:0.023778969 476:0.021185411 477:0.012823049 478:0.16835384 479:-0.024048513 480:-0.014333988 481:0.021971527 482:0.076024003 483:0.047484171 484:0.031366363 485:-0.027266035 486:0.035364971 487:0.095563032 488:0.13426766 489:-0.022582244 490:0.061313506 491:0.020683672 492:0.061129808 493:0.015727345 494:-0.070625953 495:0.048500817 496:-0.33740905 497:-0.071254492 498:0.44868147 499:0.14037436 500:0.062038958 501:0.086943544 502:-0.011400183 503:-0.093426853 504:-0.090885632 505:-0.015456902 506:-0.0451423 507:-0.14001758 508:0.12015163 509:0.17260358 510:-0.16892882 511:-0.056679681 512:0.11032993 
0.04904677669542137 1:0.0064518349 2:-0.057230499 3:0.071645506 4:0.078325391 5:0.3458063 6:-0.029698487 7:-0.017872844 8:-0.085710436 9:0.013893557 10:-0.04411066 11:0.044459216 12:0.047993284 13:0.015466618 14:0.068030097 15:-0.013280002 16:-0.042514306 17:0.104967 18:0.072458379 19:0.31225485 20:-0.0069049499 21:0.049600493 22:0.16916583 23:-0.052117698 24:-0.073681742 25:-0.06355492 26:0.0807686 27:0.29392037 28:0.16760477 29:0.057582818 30:0.084638551 31:0.089383379 32:0.025741274 33:-0.28156263 34:0.0064312774 35:0.079136223 36:-0.027182242 37:-0.049579326 38:0.20970213 39:0.19369893 40:-0.030290792 41:-0.04952981 42:3.979231e-05 43:0.035217166 44:0.10149971 45:-0.054611985 46:0.08452712 47:0.070819154 48:-0.025736289 49:0.012600911 50:-0.22390842 51:0.022667808 52:0.26173243 53:-0.053472728 54:0.07141006 55:0.061613362 56:0.32250845 57:-0.25759828 58:0.085614301 59:0.0085627325 60:0.14922652 61:-0.13409278 62:-0.076592945 63:-0.037222028 64:-0.068910494 65:0.032474436 66:0.23120348 67:-0.0066589662 68:-0.12730694 69:-2.1119624e-05 70:0.046737373 71:0.39992329 72:-0.070131049 73:0.029794229 74:-0.030991862 75:0.023322213 76:-0.21975324 77:-0.22647262 78:-0.047191892 79:0.2738246 80:0.13228169 81:-0.053563952 82:0.028732531 83:-0.0024639436 84:0.038431484 85:-0.057577431 86:0.0098986169 87:0.035796065 88:0.13201819 89:-0.26357478 90:0.12937383 91:-0.24353309 92:-0.010198873 93:-0.16586253 94:0.012434714 95:-0.085617475 96:0.16341428 97:-0.059035029 98:-1.9172341e-05 99:0.40128174 100:-0.058503319 101:0.020575695 102:0.035507172 103:-0.0267001 104:0.014430394 105:-0.23088723 106:0.017471282 107:0.065972544 108:1.6845946e-05 109:-0.063978367 110:0.16975237 111:-0.079841517 112:0.023104593 113:0.10613124 114:0.020741303 115:-0.21649195 116:-0.33623835 117:-0.057015393 118:0.095155358 119:-0.015686365 120:-0.19300544 121:-0.22725917 122:0.059919 123:-0.07368689 124:0.014025645 125:-0.03887276 126:-0.16979156 127:0.10414769 128:0.074756086 129:-0.22518545 130:-0.076207839 131:0.069547974 132:0.040115789 133:-0.02591881 134:-0.033059299 135:-0.012775474 136:0.06243116 137:2.6692423e-05 138:0.028615398 139:-0.027448744 140:0.014865736 141:-0.16699192 142:0.10456342 143:0.55769056 144:-5.0498849e-05 145:0.0048706667 146:-0.0062068384 147:-0.05924885 148:0.029160542 149:-0.23127247 150:0.059659462 151:-0.10880633 152:-0.030204611 153:-0.042542357 154:0.047110539 155:0.076744452 156:0.13595313 157:0.094852746 158:0.028383272 159:-0.045008242 160:0.10733406 161:0.03757919 162:0.11187357 163:-0.040884253 164:-0.029986279 165:-0.039678831 166:-0.059022918 167:0.037131771 168:0.032822065 169:0.19130406 170:-0.0054067913 171:-0.055055872 172:-0.15106049 173:3.5432262e-05 174:0.26954934 175:-0.052527707 176:-0.066845857 177:-3.0487443e-05 178:-0.0035326504 179:-0.10042837 180:0.008489782 181:-0.050818991 182:0.055484165 183:-0.037082773 184:-0.05556304 185:-0.25237799 186:-0.078468479 187:-0.10384937 188:0.086906165 189:0.040209327 190:0.19026664 191:0.05754748 192:-0.055760808 193:-0.11592796 194:-0.22399653 195:-0.01992354 196:0.23404361 197:-0.23359044 198:-0.022755099 199:-0.047270447 200:-2.3682705e-05 201:0.035229463 202:0.028029915 203:-0.0260021 204:-1.4939184e-05 205:-0.0067110648 206:0.056134954 207:-0.31903359 208:0.075686403 209:-0.26642898 210:-0.1132984 211:-0.087700643 212:0.04902811 213:-0.0096323695 214:-0.028457588 215:0.031829845 216:-0.055477411 217:0.15799478 218:0.035859674 219:-0.093762286 220:0.035895128 221:0.017676722 222:-4.460086e-05 223:-0.084864214 224:1.1462604e-05 225:0.010987724 226:0.097999178 227:-0.1762481 228:0.030802667 229:-0.35181671 230:0.20220746 231:0.023527257 232:-0.10888048 233:-0.038368896 234:-0.14064036 235:0.14718294 236:0.035895102 237:-0.09379603 238:-0.0065250252 239:-0.043818459 240:-0.098699987 241:0.037164234 242:8.474155e-05 243:-0.02815567 244:-0.17935072 245:0.028900944 246:0.21925853 247:0.050181191 248:-0.054646194 249:0.00085925101 250:-0.014506674 251:-0.099330641 252:-0.18862185 253:-0.34074843 254:0.085734062 255:-0.0033280824 256:0.041105784 257:0.21899012 258:0.086585119 259:0.16227674 260:-0.08199925 261:0.01812534 262:0.036016371 263:-0.09964563 264:0.19474652 265:-0.25962439 266:-0.20855248 267:0.12649879 268:0.13592951 269:0.25781992 270:-0.060334414 271:-0.030976798 272:0.090217635 273:0.17338552 274:-0.025115285 275:-0.056098174 276:-0.039193369 277:-0.15268344 278:-0.059825148 279:-0.26828113 280:0.051028498 281:-0.020925423 282:0.19948053 283:-0.12734638 284:0.081362136 285:-5.7919489e-05 286:-0.0019507243 287:0.0048192823 288:0.10408808 289:-0.089149073 290:-2.9277444e-05 291:0.0013671343 292:-0.24296799 293:-0.0036948875 294:-0.069005139 295:-0.051216166 296:-3.8653823e-05 297:0.024485203 298:-1.7787792e-05 299:0.0029460976 300:0.050418433 301:0.018578507 302:-0.14699417 303:-0.1248708 304:-0.37146339 305:-0.085062295 306:-0.25886175 307:5.9194048e-05 308:-0.07345482 309:-0.033797942 310:0.14313318 311:0.014153508 312:2.1277365e-05 313:0.098632962 314:2.6676882e-05 315:-0.011104026 316:-0.15543193 317:-8.8096676e-06 318:-0.06825465 319:-0.18769923 320:-0.081001893 321:-0.059144884 322:-0.10239078 323:-0.11529545 324:-0.00036644904 325:0.020538999 326:0.2374514 327:0.050369423 328:-0.077950187 329:0.029438125 330:-4.7927329e-05 331:-0.0069386116 332:0.019974969 333:-0.022910614 334:-0.034309965 335:0.047540557 336:-4.6189529e-05 337:0.12739126 338:-2.1561373e-05 339:0.0378538 340:0.072510689 341:0.42517859 342:-0.031533502 343:-0.053964775 344:-0.14130461 345:0.23275748 346:-0.18175523 347:-0.13981418 348:0.073800981 349:-0.20381977 350:-0.023542425 351:-0.035023779 352:0.046266049 353:0.080211528 354:-0.11031096 355:0.068012759 356:-0.043454316 357:-0.037416514 358:0.017915051 359:-0.27802765 360:-0.10710499 361:0.031724848 362:-0.019245671 363:-0.006087278 364:0.035301957 365:0.051252574 366:-0.054219164 367:3.625335e-05 368:-0.034262456 369:-0.032343529 370:0.34208342 371:0.053054802 372:-0.080222085 373:0.035076343 374:-0.11370918 375:0.011241042 376:-0.13712178 377:-0.027595557 378:0.012931504 379:0.084693857 380:0.070215762 381:0.041092705 382:0.16499944 383:0.053291835 384:-0.071688458 385:0.048673503 386:-0.29860982 387:0.28710091 388:0.022677451 389:-0.019884355 390:-0.14526047 391:0.028714074 392:-0.047805265 393:0.064771101 394:-0.029295446 395:-0.21638751 396:-0.11347139 397:0.012248134 398:-0.034457974 399:0.14978504 400:0.079697959 401:0.087246828 402:-0.035305314 403:-0.4125635 404:-0.030749144 405:-0.11572489 406:0.080946513 407:0.077497199 408:-0.019212009 409:0.17639177 410:-0.20934899 411:-0.00269317 412:0.12600052 413:-6.6453409e-05 414:0.22970085 415:0.041281339 416:0.049729429 417:-0.054360706 418:0.069520801 419:0.073824532 420:-0.044458233 421:-0.2677871 422:0.032295767 423:-0.051084597 424:0.091146864 425:0.068140626 426:0.023284845 427:-0.29084742 428:0.013136483 429:-0.092671879 430:-0.42112041 431:-0.17430916 432:0.25837356 433:0.048537146 434:-2.9438877e-05 435:-0.059952389 436:0.21816233 437:-0.15371287 438:-0.072866321 439:-0.066382237 440:-0.17470138 441:-0.065827131 442:0.071224377 443:-0.034032863 444:0.00096630794 445:0.25248826 446:0.11338326 447:-0.016870666 448:-0.033458188 449:-0.10534535 450:-0.004588251 451:-0.25890529 452:-3.5421723e-05 453:0.031533491 454:0.14780273 455:-0.14772837 456:-0.052485973 457:0.038212404 458:-0.065263465 459:0.49763638 460:0.11510216 461:-0.033613477 462:0.09422303 463:-0.0032052533 464:0.044385687 465:-0.029012412 466:0.098043233 467:-0.020916961 468:0.051154047 469:0.09011744 470:-0.018843552 471:-0.065384626 472:-0.10019932 473:0.097291395 474:0.0017160178 475:0.0542931 476:-0.024070788 477:-0.0045027235 478:0.077238515 479:-0.01979614 480:2.0593145e-05 481:0.014303351 482:-0.29672194 483:0.084847383 484:0.037944783 485:-0.12977616 486:0.012821699 487:0.074791223 488:-0.1022788 489:-0.011451315 490:-0.1403192 491:2.4884293e-05 492:0.0096316542 493:-0.14399716 494:0.03626382 495:-0.087613769 496:-0.12385229 497:0.063567415 498:-0.092766792 499:0.10006566 500:-0.081110351 501:0.034341201 502:-0.015774459 503:0.12333997 504:-0.072907135 505:0.025391705 506:-0.06422697 507:0.23359747 508:0.094080575 509:-0.13564326 510:-0.072350904 511:-0.039522883 512:-0.21236931 
