svm_type c_svc
kernel_type linear
nr_class 2
total_sv 46
rho 1.9871
label 1 0
nr_sv 24 22
SV
1 1:0.26348794 2:-3.8062106e-05 3:-3.5054651e-05 4:-4.1632855e-05 5:4.6616369e-05 6:-0.23367824 7:0.22402157 8:-0.060659181 9:-0.04271844 10:-0.023590185 11:0.031745408 12:-0.065497234 13:0.035037838 14:-0.18919978 15:5.3345178e-05 16:3.5238663e-05 17:0.33563653 18:2.9218358e-05 19:0.14650062 20:5.513378e-05 21:-2.2170505e-05 22:0.25356439 23:0.16545682 24:4.7983707e-05 25:-0.19612278 26:0.021658598 27:-4.0690105e-05 28:0.40544993 29:-4.5917433e-05 30:0.30884385 31:-3.7252903e-09 32:0.18114457 33:-0.1985634 34:-2.0345051e-05 35:-2.7858612e-05 36:0.31561881 37:1.3183875e-05 38:0.060659196 39:1.8929895e-05 40:0.017569598 41:-2.0345053e-05 42:-1.4386124e-05 43:0.26718706 44:0.16529301 45:0.044145543 46:-0.14600812 47:0.1218419 48:-0.27517894 49:-2.09712e-05 50:5.9966158e-05 51:-3.5238663e-05 52:1.4386123e-05 53:4.9050144e-05 54:4.5492921e-05 55:1.7295164e-05 56:2.3584031e-05 57:0.044074781 58:-0.072011679 59:5.1368737e-05 60:-0.15043806 61:-0.14005639 62:-0.077906348 63:-2.1579186e-05 64:-0.34572259 65:-0.24053541 66:0.17862324 67:0.10118482 68:-4.7469392e-05 69:-2.3856688e-05 70:-5.9624665e-05 71:2.2973938e-05 72:-0.21434119 73:-3.3738452e-05 74:-0.19128607 75:-4.7356585e-05 76:0.21488072 77:-0.21306475 78:-0.36379996 79:-0.20711376 80:2.8558772e-05 81:-0.02279379 82:0.27192861 83:3.8731596e-05 84:0.02168202 85:-0.23929438 86:2.9844461e-05 87:-0.028443379 88:-0.25396213 89:-0.1453487 90:-3.9398023e-05 91:0.17431267 92:-0.28434882 93:-0.27916801 94:-4.3600987e-05 95:-2.0345053e-05 96:-0.18762735 97:0.14518236 98:-4.3158372e-05 99:4.037096e-05 100:-3.0517578e-05 101:0.13854358 102:7.8796053e-05 103:-0.12731329 104:-3.5238663e-05 105:2.6214e-05 106:0.24022591 107:0.34302449 108:0.12771106 109:-0.24189545 110:0.16302866 111:5.4362787e-05 112:-0.11750233 113:0.18149328 114:0.31960341 115:-3.4016386e-05 116:-0.072693549 117:0.14883915 118:-0.32647926 119:-0.14024648 120:-0.078290224 121:1.5478176e-05 122:-3.2168351e-05 123:1.7619332e-05 124:0.096022636 125:-0.028615357 126:-0.1217151 127:-4.3382577e-05 128:0.43159753 129:-8.8096649e-06 130:2.4917499e-05 131:-0.035691109 132:2.4917499e-05 133:-5.0862591e-06 134:0.11364911 135:-0.21306475 136:0.35020813 137:0.12655145 138:0.21531053 139:5.1838429e-05 140:4.7728205e-05 141:5.7544497e-05 142:-1.7619333e-05 143:0.054528851 144:4.5492921e-05 145:-2.3308186e-05 146:3.0728774e-05 147:0.050421316 148:0.12954012 149:-0.2758992 150:-0.11746481 151:-5.9560338e-05 152:4.0690102e-05 153:-4.0690102e-05 154:-3.2962755e-05 155:0.17108406 156:-4.345705e-05 157:0.10154614 158:0.10523745 159:-0.17063271 160:0.18388574 161:0.36581776 162:0.24101309 163:0.1178695 164:-0.039482445 165:3.2368778e-05 166:0.20320249 167:4.1320996e-05 168:-2.0345053e-05 169:-0.3090575 170:3.2168351e-05 171:3.6677564e-05 172:2.4917499e-05 173:-5.2366282e-05 174:-0.14883913 175:-4.0690105e-05 176:-0.14498597 177:-0.29218081 178:-0.28188899 179:-0.16529298 180:3.5920326e-05 181:0.10902676 182:-0.32498115 183:-0.17972939 184:-0.12819348 185:0.18990195 186:-0.065497249 187:1.724836e-05 188:-0.018895678 189:0.30946961 190:0.14024648 191:-0.15215683 192:-0.1797294 193:0.27527785 194:0.15236911 195:1.4565737e-05 196:-0.18997793 197:4.4948138e-05 198:-0.20553437 199:4.0690105e-05 200:3.3257642e-05 201:0.04611839 202:-0.2385679 203:-2.3732424e-05 204:-1.7619333e-05 205:-2.0345053e-05 206:-0.021658609 207:-0.29395124 208:-0.060261201 209:2.7858609e-05 210:-2.0061005e-05 211:-1.4946668e-05 212:0.36210877 213:3.2168351e-05 214:2.3732513e-05 215:0.1460081 216:0.080592491 217:5.1869909e-05 218:0.3735055 219:0.2758992 220:0.28188899 221:-2.0345051e-05 222:0.2402045 223:3.6677564e-05 224:2.9034403e-05 225:3.3310509e-05 226:4.4921686e-05 227:0.20617627 228:6.4246422e-05 229:-0.24642943 230:-0.021318465 231:-0.036767025 232:-0.023590168 233:-0.15256406 234:-0.1453487 235:0.040370673 236:-0.29759717 237:-0.12231439 238:-3.2168049e-05 239:3.5999925e-05 240:1.8178578e-05 241:0.14274842 242:0.028615426 243:0.12084191 244:0.079277687 245:4.7599577e-05 246:-4.1579515e-05 247:0.29384676 248:5.4780729e-05 249:4.1583069e-05 250:3.8062106e-05 251:5.6179611e-05 252:-2.9154013e-05 253:-2.3641436e-05 254:-5.5076231e-05 255:-3.3644112e-05 256:1.2458749e-05 257:-0.20020814 258:-0.30194539 259:-2.2460328e-05 260:8.8096676e-06 261:-0.18990196 262:-0.26362363 263:-0.24949421 264:0.078290224 265:-2.3652488e-05 266:4.605807e-05 267:0.15236913 268:0.084744953 269:-0.12655143 270:-5.1869905e-05 271:2.3856688e-05 272:0.30823663 273:-0.024420578 274:-0.12955199 275:0.17893714 276:-0.027301602 277:-0.13031738 278:-0.074353613 279:0.36701614 280:-4.345705e-05 281:0.23821642 282:-0.16630472 283:-0.33619627 284:4.5492921e-05 285:3.8902432e-05 286:-2.0345051e-05 287:0.14217523 288:-1.9031053e-05 289:-0.14498597 290:-0.29759723 291:-2.5934953e-05 292:4.771338e-05 293:-1.0524081e-05 294:0.094356619 295:3.8112517e-05 296:1.6084174e-05 297:-0.33563653 298:-3.8062106e-05 299:-2.0345053e-05 300:-5.4306431e-05 301:-0.084944658 302:-1.0172524e-05 303:-0.20465317 304:2.4917497e-05 305:3.8400445e-05 306:-3.2567976e-05 307:-0.23439325 308:0.28434882 309:5.2612711e-05 310:0.34518576 311:-4.5617144e-05 312:-3.6144691e-05 313:-2.504694e-05 314:-1.3929302e-05 315:0.17255998 316:-0.072011665 317:-3.7376249e-05 318:0.26871318 319:-0.17041115 320:3.5238663e-05 321:0.21312493 322:-0.24430336 323:-0.19021374 324:0.019264458 325:0.17349486 326:6.1335639e-05 327:5.0760289e-05 328:0.16370969 329:-0.2113483 330:-2.6913975e-05 331:-2.5932242e-05 332:1.4386123e-05 333:0.32254291 334:-5.3827949e-05 335:-3.3738452e-05 336:-2.9450697e-05 337:-0.2478361 338:2.4917497e-05 339:3.354299e-05 340:3.6278641e-05 341:0.11112284 342:-3.2938449e-05 343:0.031916477 344:-4.3158372e-05 345:0.13266267 346:0.21531053 347:0.30544919 348:0.2435569 349:6.8993431e-05 350:-0.021318413 351:-0.3078194 352:0.09465678 353:1.6084176e-05 354:-0.20767874 355:0.14548674 356:-0.16272108 357:0.094356604 358:0.44791591 359:-0.088841282 360:-0.30838901 361:0.03078345 362:2.0345051e-05 363:-0.15617216 364:-0.16525465 365:6.2707666e-05 366:4.492066e-05 367:-6.9814392e-05 368:0.024420572 369:1.4386123e-05 370:3.8062106e-05 371:-2.2328679e-05 372:-2.6428999e-05 373:-1.0172525e-05 374:-4.3158372e-05 375:0.028443394 376:4.0690102e-05 377:3.8530958e-05 378:-0.22430116 379:-0.13050954 380:3.596531e-05 381:3.3060707e-05 382:0.22911641 383:0.075695656 384:-0.28145006 385:1.5258789e-05 386:-0.19578722 387:-0.14713041 388:-0.30077016 389:-4.4048327e-05 390:0.14005636 391:-0.27517894 392:-0.21772395 393:-0.1243163 394:-0.29573566 395:-4.4304186e-05 396:0.0044620824 397:2.8772247e-05 398:-3.3738452e-05 399:-0.15486552 400:0.38824418 401:-5.8214941e-05 402:2.0660498e-05 403:-0.15761018 404:-0.08700119 405:3.5238663e-05 406:0.24993728 407:3.8442522e-05 408:0.30699646 409:5.663823e-05 410:4.1320993e-05 411:-0.3340348 412:4.7983711e-05 413:0.10118481 414:-4.1632858e-05 415:0.21799427 416:-3.7252903e-09 417:4.0690105e-05 418:-0.20553438 419:0.21289761 420:-1.4386124e-05 421:0.035691142 422:-0.21861681 423:-0.10489685 424:0.10565478 425:0.12776622 426:-0.16207819 427:0.1230845 428:0.19656682 429:0.17569785 430:0.1634953 431:0.35204303 432:3.3738452e-05 433:-0.039794222 434:0.2499373 435:2.1579184e-05 436:-2.5872534e-05 437:-0.34518576 438:-2.0345053e-05 439:0.16302866 440:0.018868254 441:4.3158376e-05 442:0.051028684 443:3.6853478e-05 444:0.20574106 445:-4.0690102e-05 446:-0.17933592 447:-3.0517578e-05 448:0.13854359 449:-0.20767874 450:-0.35204303 451:3.5164805e-05 452:-4.19424e-05 453:-5.0886898e-05 454:0.36133716 455:-0.30823666 456:-3.5148558e-05 457:0.15761016 458:0.26911074 459:-2.6694492e-05 460:0.21829671 461:0.29827714 462:0.28130642 463:0.25465354 464:0.16098407 465:-0.18149328 466:2.0061001e-05 467:4.4094289e-05 468:-7.4505806e-09 469:0.20020814 470:5.9693117e-05 471:0.11142257 472:-0.017569624 473:0.31698284 474:5.7544497e-05 475:-0.033778436 476:-0.018895576 477:-0.3090575 478:5.0862629e-05 479:-0.21488072 480:3.0268271e-05 481:-3.0043791e-05 482:-4.0050429e-05 483:2.0345051e-05 484:-4.241812e-05 485:-0.1850201 486:0.0067194598 487:-4.6552821e-05 488:0.018146511 489:1.4386123e-05 490:2.785861e-05 491:-5.1084669e-05 492:0.060261223 493:-0.14402656 494:0.017386222 495:-2.8739907e-05 496:-2.8670403e-05 497:0.20521891 498:0.16525906 499:-0.26348794 500:-0.10254621 501:-5.2755298e-05 502:-3.9780814e-05 503:-0.24305081 504:-0.21813531 505:3.1564097e-05 506:-0.29827711 507:-0.16545683 508:-4.5958321e-05 509:-2.9802512e-05 510:-2.630398e-05 511:0.035064135 512:-0.13339156 
1 1:0.26221493 2:4.0690102e-05 3:-3.4496716e-05 4:1.1928344e-05 5:-2.1579188e-05 6:-0.24958873 7:0.20334324 8:-0.052350778 9:-0.034647539 10:-0.021908779 11:0.041877761 12:-0.056175448 13:0.02580563 14:-0.16471377 15:4.6338067e-05 16:4.5492918e-05 17:0.33900306 18:-2.1579186e-05 19:0.15961748 20:6.0822858e-05 21:-1.0092739e-05 22:0.25151721 23:0.17338802 24:4.9050144e-05 25:-0.22008803 26:0.020710446 27:3.7252903e-09 28:0.40737769 29:0.013547717 30:0.31766894 31:7.1930617e-06 32:0.17163923 33:-0.19437344 34:-2.8772252e-05 35:4.4486631e-05 36:0.32468262 37:-3.9526687e-05 38:0.052350827 39:-1.2651919e-05 40:0.013887249 41:-2.0345053e-05 42:-4.1843497e-05 43:0.26847726 44:0.16588491 45:0.039151877 46:-0.14281113 47:0.10316734 48:-0.25471312 49:2.3308186e-05 50:-0.036232017 51:2.8772249e-05 52:4.6616373e-05 53:0.0063752215 54:2.8772247e-05 55:0.0031581761 56:4.124756e-05 57:0.038919162 58:-0.085724302 59:5.2612719e-05 60:-0.15392049 61:-0.14725174 62:-0.086368531 63:3.1353829e-05 64:-0.35786679 65:-0.23885974 66:0.14461403 67:0.11293308 68:0.0019472447 69:-0.018029809 70:-6.2404542e-05 71:2.5000098e-05 72:-0.24680075 73:2.0345053e-05 74:-0.19463581 75:-6.1640159e-05 76:0.21053381 77:-0.19727373 78:-0.36306059 79:-0.19892175 80:-5.214816e-05 81:-0.016165337 82:0.28274107 83:1.808341e-05 84:0.019317824 85:-0.22123691 86:-3.54613e-05 87:-0.021568019 88:-0.26086137 89:-0.15450326 90:-4.8785721e-05 91:0.11236187 92:-0.28058693 93:-0.29028332 94:1.0432372e-05 95:0.022770785 96:-0.19601291 97:0.16254114 98:-5.1368737e-05 99:0.017925372 100:0.033532225 101:0.11213111 102:-0.0079053547 103:-0.12987959 104:-0.018953716 105:2.7720425e-05 106:0.22310813 107:0.31410578 108:0.10127688 109:-0.24912567 110:0.17246884 111:3.9765586e-05 112:-0.09432289 113:0.173382 114:0.32897562 115:0.0030018005 116:-0.078441657 117:0.15621682 118:-0.30402502 119:-0.13856213 120:-0.085789926 121:3.1538268e-05 122:0.011420255 123:-4.6754903e-05 124:0.09829554 125:-0.025371535 126:-0.10335627 127:-4.9427777e-05 128:0.45136631 129:-0.0062267818 130:1.9031049e-05 131:-0.0331272 132:-3.5238663e-05 133:-4.5350531e-05 134:0.12032529 135:-0.19727372 136:0.36054245 137:0.11791457 138:0.21729517 139:6.0700488e-05 140:3.6661029e-05 141:4.5776367e-05 142:2.9657755e-05 143:0.065088853 144:6.7476903e-05 145:-1.4386123e-05 146:0.03177534 147:0.042433266 148:0.13641551 149:-0.26408887 150:-0.1018007 151:-4.9802544e-05 152:2.8772247e-05 153:-2.6672589e-05 154:-8.8096631e-06 155:0.15634085 156:-3.6760128e-05 157:0.09777458 158:0.1240486 159:-0.1733717 160:0.17060615 161:0.34364447 162:0.24445803 163:0.12697792 164:-0.032343488 165:-0.0074339807 166:0.21523263 167:0.024743672 168:-1.6869228e-05 169:-0.29803109 170:3.5671899e-05 171:-1.345699e-05 172:0.00739522 173:-3.6677564e-05 174:-0.15614976 175:0.020391995 176:-0.16336696 177:-0.28568846 178:-0.28830978 179:-0.16588488 180:2.6271764e-05 181:0.098098502 182:-0.30318782 183:-0.18743998 184:-0.12632434 185:0.17689872 186:-0.056205571 187:0.0027174703 188:-0.014209426 189:0.30457473 190:0.13856213 191:-0.16471806 192:-0.18743998 193:0.25381243 194:0.15570167 195:-1.8661762e-05 196:-0.18820353 197:1.6231288e-05 198:-0.21645871 199:2.6913975e-05 200:5.7866968e-05 201:0.037176974 202:-0.26161787 203:-0.005653488 204:3.1353829e-05 205:-5.7544501e-05 206:-0.02071044 207:-0.31399304 208:-0.055891167 209:2.6913975e-05 210:-3.2013562e-05 211:1.1581765e-05 212:0.36214235 213:0.0048421682 214:5.4254004e-05 215:0.14466123 216:0.06096885 217:-0.022201408 218:0.36916152 219:0.26408884 220:0.28830981 221:2.0345051e-05 222:0.25707746 223:-2.785861e-05 224:3.9065471e-05 225:3.3086326e-05 226:3.7223635e-05 227:0.19520029 228:0.010084619 229:-0.25431532 230:-0.013632209 231:-0.025772877 232:-0.021005325 233:-0.14995876 234:-0.15450326 235:0.035512101 236:-0.27378371 237:-0.14165498 238:9.4449724e-06 239:0.021351047 240:4.8300186e-05 241:0.11794522 242:0.023721324 243:0.12377106 244:0.065188043 245:4.4295539e-05 246:3.3311819e-05 247:0.28368554 248:-0.0049770665 249:-3.3330463e-05 250:6.1877065e-05 251:3.8735827e-05 252:2.4977035e-05 253:9.2801338e-06 254:-5.3792573e-05 255:-3.2810742e-05 256:-3.9068327e-05 257:-0.18518879 258:-0.32548541 259:-1.5258789e-05 260:4.1477222e-05 261:-0.17519379 262:-0.25621167 263:-0.2499086 264:0.085966013 265:-0.0030014687 266:0.0012317476 267:0.15570165 268:0.098617248 269:-0.12210161 270:-0.012664964 271:0.013224212 272:0.30231911 273:-0.021239819 274:-0.12839335 275:0.17986156 276:-0.021646805 277:-0.11085921 278:-0.056780666 279:0.3599669 280:-4.6893027e-05 281:0.26028904 282:-0.17887056 283:-0.3399621 284:2.0345053e-05 285:2.5303842e-05 286:2.4917499e-05 287:0.15442376 288:-2.9657755e-05 289:-0.16336694 290:-0.27391982 291:2.8546581e-05 292:4.5492921e-05 293:3.4065615e-05 294:0.10003226 295:-2.3754808e-05 296:-2.6973985e-05 297:-0.33900306 298:-1.3145494e-05 299:3.5238663e-05 300:-6.0609822e-05 301:-0.069980897 302:-1.3929304e-05 303:-0.207288 304:2.0345053e-05 305:3.0090738e-05 306:3.1353833e-05 307:-0.23369385 308:0.28058693 309:-0.0049202978 310:0.35568628 311:-3.7720736e-05 312:-0.01365644 313:1.2610606e-05 314:-4.9280352e-05 315:0.15914127 316:-0.081474885 317:-2.4392861e-05 318:0.28371263 319:-0.17333961 320:1.4386127e-05 321:0.21711607 322:-0.20273736 323:-0.19971584 324:0.014712022 325:0.16749863 326:7.0940892e-05 327:5.3789634e-05 328:0.16400413 329:-0.21901754 330:1.7619332e-05 331:-1.9527452e-05 332:-1.7619332e-05 333:0.29700276 334:0.031701017 335:-3.8735827e-05 336:-6.9761722e-06 337:-0.22452 338:-4.3158376e-05 339:0.0035597773 340:4.7170623e-05 341:0.094122589 342:1.1522009e-05 343:0.022886919 344:0.020566402 345:0.13795607 346:0.21729517 347:0.30756348 348:0.22854932 349:-0.0015347035 350:-0.013632201 351:-0.30371359 352:0.094557196 353:3.2168351e-05 354:-0.18720485 355:0.15357082 356:-0.17299332 357:0.10041133 358:0.45423207 359:0.024200048 360:-0.31614348 361:0.023094278 362:0.0060043372 363:-0.15391384 364:-0.16955918 365:-0.0051676333 366:3.3738452e-05 367:-5.8885817e-05 368:0.021239756 369:-7.1930635e-06 370:2.4917499e-05 371:-2.3885266e-05 372:-3.0728774e-05 373:2.7858612e-05 374:3.5238663e-05 375:0.021568079 376:-3.310958e-05 377:-1.5521122e-05 378:-0.21329769 379:-0.13953122 380:-0.029894905 381:1.0822234e-05 382:0.24642363 383:0.084938452 384:-0.29886493 385:-0.016075974 386:-0.18780421 387:-0.15069366 388:-0.28296 389:-4.8386373e-05 390:0.14732511 391:-0.25471312 392:-0.23747225 393:-0.11780519 394:-0.31557906 395:-2.8284912e-05 396:0.0032592693 397:-2.6428997e-05 398:7.1930608e-06 399:-0.15609482 400:0.37754071 401:-4.771338e-05 402:-2.5175717e-05 403:-0.1561861 404:-0.096126847 405:4.4341014e-05 406:0.2655921 407:-3.5284516e-05 408:0.30874768 409:4.2096319e-05 410:2.5431316e-05 411:-0.3175956 412:4.6681358e-05 413:0.11293308 414:1.3456989e-05 415:0.20377137 416:2.0971202e-05 417:5.4780729e-05 418:-0.21645871 419:0.18226631 420:4.367972e-05 421:0.033127241 422:-0.20785819 423:-0.13274017 424:0.10571998 425:0.1074615 426:-0.14973752 427:0.10501249 428:0.18772174 429:0.15338509 430:0.17092377 431:0.34343261 432:-0.012697622 433:-0.067415476 434:0.26529053 435:-3.9398023e-05 436:5.8443616e-06 437:-0.35568631 438:3.5238667e-05 439:0.17246883 440:0.013663175 441:-0.019650852 442:0.03994387 443:3.6765621e-05 444:0.21721996 445:-6.4737564e-05 446:-0.18150772 447:0.0093914866 448:0.11213113 449:-0.18720484 450:-0.34343261 451:4.5053479e-05 452:-2.4917499e-05 453:-4.137848e-05 454:0.34244463 455:-0.3022691 456:-3.1121363e-05 457:0.15619089 458:0.28545952 459:0.027132787 460:0.1999976 461:0.28160375 462:0.27450955 463:0.23535712 464:0.17178513 465:-0.173382 466:-0.018953752 467:-1.6674074e-05 468:2.4917499e-05 469:0.1851888 470:4.1225961e-05 471:0.11499289 472:-0.013887367 473:0.34147754 474:0.036232069 475:-0.023170693 476:-0.014209392 477:-0.2974551 478:0.0014216993 479:-0.21045254 480:5.1081374e-06 481:-3.60786e-05 482:-5.5147833e-05 483:2.4917501e-05 484:-3.269907e-05 485:-0.19583163 486:0.0056082448 487:0.0012213051 488:0.014214288 489:8.8096613e-06 490:3.0090738e-05 491:-3.7881549e-05 492:0.055891164 493:-0.15824965 494:0.014238395 495:-2.4977955e-05 496:-0.0092397695 497:0.21820435 498:0.17627472 499:-0.26139677 500:-0.10434256 501:-6.2675514e-05 502:-0.003381745 503:-0.2261188 504:-0.1574643 505:-3.0599687e-05 506:-0.28232843 507:-0.17338802 508:-3.9291939e-05 509:0.022433043 510:-0.030382583 511:0.025288668 512:-0.13103667 
1 1:0.22751044 2:-0.011356778 3:0.020080894 4:-3.0938529e-05 5:0.017504247 6:-0.23326884 7:0.14245346 8:-0.077997498 9:-0.067846261 10:-0.035127226 11:-0.023407672 12:-0.059788182 13:0.050420891 14:-0.16547537 15:4.9181825e-05 16:0.0021733763 17:0.31264141 18:1.5258789e-05 19:0.16449095 20:0.019133201 21:-0.0086536985 22:0.25181273 23:0.16758393 24:0.061090294 25:-0.20540798 26:0.047141425 27:0.05670058 28:0.41473305 29:0.040440846 30:0.30383781 31:0.020874819 32:0.16221577 33:-0.20077892 34:-2.6913975e-05 35:-0.0057573663 36:0.34175757 37:0.011542669 38:0.077550039 39:0.01211498 40:0.04276767 41:-4.8785721e-05 42:1.7036133e-05 43:0.2790657 44:0.20015086 45:0.065453 46:-0.12579398 47:0.11798732 48:-0.21972895 49:0.0064320397 50:-0.046373464 51:-2.1579186e-05 52:0.019963209 53:0.055428531 54:4.0690105e-05 55:0.015594264 56:0.020160135 57:0.064168468 58:-0.12711757 59:0.0041629053 60:-0.14718233 61:-0.1775526 62:-0.074081339 63:-4.3158368e-05 64:-0.32926837 65:-0.23136072 66:0.064693108 67:0.12911977 68:0.018293848 69:-0.025840919 70:-6.3057145e-05 71:2.957906e-05 72:-0.22442578 73:2.8772249e-05 74:-0.1971398 75:-3.9906747e-05 76:0.19165146 77:-0.22839718 78:-0.38110107 79:-0.19568892 80:-0.032240048 81:-0.039237332 82:0.28713602 83:-0.0076043159 84:0.034872938 85:-0.23446153 86:-0.0043036486 87:-0.047220115 88:-0.26866809 89:-0.16116884 90:-4.0049275e-05 91:0.062374752 92:-0.26769766 93:-0.28217092 94:0.0041622906 95:0.029941566 96:-0.19442466 97:0.1737058 98:-5.5250959e-05 99:0.028116262 100:0.043836169 101:0.13980338 102:-0.03895105 103:-0.12539604 104:-0.028276941 105:-0.016557943 106:0.20327093 107:0.32853439 108:0.11408561 109:-0.21959548 110:0.157177 111:-0.034314271 112:-0.12591538 113:0.17566404 114:0.31916058 115:0.0022267911 116:-0.11052521 117:0.1734653 118:-0.33626312 119:-0.1690114 120:-0.084419943 121:-3.0582156e-05 122:0.017460629 123:0.018187674 124:0.07728871 125:-0.042127565 126:-0.11511207 127:-2.6428999e-05 128:0.42970768 129:5.0862632e-06 130:-2.4917499e-05 131:-0.060129106 132:-0.003824376 133:-1.3929306e-05 134:0.11835078 135:-0.21688129 136:0.37028572 137:0.13075449 138:0.21926379 139:5.4570839e-05 140:-0.015313988 141:-0.021077504 142:-3.2368782e-05 143:-0.047670346 144:4.7713376e-05 145:-4.4299974e-05 146:0.038888566 147:0.075248271 148:0.1439252 149:-0.25687772 150:-0.11052953 151:-2.5550245e-05 152:0.026345532 153:0.030452361 154:4.7168061e-05 155:0.16029465 156:0.036259428 157:0.12036272 158:0.095255837 159:-0.18335094 160:0.17484069 161:0.32517579 162:0.23651509 163:0.14517377 164:-0.053732153 165:0.0063103405 166:0.2225799 167:0.054757025 168:-0.017877184 169:-0.28117275 170:-0.0087538948 171:0.0038242268 172:-0.051433288 173:0.0043034893 174:-0.17073537 175:0.039339632 176:-0.16818871 177:-0.3037056 178:-0.31628457 179:-0.20016633 180:2.8118573e-05 181:0.1175822 182:-0.33244935 183:-0.17684342 184:-0.087337539 185:0.2037006 186:-0.06110749 187:0.021926699 188:-0.023537733 189:0.2565268 190:0.16901138 191:-0.20286377 192:-0.17671214 193:0.28304705 194:0.15093651 195:1.9118315e-05 196:-0.17674024 197:-0.073717065 198:-0.19278686 199:-0.015213253 200:-0.015477214 201:0.062476054 202:-0.23559366 203:-0.025503095 204:4.3158376e-05 205:0.020692265 206:-0.047141463 207:-0.25305909 208:-0.077323571 209:1.0172525e-05 210:-0.0074324519 211:-3.7368332e-05 212:0.3775968 213:0.036129836 214:1.7588209e-05 215:0.12907456 216:0.059085112 217:-0.040209159 218:0.35635328 219:0.25792861 220:0.31574979 221:-0.0035746917 222:0.25508571 223:0.018463539 224:-2.630876e-05 225:-0.020850087 226:-0.024667008 227:0.21134017 228:6.9557405e-05 229:-0.23386788 230:-0.028362704 231:-0.05838481 232:-0.034621343 233:-0.15819108 234:-0.16329513 235:0.062020633 236:-0.26263973 237:-0.08974009 238:-1.8752902e-05 239:0.03082037 240:0.0086536435 241:0.14043592 242:0.04044304 243:0.13408066 244:0.078290142 245:3.210839e-05 246:0.018893775 247:0.33627942 248:-0.033206731 249:-0.013067687 250:0.013025633 251:5.1447365e-05 252:0.021066308 253:0.0011329586 254:0.023657048 255:-0.007787047 256:1.1444091e-05 257:-0.17103346 258:-0.32864782 259:7.1930631e-06 260:5.4067717e-05 261:-0.21036349 262:-0.28780791 263:-0.22696845 264:0.095172472 265:-0.0066589769 266:-0.017374808 267:0.15093651 268:0.079517342 269:-0.12513477 270:-0.020079086 271:0.025770871 272:0.27273694 273:-0.031216133 274:-0.1384826 275:0.15185429 276:-0.035459075 277:-0.13997643 278:-0.070680827 279:0.35196161 280:-0.0090347044 281:0.22917938 282:-0.16927101 283:-0.32278472 284:-0.0059092483 285:2.6059344e-05 286:0.0058992496 287:0.20625259 288:2.6913973e-05 289:-0.16818871 290:-0.26263633 291:0.0030019411 292:5.1869909e-05 293:-0.01751795 294:0.11215976 295:3.4730278e-05 296:1.8688123e-05 297:-0.31298083 298:-4.3092761e-05 299:-3.0517578e-05 300:0.01948816 301:-0.081132077 302:3.6055113e-05 303:-0.17232516 304:-4.19424e-05 305:-2.7419863e-05 306:-3.3352855e-05 307:-0.23271549 308:0.26027551 309:-0.0094586089 310:0.31823814 311:-0.0034575781 312:-0.014747462 313:2.762548e-05 314:-4.495664e-05 315:0.15440521 316:-0.11776219 317:2.6913975e-05 318:0.26172557 319:-0.20109661 320:3.9398026e-05 321:0.20039301 322:-0.22763227 323:-0.19346224 324:0.03577565 325:0.12336828 326:-0.0058988119 327:-2.7774819e-05 328:0.14768805 329:-0.25417307 330:-3.0090738e-05 331:-4.6852336e-05 332:-1.761933e-05 333:0.25189897 334:0.048602499 335:-3.2567972e-05 336:-0.016087476 337:-0.18608779 338:1.4386125e-05 339:-2.1013446e-05 340:0.018258298 341:0.11533114 342:3.0064763e-05 343:0.049409613 344:0.054308645 345:0.16326857 346:0.21930185 347:0.32955477 348:0.22013798 349:-0.022337236 350:-0.025908155 351:-0.25172344 352:0.11017101 353:0.01118938 354:-0.2117288 355:0.16248944 356:-0.15375996 357:0.11215973 358:0.42752919 359:-0.088024497 360:-0.29507691 361:0.04909518 362:-0.0040525035 363:-0.093091764 364:-0.14146297 365:0.0051498609 366:-0.0044916556 367:0.023206444 368:0.041939314 369:-0.043042131 370:4.9834998e-05 371:-4.9359336e-05 372:-1.1654092e-05 373:-3.8400442e-05 374:-0.01082157 375:0.047220126 376:3.6611378e-05 377:0.0085941497 378:-0.21484596 379:-0.17909576 380:-0.02947727 381:-2.2741408e-05 382:0.2233347 383:0.01877071 384:-0.29524368 385:-0.045281075 386:-0.20139706 387:-0.16892661 388:-0.27246127 389:-4.1164181e-05 390:0.18398012 391:-0.21972895 392:-0.24343042 393:-0.12369565 394:-0.26974601 395:-5.527736e-05 396:0.020085463 397:0.024094176 398:0.025958067 399:-0.15551083 400:0.39082342 401:0.0051354333 402:-0.020563874 403:-0.16611756 404:-0.056351867 405:4.4341014e-05 406:0.27057293 407:0.0044920929 408:0.3340393 409:4.4048327e-05 410:-0.016557956 411:-0.339367 412:3.9068327e-05 413:0.131626 414:-5.0607679e-05 415:0.21155737 416:0.0018349499 417:4.5492921e-05 418:-0.19278687 419:-0.097377606 420:-0.018258194 421:0.060129113 422:-0.25567895 423:-0.11009709 424:0.097239733 425:0.13703687 426:-0.14830276 427:0.13307568 428:0.19109778 429:0.17914927 430:0.17117265 431:0.3708733 432:-0.027021078 433:-0.041732967 434:0.27124241 435:0.036259368 436:-3.616705e-05 437:-0.31823814 438:0.016087316 439:0.1568312 440:0.011907027 441:-0.029795911 442:0.059927948 443:3.1763702e-05 444:0.19309273 445:-0.026774541 446:-0.17964424 447:4.0848743e-05 448:0.13994351 449:-0.22364162 450:-0.37023234 451:2.1800628e-05 452:-0.0079805339 453:-3.4657842e-05 454:0.31641775 455:-0.25918815 456:-4.5886496e-05 457:0.16611756 458:0.27006549 459:0.029410692 460:0.2352279 461:0.31169733 462:0.25749475 463:0.23167971 464:0.15326178 465:-0.17040934 466:-0.028276928 467:4.7208847e-05 468:0.017206045 469:0.18227643 470:3.941145e-05 471:0.1418069 472:-0.039596271 473:0.30382329 474:0.046725247 475:-0.052854192 476:-0.023537651 477:-0.27942652 478:0.0057913265 479:-0.18618627 480:-0.0088350587 481:-2.3156055e-05 482:0.0082981028 483:-0.01774702 484:0.040789172 485:-0.18065532 486:0.020776508 487:0.0036006004 488:0.031167114 489:-0.024479039 490:-0.071513563 491:-3.2415759e-05 492:0.077323578 493:-0.15024228 494:0.031334382 495:-3.2563428e-05 496:-0.030030936 497:0.19093546 498:0.20172702 499:-0.22604424 500:-0.096661419 501:-3.9349081e-05 502:-0.038001437 503:-0.25273502 504:-0.17563263 505:-0.024789615 506:-0.31390491 507:-0.16758393 508:-0.034505319 509:0.04325477 510:-0.031244101 511:0.041397993 512:-0.12520017 
0.4209840341064927 1:0.27611694 2:-0.021080161 3:0.0017778436 4:-0.041496474 5:0.10996737 6:-0.20368469 7:0.21167286 8:-0.074247897 9:-0.025461521 10:-0.026065713 11:0.049210869 12:-0.06206866 13:0.072993077 14:-0.14159696 15:2.157919e-05 16:0.0037057421 17:0.31160915 18:1.7847276e-05 19:0.16953713 20:0.030943384 21:-0.00167534 22:0.21109401 23:0.10646392 24:0.037436627 25:-0.18470877 26:0.017295228 27:0.15961877 28:0.37853497 29:0.086686097 30:0.29140216 31:0.0020772389 32:0.14088099 33:-0.19373135 34:-3.6842506e-05 35:-0.010882579 36:0.2911016 37:-0.0302325 38:0.081288233 39:1.3695184e-05 40:0.10688876 41:-0.018459372 42:0.09692736 43:0.2611855 44:0.21883918 45:0.031170404 46:-0.1533511 47:0.11998277 48:-0.25696111 49:-0.0099921422 50:-0.055564787 51:2.09712e-05 52:0.0014706952 53:2.8039394e-05 54:-0.045389544 55:0.0011366467 56:0.052264739 57:0.031698033 58:-0.16839297 59:0.023826327 60:-0.11654538 61:-0.14437616 62:0.070668645 63:-1.3695182e-05 64:-0.32067001 65:-0.21679656 66:0.1514753 67:0.14832664 68:-2.8229415e-05 69:-0.019862458 70:-4.3132801e-05 71:3.4097364e-05 72:-0.22062367 73:0.066341892 74:-0.17218855 75:0.10928611 76:0.23375568 77:-0.17445189 78:-0.34942871 79:-0.19610929 80:-0.0077060647 81:-0.046149656 82:0.25387055 83:-0.010766001 84:-0.076313227 85:-0.22182678 86:-7.5144853e-06 87:-0.12525335 88:-0.25536591 89:-0.1873167 90:0.023134302 91:0.20060596 92:-0.26272404 93:-0.25773796 94:0.023826292 95:0.01939933 96:-0.20250921 97:0.1551861 98:1.4914338e-05 99:0.14956012 100:0.060857147 101:0.1326941 102:-0.021386342 103:-0.11493518 104:-0.010371727 105:-0.063231751 106:0.20463045 107:0.2797409 108:0.13050584 109:-0.245537 110:0.15070394 111:-0.020021778 112:-0.17067906 113:0.14547092 114:0.29700115 115:0.094972879 116:-0.24197209 117:0.11728252 118:-0.29188266 119:-0.16892309 120:-0.093113072 121:-2.7907019e-05 122:0.011411719 123:0.035748608 124:0.091587871 125:0.015420227 126:-0.1223985 127:-4.755997e-05 128:0.40501326 129:-3.7376249e-05 130:4.4341014e-05 131:-0.025611494 132:-2.9218359e-05 133:-2.6428997e-05 134:0.11293069 135:-0.16050673 136:0.34325823 137:0.15398267 138:0.22182108 139:5.7470814e-05 140:0.087683327 141:0.02110292 142:-1.1654096e-05 143:0.10465991 144:6.2681873e-05 145:4.633806e-05 146:0.060397711 147:0.029697495 148:0.13195053 149:-0.25144252 150:-0.089968711 151:-2.5046942e-05 152:0.057619281 153:0.0074328897 154:2.2746461e-05 155:0.20815116 156:4.6546953e-05 157:0.14861031 158:0.15051655 159:-0.15810196 160:0.1092306 161:0.34585175 162:0.24116987 163:0.15427668 164:-0.026798187 165:0.016870825 166:0.18603462 167:0.014260812 168:-0.046819653 169:-0.27394032 170:4.1632858e-05 171:0.055647902 172:-0.050417792 173:2.3567218e-05 174:-0.13474584 175:0.013532966 176:-0.15893707 177:-0.27364829 178:-0.26852059 179:-0.20144802 180:-1.4815669e-05 181:0.11160639 182:-0.27324837 183:-0.15875189 184:-0.17981112 185:0.14761217 186:-0.065177649 187:-0.011671338 188:-0.036030125 189:0.32024965 190:0.16892309 191:-0.16824803 192:-0.15871824 193:0.21952666 194:0.13411383 195:-2.9612786e-05 196:-0.17424758 197:-0.064979978 198:-0.14647594 199:-0.001744411 200:0.011486205 201:0.1278877 202:-0.22735755 203:-0.0088522229 204:-1.6481375e-05 205:0.044573419 206:-0.017295392 207:-0.28783804 208:-0.067356326 209:-1.9088391e-05 210:-0.012925209 211:3.3901822e-05 212:0.34131035 213:0.057413451 214:-9.3329863e-06 215:0.12665999 216:0.16274029 217:-0.015779836 218:0.33109245 219:0.25147417 220:0.26848388 221:-0.00075558928 222:0.18926285 223:-5.5484583e-05 224:4.1035339e-05 225:-0.0027240529 226:-0.03975606 227:0.19055544 228:4.8328333e-05 229:-0.21798182 230:-0.10610288 231:-0.076998614 232:-0.016287243 233:-0.21048817 234:-0.20325084 235:-0.058842622 236:-0.2817921 237:-0.11477669 238:2.9051869e-05 239:-0.018969366 240:0.001675765 241:0.13746627 242:0.02027818 243:0.14047889 244:0.082749471 245:-0.046098117 246:0.012730047 247:0.2603142 248:6.0262024e-05 249:-3.3132914e-05 250:3.4974262e-05 251:6.4640524e-05 252:0.017892739 253:-0.012925223 254:-5.5495355e-05 255:3.153455e-05 256:2.5611478e-05 257:-0.195645 258:-0.29431465 259:-1.3456986e-05 260:5.6752302e-05 261:-0.14591882 262:-0.23804806 263:-0.25617859 264:0.093113065 265:-0.094973266 266:-0.03610862 267:0.13411383 268:0.074404843 269:0.10061557 270:-0.0062049469 271:0.14390765 272:0.30226243 273:0.020530345 274:-0.15389054 275:0.20570888 276:0.040848836 277:-0.12500171 278:-0.06502457 279:0.34913647 280:0.0081099849 281:0.23098646 282:-0.14175817 283:-0.30575803 284:-0.018582709 285:3.9068327e-05 286:0.059438009 287:0.1551692 288:1.7619332e-05 289:-0.15893707 290:-0.28108469 291:-2.8319113e-05 292:1.0789591e-05 293:-0.10996737 294:0.10070479 295:0.064019255 296:-7.1930658e-06 297:-0.31162325 298:-5.1994444e-05 299:-2.3099139e-05 300:0.0023047677 301:-0.089665741 302:-0.015219182 303:-0.21402888 304:0.011454324 305:3.1146872e-05 306:3.1712756e-05 307:-0.23014845 308:0.25774536 309:-0.0049292729 310:0.32703763 311:-0.020350607 312:-0.027783539 313:0.034817457 314:1.5258787e-05 315:0.20184371 316:-0.13176605 317:3.1565836e-05 318:0.25143877 319:-0.2109773 320:-3.6281705e-05 321:0.19391827 322:-0.20745561 323:-0.16929476 324:0.040155698 325:0.16356708 326:-0.020703128 327:-2.436162e-05 328:0.11275299 329:-0.20144467 330:-3.1090323e-05 331:-0.019955194 332:-4.8519858e-05 333:0.33021644 334:0.05663221 335:-5.6274486e-05 336:-0.0025121858 337:-0.15302564 338:5.6723806e-05 339:4.7395624e-05 340:0.030279677 341:0.18032125 342:3.9612922e-05 343:0.091049694 344:0.039520085 345:0.18770336 346:0.22193211 347:0.27659315 348:0.21237178 349:7.1084054e-05 350:-0.034328684 351:-0.3424975 352:0.11850967 353:0.0018425816 354:-0.15328421 355:0.18172893 356:-0.15686467 357:0.10070478 358:0.38597298 359:-0.054421589 360:-0.31484634 361:-0.039415114 362:-0.023831116 363:-0.11403381 364:-0.15579753 365:0.019968208 366:5.0531737e-05 367:0.027886711 368:0.064713955 369:-0.097347453 370:4.9976661e-05 371:-0.014786248 372:-4.3753691e-05 373:3.411969e-05 374:-0.020033365 375:0.060568463 376:-2.3147981e-05 377:3.3145894e-05 378:-0.20834346 379:0.054363504 380:-0.05523913 381:-3.3330209e-05 382:0.2201782 383:0.039301451 384:-0.27005172 385:0.01165387 386:-0.24071613 387:-0.18484554 388:-0.24667184 389:-3.9068327e-05 390:0.1362979 391:-0.25696111 392:-0.20636031 393:-0.11700603 394:-0.27395925 395:-3.5803609e-05 396:0.066724509 397:0.049309056 398:0.0018419664 399:-0.14774573 400:0.34932399 401:0.062167574 402:-0.0028492473 403:-0.13890149 404:-0.076937437 405:3.8278398e-05 406:0.24200608 407:2.5046942e-05 408:0.27753052 409:6.0982093e-06 410:-0.063231781 411:-0.29931813 412:4.7781101e-05 413:0.12929259 414:2.8546581e-05 415:0.19875763 416:0.065640993 417:5.8218415e-05 418:-0.20783582 419:0.17394052 420:-0.03027962 421:0.025611542 422:-0.19935721 423:-0.16644567 424:-0.11220186 425:0.12905186 426:-0.14224933 427:0.13346325 428:0.18811119 429:0.12947471 430:0.14526671 431:0.32558495 432:-0.0059898617 433:-0.12104306 434:0.24295428 435:-2.9218358e-05 436:-2.666525e-05 437:-0.33031631 438:0.0025116252 439:0.14838964 440:0.14733098 441:-0.11166126 442:0.06960503 443:3.5146779e-05 444:0.21551272 445:-0.038110457 446:-0.11330801 447:-0.031137962 448:0.13243037 449:-0.16609408 450:-0.32496804 451:4.6864599e-05 452:-2.8601502e-05 453:-3.6566315e-05 454:0.34905279 455:-0.30092394 456:-5.6550463e-05 457:0.13890149 458:0.26617104 459:0.05078971 460:0.20718762 461:0.24556732 462:0.27772355 463:0.22063239 464:0.14782472 465:-0.13840705 466:-0.024914265 467:3.3484019e-05 468:0.023952499 469:0.21589699 470:7.2091105e-05 471:0.18313827 472:-0.10684146 473:0.30992934 474:0.055565622 475:-0.066054218 476:-0.073242255 477:-0.27375817 478:0.0054100733 479:-0.23375568 480:-0.010856817 481:-2.4152463e-05 482:0.030442484 483:-0.065602489 484:-0.02483944 485:-0.16643259 486:0.0036852593 487:-4.1865227e-05 488:0.063984267 489:-0.0023128688 490:-0.067875631 491:-3.8265996e-05 492:0.067356303 493:-0.13003182 494:0.067655042 495:-1.9843566e-05 496:-0.14573419 497:0.2133508 498:0.12750156 499:-0.23327705 500:-0.093269289 501:0.10928611 502:0.017427994 503:-0.26624608 504:-0.22228067 505:-0.073200926 506:-0.27501026 507:-0.15282156 508:-0.030495852 509:0.013354743 510:-0.043305941 511:0.071509443 512:-0.134958 
1 1:0.26745713 2:-5.5717221e-05 3:-4.9964608e-05 4:-4.3827535e-05 5:-3.6677568e-05 6:-0.25061694 7:0.22589488 8:-0.071942821 9:-0.055163328 10:-0.029190453 11:0.066728905 12:-0.06897404 13:0.029312789 14:-0.17929904 15:5.6064371e-05 16:4.9834998e-05 17:0.3368777 18:4.3753691e-05 19:0.15294284 20:5.5948894e-05 21:-1.4386125e-05 22:0.23444425 23:0.15457608 24:4.2402477e-05 25:-0.21004155 26:0.035324514 27:-3.8062106e-05 28:0.38454059 29:-2.0345053e-05 30:0.32447049 31:2.785861e-05 32:0.16803387 33:-0.17777722 34:2.4917499e-05 35:-0.0099637751 36:0.30541945 37:-3.6010239e-05 38:0.071942843 39:3.2087944e-05 40:0.015386017 41:-3.8062106e-05 42:2.2315888e-05 43:0.25392273 44:0.16960825 45:0.065411083 46:-0.15612718 47:0.14450175 48:-0.28220609 49:-2.6913975e-05 50:4.530148e-05 51:-4.3158376e-05 52:2.0345053e-05 53:-1.7982655e-05 54:-0.009079081 55:3.4596171e-05 56:0.0046897647 57:0.064396031 58:-0.08384753 59:4.7848735e-05 60:-0.13667791 61:-0.14355512 62:-0.07796973 63:-2.8772247e-05 64:-0.34719351 65:-0.23598027 66:0.16583113 67:0.10664689 68:-5.3491734e-05 69:-1.1230166e-05 70:-5.9781683e-05 71:3.3923996e-05 72:-0.23238285 73:1.0172526e-05 74:-0.20553027 75:-5.8281457e-05 76:0.21310887 77:-0.18956146 78:-0.36038986 79:-0.1898692 80:-3.8513386e-05 81:-0.017289348 82:0.27636945 83:3.5842902e-05 84:0.032557175 85:-0.22157937 86:-1.7750575e-05 87:-0.024085838 88:-0.24585758 89:-0.1549264 90:-3.3738452e-05 91:0.20023337 92:-0.27013204 93:-0.26604834 94:-3.0755644e-05 95:0.035361513 96:-0.17812711 97:0.16633347 98:-4.1320996e-05 99:5.6866149e-05 100:4.3158372e-05 101:0.15789923 102:7.3355128e-05 103:-0.10875289 104:-0.028216595 105:3.7998332e-05 106:0.23917434 107:0.32670966 108:0.1536054 109:-0.24610372 110:0.19034582 111:6.1815372e-05 112:-0.12718923 113:0.16967268 114:0.33540571 115:-2.8464221e-05 116:-0.079365201 117:0.16300827 118:-0.29863027 119:-0.13568084 120:-0.073997296 121:-2.366487e-05 122:0.017279416 123:-1.0172527e-05 124:0.078538254 125:-0.034461018 126:-0.14363095 127:-4.7339148e-05 128:0.43517408 129:-3.0517574e-05 130:2.785861e-05 131:-0.052764822 132:-3.5238663e-05 133:1.3456986e-05 134:0.11922787 135:-0.18952873 136:0.36151651 137:0.11016339 138:0.20799915 139:5.4495013e-05 140:1.4815241e-05 141:0.012836533 142:3.7028552e-05 143:0.015160801 144:4.9834998e-05 145:1.6869226e-05 146:-0.018873965 147:0.070517816 148:0.14130393 149:-0.2773672 150:-0.093342185 151:-3.6661029e-05 152:4.7713376e-05 153:-0.0030495487 154:2.4917499e-05 155:0.18295012 156:-3.2443626e-05 157:0.093083963 158:0.13213128 159:-0.19448963 160:0.15192263 161:0.36855984 162:0.22361307 163:0.12635607 164:-0.055145629 165:-3.902692e-05 166:0.18329111 167:0.035950221 168:1.4386123e-05 169:-0.29797286 170:2.9218358e-05 171:2.1579184e-05 172:-2.7390364e-05 173:-4.4631779e-05 174:-0.16300826 175:0.02778304 176:-0.16439645 177:-0.28026417 178:-0.28534234 179:-0.16960824 180:2.5271869e-05 181:0.10478751 182:-0.29727763 183:-0.16243312 184:-0.11340448 185:0.18081163 186:-0.069482729 187:-2.316903e-05 188:-0.014467372 189:0.32707393 190:0.13568081 191:-0.17129122 192:-0.16243313 193:0.24115071 194:0.13285352 195:2.4250456e-05 196:-0.17288533 197:4.0643001e-05 198:-0.20076725 199:4.0690109e-05 200:5.4278375e-05 201:0.068182006 202:-0.25437054 203:-1.3723487e-05 204:4.4341014e-05 205:-0.0067789033 206:-0.035324499 207:-0.30656505 208:-0.077152632 209:3.7376249e-05 210:2.8770502e-05 211:-2.3141438e-05 212:0.35919583 213:-0.026955737 214:3.8094779e-05 215:0.15988064 216:0.081071883 217:-0.036206923 218:0.37073803 219:0.27739853 220:0.28534234 221:-4.771338e-05 222:0.24807945 223:-2.4917499e-05 224:2.2638416e-05 225:-2.7141243e-05 226:1.0366912e-05 227:0.19085899 228:5.1884675e-05 229:-0.22041133 230:-0.015638478 231:-0.030517429 232:-0.029190408 233:-0.16394968 234:-0.1549264 235:0.056363799 236:-0.28880167 237:-0.092108995 238:2.2208378e-05 239:0.034440119 240:4.8045422e-05 241:0.15991333 242:0.034461036 243:0.12370055 244:0.080550559 245:3.4463585e-05 246:-3.8956794e-05 247:0.2684167 248:4.8785725e-05 249:-2.9242436e-05 250:5.3827949e-05 251:4.9378679e-05 252:0.013200091 253:-4.443375e-07 254:-5.6527268e-05 255:-3.2691969e-05 256:3.4962279e-05 257:-0.18222526 258:-0.33232594 259:-4.1477222e-05 260:-1.2196431e-05 261:-0.17698015 262:-0.28525808 263:-0.26751259 264:0.073997304 265:-2.3856688e-05 266:2.8772249e-05 267:0.13285352 268:0.074034087 269:-0.11015819 270:-0.010025281 271:2.1277365e-05 272:0.3293058 273:-0.041977618 274:-0.13291861 275:0.14692698 276:-0.034525476 277:-0.15922181 278:-0.079076573 279:0.37245652 280:-4.4776451e-05 281:0.25148082 282:-0.16350484 283:-0.34063199 284:3.8062106e-05 285:6.1035156e-05 286:3.5238663e-05 287:0.16108426 288:2.5934954e-05 289:-0.16439644 290:-0.28855541 291:3.0517578e-05 292:4.5492921e-05 293:3.0886225e-05 294:0.091639541 295:-1.4542881e-05 296:1.1654092e-05 297:-0.3368777 298:-3.4024783e-05 299:-2.8772249e-05 300:-5.4306427e-05 301:-0.093358845 302:7.1930604e-06 303:-0.16905271 304:0.003560384 305:3.3738452e-05 306:-4.3359272e-05 307:-0.2194463 308:0.27013204 309:2.7153215e-05 310:0.34258392 311:-3.439697e-05 312:-4.1164178e-05 313:0.011523592 314:-4.5917433e-05 315:0.14898202 316:-0.083847523 317:-1.2458749e-05 318:0.27202964 319:-0.17226548 320:3.5238663e-05 321:0.2171544 322:-0.18676069 323:-0.17900784 324:0.01728563 325:0.14179766 326:-0.012836372 327:2.6679725e-05 328:0.18430471 329:-0.2198765 330:-2.1579184e-05 331:-0.011924137 332:-3.5965313e-05 333:0.34757122 334:-5.3827949e-05 335:-5.1869909e-05 336:-3.9451901e-05 337:-0.23484482 338:-4.5492921e-05 339:2.5688456e-05 340:2.3515375e-05 341:0.12807469 342:2.7973045e-05 343:0.025763331 344:2.8772249e-05 345:0.13604514 346:0.20839244 347:0.29679558 348:0.22071053 349:4.9834998e-05 350:-0.015638556 351:-0.32605764 352:0.087777905 353:4.3753691e-05 354:-0.18558456 355:0.1567101 356:-0.18712308 357:0.091639541 358:0.44033301 359:-0.079571567 360:-0.32064459 361:0.034326874 362:-1.7619333e-05 363:-0.14133635 364:-0.15775675 365:5.5717221e-05 366:5.2366282e-05 367:-6.6961475e-05 368:0.041977607 369:-7.1930649e-06 370:3.8062106e-05 371:-0.0095187025 372:-2.0185482e-05 373:2.4917499e-05 374:-1.7619333e-05 375:0.024085801 376:-2.6551072e-05 377:4.9765407e-05 378:-0.19185911 379:-0.14946428 380:0.0063601537 381:-2.3342845e-05 382:0.19453396 383:0.020720784 384:-0.28206787 385:-0.017068736 386:-0.16919331 387:-0.15108344 388:-0.29135239 389:-4.689303e-05 390:0.14365438 391:-0.28220609 392:-0.22314851 393:-0.099370062 394:-0.31560117 395:-4.2945987e-05 396:0.0035407231 397:4.7030746e-05 398:-2.2170505e-05 399:-0.14014463 400:0.36603266 401:-4.4048327e-05 402:2.785861e-05 403:-0.16039233 404:-0.085164227 405:-1.4386124e-05 406:0.26441467 407:3.0497702e-05 408:0.29965982 409:4.9050144e-05 410:4.255473e-05 411:-0.30387777 412:4.3363936e-05 413:0.10643125 414:-1.0172526e-05 415:0.1877476 416:-1.1373233e-05 417:6.8993431e-05 418:-0.20076725 419:0.23715417 420:2.774229e-05 421:0.052764807 422:-0.20489715 423:-0.06097278 424:0.10156331 425:0.15214154 426:-0.12786523 427:0.098204248 428:0.16946051 429:0.15015222 430:0.17430441 431:0.35282812 432:-0.016772561 433:-0.10668297 434:0.26339972 435:-4.6616369e-05 436:-3.2443622e-05 437:-0.34243771 438:2.2746459e-05 439:0.19034581 440:0.031386465 441:2.8772252e-05 442:0.070408277 443:2.231589e-05 444:0.19995138 445:-4.3158372e-05 446:-0.19206841 447:7.1930626e-06 448:0.15789923 449:-0.18555041 450:-0.35282809 451:2.6068159e-05 452:-2.6913975e-05 453:-4.2812899e-05 454:0.36492491 455:-0.32930583 456:-2.379276e-05 457:0.16039234 458:0.2740798 459:2.4850042e-05 460:0.2005319 461:0.28206235 462:0.29023352 463:0.23444879 464:0.15038934 465:-0.1696727 466:-0.030774033 467:5.1124473e-05 468:3.8062106e-05 469:0.18222526 470:5.3305466e-05 471:0.12081175 472:-0.015386032 473:0.338036 474:7.6124219e-05 475:-0.026056476 476:-0.014467177 477:-0.29662013 478:0.0029400536 479:-0.21310888 480:-0.0099636856 481:-2.4669753e-05 482:-5.240439e-05 483:-0.0053393506 484:-0.012796503 485:-0.16662893 486:0.015217829 487:-4.252802e-05 488:0.030940363 489:5.7768841e-05 490:3.8735827e-05 491:-3.0464553e-05 492:0.077152632 493:-0.13253658 494:0.01567011 495:-4.1867766e-05 496:-2.8309554e-05 497:0.20283405 498:0.18017831 499:-0.26745713 500:-0.084695064 501:-3.8032085e-05 502:0.013200078 503:-0.2415501 504:-0.23071811 505:3.5592926e-05 506:-0.28317046 507:-0.15457609 508:-4.9101447e-05 509:0.036167115 510:9.8686714e-06 511:0.029522633 512:-0.1133719 
1 1:0.26809242 2:-0.055443581 3:0.038068272 4:-3.0304909e-05 5:-0.030244181 6:-0.22847444 7:0.21234144 8:-0.072061859 9:-0.039651219 10:-0.046025313 11:0.041477498 12:-0.070707127 13:-0.065189071 14:-0.16269673 15:2.5747244e-05 16:0.024053348 17:0.32441941 18:-1.3456987e-05 19:0.15564081 20:6.1352228e-05 21:2.4917497e-05 22:0.23920728 23:0.17766978 24:6.1981496e-05 25:-0.19468357 26:0.022059245 27:-4.0690102e-05 28:0.39780426 29:-2.5175717e-05 30:0.31906971 31:0.071112774 32:0.14920151 33:-0.19153886 34:-5.3827949e-05 35:-0.031776808 36:0.30954674 37:0.069976196 38:0.088285983 39:0.054384992 40:0.075123325 41:-4.0690105e-05 42:3.0938529e-05 43:0.27896914 44:0.1734793 45:0.041867103 46:-0.1243766 47:0.12990992 48:-0.27570277 49:0.05128422 50:5.3041218e-05 51:-1.0172533e-05 52:3.2168351e-05 53:-0.0020648965 54:6.4336709e-05 55:1.3456985e-05 56:5.0479721e-05 57:0.041635923 58:-0.082531691 59:4.4341014e-05 60:-0.15708809 61:-0.14820972 62:-0.084370285 63:-2.8772251e-05 64:-0.34567946 65:-0.23990875 66:0.16242298 67:0.10610966 68:-5.7915317e-05 69:1.9699013e-05 70:0.00097425457 71:3.1010179e-05 72:-0.22818348 73:-1.0172525e-05 74:-0.177029 75:0.0017630561 76:0.21369123 77:-0.17713927 78:-0.37241933 79:-0.21760963 80:-0.088628404 81:-0.076350309 82:0.27637169 83:-0.016939882 84:0.022654243 85:-0.24455462 86:-0.0012773094 87:-0.041040421 88:-0.24767043 89:-0.15771797 90:-3.9398023e-05 91:0.18904661 92:-0.27812284 93:-0.28478768 94:-2.6264144e-05 95:0.043054149 96:-0.18248071 97:0.15663372 98:-3.7720736e-05 99:-0.031921931 100:1.6481375e-05 101:0.14350681 102:-0.042362727 103:-0.14647759 104:-0.052764527 105:1.9367912e-05 106:0.24646321 107:0.31525177 108:0.13873343 109:-0.25973523 110:0.15756585 111:-0.079289965 112:-0.12374839 113:0.15480505 114:0.3265022 115:-4.5864923e-05 116:-0.086548962 117:0.13782683 118:-0.31478137 119:-0.14952478 120:-0.085883982 121:1.1773885e-05 122:0.016073963 123:-3.9724986e-05 124:0.095163211 125:-0.028215352 126:-0.13051456 127:1.3695182e-05 128:0.42473841 129:-2.8089806e-05 130:-1.761933e-05 131:-0.034903131 132:-0.00075592205 133:-3.2468528e-05 134:0.10595618 135:-0.17868356 136:0.35313642 137:0.10419754 138:0.21618681 139:-0.0037109195 140:3.3413398e-05 141:-0.024053304 142:-0.00060610886 143:0.12451162 144:3.5238667e-05 145:0.001841884 146:-0.028951213 147:0.02512916 148:0.14208396 149:-0.28605032 150:-0.10236868 151:-6.9375892e-05 152:0.038068343 153:0.072044402 154:-3.2567976e-05 155:0.19351402 156:0.0077376748 157:0.11968756 158:0.1372081 159:-0.16387907 160:0.18635775 161:0.35869068 162:0.23435473 163:0.12858149 164:-0.037368976 165:0.032176919 166:0.20354421 167:0.056551546 168:-0.051937569 169:-0.31150815 170:-0.0037102571 171:0.00075429474 172:1.6084176e-05 173:0.0012761352 174:-0.13782682 175:0.043307856 176:-0.15498118 177:-0.27726832 178:-0.2928856 179:-0.17021838 180:2.365249e-05 181:0.097007647 182:-0.3086409 183:-0.18317994 184:-0.15707441 185:0.18339488 186:-0.08876162 187:-2.1277365e-05 188:-0.026670301 189:0.31179991 190:0.14952478 191:-0.16881554 192:-0.18317996 193:0.26507527 194:0.15573229 195:-3.5506153e-05 196:-0.20082606 197:1.159578e-05 198:-0.2019695 199:0.0018018298 200:3.5703844e-05 201:-0.057686426 202:-0.24801871 203:-0.015011855 204:4.0690105e-05 205:-0.031575672 206:-0.022059266 207:-0.29200217 208:-0.068314292 209:3.5603844e-05 210:-0.028873077 211:-3.1430329e-05 212:0.37351629 213:-0.017525192 214:0.0014378867 215:0.13522297 216:0.084201396 217:-0.054208893 218:0.3573494 219:0.28695023 220:0.28712142 221:-4.3158372e-05 222:0.25012681 223:0.0042770933 224:1.0877472e-05 225:0.053213347 226:2.2704571e-05 227:0.21717098 228:5.8237245e-05 229:-0.23659639 230:-0.025154989 231:0.017091755 232:-0.023123104 233:-0.16759588 234:-0.15771796 235:0.037708003 236:-0.29336286 237:-0.12779899 238:4.5723355e-05 239:0.059001744 240:2.9456995e-05 241:0.15116127 242:0.028215414 243:0.12032348 244:0.090589777 245:4.5082841e-05 246:0.044128276 247:0.27413434 248:5.9315513e-05 249:-3.7498059e-05 250:0.072310753 251:5.3827949e-05 252:0.055985916 253:-0.028402599 254:0.0058895233 255:-0.051448248 256:-2.785861e-05 257:-0.20959049 258:-0.30875868 259:-2.3029035e-05 260:2.6672589e-05 261:-0.16586928 262:-0.29001725 263:-0.25824723 264:0.085728928 265:2.2024165e-05 266:3.7376245e-05 267:0.15573229 268:0.053991947 269:-0.10419753 270:-0.033004384 271:5.4217038e-05 272:0.30955988 273:-0.021806028 274:-0.13915016 275:0.18544731 276:-0.021680936 277:-0.13859077 278:-0.066668935 279:0.36243403 280:-0.028026896 281:0.23911758 282:-0.16846667 283:-0.32887614 284:-0.042946443 285:3.3546206e-05 286:0.041820459 287:0.14934438 288:2.2746459e-05 289:-0.15498118 290:-0.29327393 291:-2.7390364e-05 292:4.771338e-05 293:2.9915593e-05 294:0.10453127 295:3.1814565e-05 296:3.411969e-05 297:-0.32921478 298:-8.8096695e-06 299:2.0345055e-05 300:-4.9313148e-05 301:-0.087112859 302:4.3008258e-05 303:-0.21178299 304:-3.0517578e-05 305:-8.8096676e-06 306:-3.0198013e-05 307:-0.22290793 308:0.27800229 309:-0.00088670629 310:0.34042501 311:-0.015329535 312:-5.3466276e-05 313:1.6869228e-05 314:-2.9218358e-05 315:0.18012691 316:-0.084304743 317:-7.1930699e-06 318:0.26488048 319:-0.18273768 320:-2.0345053e-05 321:0.22276399 322:-0.24493228 323:-0.19566752 324:0.026273698 325:0.18067802 326:-0.041820392 327:3.3286247e-05 328:0.14982846 329:-0.21227318 330:-4.4631779e-05 331:-2.2225831e-05 332:-3.6677564e-05 333:0.32685572 334:2.8772249e-05 335:-4.434101e-05 336:5.5398036e-06 337:-0.23250051 338:-0.00033181775 339:-2.118126e-05 340:-0.00088616263 341:0.093768157 342:-0.00097644149 343:0.044396408 344:-0.037309527 345:0.14230357 346:0.21706913 347:0.29393408 348:0.2426589 349:6.5925502e-05 350:-0.025090357 351:-0.30862293 352:0.11064611 353:0.044049941 354:-0.17101724 355:0.15702179 356:-0.15256338 357:0.10453125 358:0.44608286 359:0.066383705 360:-0.3155897 361:0.064978592 362:-0.0080659539 363:-0.15551984 364:-0.17036767 365:0.025124416 366:5.2857999e-05 367:-5.9668055e-05 368:0.02180592 369:3.9068327e-05 370:5.5717221e-05 371:-3.8964325e-05 372:-5.134513e-05 373:-3.5965347e-06 374:-0.056606438 375:0.041040421 376:-2.5431339e-06 377:0.065856978 378:-0.23020393 379:-0.13482586 380:0.013675701 381:2.6421347e-05 382:0.22333543 383:0.073258623 384:-0.28978166 385:0.035583854 386:-0.18800843 387:-0.16480987 388:-0.2957187 389:1.5045368e-05 390:0.14822704 391:-0.27569565 392:-0.22285952 393:-0.13464698 394:-0.29731292 395:-4.4637531e-05 396:0.0087967515 397:0.060012862 398:0.044350881 399:-0.1656587 400:0.3729977 401:0.032176893 402:2.5431314e-05 403:-0.14477552 404:-0.08350271 405:2.0345053e-05 406:0.26655164 407:-4.7155547e-05 408:0.28570852 409:0.0013649109 410:-3.7720736e-05 411:-0.32713741 412:4.0848739e-05 413:0.1062797 414:2.5934954e-05 415:0.21905188 416:0.040330552 417:4.0690105e-05 418:-0.2019695 419:0.21180142 420:4.1320996e-05 421:0.034780174 422:-0.19751689 423:-0.10121287 424:0.10387294 425:0.15220377 426:-0.16978435 427:0.11515732 428:0.20615718 429:0.14551838 430:0.15406044 431:0.35249978 432:-0.028471854 433:-0.12164979 434:0.26600772 435:0.0077375052 436:-4.2440592e-05 437:-0.34042501 438:2.4917499e-05 439:0.15238228 440:-0.051253695 441:-0.054384995 442:0.059904069 443:4.1787916e-05 444:0.21479876 445:-3.2168351e-05 446:-0.16167779 447:-4.0690105e-05 448:0.14798848 449:-0.17101724 450:-0.34791911 451:5.495318e-05 452:-4.0690105e-05 453:-2.2285491e-05 454:0.35903096 455:-0.30955991 456:-4.1093623e-05 457:0.14477552 458:0.26717907 459:0.032762237 460:0.2014019 461:0.29772148 462:0.27753544 463:0.2516489 464:0.17588679 465:-0.15499817 466:-0.052685268 467:3.5203626e-05 468:0.033743773 469:0.20959049 470:6.7756002e-05 471:0.11856863 472:-0.027329 473:0.32187888 474:6.1035156e-05 475:-0.046787359 476:-0.02663142 477:-0.30863109 478:0.0045773429 479:-0.21369123 480:-0.07297162 481:-4.6917175e-05 482:0.066459633 483:0.042588964 484:0.0079797609 485:-0.19110431 486:0.0060104197 487:0.0039491206 488:0.018674299 489:-0.022634888 490:0.0061407955 491:-2.976659e-05 492:0.068314292 493:-0.1485506 494:-0.047737144 495:0.0026380946 496:0.00016792055 497:0.20827684 498:0.17383793 499:-0.26809242 500:-0.10925401 501:-4.0551342e-05 502:-5.5078552e-05 503:-0.23274317 504:-0.22489566 505:0.0029274388 506:-0.30117917 507:-0.17766976 508:-0.057190761 509:0.054208927 510:3.1382096e-05 511:0.048888449 512:-0.12428223 
0.04132564407804442 1:0.16869508 2:-2.4392863e-05 3:0.055957012 4:0.019492993 5:0.20276223 6:-0.098749518 7:-0.31001225 8:-0.24155392 9:0.0054443092 10:-0.17019205 11:-0.073914871 12:0.11246689 13:0.22386372 14:0.090338878 15:-0.046656247 16:-0.015759675 17:0.0048843026 18:0.19228576 19:0.28721404 20:0.10678143 21:-0.059438016 22:-0.13159101 23:-0.18881755 24:0.20417854 25:-0.0094975913 26:0.081292741 27:0.19961722 28:0.093474209 29:-0.072041243 30:-0.070986912 31:0.014772793 32:0.16407822 33:-0.058561165 34:0.048919484 35:-0.20616376 36:0.035763863 37:-0.016165311 38:0.24192032 39:0.027775386 40:0.087454021 41:0.028809993 42:3.1009924e-05 43:0.2658534 44:0.055903114 45:0.091536134 46:0.12869246 47:0.07863272 48:0.011477981 49:0.024866883 50:-0.056332391 51:4.3823507e-05 52:0.21515387 53:-0.0087254541 54:-0.061808504 55:0.35815027 56:0.028641157 57:0.051066469 58:-0.10533318 59:-0.062284399 60:0.020810783 61:0.019331349 62:0.085228555 63:-2.8546583e-05 64:0.027933747 65:-0.19950914 66:-0.07206852 67:0.020930247 68:0.031749759 69:-0.023970313 70:0.01647106 71:0.045390327 72:0.045887023 73:3.6268731e-05 74:-0.18639433 75:0.011436909 76:-0.024438441 77:-0.040339407 78:-0.17279083 79:-0.16676892 80:0.21997775 81:0.24467696 82:0.28405488 83:-0.021090031 84:0.2583445 85:-0.060396664 86:-0.20951505 87:-0.024901433 88:0.14121301 89:-0.22996488 90:-0.27188396 91:-0.20316501 92:-0.040655222 93:-0.11235219 94:0.26723003 95:-0.022224614 96:0.30678302 97:-0.0975959 98:-0.0078850342 99:0.27276129 100:0.063897945 101:0.15267943 102:-0.16367377 103:0.057946317 104:-0.28889716 105:-0.020811703 106:0.016121186 107:0.029008599 108:0.014561447 109:0.046064824 110:0.097077295 111:-0.031116648 112:-0.017665612 113:0.097081341 114:0.0080650905 115:0.19908014 116:-0.26953557 117:-0.12860748 118:0.075388879 119:-0.023024693 120:-0.017353803 121:-0.0053986423 122:0.093832605 123:-0.077721164 124:-0.015312625 125:-0.10717558 126:0.13117972 127:-0.053358302 128:-0.053914849 129:-0.24072424 130:3.8231647e-05 131:-0.10201624 132:0.033528838 133:-0.026864642 134:0.025100622 135:0.20676172 136:-0.11007307 137:-0.027921751 138:-0.072635882 139:0.13450105 140:-0.016165901 141:-0.093111552 142:0.054435313 143:0.06754458 144:-0.0015907646 145:0.051522266 146:0.096652128 147:0.021011965 148:0.021739949 149:0.024111466 150:-0.064448267 151:-0.029792324 152:0.37139782 153:-0.24378861 154:-0.32646617 155:-0.34204423 156:0.028030818 157:0.10064913 158:-0.20687269 159:-0.081627972 160:-0.22403497 161:0.33317384 162:0.41046828 163:0.2939426 164:-0.029312026 165:-0.037138328 166:-0.014898883 167:0.04069934 168:0.091686718 169:-0.062551305 170:-0.096714236 171:-0.17095034 172:-0.13614523 173:3.6853482e-05 174:-0.050610665 175:0.075754121 176:-0.022582989 177:-0.053350579 178:-0.057470031 179:-0.026499875 180:-0.073361099 181:0.21962072 182:0.17574759 183:-0.2113263 184:-0.25152436 185:-0.20179851 186:-0.049538024 187:-0.12063459 188:0.080252171 189:0.013340797 190:0.17102028 191:-0.19547519 192:-5.6036857e-05 193:-0.067536645 194:-0.1965234 195:0.13262752 196:-0.20026915 197:-0.34857535 198:-0.15052943 199:-0.25648347 200:-0.07763689 201:0.010169962 202:0.021999508 203:-0.0091106771 204:8.1701319e-06 205:-0.05045129 206:-0.18532321 207:-0.099498928 208:-0.31156534 209:-0.18695541 210:-0.12057921 211:-0.01290301 212:0.018825304 213:-0.23138073 214:-0.027539397 215:0.035663389 216:0.10662121 217:-0.068152763 218:-0.031492162 219:0.039334465 220:0.030964877 221:-0.059763111 222:0.032825556 223:-0.049775884 224:0.012869043 225:-0.017352004 226:-0.017343884 227:-0.069352731 228:0.076075383 229:0.017053904 230:-0.066062137 231:-0.089847311 232:-0.021802023 233:-0.02398215 234:-0.044852916 235:-0.040599413 236:-0.25460759 237:-0.23826225 238:-0.011146197 239:-0.040453821 240:0.063823402 241:-0.052900847 242:0.080392011 243:-0.20066428 244:-0.10685297 245:0.010018273 246:0.07913202 247:0.015174352 248:-0.037469871 249:2.4723688e-05 250:0.0073447088 251:-0.043284126 252:0.088835813 253:-0.045357618 254:-0.03559557 255:-0.046240367 256:-0.02494563 257:-0.077133887 258:-0.037144888 259:-0.035340864 260:0.012464824 261:-0.054591179 262:-0.073298268 263:-0.3452538 264:0.017618028 265:-0.25014296 266:-0.016657503 267:-0.04606453 268:0.0043615946 269:0.19470586 270:0.057309065 271:0.28015196 272:0.18123043 273:-0.27879503 274:-0.33738458 275:-0.1884373 276:-0.24328567 277:-0.31035036 278:-0.22820787 279:-0.050563563 280:-0.41508701 281:0.055590965 282:0.051501326 283:-0.026153699 284:-0.0051680808 285:0.061065078 286:-0.022753231 287:0.17428535 288:0.0021480648 289:-0.043319888 290:0.051099535 291:0.011624034 292:-0.067981295 293:-0.20276223 294:-0.1303322 295:-0.0028753646 296:-0.18664576 297:0.1972733 298:3.9505907e-05 299:0.00045324498 300:-0.063849583 301:-0.01113543 302:0.1964784 303:-0.037715737 304:0.067766517 305:-0.0093838722 306:-0.15898786 307:0.0028733881 308:-0.085905761 309:-0.33357722 310:0.11149098 311:-0.017412549 312:-0.067670137 313:-0.020549752 314:-0.004343254 315:-0.014155617 316:-0.065670371 317:2.8775903e-05 318:-0.13347033 319:0.029345311 320:-0.053339981 321:-0.053901307 322:0.22113371 323:-0.10277653 324:0.075246304 325:-0.067709103 326:-0.10101118 327:0.018575964 328:-0.047253236 329:0.046425905 330:0.0054514087 331:0.012135401 332:5.3841377e-05 333:0.037376329 334:0.036358427 335:-0.088490456 336:-0.088828333 337:0.054749317 338:-0.064107552 339:0.32474017 340:0.05448629 341:0.33693984 342:0.082234733 343:-0.17192213 344:0.03606841 345:0.0018295136 346:0.039530694 347:-0.13792326 348:-0.026475444 349:0.10274874 350:0.10738347 351:-0.039087798 352:0.18492584 353:0.18469743 354:0.11502908 355:0.047089767 356:-0.046102658 357:-0.09236408 358:0.10352429 359:-0.030482356 360:-0.22021884 361:0.19235769 362:0.013309367 363:-0.12126702 364:-0.046947878 365:-0.045654293 366:0.017715706 367:0.023798689 368:0.40073881 369:-0.069551542 370:-1.4108116e-05 371:-0.16358885 372:-0.0047689187 373:0.15003915 374:0.064058818 375:0.047075633 376:0.049515944 377:0.0050954376 378:0.2646721 379:0.089249045 380:0.18844679 381:0.01764792 382:0.01954334 383:-0.28200406 384:-0.032962665 385:-0.032353714 386:-0.19877665 387:0.056759272 388:0.0098991124 389:-0.0019948431 390:0.2432553 391:0.0092746615 392:0.032995291 393:-0.049321 394:0.063950747 395:0.079282008 396:0.038667694 397:0.1671526 398:-0.0058770748 399:-0.048955876 400:-0.33151004 401:0.0089532491 402:-0.021578368 403:-0.22804016 404:-0.019210398 405:0.027530951 406:0.11728179 407:0.20687692 408:0.091017783 409:0.085097224 410:0.062559754 411:0.099343441 412:-3.2968976e-05 413:-0.07322593 414:0.016978392 415:-0.23726721 416:0.20925142 417:-0.024297738 418:0.021675142 419:0.10302436 420:0.2013673 421:0.28347242 422:0.24857469 423:0.082578883 424:-0.064498961 425:0.077433951 426:0.11046615 427:0.067573562 428:-0.029312041 429:-0.23116988 430:0.10149132 431:0.045372523 432:0.065435119 433:0.094711915 434:0.066464424 435:0.029648479 436:0.0094735548 437:-0.010602179 438:0.099876799 439:-0.258248 440:0.27359751 441:0.29375347 442:0.28759587 443:0.093564257 444:0.19969699 445:0.078634031 446:0.16394003 447:0.095751353 448:-0.034754366 449:0.0572844 450:-0.045372479 451:-0.15898786 452:-0.24060731 453:-0.0073001166 454:-0.028825518 455:0.0061019203 456:-0.24915646 457:0.38505736 458:0.4740833 459:0.36269924 460:0.046265002 461:0.17503054 462:0.023787811 463:-0.002259789 464:0.084546 465:0.019547664 466:-0.041184001 467:-0.059388399 468:-0.020839268 469:0.086054839 470:0.042926986 471:0.044479761 472:-0.029576747 473:0.051003769 474:0.24674052 475:0.037908759 476:0.02160666 477:-0.019719537 478:0.082175381 479:-0.0017382712 480:-0.21048053 481:0.011797377 482:0.01898839 483:-0.3008284 484:0.077231906 485:-0.2080934 486:0.31102782 487:0.39022219 488:0.3908191 489:0.027239822 490:0.052757315 491:0.036867984 492:0.067863233 493:-0.032731287 494:0.013116252 495:0.028798984 496:-0.39185649 497:0.070599765 498:-0.054413121 499:0.022939445 500:-0.084141895 501:0.0046714684 502:0.084598623 503:0.028058877 504:0.026849462 505:-0.065894775 506:-0.039109323 507:0.0062548011 508:0.0014784716 509:0.10738692 510:-0.09242361 511:0.012319573 512:-0.019492647 
1 1:0.25832617 2:-3.8062106e-05 3:-5.1619936e-05 4:-5.0479721e-05 5:-7.1930631e-06 6:-0.23095356 7:0.22925457 8:-0.073109053 9:-0.041617304 10:-0.024324108 11:0.042529169 12:-0.073568135 13:0.04981409 14:-0.17645681 15:2.9218358e-05 16:3.8062106e-05 17:0.32940385 18:-2.0345053e-05 19:0.15934798 20:4.1632862e-05 21:1.6084177e-05 22:0.24652925 23:0.17519757 24:5.0351435e-05 25:-0.20022744 26:0.022443425 27:-3.2168351e-05 28:0.40062818 29:-5.4780732e-05 30:0.31441033 31:3.7376249e-05 32:0.16443154 33:-0.19694981 34:-4.771338e-05 35:-1.0172525e-05 36:0.31233019 37:-4.8286027e-05 38:0.073109068 39:1.1928345e-05 40:0.027411001 41:-4.5492921e-05 42:2.3856688e-05 43:0.27324855 44:0.18125689 45:0.043651838 46:-0.13443717 47:0.13202506 48:-0.27897558 49:4.7441503e-05 50:4.1320996e-05 51:-4.6616373e-05 52:4.5492921e-05 53:2.6183141e-05 54:6.1035156e-05 55:-1.8688124e-05 56:5.3102147e-05 57:0.043928672 58:-0.084032349 59:4.3158372e-05 60:-0.15122998 61:-0.14467865 62:-0.084560163 63:-2.8772247e-05 64:-0.34386885 65:-0.23463334 66:0.16653621 67:0.10621268 68:-4.7543635e-05 69:1.7619333e-05 70:-6.0693401e-05 71:3.6777681e-05 72:-0.22674966 73:-2.6913975e-05 74:-0.17895497 75:-5.6017023e-05 76:0.2230919 77:-0.19036615 78:-0.36967874 79:-0.21366605 80:2.7935819e-05 81:-0.032711212 82:0.26919103 83:2.6070802e-05 84:0.024171963 85:-0.24202675 86:-4.2166466e-05 87:-0.040708456 88:-0.25330243 89:-0.16447461 90:-2.6913975e-05 91:0.2069435 92:-0.28317738 93:-0.28450948 94:-3.4939148e-05 95:-5.1869909e-05 96:-0.18763188 97:0.15175207 98:-2.0345056e-05 99:5.0351435e-05 100:2.9657756e-05 101:0.14641877 102:9.3232746e-05 103:-0.12498714 104:-2.8772247e-05 105:1.5258789e-05 106:0.23095813 107:0.31548551 108:0.14257918 109:-0.26093331 110:0.15360147 111:4.9228063e-05 112:-0.12587154 113:0.16339584 114:0.32200047 115:-3.5327619e-05 116:-0.090503722 117:0.1395136 118:-0.31506446 119:-0.15582047 120:-0.091072254 121:1.0740643e-05 122:-4.6616373e-05 123:3.0090738e-05 124:0.091505103 125:-0.028845988 126:-0.13286224 127:-1.6869228e-05 128:0.43101296 129:-3.1763702e-05 130:3.5238667e-05 131:-0.035898656 132:-4.3158372e-05 133:-4.2249674e-05 134:0.1075071 135:-0.19036615 136:0.35777313 137:0.11436183 138:0.22005835 139:4.1500036e-05 140:3.5398891e-05 141:4.2402473e-05 142:2.5431314e-05 143:0.096736021 144:5.3827949e-05 145:-2.6428997e-05 146:4.0690102e-05 147:0.048410889 148:0.13281839 149:-0.27518252 150:-0.10797521 151:2.2728682e-05 152:5.5717221e-05 153:-4.7441499e-05 154:2.1579188e-05 155:0.20162109 156:-1.0172525e-05 157:0.12050946 158:0.1337713 159:-0.16362436 160:0.18420091 161:0.36982429 162:0.24067645 163:0.13440976 164:-0.03820572 165:1.2715657e-05 166:0.20049979 167:4.1942396e-05 168:2.5431316e-05 169:-0.30096576 170:4.5492921e-05 171:-1.7619333e-05 172:3.3738452e-05 173:7.1930635e-06 174:-0.13951361 175:-2.8772251e-05 176:-0.15271401 177:-0.27762967 178:-0.28557345 179:-0.18125688 180:-2.4656572e-05 181:0.10274555 182:-0.3120715 183:-0.18239619 184:-0.14477104 185:0.17405771 186:-0.073568135 187:-4.2554733e-05 188:-0.027582912 189:0.32390037 190:0.15582046 191:-0.1616544 192:-0.1823962 193:0.26827744 194:0.15679999 195:-3.8432583e-05 196:-0.19227941 197:3.4132201e-05 198:-0.20657846 199:3.5238663e-05 200:5.7520767e-05 201:0.047141254 202:-0.24272837 203:-3.3431672e-05 204:3.0517578e-05 205:-3.5238663e-05 206:-0.022443367 207:-0.2989049 208:-0.067881383 209:4.9834998e-05 210:5.5970959e-05 211:-2.287972e-05 212:0.36630711 213:3.0517578e-05 214:3.7045054e-05 215:0.13443717 216:0.11624408 217:5.9315513e-05 218:0.35720578 219:0.27518252 220:0.28557345 221:-5.7544497e-05 222:0.24303666 223:-3.2168351e-05 224:1.3688232e-05 225:-1.0926854e-05 226:-1.8044257e-05 227:0.21234599 228:4.9467501e-05 229:-0.23563229 230:-0.027403012 231:-0.052730408 232:-0.024324095 233:-0.1765033 234:-0.16447461 235:0.039648477 236:-0.30388707 237:-0.13102061 238:-3.1042877e-05 239:2.7618717e-05 240:2.671207e-05 241:0.15381709 242:0.028845998 243:0.1219987 244:0.087245546 245:-3.2827116e-05 246:-3.5134162e-05 247:0.27902117 248:1.7619332e-05 249:-3.6189675e-05 250:3.5238663e-05 251:4.771338e-05 252:-3.0715626e-05 253:2.298766e-05 254:-5.4254419e-05 255:1.6869228e-05 256:2.4917497e-05 257:-0.21063302 258:-0.30294839 259:-1.6869226e-05 260:2.1876845e-05 261:-0.17405771 262:-0.27743471 263:-0.26213098 264:0.091072269 265:2.8032184e-05 266:3.9398023e-05 267:0.15679997 268:0.091644898 269:-0.11436182 270:-5.2857995e-05 271:5.0862582e-06 272:0.31874403 273:-0.022717221 274:-0.14304678 275:0.18385968 276:-0.024165891 277:-0.13997458 278:-0.073088683 279:0.36604163 280:-4.605807e-05 281:0.24426696 282:-0.1698875 283:-0.32732889 284:-2.8772249e-05 285:5.4780729e-05 286:5.3827946e-05 287:0.14691682 288:2.6913971e-05 289:-0.152714 290:-0.3038871 291:2.2746459e-05 292:5.3827949e-05 293:4.5457364e-05 294:0.10028124 295:-3.5965277e-06 296:1.6481375e-05 297:-0.32940382 298:-7.1930563e-06 299:-2.4917499e-05 300:-5.0862629e-05 301:-0.092406176 302:-3.596531e-05 303:-0.21209168 304:-2.4917499e-05 305:2.09712e-05 306:-2.385669e-05 307:-0.22910014 308:0.28317738 309:2.762548e-05 310:0.34604859 311:-2.5684372e-05 312:-5.1116313e-05 313:-2.7272046e-05 314:3.1353833e-05 315:0.17418763 316:-0.084032342 317:3.3738452e-05 318:0.2697801 319:-0.19041567 320:-2.4917499e-05 321:0.21244408 322:-0.23270857 323:-0.19652194 324:0.025760991 325:0.17968941 326:6.7167937e-05 327:-1.052779e-05 328:0.14819103 329:-0.21021101 330:6.452392e-09 331:-2.3323155e-05 332:-4.3158372e-05 333:0.34422341 334:-5.7544497e-05 335:-4.0690105e-05 336:-6.4770829e-05 337:-0.21405146 338:-3.2168351e-05 339:3.5567675e-05 340:1.4159559e-05 341:0.11991613 342:3.796762e-05 343:0.044960093 344:-4.5492921e-05 345:0.14844832 346:0.22005837 347:0.29573324 348:0.23519017 349:5.9315513e-05 350:-0.027403025 351:-0.32076478 352:0.10800394 353:5.2366286e-05 354:-0.18120952 355:0.1634385 356:-0.15457523 357:0.10028122 358:0.44432878 359:0.0033540193 360:-0.31640336 361:0.030552305 362:1.0172525e-05 363:-0.1449786 364:-0.17761271 365:5.5717221e-05 366:3.1353833e-05 367:-7.573131e-05 368:0.022717224 369:4.8252532e-05 370:4.5492921e-05 371:-3.2070635e-05 372:2.7390364e-05 373:-3.5238663e-05 374:-2.8772251e-05 375:0.040708445 376:4.5776371e-05 377:3.9618775e-05 378:-0.22723575 379:-0.12344257 380:4.9574759e-05 381:-2.1504129e-05 382:0.22984754 383:0.07756298 384:-0.2860927 385:2.9218356e-05 386:-0.19892162 387:-0.16952874 388:-0.28648937 389:-3.9068327e-05 390:0.14467862 391:-0.27897561 392:-0.22046591 393:-0.12888816 394:-0.29530969 395:-1.4892573e-05 396:0.0083022779 397:-2.9875033e-05 398:-1.345699e-05 399:-0.16040012 400:0.37578323 401:-5.6866145e-05 402:-2.3856688e-05 403:-0.14644195 404:-0.085590817 405:2.8772251e-05 406:0.25856701 407:3.3750432e-05 408:0.29730725 409:5.7768841e-05 410:-1.0172524e-05 411:-0.32784045 412:5.8436715e-05 413:0.10621268 414:3.7252903e-09 415:0.21630587 416:2.0345051e-05 417:6.4336702e-05 418:-0.20657848 419:0.22482166 420:-1.5881851e-05 421:0.035898674 422:-0.21119478 423:-0.10259716 424:0.10150326 425:0.1406403 426:-0.16245371 427:0.12016299 428:0.20422617 429:0.15577956 430:0.1557129 431:0.34868789 432:4.8785718e-05 433:-0.093813524 434:0.25856704 435:-5.3827946e-05 436:-4.3307969e-05 437:-0.34604859 438:3.2168351e-05 439:0.15360144 440:0.020853158 441:-1.0172525e-05 442:0.059510179 443:5.9750058e-05 444:0.20906417 445:-2.8772249e-05 446:-0.16332364 447:-2.1579186e-05 448:0.14641878 449:-0.18120952 450:-0.34868789 451:5.5970959e-05 452:1.0172526e-05 453:-3.9735733e-05 454:0.37135616 455:-0.31874403 456:-4.8224225e-05 457:0.14644194 458:0.26808056 459:-2.0644646e-05 460:0.21149386 461:0.29975507 462:0.28950995 463:0.24628513 464:0.16694577 465:-0.16339584 466:-3.8432583e-05 467:3.5626155e-05 468:0 469:0.21063302 470:5.1859664e-05 471:0.12348217 472:-0.027411044 473:0.32217515 474:7.0477334e-05 475:-0.047193084 476:-0.027582861 477:-0.30096573 478:4.6616373e-05 479:-0.2230919 480:-5.6698532e-06 481:-3.272044e-05 482:-1.9969148e-05 483:3.0517578e-05 484:-3.3193217e-05 485:-0.19161262 486:0.0064562829 487:-5.2180698e-05 488:0.019525873 489:4.7713376e-05 490:-3.8735827e-05 491:4.2857613e-05 492:0.06788139 493:-0.1493817 494:0.025450945 495:-3.4296561e-05 496:6.0578263e-06 497:0.20788823 498:0.16829632 499:-0.2583262 500:-0.10868256 501:-5.0950275e-05 502:-5.1940751e-05 503:-0.24788906 504:-0.23584542 505:4.7028618e-05 506:-0.29975507 507:-0.17519757 508:-4.331729e-05 509:-4.0825427e-05 510:3.2876993e-05 511:0.049500231 512:-0.13651173 
0.2949515315513503 1:0.22636344 2:-3.2168351e-05 3:0.039464362 4:-5.4246848e-05 5:0.024777897 6:-0.25076416 7:-0.028308557 8:-0.088210419 9:-0.047394026 10:-0.037667591 11:0.021499671 12:-0.13721901 13:0.084557548 14:-0.14138904 15:3.4355813e-05 16:-0.0015367251 17:0.30546334 18:0.023461005 19:0.15243104 20:0.043399479 21:-0.0065452559 22:0.25715601 23:0.21180969 24:3.5965313e-05 25:-0.18792257 26:0.041768391 27:0.016313663 28:0.37905309 29:-2.9657755e-05 30:0.31468907 31:0.061295226 32:0.14193682 33:-0.20949617 34:-2.8772247e-05 35:-0.0167582 36:0.30212963 37:0.059861217 38:0.098446347 39:0.049764626 40:0.084669456 41:1.4386125e-05 42:-4.8168684e-05 43:0.31084597 44:0.13700958 45:0.051619202 46:-0.14605814 47:0.20742415 48:-0.22531599 49:-0.011477253 50:4.8519854e-05 51:1.0172525e-05 52:0.0081075663 53:-0.043223746 54:-2.0345053e-05 55:0.00098672346 56:0.0068061901 57:0.0548537 58:-0.095710367 59:-0.0084567899 60:-0.12016366 61:-0.2199053 62:-0.14422061 63:-0.004849466 64:-0.32035297 65:-0.2135936 66:0.13194175 67:0.16840732 68:0.0051107793 69:-7.41444e-06 70:-5.0573191e-05 71:-2.7281319e-05 72:-0.22890608 73:0.004222922 74:-0.20555633 75:0.037236884 76:0.21096595 77:-0.1759584 78:-0.39301553 79:-0.24504663 80:-0.10529463 81:-0.10491417 82:0.25479093 83:3.8530092e-05 84:0.011697981 85:-0.27168661 86:-2.1174868e-05 87:-0.084340073 88:-0.28303716 89:-0.12982239 90:-5.2857995e-05 91:0.19756146 92:-0.27467632 93:-0.28935564 94:0.0090382304 95:0.030949516 96:-0.20618939 97:0.2088076 98:-0.0024789083 99:3.7505801e-05 100:2.4656574e-05 101:0.23396671 102:9.3232746e-05 103:-0.1290336 104:-0.052144594 105:-0.045288544 106:0.20024784 107:0.23749058 108:0.20727596 109:-0.24143234 110:0.17913693 111:-0.08550895 112:-0.20777617 113:0.14412723 114:0.32388872 115:-2.7326641e-05 116:-0.071578942 117:0.16391371 118:-0.32291794 119:-0.12178972 120:-0.086189851 121:3.9393017e-05 122:0.0081603946 123:0.046710048 124:0.12560631 125:-0.017581878 126:-0.20883782 127:-0.011040125 128:0.40785652 129:-3.0304911e-05 130:2.8772251e-05 131:-0.044439435 132:-2.6913973e-05 133:1.1373229e-05 134:0.13714071 135:-0.17383489 136:0.32842207 137:0.11266785 138:0.24763253 139:-0.053692155 140:-0.0055999793 141:-0.0035810012 142:0.022670768 143:0.1140457 144:3.8062106e-05 145:0.026882743 146:0.047009964 147:-0.019372448 148:0.17502536 149:-0.25692242 150:-0.094576627 151:-0.015662936 152:0.037956998 153:0.088169098 154:0.0048495145 155:0.20900394 156:0.013028279 157:0.14375831 158:0.18962581 159:-0.19996123 160:0.1773724 161:0.33013088 162:0.24879764 163:0.10545888 164:-0.045413926 165:0.039739054 166:0.15176153 167:0.04130435 168:-0.04706417 169:-0.26548141 170:-0.013471971 171:-3.8735827e-05 172:-0.0086681154 173:2.1802811e-05 174:-0.16388023 175:0.05405404 176:-0.21567732 177:-0.25241989 178:-0.30953798 179:-0.13750178 180:0.00024067383 181:0.14695406 182:-0.30705628 183:-0.20215289 184:-0.14171007 185:0.18145289 186:-0.13739014 187:-4.1164181e-05 188:-0.069614358 189:0.28948691 190:0.12178971 191:-0.25969702 192:-0.20265955 193:0.28096473 194:0.18051504 195:2.0363761e-05 196:-0.18257898 197:-0.0088780904 198:-0.21196035 199:0.034450661 200:-0.0062189884 201:-0.022201585 202:-0.2219014 203:-1.8293485e-05 204:4.2554733e-05 205:0.029117273 206:-0.041768394 207:-0.27541012 208:-0.16765651 209:1.3336296e-05 210:3.007679e-05 211:0.00071822229 212:0.38173759 213:-0.019239254 214:0.01353601 215:0.15164441 216:-0.11984238 217:-0.042840932 218:0.32590503 219:0.25983113 220:0.30111066 221:0.016451059 222:0.20072749 223:-3.9398023e-05 224:-3.2536333e-05 225:0.039902285 226:-0.049318802 227:0.21369426 228:-0.010551271 229:-0.12374143 230:-0.061861318 231:-0.11507036 232:-0.035364598 233:-0.1277719 234:-0.13530092 235:0.038865842 236:-0.27337384 237:0.057461046 238:-2.3099139e-05 239:-0.02769332 240:0.0065452401 241:0.24098366 242:0.041712027 243:0.18196447 244:0.15204825 245:-0.0012413361 246:0.051776104 247:0.27880991 248:0.0038213562 249:-2.7610535e-05 250:0.057878714 251:0.02117477 252:0.0613387 253:-1.8890491e-05 254:0.0055956393 255:-0.047901019 256:2.3890552e-05 257:-0.19474195 258:-0.34760728 259:-0.0016794492 260:0.0061449837 261:-0.17603734 262:-0.32561025 263:-0.22201233 264:0.086249903 265:-0.0020419634 266:-0.046930451 267:0.18094736 268:0.094511457 269:-0.11501476 270:-0.019979598 271:4.9737569e-05 272:0.27422372 273:-0.037531052 274:-0.10371824 275:0.14552465 276:0.039285485 277:-0.21625523 278:-0.11157209 279:0.30467647 280:0.034626331 281:0.22330056 282:-0.17004219 283:-0.30530202 284:2.8772251e-05 285:3.1353833e-05 286:0.033053227 287:0.21371146 288:0.016787386 289:-0.21451491 290:-0.27541539 291:-2.5573965e-05 292:-0.013352567 293:-0.024252396 294:0.14672478 295:-0.0051296153 296:-0.0035558001 297:-0.31133905 298:-3.8631333e-05 299:4.4341014e-05 300:0.0059410874 301:-0.15999267 302:0.012500778 303:-0.21914765 304:1.7619332e-05 305:2.1277367e-05 306:-3.8400445e-05 307:-0.23658399 308:0.2744976 309:-0.033858463 310:0.32004985 311:-0.013352608 312:-1.6797188e-05 313:9.9108784e-06 314:-3.468369e-05 315:0.17948449 316:-0.10855448 317:2.0345051e-05 318:0.25512356 319:-0.14658758 320:0.0033204844 321:0.18832083 322:-0.23338 323:-0.22678034 324:0.075531512 325:0.14062788 326:-0.033961199 327:3.4032215e-05 328:0.15490234 329:-0.28352183 330:-3.1353829e-05 331:-0.023404745 332:1.6084176e-05 333:0.27167472 334:0.0357906 335:-0.0015829171 336:-0.0068886918 337:-0.20384389 338:-0.0079680821 339:0.0048501212 340:0.016959513 341:0.18581928 342:0.012633692 343:0.095425501 344:-0.019838631 345:0.11736626 346:0.24777827 347:0.28511602 348:0.19858244 349:5.663823e-05 350:-0.051188048 351:-0.27330688 352:0.096807644 353:0.042891398 354:-0.16531634 355:0.12848596 356:-0.18788201 357:0.14668491 358:0.42065781 359:0.11209104 360:-0.31883535 361:0.061734769 362:-0.017209148 363:0.14685565 364:-0.17942582 365:4.6616369e-05 366:0.018410061 367:0.04631532 368:0.038115572 369:0.0044982154 370:6.6705717e-05 371:-4.1206509e-05 372:-3.0613457e-05 373:-1.2967478e-05 374:0.0095970333 375:0.084340081 376:2.2639582e-05 377:0.046363302 378:-0.22465663 379:-0.22268443 380:0.025749153 381:-2.2880204e-05 382:0.22166108 383:0.11108074 384:-0.27458853 385:-0.027099382 386:-0.18791939 387:-0.1303584 388:-0.25132486 389:-4.1006762e-05 390:0.22074468 391:-0.22328725 392:-0.20733297 393:-0.15186782 394:-0.26205754 395:-2.7777403e-05 396:0.052740604 397:0.076541752 398:0.040355198 399:-0.16041659 400:0.36730587 401:0.039659087 402:-0.0073930849 403:-0.17688787 404:-0.11524539 405:0.015861625 406:0.2601521 407:0.0031654427 408:0.2755411 409:0.01134395 410:-0.045115106 411:-0.32462633 412:3.5054647e-05 413:0.16840734 414:-3.6677564e-05 415:0.21412286 416:0.020920075 417:-0.00092508481 418:-0.21136603 419:0.14577898 420:-0.038224317 421:0.010713265 422:-0.2079484 423:-0.037165888 424:0.1370604 425:0.24745828 426:-0.18701422 427:0.148858 428:0.21320474 429:0.14521946 430:0.17828539 431:0.36053166 432:-0.018186074 433:-0.19380805 434:0.25889602 435:-3.4869659e-05 436:-5.4551503e-05 437:-0.32004985 438:0.0068885353 439:0.17526549 440:0.011629441 441:-0.048544124 442:0.16470486 443:-0.0093483357 444:0.2367706 445:-0.046295781 446:-0.18677415 447:5.0862625e-05 448:0.23597932 449:-0.16531634 450:-0.36053166 451:3.5954723e-05 452:-2.9162968e-05 453:-4.2290598e-05 454:0.3191461 455:-0.27193436 456:0.002927603 457:0.17688787 458:0.25560942 459:0.0010556491 460:0.17945758 461:0.32188827 462:0.25370577 463:0.22875303 464:0.20636714 465:-0.14421515 466:-0.029164055 467:3.6671256e-05 468:0.052481472 469:0.19282314 470:0.0031111329 471:0.11838214 472:-0.058852911 473:0.32482177 474:0.0024478403 475:-0.10132191 476:-0.068193696 477:-0.26462638 478:0.01631191 479:-0.21091025 480:-0.036975883 481:-4.3589247e-05 482:0.035579227 483:0.031089798 484:-0.011406957 485:-0.21356258 486:0.012706482 487:-0.04322378 488:0.041865453 489:-0.027800035 490:2.8603165e-05 491:-1.855454e-05 492:0.16765651 493:-0.17104223 494:0.03784636 495:0.034586839 496:-0.04931882 497:0.21451114 498:0.24466535 499:-0.22638588 500:-0.1279542 501:-4.6301713e-05 502:-0.0057324907 503:-0.19985774 504:-0.22467598 505:0.042800475 506:-0.32410845 507:-0.2118718 508:-0.06667202 509:0.042780746 510:-0.0052863192 511:0.093025669 512:-0.13449468 
0.7906024088534188 1:0.22589391 2:-0.0079191532 3:0.040568132 4:-3.823165e-05 5:0.020676469 6:-0.28205469 7:0.23759718 8:-0.052396625 9:0.010877059 10:0.033424493 11:0.05634262 12:-0.058012508 13:0.070235714 14:-0.12615173 15:0.01673267 16:-0.018217122 17:0.32432601 18:0.019574761 19:0.16780238 20:0.03346863 21:-0.0082446616 22:0.19702496 23:0.14027114 24:0.015761297 25:-0.2389202 26:0.0091941804 27:0.041807257 28:0.37690589 29:0.034138069 30:0.29615816 31:0.01143397 32:0.12283417 33:-0.16788737 34:-1.4386126e-05 35:-0.0057433136 36:0.30547991 37:0.029860115 38:0.067990124 39:5.056374e-06 40:0.04641309 41:0.037376229 42:0.0045694918 43:0.30999878 44:0.16106282 45:-0.039866049 46:-0.17847541 47:0.11745656 48:-0.25232992 49:-0.038745899 50:-0.024216479 51:-4.5279168e-05 52:0.013210168 53:-0.029651687 54:0.037763901 55:0.0063122706 56:-0.013725633 57:0.018370856 58:-0.078210577 59:-0.037329521 60:-0.205945 61:-0.14277619 62:-0.06823796 63:1.2458749e-05 64:-0.31105584 65:-0.22468206 66:0.080393203 67:0.091106832 68:0.013836001 69:2.2746461e-05 70:-5.114232e-05 71:0.017904952 72:-0.23448914 73:3.5238663e-05 74:-0.25580567 75:0.01193714 76:0.19015044 77:-0.13542239 78:-0.36769992 79:-0.2488637 80:-0.067670681 81:-0.039964564 82:0.27751255 83:-0.0056583961 84:-0.033014864 85:-0.28123817 86:1.922316e-05 87:-0.060699753 88:-0.23135552 89:-0.16027905 90:-4.9964608e-05 91:0.19538443 92:-0.29915398 93:-0.28665239 94:3.6616741e-05 95:0.018997133 96:-0.16805913 97:0.14139818 98:-0.0027967854 99:0.011120714 100:4.19424e-05 101:0.12990023 102:-0.0061602769 103:-0.14307441 104:-0.03266339 105:-0.041995298 106:0.19642384 107:0.29140532 108:0.13026868 109:-0.21177018 110:0.20740263 111:-0.056379192 112:-0.11457524 113:0.11278502 114:0.29580566 115:9.53585e-06 116:-0.082513124 117:0.20543389 118:-0.30928481 119:-0.14706656 120:-0.0706513 121:2.9609655e-05 122:0.0089860205 123:0.042443495 124:0.19086812 125:0.02872223 126:-0.12870207 127:0.039757255 128:0.41876483 129:-0.046740215 130:-2.2746459e-05 131:-0.015611387 132:-3.0090738e-05 133:-4.1006762e-05 134:0.13488686 135:-0.13463776 136:0.37272733 137:0.070841238 138:0.19118379 139:-0.034437206 140:-0.0083881225 141:-0.018584404 142:0.027659509 143:0.19593245 144:5.3827949e-05 145:0.010038006 146:0.0363518 147:-0.012426742 148:0.1304885 149:-0.25052267 150:-0.09740521 151:-0.034440253 152:0.020741018 153:0.067733862 154:-1.9821748e-05 155:0.069209285 156:0.03425464 157:0.14611037 158:0.12994425 159:-0.2465167 160:0.23302284 161:0.34872326 162:0.2015194 163:0.1426726 164:-0.014630589 165:0.019534994 166:0.23006688 167:0.026035635 168:-0.042997491 169:-0.2680462 170:-0.0013657729 171:0.020956803 172:-0.020780452 173:-0.018825179 174:-0.20540164 175:0.026536098 176:-0.16025168 177:-0.24427067 178:-0.29859227 179:-0.16337413 180:0.0001577267 181:0.11604635 182:-0.29983062 183:-0.14055373 184:-0.18873595 185:0.12717463 186:-0.058493357 187:0.010184967 188:-0.031607032 189:0.33031446 190:0.14714965 191:-0.15976669 192:-0.14152473 193:0.27656522 194:0.11879184 195:-0.011548015 196:-0.22000398 197:-0.020789796 198:-0.17787266 199:0.0027472887 200:-0.013472451 201:0.018866932 202:-0.24470176 203:0.013145109 204:2.6913975e-05 205:-0.0028578404 206:-0.0061620907 207:-0.31920713 208:-0.05043887 209:-1.726265e-05 210:0.023189496 211:-4.5510387e-05 212:0.36085695 213:-0.012832466 214:0.017352741 215:0.17704023 216:0.10278895 217:-0.021263342 218:0.30891585 219:0.25524724 220:0.2921401 221:0.046681829 222:0.27252826 223:0.002055085 224:-3.2373653e-05 225:-0.015772944 226:-0.024545712 227:0.2630547 228:-0.0019384521 229:-0.22291769 230:-0.027452929 231:-0.072029494 232:-0.0086723464 233:-0.16346782 234:-0.16412349 235:-0.036713742 236:-0.29991633 237:-0.086396277 238:-2.6202433e-05 239:-0.016286125 240:0.011158284 241:0.13304071 242:0.015945025 243:0.15423875 244:0.094146207 245:-0.00077784341 246:0.050327525 247:0.25330505 248:0.017263083 249:-4.6346871e-05 250:2.4917499e-05 251:0.045590814 252:0.049575806 253:0.001079422 254:0.0060517006 255:-0.015391958 256:3.2168351e-05 257:-0.26078802 258:-0.35509717 259:0.009708751 260:0.0037450595 261:-0.12865774 262:-0.30775404 263:-0.27684343 264:0.070722379 265:5.5879354e-09 266:-0.042443458 267:0.12412418 268:0.024163419 269:-0.071604349 270:-0.018112363 271:-3.1568237e-05 272:0.29585916 273:0.003968799 274:-0.12582053 275:0.23706229 276:0.038829226 277:-0.11916281 278:-0.048119895 279:0.34812918 280:0.015635243 281:0.27172026 282:-0.15649967 283:-0.29341596 284:-0.017610593 285:4.0690105e-05 286:6.4336702e-05 287:0.13634199 288:-0.0035325186 289:-0.15588155 290:-0.30112329 291:-0.007212901 292:-0.0038066457 293:-0.020676434 294:0.12144838 295:-2.5741356e-05 296:-0.018409887 297:-0.32796896 298:-2.6913971e-05 299:-2.4917499e-05 300:0.012830934 301:-0.07676249 302:0.039708342 303:0.042047571 304:2.0971202e-05 305:3.4496712e-05 306:2.2024165e-05 307:-0.1895413 308:0.29489163 309:-0.0031191546 310:0.34597227 311:0.049213767 312:-4.881886e-05 313:0.014759836 314:-1.6084177e-05 315:0.19776762 316:-0.079657272 317:4.1632855e-05 318:0.28058007 319:-0.18075556 320:-0.0010991744 321:0.21270208 322:-0.20763844 323:-0.15429811 324:0.053707071 325:0.22905184 326:-0.012456269 327:3.6772504e-05 328:0.22874203 329:-0.19210966 330:0.0095873782 331:-0.0025033373 332:-2.7033859e-05 333:0.33186573 334:0.03613995 335:-0.013212738 336:-0.013294937 337:-0.18160444 338:-0.00095875718 339:0.0036401686 340:0.037554998 341:0.11288915 342:0.038072865 343:0.061411332 344:0.0056716739 345:0.1415676 346:0.19109324 347:0.29038817 348:0.21676515 349:-0.0027554219 350:-0.025971618 351:-0.32449886 352:0.12736171 353:0.0066777887 354:-0.1267833 355:0.14973642 356:-0.24062081 357:0.1235543 358:0.40703461 359:0.027563564 360:-0.33295986 361:0.018100945 362:0.021380434 363:-0.14216855 364:-0.1399485 365:0.0043533393 366:0.039629657 367:0.055793304 368:0.012202132 369:-0.015358079 370:4.6616373e-05 371:0.0032918053 372:2.1201238e-05 373:-0.00037181942 374:-0.018452559 375:0.060699742 376:3.5450241e-05 377:1.3899358e-05 378:-0.27561659 379:-0.12721282 380:-0.009482584 381:1.6140502e-05 382:0.1920529 383:-0.082514085 384:-0.30041495 385:-0.010667516 386:-0.23177445 387:-0.16385886 388:-0.25264025 389:-3.5965313e-05 390:0.14650799 391:-0.25161195 392:-0.23913123 393:-0.20907697 394:-0.25982961 395:9.1350694e-06 396:0.016454481 397:0.034454413 398:0.0090685925 399:-0.21748243 400:0.34058014 401:-0.0084285699 402:-0.016375931 403:-0.21941267 404:-0.097947873 405:0.048683465 406:0.28426555 407:0.00043153128 408:0.28034654 409:0.034874424 410:-0.041995309 411:-0.32085523 412:5.3526725e-05 413:0.091220178 414:-3.7028556e-05 415:0.25865367 416:4.19424e-05 417:-0.039577868 418:-0.17108069 419:0.19150929 420:-0.037681848 421:-0.02704262 422:-0.23507994 423:-0.05339732 424:0.19174673 425:0.13208044 426:-0.2281065 427:0.12140803 428:0.26507998 429:0.11319061 430:0.21025938 431:0.33862352 432:-0.0052161505 433:-0.12298074 434:0.28339019 435:0.015820162 436:0.016754447 437:-0.34597227 438:0.013165041 439:0.20536825 440:0.0085019302 441:0.012902479 442:0.038454771 443:-0.013741895 444:0.19137652 445:-0.041278683 446:-0.23560609 447:2.7858612e-05 448:0.13112131 449:-0.12793146 450:-0.33848324 451:2.8897037e-05 452:-5.4067721e-05 453:2.0186184e-05 454:0.35215968 455:-0.29278278 456:0.0016329748 457:0.21941267 458:0.25299859 459:-0.0033167987 460:0.17036073 461:0.30922678 462:0.28734154 463:0.22534803 464:0.12838548 465:-0.11252953 466:-0.015563873 467:-0.0046518585 468:0.015402601 469:0.25525156 470:7.2299496e-05 471:0.097397268 472:-0.030024393 473:0.31563962 474:-0.0066190241 475:-0.059030969 476:-0.026417471 477:-0.27226847 478:0.031039368 479:-0.19014759 480:0.013175517 481:0.0083580948 482:-3.2906431e-05 483:-0.018125273 484:-0.033317067 485:-0.14475034 486:0.0016147146 487:-0.030319832 488:0.0075223828 489:-0.039747916 490:-0.018106898 491:0.03384931 492:0.063457206 493:-0.12095075 494:-0.044151269 495:0.026933791 496:-0.044648245 497:0.18712537 498:0.15877724 499:-0.22234079 500:-0.10797249 501:-4.3855347e-05 502:-0.011858693 503:-0.20421353 504:-0.20092961 505:0.027700368 506:-0.30980676 507:-0.14552893 508:-0.049323749 509:0.022134757 510:-0.046900969 511:0.055773649 512:-0.13484716 
1 1:0.26238537 2:-1.4386125e-05 3:-4.3753691e-05 4:-4.7577636e-05 5:4.1650012e-09 6:-0.23761635 7:0.21650735 8:-0.089364685 9:-0.050774224 10:-0.028344218 11:0.056316305 12:-0.08110375 13:0.042632375 14:-0.16835406 15:0 16:5.5717221e-05 17:0.32785186 18:4.3158372e-05 19:0.16084458 20:5.6409386e-05 21:-0.00013723489 22:0.25255656 23:0.16647413 24:4.8785721e-05 25:-0.19232708 26:0.029226296 27:-4.3158376e-05 28:0.39810461 29:-3.6323181e-05 30:0.3277379 31:0.00028145008 32:0.15808913 33:-0.19865295 34:-4.3158372e-05 35:-1.2967477e-05 36:0.3107028 37:-3.456695e-05 38:0.089364707 39:-2.9630482e-05 40:0.025201637 41:-4.5492921e-05 42:5.4957534e-05 43:0.2667768 44:0.18925363 45:0.056520537 46:-0.13906215 47:0.16131745 48:-0.27065954 49:-3.6144691e-05 50:4.6058074e-05 51:-2.2746461e-05 52:0.00026034514 53:3.1250525e-05 54:3.5238663e-05 55:0.00018651316 56:0.00040039179 57:0.054471128 58:-0.091299944 59:4.1787916e-05 60:-0.14056636 61:-0.14777298 62:-0.082857229 63:-4.4341014e-05 64:-0.35285494 65:-0.23099129 66:0.16637208 67:0.11381613 68:-3.6015743e-05 69:1.4828876e-05 70:-4.4513643e-05 71:-4.1417505e-05 72:-0.23878998 73:3.0517578e-05 74:-0.18812017 75:-5.4621622e-05 76:0.22638987 77:-0.18444243 78:-0.3722108 79:-0.21023588 80:-6.1364253e-06 81:-0.026940065 82:0.26521453 83:3.432381e-05 84:0.031385101 85:-0.23900054 86:-2.2474382e-05 87:-0.034859613 88:-0.26264179 89:-0.16872954 90:-4.8785725e-05 91:0.20877653 92:-0.27425075 93:-0.27053216 94:-3.7702033e-05 95:0.0082526095 96:-0.19404793 97:0.16216648 98:-4.0690098e-05 99:4.1632855e-05 100:4.605807e-05 101:0.17449643 102:9.3232746e-05 103:-0.12204312 104:-0.0072600343 105:1.1792014e-05 106:0.22838464 107:0.31996492 108:0.16549097 109:-0.25506777 110:0.16714203 111:5.530976e-05 112:-0.14508367 113:0.16335587 114:0.33611608 115:-4.2597909e-05 116:-0.0988333 117:0.14739379 118:-0.30972627 119:-0.15952837 120:-0.08944194 121:-2.7179707e-05 122:0.0052740746 123:3.0517578e-05 124:0.08219216 125:-0.033461027 126:-0.15563032 127:-5.2674142e-05 128:0.43357778 129:-1.6869226e-05 130:3.8735823e-05 131:-0.043903582 132:-3.7252903e-09 133:-2.0503381e-05 134:0.11820227 135:-0.18444243 136:0.3500194 137:0.11483691 138:0.23056327 139:5.8019348e-05 140:-0.00030029824 141:-0.00016291928 142:4.1006762e-05 143:0.080061167 144:5.3827949e-05 145:2.5934953e-05 146:-0.0047229617 147:0.06112019 148:0.13655671 149:-0.2751753 150:-0.098352112 151:-5.2583895e-05 152:4.3158372e-05 153:-4.1632855e-05 154:8.8096649e-06 155:0.22270744 156:-3.5054647e-05 157:0.11550356 158:0.13353848 159:-0.17481351 160:0.1701573 161:0.36225131 162:0.24816541 163:0.1371745 164:-0.047118645 165:2.4525076e-05 166:0.17733806 167:0.0097725829 168:-1.2967476e-05 169:-0.29639968 170:2.762548e-05 171:2.8772247e-05 172:-0.00036582217 173:5.0862641e-06 174:-0.14739379 175:0.0075045805 176:-0.15692274 177:-0.2721411 178:-0.28860131 179:-0.18925361 180:-2.6490106e-05 181:0.10019917 182:-0.30743816 183:-0.17225467 184:-0.13332437 185:0.1715501 186:-0.08112064 187:-3.4869659e-05 188:-0.022650702 189:0.31391937 190:0.15952836 191:-0.17008978 192:-0.1722547 193:0.25854215 194:0.14498076 195:-2.3075754e-05 196:-0.18546394 197:-5.9927224e-06 198:-0.22020523 199:-0.00013723489 200:-0.0002499441 201:0.057924122 202:-0.24441567 203:-4.7766421e-06 204:4.5492921e-05 205:2.6913975e-05 206:-0.029226281 207:-0.29253742 208:-0.083381332 209:6.2293751e-05 210:3.0622294e-05 211:-4.2151481e-05 212:0.3697612 213:-0.0044541 214:5.4408505e-05 215:0.13934372 216:0.11714566 217:-0.0092220446 218:0.36578041 219:0.27517521 220:0.28860131 221:-6.4336702e-05 222:0.22821766 223:3.0517578e-05 224:-3.4485674e-05 225:-0.00040654512 226:2.2793758e-05 227:0.20538811 228:7.2973999e-05 229:-0.21740325 230:-0.02308134 231:-0.046283875 232:-0.028344166 233:-0.17997494 234:-0.16872953 235:0.049713984 236:-0.29240263 237:-0.081805751 238:4.7713216e-05 239:0.0088540791 240:0.00013429642 241:0.18153669 242:0.033461057 243:0.12827279 244:0.095609128 245:2.8458124e-05 246:0.00025120372 247:0.2860066 248:1.4386125e-05 249:-4.3921653e-05 250:5.0862633e-05 251:5.4780729e-05 252:-1.442599e-05 253:-1.9631643e-05 254:-3.865387e-05 255:-3.9399234e-05 256:6.2501051e-05 257:-0.19365424 258:-0.3121939 259:-4.5776367e-05 260:2.4656576e-05 261:-0.17128408 262:-0.28340411 263:-0.2521475 264:0.089441933 265:-8.0801976e-05 266:3.6677564e-05 267:0.14498076 268:0.081394374 269:-0.1148369 270:-0.0042794547 271:1.4386125e-05 272:0.32197806 273:-0.030438917 274:-0.1471554 275:0.15942003 276:-0.029344464 277:-0.1718159 278:-0.083885081 279:0.35359016 280:-2.2746461e-05 281:0.23659085 282:-0.17158575 283:-0.33899921 284:2.8772249e-05 285:2.9218356e-05 286:3.5238663e-05 287:0.1561335 288:4.3753691e-05 289:-0.15692274 290:-0.29240263 291:-2.7625481e-05 292:4.5492921e-05 293:2.0225492e-05 294:0.098141618 295:4.9427774e-05 296:-2.7033857e-05 297:-0.32785186 298:-4.6407797e-05 299:-3.6677564e-05 300:0.00026232496 301:-0.11371709 302:4.6616369e-05 303:-0.20794526 304:1.4386124e-05 305:-1.8688123e-05 306:-3.8735823e-05 307:-0.23845272 308:0.27425075 309:2.9766594e-05 310:0.34123957 311:-2.8461494e-05 312:-3.0990745e-05 313:-8.4346138e-06 314:-3.1763702e-05 315:0.16135173 316:-0.091300696 317:4.345705e-05 318:0.2663638 319:-0.19695507 320:-4.0690105e-05 321:0.20583302 322:-0.22047405 323:-0.18799767 324:0.023068454 325:0.16015723 326:7.2037168e-05 327:6.3182088e-05 328:0.15958849 329:-0.21286778 330:-1.0172529e-05 331:-3.656865e-05 332:1.4386125e-05 333:0.33185387 334:3.5238667e-05 335:-4.3753691e-05 336:-0.00039723501 337:-0.20558704 338:-2.4917499e-05 339:2.9481271e-05 340:6.2720552e-05 341:0.14198475 342:4.8083359e-05 343:0.038674001 344:-3.806211e-05 345:0.1531142 346:0.2305633 347:0.29584184 348:0.22363056 349:7.4057112e-05 350:-0.023081306 351:-0.31152797 352:0.10616285 353:4.0049275e-05 354:-0.17720246 355:0.17428637 356:-0.16135255 357:0.098141611 358:0.45241636 359:0.012718488 360:-0.31693628 361:0.039497763 362:-2.6913973e-05 363:-0.11483973 364:-0.16386536 365:4.4341014e-05 366:4.2554726e-05 367:-7.515485e-05 368:0.030440055 369:4.3753691e-05 370:5.3827949e-05 371:-3.2906926e-05 372:-1.5983333e-05 373:1.6084174e-05 374:3.9398023e-05 375:0.034859635 376:-2.4059154e-05 377:-1.0911668e-05 378:-0.21182986 379:-0.12672476 380:0.0049653016 381:3.8881644e-05 382:0.21202777 383:0.062654659 384:-0.27856001 385:-0.0060373689 386:-0.18805715 387:-0.176046 388:-0.2847057 389:-5.703649e-05 390:0.14777295 391:-0.27065957 392:-0.21512517 393:-0.11447677 394:-0.31339934 395:-4.6649995e-05 396:0.0068851043 397:-0.00037077424 398:-4.7441503e-05 399:-0.14774786 400:0.37436968 401:-2.5934954e-05 402:-0.00042347531 403:-0.14988689 404:-0.083835825 405:-1.0172528e-05 406:0.25640711 407:3.902951e-05 408:0.29852408 409:3.411969e-05 410:-1.686923e-05 411:-0.32003498 412:2.8546581e-05 413:0.11381615 414:2.4917497e-05 415:0.20347734 416:5.4780729e-05 417:7.0477327e-05 418:-0.22020523 419:0.2157186 420:3.6765625e-05 421:0.043903574 422:-0.21018241 423:-0.061337736 424:0.098603517 425:0.16894232 426:-0.14540695 427:0.10869835 428:0.19092739 429:0.14845334 430:0.154091 431:0.35528219 432:-0.0044870004 433:-0.10763893 434:0.25636843 435:-2.3856688e-05 436:-2.7331271e-05 437:-0.34123954 438:0.00039816054 439:0.16714205 440:0.030615032 441:3.5238663e-05 442:0.084366716 443:4.1942396e-05 444:0.21397719 445:-6.2707666e-05 446:-0.17010269 447:-2.1579186e-05 448:0.17449646 449:-0.17720248 450:-0.35528219 451:4.4219276e-05 452:-1.7619333e-05 453:-2.7206423e-05 454:0.36343336 455:-0.32197794 456:-2.2264365e-05 457:0.14988689 458:0.27544093 459:-2.3910448e-05 460:0.20902896 461:0.29707161 462:0.28352112 463:0.23884585 464:0.15746455 465:-0.16335589 466:-0.0072600134 467:4.2719479e-05 468:2.0345053e-05 469:0.19365424 470:6.8941932e-05 471:0.13562405 472:-0.02520166 473:0.32812271 474:5.3827949e-05 475:-0.040499542 476:-0.022650581 477:-0.29632306 478:0.0013550095 479:-0.22638987 480:-1.764093e-05 481:-4.8035701e-05 482:-4.4365297e-05 483:-0.00025794926 484:-2.377206e-05 485:-0.17930017 486:0.010570413 487:-3.3808392e-05 488:0.029546048 489:2.2746459e-05 490:-1.9031053e-05 491:-8.434612e-06 492:0.083381347 493:-0.13957328 494:0.023141053 495:-4.3229651e-05 496:3.1699208e-05 497:0.21296731 498:0.17594221 499:-0.26238537 500:-0.09642636 501:-3.5714507e-05 502:-0.00035861731 503:-0.24865898 504:-0.24073057 505:3.4394307e-05 506:-0.29718032 507:-0.16647413 508:-2.5281133e-05 509:0.0092240851 510:2.9109618e-05 511:0.044088222 512:-0.13110022 
