svm_type c_svc
kernel_type linear
nr_class 2
total_sv 29
rho 0.041702
label 1 0
nr_sv 14 15
SV
1 1:0.0036005031 2:4.9313148e-05 3:0.075693034 4:2.4917499e-05 5:-0.06387046 6:0.48288336 7:0.089821048 8:0.053309746 9:-2.1530741e-05 10:-0.1539681 11:3.5238663e-05 12:0.24164146 13:0.029710164 14:-0.16323256 15:0.10497981 16:4.2535728e-05 17:-0.045544546 18:0.19609591 19:0.2773571 20:4.19424e-05 21:0.084739298 22:-0.20639361 23:-2.8772251e-05 24:0.1423669 25:-0.032741468 26:-3.7915615e-05 27:0.12782122 28:1.5469264e-05 29:-2.0837899e-05 30:0.089577354 31:0.06438946 32:-5.1869909e-05 33:-0.17148927 34:5.0351435e-05 35:-0.12263367 36:-0.042797573 37:2.3818535e-05 38:-2.6339778e-05 39:0.16979432 40:-5.4306431e-05 41:-5.2612715e-05 42:5.1116309e-05 43:-9.9908493e-06 44:-5.4246852e-05 45:2.3991859e-05 46:0.055847663 47:-0.3053157 48:-0.16088694 49:0.049558159 50:0.28903797 51:-0.086682446 52:-2.0422232e-05 53:-3.7880138e-05 54:3.3352855e-05 55:0.064271666 56:-1.8967226e-05 57:2.0680052e-05 58:4.9354116e-05 59:-0.016438624 60:-0.13072146 61:-0.16373783 62:-0.1317834 63:-5.0607679e-05 64:0.34386799 65:-0.013138108 66:-0.10402317 67:-0.0086986953 68:-0.089501165 69:-0.0067013358 70:0.34517515 71:2.1262489e-05 72:0.34172305 73:-2.4275545e-05 74:-0.082382396 75:1.0570489e-05 76:0.48251876 77:-0.13072148 78:-0.038562372 79:-0.13090315 80:-1.9545654e-05 81:-0.04279758 82:-0.10565747 83:0.060446456 84:5.3254171e-05 85:-0.26974303 86:5.4558459e-05 87:-4.3752876e-05 88:-0.10711987 89:-0.08421766 90:-0.10698474 91:-0.19776092 92:0.11563308 93:-0.038123086 94:-0.14718147 95:-1.9699011e-05 96:1.5338057e-05 97:-0.35368899 98:3.8735827e-05 99:0.23895815 100:0.050846543 101:0.053974058 102:0.36384574 103:0.060055494 104:0.4178324 105:-0.23977204 106:0.29469335 107:-0.02752379 108:2.6819245e-05 109:-2.6672589e-05 110:5.3767839e-05 111:0.037769683 112:3.5043115e-05 113:-0.11123443 114:0.038148213 115:0.085164309 116:-0.1551317 117:-0.46672255 118:4.6616373e-05 119:-0.068728872 120:4.167893e-05 121:-2.6793554e-05 122:0.080006823 123:2.820505e-05 124:-0.091226816 125:-4.3415253e-05 126:-0.039514255 127:-1.9699013e-05 128:0.0010104752 129:-0.39144802 130:-0.056565601 131:3.9561841e-05 132:3.9398026e-05 133:-4.1650012e-09 134:-2.9657755e-05 135:0.12782125 136:-0.12932065 137:-1.5839378e-05 138:0.35368901 139:2.7109094e-05 140:4.689303e-05 141:-2.744933e-05 142:-0.036857676 143:0.14364527 144:-0.48880494 145:-2.0345051e-05 146:-0.11845715 147:3.1941367e-05 148:2.8772249e-05 149:-0.077969506 150:-0.38209486 151:-0.019583134 152:-3.9108403e-05 153:-1.8988529e-05 154:5.0240793e-05 155:0.0025168343 156:0.023691794 157:0.16914719 158:-3.4996949e-05 159:-4.6754903e-05 160:-0.2532523 161:-2.4917499e-05 162:0.15010656 163:0.010426402 164:0.082088329 165:-0.068670288 166:4.7934755e-05 167:0.024119684 168:0.11800447 169:0.23583576 170:-0.037769739 171:0.0030218111 172:-0.19006909 173:-4.9444126e-05 174:5.0351438e-05 175:1.5258791e-05 176:3.2567976e-05 177:4.5064404e-05 178:-7.6293973e-06 179:-2.6793554e-05 180:3.5843682e-06 181:-0.094674915 182:0.40071625 183:0.094890617 184:0.39830726 185:0.351237 186:3.0251507e-05 187:-0.12126214 188:0.12299772 189:-3.2567972e-05 190:6.299065e-05 191:0.26678598 192:0.013976193 193:0.039045744 194:0.0013802899 195:-0.048936855 196:-4.4354932e-05 197:-0.32454944 198:-0.066854827 199:0.066066757 200:4.5492921e-05 201:0.12242739 202:2.4109504e-05 203:-0.0011214868 204:3.9398026e-05 205:0.038562406 206:-0.037771653 207:0.013976136 208:0.11047015 209:-0.41059205 210:-0.094674915 211:2.61521e-05 212:-0.050221808 213:-5.3945165e-05 214:3.5238663e-05 215:-5.6990852e-06 216:-0.06999591 217:-0.034962632 218:0.34172302 219:0.077969514 220:0.14696275 221:5.3023396e-05 222:-4.610193e-05 223:7.4505806e-09 224:-0.072872169 225:-3.6144691e-05 226:0.24019556 227:-3.2168351e-05 228:0.25410947 229:-3.5092169e-05 230:0.015900655 231:0.08610756 232:-1.8910625e-05 233:-0.080208071 234:0.0062215249 235:0.049166877 236:-9.3440649e-06 237:-0.24028394 238:4.8647398e-05 239:0.055838708 240:0.34862646 241:-0.18895827 242:0.28230718 243:-0.18903011 244:-0.010114671 245:-4.8603099e-05 246:0.15604299 247:0.0076677483 248:0.29993659 249:-0.063233048 250:3.2938216e-05 251:-0.089669757 252:0.39713705 253:-0.24575314 254:0.3623555 255:-0.22277015 256:-2.3916064e-05 257:-0.0032212434 258:0.04030754 259:9.5155265e-06 260:-0.072635859 261:-0.087070502 262:0.20262347 263:-0.0061150333 264:-0.050330978 265:-7.4912741e-06 266:-0.093162522 267:-0.42633933 268:7.6124212e-05 269:-4.2819869e-05 270:3.0517578e-05 271:0.0042071394 272:-0.027662009 273:-4.5528446e-05 274:-0.22957358 275:3.5238663e-05 276:0.24199267 277:-0.17289767 278:-0.021240281 279:-0.4070003 280:-0.061496336 281:0.082088329 282:-2.6706406e-05 283:0.050520986 284:4.83195e-05 285:-3.0502923e-05 286:-0.12443825 287:-0.044526644 288:0.33902612 289:-0.20986685 290:4.0690102e-05 291:-0.038963169 292:0.41626552 293:-3.5940015e-05 294:-0.001002069 295:0.10447092 296:5.0351435e-05 297:0.028090779 298:0.006339347 299:0.048936833 300:0.1437889 301:0.02790051 302:1.2328287e-05 303:6.1035156e-05 304:-0.061106112 305:-0.050810177 306:-0.25467131 307:-3.2268723e-05 308:4.7950911e-05 309:-5.369943e-05 310:-0.12657467 311:-2.9218359e-05 312:8.6002416e-05 313:2.8532413e-05 314:-1.9179157e-05 315:0.019776613 316:-1.7982653e-05 317:-1.9031053e-05 318:0.084629126 319:0.16948624 320:-0.40446663 321:-0.059875757 322:-0.3830882 323:5.594414e-05 324:3.9724982e-05 325:-5.1366304e-05 326:-0.31639042 327:-0.016438512 328:-0.314762 329:-0.04826133 330:0.0010104483 331:-0.08963193 332:-6.4336709e-05 333:-0.36870939 334:2.3081631e-05 335:0.30270922 336:2.400121e-05 337:-0.056262773 338:2.5934954e-05 339:-0.0046477141 340:-0.034465283 341:0.29012531 342:0.013011967 343:2.0880623e-05 344:-0.086400911 345:0.091226794 346:-4.1671676e-05 347:0.39540434 348:-0.20165436 349:-5.089082e-05 350:0.064389497 351:0.074236199 352:-0.034465265 353:0.32424629 354:0.18387161 355:0.0025174278 356:-0.34517515 357:-3.8379385e-05 358:0.10130172 359:-2.6725578e-05 360:-0.083251774 361:0.0035651766 362:-0.27088836 363:-0.10753015 364:4.9233542e-05 365:-0.10240735 366:0.061106149 367:-3.9243823e-05 368:-0.056565601 369:4.0210407e-06 370:0.14153035 371:-1.7982657e-05 372:-4.255473e-05 373:-4.9834998e-05 374:0.16867143 375:-2.6151936e-05 376:0.037539966 377:0.11039267 378:0.081012703 379:-2.8162021e-05 380:-0.0024090209 381:-2.8383149e-05 382:4.8352947e-05 383:0.17406216 384:-6.937053e-05 385:0.20257492 386:-0.24792644 387:-0.051918931 388:-0.16865456 389:0.13930662 390:0.10521256 391:-0.13807108 392:-4.8252528e-05 393:-2.7957583e-05 394:-0.00013341142 395:-3.3894306e-05 396:8.0901969e-05 397:0.029710172 398:0.050330948 399:0.024660572 400:4.0690105e-05 401:-0.066544235 402:-1.6084177e-05 403:-0.0077585895 404:6.1877057e-05 405:0.066854849 406:0.41725555 407:-6.1088191e-05 408:-1.271963e-05 409:0.044231046 410:-2.8057655e-05 411:7.4838965e-05 412:0.089538097 413:-0.15759711 414:5.4462511e-05 415:0.070536733 416:3.2168351e-05 417:4.9834998e-05 418:3.9398023e-05 419:-3.823165e-05 420:3.6677568e-05 421:0.081053466 422:0.0042025731 423:-0.17160799 424:0.11739106 425:-2.6913975e-05 426:0.21687813 427:3.6180667e-05 428:4.4920656e-05 429:0.10077103 430:-0.19486077 431:0.049166832 432:-0.12208233 433:0.01651377 434:0.1309285 435:0.023691762 436:-3.7463833e-05 437:-4.3189677e-05 438:0.47979873 439:-0.19609588 440:-0.0021819535 441:-0.097094685 442:0.045561459 443:1.8360812e-05 444:-0.19100648 445:0.095131971 446:0.00078863942 447:-0.29027447 448:0.0013806112 449:-0.057489913 450:-1.8302919e-05 451:-0.25467131 452:1.8372419e-05 453:-1.0172525e-05 454:0.11047016 455:-0.0019212709 456:-0.28779066 457:0.16788496 458:-0.063984349 459:3.447507e-05 460:0.21167831 461:-2.0404568e-05 462:4.0398485e-05 463:-0.0042263041 464:0.046144754 465:0.090478964 466:-0.10817403 467:0.018492822 468:0.34028274 469:-3.1743009e-05 470:0.33772084 471:1.6402124e-05 472:0.018492846 473:-3.1124851e-05 474:5.3827949e-05 475:-3.8251928e-05 476:0.086772799 477:0.010103811 478:0.079231948 479:-0.3556948 480:4.5714685e-05 481:-0.081663005 482:4.1942403e-05 483:-0.26678598 484:7.8796045e-05 485:-1.8266881e-05 486:3.049083e-05 487:-3.5398894e-05 488:7.0076705e-05 489:-3.3687498e-05 490:0.0045670597 491:0.01148764 492:0.091670759 493:-3.2168351e-05 494:2.4003153e-05 495:-0.31473193 496:-0.0039415089 497:0.14943902 498:4.9834998e-05 499:0.20485665 500:-3.524718e-05 501:0.063844569 502:-0.20085298 503:-0.17055473 504:0.31431705 505:4.2134707e-05 506:-0.079203211 507:4.6303154e-05 508:2.0345051e-05 509:-0.18736915 510:-0.11800447 511:-0.1982633 512:6.1740124e-05 
0.1856425082102063 1:0.25904956 2:4.9313152e-05 3:0.20572761 4:-0.064974457 5:0.073657826 6:0.42297396 7:0.062225662 8:0.0552148 9:-0.0789368 10:-0.14960149 11:-0.0757121 12:0.19279028 13:0.037153464 14:-0.18381213 15:0.066729128 16:-0.16586092 17:0.15618673 18:0.21746685 19:0.26867694 20:0.076356143 21:0.22746487 22:-0.17139824 23:-0.05732245 24:-0.049844027 25:0.027896835 26:-4.2371481e-05 27:0.15460519 28:-0.15704527 29:0.045221929 30:0.16393866 31:0.092597693 32:-0.038641054 33:-0.070441358 34:3.1763702e-05 35:-0.15422976 36:-0.13353872 37:0.16982017 38:0.04525559 39:0.13513924 40:0.18692808 41:-0.041446283 42:-0.048649386 43:0.039483365 44:-0.078206934 45:0.04389571 46:0.085400835 47:0.081627071 48:-0.18439387 49:0.18275212 50:0.2412498 51:-0.073715866 52:-0.03401285 53:0.028876979 54:-0.033903103 55:0.055147428 56:-4.1232859e-05 57:-3.4438712e-05 58:-0.053646464 59:-0.17675665 60:-0.090122029 61:-0.1715657 62:-0.27153286 63:-4.0848743e-05 64:0.23190825 65:-0.16550224 66:-0.14667371 67:-0.083232015 68:-0.10166249 69:-0.16798125 70:0.36629179 71:4.6703e-05 72:0.36890152 73:-0.0024895705 74:-0.1263071 75:0.039657664 76:0.41849098 77:-0.10877822 78:-0.055777095 79:-0.12144068 80:-0.05541648 81:-0.13181597 82:-0.078273714 83:0.25049928 84:-0.022543849 85:-0.28600764 86:-0.12961571 87:-0.055625211 88:-0.083943889 89:0.13358131 90:-0.1146384 91:-0.094768248 92:0.012754442 93:-0.13661698 94:-0.13497086 95:-0.049088642 96:0.014841977 97:-0.2918494 98:0.0031355727 99:0.23180962 100:0.037893079 101:0.12964687 102:0.26515222 103:-0.046689533 104:0.25689697 105:-0.19923474 106:0.31995568 107:-0.092633381 108:0.024515551 109:0.052516162 110:0.031423043 111:-0.024895055 112:0.061453074 113:0.14494118 114:0.11847514 115:-0.13163902 116:-0.18300217 117:-0.39437711 118:-0.064960204 119:-0.1146329 120:5.0647599e-05 121:-0.023442505 122:0.10210537 123:-0.081332639 124:-0.068558514 125:0.13686426 126:-0.068592787 127:-0.034152787 128:0.11631422 129:-0.18557999 130:-0.14643206 131:0.0015518375 132:6.0822862e-05 133:-0.036913995 134:1.2458751e-05 135:0.14552866 136:-0.091402002 137:0.017030559 138:0.29036063 139:-0.042184114 140:0.1196293 141:-0.033671446 142:-0.061872143 143:0.13474309 144:-0.45301405 145:2.2419801e-05 146:-0.11282671 147:-0.040764898 148:0.061182559 149:-0.078505822 150:-0.36129254 151:-0.21803851 152:0.19669645 153:0.052957226 154:-0.0080801584 155:0.090810403 156:0.040424973 157:0.17790817 158:-0.037092444 159:-0.012622052 160:-0.21710238 161:0.02832363 162:0.17973715 163:0.17220776 164:0.056085791 165:0.22123736 166:0.067364536 167:0.14119193 168:0.14920083 169:0.21004362 170:-0.06891606 171:0.10115001 172:-0.19738905 173:-0.032940876 174:-0.029522894 175:0.02939501 176:-0.040789496 177:-0.040867995 178:-0.013586282 179:0.031319048 180:-1.7534694e-05 181:-0.034573432 182:0.38977972 183:0.19318487 184:0.37895516 185:0.30382055 186:-0.00068887108 187:0.15148343 188:0.26376736 189:0.040722385 190:0.0688226 191:0.24261051 192:0.13075936 193:0.16459361 194:0.11840879 195:0.10401662 196:0.091150783 197:-0.25285122 198:-0.071422964 199:0.19053474 200:-0.0023898894 201:0.11207086 202:-0.11065456 203:-0.032595936 204:0.0019126242 205:-0.089553274 206:-0.067273997 207:0.18072139 208:0.076720372 209:-0.31614843 210:0.080781534 211:0.03385485 212:-0.16080071 213:0.03597945 214:4.6616373e-05 215:0.070575885 216:-0.14400573 217:0.04566643 218:0.3360039 219:0.087222666 220:0.23560514 221:0.0095955171 222:0.20142815 223:0.035107773 224:-0.15573448 225:-4.3827538e-05 226:0.22161774 227:-0.037832309 228:0.23205175 229:-0.073212497 230:-0.038463883 231:-0.082547992 232:-3.9139857e-05 233:0.1534413 234:0.11716914 235:0.038089912 236:-0.069358476 237:-0.23538873 238:3.2290944e-05 239:0.093010627 240:0.33701122 241:-0.18800971 242:0.23165002 243:-0.19392736 244:-0.11861555 245:0.0062698824 246:0.1658726 247:0.10407841 248:0.21770455 249:-0.038330346 250:-0.018371951 251:-0.21177623 252:0.39971104 253:-0.18260549 254:0.29593405 255:-0.19706751 256:-0.033582978 257:-0.14854582 258:-0.10414129 259:-0.048649393 260:-0.087052435 261:-0.054050099 262:0.19032392 263:-0.11022899 264:-0.032403644 265:-0.05124066 266:-0.10728312 267:-0.35691559 268:0.023060793 269:-0.058957689 270:3.9398023e-05 271:0.038868152 272:0.12313502 273:2.3299513e-05 274:-0.2230069 275:0.11995423 276:0.21284284 277:-0.16843601 278:-0.043249059 279:-0.29399914 280:-0.058543727 281:0.05608581 282:3.9449278e-06 283:0.037013099 284:-0.022246739 285:1.6301043e-05 286:-0.16360281 287:-0.20301314 288:0.32786587 289:-0.17362759 290:-0.19657902 291:-0.10296862 292:0.31603259 293:-0.09352015 294:-0.084811449 295:0.11954096 296:-0.15566249 297:-0.058945432 298:0.16876356 299:0.061308842 300:0.26983845 301:0.064852849 302:-0.028611172 303:0.039844587 304:-0.086187541 305:0.066470504 306:-0.18661681 307:0.0018777342 308:-1.5223791e-05 309:-5.0100341e-05 310:-0.13142422 311:0.013077231 312:6.761455e-05 313:0.034298982 314:-0.042862982 315:0.17933577 316:-0.029991578 317:-1.8338782e-05 318:0.086057931 319:0.20394962 320:-0.42474443 321:0.17097741 322:-0.38781163 323:0.0036386657 324:-0.037692633 325:0.11959784 326:-0.32945094 327:-0.1991953 328:-0.29907259 329:-0.19411416 330:0.11351459 331:-0.074133173 332:-1.4386126e-05 333:-0.29716304 334:0.024669062 335:0.29297978 336:-0.029133184 337:0.20762603 338:3.3798304e-05 339:-0.039853893 340:0.082639173 341:0.30295458 342:0.15934333 343:0.00185468 344:0.13775548 345:0.15436488 346:-0.051877629 347:0.3030906 348:-0.21250698 349:-4.3832144e-05 350:0.066366822 351:0.091357008 352:-0.045667589 353:0.31165391 354:0.24704516 355:0.024103794 356:-0.36672404 357:-0.0027200205 358:0.18352272 359:0.0055050966 360:0.037889484 361:0.052756682 362:-0.29678521 363:-0.19897163 364:0.035237815 365:-0.10265694 366:0.073481634 367:0.057251874 368:-0.13698591 369:-0.028735792 370:0.27803132 371:-0.040714029 372:-0.02053058 373:0.038431715 374:0.15788376 375:0.071061261 376:0.1136146 377:0.066082828 378:-0.09798757 379:0.023958601 380:-0.14985411 381:3.4744822e-05 382:-0.022045087 383:0.33776015 384:-0.062688164 385:0.17882699 386:-0.22679792 387:-0.041363522 388:-0.14885691 389:0.13800083 390:0.081521533 391:-0.14124528 392:-0.049648572 393:-0.01225761 394:-0.020927913 395:0.049396392 396:0.042418674 397:0.090555735 398:-0.048864786 399:0.12158111 400:-0.096787825 401:-0.16166474 402:0.0019205157 403:-0.09018375 404:0.026536789 405:0.060201712 406:0.39852348 407:-0.0035841423 408:-0.020265596 409:0.031858437 410:-0.089878701 411:-0.033852931 412:0.10529254 413:-0.18563396 414:0.0020015899 415:0.030861169 416:0.051505599 417:1.9471985e-05 418:0.047612842 419:-0.13216063 420:-0.085685648 421:0.084820628 422:0.034356751 423:-0.15694281 424:-0.15448801 425:0.16735002 426:0.11094924 427:0.12569058 428:4.4048327e-05 429:0.16573107 430:-0.18007703 431:0.050666355 432:-0.15860881 433:0.090021417 434:0.11483752 435:0.01440963 436:-0.037279669 437:2.7920942e-05 438:0.23997225 439:-0.18737529 440:-0.10084414 441:-0.11037439 442:-0.073891528 443:-0.071790308 444:-0.21645564 445:-0.092747539 446:0.032583207 447:-0.25587127 448:0.13608113 449:-0.19040413 450:-0.011970295 451:-0.18661684 452:-3.8803591e-05 453:3.9826609e-05 454:-0.052589823 455:-0.094623439 456:-0.25787473 457:0.16512537 458:-0.085692331 459:0.011092377 460:0.22525728 461:-0.053350799 462:0.03214724 463:-0.15821487 464:0.071344562 465:-0.13024001 466:-0.19290704 467:0.039949369 468:0.28456107 469:-0.037927814 470:0.28329238 471:0.047170926 472:0.033379596 473:0.032294173 474:0.021625772 475:0.052592535 476:0.17445122 477:0.086291119 478:0.16047789 479:-0.31522399 480:-0.031504266 481:-0.1752933 482:4.5987807e-05 483:-0.19799206 484:-0.010602624 485:0.03038126 486:0.014972415 487:0.017077537 488:0.042350847 489:-0.054658189 490:0.20877676 491:0.099321023 492:0.063172698 493:-0.025613243 494:-0.10645087 495:-0.16516122 496:-0.062952369 497:0.19903471 498:-0.043800518 499:0.12079877 500:-3.9577164e-05 501:0.072964199 502:-0.22295099 503:0.05993462 504:0.27493903 505:-0.0026837981 506:-0.072167777 507:-0.022193152 508:-0.042392336 509:-0.21089822 510:-0.15222959 511:-0.19662613 512:0.030207427 
1 1:-5.3345178e-05 2:4.8785721e-05 3:0.073836342 4:3.1353833e-05 5:-0.066251531 6:0.49207717 7:-0.082504794 8:0.045947734 9:2.4549739e-05 10:-0.18095277 11:7.8796053e-05 12:0.28803012 13:0.023492539 14:-0.12673399 15:0.10496373 16:5.4869204e-05 17:-0.036194939 18:0.23191296 19:0.28006196 20:2.2746462e-05 21:0.029844532 22:-0.17660892 23:-2.8772249e-05 24:-0.058390632 25:-0.0062166592 26:-3.742331e-05 27:0.097251169 28:-3.0728777e-05 29:0.0037715225 30:0.099707469 31:0.037316624 32:-0.0041214172 33:-0.14197606 34:4.7168061e-05 35:-0.069858916 36:-0.026727375 37:1.8360812e-05 38:3.3911139e-05 39:0.12573133 40:-2.6913975e-05 41:-4.9834995e-05 42:4.9834998e-05 43:-1.1571424e-05 44:-1.8945902e-05 45:-6.7284909e-06 46:0.027664667 47:-0.32923707 48:-0.10202706 49:0.11488165 50:0.27496815 51:-0.10000997 52:2.5286399e-05 53:1.1908749e-05 54:4.3753691e-05 55:0.084647186 56:5.1147937e-05 57:-2.2019576e-05 58:-0.0051676244 59:-0.029673517 60:-0.15813711 61:-0.12028775 62:-0.11443164 63:-6.0181475e-05 64:0.32358128 65:-0.024170225 66:-0.13167183 67:-0.032297451 68:-0.10379592 69:-0.028698154 70:0.3239066 71:3.6127225e-05 72:0.34069449 73:-3.1916046e-05 74:-0.074824668 75:1.5931017e-05 76:0.45768088 77:-0.15813714 78:-0.052462559 79:-0.16959167 80:5.2411033e-05 81:-0.026727475 82:-0.11917125 83:0.034867097 84:6.5870299e-05 85:-0.26418144 86:8.3772007e-05 87:3.2659045e-05 88:-0.10638316 89:-0.089272276 90:-0.11525883 91:-0.19942066 92:0.14061902 93:-0.0089499289 94:-0.16941893 95:-3.354621e-05 96:2.6113576e-05 97:-0.33230796 98:1.7619332e-05 99:0.24666573 100:0.006024214 101:0.062154911 102:0.35968959 103:0.070594028 104:0.44835019 105:-0.23261972 106:0.26819754 107:0.029468564 108:6.2580919e-05 109:-2.1876844e-05 110:6.0503015e-05 111:0.032223154 112:0.0085929092 113:-0.13172606 114:0.012258383 115:0.094454527 116:-0.20556502 117:-0.46446589 118:6.8993431e-05 119:-0.02399444 120:3.7452228e-05 121:1.2715658e-05 122:0.062763482 123:2.1106278e-05 124:-0.088852912 125:-5.2444153e-05 126:-0.033454843 127:-0.0056668082 128:5.3288171e-05 129:-0.39363012 130:-0.039787568 131:4.8386377e-05 132:5.1368741e-05 133:-2.09712e-05 134:-2.2746461e-05 135:0.097251177 136:-0.084716566 137:9.8777809e-06 138:0.33230796 139:-0.0082199061 140:4.9313148e-05 141:-4.3596352e-05 142:-0.041772708 143:0.14102599 144:-0.46898687 145:-4.4194916e-05 146:-0.098918244 147:2.7405118e-05 148:0.0066146101 149:-0.011988998 150:-0.38097546 151:-0.035516594 152:-3.006386e-05 153:-3.0384834e-05 154:5.1903829e-05 155:-7.9693804e-05 156:0.0043246546 157:0.15981394 158:0.0033936573 159:3.2567972e-05 160:-0.27167103 161:-4.6616373e-05 162:0.17568833 163:0.021712383 164:0.11667146 165:-0.081215501 166:6.6618944e-05 167:0.0022411789 168:0.14356701 169:0.22682089 170:-0.032223191 171:2.127024e-05 172:-0.15735307 173:-3.7891805e-05 174:4.7168061e-05 175:-2.7390364e-05 176:-3.2962751e-05 177:-1.6481377e-05 178:-1.137323e-05 179:-4.8652968e-05 180:-3.5226141e-05 181:-0.015933374 182:0.41055462 183:0.037432127 184:0.43535393 185:0.33687735 186:2.6337071e-05 187:-0.16814789 188:0.11195131 189:-4.1046176e-05 190:5.7768848e-05 191:0.27541405 192:0.02572668 193:-0.015589755 194:0.0016853558 195:-0.057562549 196:-2.8926903e-05 197:-0.35677987 198:-0.0091806147 199:0.021368749 200:3.2168351e-05 201:0.12301374 202:6.7832407e-05 203:4.1889252e-05 204:6.8993431e-05 205:0.052462563 206:-0.039480049 207:0.025673687 208:0.13802801 209:-0.42302749 210:-0.01593343 211:-2.9487346e-05 212:-0.014697129 213:0.00083939172 214:2.8772247e-05 215:1.8668095e-05 216:0.0096921427 217:-0.0041162022 218:0.34069449 219:0.011989103 220:0.13937686 221:3.2996526e-05 222:-4.2096319e-05 223:0.0024796352 224:-0.025092831 225:-3.1120908e-05 226:0.22846484 227:-5.2857995e-05 228:0.26461744 229:-4.1007017e-05 230:0.0048827529 231:0.093163922 232:5.4348478e-05 233:-0.084673658 234:0.014267969 235:0.072530411 236:-1.9031053e-05 237:-0.23039299 238:5.2330171e-05 239:0.027664684 240:0.32159245 241:-0.190781 242:0.28385338 243:-0.19202679 244:-0.017387649 245:-3.5467339e-05 246:0.13832238 247:0.013259689 248:0.33756983 249:-0.068772055 250:2.774229e-05 251:-0.099707469 252:0.38279518 253:-0.2367443 254:0.3894735 255:-0.21974342 256:-5.0603659e-05 257:-5.2366282e-05 258:0.049163256 259:2.1277367e-05 260:-0.047269315 261:-0.013485706 262:0.19084045 263:-0.0092908908 264:-0.047839422 265:2.0572221e-05 266:-0.12771767 267:-0.41702509 268:8.2013525e-05 269:-4.7857182e-05 270:4.8252528e-05 271:0.019629145 272:-0.028303955 273:-4.8352951e-05 274:-0.24102502 275:-5.6638226e-05 276:0.2236522 277:-0.16146225 278:-0.0027905093 279:-0.39272442 280:-0.070554815 281:0.11667146 282:2.4846755e-05 283:0.049478002 284:5.8103738e-05 285:-2.1377655e-05 286:-0.08149007 287:-0.031650674 288:0.31625494 289:-0.24413988 290:3.7376249e-05 291:-0.014513806 292:0.4107798 293:-2.8104194e-05 294:-1.7284639e-05 295:0.071261078 296:3.9398026e-05 297:0.0065990612 298:0.010765695 299:0.057562519 300:0.14480604 301:0.0029310174 302:4.1836254e-05 303:5.1869909e-05 304:-0.054554489 305:-0.0056197373 306:-0.29051346 307:3.0517578e-05 308:3.5862988e-05 309:-8.0710734e-06 310:-0.15172946 311:-4.7099456e-05 312:7.2445779e-05 313:-3.1046133e-05 314:2.9149101e-05 315:0.0045147841 316:-0.0051680584 317:3.523866e-05 318:0.055958293 319:0.20978487 320:-0.39307758 321:-0.065785028 322:-0.3868393 323:5.0739298e-05 324:4.9705046e-05 325:-4.2048276e-05 326:-0.31745955 327:-0.02967345 328:-0.33784389 329:-0.074008875 330:3.7284208e-05 331:-0.015210669 332:-3.5238663e-05 333:-0.35383484 334:3.2243657e-05 335:0.30678093 336:-4.2305124e-05 337:-0.080442585 338:2.1579186e-05 339:-0.0083756987 340:-0.045652643 341:0.31243584 342:0.023241268 343:-0.0014107822 344:-0.090630166 345:0.088852905 346:-2.785861e-05 347:0.38308266 348:-0.14759237 349:-4.0774314e-05 350:0.037316673 351:0.077098615 352:-0.045652635 353:0.32880601 354:0.18697259 355:-4.0690105e-05 356:-0.3239066 357:3.6853475e-05 358:0.092967376 359:-2.120124e-05 360:-0.13628031 361:0.0059118043 362:-0.26436263 363:-0.12110996 364:0.0024794717 365:-0.12283229 366:0.054554533 367:-3.645648e-05 368:-0.039787602 369:-3.1353833e-05 370:0.1320744 371:-3.7028556e-05 372:-0.0036769074 373:4.5492921e-05 374:0.14745887 375:1.5122137e-05 376:0.013500129 377:0.11079933 378:0.095399305 379:1.67241e-05 380:2.9107474e-05 381:-1.8815399e-05 382:5.3718952e-05 383:0.1615134 384:-6.0250073e-05 385:0.20101954 386:-0.29912165 387:-0.0090542529 388:-0.14707837 389:0.10479639 390:0.11870542 391:-0.1006099 392:-4.8252528e-05 393:3.6170572e-05 394:-4.0690105e-05 395:-3.4853878e-05 396:4.7168061e-05 397:0.023492528 398:0.047179785 399:-0.09383902 400:4.9834998e-05 401:-0.063417889 402:-3.1763702e-05 403:-0.034645468 404:3.8735823e-05 405:0.0091808299 406:0.38736585 407:-5.5779958e-05 408:4.2307041e-05 409:0.0316507 410:-1.5974369e-05 411:6.4034415e-05 412:0.10454801 413:-0.1902876 414:7.9082805e-05 415:0.084496409 416:5.9315513e-05 417:4.1942396e-05 418:2.6913975e-05 419:-2.2024164e-05 420:4.3158372e-05 421:0.096217021 422:0.0089145517 423:-0.12611163 424:0.16749009 425:-3.6677564e-05 426:0.28187114 427:-3.7293692e-05 428:1.2458749e-05 429:0.076962508 430:-0.18862998 431:0.072530389 432:-0.085988946 433:0.031496156 434:0.16959508 435:0.0043246145 436:-2.1856671e-05 437:-2.8538399e-05 438:0.46192974 439:-0.23191294 440:4.3158368e-05 441:-0.069583617 442:0.049244709 443:3.3738452e-05 444:-0.21664579 445:0.065830044 446:0.0034339963 447:-0.27887678 448:0.0099484725 449:-0.017773302 450:-9.8734254e-06 451:-0.29051346 452:2.6106423e-05 453:-4.0690105e-05 454:0.13802803 455:-4.2744879e-05 456:-0.33002782 457:0.1431002 458:-0.047133803 459:2.015338e-05 460:0.23392171 461:-5.5060413e-05 462:3.8332619e-05 463:3.9059349e-05 464:0.019867184 465:0.093397312 466:-0.068908148 467:0.0035191078 468:0.33670387 469:2.438065e-05 470:0.35539445 471:2.035023e-05 472:0.0066705612 473:0.00040930777 474:4.5492921e-05 475:-5.4634671e-05 476:0.08356782 477:0.017248102 478:0.096445374 479:-0.35098818 480:4.1042331e-05 481:-0.048729993 482:5.663823e-05 483:-0.27541557 484:6.5135951e-05 485:-1.5151775e-05 486:6.5630098e-05 487:2.8603166e-05 488:9.0675872e-05 489:-0.0066182003 490:3.3766806e-05 491:0.020337785 492:0.10959499 493:-2.8772251e-05 494:-1.2040438e-05 495:-0.29837605 496:-0.015110102 497:0.18601122 498:4.5492921e-05 499:0.19279015 500:-8.4510475e-06 501:0.065918297 502:-0.15885636 503:-0.12369137 504:0.3192406 505:-1.7801922e-05 506:-0.09700083 507:3.3491942e-05 508:-5.7544497e-05 509:-0.15892091 510:-0.143567 511:-0.17947231 512:4.2414242e-05 
0.1599704180885508 1:0.14029728 2:2.7153215e-05 3:0.0017995023 4:-0.0087189022 5:0.023109941 6:0.160579 7:0.15961288 8:0.0097647756 9:-0.03030326 10:0.18824145 11:0.068447217 12:-0.29609412 13:0.01610834 14:-0.20615029 15:0.0035758328 16:0.0069528837 17:0.092709497 18:0.1201057 19:0.1878332 20:0.075140886 21:0.096208133 22:0.11862195 23:2.5934954e-05 24:-0.16212772 25:-0.095605813 26:-4.2386982e-05 27:0.17882523 28:0.019497223 29:-0.051230498 30:0.1348501 31:-0.025547069 32:0.09592513 33:0.13796781 34:4.1164181e-05 35:-0.048116278 36:-0.0078421487 37:1.8860368e-05 38:0.033078045 39:-0.021495547 40:-0.072093084 41:0.017314715 42:-0.068620466 43:0.0044932785 44:-0.064187169 45:-0.089419052 46:0.030398084 47:0.42110661 48:-0.23990698 49:0.24337505 50:-0.092507631 51:-0.016301116 52:0.065108962 53:-0.19086131 54:-0.057089541 55:0.011293389 56:-0.0075244759 57:-1.1939222e-05 58:-0.048935242 59:-0.33790475 60:-0.14435086 61:-0.037386946 62:-0.26470613 63:3.2567976e-05 64:0.13707836 65:-0.22834501 66:-0.22407697 67:-0.34629032 68:0.092193179 69:-0.22971174 70:0.44558367 71:1.2458749e-05 72:0.28070864 73:-1.4774257e-05 74:-0.045795921 75:0.29133141 76:0.10715853 77:-0.15199097 78:-0.03527258 79:-0.13514611 80:0.0025709495 81:0.16902466 82:0.26730362 83:0.2986114 84:-0.050688557 85:-0.28521696 86:-0.11856982 87:-0.039630517 88:-0.015606235 89:0.18218777 90:-0.030306797 91:-0.091955148 92:-0.084320411 93:0.05448718 94:-0.031466678 95:0.054666393 96:-0.013771186 97:-0.078534529 98:-0.20861094 99:0.22487919 100:0.11655699 101:0.2259766 102:-0.069614395 103:-0.23360217 104:-0.12598044 105:-0.15457904 106:0.32238153 107:0.1818665 108:0.12860824 109:0.084008262 110:0.0031699068 111:-0.073330194 112:0.018122826 113:-0.030406926 114:0.1211193 115:-0.10519779 116:0.027932137 117:-0.066562086 118:-0.045369234 119:-0.034266111 120:-0.0039903214 121:-2.8824577e-05 122:0.0032211912 123:0.11810834 124:-0.080044031 125:0.13564874 126:-0.17175309 127:-0.010800694 128:0.077167355 129:0.32746685 130:-0.24882542 131:0.0049591861 132:0.012012752 133:-0.031076299 134:-0.00083332486 135:0.18234293 136:0.19768032 137:-0.015627578 138:-0.090048663 139:-0.013771212 140:0.089903355 141:-0.11514151 142:-0.047103342 143:-0.17876799 144:-0.26735187 145:0.14857394 146:0.16267201 147:-0.0059404448 148:0.11812218 149:-0.1906449 150:-0.11984649 151:-0.11042222 152:0.043583825 153:4.0460975e-05 154:-0.013943823 155:0.12329971 156:0.10151648 157:0.10271354 158:0.0090360986 159:3.5433739e-05 160:-0.090602294 161:0.22004823 162:0.24430095 163:0.19828162 164:-0.045563754 165:0.30923751 166:-0.15959708 167:0.0016906508 168:0.10459358 169:0.15343691 170:-0.073205903 171:0.10298028 172:-0.031465437 173:0.065406948 174:0.039606038 175:0.090189748 176:-0.055091806 177:-0.080828257 178:-0.07078582 179:-0.015750602 180:-2.2213571e-05 181:0.049113289 182:0.40727094 183:0.26362398 184:0.27659526 185:-0.17234786 186:-0.0038928867 187:0.14399217 188:0.31169829 189:0.085591614 190:0.025812544 191:0.047226634 192:-0.019816237 193:0.062108915 194:0.13353184 195:-0.11174934 196:1.7016106e-05 197:-0.17861903 198:-0.11723992 199:0.082198992 200:0.0021657697 201:0.035004809 202:-0.084267505 203:0.084500387 204:3.2364442e-05 205:0.030901624 206:-0.0066093905 207:0.17907183 208:0.018539932 209:-0.070070975 210:-0.050125428 211:0.02059258 212:-0.062695853 213:0.053585321 214:2.4672954e-05 215:0.041364815 216:0.051201664 217:0.020675363 218:0.29618332 219:0.1988963 220:0.095148668 221:0.021093812 222:0.023283713 223:-0.021957017 224:-0.12035578 225:0.0021917725 226:0.017441792 227:0.0074405358 228:0.016306816 229:0.014407002 230:-0.022293644 231:-0.10634238 232:-0.030552896 233:0.10269379 234:0.13855264 235:-0.035065528 236:-0.011665083 237:-0.32762724 238:2.1768108e-05 239:-0.072059803 240:0.28764188 241:-0.079217717 242:0.13294753 243:-0.19754437 244:0.19051678 245:-0.084740259 246:0.1831837 247:-0.023074452 248:-0.082635917 249:-0.038524318 250:-0.11248387 251:-0.20828314 252:0.12707086 253:-0.007160143 254:0.097674064 255:-0.0973709 256:-1.7609345e-05 257:-0.080918215 258:-0.088581644 259:-0.15585141 260:4.5136108e-05 261:-0.14816436 262:-0.13757369 263:-0.23251383 264:-0.047711421 265:-0.03179935 266:0.017313711 267:-0.08775375 268:-0.020694809 269:-0.17197655 270:-2.3099139e-05 271:0.057472829 272:0.12361543 273:0.076379806 274:-0.075214542 275:0.10389061 276:0.18056519 277:-0.14360026 278:-0.14621156 279:0.13290115 280:0.18033502 281:0.10445718 282:0.044565141 283:-0.27613819 284:-0.040693846 285:4.2553758e-05 286:-0.0063038608 287:-0.11528651 288:0.082933798 289:-0.14145169 290:-0.15689509 291:-0.022411991 292:0.029879434 293:-0.057902236 294:-0.029712006 295:0.0016021708 296:-3.411969e-05 297:-0.092749164 298:0.26722792 299:0.11412946 300:0.28431436 301:0.15376866 302:-0.11646 303:-0.0061674877 304:-0.12753138 305:0.06682197 306:-0.026456645 307:1.4678188e-05 308:3.6966983e-05 309:-0.1115387 310:0.037850995 311:-0.036573734 312:1.4130981e-05 313:0.057381731 314:-0.30829114 315:-0.075593278 316:-0.11693858 317:5.7852751e-05 318:-0.18625295 319:-0.13031206 320:-0.61852819 321:0.25145248 322:-0.37929839 323:-0.11370096 324:3.4184519e-05 325:-0.0091401888 326:-0.34475109 327:-0.35218799 328:-0.25547996 329:-0.22090732 330:0.069451861 331:-0.054810677 332:-4.0539751e-05 333:0.19470128 334:0.17197986 335:0.33613831 336:-0.062091488 337:-0.16936933 338:-0.0039263745 339:-0.024787612 340:-0.10337267 341:0.22708543 342:0.21130994 343:0.025060631 344:0.080127463 345:0.027677381 346:-0.22822559 347:0.11756385 348:-0.21893786 349:0.045828551 350:-0.15320377 351:-0.040882379 352:-0.29129687 353:0.06947615 354:-0.17040324 355:0.023865236 356:-0.44810453 357:-0.099207856 358:0.12579069 359:-0.095931247 360:0.13283211 361:0.13019048 362:-0.1542716 363:-0.26088724 364:0.0023656639 365:-0.056446437 366:0.12932968 367:0.16236255 368:-0.21267396 369:3.8060651e-05 370:0.078862332 371:-0.071314797 372:-2.0285361e-05 373:0.0088488273 374:0.031541511 375:0.039988536 376:0.028795186 377:2.7300664e-05 378:0.048266262 379:0.069233008 380:-0.099348642 381:2.5837739e-05 382:-0.15960297 383:0.15102759 384:-0.081666581 385:0.037755907 386:-0.079002857 387:-0.017608406 388:-0.1043682 389:0.046801828 390:-0.042118177 391:-0.21838135 392:-0.048449051 393:0.10443008 394:-0.07581012 395:0.05549553 396:0.011258979 397:-0.011484389 398:0.080759957 399:0.2559005 400:0.042740684 401:-0.17635275 402:0.0041187503 403:-0.10815141 404:-0.0075014681 405:0.11690551 406:0.23521268 407:-0.070141256 408:0.060948152 409:0.020741582 410:-0.045032822 411:0.005984935 412:0.13390221 413:-0.190997 414:3.1055893e-05 415:0.052853338 416:0.22814171 417:-0.018628454 418:0.0053622532 419:-0.07710363 420:-0.071514703 421:0.11805893 422:0.13610014 423:0.13950394 424:-0.149425 425:0.13632672 426:-0.11897144 427:0.038140152 428:-0.0031698376 429:0.055806696 430:-0.011343482 431:0.10594299 432:-0.13423361 433:0.23685765 434:0.16117926 435:0.050587766 436:-0.012131256 437:-0.011012622 438:-0.41714585 439:-0.082684092 440:-0.03308548 441:-0.17561319 442:0.12064274 443:-0.057546426 444:-0.23442927 445:-0.27086988 446:0.060579132 447:-0.067833208 448:0.1572046 449:-0.21004502 450:-0.10118502 451:-0.02645668 452:-1.3640661e-05 453:-2.9218358e-05 454:-0.012137794 455:-0.1047134 456:-0.059897162 457:0.0048029707 458:0.11382724 459:0.091969237 460:0.07506489 461:-0.0015261463 462:0.058772381 463:-0.19203061 464:-0.18190232 465:-0.10004623 466:-0.055116016 467:0.0012427305 468:0.073464684 469:-0.0021831235 470:-0.21791777 471:0.0075584501 472:0.1051367 473:0.11237316 474:0.02054785 475:4.4194916e-05 476:0.23999231 477:-0.072484471 478:0.080700874 479:-0.12001558 480:-2.5184676e-05 481:-0.058228243 482:-0.0029324479 483:-0.068165652 484:-0.053341947 485:-2.3915709e-05 486:-0.0024490668 487:-0.13456069 488:0.042703938 489:-0.00053446536 490:0.10925099 491:0.10407256 492:0.034447242 493:0.0022909804 494:0.0018492409 495:0.29423174 496:-0.18182603 497:0.21987586 498:-0.039040465 499:0.21004671 500:3.7028556e-05 501:-2.8726554e-05 502:-0.10682804 503:-0.18025072 504:-0.068038292 505:0.076860271 506:-0.09050341 507:-0.054191444 508:4.4563025e-05 509:-0.15440524 510:-0.16364726 511:-0.20389998 512:0.005508787 
0.1839930662105727 1:-5.560102e-05 2:4.1942396e-05 3:0.081245556 4:-3.0517578e-05 5:-0.075156428 6:0.49232951 7:-0.087965988 8:0.048643988 9:1.8582219e-05 10:-0.16967458 11:7.3355128e-05 12:0.28995177 13:0.026951818 14:-0.11847524 15:0.11441835 16:5.1994448e-05 17:-0.036431633 18:0.2390212 19:0.29256067 20:-2.0345051e-05 21:-4.1320996e-05 22:-0.16746198 23:3.5238663e-05 24:-0.043100249 25:-0.0024017398 26:-3.852744e-05 27:0.094018072 28:-2.7153215e-05 29:0.0072753327 30:0.10512358 31:0.035949897 32:-0.0046981215 33:-0.13480331 34:4.8519862e-05 35:-0.071621358 36:-0.032108404 37:2.3549726e-05 38:-3.5893627e-05 39:0.11625402 40:3.596531e-05 41:-5.3102147e-05 42:4.8252532e-05 43:1.0485599e-05 44:-1.7619332e-05 45:1.5881849e-05 46:0.024953408 47:-0.32544634 48:-0.093715817 49:0.13134639 50:0.29691893 51:-0.10391781 52:9.1400107e-06 53:-3.1828462e-05 54:6.5925502e-05 55:0.088236302 56:-2.2097456e-05 57:2.4852523e-05 58:-0.0083160987 59:-2.0105221e-05 60:-0.15657076 61:-0.10891065 62:-0.12098374 63:-6.6705717e-05 64:0.32137421 65:3.5238663e-05 66:-0.13420081 67:-0.011895503 68:-0.104287 69:-0.01285053 70:0.31934518 71:1.3856701e-05 72:0.34490466 73:-3.315838e-05 74:-0.083895825 75:1.914333e-05 76:0.45258421 77:-0.15657078 78:-0.050657678 79:-0.16910645 80:4.0978895e-05 81:-0.032108501 82:-0.11240867 83:0.034823798 84:5.3707667e-05 85:-0.27371013 86:7.4161624e-05 87:1.1922698e-05 88:-0.11524369 89:-0.098777018 90:-0.12446973 91:-0.2139266 92:0.14320983 93:-3.1910153e-05 94:-0.15845504 95:-5.3587104e-05 96:-2.2024165e-05 97:-0.3384347 98:-3.3738452e-05 99:0.26367354 100:0.0036782366 101:0.060416624 102:0.35801676 103:0.084814504 104:0.45371574 105:-0.23154522 106:0.27241978 107:0.03470505 108:3.6485697e-05 109:-4.0049272e-05 110:5.9966158e-05 111:0.035628028 112:0.011147559 113:-0.13356239 114:0.012045615 115:0.10661844 116:-0.20774922 117:-0.47112721 118:7.3001604e-05 119:2.8464814e-05 120:7.5768265e-05 121:3.6323181e-05 122:0.068664312 123:1.6076521e-05 124:-0.098308906 125:2.6365322e-05 126:-0.036528636 127:-0.0095594339 128:4.9891267e-05 129:-0.40591696 130:-0.041361202 131:3.0090736e-05 132:1.6084177e-05 133:-3.6323181e-05 134:-1.0172525e-05 135:0.094018079 136:-0.090275243 137:3.2998079e-05 138:0.3384347 139:-0.011817614 140:3.8062106e-05 141:-3.4916e-05 142:-0.0446514 143:0.15908962 144:-0.45584187 145:-3.8062106e-05 146:-0.10295323 147:4.0003837e-05 148:0.0095082112 149:-0.0048679975 150:-0.39070475 151:-5.1491956e-05 152:-2.06605e-05 153:5.6866174e-06 154:3.271762e-05 155:-8.2406877e-05 156:0.0023409082 157:0.17210938 158:0.0032605832 159:-1.9699013e-05 160:-0.26883283 161:-3.3738452e-05 162:0.16014555 163:-4.4776451e-05 164:0.11663947 165:-0.085892312 166:-3.3814707e-05 167:0.0017504948 168:0.13722652 169:0.24238205 170:-0.035628088 171:-1.8860368e-05 172:-0.14475535 173:-3.4869663e-05 174:3.5238663e-05 175:2.6913973e-05 176:1.9031055e-05 177:3.4496716e-05 178:2.5934954e-05 179:-3.9398023e-05 180:-1.6267462e-05 181:-0.0060044206 182:0.40431803 183:0.03690552 184:0.43668362 185:0.32846323 186:-4.4121683e-05 187:-0.16630137 188:0.12039023 189:-2.4917497e-05 190:7.0569033e-05 191:0.28150681 192:4.2529835e-05 193:-0.02655692 194:-1.2519722e-05 195:-0.059024967 196:9.9080025e-06 197:-0.36857888 198:-0.0048416201 199:3.1555195e-05 200:3.8062106e-05 201:0.11769509 202:4.4486635e-05 203:3.5761084e-05 204:4.8785721e-05 205:0.050657712 206:-0.043447025 207:-0.0035303712 208:0.13736905 209:-0.42849064 210:-0.0060045505 211:4.5161672e-05 212:4.0690105e-05 213:0.00035583664 214:-2.8772249e-05 215:-5.2445721e-05 216:-0.043353524 217:-0.0012505632 218:0.34490466 219:0.0048682122 220:0.14956258 221:5.1134306e-05 222:-4.0690105e-05 223:0.0046661855 224:4.8161102e-05 225:-5.0767172e-05 226:0.24383955 227:-4.3158372e-05 228:0.28312102 229:-5.2839609e-05 230:0.0042028185 231:0.10110968 232:7.6944387e-05 233:-0.081700616 234:0.0034368613 235:0.066964567 236:-1.1373232e-05 237:-0.24412952 238:5.5248907e-05 239:0.024953496 240:0.30760705 241:-0.20899868 242:0.28504059 243:-0.20924735 244:-1.9519535e-05 245:-5.5250959e-05 246:0.13543275 247:3.4869659e-05 248:0.33936262 249:-0.066083394 250:1.0172525e-05 251:-0.10512357 252:0.37167224 253:-0.25841886 254:0.38779044 255:-0.22620349 256:-4.1132891e-05 257:-6.9087109e-05 258:0.049287125 259:-1.8338782e-05 260:-0.055485349 261:-0.006114284 262:0.20800747 263:-2.3856686e-05 264:-0.045874 265:1.330952e-05 266:-0.11926972 267:-0.42392284 268:5.5717221e-05 269:-3.4823261e-05 270:5.8877751e-05 271:0.0088629369 272:-0.032233115 273:-5.4603348e-05 274:-0.24534523 275:-2.8772251e-05 276:0.22513466 277:-0.16008529 278:-0.001784561 279:-0.39389187 280:-0.077244066 281:0.11663946 282:8.2365368e-06 283:0.049991984 284:5.4187207e-05 285:-4.5285331e-05 286:-0.084572412 287:-0.033770405 288:0.31705654 289:-0.24466483 290:2.8319113e-05 291:2.0660498e-05 292:0.40904146 293:-4.9493156e-05 294:-6.8256181e-06 295:0.074734695 296:5.2366286e-05 297:1.5258788e-05 298:-4.605807e-05 299:0.059024956 300:0.15242295 301:0.0021681788 302:3.8881644e-05 303:4.5492921e-05 304:-0.046909671 305:-0.003674261 306:-0.29553926 307:-2.6428997e-05 308:4.1079002e-05 309:-2.4477131e-05 310:-0.14046662 311:-4.1477218e-05 312:6.164144e-05 313:-1.4273291e-05 314:3.1814565e-05 315:-3.5376048e-05 316:-0.0083161416 317:2.0345053e-05 318:0.04632372 319:0.19484834 320:-0.37435439 321:-0.077152275 322:-0.37913918 323:5.2861746e-05 324:4.5776371e-05 325:-1.4815504e-05 326:-0.32085982 327:-1.0695696e-05 328:-0.34675446 329:-0.065488964 330:3.5785033e-05 331:-0.0056231725 332:-6.1035156e-05 333:-0.3449946 334:-4.3974855e-05 335:0.30980399 336:-3.0901585e-05 337:-0.068474695 338:4.1320993e-05 339:-1.2262534e-05 340:-0.048200987 341:0.32970667 342:-0.0036652326 343:-2.5221845e-05 344:-0.073498406 345:0.098308921 346:2.4392859e-05 347:0.37481028 348:-0.13357545 349:-4.0353989e-05 350:0.035949983 351:0.067574352 352:-0.04820098 353:0.34004316 354:0.18651922 355:-3.8062106e-05 356:-0.31934515 357:4.2326144e-05 358:0.099492587 359:-3.5238667e-05 360:-0.12000126 361:3.3738452e-05 362:-0.27371013 363:-0.12364292 364:0.0046661622 365:-0.12792632 366:0.046909723 367:-2.6853832e-05 368:-0.041361213 369:1.6084176e-05 370:0.14011547 371:-4.4631775e-05 372:-0.0072664171 373:4.0690105e-05 374:0.13863258 375:-2.8915665e-05 376:-1.8969818e-05 377:0.12213401 378:0.10152029 379:-1.833207e-05 380:-4.5776367e-05 381:-2.6365322e-05 382:5.8048056e-05 383:0.17184621 384:-5.9938902e-05 385:0.2141884 386:-0.30129325 387:-0.0023320003 388:-0.13858873 389:0.096240096 390:0.12552609 391:-0.093584165 392:-4.19424e-05 393:-2.7990593e-05 394:-3.2168355e-05 395:-3.7721071e-05 396:5.1869913e-05 397:0.026951829 398:0.044518162 399:-0.10087733 400:8.3884806e-05 401:-0.060356088 402:-2.2746459e-05 403:-0.01448594 404:4.4341014e-05 405:0.004841588 406:0.3888579 407:-5.9643906e-05 408:-3.9887458e-05 409:0.033770438 410:-2.6243519e-05 411:7.2199859e-05 412:0.10441116 413:-0.19065416 414:6.6072498e-05 415:0.097275175 416:2.0345051e-05 417:5.2857995e-05 418:1.7619332e-05 419:-3.9887458e-05 420:5.1869909e-05 421:0.10164782 422:4.5436271e-05 423:-0.11625402 424:0.15520623 425:-4.0690105e-05 426:0.2830154 427:-3.4402845e-05 428:4.605807e-05 429:0.06671945 430:-0.20062776 431:0.066964559 432:-0.092000633 433:-0.0032611238 434:0.16910645 435:0.0023406977 436:1.5898777e-05 437:-3.4071152e-05 438:0.46201974 439:-0.2390212 440:6.4336702e-05 441:-0.07153403 442:0.049320746 443:2.6913975e-05 444:-0.22589132 445:0.073010683 446:6.6023531e-05 447:-0.28017414 448:0.013576681 449:2.4059153e-05 450:-4.373628e-05 451:-0.29553929 452:-4.0941948e-05 453:-4.0690105e-05 454:0.13736907 455:-3.6497142e-05 456:-0.32472399 457:0.15376064 458:-0.051180989 459:2.5299927e-05 460:0.23788229 461:-3.2864504e-05 462:-2.8489885e-05 463:-5.0418672e-05 464:0.019387804 465:0.10110968 466:-0.071961112 467:2.9261826e-05 468:0.328437 469:2.7650156e-05 470:0.35472843 471:-2.9910992e-05 472:0.0095595419 473:1.9302241e-05 474:3.8062106e-05 475:-4.0927931e-05 476:0.092034101 477:-2.0824898e-05 478:0.10198747 479:-0.35313487 480:2.9258494e-05 481:-0.044651378 482:5.5717221e-05 483:-0.28150684 484:6.7476903e-05 485:-2.9361934e-05 486:3.5047007e-05 487:1.6869226e-05 488:3.9117029e-05 489:-0.0097853551 490:-3.0921172e-05 491:-3.9068331e-05 492:0.11038142 493:-5.2857995e-05 494:-2.9324958e-05 495:-0.30906728 496:-0.0077611506 497:0.1729195 498:0 499:0.20831555 500:1.6659294e-05 501:0.075066984 502:-0.15413372 503:-0.11854801 504:0.32040501 505:3.6323181e-05 506:-0.1021089 507:4.9574759e-05 508:2.8772249e-05 509:-0.14349031 510:-0.13722651 511:-0.17066197 512:6.2719475e-05 
0.003739696204124709 1:0.089002401 2:1.1373237e-05 3:0.096437611 4:-0.0036888344 5:-0.13585138 6:0.40159401 7:-0.17976968 8:0.041526332 9:-0.13737412 10:-0.019207949 11:-0.11828386 12:0.10611968 13:0.15937597 14:-0.023353588 15:0.067638271 16:-0.012594584 17:0.020438524 18:0.028696405 19:0.072259709 20:0.097355418 21:0.070292741 22:0.046738844 23:-0.0057511143 24:0.032829322 25:-0.064363763 26:5.8971018e-05 27:-3.1012252e-05 28:0.40645266 29:0.12135144 30:0.16322455 31:0.097323425 32:-0.027790722 33:-0.052861005 34:-2.1277365e-05 35:-0.071000643 36:-0.0091564441 37:-0.062938944 38:3.9743059e-05 39:0.02197721 40:0.029852649 41:-0.033359524 42:-3.9108076e-05 43:0.30128962 44:-0.061360337 45:-0.0079226075 46:0.096283793 47:-0.13163671 48:-0.057512138 49:0.1229579 50:-0.36034471 51:-0.20115036 52:0.032635935 53:-0.088089988 54:0.0067249229 55:0.1469041 56:-0.047280911 57:-0.036411174 58:-0.077722609 59:0.085373349 60:-0.081644401 61:-0.031504646 62:-0.091401942 63:0.012669865 64:-0.13493477 65:-0.32534146 66:-0.090441778 67:-0.29171082 68:0.1101175 69:-0.086044058 70:0.11391045 71:2.7638253e-05 72:0.04257898 73:-5.1447834e-05 74:-0.0017996726 75:0.027828751 76:0.11457891 77:-0.12649675 78:-0.078703128 79:-0.094136752 80:-0.01099891 81:0.021293361 82:0.042368475 83:-0.096695915 84:-9.2413757e-06 85:-0.018077884 86:-0.039553229 87:-0.0035393331 88:-0.097286403 89:0.18989213 90:-0.12232583 91:-0.19954768 92:0.068544179 93:-0.091943018 94:0.073220022 95:0.13361873 96:-0.25324157 97:0.052239381 98:0.011809459 99:-0.077648394 100:0.021629734 101:0.15947573 102:-0.08142107 103:-0.15342441 104:0.080709472 105:-0.11074249 106:0.063742787 107:0.0533696 108:4.2195756e-05 109:0.076765046 110:0.0032782778 111:-0.056069687 112:0.08656273 113:-0.053573575 114:0.14934102 115:0.022778768 116:-0.16941139 117:-0.088399746 118:-0.058737025 119:-0.051554326 120:-0.04028146 121:-0.089280464 122:0.089262865 123:0.20446552 124:-0.022982871 125:-0.24236269 126:-0.14201351 127:0.049600795 128:0.077646084 129:0.09873122 130:-0.0061780647 131:0.030393429 132:0.011582013 133:-0.21945453 134:1.4044902e-05 135:-0.088777728 136:0.16964835 137:-0.021247607 138:0.034705397 139:-0.069477163 140:-0.051948529 141:0.0022901953 142:-0.0053034886 143:0.24330188 144:-0.14089403 145:-0.084043376 146:-0.10640708 147:0.13287655 148:-0.10673737 149:-0.095513046 150:-0.028335804 151:-0.042578697 152:0.067624539 153:0.010999043 154:0.075491071 155:0.034594234 156:0.036553968 157:0.20564334 158:-0.17425443 159:-0.001168086 160:-0.38219872 161:0.086949706 162:0.3310653 163:-0.07358624 164:0.098564565 165:-0.066959888 166:3.3282769e-05 167:0.10950747 168:-0.022292439 169:-0.14710975 170:-0.12232184 171:0.015096853 172:0.1342373 173:-0.0032349448 174:0.12685542 175:0.031048059 176:-0.092108101 177:0.0027064441 178:0.1573907 179:-0.0084540434 180:8.9078676e-06 181:-0.14028677 182:0.34901112 183:0.13303529 184:-0.26904324 185:0.24984187 186:1.9189692e-05 187:0.11554327 188:0.006174468 189:0.086988449 190:0.01037233 191:0.04079112 192:0.097610235 193:-0.031072766 194:-0.071394339 195:0.03397809 196:-0.061391518 197:0.11989269 198:3.4914694e-05 199:0.056604143 200:-5.9587474e-05 201:0.13104023 202:0.14855301 203:0.016256096 204:0.0025338719 205:0.12054026 206:-0.11348758 207:-0.29118422 208:0.15098338 209:0.029523676 210:0.0075841048 211:0.031279515 212:-0.0038382846 213:0.11173511 214:0.012456768 215:-0.12424953 216:-0.044548344 217:0.16458814 218:0.065216549 219:0.062985241 220:-0.014650296 221:0.022370951 222:0.038075149 223:0.043511271 224:-0.034207128 225:-0.08719942 226:-0.24263313 227:0.013148048 228:0.36684588 229:-0.012037707 230:0.11573244 231:0.14312755 232:-0.062590659 233:0.050482914 234:-0.092406534 235:-0.11352318 236:-0.092140175 237:-0.25361082 238:5.1040286e-05 239:0.080102518 240:0.15757827 241:-0.28266576 242:-0.09818054 243:0.23563205 244:0.33436298 245:0.088618338 246:0.063090846 247:-0.054520085 248:0.077744514 249:-0.043600064 250:0.030345891 251:-0.094281904 252:0.11273869 253:-0.10130379 254:0.045037609 255:-0.014545633 256:2.2677017e-05 257:-0.069444619 258:0.26807094 259:-0.0035432738 260:0.047528449 261:-0.0066336817 262:0.045211982 263:-0.037347287 264:-0.0065725259 265:0.11506917 266:-0.31645727 267:-0.0089982525 268:-0.020286426 269:-0.032722056 270:-5.1642299e-05 271:0.1603213 272:0.032842703 273:-0.0037675095 274:-0.061758552 275:0.27642313 276:0.0064639603 277:-0.08519569 278:-0.035066783 279:0.095099822 280:-0.3462629 281:-0.10833541 282:0.090305373 283:0.088978946 284:-0.026558414 285:2.66119e-05 286:-0.044942487 287:-0.049889114 288:0.053627603 289:-0.21828634 290:-0.006305851 291:-0.051091019 292:0.13478199 293:-0.15821519 294:0.085109271 295:0.086443461 296:-0.16086374 297:0.12362531 298:-0.085693792 299:-3.7581169e-05 300:0.0048159086 301:0.020841489 302:0.040276758 303:-0.053849977 304:0.017130794 305:0.1152989 306:-0.025216073 307:-4.9247519e-06 308:0.015346344 309:-0.0093768658 310:0.29092273 311:0.0020955293 312:-0.31456447 313:0.03368517 314:-3.2418775e-06 315:0.046419449 316:-0.074567616 317:-1.3994384e-05 318:-0.05754406 319:-0.20243759 320:-0.30985126 321:0.08183106 322:-0.13762622 323:0.016113728 324:3.9833776e-05 325:0.29110676 326:-0.070572205 327:-0.054690402 328:-0.076625519 329:-0.10580532 330:0.076733068 331:-0.031994332 332:-4.1193547e-05 333:-0.31903362 334:0.32555714 335:-0.11283388 336:0.00038728752 337:0.1528099 338:2.7030836e-05 339:-0.072736926 340:-0.049477801 341:0.24811848 342:-0.16193108 343:-0.031217216 344:-0.047955237 345:-0.10166803 346:-4.6303154e-05 347:-0.086144179 348:-0.056264259 349:-1.4713905e-05 350:0.097364776 351:-0.084184118 352:0.10909781 353:0.0041664327 354:0.18138158 355:0.033550799 356:-0.14560717 357:0.10158556 358:0.060777653 359:0.016601846 360:-0.05643905 361:-0.078779772 362:0.025392571 363:-0.28725508 364:0.16268067 365:-0.075827926 366:0.072537094 367:0.020099921 368:0.047101218 369:2.9356024e-05 370:0.0052630589 371:-0.044308674 372:-0.048073467 373:3.4608984e-05 374:0.099546127 375:0.0035394256 376:0.068779908 377:-0.047285229 378:-0.29542515 379:-0.010531029 380:-0.10733044 381:4.7846745e-05 382:-0.026543571 383:0.05274763 384:-0.076907128 385:0.31175128 386:-0.10040372 387:0.060038298 388:0.07815484 389:0.070657767 390:-0.105225 391:0.015265126 392:0.031624034 393:-0.30499721 394:-0.035628285 395:0.038691744 396:-0.031013113 397:0.11355671 398:0.050804067 399:-0.038748488 400:-0.14233443 401:-0.063859552 402:4.2596745e-05 403:-0.14214106 404:0.10973532 405:-4.5188946e-05 406:0.064329766 407:-0.12393893 408:-0.15281053 409:-0.080628715 410:-0.088476382 411:-0.029988047 412:0.090937011 413:-0.18750919 414:5.0463692e-05 415:0.21420678 416:0.053368151 417:-0.068618119 418:6.5135951e-05 419:0.070826702 420:-0.031105587 421:0.060777642 422:0.028988536 423:-0.14297548 424:0.13879631 425:0.10939512 426:-0.1393414 427:0.036167435 428:0.013148136 429:0.15778494 430:-0.2167514 431:0.037843317 432:0.11756331 433:-0.043595053 434:0.076101191 435:0.013465364 436:0.043925598 437:-0.29877186 438:0.020641375 439:-0.025546197 440:-0.094683409 441:-0.10549334 442:0.08997003 443:-0.10753589 444:0.25947928 445:-0.01933185 446:0.13041309 447:-0.066878729 448:0.039674144 449:-0.029475227 450:-3.065919e-05 451:-0.025215995 452:-2.8607603e-05 453:0.008548351 454:0.16372727 455:-0.044028495 456:-0.2375119 457:0.078150213 458:0.24904999 459:0.35339803 460:0.10808364 461:-0.021625318 462:-0.12685542 463:-0.093030684 464:0.14661045 465:0.13011621 466:-0.188641 467:0.040155765 468:0.18663485 469:-0.051741447 470:0.13159305 471:0.050981767 472:0.020154269 473:0.06600301 474:0.36202195 475:-0.051530752 476:0.01515384 477:0.049654447 478:0.12704191 479:-0.053935736 480:-0.0014637777 481:-0.033737648 482:-0.098410428 483:-0.044040941 484:0.074947588 485:0.050818548 486:0.03655396 487:0.096576057 488:0.047193293 489:-0.066812016 490:0.028854504 491:-0.036922596 492:0.053101245 493:0.053053513 494:-0.033260066 495:0.14749622 496:-0.5883435 497:0.12780452 498:-0.040162489 499:0.19495623 500:-0.014407958 501:0.10200203 502:-0.017927239 503:0.043866668 504:0.071194217 505:0.069369674 506:-0.19600272 507:-0.048204083 508:1.2275468e-05 509:-0.079862855 510:0.14492233 511:-0.15256919 512:0.10257445 
0.7243557999497791 1:0.21154056 2:3.2168347e-05 3:0.14640372 4:0.083796538 5:-0.081016794 6:0.36517277 7:0.17749445 8:-0.017919226 9:-0.07433141 10:-0.090773121 11:-0.0011557767 12:0.25468618 13:0.0096707661 14:-0.044013981 15:0.035874903 16:0.03473831 17:0.06473361 18:0.13072704 19:0.21685253 20:0.11877438 21:0.17545828 22:-0.023176843 23:-0.028934911 24:-0.10043157 25:-0.087588988 26:-3.2461125e-05 27:0.01641921 28:-0.067499563 29:0.14779486 30:0.16823749 31:0.019874325 32:-0.019339791 33:-0.020738881 34:-3.2525018e-06 35:-0.15332985 36:-0.006020749 37:0.067673713 38:-2.1914215e-05 39:0.033888634 40:0.075087987 41:-0.086141452 42:2.5841269e-05 43:0.040245216 44:-0.013666539 45:4.3074768e-05 46:-0.03526422 47:-0.35274732 48:-0.15057337 49:-0.10867484 50:0.23048656 51:-0.07489264 52:-0.027089685 53:-0.083377816 54:-0.056435548 55:-0.057547323 56:-0.013210098 57:2.9709883e-05 58:-0.098088242 59:0.1346496 60:-0.13939214 61:0.044004202 62:-0.14334586 63:0.008157392 64:0.21855253 65:-0.03365295 66:-0.13431045 67:-0.10498513 68:-0.044792555 69:-0.045884099 70:0.28093195 71:4.2348322e-05 72:0.22607861 73:-0.0081871143 74:0.016436342 75:0.0080880737 76:0.35323262 77:-0.15463023 78:0.087856203 79:-0.1396631 80:-0.11477703 81:0.031381402 82:-0.058483101 83:-0.11316648 84:-0.003911302 85:-0.11776093 86:-0.020077826 87:0.0039823828 88:-0.11420527 89:0.12001501 90:-0.097038299 91:-0.27602509 92:-0.013840866 93:-0.096275158 94:-0.090402476 95:0.075976804 96:0.0067838402 97:-0.23326488 98:-0.0913506 99:0.22949086 100:0.10197994 101:0.0099404603 102:0.25732309 103:-0.068824187 104:0.27326459 105:-0.24381402 106:0.18789923 107:-0.10850863 108:3.9408136e-05 109:0.17561795 110:0.026268248 111:-0.022955382 112:0.14013861 113:-0.096008651 114:0.22664875 115:0.081473857 116:-0.18534325 117:-0.34298614 118:6.5829234e-05 119:-0.11849062 120:-0.083865672 121:3.180929e-05 122:0.045761898 123:0.011999782 124:-0.063430347 125:0.058123309 126:-0.065983698 127:-0.04440432 128:0.16240022 129:-0.22682524 130:-0.00052278524 131:-0.0088007776 132:0.02176729 133:-0.01325806 134:2.1277367e-05 135:0.016419232 136:-0.060529038 137:-3.9470488e-05 138:0.13792834 139:-0.088094421 140:-0.0095742606 141:-0.010152028 142:-0.010406042 143:0.22593553 144:-0.45109054 145:-0.047540162 146:-0.0085538067 147:-0.021089491 148:0.067604534 149:-0.11153147 150:-0.17924495 151:-0.070126034 152:0.064259849 153:0.11631292 154:0.13984051 155:0.038014714 156:0.097239271 157:0.20048842 158:-0.044596452 159:-0.026552441 160:-0.26578751 161:0.020192618 162:0.12235121 163:0.075334281 164:0.10843317 165:-0.050445158 166:0.0034655971 167:0.14483646 168:-0.043397427 169:0.20951784 170:-0.07023938 171:0.11539908 172:-0.073810011 173:-0.036585942 174:0.0069795684 175:0.032836437 176:0.021154506 177:0.019318962 178:-0.022127595 179:0.11520568 180:1.7822022e-05 181:-0.073462449 182:0.38311544 183:0.24485457 184:0.33893785 185:0.44146851 186:-0.025771301 187:0.20629205 188:0.015368549 189:0.014678092 190:5.4316686e-05 191:0.15313701 192:0.096445188 193:0.029231125 194:0.079049423 195:0.023451058 196:0.058699697 197:0.14645636 198:-0.046969503 199:0.10989846 200:-0.027649043 201:0.097494677 202:0.040326994 203:-0.011688428 204:4.2745021e-05 205:-0.038505238 206:-0.11431106 207:0.12068462 208:0.16094753 209:-0.24243517 210:-0.05698679 211:-0.019476077 212:-0.032455832 213:-0.042589523 214:0.017521322 215:0.025367301 216:-0.087674044 217:0.032922912 218:0.2300529 219:0.11762785 220:-0.10594857 221:-0.0034206999 222:0.079116404 223:0.058427401 224:-0.069266871 225:-0.051439483 226:0.29848254 227:-4.2144486e-05 228:0.25669587 229:-0.013373419 230:0.018331962 231:0.064438388 232:-0.044722494 233:0.10576588 234:-0.036705501 235:-0.031921472 236:-0.03100596 237:-0.29860488 238:-5.2260852e-06 239:0.0058134343 240:0.28186804 241:-0.094687395 242:0.20800889 243:-0.098897226 244:-0.065417282 245:0.1299509 246:0.11057597 247:0.036044098 248:0.22441737 249:-0.013968103 250:0.038136546 251:-0.22169183 252:0.3770248 253:-0.19209151 254:0.26972112 255:-0.1047159 256:-4.1473508e-05 257:-0.086405598 258:-0.090220414 259:-0.064767353 260:0.030529879 261:-0.1072429 262:0.095494941 263:-0.04464912 264:-0.011960171 265:0.013956112 266:-0.10679741 267:-0.23655212 268:-0.0088072196 269:9.1150832e-06 270:9.9330382e-06 271:0.030734388 272:0.077746555 273:-0.021645105 274:-0.16191024 275:0.033779271 276:0.086910889 277:-0.09063153 278:-0.01948487 279:-0.24785216 280:-0.049416848 281:0.11088094 282:-5.7173853e-05 283:-0.033333644 284:-0.046183698 285:1.7083525e-05 286:-0.084123388 287:-0.19322589 288:0.21760511 289:-0.29311773 290:-0.16570598 291:-0.11196975 292:0.39946362 293:-0.066352509 294:-0.01673311 295:-0.010103277 296:0.04507583 297:-0.068258896 298:0.08094684 299:0.006324972 300:0.018818896 301:-0.043678001 302:-0.11798275 303:-0.017493343 304:-0.041456103 305:-0.11032186 306:-0.17223558 307:0.014469423 308:3.047933e-05 309:-0.048345983 310:-0.078561053 311:0.035688855 312:7.6344266e-05 313:0.048685018 314:-0.10283346 315:0.025646474 316:-0.12863582 317:0.011240175 318:0.016942311 319:-0.027642889 320:-0.50910264 321:-0.056891728 322:-0.37861997 323:0.019031353 324:2.8120674e-05 325:-0.059159636 326:-0.18421048 327:-0.13026886 328:-0.1601456 329:-0.13038988 330:0.1888824 331:-0.10550876 332:-4.0530849e-05 333:-0.41311687 334:0.014817452 335:0.10763736 336:0.0081712641 337:0.09985666 338:0.003200378 339:-0.025642332 340:-0.03453305 341:0.21132155 342:-0.052374132 343:-0.059034053 344:-0.034635767 345:0.10844505 346:-0.074927151 347:0.29424971 348:0.012932888 349:0.051370248 350:-0.048585854 351:0.020095842 352:-0.051576652 353:0.13901173 354:0.12536317 355:0.038540415 356:-0.28358617 357:-0.028511679 358:0.048389263 359:0.058626965 360:-0.15118659 361:-0.02889728 362:-0.1193995 363:-0.095104776 364:0.072034582 365:-0.064237379 366:-0.075667828 367:-0.056297597 368:0.091397509 369:1.8145e-05 370:0.015779141 371:-0.074622825 372:-0.10839844 373:0.01314307 374:0.112667 375:0.014872992 376:0.09403158 377:0.072013199 378:0.033746473 379:0.041969117 380:-0.18506587 381:-0.002493981 382:1.6567144e-05 383:0.10044383 384:0.010479903 385:0.29303294 386:-0.25926742 387:-0.056894526 388:-0.052630734 389:0.11127222 390:-0.089682303 391:0.045788378 392:0.046087939 393:0.048942007 394:-0.1839857 395:0.12639856 396:-0.046038043 397:0.017731354 398:-0.091791779 399:0.24738222 400:0.070184357 401:0.053952962 402:0.048120521 403:-0.045825422 404:-0.02158878 405:0.047050845 406:0.28983974 407:-0.014847016 408:-4.4509616e-05 409:-0.016656756 410:-0.041908324 411:0.0031791255 412:0.059399687 413:-0.13381875 414:3.8747061e-05 415:0.078172028 416:-0.026172761 417:-0.0097479802 418:5.6273686e-05 419:-0.020747624 420:-0.0085449666 421:0.037707847 422:0.014666887 423:-0.042246193 424:0.22935601 425:0.11133191 426:0.24065906 427:-4.4865621e-05 428:-5.2865726e-06 429:0.054542437 430:-0.15467319 431:0.040697224 432:-0.050349515 433:-0.11886991 434:0.15188004 435:0.076356925 436:-0.088267572 437:-0.081848614 438:0.29322484 439:-0.11732706 440:-0.11464902 441:-0.043442044 442:0.033144366 443:-0.01662606 444:-0.016728848 445:0.034891181 446:0.051041901 447:-0.24189934 448:0.14235558 449:-0.10582668 450:-3.3144494e-05 451:-0.17294613 452:-4.1991014e-05 453:0.060935088 454:0.16055025 455:-0.074524 456:-0.20811261 457:0.11198454 458:-0.023257863 459:0.010721663 460:0.16384405 461:-3.4860725e-05 462:-0.043524735 463:-0.2138471 464:0.021610018 465:0.065292537 466:0.065833718 467:0.01997925 468:0.40139955 469:0.010336735 470:0.35429695 471:0.1201826 472:0.13283609 473:0.066886 474:-0.015876876 475:-0.037344329 476:0.020942764 477:0.06974671 478:0.1352658 479:-0.28093448 480:-0.031793702 481:-0.069228716 482:-0.072235115 483:-0.12629728 484:-0.11335345 485:0.022092251 486:0.09289588 487:0.053745892 488:0.079135835 489:-0.14764659 490:0.069305487 491:-0.067009009 492:0.071955182 493:0.091460027 494:-0.036989588 495:-0.2414334 496:-0.037311792 497:0.11954325 498:-0.14315401 499:0.12715791 500:-2.4256489e-05 501:0.083544798 502:0.1123351 503:0.015966663 504:0.25243238 505:-0.010557418 506:-0.1273894 507:-0.022826392 508:-0.011555168 509:-0.12078843 510:-0.072076149 511:-0.067433707 512:0.026474625 
0.5083331435150081 1:0.18028969 2:0.010599351 3:0.038648184 4:0.10887443 5:-0.029836643 6:0.20903923 7:0.11017423 8:0.05840943 9:-0.017403644 10:0.018175084 11:-0.053061262 12:-0.1847682 13:0.0093990397 14:-0.16354235 15:0.024780167 16:-0.016625386 17:0.037417002 18:0.11933458 19:0.10634917 20:0.023152733 21:0.23302588 22:-0.11560272 23:-0.026001513 24:0.063323043 25:0.007451178 26:-2.5140218e-05 27:0.1095028 28:-0.021082761 29:0.037592337 30:0.11351304 31:0.042662028 32:-0.003968027 33:-0.15253526 34:3.2586853e-05 35:-0.1211347 36:-0.037531905 37:0.037654582 38:0.031993326 39:0.072804809 40:0.04988955 41:0.014640388 42:-0.13656408 43:0.0034496866 44:-0.029058414 45:0.045284834 46:0.021646729 47:0.27197623 48:-0.146272 49:0.10785677 50:0.080965422 51:-0.046951089 52:-0.20167866 53:-0.24014898 54:-0.08583378 55:-0.11409116 56:-0.016537156 57:3.7899321e-05 58:-0.06138913 59:-0.32601619 60:-0.13545035 61:-0.098887339 62:-0.27374667 63:-1.3456986e-05 64:0.13366467 65:-0.17228007 66:-0.33338416 67:-0.18045969 68:0.014469879 69:-0.21580873 70:0.28134534 71:0.012805556 72:0.1706904 73:-0.015227286 74:0.26429003 75:0.10701364 76:0.16759571 77:-0.1511846 78:-0.029098898 79:-0.16766275 80:-0.03293832 81:-0.025088567 82:0.13547063 83:0.20013003 84:-0.014557838 85:-0.27445158 86:-0.12948103 87:-0.10507888 88:-0.022308098 89:-0.054107804 90:-0.049163472 91:-0.18752575 92:-0.11132114 93:0.10390068 94:-0.0074943178 95:-0.10649332 96:-0.0087827248 97:-0.13172768 98:-0.15187474 99:0.17632532 100:0.03906706 101:0.17898419 102:-0.058851983 103:-0.044597432 104:0.072038226 105:-0.28379309 106:0.19702204 107:-0.17198494 108:0.1389543 109:-0.031055296 110:-0.051539313 111:-0.032585755 112:-0.052899115 113:0.130816 114:0.15658034 115:-0.19195351 116:0.022859596 117:-0.24449924 118:-0.059559766 119:-0.11396025 120:-0.16562699 121:-0.033096403 122:0.015185637 123:0.074097522 124:-0.14049728 125:0.051806863 126:-0.097007021 127:0.011866935 128:0.19533651 129:0.20138922 130:-0.20884208 131:0.0041550468 132:0.029258903 133:-0.038467206 134:0.0084062088 135:0.10241986 136:0.21299013 137:-0.018396709 138:0.063854523 139:-0.0074676219 140:0.068178512 141:-0.11318754 142:-0.04781384 143:-0.23583688 144:-0.34573659 145:0.02258669 146:-0.11478833 147:-0.08020366 148:0.034004193 149:0.12799484 150:-0.15805666 151:-0.26400736 152:0.021527359 153:-0.014202298 154:2.3919511e-05 155:0.1377748 156:0.090282604 157:0.16753083 158:-0.0081318039 159:-0.0013843749 160:-0.21982975 161:0.10522041 162:0.099064335 163:0.084732115 164:0.029732168 165:0.3686626 166:-0.12896165 167:0.050865874 168:0.063113868 169:0.12749662 170:-0.2037603 171:-0.10869 172:-0.14912297 173:0.10899085 174:3.6811107e-05 175:0.030653058 176:-0.048674021 177:-0.066855386 178:-0.027121497 179:0.14684027 180:-3.4159275e-05 181:0.094450943 182:0.28795373 183:0.16926531 184:0.27293518 185:0.30308202 186:-2.6447156e-05 187:0.2822271 188:0.21781376 189:0.080536723 190:0.02956306 191:0.15931047 192:0.25560126 193:0.11192813 194:0.23668383 195:-0.16414113 196:0.017490586 197:0.22014669 198:-0.082913771 199:0.17664964 200:-0.014998915 201:0.021502063 202:-0.20436886 203:-0.078262791 204:4.7451613e-05 205:0.071074784 206:-0.042555258 207:0.28536156 208:0.13462213 209:-0.10638494 210:-0.068991065 211:-0.080239549 212:-0.10954558 213:0.19867231 214:3.2691529e-05 215:0.091400214 216:-0.039900295 217:0.18236537 218:0.2092775 219:0.12833609 220:0.10583372 221:-0.054900587 222:0.060159292 223:-0.094344094 224:-0.11863987 225:-0.0074093328 226:0.16626911 227:0.015395573 228:0.15080838 229:-0.029827155 230:-0.052848537 231:-0.10204878 232:-0.031316452 233:0.18436891 234:0.12113357 235:-0.067183346 236:-0.037959728 237:-0.15830122 238:-2.3328821e-05 239:0.0090952674 240:0.41928014 241:-0.095455855 242:0.20727576 243:-0.12254133 244:-0.19007045 245:-0.13645121 246:0.19933155 247:0.22722755 248:-0.21888104 249:-0.0890266 250:-0.019177925 251:-0.27602571 252:0.18430024 253:-0.084660038 254:0.07888861 255:-0.13941038 256:-0.016381966 257:-0.095737346 258:-0.20395613 259:-0.12856874 260:-0.030935831 261:-0.067006059 262:0.072176963 263:-0.23837167 264:-0.056519613 265:-0.055320352 266:0.16546142 267:-0.14651589 268:0.045420926 269:-0.061043102 270:-0.021576693 271:0.032091662 272:0.15415625 273:0.063090242 274:-0.086221218 275:0.021998044 276:0.17824455 277:-0.24295935 278:-0.17272003 279:-0.10511866 280:-0.03704593 281:0.040110242 282:-0.051946327 283:-0.096292987 284:-0.013430139 285:-4.924753e-05 286:-0.044566911 287:-0.23281132 288:0.10700444 289:-0.056390207 290:-0.070154175 291:0.016811548 292:0.2490176 293:-0.18300837 294:-0.059098396 295:0.071288541 296:0.03079975 297:0.074670635 298:0.33711058 299:0.16506606 300:0.26528245 301:0.058066931 302:-0.075742885 303:0.010901873 304:-0.20074949 305:0.063313536 306:-0.028461779 307:0.015598254 308:2.413256e-05 309:0.098862723 310:-0.10032693 311:-0.017775526 312:2.7742288e-05 313:0.027647173 314:-0.19952464 315:0.2733919 316:-0.11692084 317:3.3449673e-05 318:0.15808646 319:-0.065286189 320:-0.4120059 321:0.20072804 322:-0.27627787 323:0.015781406 324:-0.0089375079 325:0.075969733 326:-0.19613157 327:-0.32705238 328:-0.13866737 329:-0.27211732 330:0.19626109 331:-0.073464416 332:-2.785861e-05 333:-0.34048524 334:0.015224625 335:-0.11494886 336:-0.17179188 337:0.16989052 338:2.7255373e-05 339:-0.034174897 340:0.045700341 341:0.18422131 342:0.16545832 343:-0.11602192 344:0.19060037 345:0.020063268 346:-0.27386042 347:0.20806134 348:-0.29517007 349:0.029331204 350:-0.091295466 351:0.039826099 352:-0.10928931 353:0.12798347 354:0.13108157 355:-0.015334845 356:-0.28380352 357:-0.048914362 358:0.23323581 359:1.7023096e-05 360:-0.089772992 361:-0.11262095 362:-0.11170378 363:-0.2104169 364:0.012851999 365:-0.059166141 366:0.021990675 367:-0.07643988 368:-0.16583407 369:0.03971377 370:0.12697203 371:0.044155031 372:-0.0022073055 373:0.078182742 374:0.22132355 375:0.10633078 376:0.19895646 377:0.0094704414 378:0.014264068 379:0.044695735 380:-0.11797611 381:-4.0768333e-05 382:-0.14723222 383:0.31637481 384:-0.061108466 385:0.17862147 386:-0.06691055 387:-0.018079525 388:-0.20575206 389:0.12320696 390:-0.10705122 391:-0.040751524 392:-0.13404594 393:-0.048132032 394:-0.16829936 395:0.024046997 396:0.058575932 397:0.0087299999 398:0.076635972 399:0.23598483 400:0.072072312 401:-0.12492882 402:0.004053432 403:-0.070708446 404:-0.11273145 405:0.026409687 406:0.24228996 407:0.067015015 408:0.09771359 409:0.021491835 410:0.13858284 411:-0.026557233 412:0.092689767 413:-0.11853334 414:0.010092767 415:0.030719725 416:0.2387702 417:0.0059422655 418:0.018791441 419:-0.055760331 420:-0.058510467 421:0.061164878 422:0.10420319 423:0.21872279 424:-0.2810469 425:0.045875184 426:-0.26410833 427:0.067079604 428:-4.8918111e-05 429:0.24045102 430:0.12865114 431:-0.067903429 432:-0.11605594 433:0.25848514 434:0.1439786 435:-0.035930801 436:-0.023906024 437:5.4351072e-05 438:-0.29387906 439:-0.061405059 440:-0.18134241 441:-0.089442402 442:0.19885623 443:-0.037597097 444:0.14958748 445:-0.3364841 446:0.057084851 447:-0.20058356 448:0.25657222 449:-0.16711131 450:-0.024962725 451:-0.028461797 452:2.4979769e-05 453:4.265672e-05 454:0.12169427 455:-0.14491202 456:0.082779385 457:0.069925264 458:0.10093397 459:0.024804031 460:0.066994816 461:0.013741883 462:0.06131687 463:-0.28452048 464:-0.27307221 465:-0.15125909 466:-0.1374491 467:0.0084378868 468:0.31924051 469:-0.02305207 470:0.21666151 471:-0.04704044 472:0.11064361 473:0.028567478 474:0.023568595 475:0.038647491 476:0.21391644 477:0.13354005 478:0.19115014 479:-0.27275911 480:3.053165e-05 481:-0.13196392 482:-0.12430869 483:-0.16449088 484:0.16824301 485:0.089859426 486:0.01555407 487:0.12455179 488:0.017808387 489:-0.011988434 490:0.25469613 491:0.30729291 492:0.097184896 493:-0.057156622 494:-0.036559228 495:-0.088123389 496:-0.14743243 497:0.13049053 498:-0.029483857 499:-0.10873423 500:-1.7405964e-05 501:0.037347637 502:-0.22006966 503:-0.11173247 504:0.20355122 505:-0.01372416 506:-0.10914338 507:-0.089613892 508:4.6871472e-05 509:-0.27491707 510:0.151531 511:-0.18493658 512:0.083500072 
0.03518016892376612 1:0.048015047 2:4.5917433e-05 3:0.036007777 4:0.059171308 5:-0.039486654 6:0.43718579 7:0.095205016 8:-0.029004075 9:-0.0066471463 10:-0.12773944 11:-0.0010692046 12:0.19504106 13:0.016038103 14:-0.12001801 15:0.04569732 16:0.024310812 17:-0.020843029 18:0.15095183 19:0.25713417 20:0.0070826095 21:0.078658067 22:-0.15994677 23:-3.3231441e-05 24:0.067695603 25:-0.024127537 26:-1.0580821e-05 27:0.098434649 28:0.037484657 29:0.035413619 30:0.11095136 31:0.029651914 32:-0.007518244 33:-0.15401635 34:5.029521e-05 35:-0.10734215 36:-0.026414178 37:0.011306316 38:1.9640202e-05 39:0.11622716 40:0.011306157 41:0.0092175482 42:3.2765958e-05 43:0.0081702778 44:-0.0070827086 45:3.3576318e-05 46:0.030777685 47:-0.24792439 48:-0.13567708 49:0.16143119 50:0.2677756 51:-0.1011981 52:1.9701778e-05 53:-0.052526917 54:-0.061961722 55:0.060532223 56:-0.034174174 57:2.4861671e-05 58:-0.012358258 59:-0.10597681 60:-0.23712619 61:-0.11554295 62:-0.18030976 63:-5.1869909e-05 64:0.33639899 65:-0.082490258 66:-0.19323575 67:-0.10333591 68:-0.09839946 69:-0.079189129 70:0.37817246 71:2.6182279e-05 72:0.338366 73:-1.32145e-05 74:0.062099706 75:1.9564783e-05 76:0.42084822 77:-0.23761755 78:-0.052365564 79:-0.22051816 80:-0.003784091 81:-0.026414277 82:-0.089082502 83:0.16624285 84:7.5034557e-05 85:-0.28131163 86:7.2141862e-05 87:9.3439357e-06 88:-0.054266751 89:-0.039211862 90:-0.058748797 91:-0.20301431 92:0.18290371 93:-0.057825956 94:-0.12042055 95:3.6873695e-05 96:-0.0012433359 97:-0.32667646 98:-0.080378227 99:0.24916601 100:0.054093607 101:0.094587818 102:0.36277926 103:-0.087580584 104:0.38792512 105:-0.24955304 106:0.30986696 107:-0.045348838 108:4.4895038e-05 109:-4.2428637e-05 110:5.6301076e-05 111:0.030106772 112:0.030363159 113:-0.18794125 114:0.069917478 115:-0.067169756 116:-0.097491801 117:-0.42111832 118:7.1750568e-05 119:-0.055681832 120:-0.011173286 121:1.2016503e-05 122:0.028102178 123:0.018264487 124:-0.045665212 125:0.018278757 126:-0.054317836 127:-0.017483233 128:0.024694776 129:-0.35597628 130:-0.056383323 131:1.8338782e-05 132:0.0038707363 133:1.9031053e-05 134:-3.6677564e-05 135:0.098434664 136:-0.058184672 137:3.3089822e-05 138:0.32322881 139:-0.031113461 140:0.018241802 141:-0.031352419 142:-0.070469998 143:0.16674343 144:-0.4935692 145:-3.7462669e-05 146:-0.11043535 147:-0.0081090918 148:0.023278832 149:-0.095431395 150:-0.36483398 151:-0.083485693 152:0.020571802 153:0.0045304126 154:5.4858014e-05 155:0.028993143 156:0.062254898 157:0.17915203 158:0.0089780521 159:-3.1094918e-05 160:-0.20200336 161:0.0059729763 162:0.16239983 163:0.05416793 164:0.096480653 165:0.085995443 166:-9.7521033e-06 167:0.013678989 168:0.12510352 169:0.21776445 170:-0.052921843 171:0.031968024 172:-0.14331798 173:-5.1431653e-05 174:3.1456799e-05 175:-1.6084177e-05 176:0.003637142 177:2.9929102e-05 178:3.7376245e-05 179:0.065932527 180:-1.0610523e-05 181:-0.095440678 182:0.41172257 183:0.11352164 184:0.37592918 185:0.36861467 186:-1.2777872e-05 187:-0.11217611 188:0.17487586 189:-4.2057891e-05 190:5.5122779e-05 191:0.27122459 192:0.087536931 193:0.065589875 194:0.048105132 195:-0.13029525 196:0.0064125238 197:-0.31711799 198:-0.070676289 199:0.087447427 200:-3.47768e-05 201:0.074161172 202:0.027904795 203:-0.03598389 204:3.5965313e-05 205:0.052152131 206:-0.033602748 207:0.088840656 208:0.19042656 209:-0.35398209 210:-0.10154127 211:0.010315331 212:-0.066420384 213:0.0011971 214:4.4341006e-05 215:-1.9162051e-05 216:-0.033950198 217:-0.015163905 218:0.33808088 219:0.085246369 220:0.1628065 221:3.6984125e-05 222:0.013233691 223:0.0058356975 224:-0.058708832 225:2.7508173e-05 226:0.25862813 227:3.1353833e-05 228:0.25910243 229:-2.9691209e-05 230:0.030542383 231:-0.048043236 232:-0.048660267 233:0.050548822 234:0.036078889 235:0.096565366 236:1.7801922e-05 237:-0.26611274 238:5.6839046e-05 239:0.021132527 240:0.36916003 241:-0.19784148 242:0.27536106 243:-0.20358907 244:-0.088032216 245:-0.023756087 246:0.15751275 247:0.057609759 248:0.19628732 249:-0.10119354 250:4.6966245e-05 251:-0.1152893 252:0.38060066 253:-0.21214235 254:0.32886294 255:-0.23136595 256:-1.6225245e-05 257:-0.041143641 258:-0.02018857 259:0.017642464 260:-0.034485377 261:-0.099718727 262:0.20975171 263:-0.026233109 264:-0.066506281 265:1.9951502e-05 266:-0.072457075 267:-0.39601186 268:-0.04064035 269:-4.0457442e-05 270:4.7611604e-05 271:0.036188364 272:0.013734528 273:0.043970656 274:-0.16301055 275:0.023241416 276:0.25523868 277:-0.15813011 278:-0.027589267 279:-0.34831169 280:-0.079968251 281:0.098777726 282:3.1218413e-05 283:0.045047522 284:-0.040640354 285:-4.3046777e-05 286:-0.060604759 287:-0.05956639 288:0.31177941 289:-0.1520319 290:-0.0096780285 291:0.0083591854 292:0.38582027 293:-0.012828241 294:-0.022375925 295:0.052672926 296:-0.0096508432 297:0.0065507572 298:0.087433927 299:0.13098435 300:0.20521422 301:0.041385118 302:-0.015393832 303:-0.0072797164 304:-0.041458301 305:-0.047848832 306:-0.17474779 307:-3.5830188e-05 308:2.7270342e-05 309:2.5234369e-05 310:-0.13043489 311:0.0089323297 312:4.4848613e-05 313:-4.3126165e-05 314:-0.080378212 315:0.063523114 316:-0.087050356 317:4.4048352e-06 318:0.047895174 319:0.1369409 320:-0.46240523 321:0.04629454 322:-0.36071175 323:4.424078e-05 324:3.5672248e-05 325:-0.0072799386 326:-0.34281394 327:-0.1039767 328:-0.31849092 329:-0.1710611 330:0.024694791 331:-0.088070825 332:-5.1116313e-05 333:-0.35144615 334:-1.8159841e-05 335:0.32553652 336:-1.8620945e-05 337:-0.020778056 338:2.8720398e-05 339:-0.019318881 340:-0.028494254 341:0.28649601 342:0.083764963 343:-0.012346675 344:0.11239281 345:0.047438513 346:-0.015655326 347:0.3897275 348:-0.14857638 349:-3.9833198e-05 350:-0.074134246 351:0.062218484 352:-0.031635493 353:0.29921931 354:0.19913368 355:0.028919756 356:-0.37817246 357:-0.031074367 358:0.13385504 359:-4.9313148e-05 360:-0.10016017 361:-0.0069599487 362:-0.28423434 363:-0.1547083 364:0.0075826338 365:-0.11811112 366:0.040070061 367:-0.061961744 368:-0.056383342 369:3.0938529e-05 370:0.16051087 371:-4.3017655e-05 372:-0.0099096168 373:5.7992322e-05 374:0.15191284 375:1.6770509e-05 376:0.036557592 377:0.050057627 378:0.094676867 379:0.010676188 380:-0.040303003 381:2.5820102e-05 382:2.7912551e-05 383:0.20972529 384:-4.445537e-05 385:0.21460627 386:-0.17918876 387:-0.045297705 388:-0.15140414 389:0.10469679 390:0.10903212 391:-0.10857702 392:0.03830009 393:0.016528061 394:-0.017055377 395:-3.7290803e-05 396:-0.05302877 397:0.013320412 398:0.062671624 399:0.049501188 400:-0.0033159002 401:-0.10213212 402:0.0032056796 403:-0.049123149 404:-0.0078498917 405:0.070676319 406:0.4044221 407:-0.0069443178 408:-2.6943995e-05 409:0.034960147 410:-0.0043190904 411:-0.024034956 412:0.10554705 413:-0.24085701 414:6.5276974e-05 415:0.10965767 416:-0.0056440472 417:3.2567972e-05 418:4.2086715e-05 419:-0.017761063 420:-0.013743453 421:0.10310072 422:0.040299434 423:-0.12313274 424:-0.11810961 425:0.017722677 426:0.12463666 427:1.6773105e-05 428:4.2932999e-05 429:0.089084327 430:-0.129659 431:0.096591108 432:-0.088675395 433:0.11149026 434:0.22156431 435:0.044071008 436:0.027205817 437:2.1660382e-05 438:0.39202335 439:-0.14429097 440:-0.041176125 441:-0.07596451 442:0.036332287 443:-0.012257126 444:-0.18966915 445:-0.071581736 446:0.032343458 447:-0.29668376 448:0.057190567 449:-0.04182576 450:-1.2723282e-05 451:-0.17474781 452:-8.7799308e-06 453:-1.7619332e-05 454:0.18887633 455:-0.013879295 456:-0.19377166 457:0.084306888 458:0.037574541 459:-3.7532212e-05 460:0.15623377 461:2.4134641e-05 462:5.6774159e-05 463:-0.057640135 464:0.013167961 465:-0.028268397 466:-0.055404238 467:0.010706488 468:0.36139742 469:3.5024648e-05 470:0.32629165 471:3.4377408e-05 472:0.086799815 473:0.016528009 474:1.4386125e-05 475:-2.5895812e-05 476:0.14486471 477:0.078289665 478:0.1535196 479:-0.32367355 480:-4.203722e-05 481:-0.091721065 482:-0.011726356 483:-0.27367315 484:-0.036603164 485:0.0059729917 486:6.271639e-05 487:0.036273293 488:8.0557933e-05 489:-0.019212317 490:0.05979624 491:0.058168963 492:0.15629975 493:-4.8785721e-05 494:-0.0056713377 495:-0.26840961 496:-0.055527337 497:0.15289395 498:2.2746462e-05 499:0.21612671 500:-2.3319632e-05 501:0.038932644 502:-0.16817822 503:-0.1133433 504:0.34594527 505:-3.9487695e-05 506:-0.15547659 507:-0.0098879542 508:-4.7713376e-05 509:-0.16415767 510:-0.12664913 511:-0.17205292 512:5.0295985e-05 
0.3477591943261541 1:0.20070507 2:4.0109786e-05 3:0.1648857 4:-0.076869912 5:0.013324534 6:0.2278102 7:-0.14782572 8:0.023255244 9:-0.13817459 10:-0.077242613 11:0.015834326 12:0.25160471 13:0.017445661 14:-0.074434556 15:0.032866489 16:-0.010283937 17:0.10876016 18:0.081578374 19:0.13193782 20:0.057019778 21:0.078352816 22:0.18291724 23:-0.048534006 24:-0.19337976 25:-0.026641289 26:-2.7736422e-05 27:0.03098399 28:0.07231234 29:-0.10470658 30:0.12641986 31:-0.027899239 32:0.0054411744 33:-0.033735875 34:3.3536038e-05 35:-0.058945548 36:-0.043451793 37:0.054389451 38:-0.013419521 39:0.044017542 40:0.069790892 41:0.03540482 42:0.0042775022 43:0.060656093 44:0.10652482 45:0.0096068075 46:-0.049761511 47:-0.21104945 48:-0.073434353 49:-0.09716592 50:0.049646541 51:-0.16845359 52:-0.059669029 53:0.039882921 54:0.042704456 55:0.13714539 56:-0.15578736 57:-0.038768411 58:-0.138482 59:0.14183636 60:-0.048666198 61:-0.032551855 62:-0.065186717 63:0.05781744 64:0.33221555 65:-0.090720668 66:-0.25772047 67:-0.02648559 68:-0.013519748 69:-0.036938243 70:0.1887389 71:-3.0985e-05 72:0.14610188 73:0.0040991525 74:0.097254612 75:0.059075452 76:0.14648607 77:-0.15905039 78:-0.065076843 79:-0.043689553 80:-0.056239624 81:0.0072137509 82:-0.17261742 83:-0.13785245 84:-0.017266022 85:-0.034238439 86:-0.091226831 87:-0.0037628373 88:-0.20305921 89:0.2087066 90:-0.047221683 91:0.032691762 92:-0.025671691 93:-0.00634109 94:-0.087034062 95:-0.0056934087 96:-0.082696006 97:0.058443725 98:0.035682362 99:-0.050575826 100:0.0075559085 101:0.026557863 102:0.15630291 103:-0.10451849 104:0.14975359 105:-0.33775997 106:0.12753505 107:0.029217999 108:0.0026289218 109:0.081924312 110:-2.6229412e-05 111:-0.021292195 112:0.20217399 113:-0.10462575 114:0.059628993 115:0.044510383 116:-0.26115423 117:-0.13816018 118:0.038283203 119:-0.047877312 120:0.042166051 121:-0.006564592 122:0.0054159104 123:-0.004013692 124:-0.042203479 125:-0.052432105 126:-0.18969007 127:0.067540325 128:0.037077129 129:-0.13873428 130:-0.011494178 131:0.050813802 132:0.0024536145 133:-0.14410903 134:1.6084177e-05 135:-0.12227968 136:0.018534014 137:-0.036674552 138:0.043333128 139:-0.044814169 140:-0.065854229 141:-0.0093065659 142:-0.048554257 143:0.04979549 144:-0.40220752 145:-0.056580976 146:-0.0024694935 147:-0.09984795 148:0.038937192 149:0.11696788 150:-0.11259884 151:-0.01755867 152:0.11544077 153:0.056218874 154:0.11863576 155:-0.085391007 156:0.047034748 157:0.036297865 158:0.026807737 159:-0.011133032 160:-0.30220646 161:0.011125376 162:0.24017349 163:-0.036840301 164:0.10689913 165:0.028198473 166:0.020982206 167:0.044670671 168:-0.034997027 169:-0.045217097 170:-0.19764075 171:0.13447364 172:0.057161111 173:-0.028352443 174:-0.052154798 175:-0.042165991 176:-0.078696027 177:0.010952234 178:-0.0015469285 179:0.065293096 180:-2.3680244e-05 181:-0.036685072 182:0.25757629 183:0.13713546 184:0.22969924 185:0.40813121 186:-0.012997598 187:-0.15009367 188:0.019603631 189:0.020960074 190:0.049464379 191:0.11444248 192:0.017155528 193:0.030693458 194:0.0063931081 195:-0.014812361 196:0.015663357 197:-0.085375577 198:0.042218935 199:0.043495573 200:-0.00058773521 201:0.13887405 202:-0.076461725 203:-0.016883465 204:0.050470144 205:-0.061118618 206:-0.026448078 207:-0.080838792 208:0.15194012 209:-0.067794703 210:0.10301773 211:0.039024938 212:0.022905663 213:0.063746139 214:3.6795831e-05 215:0.09240748 216:0.016932122 217:-0.0036201344 218:0.13434367 219:0.033933401 220:-0.046842955 221:0.017255409 222:0.051984698 223:0.081245221 224:-0.010859518 225:-0.08784683 226:0.050112043 227:-0.014737074 228:0.18347774 229:-0.0363032 230:-0.024019489 231:0.139531 232:-0.19886068 233:-0.064414337 234:0.037377547 235:-0.25877008 236:-0.05020462 237:0.2660614 238:-1.6896005e-05 239:-0.0019146716 240:0.38827154 241:-0.0096239028 242:0.20409556 243:0.0039791539 244:-0.055985834 245:0.11801697 246:0.035896767 247:0.05372183 248:0.23751073 249:-0.023488199 250:0.048831351 251:-0.14695676 252:0.16100043 253:0.053407148 254:0.12246422 255:-0.10476962 256:3.3291999e-05 257:-0.084361948 258:-0.24517898 259:-0.068620242 260:0.26189739 261:-0.014840405 262:-0.024581349 263:-0.040904682 264:-0.017521489 265:0.14907178 266:-0.1768925 267:-0.16641252 268:-0.05113494 269:-0.031640965 270:-0.015008635 271:0.0090656336 272:0.041548863 273:-0.015605997 274:-0.10193324 275:-0.015127952 276:0.16230245 277:-0.11430898 278:-0.042361375 279:-0.021760097 280:0.038920201 281:0.086241841 282:0.045237131 283:-0.033469256 284:-0.065513134 285:-3.3369517e-05 286:-0.044296555 287:-0.14903083 288:0.071811594 289:-0.34673658 290:-0.15706301 291:0.09334901 292:0.37377536 293:-0.12609555 294:-0.0057371203 295:0.016606836 296:0.079420261 297:-0.0041696723 298:0.016524112 299:0.015721949 300:0.026512995 301:-0.032243084 302:0.092932932 303:-0.12896259 304:-0.064160079 305:0.080610588 306:-0.10084635 307:0.0041146884 308:0.035433404 309:-0.011125293 310:-0.1991072 311:0.040231474 312:-1.0506082e-05 313:0.04412223 314:-0.0060801026 315:0.035736866 316:-0.13863182 317:-4.0215447e-05 318:0.022451181 319:0.1949486 320:-0.48536789 321:-0.012782095 322:-0.2601971 323:0.011422302 324:0.015320111 325:-0.1486543 326:-0.16594028 327:0.19044498 328:0.13241774 329:-0.095362581 330:-0.0032130545 331:0.044299893 332:5.2520911e-05 333:-0.41533324 334:0.010393342 335:-0.074712798 336:-0.0025959322 337:-0.1014946 338:5.1281942e-05 339:0.033161055 340:-0.066111431 341:0.10735567 342:0.003619035 343:-0.037518483 344:-0.052949164 345:0.061261091 346:-0.0047928281 347:0.20968835 348:-0.10410507 349:-3.0200548e-05 350:-0.04597988 351:0.041743733 352:-0.088552564 353:0.065642565 354:0.029689593 355:-0.05790453 356:-0.21699665 357:-0.006900345 358:0.067516014 359:-0.043824259 360:-0.20838895 361:-0.011956424 362:-0.053700138 363:-0.22191624 364:0.094343908 365:-0.051163007 366:0.015778095 367:0.060268909 368:0.081717238 369:-0.0034990269 370:0.014826619 371:0.055512883 372:-0.012439228 373:0.0055185659 374:0.110195 375:0.027402638 376:0.014104388 377:0.016684029 378:0.25685194 379:-0.10217787 380:-0.13098101 381:-3.5165685e-05 382:-0.022792654 383:-0.034239966 384:0.067663208 385:0.0086188251 386:-0.19766364 387:0.039253615 388:0.029896136 389:0.102808 390:-0.048600145 391:-0.013094508 392:-0.0022747107 393:-0.062838942 394:-0.056273315 395:0.074636117 396:-0.058269415 397:0.035036009 398:-0.0274882 399:0.14879054 400:-0.053792115 401:0.25417748 402:-0.065923803 403:-0.034195404 404:0.021641675 405:0.0025492518 406:0.18193087 407:-0.080070145 408:-0.085466355 409:0.065751016 410:-0.040180225 411:-0.014917968 412:0.014257351 413:-0.12640972 414:0.0070864148 415:0.17215548 416:0.0044330382 417:-0.06349162 418:1.5369329e-05 419:0.018695369 420:-0.0084570944 421:0.034741741 422:-0.054783378 423:-0.060493063 424:0.20451964 425:0.12921308 426:0.17623107 427:0.090111397 428:-3.0931998e-05 429:-0.02590796 430:-0.023809113 431:0.06235927 432:-0.0039022071 433:-0.062986799 434:0.05044258 435:0.25907475 436:0.14978121 437:-0.26293716 438:0.20958856 439:-0.079159647 440:0.027778858 441:-0.010485348 442:0.076323584 443:-0.016632773 444:-0.23211597 445:-0.0090889223 446:0.12173928 447:-0.15230389 448:0.12793893 449:-0.041043412 450:-0.0067526773 451:-0.10100789 452:-5.8722117e-06 453:2.9020628e-05 454:-0.046925407 455:-0.032975677 456:-0.098144442 457:0.048405342 458:0.11999004 459:0.011831106 460:0.10175002 461:-0.025004268 462:-0.024130074 463:-0.15042055 464:-0.01820098 465:0.15069053 466:0.15442826 467:0.013982363 468:0.37665239 469:-0.10003476 470:0.21243985 471:0.031415205 472:-0.03918162 473:0.011725299 474:-0.012101307 475:-0.0081970468 476:-0.05044077 477:-0.050721467 478:0.052000791 479:-0.18403202 480:-0.022804318 481:-0.015140903 482:0.028366024 483:-0.037067782 484:-0.09634462 485:0.031093173 486:0.034490563 487:0.083312817 488:-0.031104358 489:-0.12189228 490:0.039406251 491:-0.037136056 492:0.096600376 493:0.12440964 494:-0.0057857372 495:0.16715801 496:-0.074616656 497:0.23872618 498:0.10043205 499:-0.067028791 500:-0.10441022 501:0.01255831 502:0.036000814 503:0.09903203 504:0.14726613 505:-0.019717328 506:-0.091183931 507:-0.10613753 508:-0.077001408 509:-0.10143899 510:0.092002444 511:-0.1002373 512:0.084124304 
0.04195234427005116 1:0.057485342 2:-0.040662717 3:0.28739268 4:-0.02211014 5:0.073247023 6:0.063075908 7:-0.43495038 8:-0.059164319 9:-0.089151427 10:-0.14142013 11:-0.059625175 12:0.11136795 13:0.029229257 14:-0.033926353 15:-0.14576904 16:-0.031069128 17:0.022853674 18:-0.035932478 19:-0.060954981 20:0.052154087 21:-0.044507846 22:-0.02368992 23:-0.071056165 24:-0.027228447 25:-0.092947513 26:0.15553567 27:0.053537644 28:0.065379255 29:-0.10537032 30:-0.075250007 31:0.082011513 32:-0.058647964 33:-0.017357662 34:-0.39467877 35:-0.036461134 36:0.0035781558 37:-0.048572965 38:0.088742189 39:0.038583335 40:0.059368409 41:0.03604969 42:0.030592641 43:0.1051373 44:0.11952962 45:0.027057435 46:-0.055659879 47:-0.0752123 48:-0.030465389 49:0.084262639 50:-0.016667733 51:-0.045113299 52:0.040986326 53:-0.057171289 54:-0.016776048 55:0.061363548 56:0.13500141 57:0.013556796 58:-0.098191082 59:0.16199465 60:0.075097255 61:0.23010974 62:-0.095356584 63:0.02482385 64:-0.31492251 65:-0.042540975 66:-0.040962141 67:0.18766038 68:0.020527452 69:0.0073006582 70:0.058890168 71:0.0033825783 72:0.05068418 73:0.028174365 74:-0.03264524 75:-0.024190957 76:-0.050873842 77:-0.049307257 78:0.02638354 79:-0.013409697 80:-0.14320767 81:0.071643561 82:0.14869523 83:-0.15892409 84:-0.035894956 85:-0.17928793 86:0.044612467 87:0.056610815 88:0.18820079 89:0.095129624 90:-0.064241298 91:0.022404008 92:-0.054412838 93:-0.021091314 94:0.04887582 95:0.01751337 96:0.21623583 97:0.23795798 98:-0.35052887 99:-0.090145946 100:0.10680961 101:-0.0048007891 102:-0.1559649 103:-0.037599292 104:0.05161725 105:-0.075939566 106:0.043931931 107:-0.058194976 108:2.6183143e-05 109:-0.012039087 110:0.004070051 111:-0.044778518 112:0.16936044 113:-0.15957208 114:0.075011887 115:-0.047582455 116:-0.1999162 117:0.081073798 118:0.046825748 119:0.025645979 120:0.32690409 121:-0.013462647 122:0.13004628 123:-0.054970894 124:-0.043224487 125:-0.32777283 126:0.024503594 127:0.0062832483 128:-0.026696151 129:0.023007212 130:-0.018487332 131:-0.10880052 132:0.049291313 133:-0.018751632 134:0.028717637 135:-0.099030644 136:-0.24984381 137:0.052740555 138:0.33325723 139:0.30507398 140:-0.22278699 141:-0.42993277 142:-0.048236221 143:0.1980184 144:-0.095019013 145:0.080679618 146:-0.14907575 147:-0.10224946 148:0.065176368 149:0.073491305 150:0.07971146 151:0.0077800215 152:-0.016631387 153:-0.023366142 154:0.067927524 155:0.036055852 156:0.096194394 157:-0.21604896 158:-0.24148515 159:-0.12839629 160:-0.15740317 161:-0.13735566 162:-0.028206257 163:-0.046017099 164:0.05111862 165:0.036679268 166:-0.12754706 167:0.036011383 168:-0.0161635 169:-0.30647755 170:-0.018306565 171:0.017902181 172:-0.10058749 173:-0.011010502 174:0.1005784 175:0.019878034 176:-0.10198367 177:-7.2468094e-05 178:0.045250896 179:-0.049208995 180:0.0096404292 181:-0.35355282 182:0.17800289 183:-0.042071611 184:0.015842309 185:0.12487995 186:0.034342319 187:0.10500076 188:-0.030225651 189:0.0033047639 190:0.03245743 191:-0.020979865 192:-0.0081660645 193:-0.19355838 194:-0.094264723 195:0.10683718 196:0.093636602 197:-0.10376557 198:-0.064223267 199:0.050783519 200:-0.0090385331 201:0.025887674 202:0.036249105 203:0.022821398 204:0.0047140247 205:0.23044391 206:-0.042304162 207:-0.16657887 208:-0.011423438 209:0.064991936 210:0.026752219 211:-0.034819167 212:0.046093732 213:0.056412458 214:0.04298532 215:-0.061448563 216:-0.081039317 217:0.086982109 218:0.052597094 219:0.035634242 220:-0.0097294832 221:-0.059759323 222:-0.12576152 223:0.023677342 224:0.0044478481 225:-0.053770822 226:-0.067946203 227:-0.029405113 228:0.051137138 229:-0.0055728164 230:0.35543889 231:0.10795245 232:0.23617202 233:0.23223191 234:-0.28253055 235:-0.33303288 236:0.11449868 237:0.14196107 238:-0.057381112 239:0.022899196 240:0.074572414 241:-0.046796426 242:-0.006883319 243:0.022574345 244:0.028481849 245:0.075722404 246:0.071918331 247:0.0337146 248:0.092717551 249:0.014600964 250:0.021427263 251:-0.075659849 252:-0.14120613 253:-0.096839309 254:-0.22049385 255:-0.025805434 256:0.35072634 257:0.056547418 258:-0.50021428 259:0.038566697 260:-0.1315593 261:0.041854799 262:-0.024231968 263:-0.0075428784 264:-0.06793201 265:-0.099495731 266:-0.090306953 267:-0.12773736 268:0.033593677 269:-0.029711368 270:0.23113662 271:0.01174356 272:-0.05103679 273:0.070527285 274:-0.06570895 275:-0.14944111 276:-0.16925004 277:-0.04175248 278:-0.020103049 279:0.060994823 280:0.01513584 281:-0.046532676 282:-0.011384306 283:-0.037529644 284:0.051198464 285:0.056165632 286:0.097704224 287:-0.013075131 288:-0.012098815 289:-0.1604058 290:-0.051150359 291:-0.041613866 292:0.13362445 293:-0.095368467 294:0.078317761 295:0.062695712 296:-0.080558047 297:0.1323088 298:-0.015854964 299:-3.560384e-05 300:0.078886531 301:0.052230828 302:-0.021724835 303:-0.12605534 304:0.0024197623 305:-0.32909885 306:0.026224269 307:0.46069667 308:0.011324569 309:-0.22335495 310:-0.038322315 311:-0.020175707 312:0.029244075 313:0.063202292 314:0.1298614 315:0.036296152 316:-0.15593766 317:0.0089881886 318:-0.032890484 319:0.13022532 320:-0.17603396 321:0.30833414 322:-0.099057376 323:0.016849449 324:-0.02995556 325:0.11208357 326:0.048858985 327:0.047033191 328:-0.12381358 329:-0.022078944 330:0.0425185 331:0.083628044 332:0.01505484 333:-0.084761776 334:0.061530907 335:-0.04632026 336:0.13772291 337:0.03741223 338:0.11747564 339:-0.0055507589 340:0.010288846 341:0.14103131 342:-0.027426468 343:-0.089862898 344:-0.11191776 345:-0.16964374 346:0.010478136 347:0.084765255 348:-0.010964159 349:-0.010367892 350:-0.31904367 351:0.018070534 352:-0.04044053 353:0.39437044 354:0.093530625 355:-0.04508137 356:-0.10885288 357:0.076634161 358:0.033164643 359:0.10903115 360:-0.11713677 361:-0.049106639 362:0.030700205 363:-0.024500165 364:0.13689665 365:0.1229492 366:-0.050714206 367:0.05829278 368:0.0019626461 369:0.0858474 370:-0.058605231 371:-0.048632938 372:-0.14007573 373:-0.036968321 374:0.03720355 375:0.036800504 376:0.011711358 377:-0.29411551 378:0.016801918 379:-0.059722316 380:0.38050112 381:2.2746461e-05 382:-0.041557167 383:0.052438993 384:0.022330215 385:-0.043710995 386:0.047761708 387:0.20630395 388:0.12240142 389:0.13291346 390:0.038323008 391:0.011942113 392:0.015272274 393:0.039023899 394:0.024525311 395:-0.033663347 396:-0.2694101 397:-0.051182549 398:0.36850497 399:0.022874249 400:-0.15460314 401:0.085278146 402:0.10715278 403:0.024989007 404:-0.059277456 405:-0.12352937 406:-0.03689304 407:0.029779589 408:-0.010910988 409:-0.017435357 410:-0.06310118 411:-0.19126967 412:0.0054382831 413:0.13633335 414:0.0088728881 415:0.083221465 416:0.10948221 417:0.072654948 418:-0.017457651 419:-0.025427226 420:-0.0070804502 421:-0.011461161 422:0.024342716 423:0.042101484 424:0.11617915 425:0.02871922 426:0.080421969 427:-0.049717527 428:0.077043034 429:0.098801024 430:-0.08549796 431:0.067824714 432:0.098790616 433:-0.080873154 434:0.037988279 435:0.050021593 436:-0.16958685 437:-0.030133411 438:-0.12247968 439:-0.085219562 440:-0.055414397 441:-0.068742476 442:0.018662436 443:0.022877237 444:0.065502949 445:-0.028102454 446:0.28224993 447:0.30225179 448:0.090297863 449:-0.051529691 450:-0.043925822 451:-0.024804762 452:-0.04872397 453:0.01625425 454:0.11227421 455:0.068534039 456:0.0576341 457:0.067255214 458:-0.050999701 459:-0.13978063 460:0.082257897 461:-0.023715056 462:0.18098114 463:-0.068908177 464:-0.10383531 465:0.027562352 466:0.12715732 467:0.048965182 468:0.098624006 469:-0.044611976 470:0.46790448 471:0.051118553 472:0.058775414 473:0.23744963 474:0.27782944 475:-0.033347931 476:0.1042536 477:0.10068234 478:0.046900306 479:-0.030777685 480:-0.022396514 481:0.0222467 482:0.059970487 483:-0.0086423475 484:0.049135268 485:0.011958898 486:0.011772236 487:0.018028906 488:0.03940475 489:-0.15733472 490:-5.0607679e-05 491:-0.077197142 492:-0.039903335 493:-0.089326888 494:0.054513026 495:-0.041429948 496:-0.10634666 497:0.42307732 498:-0.068690561 499:-0.061640259 500:-0.063205376 501:0.033907618 502:-0.072977223 503:0.066280469 504:-0.061400477 505:-0.018388201 506:-0.087984659 507:0.17025794 508:-0.017653745 509:0.1063929 510:-0.044710897 511:0.031010564 512:-0.25499994 
0.1466795527783294 1:0.12405699 2:0.044141158 3:-0.10541274 4:-0.019882491 5:-0.13033016 6:0.093372338 7:-0.26536244 8:0.030708475 9:0.077142641 10:-0.36918461 11:0.2185476 12:0.02681024 13:-0.10112712 14:0.077079363 15:-0.11558983 16:-0.055427354 17:0.045446567 18:0.24515425 19:-0.030021222 20:0.099696189 21:0.061637312 22:-0.18072452 23:-0.056194395 24:0.037242405 25:-0.034039542 26:0.037592299 27:0.035904668 28:0.066615522 29:-0.14148703 30:-0.15258923 31:0.079761036 32:-0.28284946 33:-0.046504702 34:0.021473588 35:0.074508518 36:0.041419525 37:0.20341432 38:0.14585581 39:0.019293703 40:0.040711977 41:0.0076543516 42:2.7478769e-05 43:-0.14267579 44:0.14400898 45:-0.053677946 46:0.037420686 47:0.14018017 48:0.14591065 49:-0.056605924 50:0.14352702 51:-0.082701489 52:0.061502464 53:-0.032614548 54:-0.027713716 55:-0.2221581 56:-0.016295072 57:0.085187666 58:-0.045903448 59:0.064251073 60:-0.10547773 61:0.15212221 62:-0.032086607 63:-0.13740326 64:0.18940654 65:-0.035548855 66:0.15494314 67:0.12347871 68:0.10992502 69:0.0052092914 70:0.1451374 71:0.024236023 72:-0.019596033 73:0.069007449 74:0.010903676 75:-0.057493079 76:-0.07634718 77:-0.11523929 78:-0.059366301 79:-0.062107172 80:0.0093080858 81:-0.077506512 82:0.25512335 83:-0.10602373 84:0.027086275 85:-0.072328962 86:-0.18235862 87:0.050421655 88:-0.089537486 89:0.13131757 90:0.053513639 91:-0.15397339 92:-0.039060835 93:0.14175446 94:0.065524988 95:0.053548884 96:-0.092132337 97:-0.11720812 98:-0.085842356 99:-0.21976846 100:-0.042802077 101:-0.054843642 102:0.039902221 103:-0.11019389 104:0.013498098 105:-0.15526783 106:0.10882284 107:-0.069161721 108:0.072871648 109:-0.12005642 110:-0.069756411 111:-0.17810903 112:0.059895519 113:0.14416933 114:0.012599123 115:0.018068679 116:-0.098574974 117:0.035024088 118:-0.27315697 119:-0.012340219 120:0.087566286 121:-0.02090298 122:-0.07197015 123:-0.073378973 124:0.15081915 125:-0.042058356 126:-0.21692678 127:0.041543577 128:0.052017935 129:0.093213938 130:0.13183588 131:-0.056583684 132:-0.020568928 133:-0.1653499 134:0.11702811 135:-0.048208963 136:0.13698134 137:0.024342507 138:0.13993591 139:-0.12318437 140:-0.093364887 141:-0.070345029 142:-0.066282943 143:0.25462818 144:-0.19987869 145:-0.069742262 146:0.080770127 147:0.023964943 148:-0.15592222 149:0.056801844 150:0.18269417 151:0.23198019 152:0.11846461 153:0.14207329 154:0.029204993 155:0.0662487 156:0.083790503 157:0.21826555 158:-0.13210586 159:-1.6869224e-05 160:-0.13398238 161:0.19322719 162:0.17376843 163:0.15753008 164:-0.070085928 165:0.28343466 166:-0.12477077 167:0.035536714 168:-0.064647906 169:-0.25998211 170:-0.15155591 171:0.11926217 172:0.151002 173:0.16770571 174:0.15868473 175:0.075197034 176:0.20685303 177:-0.028873296 178:0.098795325 179:0.036428455 180:0.16250962 181:0.2337195 182:0.091186352 183:0.032446343 184:-0.28151676 185:-0.1210649 186:0.17322767 187:0.085946828 188:0.076116979 189:0.11728553 190:0.015597955 191:0.021501042 192:-0.066726856 193:-0.056590095 194:-0.027351843 195:0.11627423 196:0.10184394 197:0.042593908 198:-0.075358175 199:0.12885715 200:1.9090905e-05 201:0.10295341 202:0.089802697 203:-0.12182768 204:0.00178496 205:-0.060767379 206:-0.070715442 207:-0.3311851 208:-0.043869104 209:0.072977237 210:-0.1625399 211:0.1165118 212:0.032162607 213:0.044992894 214:-0.23627527 215:0.028813165 216:-0.034557533 217:0.066562101 218:0.11475912 219:0.033368468 220:-0.0022486513 221:-0.00096222776 222:-0.45901632 223:0.093580931 224:-0.034572482 225:-0.13194776 226:0.020628039 227:0.054153103 228:0.049668953 229:0.12113108 230:-0.098632663 231:-0.033813186 232:0.22239165 233:-0.070411496 234:0.051663764 235:-0.054618206 236:-0.032829981 237:-0.14172123 238:2.7823167e-05 239:0.33016577 240:0.20693804 241:0.12165247 242:-0.020741249 243:-0.053928845 244:0.21222568 245:0.035537761 246:-0.041577391 247:-0.056381825 248:0.10592782 249:-0.12777585 250:0.012921553 251:0.13024712 252:-0.15337087 253:0.01503773 254:0.17751737 255:-0.10771978 256:0.027537614 257:0.070558883 258:0.047999218 259:-0.044482119 260:-0.15399075 261:0.12801908 262:-0.018834474 263:-0.1610925 264:-0.053227618 265:0.10070737 266:0.056219999 267:-0.2186361 268:0.016540684 269:0.15064205 270:0.032835238 271:-0.016650951 272:0.05855725 273:-0.17898782 274:-0.095425382 275:-0.25805902 276:0.10256384 277:-0.12343785 278:-0.04096612 279:-0.085727617 280:0.024938982 281:0.053705458 282:0.16028239 283:-0.12483012 284:-0.045712125 285:0.082548149 286:0.10545074 287:-0.096427254 288:-0.041394595 289:-0.11157803 290:0.051433925 291:0.12268025 292:0.11006226 293:-0.056318879 294:0.011569583 295:-0.21028216 296:-0.051730461 297:-0.076531045 298:0.017900765 299:0.052753523 300:-0.029992012 301:-0.27630049 302:-0.032777064 303:-0.12953052 304:-0.056213602 305:0.10458611 306:-0.040943425 307:-0.22598769 308:0.0073282332 309:-0.20116909 310:0.05548222 311:0.052347735 312:0.053896867 313:-0.1243128 314:-0.05202141 315:0.054566473 316:-0.12133507 317:0.094716154 318:-0.11016346 319:-0.09458486 320:-0.33209795 321:0.25640142 322:-0.15502875 323:0.0009589016 324:0.1375071 325:0.029705463 326:-0.053412646 327:0.05145118 328:0.06754224 329:-0.20093893 330:-0.078248993 331:0.083996318 332:-0.023326287 333:-0.10303079 334:0.026295457 335:-0.047174957 336:0.25533438 337:0.12950072 338:0.053606514 339:0.045556623 340:-0.12783898 341:0.095677853 342:-0.064623334 343:-0.014662812 344:-0.29726115 345:0.062156316 346:-0.15983914 347:-0.13798851 348:0.17334841 349:0.051858783 350:-0.075295277 351:0.11894088 352:-0.064706571 353:0.069070086 354:-0.13120463 355:0.024521712 356:-0.15541069 357:-0.14023308 358:0.13482246 359:0.059881791 360:-0.15057847 361:0.12732983 362:0.12261751 363:0.31407949 364:0.081251159 365:-0.10965278 366:-0.073509015 367:-0.11453061 368:0.056351226 369:0.028395114 370:-0.023651833 371:-0.060780227 372:-0.016919354 373:0.077158332 374:0.043267652 375:0.020629389 376:0.1669129 377:0.0017066268 378:0.054119967 379:0.041379187 380:-0.11031061 381:-0.012266641 382:0.18274233 383:0.1208472 384:0.024953764 385:0.068371437 386:-0.037769485 387:0.044746585 388:0.16668668 389:0.19244286 390:-0.084048033 391:-0.063733101 392:-0.092743695 393:-0.045948382 394:0.057114407 395:-0.016004559 396:0.01781548 397:-0.055747267 398:0.078479089 399:0.089495242 400:-0.10556029 401:0.2997323 402:0.10179242 403:-0.20572138 404:0.15039562 405:0.021051783 406:0.1291886 407:0.074666776 408:-0.093528248 409:0.14019486 410:-0.091692902 411:-0.020769056 412:0.011451317 413:-0.12389759 414:0.096445732 415:0.14768906 416:0.24618372 417:-0.11652833 418:-0.086200155 419:0.045970552 420:1.9028623e-05 421:-0.13292356 422:0.041958001 423:0.04712642 424:-0.054380931 425:0.11905085 426:-0.17505825 427:0.0090046404 428:-0.093902007 429:0.248633 430:0.067244574 431:0.058611952 432:0.14546771 433:-0.09754204 434:0.10822169 435:0.085956819 436:0.21322241 437:-0.094341204 438:0.024901873 439:0.10496686 440:-0.1847707 441:0.11904239 442:0.25939029 443:-0.012956616 444:0.30608502 445:-0.056746263 446:0.15959939 447:-0.058194224 448:0.014336905 449:-0.036650669 450:-0.0044974228 451:0.36517692 452:1.1010232e-05 453:0.016115956 454:0.095439859 455:-0.030645134 456:0.026749803 457:-0.040603042 458:-0.034185853 459:0.21959764 460:0.10329612 461:0.16719164 462:-0.11770956 463:-0.11858918 464:-0.18178073 465:0.28406304 466:0.14944626 467:0.11323051 468:0.11346383 469:-0.11961525 470:0.048742861 471:0.094836779 472:-0.060272314 473:0.1318092 474:-0.12035006 475:-0.019920953 476:0.075471506 477:0.03777191 478:0.13339093 479:-0.11345631 480:0.022609493 481:0.19061548 482:0.0085036848 483:0.10822983 484:-0.22913513 485:0.0079518761 486:0.1386627 487:0.2331343 488:0.10417226 489:-0.025978284 490:-0.013339562 491:0.050844066 492:0.085860401 493:-0.028038211 494:-0.12133895 495:0.12694548 496:-0.18409398 497:0.33883312 498:0.02599936 499:-0.082629569 500:0.0027769238 501:0.14315419 502:-0.059701782 503:0.049195617 504:-0.06859193 505:0.10550136 506:-0.20660198 507:-0.068880178 508:0.033452213 509:0.072688058 510:0.040825129 511:-0.030112084 512:-0.17562935 
